<?xml version="1.0"?>
<opencv_storage>
<my_svm type_id="opencv-ml-svm">
  <svm_type>C_SVC</svm_type>
  <kernel><type>LINEAR</type></kernel>
  <C>1.2500000000000000e-01</C>
  <term_criteria><epsilon>1.1920928955078125e-07</epsilon>
    <iterations>1000</iterations></term_criteria>
  <var_all>1296</var_all>
  <var_count>1296</var_count>
  <class_count>2</class_count>
  <class_labels type_id="opencv-matrix">
    <rows>1</rows>
    <cols>2</cols>
    <dt>i</dt>
    <data>
      -1 1</data></class_labels>
  <sv_total>1</sv_total>
  <support_vectors>
    <_>
      1.40453681e-01 2.90160850e-02 -6.60643876e-02 -6.68605641e-02
      4.15792428e-02 1.98333561e-01 8.45590159e-02 -8.66364464e-02
      3.49073182e-03 -9.95752588e-02 8.11996758e-02 3.16488445e-02
      -8.21861699e-02 -4.34064493e-02 -1.71791956e-01 3.59878577e-02
      -4.07367898e-03 8.60102624e-02 4.06956673e-02 -1.17385715e-01
      6.03058003e-02 1.49591584e-02 -8.01971834e-03 -4.34595272e-02
      -1.52360082e-01 -1.70075279e-02 -6.97031692e-02 4.23416644e-02
      9.49016437e-02 1.30809873e-01 5.24986796e-02 -1.60715416e-01
      4.62894700e-02 -1.45032033e-02 4.45318408e-02 -2.50630938e-02
      -8.44778195e-02 -1.34079754e-01 -1.00951731e-01 1.14799246e-01
      1.03559539e-01 9.52562019e-02 3.24273519e-02 1.94812939e-02
      -4.47536185e-02 -1.57084186e-02 6.61657453e-02 -2.43822969e-02
      5.44877090e-02 6.61268979e-02 -1.07020870e-01 -1.24392044e-02
      4.40642498e-02 8.72613713e-02 8.07978809e-02 1.65691171e-02
      1.66911557e-01 -1.22580454e-01 -4.65526283e-02 -2.12237593e-02
      -5.16277365e-02 -7.36376196e-02 5.52086048e-02 5.40835485e-02
      7.17028826e-02 -6.30783476e-03 2.64498312e-02 -5.40648075e-03
      2.30136923e-02 9.81040001e-02 -3.65977660e-02 -5.97123057e-02
      4.42579463e-02 -1.82766058e-02 -5.48026599e-02 -2.61641685e-02
      -7.03245029e-03 1.40970992e-03 1.27216270e-02 -3.44759002e-02
      -5.05149812e-02 9.62684527e-02 -2.24458650e-02 1.15986625e-02
      1.46865724e-02 7.85592347e-02 6.06832616e-02 -2.26086341e-02
      -1.11485724e-05 2.26939023e-01 8.19586068e-02 -7.13751316e-02
      1.33519262e-01 4.27185930e-03 -1.20572802e-02 3.27930674e-02
      -9.23045054e-02 1.28792182e-01 1.81842446e-01 -2.80093346e-02
      -5.33985049e-02 1.26859665e-01 -2.69169956e-02 -1.96527094e-01
      -4.26101461e-02 2.38372777e-02 1.06240004e-01 1.01069421e-01
      1.37487993e-01 -1.00777134e-01 -3.54401618e-02 1.41643947e-02
      4.19806913e-02 5.49477078e-02 1.58793733e-01 4.23836894e-02
      -7.96223879e-02 7.24696741e-02 -2.37548780e-02 -1.04400955e-01
      -1.21540815e-01 6.16090931e-02 -6.32177368e-02 5.09200059e-02
      -5.69126345e-02 1.61561649e-02 7.99261332e-02 -4.05996628e-02
      4.42004576e-02 5.12145907e-02 -5.07911807e-03 -3.42386728e-03
      1.00096852e-01 1.97335575e-02 3.42628062e-02 -8.74242187e-02
      9.64933727e-03 -5.35059422e-02 -1.35036483e-01 -2.33732015e-02
      -3.88146490e-02 3.77803184e-02 -7.21404180e-02 -5.58127910e-02
      -1.57544110e-02 -2.54521891e-02 1.93445645e-02 -2.73217577e-02
      1.06601343e-02 6.89511970e-02 -1.47301267e-04 1.29781798e-01
      6.61969557e-02 -3.17082889e-02 2.01222561e-02 -1.94616914e-02
      1.04975484e-01 4.13648188e-02 -6.31741956e-02 -1.48978248e-01
      3.13214362e-02 -6.94081262e-02 -5.87769970e-02 -6.10479563e-02
      8.95861611e-02 -1.41937416e-02 5.03626745e-03 -1.81423444e-02
      -6.55267853e-03 4.42154333e-02 9.41038951e-02 -3.78705636e-02
      -1.45231515e-01 8.04157332e-02 -1.06016040e-01 -2.72261295e-02
      -4.40832376e-02 1.52971610e-01 -1.12296045e-01 -3.59036215e-02
      2.60528065e-02 3.74318962e-03 4.58125547e-02 -6.04021624e-02
      -1.08398069e-02 1.25919729e-01 1.34212464e-01 -1.14314452e-01
      3.02793998e-02 1.04534645e-02 -1.48522481e-02 -2.76304688e-02
      6.99059814e-02 1.61957964e-01 3.76910269e-02 1.89642385e-02
      -1.16625592e-01 -1.44034937e-01 4.25776355e-02 -1.85055643e-01
      -1.39415294e-01 1.18979372e-01 -3.08319591e-02 3.11887804e-02
      -6.44105971e-02 -3.35582234e-02 2.05385662e-03 -3.96764204e-02
      -1.69462077e-02 1.44107435e-02 -6.66446090e-02 2.33647935e-02
      -1.75406206e-02 5.76722845e-02 -1.94484275e-02 -8.32094625e-02
      -8.74855667e-02 -1.20901383e-01 -1.33309200e-01 2.35394072e-02
      8.53381827e-02 3.74670699e-02 1.33269966e-01 -9.04480089e-03
      -3.75381038e-02 -2.65373439e-02 6.98045790e-02 -9.85222310e-03
      1.71861146e-02 1.19298920e-01 -5.90965562e-02 -4.23316211e-02
      1.18410796e-01 6.96388111e-02 -1.14628822e-01 6.23779893e-02
      -6.16863184e-03 5.35578653e-02 -5.91374934e-02 -3.39162685e-02
      -3.88037078e-02 6.67201802e-02 -7.51107335e-02 8.53750482e-02
      6.88066930e-02 4.75019552e-02 7.48159587e-02 -5.94197363e-02
      3.73435044e-03 2.56303344e-02 -7.47133046e-02 -7.40255937e-02
      6.51500970e-02 3.24542038e-02 2.15428974e-02 1.15851127e-01
      7.38330232e-03 -2.87865717e-02 -2.80115902e-02 4.37518917e-02
      1.50139660e-01 -4.34727818e-02 -1.76710144e-01 -6.27499521e-02
      2.72294180e-03 -5.62599627e-03 -8.13448578e-02 -5.68863098e-03
      -3.93928774e-02 -5.51695377e-02 5.81932552e-02 -2.82546133e-02
      -1.25425085e-01 6.83584288e-02 -1.10785533e-02 1.83701083e-01
      1.24483071e-02 3.33654024e-02 4.27790824e-03 -9.43757519e-02
      -1.96370065e-01 -1.55558258e-01 2.65149679e-02 7.07354397e-03
      3.72297838e-02 -1.36300221e-01 -1.03210703e-01 -1.17248356e-01
      -1.65898487e-01 -1.94453672e-01 -1.05207384e-01 -3.31613980e-02
      -4.64349659e-03 1.48149073e-01 1.74152646e-02 -3.19671631e-02
      -1.56610504e-01 -2.17687160e-01 -2.76167125e-01 -1.01820908e-01
      1.04792647e-01 2.57563125e-02 -2.13043377e-01 -1.17091715e-01
      -1.77554682e-01 -1.04877269e-02 6.42211139e-02 -1.91217616e-01
      -1.22194722e-01 -1.80236176e-02 -9.76305902e-02 8.44329409e-03
      8.99622366e-02 3.96123528e-02 -4.37960103e-02 -5.40919155e-02
      -5.90743348e-02 -1.36091456e-01 -2.18580700e-02 7.07431138e-02
      2.29810383e-02 3.07610654e-03 -1.74419865e-01 -1.78730205e-01
      -8.57304186e-02 -1.62901074e-01 -9.73670837e-03 -1.48426155e-02
      -2.89821532e-02 9.41848084e-02 9.61585063e-03 -9.82344523e-02
      -3.44847798e-01 -1.21396296e-01 -7.41211176e-02 -7.66238421e-02
      -7.44069815e-02 6.88706487e-02 3.78664322e-02 -2.72006959e-01
      -9.07302573e-02 -1.79753155e-01 6.43544197e-02 4.62766960e-02
      3.17913257e-02 6.79817842e-03 -3.63457296e-03 -1.25209644e-01
      5.49088903e-02 -1.39703289e-01 1.07596405e-01 -7.13222176e-02
      3.20430705e-03 9.12967790e-03 -2.25251704e-01 -1.44474879e-01
      -1.12936899e-01 -2.25395337e-01 -6.76562116e-02 -2.79278994e-01
      1.60182416e-01 1.27682582e-01 -1.20244585e-01 -7.76847750e-02
      7.15167969e-02 -1.21259414e-01 -2.18368713e-02 5.83843852e-04
      1.22491382e-02 -7.44072497e-02 2.36091972e-03 1.35082573e-01
      -1.02077136e-02 4.64993156e-02 1.47420108e-01 -1.39375627e-01
      -2.17544734e-02 -8.27018097e-02 -5.68586327e-02 -2.19591707e-01
      -1.63190857e-01 -9.92051437e-02 -1.88417025e-02 -9.79760364e-02
      -1.66028991e-01 1.65799204e-02 -1.21645942e-01 -1.04195707e-01
      -2.57934295e-02 -1.17794618e-01 1.44984737e-01 -5.13024889e-02
      -9.29291695e-02 6.52958006e-02 -8.23843479e-03 -8.61075073e-02
      5.87712489e-02 3.53925340e-02 -4.25238209e-03 -1.41314626e-01
      3.82446311e-02 -2.11744476e-02 1.41428903e-01 1.14513122e-01
      -2.50649936e-02 -1.38258174e-01 -4.22151349e-02 1.31752715e-01
      -1.24209421e-02 2.51215659e-02 1.96722716e-01 2.25280542e-02
      -8.53841901e-02 7.10664093e-02 -2.38729827e-02 -6.95586577e-02
      -9.14891586e-02 -5.51812537e-02 -4.29103225e-02 -8.76045674e-02
      2.44118273e-02 -2.08059661e-02 1.68783981e-02 1.06411718e-01
      1.28050596e-01 7.26784095e-02 -1.43680409e-01 8.57299268e-02
      8.12684000e-02 7.68867955e-02 8.17736015e-02 -5.60568972e-03
      5.67859635e-02 8.08555186e-02 -1.31065339e-01 -1.12975083e-01
      1.22358769e-01 5.57178929e-02 1.57268435e-01 -6.54792860e-02
      5.29329805e-03 -1.61419600e-01 4.54693921e-02 -1.31555840e-01
      -7.38175064e-02 5.96614517e-02 8.14664513e-02 1.98241863e-02
      -3.40808891e-02 -7.40171969e-02 -7.00450242e-02 1.06313579e-01
      9.41167250e-02 -3.43754073e-04 6.61366880e-02 8.37137476e-02
      7.27442205e-02 -1.39889553e-01 -5.37628531e-02 -1.89016193e-01
      -7.19140321e-02 -9.74466801e-02 7.89357647e-02 -9.11536738e-02
      -1.07873388e-01 -1.03227675e-01 9.28374194e-03 -6.58949465e-02
      -1.56845804e-02 -6.40802532e-02 -2.57283807e-01 -2.25709468e-01
      -8.15719962e-02 -1.22903682e-01 -6.19385727e-02 -1.88447475e-01
      3.62850204e-02 9.58812144e-03 -1.54856458e-01 -1.59969881e-01
      -8.11054632e-02 3.45193632e-02 -1.48547053e-01 -5.36669008e-02
      1.87199991e-02 3.89557481e-02 -6.41852319e-02 -2.40206905e-02
      -7.73645043e-02 -1.09947287e-01 -1.78207532e-01 -1.59697626e-02
      -1.43126309e-01 -4.20630947e-02 9.21943784e-02 -3.64879742e-02
      -3.48958075e-02 -4.68676165e-03 -8.02857950e-02 7.75975734e-02
      8.11445247e-03 -6.45387219e-03 1.49208337e-01 1.41647667e-01
      -5.57131805e-02 1.19095735e-01 8.92678425e-02 -1.53836295e-01
      6.41090646e-02 1.02703080e-01 1.26843423e-01 1.54823139e-01
      -2.44837236e-02 2.85803471e-02 1.02120958e-01 2.69016810e-02
      8.86834785e-03 -8.47485885e-02 -5.39373979e-02 1.00416452e-01
      1.16849234e-02 -5.89341260e-02 -1.06945850e-01 -8.95199105e-02
      7.74545670e-02 -6.01296201e-02 1.30494777e-02 -9.83405486e-02
      6.40317425e-02 2.66034482e-03 -9.18111280e-02 1.27733141e-01
      2.43230034e-02 9.75400954e-02 -6.56301156e-02 1.85266539e-01
      -1.22546390e-01 8.38648900e-03 4.91065532e-02 1.79875121e-02
      -1.23827551e-02 6.89376369e-02 -4.00649235e-02 9.22560021e-02
      1.90505579e-01 3.06346361e-02 -5.33155873e-02 -5.75056449e-02
      4.50932514e-03 1.21285915e-01 5.06511107e-02 -3.77612300e-02
      1.84751466e-01 7.91074857e-02 -1.97697490e-01 -1.06814198e-01
      -1.14588976e-01 2.83529703e-02 -6.63403273e-02 -5.01818061e-02
      7.91070461e-02 -6.11359477e-02 3.78589369e-02 -1.44063886e-02
      1.87467113e-01 1.63832963e-01 2.46875733e-01 1.38446679e-02
      -1.64925028e-02 -5.90316579e-02 -1.53328985e-01 9.37961712e-02
      -5.32655083e-02 -8.79641026e-02 -1.15578085e-01 -1.63682640e-01
      7.92342052e-02 -1.01875432e-01 -6.91940263e-02 5.20812999e-03
      6.70339465e-02 -1.78371862e-01 -2.24004760e-01 -5.09486124e-02
      4.20383625e-02 -2.51564477e-02 -7.34603554e-02 2.33172029e-02
      1.91167351e-02 -7.53131211e-02 -1.36953309e-01 -1.25477582e-01
      -3.35804857e-02 4.86780144e-02 -4.48980443e-02 1.05343118e-01
      1.68446563e-02 -1.08688995e-01 -1.05846584e-01 9.97241363e-02
      1.32527903e-01 2.46067598e-01 1.21555053e-01 1.27157466e-02
      -9.13990960e-02 -1.19221725e-01 -1.82592869e-01 -1.58286095e-02
      -2.06742808e-01 7.21191317e-02 -1.04854055e-01 -6.49086535e-02
      -5.37946112e-02 -3.16263698e-02 1.13179937e-01 -2.36150417e-02
      -3.01763006e-02 -3.56689654e-03 -2.62850132e-02 -1.09330323e-02
      1.54578730e-01 2.92076319e-02 -1.26921590e-02 4.88441251e-02
      -2.00666636e-02 7.83710107e-02 1.52345980e-02 -5.04742265e-02
      8.94760306e-04 6.80322126e-02 -7.78188109e-02 5.34181818e-02
      3.08763124e-02 6.20492250e-02 2.47727446e-02 -1.11229099e-01
      1.09738884e-02 1.44476473e-01 9.83276293e-02 -7.04390137e-03
      -1.07781284e-01 1.09506540e-01 -1.02465682e-01 -6.67984458e-03
      6.08323738e-02 2.28952523e-03 -7.37235546e-02 1.43017061e-02
      -3.21588665e-02 -3.09426449e-02 1.12191133e-01 -9.57226008e-02
      -7.51631451e-04 -7.09722191e-02 -6.54066578e-02 -1.35610104e-01
      1.94543954e-02 -5.44336997e-02 -2.87205689e-02 -6.64905980e-02
      5.39738743e-04 4.96782325e-02 -1.42655239e-01 2.49407627e-02
      3.19568440e-02 3.71323377e-02 7.87948370e-02 1.47611303e-02
      1.37791783e-01 -2.58839037e-02 1.00879960e-01 -2.05797143e-02
      7.16248006e-02 4.68326434e-02 -1.11720972e-01 -1.09050445e-01
      1.89524181e-02 6.64336681e-02 -5.88619104e-03 -1.54856592e-01
      -1.97731555e-02 -1.50561020e-01 1.85421258e-02 -5.81032671e-02
      -2.58210152e-02 5.95119260e-02 -1.26174137e-01 -1.31859273e-01
      -2.45382071e-01 -3.19495320e-01 -6.58889115e-02 1.18436083e-01
      -1.03557073e-02 -3.14021781e-02 1.99619606e-02 -1.09478801e-01
      -3.16919759e-02 -1.38481483e-01 -8.49627852e-02 -3.81011479e-02
      -7.55137205e-03 8.17395598e-02 9.45939682e-03 -8.50515962e-02
      -8.35489407e-02 -1.36565909e-01 -8.34439024e-02 -1.13450974e-01
      -3.06478351e-01 -2.48175152e-02 -5.42940982e-02 -6.21121898e-02
      -2.49353796e-01 -5.67705929e-02 -6.43186569e-02 -1.06133863e-01
      -1.34588867e-01 -2.04660207e-01 -1.38701543e-01 -6.42608327e-04
      -9.46282297e-02 -1.15586862e-01 1.29926577e-01 -1.24209180e-01
      1.93695188e-01 6.21819124e-03 6.33746907e-02 -4.58575739e-03
      5.90967387e-02 6.20830851e-03 -4.46093753e-02 1.39296487e-01
      -8.57833177e-02 5.42117357e-02 -1.78986982e-01 6.22665957e-02
      -9.86305475e-02 -1.25621483e-01 7.56583735e-02 3.61382812e-02
      -6.50206655e-02 5.48678115e-02 -1.34513855e-01 -1.47185463e-03
      2.55807918e-02 -1.24460272e-01 4.57090624e-02 1.44032985e-01
      -2.33474188e-02 8.28700140e-02 -4.81549315e-02 1.00969829e-01
      -9.07556787e-02 -7.48807415e-02 -2.26329267e-03 9.15004313e-02
      -5.99314943e-02 -1.72451749e-01 1.30844843e-02 -8.61350596e-02
      6.12417012e-02 -4.53651622e-02 3.62169854e-02 7.54698738e-03
      4.30471003e-02 -1.08439848e-01 1.28651941e-02 1.88185796e-02
      1.65410563e-02 -2.32512113e-02 -8.10491368e-02 -4.14108261e-02
      -2.46226210e-02 1.78077370e-02 1.58461571e-01 -1.35985062e-01
      -1.13243490e-01 -5.77432811e-02 8.80402699e-02 -1.53329119e-01
      -7.35199777e-04 9.37992409e-02 -3.09695881e-02 3.04682665e-02
      -1.03332251e-02 -1.16719529e-01 -1.11374952e-01 -6.38985187e-02
      -7.16612637e-02 -2.03429931e-03 5.37890606e-02 -6.61653802e-02
      7.52399787e-02 4.10717204e-02 1.21747971e-01 -1.46559160e-03
      -2.21817680e-02 2.05515064e-02 -2.06585914e-01 2.11234111e-02
      -2.96978764e-02 1.48867080e-02 -1.10101476e-02 -1.39208227e-01
      -7.80921662e-03 -7.16447309e-02 -1.33714274e-01 -6.68673664e-02
      5.09547740e-02 -1.16379231e-01 3.55466530e-02 -1.25580549e-01
      -1.21885203e-01 -7.76746944e-02 -9.18571502e-02 4.49187048e-02
      1.76001549e-01 2.54613888e-02 -8.99465848e-03 -5.40099340e-03
      3.97572108e-02 -2.31026828e-01 -2.23705024e-01 -9.18176398e-02
      -2.58586798e-02 -1.18996650e-01 -2.03397155e-01 -5.43175340e-02
      1.84254907e-02 7.59561360e-02 -8.66973773e-02 -9.88458768e-02
      9.60830715e-04 1.77329294e-02 -5.79799351e-04 -1.21980257e-01
      1.71293486e-02 -1.01142965e-01 1.15361335e-02 3.77511084e-02
      2.18015052e-02 2.66922284e-02 -1.93933230e-02 -1.32109761e-01
      -3.74871539e-03 -5.44154942e-02 1.16960540e-01 1.34044632e-01
      1.14077426e-01 -6.32484332e-02 1.59951691e-02 7.15041906e-02
      -1.09639997e-02 -1.38236135e-01 9.60016698e-02 4.09544148e-02
      1.16703920e-01 8.79929662e-02 -1.45333618e-01 8.71503204e-02
      7.74851292e-02 7.16190785e-02 3.35650630e-02 1.26893818e-01
      4.08341400e-02 1.85157418e-01 -2.98249163e-02 -8.05800259e-02
      -2.18058471e-02 8.06742988e-04 2.88614142e-03 -1.54795289e-01
      -1.49816759e-02 3.65406312e-02 -6.31568581e-02 -5.22604212e-02
      -3.96389961e-02 1.23267092e-01 -1.38270244e-01 -2.86061522e-02
      -1.44381300e-01 1.04516849e-01 -5.60979210e-02 3.19901481e-02
      5.66637218e-02 1.45234406e-01 -5.33288345e-02 1.33357123e-02
      7.71669298e-03 3.10717747e-02 -1.47321923e-02 -2.84715258e-02
      3.36409584e-02 9.45406854e-02 9.32441801e-02 3.29627246e-02
      6.28758641e-03 2.91912574e-02 -1.11306652e-01 -1.30896628e-01
      5.24838492e-02 2.55594496e-02 -2.31054291e-01 1.06079407e-01
      8.57570320e-02 -2.45745257e-01 -9.86576378e-02 8.07504579e-02
      1.34253930e-02 -7.91006982e-02 1.50621710e-02 5.17636873e-02
      -8.76183361e-02 -1.34807423e-01 -2.15680480e-01 -1.87426835e-01
      -1.37385234e-01 -1.69952989e-01 3.47815566e-02 1.07288942e-01
      -7.49519616e-02 -1.23013526e-01 -1.67402439e-02 -1.14612877e-01
      -1.53640300e-01 8.62419531e-02 3.99835350e-04 3.78391780e-02
      5.52002378e-02 -6.92285299e-02 -6.05411381e-02 -8.93563181e-02
      -2.84422524e-02 -7.91754946e-02 -2.82599833e-02 -2.77587064e-02
      -7.94268921e-02 -2.77669467e-02 1.29928350e-01 -1.98730826e-02
      1.25066504e-01 -7.04508498e-02 -2.91082393e-02 -3.17328945e-02
      -8.01760331e-03 -1.32101536e-01 -9.31375772e-02 -1.46091029e-01
      -3.69717889e-02 1.08763548e-02 -4.61771786e-02 -1.54888034e-02
      -2.40077838e-01 -1.81428790e-01 -1.11932442e-01 -1.79738358e-01
      1.18833601e-01 -3.64231654e-02 6.71860576e-02 -2.11619884e-01
      -2.27055207e-01 -2.87273198e-01 -1.07400887e-01 -1.64052233e-01
      1.99017562e-02 -6.13725968e-02 -9.11736279e-04 4.38360348e-02
      -2.00064749e-01 4.59122919e-02 -1.99507531e-02 -1.28758475e-01
      -6.02782853e-02 1.05025388e-01 -1.44130409e-01 -1.10307023e-01
      1.42196193e-01 2.64252964e-02 9.39278603e-02 -4.56953831e-02
      -1.05084211e-01 -1.67494059e-01 -1.10335514e-01 -1.49567798e-01
      -1.62774414e-01 -3.33157880e-03 -3.16082612e-02 -7.23691061e-02
      7.15870112e-02 6.94017783e-02 -2.69935638e-01 -1.06478766e-01
      -8.56111422e-02 2.73052859e-03 8.66259858e-02 -6.39748871e-02
      -5.37812002e-02 -2.00397998e-01 -1.42998472e-01 -2.09170133e-01
      -1.55121297e-01 -1.20556787e-01 -6.84784874e-02 1.12159632e-01
      -9.38886628e-02 -7.86023512e-02 6.27284423e-02 -1.37072742e-01
      1.02546103e-02 -7.91189969e-02 -3.43539789e-02 -2.44470462e-02
      -1.78730994e-01 -1.35425538e-01 -1.11008100e-01 -6.23067543e-02
      -2.88739242e-03 -1.79168746e-01 -7.92768747e-02 -1.05750211e-01
      2.10517328e-02 -1.19559199e-01 -4.64903340e-02 -7.33272955e-02
      8.17706436e-02 9.92139988e-03 -5.62993363e-02 8.40642303e-02
      8.29862431e-02 1.20918319e-01 4.59046103e-02 1.78057030e-01
      -5.90878762e-02 -1.07121721e-01 9.13551822e-03 3.14669907e-02
      -5.91754960e-03 1.16612986e-01 1.17215037e-01 6.90661594e-02
      6.39168099e-02 4.03419100e-02 -3.97327961e-03 -6.11513555e-02
      2.22360045e-02 6.81776479e-02 -6.84196576e-02 -6.25926908e-03
      -7.82833342e-03 -7.77244121e-02 1.52343391e-02 -8.61509889e-02
      8.97269472e-02 5.61172441e-02 1.08363405e-01 8.25279951e-02
      1.15659967e-01 -9.94598027e-04 -1.36351421e-01 -1.00152738e-01
      -1.77685767e-02 4.26139422e-02 1.93122774e-02 1.56010002e-01
      4.32932526e-02 -1.22682368e-02 -1.97595768e-02 -1.01682015e-01
      -7.60655627e-02 1.30430830e-03 1.19860321e-01 8.27293172e-02
      -4.09791172e-02 -8.19683746e-02 1.25372047e-02 1.33205116e-01
      -5.41200601e-02 1.17944188e-01 9.68761519e-02 -8.81759450e-03
      -4.76816632e-02 -1.34205669e-01 1.06289871e-02 7.25833327e-02
      1.32375471e-02 -1.65299416e-01 5.70454448e-02 -2.50584930e-02
      -2.25978680e-02 -1.03775479e-01 -6.25601709e-02 -1.59441307e-01
      -3.59833315e-02 2.07460131e-02 -5.81082772e-04 -2.66928808e-03
      7.78159499e-02 -4.29450013e-02 -7.15727732e-03 3.98463337e-03
      3.10460888e-02 -3.28734587e-03 -1.24110281e-02 5.14716096e-02
      -2.69742701e-02 -8.38336498e-02 -4.14636657e-02 -1.61133483e-01
      -1.15281470e-01 1.03722095e-01 1.38933748e-01 -5.58412224e-02
      -6.66768178e-02 1.98232364e-02 -2.80166627e-03 -2.01404050e-01
      -1.14163309e-02 1.21151887e-01 5.62715754e-02 1.27376437e-01
      -1.38582706e-01 1.37813417e-02 -1.66454077e-01 8.14255476e-02
      -1.36397639e-02 6.51313737e-02 -1.19004816e-01 3.34574049e-03
      -7.28124902e-02 1.00472853e-01 2.69852608e-01 1.54502615e-01
      -1.87624395e-02 -3.47307371e-03 -5.19231893e-02 -1.58883017e-02
      4.00003493e-02 -1.85970981e-02 3.00550964e-02 7.60945231e-02
      -1.20098703e-01 -3.52842594e-03 2.18782827e-01 -7.87131563e-02
      6.70999475e-03 1.13210358e-01 1.17725641e-01 1.21811509e-01
      -6.98420778e-02 -7.49166161e-02 4.02730592e-02 -5.16313314e-02
      6.84757438e-03 1.09087743e-01 7.21334890e-02 -7.98371583e-02
      -4.73863631e-03 -1.69716775e-01 3.24117616e-02 -9.51241553e-02
      -6.73641041e-02 -1.16248839e-01 -5.40827587e-02 1.62558127e-02
      -1.28626734e-01 -1.26150027e-02 -8.42325913e-04 -8.28748047e-02
      -5.47315069e-02 1.53756402e-02 6.08729795e-02 -4.85317186e-02
      1.80061921e-01 1.53807536e-01 1.09858833e-01 -3.08236815e-02
      8.18464458e-02 -3.04677077e-02 1.57909572e-01 -9.14204642e-02
      9.73709449e-02 -1.94526743e-02 -5.87498248e-02 1.52330130e-01
      1.15192235e-01 -5.65185538e-03 -6.71254843e-03 -1.03886671e-01
      2.44488511e-02 -6.14796653e-02 1.53485127e-02 6.22104779e-02
      -6.16457723e-02 -9.64565054e-02 -1.18222646e-01 1.26575649e-01
      1.27159789e-01 -1.18743125e-02 5.15496433e-02 -9.76935960e-03
      -5.45701571e-02 -1.20433770e-01 -3.31471302e-02 4.64062579e-02
      9.54943746e-02 3.27321701e-02 4.01433185e-02 9.37993005e-02
      8.76734927e-02 1.93996757e-01 1.12403125e-01 2.78738490e-03
      2.56798789e-02 3.28769051e-02 6.64366484e-02 4.60632555e-02
      -1.09542973e-01 -1.52104404e-02 -3.20407674e-02 -1.25668850e-02
      5.94177935e-03 -7.55346939e-02 -2.01745257e-01 3.02844234e-02
      -2.33313744e-03 -3.00204363e-02 -5.78812659e-02 -7.23611340e-02
      6.64136857e-02 1.85169857e-02 1.06453627e-01 -7.06149340e-02
      7.03783855e-02 1.65109523e-02 -4.72953208e-02 2.93317474e-02
      -1.15303900e-02 -3.11910771e-02 -4.97160926e-02 -9.19551402e-03
      7.53556788e-02 -4.96043004e-02 1.15855932e-01 6.72161132e-02
      2.21955195e-01 7.41052330e-02 -6.72064424e-02 3.38819288e-02
      1.74657091e-01 -2.13809058e-01 2.44574212e-02 -1.87418714e-01
      6.43681884e-02 1.28306761e-01 1.21344820e-01 -1.26803562e-01
      8.70578289e-02 -4.29538935e-02 7.73662552e-02 -1.03094801e-02
      -1.71101373e-03 -2.43095797e-03 7.59383142e-02 8.37765932e-02
      -1.28880009e-01 -5.31132370e-02 -7.98859075e-02 -4.83339978e-03
      2.23234557e-02 4.14605811e-02 1.11898050e-01 1.70413926e-02
      -1.29640877e-01 -1.20216398e-03 1.97314899e-02 -4.99724783e-03
      -1.00874184e-02 2.72958037e-02 -1.56701785e-02 -2.93612406e-02
      1.70417968e-02 5.58070093e-03 1.22711688e-01 4.78521548e-03
      9.37363580e-02 -4.17970940e-02 1.38048679e-01 -1.06542565e-01
      -3.56450975e-02 1.49749354e-01 -4.57904674e-02 -3.51238586e-02
      -7.07578808e-02 1.96795026e-03 1.91744119e-01 1.26176834e-01</_></support_vectors>
  <decision_functions>
    <_>
      <sv_count>1</sv_count>
      <rho>-3.0870116425630210e+00</rho>
      <alpha>
        1.</alpha>
      <index>
        0</index></_></decision_functions></my_svm>
</opencv_storage>
