<?xml version="1.0"?>
<opencv_storage>
<my_svm type_id="opencv-ml-svm">
  <svm_type>C_SVC</svm_type>
  <kernel><type>LINEAR</type></kernel>
  <C>1.0000000000000001e-15</C>
  <term_criteria><epsilon>1.1920928955078125e-07</epsilon>
    <iterations>1000</iterations></term_criteria>
  <var_all>1296</var_all>
  <var_count>1296</var_count>
  <class_count>2</class_count>
  <class_labels type_id="opencv-matrix">
    <rows>1</rows>
    <cols>2</cols>
    <dt>i</dt>
    <data>
      -1 1</data></class_labels>
  <sv_total>1</sv_total>
  <support_vectors>
    <_>
      1.12011404e-15 8.01591588e-16 8.67937879e-16 -1.80294203e-15
      8.09995677e-19 1.44639463e-15 5.98592096e-16 4.86467698e-16
      -5.92800826e-16 -1.16166556e-15 1.07537005e-15 -6.64356475e-16
      -3.38400436e-16 3.50020060e-16 -3.33469142e-16 1.86798624e-16
      -1.62980336e-16 1.09056339e-15 1.14622510e-16 -7.18830381e-16
      2.97788965e-16 -1.13974413e-15 -5.05235989e-16 4.90200466e-16
      -7.39368019e-16 -5.79383506e-16 -9.81763490e-16 8.70763475e-16
      -7.01277265e-16 -2.37580036e-16 -1.41091718e-15 -1.37440773e-15
      3.17077149e-16 1.70192887e-16 -2.57668852e-16 -1.00687548e-16
      -3.30591771e-16 4.85815006e-16 -1.21411130e-17 7.11756756e-17
      1.90479795e-15 1.37527033e-15 2.08507346e-15 -9.95559857e-16
      -8.37455493e-16 1.22993072e-17 7.39652622e-16 -9.01889871e-16
      4.54909262e-16 9.37728047e-16 -1.18727073e-16 1.95879049e-17
      1.59207699e-15 1.30690323e-15 1.54044927e-15 -1.57838211e-16
      1.01628157e-15 -7.31818679e-16 -1.25755308e-15 -5.80669461e-16
      8.45547410e-16 6.24795748e-16 7.28031489e-16 1.07736302e-15
      5.78529194e-17 -1.36798320e-15 -2.94066016e-16 6.24094352e-16
      -1.66455566e-16 3.65974376e-16 -6.84116112e-16 -3.32915553e-16
      -5.95709854e-16 5.54482379e-16 -8.25955538e-16 2.49989254e-16
      -3.43921290e-16 1.79360894e-16 6.87618858e-16 5.88961225e-16
      -5.13620239e-16 8.98691899e-16 3.25645152e-16 -5.56005185e-16
      -3.20794035e-16 -5.50529329e-16 5.63868986e-16 -1.17940677e-15
      -2.59531583e-16 1.73397417e-15 1.04804583e-15 7.47629555e-16
      2.03990881e-15 -7.59581560e-16 -1.30756391e-15 2.12494295e-17
      8.66751663e-16 9.08072788e-16 2.02808211e-15 4.57715217e-16
      -9.89338612e-16 1.63849365e-16 -2.20643062e-15 -3.62315167e-17
      -5.54326472e-16 -2.88625418e-16 -1.73544907e-15 -1.20429175e-15
      7.42621631e-16 4.97572564e-16 -3.96360253e-16 4.96952483e-16
      -8.60590239e-16 4.18171405e-16 8.65812842e-18 4.26837028e-16
      -1.19618448e-15 1.02088741e-15 -1.18149005e-15 1.22289958e-15
      -1.31192677e-15 6.77674639e-16 -5.04291812e-16 -1.36992161e-16
      -1.34936562e-15 -3.65261889e-16 1.17467944e-17 -1.38330804e-16
      9.75393313e-17 6.53316512e-16 1.33287831e-17 3.35343917e-16
      6.67942283e-16 1.01776250e-15 -3.74863589e-16 -5.04772927e-16
      1.10977621e-15 1.30680190e-15 -2.10595176e-15 7.00542199e-16
      3.55345171e-16 -5.45049079e-16 -1.27892647e-15 -2.41586317e-16
      5.22377024e-16 8.12556748e-16 4.39368881e-16 -2.63413350e-17
      1.05041661e-16 7.27890511e-16 1.25688096e-15 -2.24519582e-16
      1.98564984e-16 4.45749871e-16 3.87118277e-16 -3.17542567e-16
      -1.48968677e-16 1.01832143e-15 -7.04444003e-16 7.87700566e-16
      -6.83894455e-16 2.24171425e-16 -3.32154210e-17 1.01915428e-15
      -4.09474388e-16 -4.47753739e-16 -5.36328980e-16 -3.37030942e-16
      -2.18800191e-16 6.14974507e-16 1.01398261e-15 3.25460578e-16
      -5.98694534e-16 1.67549936e-15 -1.40216087e-15 -5.78928649e-16
      -1.03621744e-15 9.78665467e-16 -3.62180409e-16 -9.90466118e-16
      1.07195871e-16 -6.31842427e-16 -1.39802375e-15 -1.52025251e-15
      -1.35231986e-16 2.15902727e-15 4.59058929e-16 -8.66030361e-16
      6.70427742e-16 1.04603624e-15 8.32248093e-16 2.93097090e-16
      -4.06591458e-16 1.95019278e-15 2.21271912e-16 1.96241612e-16
      -1.64180883e-15 -9.50993834e-19 1.65347700e-16 -5.31537050e-16
      7.43133292e-16 1.55871501e-15 2.95290138e-16 1.54692886e-15
      7.19165859e-16 -5.94274875e-16 -9.24887134e-16 -2.56091114e-17
      3.99195273e-16 -9.24904971e-18 -6.52070103e-16 4.88543617e-16
      8.53311155e-16 4.99754468e-16 -1.15211291e-16 1.75232839e-16
      1.69744701e-16 9.73259385e-16 3.07741787e-16 3.72191095e-16
      1.78669755e-16 3.56069411e-16 2.07965774e-15 -4.48662341e-16
      9.26477544e-16 1.42185452e-16 1.26768825e-15 -3.33142346e-16
      5.56483706e-16 1.24587609e-15 -1.38149623e-15 -1.38485271e-15
      -3.37370682e-16 5.08260955e-16 -6.27137159e-16 1.04598902e-15
      -1.30802758e-16 3.95567272e-16 9.02863337e-17 6.06519927e-17
      -1.43553026e-16 5.68082895e-17 -3.38001483e-16 1.18000700e-15
      9.63415380e-16 1.00871047e-15 1.15618939e-15 8.41636183e-16
      3.59676421e-16 1.04373697e-15 -1.74404603e-15 -2.42655564e-16
      -3.07499933e-16 6.71469328e-16 4.45222752e-16 3.95250243e-16
      6.67662802e-17 -2.96913503e-16 3.53845473e-16 -2.69789840e-16
      5.56812884e-16 7.65046934e-16 -8.03804568e-16 -3.45845167e-16
      -5.18953158e-16 -1.20785760e-16 -1.21708872e-15 4.54645887e-16
      1.51317116e-16 -3.96180338e-16 9.77005177e-16 -1.52636544e-15
      -1.14783976e-15 -4.39949786e-16 -1.80530440e-15 1.16951321e-16
      8.57639759e-16 -1.34155606e-16 -5.47855669e-16 -1.92906396e-15
      -1.36618219e-15 -2.07056166e-15 -1.14521512e-15 3.71889921e-16
      2.53128835e-16 -1.26964691e-15 -1.14352825e-15 -2.68129846e-15
      -2.66924942e-15 -1.98273875e-15 -5.97726481e-16 5.25624919e-16
      -1.81690918e-15 2.36895892e-17 6.40178608e-16 1.70994194e-16
      -1.99872268e-15 -2.35105874e-15 -2.82155907e-15 -1.59568005e-15
      -3.21214905e-16 -1.02596872e-16 -8.10964802e-16 -9.28132223e-16
      -3.16236193e-15 -1.69222476e-15 -1.06075101e-15 -2.62266282e-15
      -1.66159573e-15 8.64644297e-16 -7.50500626e-16 9.64196133e-16
      6.40392219e-16 -1.40176764e-15 -5.44986504e-16 -1.04002348e-15
      -1.23212674e-15 -1.49649112e-15 -3.58469796e-16 1.10099937e-15
      -7.49664710e-16 1.90934395e-16 -9.08822413e-16 -1.18562759e-15
      -2.20359009e-15 -1.23438006e-15 -1.13533734e-15 -1.03489024e-15
      -8.26722262e-16 -4.82617086e-16 3.07393948e-16 -1.42289221e-15
      -3.83188430e-15 -1.87032667e-15 -1.04338641e-15 -1.93324523e-16
      -2.09815969e-15 -1.02864715e-17 -3.77116221e-16 -2.36456828e-15
      -2.52817227e-15 -4.23393569e-15 6.81432394e-16 5.05515669e-16
      -1.21505768e-17 1.41737919e-15 1.03751192e-15 1.56333695e-16
      3.01004963e-16 -1.76476975e-15 -2.37647402e-16 -9.83008311e-16
      -3.94867278e-16 -4.88722817e-16 -2.41137045e-15 -1.08200709e-15
      -2.30253942e-15 -2.55518712e-15 -1.90134629e-15 -3.11159628e-15
      -2.08563308e-16 7.10668716e-17 -1.46964409e-15 -1.81264422e-17
      7.99687088e-16 -4.18003110e-16 -2.34414489e-16 -1.10412058e-15
      9.10325896e-16 -9.41099768e-16 -1.64572917e-16 1.45839052e-15
      9.88134766e-16 1.89470386e-15 1.56308707e-15 -1.56458177e-15
      -5.49370747e-16 -7.08967106e-17 -5.19288795e-16 -2.43338886e-15
      -1.13046764e-15 -6.52943447e-16 -6.58023951e-16 -1.37539929e-15
      -3.20816143e-15 -8.85984498e-16 -1.28973038e-15 -7.99848236e-16
      -8.95501867e-16 -1.12209874e-15 7.20944840e-16 -1.12399747e-15
      -5.11879057e-16 -3.34155920e-17 -1.33303557e-15 -1.08978740e-15
      -1.37584779e-16 -9.69271342e-16 2.38726972e-16 -2.43274559e-16
      1.35867526e-15 -3.42330854e-16 8.49801104e-16 5.96631956e-16
      8.73677639e-16 -6.73533600e-16 1.27499433e-15 1.17250726e-15
      -1.22580459e-15 1.05020809e-15 7.30972916e-16 1.01265552e-15
      -2.12371679e-15 -1.71336355e-16 4.85939837e-16 1.94971870e-16
      8.38678079e-16 -1.55348781e-16 1.12097717e-15 -1.96934165e-15
      -4.59293239e-16 -1.24131249e-16 -5.37898903e-16 1.10525031e-15
      1.04633588e-15 3.22020168e-16 -3.00360054e-16 7.21504650e-17
      5.41775296e-16 -8.58116267e-16 -6.24789872e-16 1.24783729e-15
      -4.93486848e-16 2.13723406e-16 4.02894232e-17 -1.09562674e-15
      9.22704647e-16 -8.68367590e-16 3.89157720e-16 1.09997668e-15
      -3.23105615e-16 -3.34045945e-16 -1.00325240e-15 7.15949569e-17
      4.88698207e-17 -6.88577170e-16 1.30187556e-15 -1.01062624e-15
      -4.58320052e-16 -7.61319460e-16 -7.66317060e-16 1.16716143e-15
      2.90221186e-15 1.37233536e-15 1.45005211e-15 -3.60025637e-16
      2.27369668e-15 -2.85346289e-16 -6.47751982e-16 -1.10415710e-15
      -5.14732446e-16 -1.35870543e-15 -7.54365055e-16 -1.71544011e-16
      -1.04286982e-15 -7.06397102e-16 -1.25433006e-16 -1.58538511e-15
      7.62955663e-16 5.02957841e-16 -1.76766745e-15 -3.20140973e-15
      -9.12381433e-16 -8.13852020e-16 -4.92402328e-16 -1.03660750e-15
      -7.00803297e-17 -5.68035329e-16 -1.39539848e-15 -3.73479188e-15
      -2.25019258e-15 -9.26044922e-16 -5.09437908e-16 -8.36801716e-17
      -9.10203076e-16 -3.98495253e-16 -7.62574498e-17 -2.36858020e-16
      -1.33783624e-15 -3.80473563e-15 -2.90627804e-15 -2.60322596e-15
      -2.27737355e-16 -4.35387640e-16 1.84092235e-16 3.71361823e-16
      -9.85013688e-17 -1.91388937e-15 -1.96058545e-15 -3.97436276e-16
      -5.97960527e-16 -5.96309077e-16 1.21571420e-15 8.06176472e-16
      -2.10619322e-16 1.93255014e-15 4.05880215e-16 -1.62024718e-15
      9.36491803e-16 1.69123045e-15 1.52992340e-15 9.98720243e-16
      5.60896059e-16 1.16540235e-15 1.08572101e-15 4.29088594e-17
      -8.81421744e-16 3.99322036e-16 -1.33185968e-15 4.96095392e-16
      1.66449036e-15 1.01354459e-15 -2.14384370e-17 1.63033328e-16
      4.17896569e-16 -2.21767877e-16 3.74864516e-16 2.02660229e-16
      1.16308709e-15 9.02448278e-16 6.52364077e-16 3.11742826e-16
      2.78961354e-16 5.83985807e-16 -9.99041162e-16 3.56867136e-15
      -1.26988365e-15 3.49785961e-16 7.55861100e-17 4.46218068e-16
      7.58289252e-16 3.90679071e-16 4.55824269e-16 -3.94196534e-16
      1.07018388e-15 -7.39740872e-16 8.85991222e-16 1.29683974e-16
      1.20428370e-15 1.39462249e-15 -1.29110151e-15 1.03965082e-16
      1.52717595e-15 5.46900163e-16 -1.55331136e-15 -1.35320311e-15
      -4.57627073e-16 -2.27005862e-16 1.03691709e-15 3.92206933e-16
      7.10421621e-16 -9.99108501e-16 7.89950762e-16 -1.87181597e-15
      1.72359505e-15 2.57471843e-15 2.67593018e-15 -6.16975146e-16
      1.08063521e-15 3.57949804e-17 -2.89458073e-15 1.47799806e-15
      -1.17298054e-15 -7.73976779e-16 -8.61664965e-16 -1.36645716e-15
      6.59520658e-16 -1.62255715e-15 -2.11831939e-17 4.30668185e-16
      8.54717971e-16 -1.03807869e-15 -3.47946227e-15 -1.48050634e-15
      5.08810574e-16 -4.00180504e-16 1.22543420e-16 -2.18231660e-16
      -6.48145958e-16 -6.59384497e-16 -3.08233468e-15 -2.18226562e-15
      -2.66615182e-15 -7.62261996e-16 1.04536190e-15 9.67536301e-16
      1.58691689e-16 -7.20561293e-16 3.97280184e-16 6.26830374e-16
      5.45541205e-16 7.91270598e-16 2.11874153e-15 7.08070509e-17
      -4.30229660e-16 -1.04960871e-15 -2.50116801e-15 -1.88427985e-15
      -1.28132527e-15 -2.09215910e-15 -7.23427123e-16 -1.04163051e-15
      3.23322958e-16 -2.19866076e-16 2.41875499e-16 -3.85727257e-17
      -2.22209565e-16 5.59600324e-17 -1.07054483e-15 -6.83565753e-16
      1.19721183e-15 -8.36607348e-16 -7.10863666e-16 8.79300403e-16
      9.20447834e-16 3.61970742e-16 3.42845056e-16 -7.79394508e-16
      4.55163901e-16 4.80272446e-16 -1.77097574e-15 -5.70109819e-16
      -2.82581970e-16 -4.12072238e-16 9.05053857e-16 -1.53433835e-15
      -8.16580683e-16 7.15349182e-16 9.20311250e-16 -7.12811101e-16
      -2.24073249e-16 1.19996278e-15 2.32750440e-16 5.16045347e-16
      7.00195286e-16 -5.57301516e-16 -3.16171459e-16 1.34171967e-15
      -7.85336709e-16 -9.54164616e-16 8.49942982e-16 -8.63100898e-16
      9.79968627e-16 -1.30331080e-16 1.57374116e-16 -4.63056799e-17
      -3.69951910e-16 -6.57286873e-16 3.86847729e-16 -5.87682311e-16
      -3.80520472e-16 -9.63408160e-18 -2.40808075e-17 -3.53844917e-16
      -3.76266038e-16 7.61886548e-16 -6.10511120e-16 -7.24511087e-17
      2.05728130e-16 -6.59288147e-16 1.44358565e-15 -1.37993579e-15
      2.03324838e-15 -8.66932239e-16 4.65413105e-17 -2.23969720e-15
      -8.05467452e-16 -5.04547404e-16 -2.81809450e-16 -8.07825380e-16
      -9.20079480e-16 -5.58238599e-16 3.21715739e-16 -9.59210497e-16
      1.09544103e-15 1.39583099e-15 -2.75110054e-16 -1.75744513e-15
      -1.67695054e-15 -3.51700510e-15 -1.54510912e-15 -3.83234101e-16
      4.65875162e-16 2.20989043e-16 1.08100102e-15 9.46792782e-16
      -1.76098613e-16 -4.76829416e-16 3.01926932e-16 -6.99560382e-16
      -1.54402534e-15 -6.25921720e-16 -5.76171928e-16 -1.64063093e-15
      -1.59492876e-16 -1.76892264e-15 -5.95788046e-16 -2.71117438e-15
      -2.70167088e-15 -6.56633281e-16 1.26161703e-15 -1.02241662e-15
      -1.49499780e-15 -8.89189671e-16 -7.15449291e-17 -6.67126326e-16
      -1.74870058e-15 -2.76974903e-15 -2.05743548e-16 -8.43008058e-16
      -6.59774133e-16 1.27626488e-15 1.63701187e-15 -6.88437992e-16
      1.31815500e-15 -2.93924827e-16 1.93745827e-15 -8.36481775e-16
      -1.31564630e-15 6.57325890e-16 6.03435907e-16 2.42503124e-16
      -2.04743872e-15 1.41149115e-15 4.16052823e-17 8.19213156e-16
      2.40464051e-16 -1.03990563e-15 1.33989378e-15 1.23814490e-15
      -3.87134529e-16 2.40889050e-16 1.05223769e-15 1.16009672e-16
      -1.38803871e-15 1.19266686e-15 -6.46226952e-16 8.23951564e-16
      1.97467097e-15 9.87322567e-16 5.91481042e-16 1.13307629e-15
      -4.40688346e-16 1.71125074e-16 2.94661223e-17 9.29701563e-16
      -1.49803600e-16 3.52409646e-16 5.71035096e-16 -8.55959510e-16
      8.14103641e-16 -2.02104523e-16 -8.05220383e-16 4.35561679e-16
      1.42126318e-16 1.03011954e-15 6.79430114e-16 5.83965954e-16
      -4.67938111e-16 1.71453114e-16 -1.67026586e-15 -5.63139426e-16
      4.77897259e-16 2.66430698e-15 1.31235050e-15 -1.24184644e-15
      -4.93767533e-16 -6.53493913e-16 8.68854435e-17 -1.66353703e-15
      -2.59591431e-16 2.81832055e-16 1.63066574e-16 -1.90696064e-15
      -3.50959605e-16 -1.65356745e-15 -1.29098335e-15 -1.34016558e-15
      4.96165590e-16 6.55636324e-16 -6.81737485e-16 -3.47608637e-16
      9.63828944e-16 -7.48651394e-16 3.31433351e-16 8.90642439e-16
      1.02751534e-15 -4.92375752e-16 -1.19294850e-15 7.75704409e-16
      -4.41849866e-16 -6.92272087e-17 -1.10915502e-15 -9.85687794e-16
      -7.87035380e-16 -2.60278740e-15 -1.05875762e-15 -3.85109618e-16
      -1.12761420e-15 -2.15483742e-15 -2.15608849e-16 -5.80499472e-16
      -1.95501282e-15 -1.06025200e-15 -5.86912676e-16 5.53008806e-16
      1.74264429e-15 -5.44822391e-16 -5.27915878e-16 2.53927931e-16
      -5.72443236e-16 -1.54852414e-15 -1.54028198e-15 -4.06029928e-16
      -1.06507426e-15 -1.24250628e-15 -7.00936228e-16 -2.88406328e-16
      -3.67555416e-16 1.90530257e-15 8.28070738e-16 -3.87978703e-16
      2.87535948e-16 -3.97635594e-16 -3.20900894e-16 -2.35186279e-15
      -1.33491651e-15 -1.07326909e-15 4.06928498e-16 -4.91926719e-16
      -6.83909159e-17 -3.85788064e-16 -1.14254411e-15 -2.61527484e-16
      1.65690153e-16 6.39474088e-16 -1.62378969e-16 6.79209251e-16
      3.33882891e-16 1.26010524e-16 2.07304093e-15 6.10712823e-18
      -1.14313491e-15 -7.46116780e-17 3.56230241e-16 3.95442917e-16
      -1.11792488e-15 4.06553262e-16 1.16550106e-16 5.33908742e-16
      1.74917267e-16 -2.05653816e-16 3.03873301e-17 1.32682502e-15
      5.54155953e-16 5.02017846e-16 1.41508966e-15 9.59171851e-16
      5.13958311e-16 -1.14377122e-16 -3.43193610e-16 -5.92743201e-17
      4.58589037e-16 2.87895805e-16 -1.22624473e-15 -2.79755051e-16
      9.48738205e-16 -9.32992961e-17 8.75959321e-17 1.87754329e-16
      1.85843965e-16 -1.53377613e-15 -1.60064240e-15 6.41272815e-16
      5.55812750e-16 4.66540665e-16 -9.05250792e-16 1.37817872e-15
      5.69272739e-16 9.07500618e-16 9.81940547e-17 7.27209284e-16
      -1.14735758e-15 1.31258534e-15 -1.88897148e-16 -6.81326357e-16
      -7.32131274e-17 2.25831822e-16 -4.96892079e-16 1.84122808e-16
      -5.96338512e-16 1.07027126e-16 -4.66827121e-16 1.12326341e-15
      4.94811607e-16 -1.01205911e-15 -2.11530004e-15 4.71922607e-16
      -3.27887347e-17 -1.94712705e-16 -7.69130904e-16 9.46710302e-16
      -9.86719586e-16 1.90987732e-16 -1.04394545e-15 -2.51225695e-15
      -3.34426692e-15 -1.54804493e-15 -9.51074534e-16 -4.97833662e-16
      2.54275956e-16 3.06877760e-16 -1.27465128e-15 -1.18409033e-15
      4.04900410e-16 1.52408724e-15 2.58484068e-16 -2.38138787e-16
      4.20697574e-16 -2.75215536e-16 -6.26826721e-16 -1.29544901e-15
      -1.93033846e-16 -2.29710015e-16 4.69683157e-16 -1.35871867e-15
      -1.26152937e-15 -1.49176658e-15 1.40130336e-15 -2.97518708e-16
      8.58453916e-16 2.83571755e-16 -4.32304361e-16 -1.59252263e-15
      -9.47411645e-16 -2.40743005e-15 -9.30612441e-16 -4.33065738e-16
      -1.15733553e-15 -2.76988747e-16 2.29834608e-16 -1.04547040e-16
      -1.23151878e-15 -2.03859739e-15 -1.07659158e-15 -3.90971112e-16
      4.97166782e-16 9.27949806e-17 -1.46775576e-16 -1.88757565e-15
      -1.53483651e-15 -3.04797564e-15 -2.31229089e-15 -2.92281720e-15
      -1.53071008e-15 -1.13312860e-15 -1.37690711e-16 -1.00592299e-15
      -1.64482342e-15 -2.20559399e-16 -4.90797359e-16 -1.25753211e-15
      -9.39656953e-16 4.46023939e-16 -7.87686854e-16 -2.07882892e-15
      1.09444714e-15 1.44686462e-15 1.47941695e-15 5.68888834e-17
      -1.23155827e-15 -2.41665551e-15 -1.44053718e-15 -1.70822341e-15
      -1.99500590e-15 2.69810063e-16 2.85168782e-16 -3.17027386e-16
      -1.09035269e-15 -5.22392813e-17 -1.44215628e-15 -1.96333198e-16
      4.13925467e-16 -1.88056018e-16 3.03642576e-18 -1.84506447e-16
      -4.91768483e-16 -1.10570410e-15 -2.24346248e-15 -8.45274136e-16
      -2.60949823e-15 -2.18125045e-15 -8.16231441e-16 -1.74639480e-16
      -1.49074749e-15 -1.39779389e-15 -3.90597015e-16 -3.73963733e-15
      1.18945629e-15 -1.75242466e-15 -2.21441327e-15 -1.39929229e-15
      -2.29984882e-15 -2.05888447e-15 -1.98921071e-15 -1.29535478e-16
      -2.28065447e-16 -2.38622390e-16 -1.44351487e-16 -7.34249187e-16
      -1.47944733e-15 -4.36133691e-16 -1.21271348e-15 -5.12557318e-16
      6.12422979e-16 -1.64247404e-16 -7.78179015e-16 -5.64527078e-16
      -3.36381056e-16 5.59756641e-16 -2.30717587e-16 1.81201285e-16
      -4.67637361e-16 -6.59953386e-16 -2.02149561e-16 -1.05310548e-15
      -1.16345492e-15 -1.05400446e-16 -2.96308272e-16 9.07932922e-16
      1.08431165e-15 5.76186592e-16 -8.67213295e-16 -2.31420137e-15
      -1.20832987e-15 9.16550953e-16 -5.50460706e-17 1.18720614e-15
      8.59745535e-16 -7.26632508e-16 -7.19676726e-16 3.11741609e-17
      5.93296446e-16 -7.20708703e-17 1.36720197e-16 8.00591242e-16
      6.39625760e-16 1.51997720e-16 -1.65405735e-15 -9.63477425e-16
      -9.47812464e-17 1.13738991e-15 7.94062313e-16 1.65849898e-15
      -2.26590684e-16 2.75251535e-16 8.50177663e-16 3.05874476e-16
      1.57261545e-15 -5.81560381e-16 8.04888347e-16 1.39395852e-15
      -1.38680342e-15 -6.87549455e-16 -1.35483206e-15 -1.07144141e-15
      -3.17567899e-16 3.08233754e-16 -4.45781317e-16 -7.66668049e-17
      3.19454691e-16 -4.18552490e-16 4.86595282e-16 2.15386799e-15
      9.22925088e-16 -2.46856974e-15 2.15412972e-16 1.46169657e-16
      -3.79972045e-16 3.76102534e-16 -2.27526046e-16 -3.55171053e-16
      -4.41181637e-16 5.83754990e-16 2.51733216e-16 -3.96082003e-16
      -3.30690133e-16 6.85144887e-16 9.91973943e-16 5.79928148e-16
      -9.68249079e-16 -1.55477291e-15 7.99528640e-16 -1.92614525e-16
      -1.83898688e-16 2.83529959e-16 1.80886665e-16 1.86416705e-16
      -1.40374522e-16 -6.62154613e-16 9.93531637e-16 -1.32470574e-15
      6.23901070e-16 -1.77581979e-16 3.14812633e-16 -1.14571106e-16
      1.35559788e-15 4.76151736e-16 9.48743393e-16 1.72615447e-15
      -3.82080363e-16 -5.94736137e-16 -7.14792205e-16 -4.65555566e-16
      8.31390313e-16 1.15796297e-15 -1.56056461e-15 -5.55169680e-17
      -1.55899760e-15 8.81376216e-16 1.96493877e-15 1.30739017e-15
      -4.59449888e-16 6.10065845e-16 2.66587288e-16 6.05722260e-16
      -2.10450259e-16 -1.88609091e-16 -3.90669224e-16 1.36243735e-15
      7.01957313e-17 9.21653268e-16 -7.82450325e-17 3.36850180e-16
      -6.49003103e-16 9.06991868e-16 1.01021332e-15 2.30495177e-15
      -1.90104284e-15 -1.32678669e-15 1.43323978e-15 8.23887507e-16
      1.69687826e-15 1.49355986e-15 2.80073217e-16 -1.98947774e-15
      -9.13038307e-16 -1.68308612e-15 4.21047240e-17 -9.59402138e-16
      7.04413934e-16 6.40904144e-16 5.95120902e-16 -2.44959149e-16
      -1.07132865e-15 -4.67690354e-16 -5.15994790e-16 5.27457687e-16
      1.11529080e-16 1.28619915e-16 6.72921831e-16 -1.59983157e-15
      2.82612310e-15 8.91815685e-16 3.03922171e-16 9.66409747e-16
      1.51754073e-15 3.75592699e-16 1.23562064e-15 6.78205993e-16
      2.81189025e-16 -5.31601914e-17 2.46721533e-16 9.90145516e-16
      1.76005003e-16 -7.62693083e-16 3.88581341e-16 1.30799423e-16
      -3.00925051e-16 7.18202254e-16 6.68275802e-16 -1.82858995e-16
      -1.08886467e-15 -1.97596651e-15 7.96788435e-16 9.08273429e-16
      -6.76117514e-17 1.25244706e-15 7.12206425e-16 -7.09590470e-16
      -5.53390500e-16 -9.85196303e-16 -1.59862593e-15 2.69956203e-16
      1.47604946e-15 -2.11268440e-15 3.41530281e-18 2.03733955e-15
      -3.78707471e-17 9.72068139e-16 6.28353445e-16 1.75585496e-16
      1.50645763e-15 -6.49623872e-16 -7.55863482e-17 -2.98954694e-16
      -1.65179228e-15 3.63925191e-16 -1.87209859e-16 -4.72063055e-16
      -5.43506790e-16 -4.73242866e-16 -1.24483287e-15 7.11768244e-16
      1.75368854e-16 -3.15942528e-17 1.25561602e-15 -6.26128449e-16
      5.26204501e-16 -3.94120883e-16 8.74492750e-16 -3.52143254e-16
      1.19341553e-15 -4.86676809e-16 -1.06787254e-15 -1.09795566e-15
      -3.73853688e-16 -1.05139955e-15 -8.56857206e-16 9.95890623e-16
      -9.33614008e-16 -1.44917186e-16 1.29503439e-15 4.48601248e-16
      9.73789734e-16 4.12209351e-16 -7.67736740e-16 4.40968820e-16
      9.54864265e-16 -5.95941518e-16 1.53085863e-15 1.97189237e-17
      -7.09492002e-16 1.11870913e-15 7.33361179e-16 -9.66138697e-16
      3.56533690e-16 5.00780278e-16 1.45892889e-16 -4.46993368e-16
      3.72153852e-16 1.00718292e-16 2.04579315e-16 9.58718900e-16
      5.62012131e-16 -5.82238060e-16 1.12925268e-16 5.34037597e-17
      6.62027505e-16 -9.97505597e-16 3.58999033e-16 5.66110923e-16
      -1.89896846e-15 1.13679630e-16 -1.99025690e-16 2.30991328e-17
      1.20808783e-15 -4.54410147e-16 -4.59608865e-16 1.51393077e-17
      1.66451900e-17 9.43217879e-16 5.40816508e-16 2.97938228e-16
      -4.82504695e-16 -3.16514322e-16 1.37918447e-15 3.17848663e-16
      -2.36625324e-16 7.35049792e-16 1.21165321e-15 1.29939132e-15
      1.21614587e-15 -4.79914144e-18 -4.48673193e-16 2.49482596e-16</_></support_vectors>
  <decision_functions>
    <_>
      <sv_count>1</sv_count>
      <rho>-3.8968828164342995e-14</rho>
      <alpha>
        1.</alpha>
      <index>
        0</index></_></decision_functions></my_svm>
</opencv_storage>
