<?xml version="1.0"?>
<opencv_storage>
<my_svm type_id="opencv-ml-svm">
  <svm_type>C_SVC</svm_type>
  <kernel><type>LINEAR</type></kernel>
  <C>1.0000000000000001e-15</C>
  <term_criteria><epsilon>1.1920928955078125e-07</epsilon>
    <iterations>1000</iterations></term_criteria>
  <var_all>1296</var_all>
  <var_count>1296</var_count>
  <class_count>2</class_count>
  <class_labels type_id="opencv-matrix">
    <rows>1</rows>
    <cols>2</cols>
    <dt>i</dt>
    <data>
      -1 1</data></class_labels>
  <sv_total>1</sv_total>
  <support_vectors>
    <_>
      3.57605452e-16 -1.05725236e-16 2.24218091e-17 4.01369685e-16
      -3.94306887e-16 1.49757553e-15 1.32782484e-15 9.91785253e-17
      3.74288851e-16 -1.53693917e-15 1.41968111e-15 2.11607068e-16
      7.64872551e-16 3.38240691e-16 -4.76305473e-16 -4.25825697e-16
      -1.13331865e-15 -2.14920631e-18 3.51177842e-17 8.12564530e-16
      4.47537170e-17 3.73438456e-16 2.94167766e-16 -5.43114614e-16
      -8.99987224e-16 1.31278606e-16 1.52718889e-16 1.60340266e-15
      -1.80320027e-16 6.95857260e-16 -3.20898988e-16 -1.67199783e-15
      -1.77077452e-16 1.09679980e-16 -4.11811378e-16 7.13756151e-17
      6.77980629e-16 2.75165297e-16 -3.32360085e-16 3.98264489e-16
      1.19415700e-15 2.01304990e-16 2.18319163e-15 6.89808121e-16
      -5.04189956e-16 -5.23371269e-17 1.04957038e-15 -9.71836476e-16
      -3.70875017e-16 1.51703929e-15 8.38558488e-16 -6.14177714e-16
      3.73071056e-16 1.65144108e-16 1.37838677e-15 -3.55727024e-16
      6.68674384e-16 -5.75019963e-16 -9.13992384e-16 -5.06613688e-16
      4.49663904e-16 -3.48645881e-16 1.10286993e-15 9.63428615e-16
      1.10014624e-16 -9.45103150e-17 -3.85800452e-16 1.60942374e-16
      -1.19914232e-15 2.80671143e-16 2.51654627e-16 4.35649056e-16
      7.23167137e-16 6.90086371e-16 -1.16417384e-15 -3.77245603e-18
      6.56043641e-16 4.98041450e-16 7.96791717e-16 6.96896887e-17
      -1.08553540e-15 -5.69947506e-16 2.07519565e-16 2.34044600e-16
      2.38418414e-16 1.54621312e-15 -8.77806501e-16 -2.66206044e-16
      -1.66014633e-16 1.29944711e-15 4.31301792e-16 -1.31804182e-15
      5.96872195e-16 -4.61080108e-16 -7.24569135e-16 -4.21160266e-16
      5.65565911e-16 9.39200720e-16 1.92651672e-15 -1.08248121e-15
      -1.28194731e-15 1.44083735e-15 -1.37842796e-15 -1.54786271e-15
      -8.42841246e-16 6.10435575e-16 -2.94828240e-16 -3.60301664e-16
      -1.50998869e-16 -2.53044105e-16 -1.66354846e-15 8.32888450e-16
      -1.01612613e-15 -1.19292573e-16 6.65384296e-16 1.10616796e-15
      -2.06390864e-15 1.07394079e-15 -9.87067544e-17 1.14459202e-15
      -5.16847646e-16 -1.14206331e-15 -5.57350326e-16 -1.19747734e-16
      9.25793565e-16 1.23540232e-16 -1.55292347e-16 3.82184045e-16
      -2.52542423e-16 2.57142289e-16 2.48963259e-16 -1.58430009e-16
      1.98993895e-15 -1.40535696e-16 2.17309783e-16 -2.10910595e-16
      2.65022792e-16 5.23693790e-16 -2.17134461e-15 -4.15278231e-16
      -4.55613252e-16 5.34212986e-16 -1.69179796e-15 -1.32780170e-16
      1.95290937e-16 -5.53593470e-16 -3.86756435e-16 4.40084809e-16
      9.29141039e-16 4.19201503e-16 1.70202017e-15 1.81808338e-15
      2.73431103e-16 -5.86326953e-16 6.46556594e-17 -1.03331900e-15
      -3.00003823e-16 6.02878559e-16 2.43400291e-16 9.67447151e-16
      7.27642436e-16 -7.76493843e-16 -4.01684702e-16 5.34044268e-16
      -7.44442434e-16 -1.27137655e-15 -1.12051575e-15 -3.80016064e-16
      2.60476951e-16 -1.00456816e-15 -5.16074570e-16 4.78592409e-16
      -5.87174303e-16 1.22499747e-15 1.35870160e-16 -1.27578684e-15
      -1.05459287e-15 5.88493769e-16 -3.16976458e-16 9.65985556e-17
      7.29903974e-17 7.33623375e-17 -1.26994101e-16 -1.51911547e-15
      9.63412839e-16 1.01489360e-15 4.04051074e-16 -8.40334928e-16
      2.28224187e-16 5.86519018e-16 -1.50310094e-15 3.09799356e-17
      -6.19793330e-16 1.53779403e-15 1.02501405e-15 -1.03927533e-15
      -1.83305680e-15 -2.49969905e-15 7.97314125e-16 -1.78741647e-16
      -5.01352614e-17 1.12983417e-15 -5.65857343e-16 -1.26153551e-15
      -4.38088405e-16 -6.55754697e-16 1.31323840e-15 1.43222874e-15
      2.03743485e-17 8.27780524e-16 -6.97356614e-16 6.66093687e-16
      -7.82873325e-16 2.27261560e-16 -4.88382098e-16 -6.34513334e-16
      1.20459097e-15 -2.50681174e-16 9.16814486e-16 9.22803856e-16
      7.23670434e-16 -6.37297637e-16 1.18527266e-16 -1.47349544e-15
      -1.44328194e-16 2.77518196e-16 -4.74876528e-16 -1.24990987e-15
      -1.79964276e-17 7.34108632e-16 6.04099028e-16 5.89300991e-16
      3.42377626e-16 -3.68587102e-16 -4.96735219e-16 1.50256022e-16
      -1.66652899e-16 -3.10241408e-16 -1.21130243e-15 -9.77653792e-16
      4.90473316e-16 1.56233520e-16 -6.21591282e-18 -4.41988145e-17
      1.22722506e-15 7.14934030e-16 4.28694862e-16 -7.60286768e-16
      -8.08659178e-16 1.06706257e-15 -3.15586201e-15 -1.56831829e-16
      2.43021032e-16 -1.78271001e-16 -4.17913324e-16 8.31320221e-16
      -4.81649404e-16 3.65101746e-16 1.15435439e-15 -1.11996846e-15
      -3.03090967e-16 -6.67368842e-16 -2.12905712e-15 -1.49192953e-15
      -1.36070496e-16 9.12288366e-16 -1.11015812e-15 1.35641792e-16
      -8.10595019e-16 -1.60257800e-16 -7.07673528e-17 -1.59330508e-15
      -2.08939396e-15 -8.30822272e-16 -9.79758140e-16 -3.05062781e-16
      2.89302991e-16 -4.01643145e-16 -8.28198111e-17 -2.17066677e-15
      -2.64769031e-15 -2.31292659e-15 -1.31646946e-16 -1.23155626e-16
      -1.64894392e-15 -2.14574515e-15 -1.82066513e-15 -8.25507670e-16
      -2.45076299e-15 -1.58968211e-15 -1.77071295e-15 -3.21732045e-16
      -9.88101414e-16 -5.25659912e-16 -4.27623869e-16 -2.72197240e-16
      -1.68942797e-15 -2.82080140e-15 -2.43837767e-15 5.14546787e-16
      -4.87343741e-16 -5.60265972e-16 -1.62120677e-15 -8.99701985e-16
      -2.52224643e-15 -1.39155856e-15 3.94527459e-16 -1.40408321e-15
      -2.12273881e-16 1.97228565e-16 -9.02911711e-16 1.47142900e-15
      9.58173305e-16 2.21967141e-16 1.81368375e-16 -1.32702937e-15
      -1.05456894e-15 -8.14992285e-16 -6.91428442e-16 5.01535990e-16
      -4.62759934e-16 -5.00082799e-16 -1.68928048e-15 -1.54327338e-15
      -1.36329466e-15 -1.95264938e-15 -4.53154527e-16 -8.55258431e-16
      -3.61866504e-16 3.04552126e-16 1.41229064e-15 -2.12754221e-15
      -3.62150842e-15 -2.75914291e-15 -1.16567213e-15 -4.06867168e-16
      -2.11600308e-15 1.62077584e-16 -4.16860813e-17 -1.45156756e-15
      -2.04940913e-15 -4.20283179e-15 9.69496547e-16 -6.61477251e-16
      -5.92727663e-16 1.03629706e-15 1.20630854e-15 3.28353645e-16
      1.31516900e-15 -5.46670564e-16 1.44771576e-16 -1.08211180e-15
      -1.12708671e-15 1.61038137e-15 -1.29462305e-15 1.08785937e-16
      -1.21801136e-15 -2.65766032e-15 -2.22227013e-15 -2.81925641e-15
      8.76059019e-16 1.81836586e-15 -1.16703543e-15 -4.11409858e-17
      3.95616002e-16 -1.68025621e-16 -1.14756275e-16 -9.54392362e-16
      -4.04281282e-16 -5.80948982e-16 -1.15885860e-15 1.11550364e-15
      3.38520555e-16 1.18680931e-15 1.86954995e-15 -2.33852879e-15
      -3.14623533e-16 5.56301699e-16 -3.89154729e-16 -1.74921579e-15
      -1.50914357e-15 -1.37767241e-15 -1.09899431e-17 -1.36982084e-15
      -1.52500479e-15 -4.21488280e-16 -7.04623045e-16 -1.00287250e-15
      -9.76220930e-16 4.41379128e-16 2.30262995e-16 -1.10073933e-15
      -1.79837655e-16 -1.28647978e-15 -2.22969671e-16 -2.49875752e-16
      3.57755827e-16 1.49621435e-16 6.41341531e-16 -2.19812170e-16
      1.13371040e-15 1.58971792e-16 4.70649251e-16 6.40419774e-17
      3.14296366e-16 4.31678496e-17 1.00988202e-15 9.72485621e-16
      -4.17238874e-16 1.02001433e-15 -4.50124849e-16 3.88310714e-16
      -2.00364437e-15 9.57366188e-16 4.33913962e-16 -3.40655442e-17
      3.93751577e-16 -2.11560044e-16 -3.35226921e-16 -1.04479142e-15
      -2.36784302e-16 -1.07640163e-15 -5.88108740e-16 5.73402342e-16
      1.73191747e-15 -3.59212617e-16 3.27220315e-16 8.47652869e-16
      5.05340809e-16 9.54391303e-16 -1.23610840e-16 1.35778079e-15
      -1.36231631e-16 -7.84254836e-16 -6.01317901e-16 -1.69412339e-15
      9.51266598e-16 -1.50704949e-15 6.27842208e-16 1.13853320e-15
      -4.87920412e-16 -1.11546319e-15 -5.50370987e-16 4.51230545e-16
      -4.61728049e-17 -4.75782059e-16 4.72024892e-17 -6.13497229e-16
      -1.41770414e-15 -2.21124367e-15 -4.86944207e-16 -9.97772850e-17
      -6.20103927e-16 -9.84965486e-16 2.30014576e-16 -2.81455072e-16
      1.55813331e-15 -7.51992886e-16 -1.49188051e-15 -1.53683869e-15
      -6.38345628e-16 -1.12796180e-15 -8.93843376e-16 -1.01905200e-15
      -9.48232526e-16 2.28966406e-18 -7.23368255e-16 -4.93782145e-16
      -8.20113446e-17 -3.59721605e-16 -1.85648383e-15 -2.48393047e-15
      -7.00671371e-16 -1.53785820e-15 -3.18305347e-16 -5.03647590e-16
      4.93417702e-17 -5.71095448e-16 -1.92773687e-15 -5.40665365e-15
      -3.55157738e-15 -3.00088024e-16 -1.63094511e-15 -5.43120914e-16
      -1.25218614e-16 -1.25567605e-15 1.98357143e-16 -1.05062744e-16
      -1.29701253e-15 -2.26961038e-15 -3.14237852e-15 -1.05472352e-15
      -1.36974492e-15 -4.34296371e-16 6.99555458e-16 1.60859200e-17
      -2.24873017e-15 8.42481072e-17 -1.67571609e-15 -1.16779183e-15
      -8.86647090e-16 -2.55738093e-16 1.01002326e-15 7.68434484e-16
      -3.52026363e-16 5.06083551e-16 -4.54236559e-16 -2.55016781e-15
      1.89320821e-15 1.79506843e-15 1.61259128e-15 1.14278043e-15
      -1.32966936e-15 1.18241617e-15 9.71015807e-16 2.78468831e-16
      5.24828549e-16 3.59774306e-16 -8.95667991e-16 -6.03161256e-16
      2.16515216e-15 4.14391679e-16 -1.06124737e-15 -4.50418081e-16
      4.55254467e-17 -7.20396228e-16 9.58496448e-16 -1.04618045e-15
      1.64539962e-16 -8.41214625e-16 -1.01313706e-15 8.29798686e-16
      -1.01425267e-16 -1.45377959e-16 -4.80449105e-16 1.24908963e-15
      -2.40359998e-16 1.03743875e-15 1.87435940e-15 8.66685276e-16
      3.74485839e-16 1.34270890e-15 -1.79575948e-16 5.42554249e-16
      1.20579142e-15 -7.89198663e-17 9.98656080e-16 -1.55645682e-15
      7.44287586e-16 8.04865635e-16 7.06452742e-16 1.34828841e-15
      1.64883105e-15 6.87951478e-16 -2.39288099e-15 -7.22889204e-16
      -9.06491378e-16 1.21254058e-15 7.09189399e-16 1.29717124e-15
      2.30063191e-15 1.63431831e-16 8.06983747e-16 -1.31826766e-15
      1.21059410e-15 1.48854023e-15 2.09717756e-15 -3.48779871e-16
      -2.94874192e-16 -1.49781461e-15 -1.87587749e-15 1.01400707e-15
      -1.14859955e-15 -1.03542567e-15 -1.44281506e-15 -1.04158382e-15
      8.23061333e-16 -2.08288303e-15 -2.50125918e-17 -5.69222181e-16
      1.04446501e-16 -2.05449430e-15 -3.41117003e-15 -2.89692489e-15
      1.16783344e-15 -1.14486350e-15 -1.06848826e-16 1.29465820e-15
      -6.61247599e-16 -1.33260020e-15 -2.13361098e-15 -3.82694737e-15
      -1.61444914e-15 -2.75151903e-16 1.12634444e-16 7.82083731e-16
      -1.78695894e-15 -2.35771663e-15 5.88858470e-16 6.53386075e-16
      -6.77750567e-17 1.40740284e-15 1.54338551e-15 -2.84258736e-18
      1.22239909e-15 -2.30185142e-15 -2.44455021e-15 -5.41301117e-16
      -2.86044360e-15 -6.67335278e-16 -1.40776399e-15 -1.05984119e-15
      -5.24130806e-16 -1.05422713e-16 1.89879085e-16 6.12748452e-16
      -2.65329524e-16 -7.38765514e-16 -5.65398516e-16 -4.27767626e-16
      9.67344978e-16 -1.20683296e-16 -1.83681593e-15 -1.03955337e-15
      1.98831900e-15 8.34673479e-17 1.21498446e-16 -6.13546039e-16
      -7.49934543e-16 1.51915677e-15 -5.77924227e-16 3.78881808e-16
      -4.88007815e-16 2.84730231e-16 6.14171785e-16 -8.05606617e-17
      2.28933074e-16 1.55481781e-15 2.32427270e-16 -3.45825235e-16
      3.12453778e-16 2.03527808e-15 -5.83076887e-16 1.18014898e-15
      7.93580033e-16 -1.45648824e-16 5.87722016e-17 5.91805985e-16
      -5.59407081e-16 -3.96272215e-16 1.11898960e-15 2.80565979e-16
      4.78893741e-16 4.32811436e-17 1.80445877e-16 -5.97703399e-16
      2.09277304e-16 -1.26724059e-15 -4.03496479e-16 8.24103607e-16
      6.23848968e-19 -6.96207137e-16 -9.03110975e-16 6.78910248e-16
      6.32150429e-16 7.39167960e-16 -2.47338835e-16 -1.17757792e-15
      9.21324831e-16 2.14312359e-16 1.47951563e-15 -1.19726741e-15
      7.76834774e-16 -2.65018742e-16 4.45112902e-16 -1.71922256e-15
      -6.80231196e-16 -3.99960911e-16 -1.68561820e-16 -2.25560295e-16
      -1.65943442e-16 2.47020033e-16 1.58782083e-16 -4.26900582e-16
      5.12485797e-16 3.55781896e-16 -6.06989263e-16 -2.44630294e-15
      -1.98946927e-15 -3.55265841e-15 -1.44450489e-15 -3.85271745e-16
      1.05244204e-15 -2.32742128e-16 3.33652392e-16 2.51503167e-16
      3.14091437e-16 -1.25539992e-15 -2.69519505e-16 -1.13897524e-15
      -5.24864548e-16 -4.14886902e-16 -1.04803948e-15 -1.13805833e-15
      -1.86483485e-17 -2.15055905e-15 -9.53884036e-16 -2.17495847e-15
      -2.81323295e-15 -4.07741491e-16 -5.84404559e-16 -3.32407307e-16
      -8.46986731e-16 -5.04232678e-16 -1.15071501e-15 -3.17908935e-16
      -2.12647367e-15 -3.10529288e-15 -2.51222857e-15 -6.98592435e-16
      -1.55782996e-15 -6.24221089e-16 1.90602636e-15 -1.80753231e-15
      1.91530645e-15 3.24060088e-16 1.61634215e-15 -1.31000011e-16
      -9.45049800e-16 8.41418919e-16 -5.44886554e-16 4.59531838e-16
      -1.12203585e-15 5.51570279e-16 -1.06725558e-15 2.05852564e-16
      2.90043642e-16 -1.62009599e-15 9.45144178e-17 8.91701547e-16
      -2.30394550e-16 2.18291868e-15 8.70681644e-17 8.78240553e-16
      3.23813443e-16 9.89711015e-17 7.27592037e-16 1.67200153e-15
      1.58550878e-15 -6.85682223e-16 -8.11038600e-16 1.71251353e-15
      -7.90260088e-16 5.87776703e-16 8.62109922e-16 6.58376952e-16
      -7.71082256e-16 -1.17002810e-15 -4.75283322e-17 6.70933606e-17
      1.91547713e-15 1.50104217e-16 -1.04859238e-15 -9.89656990e-16
      4.30520616e-16 -1.43847423e-16 -3.80247040e-16 -6.25835534e-16
      1.31347321e-16 -1.80489883e-17 -1.50979388e-15 -1.61226157e-15
      7.39084686e-16 9.37224486e-16 9.05169054e-16 3.17774786e-16
      -1.17170777e-15 5.57202426e-17 9.12000374e-16 -7.64275287e-16
      1.24373829e-15 2.39827617e-15 -1.00845724e-16 -1.30834721e-16
      3.57052578e-16 -3.85238250e-15 -2.66340786e-15 -1.20735335e-15
      -1.06460659e-15 1.37317540e-15 7.97793731e-17 -1.15714256e-16
      1.32732636e-15 1.01582427e-15 -1.75688345e-16 1.30938112e-15
      3.56414524e-17 -1.23830595e-15 -6.24707286e-16 1.09854435e-15
      -6.78894896e-16 -4.33236494e-16 2.24171796e-16 -2.64235634e-15
      -2.01026965e-15 -1.87815644e-15 -1.46317594e-15 -1.62683541e-15
      1.20516102e-15 -2.76024998e-15 -1.35603741e-16 -1.26190111e-15
      -8.95663015e-16 -3.72696572e-15 -1.09703800e-15 7.53454600e-16
      1.64112295e-15 4.46655084e-16 -2.59896416e-16 -9.16910188e-17
      -6.27027415e-16 -2.28144026e-15 -1.83816505e-15 -1.14799169e-15
      -3.94682572e-16 -9.60429165e-16 -3.14677266e-16 -1.06895431e-15
      -5.12091404e-17 2.33608023e-15 -7.85251529e-16 1.05054664e-16
      -6.92632288e-16 -1.49102098e-15 -4.42714740e-16 -1.39087363e-15
      -2.04482687e-16 3.90578830e-16 -8.39217851e-16 1.44120697e-15
      2.19276303e-16 -1.63832014e-16 -1.63342932e-16 -6.30404589e-16
      -1.35167321e-16 2.54263144e-16 -5.89786460e-17 1.40583297e-15
      6.96556327e-16 7.01651018e-16 5.92449148e-16 -5.59503643e-17
      4.94983396e-16 -9.16803051e-16 -8.75381128e-16 8.53391465e-16
      -1.95733093e-15 -3.30890807e-17 -1.87946891e-15 4.20346029e-16
      1.01260322e-15 1.51048082e-15 -4.94652048e-16 5.75341306e-16
      5.27231635e-16 4.93989033e-16 -7.70159413e-16 1.61832080e-17
      1.39585524e-15 6.86637200e-17 8.28914648e-16 -1.52063855e-15
      7.77122554e-16 -6.48825014e-16 -5.35269871e-16 -1.05244860e-15
      6.80735392e-16 -1.14093655e-15 -7.24465096e-17 -1.08582001e-15
      1.70972478e-15 3.41239531e-16 -1.27440480e-15 -1.07331568e-15
      5.40835090e-16 -4.14192858e-17 -9.91132839e-16 5.02212664e-16
      2.67586417e-16 5.72307234e-16 5.17886161e-16 -3.23155881e-16
      -7.94175074e-16 7.81596846e-16 3.04826697e-16 -3.04451090e-16
      -6.49270024e-16 2.17323688e-15 3.22492866e-16 -1.07982645e-16
      3.38955242e-16 1.33444832e-15 -6.02066572e-16 1.65756280e-15
      -7.85691509e-16 -1.46219592e-15 -2.16791465e-16 2.59108355e-17
      1.23793135e-15 -6.34076900e-16 -5.00553908e-16 5.30435643e-16
      -1.21859570e-15 -4.61705695e-16 -1.78918664e-15 -2.08193096e-15
      -2.74382072e-15 -2.44807514e-15 7.89691887e-16 -6.68416833e-16
      -5.04300970e-16 -8.90873387e-17 5.02619689e-17 -6.32565793e-16
      4.01357165e-16 7.05147120e-17 7.04951958e-16 -8.68564842e-16
      9.66592071e-16 -1.90343351e-16 -1.70493873e-15 6.27594239e-16
      -2.59919313e-16 -7.79877687e-16 -2.95926286e-16 -1.66140610e-15
      -1.85035046e-15 -1.63458894e-15 1.56496082e-15 -7.63299968e-17
      2.53239304e-15 -6.26986175e-16 -1.43126863e-15 -1.10037531e-15
      -1.27760213e-15 -2.61216194e-15 -1.97105012e-15 3.95611079e-16
      -9.23455013e-16 -3.59051972e-16 -1.27733172e-15 -1.39687782e-15
      -2.13287174e-15 -1.89222841e-15 -2.44546099e-15 -7.05644778e-16
      6.63172005e-16 -1.35958952e-15 4.13132935e-16 -1.29164986e-15
      -1.50429155e-15 -2.93531708e-15 -2.32712815e-15 -2.37360506e-15
      -2.05474883e-15 -6.34819589e-16 -1.40894603e-15 2.66900876e-16
      -2.05548511e-15 -1.40859112e-15 -1.04743343e-15 -2.57564805e-15
      4.42556980e-16 -9.90888364e-16 -8.42044664e-16 -3.57718398e-16
      5.13927182e-16 5.66768274e-16 -3.58678801e-16 2.67514313e-16
      -7.01977708e-16 -1.87421540e-15 -1.91792802e-15 -9.71654470e-16
      -1.32386665e-15 6.85026461e-16 -8.63821934e-16 -7.91202994e-16
      8.52119115e-16 -9.68455226e-16 -2.84272812e-15 -1.21153261e-15
      -3.82594300e-16 -3.40328097e-16 1.75712459e-16 -1.07703458e-15
      -9.07267789e-16 -1.03946242e-15 -2.63964710e-15 -2.99333926e-15
      -2.18640168e-15 -1.46418232e-15 -9.26181612e-16 -5.04499706e-16
      -2.21388726e-15 -9.85523364e-16 -7.81155595e-16 -2.03453566e-15
      1.58632182e-15 -9.57321402e-16 -8.95541042e-16 -8.32434004e-17
      -7.24204223e-16 -1.21285663e-15 -1.60905544e-15 -7.59033159e-16
      -1.27816504e-16 -8.87814301e-16 -9.38037532e-16 -1.07260566e-15
      -1.08118419e-15 -1.48646458e-15 -1.14636941e-15 -1.90423192e-15
      4.52227026e-16 -8.72968196e-16 -1.49028713e-15 2.01938094e-16
      3.38450834e-16 3.88997287e-16 9.53364169e-16 3.76035115e-16
      -2.26926638e-16 -8.63813146e-16 2.03412485e-15 -1.09998367e-15
      -1.38589149e-15 1.08827289e-16 6.65248559e-17 1.17743498e-15
      1.31416328e-16 -6.15470815e-16 2.24418302e-17 -2.19558775e-15
      -3.12620750e-16 -3.82878374e-16 -5.94263281e-16 9.84842561e-16
      -2.44221039e-16 -6.69321412e-16 -4.14749259e-16 -4.15364073e-16
      1.01226430e-15 8.40848389e-16 9.08250136e-16 6.57030805e-16
      3.17953643e-16 3.01768934e-16 -1.11576484e-15 -5.00627547e-16
      -5.89976659e-16 -7.30007537e-17 5.51057666e-16 2.98705189e-16
      8.44488725e-16 6.72130596e-16 1.41917273e-16 6.74246581e-18
      6.89331824e-16 -9.95112240e-17 3.91667214e-16 1.51124844e-15
      -2.34492601e-15 -1.05967803e-15 -1.64587692e-15 2.43475571e-16
      -9.31585470e-16 6.36682797e-16 -3.41473312e-16 1.58672141e-16
      3.28354784e-16 -9.02087018e-16 -6.17521628e-17 -3.65161264e-17
      -7.52587133e-16 -1.93456714e-15 -4.85819506e-16 1.76571575e-16
      -1.19689694e-15 5.20793867e-16 1.03567756e-15 5.25822807e-16
      -2.30619040e-16 5.88517804e-16 3.12926555e-16 -4.33037468e-16
      6.30644722e-16 -5.43991981e-16 1.42051237e-15 -4.39282589e-16
      -7.94343633e-16 6.90046243e-16 6.54207591e-16 -6.05371536e-17
      -5.06792941e-16 8.59601924e-17 -4.57735493e-16 -3.34843903e-17
      -5.49819145e-16 1.29130385e-15 9.76001231e-16 -8.16821929e-16
      7.69495435e-18 -6.33862812e-16 -5.48693967e-16 -1.35714200e-16
      -2.53130052e-16 3.88311376e-16 1.00621574e-15 3.08129212e-17
      -2.30969500e-16 1.61361603e-16 -1.49993166e-15 5.00397049e-16
      1.39202379e-15 3.87521623e-16 -1.28831117e-15 -4.71438104e-16
      -1.33533505e-15 1.78992546e-15 2.55052208e-15 7.09123649e-16
      -3.02050784e-16 -1.11287053e-16 4.01105769e-17 4.55251039e-16
      1.04052640e-15 -1.00670078e-16 -2.25061071e-17 9.05195590e-17
      3.66284760e-16 -1.06715076e-15 1.16253917e-15 -5.08224215e-16
      -9.15964277e-16 1.85325091e-15 -1.76927474e-16 2.55360532e-17
      -6.99331683e-16 -7.67998844e-16 -1.25254772e-16 2.41277891e-16
      4.68138169e-16 6.64623555e-16 1.15603237e-15 -5.51870923e-16
      -4.83013074e-16 -2.22592212e-15 -1.42792444e-16 -4.51764017e-16
      6.65746932e-16 6.90233781e-17 -3.63138933e-16 3.90002920e-17
      -8.22739831e-16 -7.20854896e-16 6.75720851e-16 -7.96097203e-16
      2.10856226e-16 2.98354491e-16 -5.86749411e-16 -7.07624665e-16
      2.39162442e-15 1.45075600e-15 2.61556998e-16 -9.35906926e-16
      3.65956773e-16 7.48858017e-16 1.54350536e-15 -1.70647771e-16
      -3.54636945e-16 -6.54035696e-16 -1.00322942e-15 5.07206188e-16
      3.62511573e-16 -1.02306446e-16 4.60987623e-16 5.05687074e-17
      -3.51839354e-16 -4.67434603e-16 8.74627957e-16 1.39203914e-15
      -5.49261850e-16 -1.06642433e-15 -1.27026566e-15 3.69234288e-16
      5.47485675e-16 5.55174643e-17 8.66552769e-16 -1.00074931e-15
      -1.48598881e-16 -2.26292835e-15 -8.21082981e-16 -3.01717450e-16
      -7.57483512e-16 -7.80460287e-16 1.71445543e-16 4.01346074e-16
      3.76147241e-16 1.16236881e-15 -6.07026095e-17 2.51946086e-16
      1.19527699e-15 -1.09294980e-15 1.22140655e-16 -1.38326860e-16
      -1.11375568e-15 -9.69424126e-16 -6.87850787e-16 -3.70946671e-16
      -7.22534721e-16 1.93764107e-16 -7.12975954e-16 3.08188173e-16
      -6.56226547e-16 3.26635227e-16 2.54053967e-17 -2.06255540e-16
      2.88014866e-16 -1.03022277e-15 -2.93424336e-16 1.96674380e-16
      9.73997151e-16 -7.67781421e-16 9.26285479e-16 -7.32957673e-16
      -9.43036403e-16 -1.99185811e-15 -1.40779660e-15 2.72407490e-16
      7.01219349e-16 4.68604779e-16 1.79323842e-15 5.13407633e-16
      1.40228041e-15 5.11852269e-16 1.37609873e-15 -2.17373205e-17
      1.59743066e-15 -1.19150409e-15 -2.05963076e-16 -9.25612723e-16
      3.12588959e-16 9.62973017e-16 1.50390774e-15 -1.66089630e-15
      6.37642379e-16 -3.79011113e-16 -1.06418804e-16 -3.41301762e-16
      4.89302293e-16 6.11846838e-16 8.23293420e-16 -6.21547165e-16
      -2.00079532e-16 -1.19960480e-15 9.88227963e-18 -2.41926242e-16
      1.19813573e-15 -9.43257266e-16 -2.62910821e-16 8.41199696e-16
      -1.09501442e-16 -3.79224141e-16 -1.31214178e-16 -2.55760566e-16
      -9.61804535e-16 -4.54443069e-17 -1.13927160e-15 -1.22408437e-15
      -1.93186642e-16 8.00831112e-16 1.46970825e-15 7.49266605e-16
      -8.52422353e-16 -1.59128829e-15 1.08294634e-15 -9.36470415e-16
      -7.29083715e-16 1.21920292e-15 3.09851567e-17 8.38846586e-16
      3.90083607e-16 5.19975659e-17 8.93417636e-16 2.34073664e-16</_></support_vectors>
  <decision_functions>
    <_>
      <sv_count>1</sv_count>
      <rho>-5.1070259132757201e-14</rho>
      <alpha>
        1.</alpha>
      <index>
        0</index></_></decision_functions></my_svm>
</opencv_storage>
