<?xml version="1.0"?>
<opencv_storage>
<my_svm type_id="opencv-ml-svm">
  <svm_type>C_SVC</svm_type>
  <kernel><type>LINEAR</type></kernel>
  <C>4.4408920985006301e-16</C>
  <term_criteria><epsilon>1.1920928955078125e-07</epsilon>
    <iterations>1000</iterations></term_criteria>
  <var_all>1296</var_all>
  <var_count>1296</var_count>
  <class_count>2</class_count>
  <class_labels type_id="opencv-matrix">
    <rows>1</rows>
    <cols>2</cols>
    <dt>i</dt>
    <data>
      -1 1</data></class_labels>
  <sv_total>1</sv_total>
  <support_vectors>
    <_>
      7.60264692e-16 -1.05708560e-16 1.10411029e-16 -7.21676703e-17
      2.88855996e-16 1.02547441e-15 9.63920000e-16 6.57856238e-16
      2.77870376e-16 -6.63120866e-16 -2.95393310e-17 -1.85116285e-16
      -6.85746598e-16 9.55233889e-16 -7.13932890e-16 -9.98849243e-17
      -3.64062543e-16 2.69899664e-16 -2.12656505e-17 -4.56223698e-16
      3.01587325e-16 2.80024493e-17 -2.72881617e-16 -2.61770847e-16
      -8.78197407e-16 -4.83201062e-16 -4.80857825e-17 9.51884443e-17
      -2.50493636e-16 1.26113137e-15 -5.87339131e-17 -1.55313457e-16
      3.99934626e-16 -2.08390725e-16 4.48768485e-16 -2.97451528e-16
      4.43307875e-16 4.61450480e-17 -4.53479205e-16 -1.69817903e-16
      8.59334619e-16 6.78061415e-16 1.35739825e-15 -3.83222375e-16
      -9.86834041e-16 2.87850019e-17 -3.75735477e-17 -1.64950521e-16
      -2.57084267e-16 2.89478910e-16 6.41199071e-16 3.78279409e-16
      8.66239790e-16 4.61815068e-16 6.81142127e-16 -3.99378351e-18
      1.07285193e-15 -4.32449601e-16 -1.13350129e-15 1.50249047e-16
      -6.89653630e-17 5.76999902e-17 5.77086617e-16 8.27160893e-17
      1.80658787e-16 3.49549877e-16 -1.93695855e-16 -5.63942691e-17
      -3.16989534e-16 1.80530051e-16 6.06073250e-16 2.87489176e-16
      4.35946603e-16 -3.88633592e-16 -5.55823444e-16 1.64176995e-16
      5.40931016e-16 1.68046572e-16 1.01911743e-15 2.98771152e-16
      -2.54659767e-16 6.36993605e-16 1.22734081e-16 -1.55589497e-16
      -2.89681926e-17 3.01909250e-16 2.51813869e-16 2.07643126e-16
      -7.00832467e-16 1.00084492e-15 -1.14601142e-17 2.97731181e-16
      8.11037329e-16 -4.27927054e-16 -1.25559452e-15 -1.82840056e-16
      4.31193874e-16 3.59043820e-16 1.19754961e-16 -2.78104210e-16
      -5.06147132e-16 -7.34900714e-16 -1.53431633e-15 1.66060796e-16
      -6.61337967e-16 6.98335943e-16 1.83511607e-16 -4.87907442e-16
      -1.32174039e-16 -3.40575352e-16 2.13778199e-16 4.41408192e-17
      5.36316063e-16 4.97060797e-16 1.02413483e-15 4.71258956e-17
      -4.17296261e-16 -5.11957460e-16 -4.35984322e-16 -1.50066194e-16
      -5.42335185e-16 -2.13028535e-16 -2.53669427e-16 4.55475457e-17
      -8.77538508e-17 5.40900099e-16 -3.73596719e-17 -1.82769312e-17
      3.33938240e-16 9.97864964e-17 1.33936770e-17 -3.59782194e-16
      1.11624765e-15 -4.11756771e-16 -8.26801195e-16 -2.69560443e-17
      9.89072537e-16 -3.14171323e-16 -9.99819691e-16 -1.03202316e-16
      -1.25435031e-16 1.73511073e-16 -6.75698458e-16 -1.54164205e-16
      3.17738655e-16 6.17057890e-16 8.95277403e-16 5.00771331e-16
      6.60675482e-16 7.83833106e-17 8.10302263e-16 3.22771116e-16
      6.43636143e-16 -1.97553375e-16 -4.55779112e-16 -9.80770768e-16
      -1.52679211e-16 -3.10562063e-16 1.29556111e-16 1.53505041e-16
      -2.60865290e-16 -2.09049280e-16 4.56361023e-16 2.99384060e-16
      -1.56784025e-16 4.43540117e-18 8.32783153e-16 5.66545822e-16
      1.31677611e-16 2.88045280e-16 2.22835998e-16 5.80547329e-16
      -2.59554533e-16 2.15970280e-16 -6.46899496e-16 -6.06714612e-16
      -9.34448071e-18 3.65969796e-16 -6.84860125e-16 7.99248047e-18
      3.07806320e-16 -3.95775112e-16 -1.19309765e-16 -5.83492728e-16
      9.26494802e-16 9.76270164e-16 2.92764762e-16 -6.49511058e-16
      1.27371375e-16 2.14269967e-16 1.25268404e-16 4.30106655e-16
      -7.08448828e-16 8.64556630e-16 2.05659163e-16 -3.99504281e-16
      -1.04641275e-15 -6.36148796e-16 4.82133695e-16 2.43442669e-16
      2.68821285e-16 -9.12025521e-17 1.68476905e-16 -2.70357882e-16
      -6.55239542e-17 2.65936813e-17 3.75330556e-17 1.10237177e-15
      -5.83364402e-16 2.81723655e-17 -7.21859265e-16 6.80415584e-16
      7.68750798e-16 2.01849010e-16 -4.33624435e-16 1.28395967e-16
      6.12039009e-16 -3.56120113e-17 6.69049249e-16 -1.54222227e-16
      4.63576235e-17 4.23042188e-16 9.10598747e-16 -1.04471170e-15
      -4.66146371e-16 -3.01188902e-16 -4.33357938e-16 1.27819747e-16
      -6.62372552e-17 1.40480383e-15 5.09557816e-17 -2.04028346e-16
      2.62861058e-16 2.15708891e-16 5.02000852e-16 9.18944350e-16
      4.66500325e-16 1.71761910e-16 -5.26526480e-16 -2.80167132e-17
      4.23850072e-16 5.51926245e-16 -3.35365331e-16 4.41734379e-16
      2.06708491e-16 5.76225926e-16 3.27802783e-16 3.62271968e-16
      -1.47897233e-16 -4.08176601e-16 -4.68949203e-16 -6.22476096e-16
      1.77714262e-16 9.21529958e-17 -6.66476440e-16 1.69103352e-16
      2.33586196e-16 -5.78996386e-17 -1.05290397e-17 2.26965602e-16
      5.67343145e-16 1.95944264e-16 -9.31506802e-16 -1.35306546e-15
      -2.87446030e-16 3.05416020e-16 -1.34376420e-15 3.57625437e-16
      4.78809143e-16 4.97211887e-16 4.96892767e-16 -5.06606329e-16
      -9.39469018e-16 -4.82991421e-16 -9.71312996e-17 -1.12689316e-16
      2.73718432e-16 1.51725955e-16 -5.53830693e-16 -1.39278316e-15
      -1.86326814e-15 -2.11324323e-15 -4.78346663e-16 -4.40027660e-16
      -1.05247687e-15 -9.00869938e-16 -1.05161883e-15 -2.94292333e-16
      -1.55832124e-15 -8.67551103e-16 -9.07453713e-16 3.34055210e-16
      -3.43558760e-16 -1.75383267e-16 -1.09751316e-16 -4.94396297e-16
      -9.78336818e-16 -1.24860036e-15 -1.30562643e-15 -3.85317061e-16
      -7.75664439e-16 8.13417783e-17 -7.55685156e-16 -6.65788914e-16
      -1.31986961e-15 -5.95610010e-16 -7.48385690e-16 -1.80467019e-15
      -6.50775890e-16 7.03900790e-16 3.86394221e-18 3.44613422e-16
      2.19466270e-17 -6.63636748e-17 -3.43076719e-16 -1.22118953e-15
      -1.40989979e-15 -7.25203775e-16 -7.52189874e-16 1.15460607e-15
      -2.54519901e-16 -3.18466839e-16 -4.48613636e-16 -1.49208771e-15
      -1.36962379e-15 -1.16535502e-15 -6.21573688e-16 -3.02218285e-16
      1.46986567e-16 1.49713057e-17 4.10944069e-16 -1.37390533e-15
      -1.85743017e-15 -1.31603181e-15 -1.16057342e-15 -9.20839904e-16
      -9.09789195e-16 1.16329559e-16 -9.80010767e-16 -1.42989485e-15
      -1.78798237e-15 -2.83764359e-15 -4.15400998e-16 1.38067323e-16
      -4.49850569e-16 -2.28423689e-16 4.90750508e-16 9.24199025e-16
      2.52202260e-16 -9.29344644e-16 -5.08571234e-16 1.54284232e-16
      -7.72610118e-17 -4.39735884e-16 -9.69383151e-16 4.23546583e-17
      -7.86409105e-16 -8.08812809e-16 -1.59551763e-15 -1.55543138e-15
      6.42320701e-16 9.13875493e-17 -2.27712155e-16 -3.56532473e-16
      1.54014016e-16 -5.36549791e-16 -8.63731831e-16 -4.56306178e-16
      -5.41157240e-17 -6.83045992e-16 1.59702279e-16 3.44430781e-16
      5.30881129e-16 1.17048254e-15 9.84492101e-16 -1.39632365e-15
      -7.76594270e-16 3.42641953e-16 -2.35197147e-16 -1.61985088e-15
      -9.98472591e-16 -1.02901459e-15 3.42510610e-17 -9.81854334e-16
      -8.31481211e-16 -8.31468770e-16 -2.45579998e-16 -1.16968569e-15
      -8.65681013e-16 -2.38406582e-16 -8.44240015e-16 -3.99164356e-16
      -3.47901763e-16 -1.80688704e-17 -1.20193169e-19 -8.55197445e-16
      3.38581065e-16 8.08216736e-17 -7.25332577e-17 -7.58754591e-16
      3.72375774e-16 -2.59812004e-16 8.87712975e-16 -2.31013777e-17
      8.40578622e-17 9.84895103e-17 8.07547606e-16 8.62286475e-16
      3.25831393e-16 1.17026930e-15 7.65156360e-16 2.08976422e-16
      -5.55068102e-16 4.72834755e-16 -7.69193531e-17 6.13082712e-17
      -6.61486079e-17 -1.13459682e-15 2.58514297e-16 -5.21458629e-16
      3.02123020e-16 -1.83418208e-16 -4.51483066e-16 5.36105046e-16
      6.87780959e-16 4.96229435e-16 -4.49803718e-16 1.08780545e-15
      3.43048774e-17 4.62817426e-16 -5.81242638e-16 6.65440095e-16
      4.28713312e-16 -2.80200749e-16 -6.01738691e-17 -4.87175976e-16
      7.29364824e-16 1.31596614e-16 -2.07175868e-16 8.10175950e-16
      6.35386281e-17 -2.76725849e-16 2.92557292e-16 -4.02885372e-16
      -3.64456096e-16 2.43292691e-16 1.17972539e-16 -8.91104733e-17
      -2.99952948e-16 -9.96989543e-16 -5.44056621e-16 2.44583569e-16
      1.45605535e-15 -4.45121075e-17 7.57050202e-16 -1.67116967e-16
      8.10855058e-16 2.35707140e-16 -2.86984530e-16 -2.96459652e-16
      -3.43853237e-16 -4.75539808e-16 8.77714122e-16 -1.12682519e-15
      -1.95296019e-16 -3.30182284e-16 -2.09783909e-16 -2.64261945e-16
      1.17610736e-16 -4.86695020e-16 -1.49232446e-15 -2.08465926e-15
      -5.32799923e-16 -1.17760735e-15 -1.74081841e-16 -5.27441011e-16
      9.17941649e-17 -1.01887641e-16 -1.20810742e-15 -2.39551760e-15
      -2.43029317e-15 -3.49883741e-16 -9.25257287e-16 -3.19514010e-16
      -1.86763644e-16 1.39727826e-16 -3.54094646e-17 1.17791565e-16
      -8.75818144e-16 -2.49010216e-15 -1.81979459e-15 -1.63315618e-15
      -6.31658409e-16 -1.02323160e-17 3.67502502e-16 7.83180745e-16
      -7.30972228e-16 -3.36875220e-16 -1.69871113e-15 -4.87142095e-16
      -3.11622336e-16 2.27510906e-16 -7.25874893e-18 3.51706979e-16
      -1.78936398e-16 1.08962901e-15 5.52918597e-16 -1.18098363e-15
      8.48998011e-16 1.96964701e-15 8.45470277e-16 9.28192997e-16
      2.58027809e-17 3.66471902e-16 1.02900273e-15 -3.51772121e-17
      -3.25048444e-16 4.99863947e-16 -8.67421930e-16 -6.03601925e-16
      5.71242672e-16 5.57591995e-16 2.26137839e-16 -5.53636457e-16
      3.22403213e-16 -7.56275696e-16 -1.94535304e-16 9.50604496e-17
      2.98117057e-16 2.83614133e-16 1.88068578e-16 4.17631236e-16
      4.53884669e-16 3.02064496e-16 -4.81574282e-16 8.51514704e-16
      -3.51256040e-16 4.01019358e-16 8.56057395e-16 1.70566659e-18
      8.10688458e-16 -1.55845605e-16 -4.13929755e-16 4.24340908e-17
      1.34701828e-15 -8.04417992e-17 5.09642307e-16 2.03335566e-16
      1.59860753e-16 2.30740086e-16 1.24265874e-16 5.19652648e-16
      8.63787418e-16 8.71207638e-16 -6.75187697e-16 -7.58075006e-16
      -3.88843656e-16 -3.26739651e-16 3.29087467e-16 -8.82533686e-16
      1.27208594e-15 -1.40254945e-16 1.31944768e-15 -6.28796655e-16
      1.41145960e-15 6.96288611e-16 6.31210964e-16 -9.79791399e-17
      -3.15638993e-16 -2.22041084e-16 -1.48447490e-15 6.43007751e-16
      -9.71680198e-16 -2.14973733e-16 -6.88643821e-16 -5.20069548e-16
      6.88131088e-17 -4.77536317e-16 2.27206371e-16 -2.27034158e-16
      -3.96695870e-17 -1.56052586e-15 -2.42014487e-15 -7.99720704e-16
      1.05625379e-15 -5.72101564e-16 -4.37505832e-16 2.75837788e-16
      5.52330491e-16 2.23389773e-16 -1.99220900e-15 -2.01428903e-15
      -1.45813969e-15 2.34562190e-16 -1.96590350e-18 5.00248606e-16
      8.12641292e-17 -3.83588161e-16 -4.14467753e-16 -4.69119404e-16
      3.60552094e-16 1.13366498e-15 1.19868693e-15 1.95708934e-16
      -9.09654887e-17 -9.75139587e-16 -1.36361219e-15 -4.21047346e-16
      -1.41215099e-15 -8.09333575e-16 -2.27551140e-16 -8.10932615e-16
      -2.01320462e-16 -3.50106802e-16 2.48415070e-16 -2.40845828e-17
      -1.34966680e-16 -3.90654136e-16 -4.01805431e-16 8.27136408e-17
      2.37614712e-16 -3.68397062e-17 3.57193331e-17 5.73088781e-16
      6.21344036e-16 5.21233318e-16 -4.79338592e-17 1.49417141e-16
      -5.64460374e-16 7.22796309e-17 1.40018728e-16 4.98744580e-18
      3.47711736e-16 -1.25135579e-16 4.92572476e-16 5.97044011e-17
      2.88881010e-16 9.19556014e-16 6.26490026e-16 1.08975421e-16
      1.70836566e-16 -8.15677376e-17 -2.20581726e-16 1.33781006e-16
      7.32437066e-16 -1.28435010e-16 6.09106792e-16 1.56399022e-16
      -1.12689274e-15 1.82484487e-16 9.48958963e-16 1.57768251e-16
      2.21704773e-16 -4.38079114e-16 1.64507616e-16 3.68487655e-16
      5.33914460e-16 -2.86828173e-16 -4.50017911e-16 -3.60785319e-16
      -2.99090695e-16 -8.75460432e-17 -9.87663286e-16 7.89094676e-16
      1.10943391e-15 3.90060075e-16 1.20491323e-16 9.21703931e-17
      1.88452906e-16 -9.66082766e-17 5.31506928e-16 -2.07634576e-16
      6.92094263e-16 3.13155651e-16 -2.14523336e-16 -7.04192964e-16
      4.23942803e-17 -3.82807038e-16 2.47937449e-16 -6.35808010e-17
      -1.26241777e-16 -5.40313053e-16 9.33049739e-17 -5.08312518e-16
      -1.18207418e-16 -7.48727362e-17 5.14352552e-16 -1.37962990e-15
      -1.50432808e-15 -2.53610410e-15 -1.52037787e-15 3.52462122e-17
      1.34285454e-16 1.63355360e-16 -4.42146434e-16 5.49528401e-16
      -1.79722723e-16 -2.85654318e-16 -7.57880347e-16 -3.57304438e-16
      -1.13014979e-15 -9.54116864e-16 -2.14756892e-16 -9.37012622e-16
      -9.83409275e-16 -1.37906122e-15 -8.22727390e-16 -1.98854685e-15
      -2.35779032e-15 -2.03023395e-16 4.26219779e-16 -7.84867082e-17
      -7.59802106e-16 -1.53887437e-16 -4.31271801e-16 -7.03405011e-16
      -6.57852850e-16 -1.02987179e-15 -1.42482313e-15 -7.33180708e-16
      2.64283915e-16 -2.81424500e-16 7.10413150e-16 -1.46840372e-15
      1.13402200e-15 -2.54790885e-17 2.77201538e-16 -8.19195951e-16
      -2.06092222e-16 3.62392750e-16 -9.17548639e-17 1.52184689e-17
      -1.09130994e-15 7.01417290e-16 -4.27204402e-16 3.37600254e-16
      -6.22578216e-16 -8.54724695e-16 6.33413567e-16 4.67537782e-16
      4.77554952e-16 -1.25954024e-16 -1.53808412e-16 -2.14709114e-16
      4.55776041e-16 2.24000404e-16 -7.45881464e-17 1.79970401e-16
      5.59688296e-16 1.31203061e-16 1.84572159e-16 7.55720254e-16
      2.83069291e-18 4.71407452e-16 5.92556457e-16 1.29357898e-15
      6.07327328e-19 -2.71773380e-16 4.85697215e-16 -2.78362687e-16
      1.91474953e-15 -3.38013209e-16 -1.32277509e-16 1.16326555e-16
      4.13517038e-16 2.59258389e-16 -3.62861291e-16 1.06857408e-16
      -1.03948598e-16 1.25330515e-16 -6.46580906e-16 -6.26845568e-16
      -5.62705851e-16 1.03182642e-15 -1.59851396e-17 -9.13220314e-16
      -6.08327734e-16 -7.96836345e-16 1.14370041e-15 -7.00674601e-16
      4.59268676e-16 8.91973868e-16 1.16400464e-15 -8.72479670e-16
      -3.70216978e-16 -1.39644255e-15 -1.45112192e-15 -5.72081076e-16
      -3.40164514e-16 -7.68649709e-17 3.20090283e-16 -3.54395647e-16
      8.19633231e-16 -1.91890986e-16 -5.16557696e-16 -1.51721124e-16
      -2.95850741e-16 -2.15587143e-16 -5.80008140e-16 7.78336299e-16
      -1.41409355e-17 -1.77484968e-17 -3.90986597e-16 -8.34533176e-16
      -1.05776183e-15 -1.26556484e-15 -9.68810874e-16 -1.26135075e-15
      -8.64581749e-17 -1.39284361e-15 -1.25437758e-16 -2.22270419e-16
      -1.56789547e-15 -1.46453892e-15 -7.33963790e-16 1.78705079e-16
      9.48144197e-17 6.78196623e-16 -2.85685126e-18 -7.70572236e-16
      -1.44020356e-15 -1.62900233e-15 -1.18945184e-15 -7.41329218e-16
      -9.11088226e-16 -8.84602035e-16 -3.04059894e-16 -1.01362019e-15
      -1.54404299e-16 5.36178473e-16 -1.12063094e-16 -1.18057771e-16
      -1.10691927e-16 -9.45548173e-16 -7.77341882e-16 -9.52643450e-16
      1.59806847e-16 1.09522799e-17 -4.31110058e-17 3.75022064e-16
      7.30474543e-16 5.02800610e-16 -1.18508136e-15 -3.35612930e-16
      -1.31617604e-16 9.58431756e-16 4.28723159e-16 3.81729135e-16
      1.97776264e-16 -2.42920261e-16 2.75589157e-16 -1.59543301e-16
      -2.81955616e-16 -1.27532430e-16 -2.86508524e-16 3.01911950e-16
      -7.13908908e-16 -1.95942610e-16 2.11008960e-17 9.97080916e-16
      3.79782363e-16 6.31030864e-16 3.33071513e-16 1.67420760e-16
      -7.08136220e-17 4.86539537e-16 -2.06945832e-17 -7.99695717e-17
      -3.47272126e-17 -1.54422497e-16 5.19601350e-16 -2.48997802e-16
      2.88668220e-16 -1.42551452e-15 -9.44527392e-16 -2.85342954e-16
      2.26624671e-16 6.13716981e-16 -4.82214745e-16 -2.32116515e-16
      2.54074441e-16 4.39195609e-16 1.31803131e-16 4.88816520e-16
      8.55355099e-16 -6.08672211e-16 -4.34990170e-16 -6.74527488e-16
      -5.24908753e-16 6.38949616e-16 2.65669978e-16 1.29810459e-16
      -7.55614481e-16 9.43563892e-16 -5.28150083e-16 3.86300863e-16
      -2.61853248e-16 7.07639911e-16 2.47313901e-16 -5.19213303e-16
      1.44380392e-16 -1.68469070e-16 -5.05952579e-16 6.49877029e-16
      4.49136362e-16 -1.53593670e-15 -1.11805088e-15 -1.84005163e-16
      9.61657787e-16 -9.07138088e-16 -7.44627193e-16 5.54411281e-16
      -5.16325238e-16 -5.40447837e-16 -1.27066038e-15 -2.00573040e-15
      -1.87890098e-15 -1.13457310e-15 5.66892364e-16 -2.14957242e-16
      -3.41771071e-16 -9.92288510e-16 -4.16852045e-17 -3.59138714e-16
      1.00743002e-16 2.43677032e-16 -3.23838695e-17 -2.89359187e-16
      -2.40394277e-16 -2.61808858e-16 -9.35203783e-16 -4.79830453e-16
      -5.63042758e-16 -8.30215055e-16 -4.90068329e-16 -4.56273249e-16
      -1.04733115e-15 -1.12439092e-15 7.33927897e-16 -2.48471715e-16
      7.02765396e-16 2.33085944e-16 -9.75595714e-16 -7.36128700e-16
      -6.29944544e-16 -9.72274921e-16 -6.67164495e-16 5.49573240e-16
      -4.82153851e-17 7.23669348e-17 5.69799064e-16 2.24644156e-17
      -1.53920466e-15 -1.23334922e-15 -9.93965212e-16 9.77421593e-18
      1.40053152e-16 -3.24044180e-16 1.41363545e-17 -8.38381564e-16
      -1.31221116e-15 -1.08421975e-15 -1.23795570e-15 -1.76534065e-15
      -1.07719636e-15 -5.79731319e-16 -2.29889268e-16 1.12178291e-16
      -5.97228796e-16 -1.10226674e-15 -7.79351627e-16 -1.77465081e-15
      -4.36810047e-16 -3.03763617e-17 -9.14558943e-16 -5.82042713e-16
      6.98319042e-17 2.93115831e-16 6.27535053e-16 -5.16015489e-16
      -1.07867062e-15 -1.70113915e-15 -1.24997721e-15 -1.19983858e-15
      -1.25854686e-15 1.24035177e-16 -1.45030119e-16 -3.26740789e-16
      -3.91053883e-16 -8.60904700e-17 -1.75200909e-15 -7.09839497e-16
      -9.24492985e-17 -3.46068175e-16 -3.27620009e-16 -7.64019007e-16
      -1.17056870e-16 -1.49599116e-15 -8.77160427e-16 -1.45593793e-15
      -1.85222939e-15 -1.21137348e-15 -2.02689187e-16 3.90296636e-16
      -1.30249506e-15 -8.90353706e-16 2.37458884e-16 -1.00646181e-15
      7.50371930e-17 -7.43099834e-16 -1.52297223e-15 -1.38134588e-15
      -5.84856027e-16 -8.36563091e-16 -1.19263404e-15 -1.08154694e-15
      -3.83034043e-16 -6.35714691e-16 -7.60304979e-16 -5.41890228e-16
      -5.76853683e-16 -1.70518122e-16 -1.83779680e-17 -1.76435375e-16
      2.34082743e-16 5.05756656e-17 -1.29587592e-15 -5.45393292e-16
      3.36098207e-17 7.90076864e-16 4.10500621e-16 2.57061053e-16
      -6.14705204e-16 -3.53434662e-16 3.72553122e-16 -4.22951000e-16
      -3.10934228e-16 6.15479974e-16 -4.85374602e-16 4.15536709e-16
      3.85915411e-16 3.94777784e-16 -2.32024718e-16 -1.07949013e-15
      2.21310929e-16 9.42496525e-16 -8.74896361e-16 -2.28093955e-16
      -1.24534887e-16 -6.00784058e-16 -8.62723703e-17 -8.26071264e-17
      5.77906598e-16 -5.65000251e-16 -1.76534504e-16 3.17899988e-16
      2.60007801e-16 -2.98630518e-16 -4.89901410e-16 -2.03038178e-16
      -5.52040806e-16 1.74521874e-16 5.71241561e-16 9.03059200e-16
      1.19729007e-16 1.05780803e-16 6.37520459e-16 -5.13736176e-16
      1.06727348e-15 1.88708604e-16 3.28960995e-16 6.53103907e-16
      -4.17395072e-16 -4.06965000e-16 -5.84066169e-16 2.36135554e-16
      -1.18313700e-15 3.40084628e-16 -3.31503073e-16 -7.07892751e-16
      -1.46386418e-16 -3.76074608e-16 -2.06543915e-16 3.12869777e-16
      7.01733180e-16 -2.12632851e-16 -2.21908365e-16 -6.28384733e-16
      2.03823814e-16 -5.34419080e-16 -2.33928610e-16 9.66481401e-17
      3.26095482e-16 1.63580141e-16 1.02112012e-16 5.09657395e-16
      2.29986227e-16 -2.23198634e-16 -1.05647243e-17 -6.28944727e-17
      -2.46155980e-16 -1.29382734e-16 2.23835206e-16 3.58924335e-16
      3.95006668e-16 -5.07650721e-16 -5.72757326e-16 -7.90915757e-17
      1.22357006e-16 3.23527834e-16 -5.82565504e-17 -4.70145836e-17
      -9.81885463e-16 -1.56418186e-16 1.24772003e-16 -9.01006945e-16
      1.81395758e-16 3.32182526e-16 1.45668597e-16 4.64027783e-16
      1.21174892e-16 -2.26377205e-16 -6.39544974e-16 5.22785188e-16
      -3.52964055e-17 1.03652322e-15 9.18488183e-17 -2.80984069e-16
      -7.13525626e-16 5.77206155e-16 2.89748425e-16 9.86044395e-16
      -2.27390415e-16 1.23771922e-16 -2.06202640e-16 4.63273606e-16
      5.52133503e-16 -4.32048557e-16 4.02762975e-16 5.92333528e-16
      -1.91498317e-17 5.59298184e-16 7.42054278e-16 -1.62965407e-16
      -1.91392005e-16 1.34015144e-16 -6.70435842e-16 4.51722035e-16
      -1.70226226e-16 2.55472945e-16 -1.57881317e-16 5.77527445e-16
      6.42744270e-16 1.28532940e-15 3.58286625e-16 -3.62511917e-16
      -9.88616834e-16 -1.30913347e-15 -8.14243667e-16 -7.64391172e-16
      6.87325467e-16 -4.83658394e-17 1.96760738e-16 3.69762095e-16
      -4.56997939e-16 -1.62516940e-18 -3.49877070e-16 1.14080689e-17
      6.09391395e-16 -1.75266827e-16 2.17013679e-16 -3.52809975e-16
      5.02017740e-16 1.12444121e-15 -4.70622252e-16 -1.54819835e-16
      7.01549745e-18 -3.11035845e-16 3.08419599e-16 -4.45931348e-16
      -2.04627027e-16 -6.59157016e-16 -2.58084136e-16 6.01407845e-16
      6.67031101e-17 -8.15675920e-17 -1.52102990e-16 3.29828012e-16
      2.16350744e-16 1.02540849e-16 2.28293723e-16 -4.33587537e-16
      -6.07524005e-16 -8.43363442e-16 -4.26920328e-16 8.28088844e-16
      4.50885590e-16 -6.38991120e-16 -5.55014051e-16 -2.22468360e-16
      4.80372872e-16 -5.18209622e-16 -1.08930925e-15 1.57944235e-16
      5.54567188e-16 -9.58414392e-16 2.53167692e-16 1.03633083e-15
      6.01152888e-16 7.92681914e-16 1.33671985e-15 6.75082718e-16
      9.61912850e-16 -8.08319465e-16 3.72059487e-16 -5.69346483e-16
      1.21078675e-16 2.45080348e-17 -6.27281790e-16 2.26761506e-17
      -3.96016067e-16 2.88569593e-16 -9.45480728e-16 -1.99657630e-16
      4.21021565e-16 9.36109447e-17 1.38725150e-16 6.80937198e-17
      5.79989082e-16 -1.05325159e-16 6.10328902e-16 2.96019619e-16
      1.92312862e-16 -1.76777444e-16 -1.99735120e-16 -2.12791802e-16
      -4.14579614e-16 -3.97217451e-16 -7.64433206e-16 -1.25301743e-16
      8.82979384e-16 3.03503499e-16 5.15525064e-17 3.08612457e-16
      6.15549960e-16 4.05990330e-16 -3.56152746e-18 5.76602856e-16
      1.22269577e-15 -4.65412206e-16 2.43141866e-16 -4.49167066e-16
      2.65678832e-17 4.39267342e-16 1.20017655e-15 -5.14105959e-16
      4.03587476e-17 1.45116451e-16 -6.52615645e-16 2.45844034e-16
      3.13592244e-16 -2.19505610e-16 -1.77761603e-16 6.55194477e-17
      -8.83553567e-17 -8.55622920e-16 -2.48487518e-16 2.36803413e-16
      8.26592031e-16 3.15489147e-16 1.98466053e-16 4.13638693e-16
      -1.77383708e-16 5.63415241e-16 1.59101679e-16 1.32347601e-16
      -5.17421987e-16 2.42467813e-16 -4.02439415e-17 -4.28018666e-16
      1.28625487e-16 7.55015894e-16 5.41407366e-16 -5.13725747e-16
      -8.57291443e-17 5.84744100e-17 -4.06120534e-16 6.30795336e-16
      -4.94592385e-16 8.37988012e-16 6.91213349e-16 8.64973582e-16
      4.41375078e-16 -1.12125642e-16 1.87374739e-17 4.02558066e-17</_></support_vectors>
  <decision_functions>
    <_>
      <sv_count>1</sv_count>
      <rho>-2.9420910152566648e-14</rho>
      <alpha>
        1.</alpha>
      <index>
        0</index></_></decision_functions></my_svm>
</opencv_storage>
