<?xml version="1.0"?>
<opencv_storage>
<my_svm type_id="opencv-ml-svm">
  <svm_type>C_SVC</svm_type>
  <kernel><type>LINEAR</type></kernel>
  <C>4.4408920985006301e-16</C>
  <term_criteria><epsilon>1.1920928955078125e-07</epsilon>
    <iterations>1000</iterations></term_criteria>
  <var_all>1296</var_all>
  <var_count>1296</var_count>
  <class_count>2</class_count>
  <class_labels type_id="opencv-matrix">
    <rows>1</rows>
    <cols>2</cols>
    <dt>i</dt>
    <data>
      -1 1</data></class_labels>
  <sv_total>1</sv_total>
  <support_vectors>
    <_>
      3.39825251e-16 -7.46200292e-16 4.07194777e-17 -2.92680297e-16
      2.73681533e-16 -9.65240432e-17 1.47936454e-15 -4.06041655e-16
      -1.20888092e-16 -4.79393914e-16 4.18983153e-16 -9.84892125e-17
      4.44108321e-16 8.40834625e-16 3.82009510e-17 4.19591138e-16
      -3.06963814e-16 -1.60488153e-16 2.89849486e-16 -3.56526623e-16
      -2.29239938e-16 -4.88112894e-17 1.91545159e-16 -1.14408356e-16
      -3.96312846e-16 -4.52621055e-16 -3.84163422e-17 7.27029449e-16
      -2.06821729e-16 6.06792804e-16 -2.55464396e-16 -7.38459576e-16
      -2.51070492e-16 -3.23425449e-16 -2.48875935e-16 -2.60700727e-16
      -2.23693434e-16 2.24637479e-16 -5.81718299e-16 -1.56767706e-16
      1.20910819e-15 1.08771185e-15 1.51137751e-15 -3.47466467e-16
      -7.40116584e-16 -1.65397556e-16 3.04594742e-16 -8.39771122e-16
      1.21696810e-16 -3.31997793e-16 6.53161346e-16 6.78160994e-16
      -1.07317526e-16 -4.87429510e-17 1.20034235e-15 -4.10808015e-16
      8.04428672e-16 -3.38885733e-16 -2.66460207e-16 5.42555202e-16
      1.39788196e-17 -5.90766305e-16 6.54947527e-16 4.68324093e-16
      -5.69133084e-17 1.55930004e-16 3.05778629e-17 4.11979011e-16
      -4.50961823e-16 7.19256068e-16 9.08415969e-17 7.75864074e-16
      -4.19017988e-16 -6.14453741e-16 -8.42068487e-16 2.50911858e-16
      -2.82350968e-16 -2.18152700e-16 8.95096244e-16 1.26915168e-16
      -3.51290848e-16 -4.24403178e-17 -5.06448675e-16 -1.74923302e-16
      -8.55928964e-16 8.20881599e-16 1.99226080e-16 -6.93243792e-16
      -7.05701741e-16 1.10042158e-15 6.48696477e-16 -4.13916970e-16
      2.41223337e-16 -7.74324327e-16 -9.47514348e-16 -1.40571351e-16
      6.73910371e-16 7.70756360e-16 6.07512517e-16 7.48877644e-17
      -8.66253978e-16 1.46328952e-16 -7.46250691e-16 -3.80604355e-16
      -7.94838989e-16 3.46861501e-16 -6.52554183e-16 -5.71450407e-16
      1.06696034e-17 -4.26969695e-16 -3.31602626e-16 -7.14029240e-16
      3.62083239e-16 1.23501639e-15 7.51383128e-16 7.85513209e-16
      -4.49458499e-16 5.33891219e-16 -2.95600126e-16 1.52268681e-17
      -2.29761287e-16 1.29279012e-16 -5.57608248e-16 1.45837792e-16
      -2.03722223e-16 -1.37311743e-16 1.16125432e-15 -1.37494610e-16
      4.01238210e-16 -3.78339045e-16 -3.02594235e-16 -1.70704654e-16
      7.21660477e-16 3.61802738e-16 -4.38565814e-16 -4.87883460e-16
      5.31823559e-16 1.98232193e-16 -1.00979170e-15 4.48656041e-16
      -1.93003895e-16 -6.37814645e-16 -1.05559385e-15 -4.71815986e-16
      1.90624632e-17 5.93519745e-16 6.70061136e-16 -8.11126029e-18
      2.06625495e-16 4.45631075e-16 6.36979258e-16 1.11744795e-16
      5.51932227e-16 -1.85440874e-17 -1.06679445e-16 -8.08133912e-16
      -3.27529985e-16 6.01512189e-16 -4.04156159e-16 5.41334892e-16
      5.48730072e-16 -8.77950973e-16 7.94297417e-16 -8.82225380e-17
      -4.29793252e-16 -2.55641002e-16 7.92601551e-17 6.18674612e-16
      4.71027346e-16 2.87334328e-16 3.17023680e-16 -2.98170103e-16
      -7.34693879e-16 3.08551418e-16 1.72129549e-16 -3.21041501e-16
      -6.50476305e-16 -1.97006708e-16 -7.96392818e-16 -4.54172767e-16
      4.99956909e-16 -6.83718642e-16 -3.04250688e-16 -2.67630198e-16
      1.02546404e-15 1.09891768e-15 1.26165812e-15 2.91730403e-16
      -3.86138524e-16 -1.04193304e-16 -4.04931062e-16 4.90507780e-16
      -6.42545032e-17 1.34004382e-15 8.60664143e-16 -1.23193081e-16
      -1.18253116e-15 -9.12080631e-16 6.10150019e-16 8.06835463e-16
      6.46453798e-16 8.97537075e-16 5.78927326e-16 -6.09389384e-16
      3.14997326e-17 2.09749313e-17 1.94963347e-16 1.05380047e-15
      3.00626551e-16 1.12231561e-16 -5.69487991e-16 2.19512810e-16
      1.32178896e-16 -8.62331487e-17 -5.79265848e-17 -5.66993743e-16
      3.02155737e-16 -1.56139221e-16 1.42988717e-16 -3.70465874e-16
      6.05747618e-16 -1.98456259e-16 4.22224219e-16 7.29999530e-17
      2.68444143e-16 -8.50009606e-17 -3.82739513e-16 -1.47209575e-16
      -1.58280362e-16 3.06924480e-16 -5.72769026e-16 -3.42628136e-16
      -1.00746800e-16 -8.49082502e-17 -1.41400742e-16 2.82849950e-16
      5.67633200e-16 -2.68581945e-16 1.41907400e-16 -5.93936114e-16
      1.47152943e-16 1.30733911e-16 -2.86305104e-16 6.57136035e-17
      8.78974824e-16 6.31810081e-16 3.50451226e-16 -6.93600976e-16
      -4.43340115e-16 5.26324039e-16 -8.70612121e-16 3.99563102e-18
      -1.80898457e-16 -1.34752976e-16 -3.68650735e-16 3.17408458e-17
      2.65235874e-16 2.35362054e-16 -5.10211513e-16 -4.10806797e-16
      -1.50280043e-16 1.74249686e-16 -4.72159511e-16 -4.53820983e-16
      -1.51793678e-16 -4.50668115e-16 -6.76550758e-17 3.35946555e-16
      -5.15686152e-16 -2.69447633e-17 2.13903851e-16 -8.55008662e-16
      -2.88321704e-16 -3.82526643e-16 -3.96359724e-16 2.56418764e-16
      1.32602870e-15 1.59457288e-16 3.40162714e-16 -5.94768483e-16
      -2.18325368e-15 -1.56314255e-15 -4.16080954e-16 -6.71562978e-16
      -4.37662374e-16 -8.05466764e-16 -1.32537246e-15 -8.79388706e-16
      -1.33648839e-15 -1.26476969e-15 -1.41686452e-15 -3.50730906e-16
      -4.13438714e-16 5.45471907e-16 -2.66966984e-17 -4.61464767e-16
      -1.95919229e-15 -2.08729649e-15 -1.37033244e-15 -4.68905793e-16
      4.01834151e-17 6.73192206e-17 -8.42296815e-16 -6.91362215e-16
      -7.79214090e-16 -1.42156555e-15 -1.64045599e-16 -1.37414991e-15
      -7.62321341e-16 6.64501476e-16 -3.47720816e-16 7.26226144e-16
      2.07749746e-16 -5.71100847e-16 -3.35354029e-16 -4.49331761e-16
      -6.46597370e-16 -8.56004085e-16 -9.72922584e-16 1.51331886e-16
      -2.93062521e-16 -2.63518859e-16 -1.37402985e-15 -1.09503212e-15
      -1.14216273e-15 -1.57841180e-15 3.46463792e-16 -6.25014865e-16
      -6.39916822e-16 5.01927955e-16 4.18709615e-16 -7.84863746e-16
      -1.95878233e-15 -1.25366625e-15 -1.41121417e-15 -9.86169888e-17
      -1.21471799e-15 -3.78268503e-16 -8.85082567e-16 -1.38664534e-15
      -1.91626911e-15 -2.39821518e-15 3.11094687e-16 -1.36506589e-17
      4.87089102e-16 7.47891976e-16 9.03312251e-16 4.77103801e-16
      1.10542236e-15 -1.43122659e-15 -6.12991060e-17 -5.50281307e-16
      -1.27885373e-15 -4.52486642e-16 -7.32188779e-16 3.80241507e-16
      -7.03484474e-16 -4.77786722e-16 -1.39954428e-15 -1.53946025e-15
      5.64173388e-16 3.36897905e-16 -4.75667233e-17 1.87082195e-16
      -2.80302075e-16 -6.76900821e-16 -8.71181274e-16 -8.04639531e-16
      -5.19190592e-16 2.46155398e-16 5.03996680e-17 1.87124123e-16
      6.08853635e-16 8.10436465e-16 1.23551127e-15 -8.16832252e-16
      -7.21008580e-16 -3.69551025e-16 -3.41253534e-16 -1.11835168e-15
      -9.22841125e-16 -3.51884009e-16 5.15974567e-16 -2.44410086e-16
      -9.25388365e-16 -8.26807495e-16 -1.04554931e-15 -8.47201136e-16
      -1.16368150e-15 -5.05957363e-17 -8.31550456e-16 -6.22031549e-17
      8.99727661e-17 3.70300914e-16 -9.89832379e-17 -3.28655798e-16
      3.12776127e-16 2.93182667e-16 3.97969801e-16 -4.35081941e-16
      1.39427531e-15 7.26486659e-16 4.09510096e-16 6.81688516e-16
      4.49865339e-16 -4.05266950e-17 8.96728264e-16 2.79329284e-16
      -7.58592702e-16 7.65286009e-16 8.18159606e-16 6.60757379e-16
      -2.59859835e-16 4.35945729e-16 2.12213636e-16 -3.79938005e-16
      1.31443234e-16 -1.00539656e-15 -6.20102696e-17 -4.36164237e-16
      2.82308087e-16 5.74803506e-17 4.83777786e-16 9.29238554e-16
      4.97367635e-16 -6.69941916e-17 3.55387390e-16 1.31774768e-15
      -1.20169544e-16 -3.57274791e-16 -4.15307202e-17 1.73440457e-15
      6.12973498e-16 7.14469803e-16 6.88977393e-17 -6.34369815e-16
      1.23687351e-15 -5.00024883e-16 8.76701176e-16 8.12120764e-17
      2.23549915e-16 1.51981216e-16 -1.82151100e-16 -1.00171387e-15
      -3.80743877e-16 8.87767026e-16 -2.39227127e-18 4.88677130e-17
      -3.83834542e-16 -2.94172822e-16 -2.08569042e-17 -1.57545428e-16
      1.20559883e-15 -3.28856889e-16 1.23250102e-15 1.81792474e-16
      1.02243695e-15 3.65499640e-16 2.72459430e-17 -5.75065809e-16
      -8.21163343e-16 -7.76523754e-16 -1.56971458e-16 -8.98966972e-16
      -9.24218494e-17 3.11983807e-16 3.48545290e-17 -8.68565107e-16
      -1.50680187e-16 -4.11526802e-16 -1.65217450e-15 -2.10940786e-15
      -2.60753349e-16 -1.15428451e-15 -2.34276952e-16 -1.13888556e-15
      -3.12316400e-16 -3.73340280e-16 -1.30738318e-15 -2.40052462e-15
      -2.13722612e-15 3.73700904e-16 -5.20238636e-16 -3.82614285e-16
      -4.51136895e-16 -1.57975972e-16 3.78609407e-16 2.89674839e-16
      -1.06421982e-15 -2.04800856e-15 -1.86337995e-15 -1.41024305e-15
      -3.15098480e-16 -3.10708043e-16 5.95831880e-16 -3.24601157e-16
      -2.19038286e-16 -9.13964961e-16 -1.64058635e-15 -8.38191088e-16
      1.84187116e-16 -1.79513942e-16 1.61429868e-16 5.09725052e-16
      -3.36624816e-16 5.11356384e-16 2.69562200e-16 -1.16968633e-15
      1.01730986e-15 1.16702167e-15 3.42568923e-16 6.51945484e-16
      -7.36685254e-16 6.37433639e-16 1.00342572e-15 3.15941718e-18
      -8.80856190e-16 -3.52467800e-16 -7.43989695e-16 -5.82008885e-16
      9.89817926e-16 4.59927032e-16 4.41666352e-16 6.60810967e-17
      4.85970701e-16 -2.48749145e-16 5.84282004e-16 -3.11052574e-16
      1.88869805e-16 2.68415053e-16 3.91884637e-16 9.27992886e-16
      5.86677995e-16 2.40569110e-16 -2.45480498e-16 1.40669917e-15
      -2.19269196e-16 3.68433603e-16 7.35970464e-16 6.32833879e-16
      3.19193196e-16 1.91753357e-16 1.96473130e-16 7.06773979e-16
      1.55229428e-15 3.66775086e-16 1.62440392e-16 -8.94247821e-17
      5.21718774e-16 1.10620047e-15 -1.84734431e-16 6.66651881e-16
      1.01763894e-15 6.69312518e-16 -9.11931659e-16 -8.60119818e-16
      -1.74257918e-16 4.34383827e-16 2.06753199e-17 -1.32732485e-16
      1.09101781e-16 -6.98701226e-16 6.36979417e-16 -4.24875406e-16
      1.21677680e-15 1.05355356e-15 5.92394091e-16 -4.25194658e-16
      1.24054129e-16 -5.44521695e-16 -8.29734523e-16 4.99956168e-16
      -1.28435023e-15 -7.08922796e-16 -8.42363784e-16 -1.06554606e-15
      8.54744970e-16 -4.11269277e-16 2.66076210e-16 -7.49347602e-16
      6.72337484e-16 -1.43700802e-15 -1.68687077e-15 -4.73966550e-16
      4.22300108e-16 -6.15581247e-16 -3.87063908e-16 1.53191742e-15
      -9.95499029e-17 -7.64654758e-16 -1.84959914e-15 -1.13951819e-15
      -8.53492103e-16 -7.15070455e-16 7.57452119e-16 6.34839971e-16
      -2.38016576e-16 -2.96534668e-16 -3.42375905e-16 -3.43895350e-16
      3.76838897e-16 1.37684083e-15 8.20503028e-16 6.47971999e-17
      1.20458898e-16 -5.49990722e-16 -8.19490771e-16 -1.02580624e-15
      -1.96967517e-15 -1.02750560e-15 -4.27894152e-16 -6.31018899e-16
      -7.14776746e-16 -4.73894605e-16 3.84908182e-16 -1.70511319e-16
      2.20097528e-16 -7.10765834e-16 -5.76004003e-16 3.65702240e-16
      -1.48710319e-16 3.38091547e-17 3.72005594e-16 2.10436998e-16
      -4.41491572e-16 3.99177935e-16 -2.59040066e-16 -5.16114380e-16
      -1.32056486e-16 9.93498973e-17 7.45938969e-17 -2.11344197e-16
      5.95145836e-16 -3.96012950e-17 -6.48640784e-16 -5.28076338e-16
      5.17678797e-16 1.35805110e-16 1.03402669e-15 -2.06641787e-16
      -7.89860870e-16 5.91501265e-16 -6.24163173e-16 -9.37362195e-17
      7.91553877e-16 1.22211608e-16 2.97355151e-16 3.18185783e-16
      -3.74567333e-17 3.34365197e-16 2.85611489e-16 -5.63166266e-16
      9.05745248e-16 5.35029896e-16 -2.27670545e-16 1.94670141e-16
      3.28265819e-16 -1.08025119e-15 -1.64895186e-16 -3.41554575e-16
      -5.41186502e-16 -8.29817056e-16 -1.78004305e-16 1.01927636e-15
      4.09750335e-16 -2.91332482e-16 -6.29646229e-16 -4.19721534e-17
      1.48992712e-16 -9.03079198e-17 1.10763084e-16 -5.98418401e-16
      7.66523736e-16 -3.86245568e-16 -4.22699934e-16 -7.03304109e-16
      -2.15273675e-16 2.95681790e-18 -4.74862340e-16 -5.84839298e-16
      -2.36082350e-16 -4.52789615e-16 -4.81490188e-17 -3.05030223e-16
      -2.41374532e-16 1.52675227e-16 -2.31591778e-16 -1.27996366e-15
      -1.22976796e-15 -2.80177154e-15 -1.10791211e-15 -1.85934558e-16
      4.98943222e-16 1.07731216e-16 1.05800080e-15 3.19642097e-16
      4.61081293e-17 -2.67531862e-16 -6.48897541e-16 -5.52588095e-16
      -6.96015814e-16 1.65782572e-16 -4.44779330e-16 -7.20280396e-16
      -7.55734111e-17 -6.61515315e-16 -9.17842784e-16 -2.55951037e-15
      -1.72691817e-15 -5.08685689e-16 5.16521750e-16 -6.57653056e-16
      -4.13947966e-16 -5.69848139e-16 -3.40614394e-16 -6.31339025e-16
      -1.68380949e-15 -1.55481992e-15 -6.36620116e-16 -4.10345144e-17
      -3.18590744e-16 -2.34665740e-16 4.77719065e-16 -1.76298314e-15
      1.03918195e-15 4.71179441e-16 6.62274680e-16 -4.52719946e-16
      -6.95635549e-16 4.52719093e-17 -1.26925240e-16 5.37860786e-16
      -1.01447463e-15 8.60219927e-16 -6.74060455e-16 1.75298762e-16
      -3.21796816e-16 -1.32628366e-15 3.30314236e-16 7.27606913e-16
      -9.75279426e-17 1.24250055e-18 -1.73666715e-16 5.48331841e-17
      1.33663705e-16 -1.02660274e-16 -4.10785224e-16 8.54983463e-16
      2.52543694e-16 -6.47304067e-18 -4.10178881e-16 1.78735387e-15
      7.20853559e-17 7.13576871e-16 1.30032898e-16 9.44046066e-16
      -4.92566963e-17 -1.67204013e-16 -2.55859695e-16 -6.48816914e-16
      7.06683611e-16 -3.43405527e-16 1.29292790e-16 -4.45548383e-16
      2.63398024e-16 5.47133680e-16 -1.71615029e-17 -3.45037230e-16
      1.40443886e-16 1.12605950e-17 -1.26204712e-15 -6.34112846e-16
      -5.88604995e-16 7.43018519e-16 6.41055022e-16 -1.09733468e-15
      -3.55172085e-16 -1.45281582e-16 1.21255403e-15 -6.88143172e-16
      1.85663296e-16 -1.57320382e-16 -1.06123818e-16 -1.11832987e-15
      -8.43858585e-16 -1.52158828e-15 -1.25413488e-15 -1.07500636e-15
      -8.18644585e-16 1.62557494e-16 -2.09194718e-16 -3.25806697e-16
      9.58939870e-16 -3.87362884e-16 -3.13841615e-16 -1.75780631e-16
      -5.14897035e-16 -2.37780492e-16 -6.12702765e-16 5.66551486e-16
      1.82830328e-16 1.34672640e-16 -3.24300513e-16 -7.59208336e-16
      -1.09582092e-15 -1.26833570e-15 -1.46782541e-15 -1.66149483e-15
      -3.24400351e-17 -5.19624485e-16 -2.20643493e-16 -7.79785043e-16
      -1.04896730e-15 -1.22464246e-15 -2.17296112e-16 6.54425649e-16
      8.21937902e-16 8.48483068e-16 1.87140468e-16 -6.20128279e-16
      -1.31431932e-15 -1.51971295e-15 -7.45028475e-16 -2.44309342e-16
      -7.90982765e-16 -4.48122516e-16 -9.70944021e-16 -6.73548000e-16
      -1.62856020e-16 8.43125108e-16 2.66391306e-16 8.62411360e-17
      -1.84782289e-17 -2.59241474e-16 -2.65792454e-16 -7.25682719e-16
      3.83006594e-16 -3.67073136e-16 -2.91659834e-16 3.13351924e-16
      5.64778342e-17 3.47194252e-16 2.25405393e-16 2.01681801e-16
      -6.47845156e-16 2.13648206e-16 8.65019957e-17 1.07847644e-15
      2.89878524e-16 1.33113610e-16 3.90803797e-17 -1.12114604e-17
      1.74856214e-16 -1.32733861e-16 -1.58263037e-16 3.38403109e-16
      -6.85468718e-16 -8.86420641e-17 4.47303170e-16 1.01818951e-15
      1.65531983e-16 6.11792840e-16 1.56433512e-16 1.25789115e-15
      -1.34673196e-16 -2.96309330e-16 1.39371516e-16 7.58986308e-16
      6.08022696e-16 -5.01536202e-16 4.30738554e-17 -1.97761957e-16
      4.63146816e-16 -8.47038241e-18 -1.73725822e-16 -4.73910434e-16
      2.85626233e-16 1.15554331e-15 5.97537963e-16 -2.57125967e-17
      4.54993753e-16 1.84043484e-17 -7.18578654e-16 -1.33900226e-16
      5.37940937e-16 2.62599087e-16 -3.90399497e-16 3.21484288e-16
      5.55498553e-16 9.07756633e-16 -8.13124961e-17 1.27378826e-16
      -5.66035484e-16 8.44097290e-16 -1.14071886e-16 5.65229691e-16
      -9.88088815e-16 -2.24937933e-18 -2.72897128e-16 -3.10333814e-16
      -2.94722917e-16 1.74819686e-16 -5.45370766e-17 2.97651586e-16
      -1.46193757e-16 -8.40294535e-16 -1.00660083e-15 7.75884774e-16
      6.65574667e-16 -6.42896683e-16 -1.55104835e-17 2.15916093e-17
      9.98256598e-16 -3.84390698e-16 -1.14654232e-15 -1.73155409e-15
      -1.77632296e-15 -1.12751277e-15 7.69617206e-16 -8.06105374e-17
      2.90486217e-16 -2.45118074e-16 4.23535188e-16 -3.46949830e-16
      -1.94513731e-16 3.71863187e-16 4.76411511e-16 5.39430782e-17
      -3.10197150e-16 -7.02074217e-16 -4.83734958e-16 -3.85250516e-16
      -3.39105802e-16 -1.17487451e-15 -5.84097456e-16 -1.44639320e-16
      -1.24837463e-15 -5.35040590e-16 6.95906388e-16 2.34126445e-16
      9.76996600e-16 -2.10627464e-17 -1.05923503e-15 -9.33272230e-16
      -1.20997905e-15 -1.31467666e-15 -9.14751008e-16 6.22022245e-16
      -4.67231579e-16 5.34714535e-16 6.48638085e-16 -4.84426977e-17
      -9.25765083e-16 -1.20396765e-15 -1.57304013e-15 -4.33852314e-16
      -1.67671270e-16 -2.60720447e-16 3.95399910e-17 -9.32596933e-16
      -1.40656724e-15 -1.74077373e-15 -1.71815255e-15 -2.03472624e-15
      -1.75861976e-15 -3.22337170e-16 -4.35595481e-16 4.14405278e-17
      -9.33498706e-16 -1.27379038e-15 -1.81601283e-16 -9.47689684e-16
      -5.64743124e-16 -8.65693454e-16 -4.25570184e-16 -1.31368722e-15
      5.78750455e-16 3.86362723e-16 3.04704168e-16 -6.93257345e-16
      -1.10440317e-15 -1.67162683e-15 -1.50463661e-15 -1.32498336e-15
      -1.20441256e-15 4.82124589e-16 -1.86504902e-16 -1.16406552e-15
      -9.22038774e-16 -7.47713464e-16 -1.60230533e-15 -9.32411963e-16
      -4.16192206e-16 -3.45814932e-17 3.15612047e-16 -5.95738071e-16
      -1.67463909e-15 -1.59475372e-15 -9.80571185e-16 -1.60815230e-15
      -1.01100762e-15 -8.28619245e-16 -8.76279142e-16 4.56225921e-16
      -1.25098105e-15 -7.99440919e-16 1.68640978e-16 -1.22006562e-15
      8.64800588e-17 -4.53504722e-16 -1.50037985e-15 -4.92468132e-16
      7.63904025e-18 -9.37691095e-16 -1.08994368e-15 -6.21205758e-16
      -4.44973497e-18 2.99555690e-16 -5.07665862e-16 -1.16413180e-15
      -1.26312729e-15 -5.05418736e-16 -6.82978150e-17 5.75387033e-17
      6.49634195e-16 4.15360790e-16 -4.27657829e-16 -4.91900090e-16
      4.29350942e-16 5.58577995e-16 9.74794950e-16 2.49388602e-16
      2.25641927e-16 4.00078437e-16 9.54472327e-17 -4.74340939e-16
      -6.30546043e-16 2.56223126e-16 5.92612506e-17 1.15435990e-15
      5.14886553e-16 -3.06706236e-16 1.93176478e-16 -8.50690012e-16
      -1.63679019e-16 2.85736586e-16 -5.46731180e-16 6.01094019e-17
      -1.06731379e-16 -4.10416315e-16 2.19338520e-16 3.12426303e-16
      -1.87953117e-16 -4.16524773e-16 -2.81076025e-16 -5.75390328e-16
      5.03606827e-16 2.99222568e-16 -8.83707568e-16 -6.53599315e-16
      -4.61168782e-16 9.78568760e-17 -2.94571616e-16 4.56977398e-16
      2.06213705e-16 9.27985157e-16 6.22548146e-16 7.46339838e-18
      2.13868024e-16 -5.27053281e-16 6.99895913e-16 1.79628768e-16
      -2.32053775e-17 -2.67679319e-17 -6.22703789e-16 -4.63959526e-18
      2.57814727e-16 1.00440161e-15 -5.21380005e-18 6.47614975e-16
      -3.65876464e-16 -4.56885337e-16 1.97094707e-16 5.19609026e-16
      7.13905891e-16 -3.44430860e-16 8.74785294e-16 1.83312091e-16
      -6.07867371e-16 2.16707993e-16 -6.73015124e-17 -1.23298695e-16
      2.14851310e-16 7.65066787e-16 -5.34630414e-16 -8.75501989e-16
      1.53312752e-16 -4.37121411e-17 -9.03933841e-17 -2.14047330e-16
      2.88327765e-16 3.77348281e-17 3.51774530e-16 -1.99209430e-16
      9.03427448e-16 -7.59425600e-16 -3.27866469e-16 -3.38487204e-16
      1.57007893e-16 -2.65726782e-16 -4.24632757e-16 -4.92114602e-16
      -5.95299149e-16 -1.99225723e-16 -7.07821097e-17 -1.74553453e-16
      7.25038974e-16 -1.46662114e-16 4.11981447e-16 3.18919254e-17
      4.58601690e-16 7.27998137e-16 -4.05797259e-16 7.47234943e-16
      8.56025843e-16 6.58218239e-16 -9.26698090e-16 -4.32109358e-16
      -7.32529339e-16 2.54726048e-16 7.21516588e-16 3.70490094e-16
      -5.32544013e-16 9.97837105e-16 4.21843451e-16 -4.28945690e-17
      7.28085910e-16 5.06914702e-16 3.83693114e-16 3.90155234e-16
      -3.70775888e-16 1.78534044e-16 3.58163435e-16 -7.57376296e-17
      -2.29925876e-16 7.84938815e-16 -2.67873799e-16 5.36494522e-16
      -2.27556831e-16 3.61003192e-16 4.47786826e-16 4.10229915e-16
      1.01141074e-16 5.84881226e-16 8.14038367e-16 -5.38072386e-16
      -6.20588641e-16 -4.62232338e-16 -5.62638300e-16 -3.59770098e-17
      8.99537873e-16 8.89120109e-16 7.16896976e-16 3.13394382e-16
      -4.89645024e-16 -9.84836539e-17 -6.19390619e-16 1.24389369e-16
      5.44843408e-16 9.81279728e-17 2.17662083e-16 -8.50759204e-16
      1.43678970e-15 9.19718750e-16 1.13119133e-16 -1.20824327e-16
      4.43843782e-16 2.14829605e-16 9.32099937e-16 -1.16486512e-16
      3.03847050e-16 -4.38967837e-16 -3.86890213e-16 4.55173377e-16
      7.95419418e-16 -9.04396930e-17 -4.89950856e-16 -3.15282815e-16
      4.28758019e-16 -5.77703734e-16 4.99194103e-16 2.28937018e-16
      4.17413707e-16 -1.08372455e-15 -3.27186831e-16 3.87575172e-16
      2.23270023e-16 1.41524118e-16 4.02173857e-17 4.49386025e-16
      -7.64337451e-17 -3.27034709e-16 -6.96608843e-16 -4.35200949e-16
      -2.01843832e-17 -8.49581511e-16 -1.19367337e-16 1.10540478e-15
      5.47630729e-16 1.14265412e-15 1.00518427e-15 3.59401321e-16
      8.86531682e-16 -7.22089499e-16 -3.24878084e-16 -9.26987034e-17
      -3.99445041e-16 -5.43018899e-16 -1.63489561e-16 -2.07755397e-16
      -5.66451695e-16 -1.76601327e-16 -9.00732824e-16 4.81412135e-17
      4.21478102e-17 5.82812137e-17 -5.42909672e-17 -2.92817735e-17
      8.12727981e-17 -2.11310633e-16 4.13162555e-16 1.53894690e-16
      7.43051341e-16 -6.48848480e-17 6.84191604e-16 3.22777019e-16
      -9.36314587e-17 -7.46613750e-16 -4.32580520e-16 -5.54754733e-17
      1.05295142e-15 4.03243111e-16 5.05801807e-16 -2.36435589e-16
      7.18395959e-16 1.57122113e-15 -2.61937147e-17 7.77927394e-16
      5.85499084e-16 -7.83943975e-16 1.06644467e-17 -4.80297063e-16
      -5.44953734e-16 8.55237944e-16 1.15267399e-15 -6.08107240e-16
      -2.91963257e-16 -1.44182385e-16 1.51323852e-16 -6.75880411e-16
      2.18015852e-16 6.82229320e-17 -2.88937603e-16 3.94516448e-16
      3.42315740e-16 -8.25947386e-16 1.59522615e-16 9.09821713e-17
      4.27998363e-16 -5.23138877e-16 5.11269775e-16 5.31905880e-16
      -7.51739782e-16 1.54204863e-16 3.71768981e-16 1.77857080e-16
      -5.43930512e-17 -1.43776987e-16 3.56165946e-16 -4.14681682e-16
      8.67211059e-17 4.47601273e-16 4.85167026e-16 -7.76436510e-16
      4.33615727e-16 -4.87142253e-16 -2.56666547e-16 2.48632387e-16
      -5.67091152e-16 2.47111327e-16 9.26124331e-16 4.25728368e-16
      -1.68428978e-17 4.27395329e-16 2.87147795e-16 -2.48743110e-16</_></support_vectors>
  <decision_functions>
    <_>
      <sv_count>1</sv_count>
      <rho>-2.7089441800853820e-14</rho>
      <alpha>
        1.</alpha>
      <index>
        0</index></_></decision_functions></my_svm>
</opencv_storage>
