<?xml version="1.0"?>
<opencv_storage>
<my_svm type_id="opencv-ml-svm">
  <svm_type>C_SVC</svm_type>
  <kernel><type>LINEAR</type></kernel>
  <C>4.4408920985006301e-16</C>
  <term_criteria><epsilon>1.1920928955078125e-07</epsilon>
    <iterations>1000</iterations></term_criteria>
  <var_all>1296</var_all>
  <var_count>1296</var_count>
  <class_count>2</class_count>
  <class_labels type_id="opencv-matrix">
    <rows>1</rows>
    <cols>2</cols>
    <dt>i</dt>
    <data>
      -1 1</data></class_labels>
  <sv_total>1</sv_total>
  <support_vectors>
    <_>
      5.79071745e-16 4.38649445e-17 -2.76557879e-17 7.18232853e-17
      9.13006226e-17 8.42032700e-16 1.85526884e-16 -6.15406123e-16
      4.23696468e-16 -6.70358286e-16 3.40970757e-16 -4.89739521e-16
      -5.29537999e-16 6.00532013e-16 -5.60518971e-16 -1.13570019e-16
      -9.67110350e-16 -2.07216526e-16 -5.41066965e-16 3.03664521e-17
      -2.45445151e-17 -3.57239798e-16 -3.83592052e-16 -2.28005139e-17
      -6.18992778e-16 -5.14896717e-16 -5.49709401e-16 3.29910916e-16
      1.31752071e-16 4.15293584e-16 -5.54478938e-16 -4.00584989e-16
      -4.20766846e-16 4.74279952e-17 -9.51278152e-17 -1.67609192e-17
      6.00730960e-16 -2.55492507e-16 -2.44327051e-16 3.91857029e-16
      1.06018784e-15 7.05630061e-16 8.23950558e-16 -4.08951047e-17
      -5.47301180e-16 1.90113025e-16 -1.76449245e-16 -1.21997679e-16
      1.66850972e-16 4.22174747e-16 8.31506238e-17 2.42480916e-16
      1.38407407e-16 5.35315029e-16 5.95614510e-16 -1.45933493e-16
      1.33652249e-15 6.99923110e-17 -1.72607448e-16 7.57605392e-17
      -1.48365414e-17 -2.17772753e-16 4.12828665e-16 6.30647581e-16
      1.28459998e-16 9.39313216e-19 3.69396098e-16 9.45670463e-17
      -3.41526570e-16 -1.82724369e-16 -2.65021733e-16 -6.12878431e-17
      3.39257051e-16 -5.03746693e-16 -8.67806060e-16 2.68350229e-16
      5.74577600e-16 -1.03065652e-16 8.66208661e-16 -5.85545988e-16
      -5.75507219e-16 7.22620377e-16 -1.94341228e-16 2.52762175e-16
      1.43641667e-17 1.05219290e-15 -1.39028931e-16 2.00811805e-16
      -5.75338593e-17 1.42679757e-15 1.06231209e-15 -2.82386623e-16
      6.61557613e-16 -1.97707112e-16 -7.74639953e-16 -4.00076849e-16
      1.19375463e-16 1.14931434e-15 5.88861434e-16 -8.61776403e-16
      -5.82986149e-16 1.67275190e-16 -1.73510062e-15 -1.36198160e-16
      3.69914053e-18 3.34558241e-16 3.06927186e-17 -7.36047597e-16
      -1.74143224e-16 -9.85349934e-16 -6.23359538e-17 2.67422516e-16
      1.71843331e-16 -2.83611804e-16 3.25416585e-16 7.52023273e-16
      -7.22817630e-16 -3.76321187e-17 -8.00511780e-16 -2.44188323e-16
      3.23736985e-17 3.66032020e-17 1.47800681e-17 4.44908926e-16
      -1.34561613e-16 1.35115109e-16 4.98558616e-16 -1.93206098e-16
      2.42052635e-16 -1.61179928e-16 -5.15477676e-16 3.01783181e-17
      1.15933114e-15 -2.46386002e-16 1.77413221e-16 -1.88239996e-16
      6.97737090e-16 1.01793898e-16 -1.31960798e-15 -4.98803832e-16
      2.14899908e-16 -2.07481223e-16 -7.60855921e-16 -3.52334181e-16
      5.50984821e-16 1.48722813e-16 -1.53732364e-16 9.72118961e-16
      4.49083051e-16 1.51491430e-15 7.88142876e-16 1.41227802e-16
      2.94553934e-16 -1.05895669e-16 3.50153130e-17 1.10367917e-15
      1.11225435e-18 1.31586635e-17 5.45677577e-16 4.44043258e-17
      1.98225112e-16 -9.06229221e-16 5.96848161e-16 4.39180919e-16
      -2.86711256e-16 -2.20289447e-16 3.05387485e-16 -1.38661755e-16
      3.27734359e-16 -5.55053808e-16 1.68440323e-16 2.70933441e-16
      3.40610583e-16 5.22292638e-16 -1.32386975e-16 -1.13902130e-15
      -3.08096191e-16 6.69476685e-18 -6.49753812e-17 2.51697376e-16
      8.77713222e-16 -5.48059434e-16 -5.38287494e-18 -6.62601952e-16
      2.96419100e-16 6.48654443e-16 1.06008344e-15 -2.40209835e-16
      -7.12873582e-17 4.70971124e-16 -6.09753025e-16 2.90631066e-17
      -7.06086982e-16 1.45281122e-15 -4.73850811e-17 7.09827109e-16
      -1.04042253e-15 -1.51985748e-15 1.04561209e-15 4.13835972e-16
      -4.06816293e-16 2.19354481e-16 -1.59451742e-16 -8.57966025e-17
      1.99119959e-17 2.22283468e-16 2.66821493e-16 3.49269642e-16
      1.18399854e-17 -8.58183549e-19 -8.44733412e-16 1.10300302e-15
      -3.49101122e-17 7.76038404e-16 -4.91829548e-17 4.41770166e-16
      -2.33765291e-16 1.10027601e-16 -4.69747055e-16 3.69496630e-16
      4.10464358e-16 2.16105369e-16 1.17243325e-15 -3.97930229e-16
      -7.90243425e-17 -1.96111196e-16 -1.92370314e-17 -1.97748140e-16
      2.49539430e-17 1.13859979e-15 2.76176760e-16 2.33392014e-16
      2.65107601e-16 1.26186469e-17 -3.00692276e-16 1.05851622e-15
      -3.41785365e-16 1.24985278e-17 -3.37941185e-16 -2.36368647e-16
      -2.47214391e-17 3.92692071e-16 -5.04369210e-16 7.73120641e-16
      4.75067587e-16 3.91444074e-16 1.17087905e-16 1.11427555e-16
      -4.61246074e-16 -4.39705311e-16 -5.54602128e-16 -5.90079626e-16
      9.52550174e-18 -1.18815336e-16 -9.20654933e-17 1.87453341e-16
      9.87816441e-17 3.35135997e-16 -1.81195055e-17 -3.39648803e-16
      2.12558405e-16 7.87372976e-17 -2.63005583e-16 -2.66157790e-16
      -3.60055204e-16 6.07265819e-16 -7.50195482e-16 3.39406155e-16
      -8.58942442e-16 -1.71841968e-16 5.52743155e-16 -7.44033953e-16
      -7.63380397e-16 -2.98869964e-16 -5.70497231e-16 3.29158062e-16
      5.95759565e-16 7.43849247e-16 1.94764625e-16 -7.93745840e-16
      -1.88847118e-15 -1.78105279e-15 -5.85577487e-16 6.85274139e-17
      -3.89411460e-16 -4.87240774e-16 -3.67164827e-16 -9.48601833e-16
      -1.35448552e-15 -1.37900712e-15 -7.78248313e-16 -1.13080606e-16
      -3.60654188e-16 -2.24112874e-16 -3.12657935e-18 -4.51647867e-16
      -8.57967772e-16 -1.88627143e-15 -1.30236790e-15 -1.11293586e-15
      -8.23570823e-16 2.97802438e-16 -5.98653506e-16 -1.44902720e-15
      -1.76283396e-15 -2.14428487e-15 -3.35955184e-16 -1.26498907e-15
      -1.01085431e-15 2.45119794e-16 4.84096852e-16 1.60879866e-16
      3.84938543e-16 4.41462878e-16 -6.84208333e-16 -9.02604238e-16
      -1.47869506e-15 -8.67629136e-16 -8.41212666e-16 7.55502885e-16
      -2.19585126e-16 -4.91449839e-16 -8.57587878e-16 -7.45458344e-16
      -3.43356028e-16 -1.02385256e-15 -4.62415456e-16 6.96042442e-17
      8.15151487e-17 5.46428842e-16 2.11707269e-16 -1.21314706e-15
      -1.89697370e-15 -1.24191568e-15 -7.15719759e-16 -1.02393038e-15
      -1.25367112e-15 -6.08837012e-16 -4.06129667e-17 -1.23851421e-15
      -1.68353611e-15 -2.25679859e-15 5.94517814e-16 -4.28748623e-17
      3.35608562e-16 3.37364885e-16 7.34130867e-16 5.40640318e-17
      2.92107094e-16 -1.27506982e-15 -1.27978539e-17 -6.09341579e-16
      -1.86278387e-16 -1.13916858e-15 -1.13969935e-15 -1.53466587e-17
      -1.01727101e-15 -1.23827249e-15 -2.06374114e-15 -1.11650219e-15
      2.17913678e-16 3.74245361e-16 -8.16543665e-17 -2.25193873e-16
      8.34352401e-17 -6.72449928e-16 -9.18461118e-16 -1.35292814e-15
      -4.44790183e-16 -5.82215031e-16 2.05813468e-16 8.10150698e-16
      3.98632446e-16 6.24849270e-16 7.00998061e-16 -1.06142472e-15
      -6.95663289e-16 -8.15061159e-16 -6.83196394e-16 -1.33851873e-15
      -6.69495159e-16 -1.17163895e-15 -6.61988330e-16 -1.13867656e-15
      -1.66725635e-15 -6.29707057e-16 -8.97188097e-16 -8.51170015e-16
      -7.97801539e-16 3.51291324e-16 9.83140025e-17 1.57682489e-16
      -9.21723148e-16 -3.85751271e-16 1.33585315e-16 -6.57509272e-16
      -9.28102272e-18 -3.56495495e-16 -4.49868039e-16 -6.27525365e-16
      1.48679937e-15 -4.32369391e-17 1.43583533e-17 -7.93530693e-16
      -2.76477748e-16 -2.07536290e-17 6.11548100e-16 5.79005359e-16
      -1.80976120e-16 5.96356617e-16 1.08114608e-15 2.37713973e-16
      -8.15498758e-16 2.49913921e-16 5.08351694e-16 4.72475560e-16
      -1.12310534e-16 -8.67736881e-17 2.91671428e-16 -9.66010160e-16
      -2.41631289e-16 2.85536527e-16 1.51249181e-16 2.93455465e-16
      1.65898100e-16 6.99098842e-17 -5.13249238e-16 -1.26445965e-16
      1.53284790e-17 -8.52099131e-17 -1.22709572e-17 6.83569564e-16
      3.63127074e-16 -2.34540247e-16 -4.18551749e-16 8.30747283e-17
      3.49421499e-16 -1.50386385e-16 -2.85662867e-16 8.34881333e-17
      -7.64728767e-16 -2.02112930e-17 2.90287158e-17 -3.14711862e-16
      -1.25889028e-16 1.05236581e-17 -3.72630625e-16 -5.09334358e-16
      -6.55755385e-16 -9.48951763e-16 -4.73547375e-16 9.80640814e-17
      2.67406978e-16 5.71728234e-16 7.50594382e-16 9.82617405e-16
      7.21989814e-16 1.54754455e-16 -6.08552674e-16 -8.43135484e-16
      -3.64843190e-16 -1.14195923e-15 -8.94328422e-17 -1.10813752e-15
      -2.59873917e-16 2.15907520e-16 -3.91150868e-16 -7.63046878e-16
      -2.47655043e-16 -4.35445318e-16 -1.59906903e-15 -1.91877908e-15
      -2.93803516e-16 -1.30052602e-15 1.77672784e-16 -4.83130494e-16
      1.67380182e-16 -6.61832687e-16 -1.66312029e-15 -2.63705878e-15
      -1.93707711e-15 -5.56876200e-16 -8.80153312e-16 2.68534749e-16
      -3.12547428e-16 -5.24195180e-16 -2.55537373e-16 -8.45546140e-17
      -5.81400239e-16 -2.10008521e-15 -1.53303551e-15 -1.13366201e-15
      1.10477806e-16 -2.23637990e-17 4.02384749e-16 1.04715116e-16
      -2.27516067e-16 -3.08344160e-16 -9.85634642e-16 -5.72391514e-16
      -3.53623524e-16 -1.29579087e-16 2.81549861e-16 -1.04741619e-16
      -2.84308753e-16 5.48636528e-16 9.32114164e-17 -1.91745178e-16
      1.23924044e-15 5.91472360e-16 7.98272490e-16 7.08172219e-16
      -8.05686728e-16 1.10242005e-15 4.72795898e-16 -5.06686209e-17
      -5.58430981e-16 9.71741410e-17 -2.26540709e-16 4.00599071e-16
      1.35046592e-15 5.09853960e-16 8.20702597e-17 1.20190309e-16
      4.28480140e-16 -7.44050417e-16 1.82010824e-16 -1.69256837e-16
      3.29285805e-16 -2.94043094e-16 -6.17213189e-17 1.28924270e-15
      -5.10269720e-17 5.34018645e-16 -6.69016533e-16 1.32019169e-15
      -6.11644026e-16 -3.84671093e-16 9.27677631e-17 1.09000025e-16
      3.87638434e-16 3.73512916e-16 -1.38096467e-16 2.51552903e-16
      1.17277503e-15 3.24107575e-16 5.50411485e-16 -5.61615137e-16
      3.12266663e-16 5.59713813e-16 2.12808319e-16 1.26002146e-16
      4.52154234e-16 1.24645917e-15 -1.63601608e-15 -9.65217019e-16
      -5.61062766e-16 -3.62892499e-16 2.06650483e-16 -9.50849223e-16
      1.49004128e-15 -1.18415418e-15 1.24984434e-15 -4.42211550e-16
      1.10615017e-15 9.09289022e-16 7.05901482e-16 -8.35740807e-17
      -7.09430116e-16 5.81902503e-17 -2.79833957e-16 1.11342566e-15
      -8.55529429e-16 -5.03434297e-16 -5.89048681e-16 -8.18293066e-16
      8.64638633e-16 -7.01935939e-17 -3.33668248e-16 -1.12303736e-15
      4.88573263e-16 -8.68327250e-16 -1.83626240e-15 -1.73180452e-16
      5.62721150e-16 -1.72018760e-16 5.23955060e-17 6.78002282e-16
      -3.69605394e-16 -4.38265011e-16 -1.70109881e-15 -1.36805784e-15
      -7.77290690e-16 -8.19288383e-17 5.11460305e-16 9.70636548e-16
      -3.33674204e-16 -7.34820034e-16 8.99059828e-17 -3.03149968e-16
      8.41311716e-16 9.97832023e-16 9.26565000e-16 2.04678749e-16
      -5.35149487e-16 -5.64984422e-16 -7.51014192e-16 -1.06729487e-15
      -1.06850210e-15 2.96358220e-16 -4.53716057e-16 -4.22495190e-16
      6.16489002e-16 -1.59072218e-16 7.65581359e-16 1.33345578e-16
      9.51849992e-16 -2.48494916e-17 -3.82246964e-16 9.69796542e-17
      4.27137089e-16 1.80619704e-16 -1.54607614e-16 5.02573023e-16
      3.04851949e-16 6.17245667e-16 -4.01852944e-16 -3.40761322e-17
      2.64649912e-16 6.77811752e-16 -3.06770981e-16 -3.50236345e-16
      -4.92525919e-18 1.51524705e-16 8.52455652e-16 1.03440616e-16
      3.54103950e-16 5.76340752e-16 3.96328066e-16 -1.42175572e-17
      -5.18584593e-16 8.54999557e-16 3.35341026e-18 8.33736118e-17
      7.90461258e-16 -4.72971485e-17 2.57521706e-16 -6.95480059e-18
      2.91856584e-17 -2.46352439e-16 3.36846263e-16 9.29154181e-17
      8.13954590e-17 -1.96155400e-16 9.22962569e-16 1.22209887e-16
      -3.08329495e-16 -4.54136503e-16 -2.23838382e-16 1.17372231e-16
      -8.98345886e-16 -1.19815870e-15 -3.70435381e-16 -5.17249106e-17
      7.65502956e-16 -8.88535113e-17 -2.37273807e-16 2.62387017e-17
      3.53895204e-18 -3.03845435e-16 3.86100381e-16 -7.16271071e-16
      4.23456864e-16 3.15811496e-16 -4.33186784e-16 -7.01182132e-16
      -1.47701648e-16 -3.90425623e-16 -2.73702365e-16 -4.32469797e-16
      -1.33701980e-15 -5.58233226e-17 -3.03185835e-16 -1.01327230e-16
      7.06872341e-16 4.98915641e-16 2.15561269e-16 -1.37124734e-15
      -1.35897998e-15 -2.20405342e-15 -1.41245783e-15 2.31958993e-16
      5.34822479e-16 1.08254273e-15 7.30005181e-16 9.48369918e-17
      -3.54881579e-16 -2.46118261e-16 -3.35628917e-16 -1.01328889e-15
      -7.84950144e-16 3.05015638e-17 -6.43876754e-16 -9.79624944e-16
      -8.32692944e-16 -7.83083336e-16 -1.04601105e-16 -1.94653190e-15
      -2.07103367e-15 1.68969441e-17 7.43649717e-16 3.05189253e-16
      -1.42473250e-15 -2.95487682e-16 -4.00130000e-16 -8.34709147e-16
      -1.27614947e-15 -2.00482005e-15 -1.22672605e-15 -9.73697090e-16
      -7.44807135e-16 3.08823872e-16 1.09690787e-16 -1.23108012e-15
      1.47910323e-15 4.67599562e-16 8.84901514e-16 -5.50685553e-16
      -3.92507577e-16 -3.19746997e-16 -6.39955891e-16 -3.54468498e-17
      -5.62485834e-16 1.03011330e-15 -6.48663059e-17 -1.21524227e-16
      -1.15777281e-16 -1.54923200e-16 1.41381393e-16 -6.77570454e-16
      -3.55569926e-16 4.11393315e-16 -1.53844371e-16 8.21838415e-17
      7.25943235e-17 -1.10370616e-15 -1.29140761e-16 2.88961902e-16
      4.01179182e-16 3.61689977e-16 -2.52125392e-16 7.61101137e-16
      -7.49939215e-17 7.70554660e-16 7.49435230e-17 6.93054110e-16
      1.93985011e-16 1.14641912e-16 8.53960618e-16 -3.15914226e-16
      1.20055655e-15 -3.47853006e-16 3.37931418e-16 -7.05791064e-17
      9.00872373e-16 1.11313131e-15 -4.48824495e-17 -1.00863552e-16
      -1.06623184e-16 9.83658237e-17 -1.17139193e-15 -5.22523349e-16
      -9.47101155e-17 8.24100218e-16 7.49992724e-16 -8.18277343e-16
      4.93967645e-17 -4.75885576e-17 7.89960555e-16 -8.47364243e-16
      2.73174690e-16 3.70784471e-17 7.48830065e-16 -2.74669941e-16
      -8.77894910e-16 -2.13175175e-15 -9.16633539e-16 -1.00149565e-15
      -7.94348027e-16 2.20408931e-16 -6.53567446e-16 -4.57108278e-17
      9.32698895e-16 -6.52008376e-17 -6.05530421e-17 1.58226615e-17
      8.39023880e-16 -8.88340521e-16 -4.54964372e-16 7.36191963e-16
      9.07803855e-17 2.10111353e-16 4.27080365e-16 -1.15711985e-15
      -1.44188682e-15 -1.96551475e-15 -8.76194598e-16 -7.73843636e-16
      -1.62467537e-16 -6.68424351e-16 -1.54181781e-16 -3.19932867e-16
      -1.02059233e-15 -1.25886598e-15 -5.51023837e-16 3.06477140e-16
      1.23569867e-15 3.46063252e-16 2.52075179e-16 1.20530446e-16
      -2.75675290e-16 -1.76455926e-15 -1.92465029e-15 -6.27136206e-16
      -6.11548418e-16 -7.56988792e-16 -7.85408124e-16 -1.01992804e-15
      6.16745534e-17 2.49674211e-16 -2.06536835e-16 -5.19347432e-17
      -2.11168556e-16 -3.45766102e-16 -3.78055845e-16 -1.30330482e-15
      -4.87124360e-16 6.32321689e-16 -2.96713709e-16 7.45323560e-16
      5.31356262e-16 -1.83924271e-16 -4.30621412e-16 -5.86862331e-16
      -4.32621734e-16 5.02147654e-16 -1.59746602e-16 9.93877120e-16
      2.74383830e-16 -1.66899253e-16 -2.12115063e-16 -3.31466280e-16
      -1.52281410e-16 -2.68257664e-16 -1.47488421e-16 6.02000609e-16
      -9.00239428e-16 -1.86325845e-18 -5.81264131e-16 8.43684467e-16
      5.79712949e-16 2.35366024e-16 5.43932901e-16 6.52266033e-16
      -1.86098155e-16 -1.90329958e-16 1.21474411e-16 -1.27076502e-16
      6.33821414e-16 2.35906071e-17 8.95311284e-16 -2.41203802e-16
      4.61791345e-17 9.79663748e-17 -5.90178994e-16 -5.51040884e-16
      -4.08851422e-16 7.20279364e-17 1.79207902e-17 6.29260578e-17
      5.23924765e-16 2.57079899e-16 -2.76752319e-16 -5.06278686e-16
      2.11083853e-16 4.13343227e-18 2.80449300e-17 8.36719792e-16
      1.48032689e-17 3.09144235e-16 -2.92544170e-17 -2.49385849e-16
      -1.46667355e-16 1.07603953e-15 -3.64924081e-16 -3.49071145e-17
      -3.51681303e-16 1.26982584e-15 -1.72410473e-16 -5.87855371e-16
      -2.50815455e-16 4.17282907e-17 6.09059411e-16 3.92950734e-16
      -8.53762217e-19 -1.62153986e-15 -1.58287990e-15 7.89713487e-16
      1.30442936e-15 -7.02481057e-16 -5.91683814e-17 6.89123401e-16
      -1.83369782e-16 -6.27242932e-16 -1.45901298e-15 -1.18704351e-15
      -1.46554731e-15 -8.48814840e-16 -4.84808254e-16 -5.60879542e-16
      3.31423822e-16 -1.68648315e-15 -2.03569308e-16 -4.18631608e-16
      9.82881415e-17 1.79249152e-16 1.68869253e-17 -5.72978031e-16
      4.54813123e-16 -5.64589123e-16 -9.81753008e-16 5.47696698e-17
      -5.67651782e-16 -6.55499475e-16 -4.13476883e-16 -3.84920306e-16
      -9.52676167e-16 -5.73259564e-16 1.25379924e-15 5.54142401e-16
      1.39368154e-15 -3.97043835e-16 -7.51500866e-16 -8.39345859e-16
      -9.81473593e-16 -1.01667491e-15 -8.70658867e-16 -3.12648960e-17
      4.04940115e-17 2.82411505e-16 -4.39972153e-16 -4.27680514e-16
      -1.62798716e-15 -1.70345674e-15 -1.86096294e-15 -1.06109260e-16
      2.99127250e-16 -3.27682028e-16 -2.62162282e-16 -1.57647210e-15
      -1.26775517e-15 -1.92719075e-15 -1.29869018e-15 -1.77475192e-15
      -9.67546572e-16 -4.80098751e-16 -2.86081249e-16 -2.61235125e-16
      -1.22966674e-15 -9.25678051e-16 -4.31974256e-16 -1.69671192e-15
      -1.68345853e-16 -4.06131493e-16 -7.50988146e-16 -1.29839055e-15
      5.13247438e-16 1.04419284e-16 -2.59120666e-16 -8.95830092e-16
      -7.41916741e-16 -1.51419040e-15 -1.49603563e-15 -1.59233480e-15
      -1.12569673e-15 -4.04046528e-17 -2.44842470e-16 -5.32013877e-16
      -1.03046068e-15 -7.56263838e-16 -1.54035620e-15 -8.50644325e-16
      -3.92547202e-16 -5.13114613e-16 -1.57059326e-18 -7.52673477e-16
      -9.07489183e-16 -1.21071597e-15 -1.20813643e-15 -1.03147289e-15
      -1.45547641e-15 -1.90599523e-15 -4.37041366e-16 4.91156766e-16
      -1.26393833e-15 -8.56584885e-16 -6.54521258e-16 -1.39658146e-15
      1.52320214e-16 -1.50143980e-15 -1.10323818e-15 -8.21864951e-16
      -5.18983545e-16 -4.71369600e-16 -7.04169935e-16 -2.81288922e-16
      -3.10755821e-16 -1.75685592e-16 -8.77398390e-16 -6.57995469e-16
      -7.40114890e-16 -3.93850018e-16 9.80167601e-17 -2.76231076e-16
      9.69498493e-17 -1.43530487e-16 -6.93913001e-16 -1.52066872e-16
      -2.77753644e-16 4.63151263e-16 6.60283252e-16 1.77317268e-16
      -2.33350007e-16 1.14023142e-16 2.67926606e-16 -2.99757284e-16
      -5.44799416e-16 1.19358523e-16 -2.32493233e-16 6.59274330e-16
      4.70759101e-16 -4.14493932e-16 -4.47627319e-16 -6.77456634e-16
      1.83188265e-16 4.83194656e-16 -2.88113440e-16 -1.87461666e-16
      6.55978313e-16 -4.30189340e-17 1.84517498e-16 5.39011368e-17
      -2.87034717e-16 2.83697619e-16 3.64231473e-16 2.77537942e-16
      3.12727635e-16 3.04182733e-17 -5.41698428e-16 -4.98686783e-16
      7.04892878e-17 1.39133500e-16 6.71626453e-16 7.91045658e-16
      6.03791025e-16 2.35325076e-16 4.09866141e-16 1.01502118e-15
      7.19756824e-16 -4.68535428e-16 6.88430792e-17 2.99789630e-16
      -6.24589178e-16 -6.56370225e-16 2.80096888e-17 1.91056977e-16
      -5.42902538e-16 5.08619091e-16 3.97018186e-16 4.92479408e-16
      -4.43801483e-16 -6.02191033e-16 1.46270057e-16 7.63919851e-16
      2.55755352e-16 -7.72713853e-16 -3.63779501e-16 -3.88135299e-16
      -3.88005147e-16 6.51094970e-17 8.21291947e-17 1.60686964e-17
      -1.27644901e-16 -2.06142822e-17 -7.77053044e-16 3.32322948e-16
      -7.97025048e-17 2.19383016e-16 1.66597762e-16 3.53750870e-16
      -4.24824372e-16 5.19116053e-16 3.80505941e-16 -2.10428289e-16
      -2.76632728e-16 3.14772187e-16 4.01365133e-16 -7.10921039e-18
      1.52482090e-16 -3.71023063e-17 -4.35130354e-16 -1.02721485e-15
      -6.31129172e-16 -2.36184523e-16 1.11097344e-16 4.71363724e-16
      5.58738084e-16 4.63671659e-16 1.01892494e-15 3.68055059e-16
      -5.14333394e-17 -2.22635622e-16 -7.20479502e-16 -4.98039068e-16
      1.39162153e-16 5.40935357e-16 -5.54361676e-16 -3.56168725e-16
      -8.92500299e-16 8.41931003e-16 6.46048493e-16 9.87947360e-16
      4.36031862e-16 6.67964941e-16 -3.68093751e-17 4.66208152e-16
      3.56927720e-16 -1.65057803e-16 -2.99666029e-17 9.00513337e-16
      -4.65943930e-16 3.56627843e-16 1.42447034e-15 -6.31862915e-16
      -1.40115959e-18 8.93457023e-16 1.18138531e-16 1.01215916e-15
      -3.71674007e-16 -2.88096340e-16 3.90671553e-16 1.11331284e-16
      9.33844719e-16 7.62740887e-16 1.56470819e-15 -3.36213582e-16
      -4.14165521e-16 -1.35484889e-15 -4.42515661e-16 1.90373328e-16
      1.30948580e-16 3.46286392e-16 2.28848371e-16 4.09727810e-16
      -1.01071545e-16 -2.89311713e-17 -4.34151793e-16 -3.86609448e-16
      2.24654287e-16 2.05665522e-17 -2.74559485e-18 4.01060307e-17
      1.64026702e-15 6.07852283e-16 8.14341446e-16 -7.05807356e-16
      3.86662308e-16 -5.47785683e-16 2.97077510e-16 -6.19048312e-16
      -1.14666013e-16 -5.97058013e-16 -3.34529363e-16 -1.20390207e-17
      -5.79528878e-16 8.09726546e-16 3.60511966e-16 4.78197797e-16
      3.78816745e-16 -1.26314701e-16 6.04425029e-16 1.87345371e-16
      3.06006905e-16 -1.18494907e-16 -5.49641426e-16 8.13197422e-16
      6.30639534e-16 6.18325264e-16 5.96141735e-16 -2.56540736e-16
      3.44773591e-16 -5.26996107e-16 -1.25041079e-15 -8.42345361e-16
      5.18758711e-16 -1.07121959e-15 -8.10048312e-17 7.71814966e-17
      9.72872291e-16 6.76557985e-16 1.75120806e-16 3.37338918e-16
      4.98784298e-16 1.69032902e-16 6.78641871e-17 2.91846228e-17
      -4.71351177e-16 -7.73909652e-16 1.54821344e-16 9.39943329e-17
      -5.60756921e-17 -4.22066618e-16 -1.56217132e-15 -8.52056051e-17
      -1.23941381e-16 -5.24307174e-17 -3.47551462e-16 -2.92671827e-16
      2.00349868e-16 -8.98527468e-16 2.17375521e-16 1.93883698e-16
      7.01080224e-16 -1.82128773e-16 -5.92647513e-17 3.06026095e-16
      -8.30232578e-17 -7.87402992e-16 -1.80857515e-17 -4.87899130e-16
      2.54959352e-16 5.69089462e-16 2.77644668e-16 4.05563822e-16
      9.84821173e-16 9.07235285e-16 4.84535033e-16 1.51132987e-15
      7.80357637e-16 -1.17175489e-15 4.68711928e-16 -2.35610896e-16
      -3.87357722e-16 -4.14280539e-17 1.00120184e-15 -4.53516051e-16
      8.97726493e-16 3.04945916e-16 3.02501379e-16 -2.93756982e-16
      -3.70048313e-16 2.96604839e-16 4.28652987e-16 9.54487150e-17
      -1.76782155e-16 -2.24529667e-16 9.68732325e-17 5.10983478e-17
      -5.48651066e-17 -4.71280820e-16 -1.87681405e-16 7.41373210e-16
      -2.09148896e-17 1.34105666e-15 -4.85595942e-16 8.21387834e-17
      -4.23790224e-16 1.80579854e-16 2.42192759e-17 -4.07049835e-16
      4.81773282e-16 8.78554802e-16 -1.05755961e-16 -5.86048385e-16
      8.54967727e-17 2.72344270e-17 5.22959147e-16 -7.15089037e-16
      5.62548395e-17 1.17250875e-15 -8.57029987e-17 1.44128786e-15
      9.80218608e-16 -1.47981910e-16 3.12487342e-16 5.18886295e-16</_></support_vectors>
  <decision_functions>
    <_>
      <sv_count>1</sv_count>
      <rho>-2.8699265186560297e-14</rho>
      <alpha>
        1.</alpha>
      <index>
        0</index></_></decision_functions></my_svm>
</opencv_storage>
