<?xml version="1.0"?>
<opencv_storage>
<my_svm type_id="opencv-ml-svm">
  <svm_type>C_SVC</svm_type>
  <kernel><type>LINEAR</type></kernel>
  <C>4.4408920985006301e-16</C>
  <term_criteria><epsilon>1.1920928955078125e-07</epsilon>
    <iterations>1000</iterations></term_criteria>
  <var_all>1296</var_all>
  <var_count>1296</var_count>
  <class_count>2</class_count>
  <class_labels type_id="opencv-matrix">
    <rows>1</rows>
    <cols>2</cols>
    <dt>i</dt>
    <data>
      -1 1</data></class_labels>
  <sv_total>1</sv_total>
  <support_vectors>
    <_>
      3.54816199e-16 -2.56274000e-16 -7.58151398e-16 -6.02987403e-16
      5.38854250e-16 1.82365691e-16 1.03335923e-15 -4.01497667e-16
      9.24915906e-17 -3.10284262e-16 8.50931999e-16 -1.55699770e-16
      -7.62723721e-17 6.45309139e-16 -1.12962921e-16 -9.48225856e-17
      -1.40214139e-15 4.29922531e-16 7.70518079e-16 1.17694884e-16
      -1.25846517e-16 1.36531229e-16 6.92994818e-16 -3.33462736e-16
      -2.12436525e-16 -2.67702195e-16 -5.05222278e-16 3.09513886e-16
      -1.10308346e-16 -2.31562370e-16 -1.56063399e-16 -3.85355892e-16
      -1.92615332e-16 -1.22166966e-16 1.72474751e-17 -5.24989485e-16
      1.09117650e-16 4.02069096e-16 -5.42147355e-16 3.58313068e-16
      1.28896127e-15 -2.16286501e-16 1.42112774e-15 1.26444615e-16
      -3.80871726e-16 8.39007972e-17 -3.07143570e-16 -1.07108693e-15
      8.86140776e-16 1.97429550e-16 -1.36755494e-16 5.31137674e-16
      8.55960251e-16 2.04427405e-16 8.00528668e-16 3.05614153e-17
      7.16890147e-16 -1.76877923e-16 -5.79282709e-16 -7.80994751e-17
      5.24447437e-16 1.78311275e-16 1.96994188e-16 5.11527485e-16
      3.59550425e-16 2.95225128e-16 1.19979132e-17 2.75020931e-16
      -1.39620972e-15 -1.77993068e-16 -3.94281740e-16 2.16981929e-16
      1.76508352e-16 4.83783662e-16 -1.03901244e-15 6.90155563e-16
      9.37636356e-16 1.19802620e-16 9.41921496e-16 -1.02628411e-16
      -4.80189383e-16 3.91503843e-16 -3.08928586e-16 1.24270652e-16
      -6.84070055e-16 1.27296505e-16 3.32118495e-16 2.25057501e-16
      -6.97623429e-16 2.84785897e-16 6.89213398e-16 -4.12825488e-16
      1.02013080e-15 -7.04055797e-16 -6.18560262e-16 1.12177113e-16
      3.28396182e-16 1.11790074e-15 4.90052129e-16 -7.25541265e-16
      -4.03516252e-16 7.58748609e-16 -7.04145054e-16 -8.09047437e-16
      -5.93918261e-17 2.45760575e-16 -3.61048919e-17 -2.70267673e-16
      -2.11172262e-16 -7.38251788e-16 4.78848529e-18 -5.45509547e-16
      -3.40958740e-16 9.47084585e-16 8.65957622e-16 5.69193912e-16
      -3.75270059e-16 7.71111796e-16 -9.46868697e-16 -8.01598894e-17
      -7.99181356e-16 -4.32334848e-17 -4.83733634e-16 2.29064946e-16
      -2.45895570e-16 -5.44581252e-16 2.63041291e-16 -9.41908711e-17
      5.72586596e-16 2.58660119e-16 -5.58650892e-16 4.69050000e-16
      1.11338383e-15 1.33213785e-16 4.84061489e-16 -5.08382822e-16
      1.53051535e-16 -1.50730903e-16 -1.18016561e-15 8.31323464e-17
      -7.61579631e-17 4.90794130e-16 -1.10322082e-15 -4.69951415e-17
      7.70744872e-16 -3.54892842e-17 7.41426415e-16 8.70279343e-16
      5.66388102e-17 5.26559990e-16 9.09394477e-16 -1.92012297e-16
      -1.46566028e-16 -4.93349079e-17 9.18537814e-17 4.54335079e-16
      -8.74452727e-17 -1.53943963e-16 -4.28020360e-16 3.03667135e-16
      -3.65488788e-16 -4.09006640e-16 4.92336365e-16 -2.66225996e-17
      4.95969184e-16 -2.65341620e-16 1.23121400e-16 -9.81686304e-17
      4.06525046e-16 3.06497946e-16 2.17488984e-16 -3.32408981e-17
      -3.37756638e-16 4.46100543e-16 -1.27852911e-15 -2.89636008e-16
      -8.10350928e-17 1.59442861e-16 -5.58730037e-16 1.02537288e-15
      1.62094432e-16 -3.19668580e-17 6.72201443e-17 -1.32599620e-16
      5.91607991e-16 6.70039219e-16 1.21172754e-15 -1.56863554e-16
      1.02827894e-16 2.81546578e-16 -9.76722268e-16 2.48765530e-16
      -1.46393578e-16 5.91536047e-16 4.81416999e-16 -7.00093841e-17
      -8.85747118e-16 -8.11226323e-16 3.20319750e-16 5.46142016e-16
      5.92386627e-16 2.19618504e-16 6.03176066e-17 2.07068851e-16
      -1.20414680e-16 -3.40941111e-16 -2.30216752e-16 4.81605040e-16
      -4.68060348e-17 2.06069405e-16 -1.08937098e-15 1.36032909e-16
      1.87902427e-16 4.40760212e-16 -2.07815762e-16 -2.34831255e-16
      1.28372700e-16 -3.66614971e-16 3.18623381e-16 -3.10211338e-16
      1.00772919e-16 -3.11483026e-16 8.99753972e-16 2.05832130e-16
      -1.00711470e-16 1.10149700e-16 1.51445745e-16 9.45725024e-18
      -3.47586640e-16 5.53553025e-16 -7.27077835e-16 2.75010766e-16
      -7.73965635e-17 4.08829750e-17 -3.98326878e-16 4.91812317e-16
      1.75716826e-16 1.41289318e-16 4.97428410e-16 -3.14567628e-16
      5.79926613e-16 1.18943966e-16 -4.07928315e-16 4.57516800e-16
      1.21252078e-16 2.18422070e-16 -5.54962064e-16 -2.50355596e-16
      -7.32444795e-16 5.76636631e-16 -6.26663456e-16 -9.00998157e-16
      7.18828052e-16 -2.50476960e-16 2.06801784e-16 -3.26930604e-16
      5.99633258e-16 2.00327871e-16 4.11950173e-17 4.53120242e-17
      1.72972532e-16 -1.63296517e-16 -7.42482082e-16 -1.04892897e-15
      -3.51628179e-16 5.46899422e-16 -9.29144533e-16 1.41688826e-16
      -1.01709419e-15 -4.83139917e-16 1.19078359e-15 -1.03316166e-15
      -4.30851117e-16 -6.28382403e-16 -1.16771155e-16 4.64684525e-17
      4.15976193e-17 -2.92095209e-17 -4.30940612e-16 -8.08586334e-16
      -1.97292883e-15 -1.49972816e-15 -4.61894372e-16 2.88577878e-16
      -3.58055332e-16 -7.77121177e-16 -8.86645025e-16 -8.49314536e-16
      -1.95388287e-15 -8.98235665e-16 -7.15902771e-16 -9.00215076e-16
      1.29950286e-16 1.19309938e-16 -4.32691561e-16 1.33434344e-16
      -1.29838991e-15 -2.60152554e-15 -1.61497822e-15 -9.24699516e-16
      -4.73192309e-16 -3.46503841e-16 -8.47323850e-16 -1.24087913e-15
      -1.21191378e-15 -1.28312807e-15 1.47440338e-16 -2.03900672e-15
      -8.68950295e-16 9.72898655e-16 2.97711335e-17 3.98617781e-16
      -2.70182440e-16 1.85727822e-17 -1.62089112e-16 -7.13445317e-16
      -1.05568469e-15 -8.07350777e-16 -4.09562770e-16 2.71647569e-16
      -2.01444949e-16 -1.44723136e-16 -4.81427269e-16 -1.22271165e-15
      -6.47374841e-16 -9.10953547e-16 -2.66462563e-16 -3.91740165e-16
      -2.58244067e-16 5.08011822e-16 -3.07254108e-16 -1.27143256e-15
      -1.94531154e-15 -7.61736147e-16 -7.92838826e-16 -8.69836609e-16
      -1.49385610e-15 -4.76115102e-16 -8.03239703e-16 -1.23638646e-15
      -1.88414708e-15 -2.69252102e-15 1.22034512e-16 5.41703722e-16
      -3.40210889e-16 2.58093957e-16 6.11782887e-16 3.95744169e-16
      3.13999560e-16 -9.72776894e-16 1.30693597e-16 1.02277746e-16
      -7.21689912e-16 1.92532309e-16 -5.85798140e-16 -5.52587884e-16
      -1.24947429e-15 -1.68495330e-15 -1.31949014e-15 -1.50253597e-15
      2.52480563e-16 -4.35128369e-16 1.77087537e-16 -4.64333509e-16
      5.97373162e-16 4.63550004e-16 -3.01070317e-16 6.34784606e-18
      -2.32099521e-16 -1.41373455e-17 -1.10295297e-16 8.47836199e-16
      3.11573208e-16 1.02376055e-15 1.47171699e-15 -8.50804467e-16
      -7.72507495e-16 3.03708585e-18 -4.73058584e-16 -1.21299470e-15
      -8.08849920e-16 -1.65389906e-15 -8.52218536e-16 -9.89629779e-16
      -1.88443994e-15 -3.58264999e-16 -1.54871583e-16 -8.39879648e-16
      -2.65553643e-16 2.86362119e-16 -2.46819710e-16 -9.40029436e-16
      -5.32168672e-16 -8.19130358e-16 -1.19334118e-16 -4.49556543e-16
      -3.07637364e-16 -3.82975703e-16 6.97954249e-16 -1.00592151e-15
      7.18252758e-16 1.53007264e-16 5.59092938e-16 4.00293265e-16
      -2.70911080e-17 -7.60587345e-17 3.44879047e-16 3.35369328e-16
      -5.43427434e-16 7.53858900e-16 8.42576389e-16 9.26888633e-17
      -5.94885599e-17 7.19665874e-16 2.10397796e-16 5.76148687e-16
      -3.78707848e-16 -3.42537371e-16 2.19188489e-16 -6.13711899e-16
      9.09548479e-17 -1.95806383e-16 2.36362744e-16 2.82336437e-16
      4.84138939e-16 -4.03134558e-16 -3.62542119e-16 1.15088929e-15
      6.13242391e-17 6.26117861e-16 -4.99112841e-16 9.67190288e-16
      1.72341717e-16 1.71007945e-16 4.20074707e-17 -5.96757740e-16
      5.03831185e-16 -2.00968202e-16 2.19388164e-16 7.06755397e-16
      -3.81572752e-16 -1.66377401e-16 -4.89169944e-16 -5.02666885e-16
      5.82373731e-17 3.88620516e-16 1.68249092e-16 -9.79864866e-16
      -1.88553008e-17 -3.54047702e-16 4.30655876e-16 1.66799488e-16
      6.90949974e-16 -2.92999496e-16 4.92805516e-16 6.46054727e-17
      6.39044695e-16 2.10746959e-16 -1.61085258e-16 -6.17469707e-16
      -6.99535712e-16 -8.91984033e-16 -7.67854425e-16 -8.95424998e-16
      -1.10517439e-15 2.24690286e-16 -1.55558898e-16 -6.77228570e-16
      2.87132919e-16 2.84983070e-16 -1.27711096e-15 -1.83279464e-15
      -1.00550900e-15 -1.32441828e-15 -4.64115451e-16 -8.19520470e-16
      3.34282876e-16 -5.38904225e-16 -6.80073330e-16 -2.53003447e-15
      -1.82040361e-15 3.87153402e-16 -8.75940805e-16 -2.54604048e-16
      -5.74656109e-16 -2.27920472e-16 -7.22887563e-16 -1.81513549e-16
      -1.16698916e-15 -2.56258362e-15 -1.28356694e-15 -1.31039936e-15
      -5.08731800e-16 9.52243952e-18 -1.22350574e-16 -3.67735542e-16
      -1.59673612e-16 -7.71019205e-16 -1.03741239e-15 -2.84343322e-16
      5.04585415e-16 1.09433011e-16 7.53702490e-17 -4.72693618e-17
      -3.16065500e-16 2.40048476e-16 3.39490144e-16 -1.22535905e-15
      9.31910095e-16 8.94384948e-16 1.00489829e-15 6.16231080e-16
      3.03903404e-16 7.48530639e-16 6.79071211e-17 5.19045644e-16
      -5.54381688e-16 5.52419436e-17 -9.51033347e-16 -4.16006918e-16
      5.33280826e-16 2.96489457e-16 -3.05653083e-16 -6.80398908e-16
      -6.27332082e-16 1.35037923e-16 -2.76744722e-16 -6.20581600e-17
      1.16317648e-16 -4.36202671e-16 4.16779147e-16 6.24737779e-16
      -8.62556414e-17 6.98716486e-17 -4.63496852e-16 1.02753577e-15
      -2.16276734e-16 2.82113349e-16 6.90189974e-17 7.50698673e-16
      4.42236034e-16 4.12424074e-16 2.35860195e-17 6.25463634e-16
      8.79053704e-16 3.22185684e-16 4.19051260e-16 3.48828417e-16
      3.15758107e-16 6.53053879e-16 -6.67613475e-16 2.15174731e-16
      1.35981018e-15 5.99905526e-16 -9.27828455e-16 -1.51383888e-15
      2.36936953e-17 1.11998096e-17 5.09248808e-16 -2.20064136e-16
      3.18041972e-16 -4.14020414e-16 1.28894920e-15 -2.46051001e-16
      1.19309726e-15 6.30413641e-16 9.77818646e-16 2.33328990e-16
      4.90214918e-16 -9.09417771e-16 -1.08969158e-15 6.90687024e-16
      -1.21591855e-15 -7.07409558e-17 1.53136701e-16 -1.60039834e-16
      4.32454683e-16 -3.69974780e-16 -5.67189143e-17 5.92580610e-17
      5.53291556e-16 -9.82424282e-16 -1.97816900e-15 -1.66927642e-15
      2.22342734e-16 -2.36322669e-16 -9.09966648e-16 6.19248106e-16
      -5.03593877e-17 -1.06221076e-15 -1.81553804e-15 -1.77319984e-15
      -7.69213754e-16 3.56894156e-17 3.00478850e-16 1.15641374e-15
      -4.93086413e-16 -6.16771752e-16 1.68400407e-16 -4.42910431e-16
      2.38236751e-16 7.51194081e-16 5.29553511e-16 3.98485909e-16
      -3.18232581e-16 -7.13820658e-16 -1.46458720e-15 -1.36115526e-15
      -1.58671813e-15 -1.02458990e-15 -4.55642580e-16 -8.90322260e-16
      5.63786387e-17 -6.55085329e-16 1.02416818e-15 6.04072558e-16
      3.78252542e-16 -3.78944726e-16 -5.20511116e-16 1.01960756e-17
      3.91879105e-16 1.30393655e-16 -5.84066275e-16 2.88084296e-16
      2.60873998e-16 5.39092849e-16 1.11749864e-16 -2.82790764e-16
      2.82587317e-16 1.24694240e-15 6.34912273e-17 -6.95726711e-16
      7.00129310e-18 1.92165604e-17 2.34933614e-16 2.17229712e-16
      1.92661674e-20 8.61621978e-16 9.10949206e-16 -4.24284150e-16
      1.72459376e-16 1.02143624e-16 -2.97499279e-16 -4.20456302e-16
      -4.87460950e-16 -6.01431985e-16 4.52325546e-16 4.75371354e-16
      -4.80014101e-16 -2.59077044e-16 2.99975686e-16 -9.41417167e-17
      5.77855776e-16 -6.04301098e-16 1.99255382e-16 -2.89870212e-16
      3.43459843e-16 -3.45774360e-16 -2.60861372e-16 4.37737336e-16
      -5.66046866e-16 5.21379023e-19 -8.30323264e-16 1.65887723e-16
      1.45187601e-16 4.42955059e-16 -6.04464350e-17 2.08929517e-16
      1.21747127e-15 -3.79397916e-16 6.27596251e-16 -1.27432547e-16
      1.05444686e-15 1.51439816e-16 -1.11348463e-16 -8.92531587e-17
      -4.65559483e-16 4.90471199e-16 -4.39551965e-17 -1.14960635e-16
      -4.12983487e-16 -1.90574631e-16 3.58543753e-16 -3.55401499e-16
      3.37187987e-16 -2.15745287e-16 -1.91296978e-16 -1.66278581e-15
      -1.42255552e-15 -1.95585265e-15 -8.27236199e-16 1.90414568e-16
      1.90904842e-16 -8.82129427e-17 8.39573763e-16 4.67813279e-16
      4.98314883e-16 -7.53081853e-16 -8.35803831e-16 -3.70465741e-16
      -1.14365362e-15 5.96809819e-17 2.58981435e-16 -7.00228161e-16
      -6.66468234e-16 -1.41315981e-15 -7.75444475e-16 -2.03050124e-15
      -2.23142635e-15 -4.68301435e-16 7.58977890e-16 -7.60597364e-16
      -1.03965375e-15 -2.21573244e-16 -1.97813970e-16 -1.52156975e-16
      -2.28770682e-15 -1.50093434e-15 -7.45419487e-16 -8.92651362e-17
      -6.09945249e-16 1.49558874e-16 1.00533748e-15 -7.80286380e-16
      4.11715452e-16 -2.67690628e-16 2.00517646e-16 -4.54618200e-16
      -3.91203808e-16 2.16820106e-16 2.77704437e-16 -3.13816840e-16
      -8.74052928e-16 1.95013190e-16 -5.30334105e-16 1.22163300e-16
      3.31039137e-17 -7.70147820e-16 6.49309888e-16 -3.02696038e-16
      3.74489492e-16 -1.47658860e-16 -2.64206305e-16 -5.29404856e-16
      2.56884764e-16 3.31657392e-16 6.51536790e-16 9.86905827e-16
      7.82373364e-16 6.37392028e-16 -2.67314096e-16 8.94253234e-16
      -2.56412904e-17 -1.62460668e-16 5.75243368e-16 1.68909474e-16
      -2.25702146e-16 -5.65655114e-16 2.42849746e-16 2.49820271e-16
      1.02865936e-15 3.61709194e-16 2.03337048e-16 9.67512201e-17
      5.17677262e-16 1.22975727e-15 -7.48260118e-16 -4.18795588e-16
      7.28724150e-17 -8.18302596e-16 -1.16736884e-15 -6.66485439e-16
      1.38513233e-16 1.69236770e-15 9.38357075e-16 -1.23523799e-15
      -2.31956214e-16 1.26069432e-16 8.47496380e-16 -2.67996354e-16
      3.66644776e-16 3.23802908e-16 -1.32288494e-16 -4.74397213e-16
      -1.02614832e-16 -1.66932851e-15 -1.07154210e-15 -6.75943092e-16
      -2.69990362e-17 1.89080941e-16 -3.57910860e-17 -1.74174511e-16
      1.20925388e-15 4.87978910e-16 -6.03908075e-16 2.76279466e-17
      6.37863349e-16 -7.22675276e-16 -4.03294912e-16 1.05664120e-15
      3.23505891e-16 3.96534054e-16 -1.96012238e-16 -8.36368538e-16
      -9.11532494e-16 -1.76807847e-15 -7.08928249e-16 -1.12112561e-15
      5.69391482e-16 -3.43523794e-16 5.95174900e-16 -7.32164109e-16
      -1.48246203e-15 -9.18873835e-16 -1.04340568e-15 1.10561768e-16
      1.41119511e-15 7.98657731e-16 4.91106361e-17 -1.04269035e-16
      -1.58432229e-15 -1.67375553e-15 -1.88432093e-15 -3.52028878e-16
      -4.88596821e-16 -7.56746382e-16 -7.39009194e-16 -4.54767278e-16
      3.40514895e-16 2.91045735e-16 -5.00003337e-16 -8.66760609e-17
      2.66081504e-16 2.71465907e-16 -2.88973840e-16 -1.05671521e-15
      4.94120852e-16 3.25224547e-16 -2.91021489e-16 2.49275523e-16
      7.46939170e-16 1.24171761e-16 -5.11813941e-16 -3.84123671e-16
      -1.72890555e-16 4.34117964e-16 1.07321933e-15 3.19544662e-16
      -6.98204494e-16 -1.77255223e-16 -1.68851849e-16 2.11686530e-16
      -7.02286504e-16 -3.69994368e-16 -2.58211350e-16 4.11268165e-16
      -9.03808930e-16 -3.16205128e-16 -5.87826466e-16 7.19642527e-16
      6.92683215e-16 4.04880425e-16 6.49207926e-16 7.41248114e-16
      -1.76960059e-16 5.18276273e-16 1.17110947e-16 3.76733759e-16
      9.25282380e-16 -3.94480687e-16 1.00642263e-15 1.63166643e-16
      3.27051994e-16 -1.78411767e-16 -8.70161076e-16 -3.62202882e-16
      2.23459865e-17 6.62914653e-17 5.62724803e-16 -7.62159055e-17
      3.46731613e-16 9.19270035e-16 -2.24330112e-16 2.44448785e-16
      -4.73669241e-16 -9.80503039e-17 -7.29716608e-16 -2.36374920e-16
      7.91631169e-17 2.95266739e-16 -2.02617560e-17 -2.45217335e-16
      -7.49629770e-16 -3.01996654e-16 -2.93384923e-16 -2.88252406e-16
      -2.64947618e-16 8.28691931e-16 1.35201414e-16 -5.09922463e-16
      -2.14362102e-17 -2.56258966e-16 2.07722892e-16 2.80368091e-16
      -2.50872524e-16 -1.31381438e-15 -1.46280790e-15 1.83534848e-16
      1.01467368e-15 -1.17581037e-16 -9.17796727e-17 9.58381675e-16
      -2.54632556e-16 -2.35324229e-16 -1.61832273e-15 -2.10397118e-15
      -2.02670929e-15 -7.25191599e-16 -2.65443350e-17 1.88158020e-16
      3.29107531e-16 -1.69576089e-16 -2.91306436e-16 -1.54236309e-16
      -3.11389084e-16 3.53985577e-16 2.20053839e-16 6.80325058e-16
      9.11425239e-16 1.38321655e-17 -8.15504846e-16 -1.86351391e-16
      -8.27248058e-16 -3.68347974e-16 4.08983532e-16 -5.23934294e-16
      -6.98205447e-16 -8.11604047e-16 9.60381308e-16 -2.26651008e-16
      1.13764752e-15 -1.62824773e-16 -1.23238222e-15 -1.24925099e-15
      -6.35215577e-16 -5.54641568e-16 -9.81258764e-16 -5.55707453e-16
      -9.86667851e-17 2.15265033e-16 3.81335424e-16 -8.24712636e-17
      -1.33932797e-15 -1.39611835e-15 -8.61982761e-16 2.13779721e-16
      1.91902263e-16 -3.05316176e-16 1.83432939e-16 -9.61644446e-16
      -2.07439068e-15 -2.01626664e-15 -2.16371919e-15 -2.02825321e-15
      -1.37141802e-15 -1.13127942e-15 -3.34739215e-16 -1.20934507e-16
      -1.88398683e-16 -8.61945598e-16 -5.24066961e-16 -1.54994769e-15
      -5.52631559e-16 -6.40013172e-16 -8.25937221e-16 -2.68218091e-16
      4.34355385e-17 2.51616616e-16 5.72373091e-16 -2.53373389e-16
      -5.48005965e-16 -1.61834507e-15 -1.51985049e-15 -1.34280123e-15
      -3.80813043e-16 -1.26051407e-16 1.39753064e-16 -3.70427863e-16
      -2.24852810e-16 -2.48580506e-16 -1.80713865e-15 -6.47162236e-16
      -1.28432376e-16 5.33788186e-17 -3.75596701e-18 -1.20628895e-15
      -7.35199823e-16 -7.75863439e-16 -8.50083642e-16 -1.28605563e-15
      -2.07036028e-15 -1.36375640e-15 -2.28602281e-16 -3.13778485e-16
      -1.54825214e-15 -1.46730914e-15 -4.06880978e-17 -8.28755353e-16
      1.50656324e-16 -1.06779345e-15 -1.29802537e-15 -9.88101944e-16
      -1.38660013e-15 -1.00288034e-15 -1.09994216e-15 -5.57242118e-16
      2.25168833e-16 1.06288474e-16 -4.81272580e-16 -5.06125003e-16
      -1.17150671e-15 -8.42956178e-16 -1.04832576e-16 6.44683526e-17
      -3.58419742e-16 9.56129964e-18 -7.04777046e-16 -1.13698331e-16
      1.58450566e-17 -7.53602169e-17 1.03212680e-15 4.68656183e-16
      -2.44427742e-16 1.82682124e-16 6.71369590e-16 -5.10629048e-16
      -5.38719201e-16 3.84817603e-16 -1.41542461e-16 9.15670780e-16
      4.65396535e-16 -2.93379735e-16 -8.10751813e-17 -6.96914780e-16
      -1.68346475e-16 2.66681812e-16 8.19264494e-17 -4.17628827e-16
      -2.28407463e-16 -6.46663015e-16 -2.06653156e-16 -1.56720193e-16
      -1.15959054e-15 -3.95665269e-17 8.25953156e-16 1.20322301e-16
      -4.94938451e-16 4.08089145e-16 -6.56027441e-16 -9.62778094e-16
      4.90145409e-16 2.78326186e-16 -1.85903893e-16 6.64280560e-16
      2.09636667e-17 7.37504229e-16 5.80173576e-16 2.07400848e-17
      1.20857692e-16 2.37769930e-16 -1.27003525e-16 4.96228905e-16
      -6.96697463e-16 -8.12445945e-16 6.22389553e-17 6.67217699e-16
      -2.64998413e-16 7.40554818e-16 1.01463133e-15 -1.60957423e-16
      2.07590848e-16 -6.62584111e-16 1.58891470e-16 5.45258296e-16
      -2.14383867e-16 -7.23014195e-16 -5.49449957e-17 -4.23987080e-16
      2.62170382e-16 3.16248989e-16 -4.97607802e-17 -2.14402237e-16
      5.07668456e-16 1.03450982e-15 -2.54281779e-16 6.88953703e-17
      6.97820841e-16 1.18677813e-16 1.47900516e-16 -7.11223602e-16
      6.42243462e-16 -2.39252370e-16 -3.82369598e-16 1.98433191e-16
      -3.45088025e-16 4.71314179e-17 3.13235590e-16 -4.56932823e-16
      -7.80428960e-17 3.71220104e-16 -7.03333120e-16 -5.40192245e-16
      -7.47533310e-16 -3.70834148e-16 3.54050144e-17 -2.62202252e-16
      -1.61121271e-16 1.16425621e-15 5.82933368e-16 -2.31586696e-16
      -2.59677591e-16 -7.41825685e-16 -7.13230223e-16 4.00683271e-16
      -3.83551044e-17 6.41642598e-16 -7.60309638e-16 -1.00053371e-16
      -7.72644290e-16 2.43809514e-16 6.59548081e-16 1.29878283e-15
      -3.77063387e-16 8.77698187e-16 2.78192354e-16 1.40241996e-15
      5.48884655e-16 -2.89126729e-16 7.13689844e-17 -1.64806314e-16
      -3.53384448e-16 8.01976300e-16 4.94970638e-16 -2.53906887e-16
      -1.37238912e-16 6.21528372e-16 2.84148399e-16 1.03338189e-15
      -6.19719215e-16 -2.14004753e-16 -3.36135575e-16 -7.87008338e-18
      6.62378335e-16 4.16909511e-16 3.50855632e-16 -3.97450821e-17
      -8.54198515e-17 -1.42713108e-15 -1.07666517e-16 -4.25391778e-16
      3.17446746e-16 5.64570065e-16 1.80868057e-16 -3.75950200e-16
      3.34068974e-16 1.48570029e-16 7.23798835e-18 -3.07781439e-16
      1.97736652e-16 7.40307749e-16 6.77249481e-16 -3.50810527e-16
      1.26802135e-15 3.28086460e-16 3.26738010e-16 -7.12835347e-16
      4.21616023e-16 9.72250556e-17 4.73348587e-16 -3.64060637e-16
      -2.88495107e-16 -2.97387391e-16 -1.14737580e-15 -6.80105650e-17
      -5.20613085e-17 -5.94908032e-17 4.65930696e-16 8.50898660e-17
      -7.36830586e-17 -3.66768760e-16 3.88619974e-17 -2.19725389e-16
      -1.26001590e-16 -7.17337009e-16 9.47123919e-17 9.53580375e-16
      3.31691617e-16 7.21586997e-16 8.03298519e-16 -3.32403813e-16
      -1.55069101e-16 -3.72173386e-16 -1.22942925e-15 1.10141514e-16
      5.49005305e-16 -1.22780456e-16 -2.67488717e-16 7.81725278e-16
      5.41021066e-16 1.08832511e-15 3.79911165e-16 -9.39402155e-17
      6.75525822e-16 -1.12916639e-16 -3.10291436e-16 -4.36195763e-16
      -2.10244761e-16 -3.91126145e-16 1.02654782e-15 7.75841999e-16
      -1.15874967e-16 1.66322556e-16 -7.01300982e-16 4.10696154e-16
      4.13314121e-16 2.32043141e-16 2.04880488e-16 -6.99468108e-16
      4.18223815e-16 -1.00459717e-15 3.19104019e-16 3.08936950e-16
      3.16963938e-16 4.42580538e-16 2.59809939e-16 1.57601557e-16
      -4.75542455e-16 -7.46985757e-16 -9.95547893e-16 -5.11816535e-16
      -4.80625288e-17 2.23609895e-16 -4.70912414e-16 -4.48349256e-16
      8.27886826e-16 3.26537527e-16 -2.61553557e-16 -9.86876763e-17
      7.88433832e-16 1.94629245e-16 4.20771505e-16 -1.00210403e-15
      3.33743978e-16 5.88014931e-16 9.05617452e-16 -5.81129453e-16
      4.19001497e-16 2.18762551e-16 -3.84407295e-16 -3.52920857e-16
      -5.18497878e-16 1.84623718e-17 5.02995851e-16 2.40928596e-16
      -7.09337895e-16 -1.24969187e-15 -2.43893052e-16 -8.03620656e-17
      2.97994694e-17 2.29441611e-16 -1.55711033e-16 7.19463274e-16
      -4.59261463e-17 9.47295708e-16 1.11370920e-15 -1.01800185e-16
      -2.91205269e-16 3.57924988e-17 -3.69541973e-16 -3.86782984e-16
      7.72838526e-16 9.28944845e-16 6.17640490e-16 -2.70612124e-16
      3.96174938e-16 -6.61938937e-16 3.54520637e-16 5.67617742e-16
      -4.48345074e-16 5.64861550e-16 5.50813350e-16 5.84297250e-16
      3.58593992e-16 5.33780113e-17 2.57273314e-16 4.02756490e-16</_></support_vectors>
  <decision_functions>
    <_>
      <sv_count>1</sv_count>
      <rho>-2.8921309791485328e-14</rho>
      <alpha>
        1.</alpha>
      <index>
        0</index></_></decision_functions></my_svm>
</opencv_storage>
