<?xml version="1.0"?>
<opencv_storage>
<my_svm type_id="opencv-ml-svm">
  <svm_type>C_SVC</svm_type>
  <kernel><type>LINEAR</type></kernel>
  <C>4.4408920985006301e-16</C>
  <term_criteria><epsilon>1.1920928955078125e-07</epsilon>
    <iterations>1000</iterations></term_criteria>
  <var_all>1296</var_all>
  <var_count>1296</var_count>
  <class_count>2</class_count>
  <class_labels type_id="opencv-matrix">
    <rows>1</rows>
    <cols>2</cols>
    <dt>i</dt>
    <data>
      -1 1</data></class_labels>
  <sv_total>1</sv_total>
  <support_vectors>
    <_>
      2.66532946e-16 -5.00976148e-17 -5.92603679e-16 -5.95691537e-16
      7.61412581e-16 5.13171205e-16 1.08791398e-15 -4.63506487e-17
      -1.86152934e-16 -7.95428630e-16 6.73673784e-16 -3.42047442e-16
      -2.32160243e-16 1.51225332e-16 -2.08278453e-16 -3.34716213e-16
      -8.00287740e-16 -2.05671604e-16 2.89555884e-16 -5.10727304e-16
      7.77564281e-16 -7.84594774e-17 -1.66815569e-16 -4.57972080e-16
      -4.96695197e-16 -7.03696761e-16 2.63282536e-16 4.87443585e-16
      -2.18153494e-16 -4.74279489e-17 -4.00373284e-16 -9.54617884e-16
      1.56644820e-16 -4.72389692e-16 2.00765073e-16 1.56062128e-16
      7.37548976e-17 2.56719249e-16 -3.15595079e-16 1.45001056e-16
      6.79035291e-16 3.54904079e-16 6.98877409e-16 4.28021630e-16
      -4.74167191e-16 9.59517202e-17 7.41225456e-16 -3.33427770e-16
      2.01021009e-16 9.80959762e-16 1.83683793e-16 -3.90045755e-16
      6.35247817e-16 3.76798292e-16 5.31662146e-16 -1.05183049e-16
      1.33727381e-15 -1.11176198e-15 -4.05832967e-16 7.53089264e-16
      1.80191185e-16 -2.06696328e-16 6.10972859e-16 6.48921205e-16
      6.83096205e-17 -1.78076885e-16 3.65966752e-16 -4.13416612e-16
      2.87435568e-17 1.92216313e-16 -3.10043837e-16 3.88444572e-16
      3.04565255e-16 -3.12301921e-16 -4.02881375e-16 3.57890134e-16
      7.60247143e-17 7.11061660e-16 8.95818975e-16 6.87704859e-17
      -4.79167279e-16 2.86319318e-16 -3.25476672e-16 1.76448424e-16
      -1.20643842e-16 1.53808822e-16 3.75369374e-16 3.52465550e-16
      -1.92844123e-17 1.57480397e-15 6.37849161e-16 -1.12873271e-15
      1.48823117e-15 -6.18557456e-16 -6.70328693e-16 2.55213621e-16
      2.38679220e-16 7.63414649e-16 2.71932622e-16 -2.95917842e-16
      -8.66126724e-17 5.17325320e-16 -1.23201112e-15 -3.32036704e-16
      -5.28948306e-16 -3.59830416e-17 4.51971857e-16 -2.87318658e-16
      6.15687497e-16 -1.30049058e-16 -6.36133059e-17 -1.30264046e-16
      -4.28267984e-16 6.95017056e-16 6.68637962e-16 5.42671775e-16
      -1.61615541e-16 -1.02230908e-16 -1.75786203e-16 3.08933615e-16
      -8.23100190e-16 -2.74148063e-16 -2.79811544e-17 5.13775934e-16
      -2.36014005e-16 -2.99809879e-16 2.86512600e-16 1.88433120e-16
      3.26262295e-16 -3.64045682e-16 1.55502491e-16 2.43105673e-18
      4.14518760e-16 -3.11172323e-16 -3.59205524e-16 -1.42061520e-16
      1.49326046e-16 1.48065780e-16 -7.05378916e-16 -2.70765781e-16
      5.73903521e-16 5.94098851e-16 -3.44126484e-16 1.37038774e-16
      7.25718242e-16 2.06071774e-16 2.87139881e-16 3.65465898e-17
      3.29795137e-16 1.29703339e-15 1.97497908e-15 3.37780725e-16
      -4.02028902e-17 -5.01841610e-16 -3.44559821e-16 3.88427141e-17
      3.66696127e-16 7.61547312e-16 4.93305583e-16 9.28239452e-17
      -8.35474653e-16 -7.03962266e-17 4.16612308e-16 2.32826276e-16
      -1.08875458e-16 -6.63705848e-16 5.93862211e-16 3.34595458e-16
      1.40873676e-16 -2.57083605e-16 8.34603202e-17 3.09501471e-16
      -4.85546920e-16 2.03021873e-16 -3.78134169e-16 -2.24670778e-16
      -1.19947436e-16 -3.86991142e-16 -1.36968629e-16 2.32182028e-16
      3.94649220e-16 -1.44758592e-16 1.13530446e-16 -1.22189045e-15
      4.26082745e-16 4.15558096e-16 7.89211725e-16 7.13517592e-17
      5.48213700e-16 -3.02965739e-16 6.11097108e-16 -5.48529471e-17
      -7.13154043e-16 1.21673424e-15 5.34167987e-16 -7.14508502e-16
      -9.40315733e-16 -4.96389577e-16 8.90474197e-16 1.90370867e-16
      -9.38942474e-18 -1.43231194e-16 3.06070856e-16 -1.66921871e-16
      1.08670489e-17 -1.22359348e-18 -2.60121912e-16 5.49539835e-16
      1.03508763e-16 1.18213126e-17 -7.79318328e-16 -2.23732715e-16
      3.59902526e-16 5.95591693e-16 -4.26816620e-16 -5.53934931e-16
      6.83337279e-17 -7.02284916e-16 -5.88330639e-18 1.68976614e-16
      3.03882811e-16 5.86224621e-16 1.44771917e-15 -2.70936273e-16
      8.93427853e-17 -3.65209108e-16 -8.86094401e-16 -8.17289716e-17
      -1.55536200e-16 1.09453089e-15 -5.55764522e-16 -5.83034271e-16
      -1.69746117e-16 -3.31978126e-16 -7.89585188e-17 6.75379285e-16
      -1.15932208e-16 9.09067986e-17 -1.50070349e-16 1.61087508e-16
      6.05926713e-16 1.18556965e-16 -5.25056401e-16 5.83807983e-16
      -2.04376953e-16 6.06868243e-16 2.27071031e-16 6.19105593e-16
      -3.36077077e-16 3.81561661e-16 -4.37145498e-16 -4.18263281e-16
      2.72189008e-16 2.10160269e-16 8.74238984e-17 -6.17663731e-16
      1.95327214e-16 3.69925467e-16 -2.56317861e-16 2.17424940e-16
      4.02898977e-16 2.04674633e-16 -7.46114266e-16 -6.12432138e-16
      1.63048945e-16 4.51859718e-17 -1.05814405e-15 -3.33568166e-16
      -7.99982543e-16 7.60037264e-16 -1.88623434e-17 -6.76867205e-16
      -6.25679415e-16 -7.95699786e-16 -3.48644637e-16 -8.48577724e-17
      5.26095710e-16 2.81614659e-16 -2.98701431e-16 -1.06776317e-15
      -1.14712264e-15 -2.13016737e-15 -5.60942858e-16 5.44421957e-16
      -3.51294262e-16 -7.86739236e-16 -7.00217203e-16 -6.34158109e-16
      -8.46370620e-16 -1.60830106e-15 -4.55802299e-16 -1.68746301e-16
      -6.63903154e-16 -2.10796907e-16 -8.52048375e-17 -3.04821429e-16
      -1.24167523e-15 -2.14797370e-15 -1.69169950e-15 -7.38322727e-16
      -3.61309474e-16 -4.33324639e-16 -1.13169584e-15 -4.30885104e-16
      -1.48888159e-15 -1.37001534e-15 -4.24525396e-16 -1.24253635e-15
      -7.25509236e-16 5.28986052e-16 -4.34360454e-16 2.75485025e-16
      -1.63143350e-16 -5.58426535e-16 -1.58817566e-16 -9.33508129e-16
      -6.71339838e-16 -4.87841320e-16 -5.11473010e-16 4.22194599e-16
      -7.01435078e-16 -6.46767889e-17 -1.16146026e-15 -1.45207748e-15
      -9.04999859e-16 -1.06895653e-15 4.39874453e-16 -7.14703637e-16
      3.25269387e-16 1.62426482e-16 2.73307251e-16 -1.13792354e-15
      -2.10610190e-15 -1.64956437e-15 -1.22806002e-15 -9.57475879e-16
      -1.15548931e-15 4.99485932e-17 -3.54520081e-17 -6.68186493e-16
      -1.69289392e-15 -2.77769717e-15 2.70036962e-16 1.71180488e-16
      1.57731749e-16 1.73023539e-16 9.02319952e-16 -7.71636096e-17
      3.74051444e-16 -1.51796902e-15 -3.45077782e-16 8.37767863e-17
      -8.91667878e-16 -1.12308879e-16 -5.65644420e-16 -7.79071259e-17
      -8.49509513e-16 -9.81984142e-16 -1.78528668e-15 -2.19948347e-15
      -9.65680756e-17 3.96019587e-16 2.87095756e-16 1.39156727e-16
      -2.84014409e-16 2.15655065e-16 -5.60983304e-16 -6.29299687e-16
      -7.05948334e-16 -6.53342188e-16 2.79785782e-16 8.52746979e-16
      4.33499816e-16 7.69574325e-16 8.33633680e-16 -1.22464638e-15
      -4.74575937e-16 8.69328641e-17 -3.63715815e-16 -1.13039458e-15
      -5.48353778e-16 -5.57912809e-16 -7.27564085e-16 -7.90190631e-16
      -1.40846100e-15 -7.10627185e-16 -6.91551474e-16 -1.70033214e-15
      -4.34628487e-16 2.25986617e-16 -1.05624786e-15 -5.56180733e-16
      -2.42139906e-16 -3.44392823e-16 -1.40248685e-16 -6.79173146e-16
      1.83424349e-16 -2.83416801e-16 -3.46182392e-16 -3.52580985e-16
      4.01328763e-16 2.87519537e-16 3.29275297e-16 -2.34067844e-17
      -2.67149851e-16 -2.92161053e-17 8.20933162e-16 9.72567253e-16
      -3.17217412e-16 4.20998536e-16 3.96397390e-16 -1.09757298e-16
      -3.18069421e-16 3.45152373e-16 2.56427710e-16 -6.49133691e-17
      -8.14634863e-17 -5.41454059e-16 -1.03935204e-16 -4.10328409e-16
      1.17153802e-16 9.35940834e-17 -2.57231095e-16 8.90851867e-16
      8.36700257e-16 -1.36684780e-16 -2.69317090e-16 8.49274991e-16
      -4.72028750e-16 2.05008807e-17 -3.30011368e-16 6.40705727e-16
      8.35069798e-17 3.02245073e-16 -4.30851977e-17 -2.67940132e-16
      5.16831235e-16 -4.60637640e-16 4.68483547e-16 1.51481572e-16
      -2.39428633e-16 -1.58515294e-16 3.70201096e-16 -3.94585349e-16
      1.05909612e-16 -1.14637452e-16 2.73106266e-16 -3.84690813e-16
      -7.46852243e-16 -1.19983646e-15 2.91093063e-17 4.23561658e-16
      8.64241057e-16 -8.90994381e-16 1.41353652e-15 -1.70153898e-17
      8.93555067e-16 -1.11887007e-15 -5.66509664e-16 -2.71075213e-16
      -6.34982113e-16 -9.49046525e-16 -1.41100191e-16 -9.55197149e-16
      -1.01703352e-15 2.97949636e-16 -5.22886726e-16 7.89656193e-17
      -1.11299309e-16 -6.62050163e-16 -1.70831574e-15 -1.61230646e-15
      -6.17420156e-16 -1.06361906e-15 4.20397010e-16 -3.60198723e-16
      -2.49422086e-16 -6.47027187e-16 -1.42116342e-15 -2.72580878e-15
      -1.52397501e-15 4.11594326e-16 -7.26443408e-16 2.59710122e-16
      -7.65905654e-17 -5.21708768e-16 -4.00565587e-16 -1.39390309e-16
      -1.12370387e-15 -1.49972880e-15 -2.54038818e-15 -1.61460372e-15
      -7.81941059e-16 3.46219847e-16 6.47968505e-16 7.88483965e-16
      -5.66969550e-16 -5.80288720e-16 -1.28834611e-15 7.18168200e-17
      -3.26341148e-16 -6.73851873e-16 5.98972837e-16 5.13383069e-16
      -2.88392060e-16 -1.16911325e-17 2.82574638e-16 -6.23850142e-16
      9.88156260e-16 1.12695193e-15 7.83211026e-16 7.67617679e-16
      6.32786498e-16 5.77604049e-16 3.73376173e-16 -8.14931722e-17
      3.25254134e-17 -2.38610796e-16 -9.01105307e-16 -8.22036476e-16
      8.64525501e-17 4.81688738e-16 -2.11268533e-16 3.21453900e-16
      -4.62780024e-17 -2.41642089e-16 1.50754831e-16 4.15625885e-16
      9.01671019e-16 8.65224502e-17 -2.61341428e-16 7.74892210e-16
      4.64947661e-16 1.50413447e-17 -4.57055326e-16 1.43984759e-15
      9.05248463e-17 1.01324283e-15 5.89813393e-16 2.70376940e-16
      2.23127034e-16 -2.82853815e-16 -1.80489221e-16 5.13918024e-16
      1.06841835e-15 -1.86605011e-16 4.50719572e-16 -1.48920992e-16
      3.66912306e-16 4.67766322e-16 -1.02268561e-16 1.91383097e-16
      1.05238211e-15 4.09665579e-16 -1.14743964e-15 -7.89986761e-16
      -7.94288404e-17 5.53480180e-16 3.60861711e-17 -3.13501214e-16
      1.05945843e-15 -3.24747376e-16 1.01571723e-15 -7.79699810e-16
      1.21054952e-15 1.27193432e-15 1.17232981e-15 2.87719119e-16
      -3.57800058e-16 1.61006785e-17 -5.43984040e-16 1.00980049e-15
      -5.23818145e-17 -6.38725523e-16 -3.52294952e-16 -3.69426776e-16
      3.12429056e-16 -3.08625189e-16 -5.07805392e-18 -5.68261381e-16
      -1.41760559e-17 -1.24563035e-15 -1.73757798e-15 -4.09852535e-16
      7.04677890e-16 -9.02077913e-16 -3.11785893e-16 7.40211716e-16
      -7.11641295e-16 -6.44715263e-16 -2.31795818e-15 -1.81832330e-15
      -1.62847283e-15 -1.83017165e-16 4.04012217e-16 5.70929482e-16
      -1.17337928e-15 -7.13528696e-16 -4.79213125e-16 -1.87172007e-16
      3.57936880e-16 5.82657686e-17 5.46651347e-16 -2.83526438e-16
      2.90890346e-18 -1.54478841e-15 -9.31743442e-16 -1.04910314e-15
      -1.54061529e-15 -2.00678649e-16 -9.53369146e-16 -7.95266952e-16
      -2.14638308e-16 -7.67525670e-16 6.56116274e-16 3.26593829e-16
      6.83939152e-18 -6.97131144e-16 -4.46669008e-16 -3.23380662e-16
      4.71238343e-17 2.50055296e-16 -3.96071547e-16 6.70259553e-17
      1.07607324e-16 3.40626041e-16 -1.54866160e-18 -8.00175296e-16
      -5.44956381e-16 6.40740402e-16 4.20865922e-16 -4.39661954e-16
      5.60764716e-16 3.33296586e-16 -2.46553741e-16 1.64477572e-16
      1.15789404e-17 5.23660703e-16 3.23079065e-16 -2.30709911e-16
      -5.07815575e-16 9.81049375e-17 -1.05052541e-15 1.50021989e-16
      1.37934273e-16 5.26420124e-16 4.48233795e-16 7.64594936e-16
      5.11948831e-17 -8.69941800e-16 2.55058138e-16 -1.43846047e-16
      1.60290464e-16 4.47529064e-16 -2.02142507e-16 -2.80939335e-16
      -3.47372659e-16 -1.22261305e-16 -2.48484077e-16 2.08283416e-16
      -2.40254834e-16 -8.78899597e-16 -2.40162454e-16 3.19386240e-16
      8.35371474e-16 6.69605220e-16 2.31077470e-16 -1.45670370e-16
      5.22435787e-16 -7.50692611e-17 7.04982610e-16 -4.30660985e-16
      6.72673491e-16 3.65024852e-16 5.40595220e-16 -1.32491824e-15
      -4.26951351e-16 2.89404079e-16 -5.05631871e-16 -4.12424074e-16
      3.20522058e-16 -3.70405496e-16 4.88802120e-16 -3.71059459e-16
      1.91743007e-16 2.39820359e-16 -1.48651304e-16 -1.19892897e-15
      -7.82905036e-16 -2.45578039e-15 -1.26842337e-15 -1.12353216e-16
      2.80012337e-16 7.15695195e-16 2.83659184e-16 4.57553169e-17
      5.43682179e-16 -4.12280185e-16 -7.13108356e-16 -8.75451856e-16
      -1.90897324e-16 6.18230613e-18 -4.73643301e-16 -7.58547597e-16
      -8.37484874e-16 -1.29069176e-15 -9.95549057e-16 -1.99051049e-15
      -2.23516176e-15 -1.67242566e-16 4.45001676e-16 -1.81165405e-16
      -7.51728612e-16 -6.57217893e-16 -4.81597205e-16 -8.16404037e-17
      -1.52632002e-15 -2.47415105e-15 -1.32060483e-15 -2.42963222e-16
      2.44518665e-16 -3.07428173e-16 4.99869823e-16 -1.10404085e-15
      1.08646513e-15 4.51754646e-16 5.77146122e-16 -4.63345498e-16
      -1.05476076e-16 3.47158333e-16 8.68393067e-17 2.98162797e-16
      -7.05810956e-16 4.41506765e-16 -1.38061966e-15 4.79347274e-16
      2.67786323e-17 -6.01630244e-16 6.88599405e-16 9.70546233e-16
      -1.87104218e-16 5.94309219e-17 1.88071556e-16 6.15374889e-16
      -2.48548954e-16 1.23100820e-16 -2.24685204e-16 4.40578444e-16
      2.65703965e-16 -1.87259887e-16 2.24962633e-16 1.33860714e-15
      -5.11282421e-17 9.83183435e-16 7.31742234e-16 9.20632911e-16
      1.79637861e-16 3.88495870e-16 2.51335137e-16 -3.48793583e-16
      1.16600163e-15 5.20491224e-17 1.47848344e-16 5.82169821e-16
      3.72753551e-16 5.93516145e-16 3.12822449e-16 -8.65619960e-17
      2.00401087e-16 6.38679253e-16 -9.44654659e-16 -1.44657981e-16
      -1.31402934e-16 8.30795127e-17 6.90328834e-16 -7.95925997e-16
      -3.90947104e-16 2.49551523e-16 1.00144419e-15 -1.83055215e-16
      2.04104752e-16 3.96917098e-16 8.43558948e-16 2.64834592e-16
      -9.23507423e-16 -1.36078786e-15 -6.45847376e-16 -1.02533688e-15
      -1.16153668e-16 3.91172706e-16 -2.94978774e-16 -1.43941881e-16
      1.15069309e-15 3.17939137e-16 -1.69157125e-16 3.44498385e-16
      -2.57721024e-17 -1.89305114e-17 -8.41649947e-16 5.96312254e-16
      2.81847897e-17 2.21215293e-16 -4.14753865e-16 -8.71985903e-16
      -1.15852518e-15 -1.38885758e-15 -9.71487816e-16 -7.14100602e-16
      5.50499736e-16 -2.41108378e-16 -1.19063021e-17 -4.46659432e-17
      -1.30202940e-15 -1.75287190e-15 -5.58437864e-16 6.63662702e-16
      1.39344427e-15 1.09007039e-16 -2.76896923e-16 -3.27340488e-16
      -3.67778159e-16 -1.36198260e-15 -1.43849308e-15 -3.44216005e-16
      -9.01327336e-16 -5.37789847e-16 -3.51663119e-16 -9.33906235e-16
      2.73283004e-16 3.87807444e-16 -1.36956903e-16 -2.42945884e-16
      -4.10141929e-16 1.01467003e-16 7.87709870e-17 -6.34169756e-16
      7.97992188e-17 3.51478386e-16 1.08512511e-16 2.07563915e-16
      2.22661563e-16 -2.23949370e-16 -1.05768591e-15 2.16488347e-16
      -3.98961386e-16 7.32428966e-16 3.90731335e-17 6.20973618e-16
      2.49100743e-16 -5.60909453e-16 3.86027563e-16 1.53347149e-16
      -9.43362828e-16 -1.53747716e-16 -1.44644623e-17 7.18664098e-16
      -5.66789648e-17 -1.99682366e-16 -7.00178610e-16 8.69780494e-16
      6.71251058e-16 3.31734763e-16 6.47959346e-16 4.08680824e-16
      -1.38684427e-16 7.21569699e-17 4.13695735e-16 -8.70184409e-17
      1.98307711e-16 1.20711195e-16 -3.09345723e-16 -4.01825786e-16
      -1.29053080e-16 -3.20624668e-17 -4.31470272e-16 -3.80915269e-16
      1.32490366e-16 -8.94904619e-18 2.45512566e-17 -4.85995106e-16
      4.97395428e-16 2.73235465e-16 -3.39208929e-16 2.90901581e-16
      6.67190224e-16 -5.50212750e-18 -1.80718781e-16 -3.61816635e-16
      -6.79907841e-16 9.65947770e-17 4.75999588e-16 4.46391869e-16
      -1.10567742e-15 3.59900302e-16 3.49422346e-16 1.38662351e-16
      -5.91262402e-16 1.08306662e-15 -1.47892972e-16 -5.91674484e-16
      2.93453426e-16 -6.95420402e-17 2.60239306e-16 8.69304408e-16
      -6.98843157e-16 -1.22557335e-15 -7.86888102e-16 4.96347543e-16
      7.78151804e-16 -1.79514644e-16 -6.49534245e-17 3.26338792e-16
      -8.14337423e-16 -5.62827559e-16 -1.71617261e-15 -1.56150492e-15
      -1.75830773e-15 -5.18913559e-16 3.86538006e-16 -9.84190769e-16
      4.12810586e-16 -3.11997836e-17 -5.19736174e-17 -5.04030820e-16
      1.72256022e-16 1.88743385e-16 -8.90833898e-18 -1.38533575e-16
      -1.80241028e-16 -4.97394370e-16 -1.22211671e-15 5.70821538e-16
      -7.96896855e-16 1.76527384e-16 -1.20082082e-15 -8.63267591e-17
      -9.36627963e-16 -6.46701555e-16 6.03585408e-16 -4.80971016e-17
      1.38686706e-15 4.56240162e-16 -2.48932792e-16 -1.58166475e-16
      -7.11307141e-16 -9.92582642e-16 -9.67901796e-16 5.23265350e-16
      5.91855007e-16 4.46221298e-16 -1.66297135e-17 -3.68641974e-16
      -1.02243155e-15 -1.14775622e-15 -8.64473885e-16 -6.48740946e-16
      4.88983968e-16 -2.11104619e-16 2.14100098e-16 -1.36978611e-15
      -1.81308906e-15 -1.90504444e-15 -1.08097222e-15 -1.46778824e-15
      -1.00117156e-15 -1.41863699e-16 -9.39889252e-16 -8.95996428e-16
      -1.11384017e-15 -9.49319587e-16 -4.38381134e-16 -1.40738325e-15
      -4.48053853e-16 -1.50514287e-16 -4.14769111e-16 -6.36400417e-16
      3.34831383e-16 4.15569372e-16 -1.02181965e-16 -2.68842196e-16
      -1.26936283e-15 -1.33400458e-15 -1.76900311e-15 -1.83874759e-15
      -7.46560758e-16 6.00098756e-16 -6.93355283e-16 -9.64923310e-16
      7.13687528e-17 -6.64134341e-16 -2.34328912e-15 -7.97354677e-16
      -1.07264011e-16 -8.93089834e-16 4.95103463e-16 -8.31791542e-16
      -3.02838049e-16 -1.26620266e-15 -1.53596847e-15 -1.30422809e-15
      -2.11507007e-15 -1.51687761e-15 -1.07859058e-15 1.51050221e-16
      -2.21175676e-15 -1.16468057e-15 3.84252473e-16 -1.14185367e-15
      8.56060201e-17 -1.05495328e-15 -2.51104272e-15 -7.00122282e-16
      -4.48138186e-16 -8.90322895e-16 -5.92822372e-16 -9.22921488e-16
      4.59712997e-16 -6.41387853e-16 -1.09959296e-16 -5.56435742e-16
      -1.33539853e-16 -3.25523470e-16 -1.97359233e-16 -1.47158224e-16
      5.44871784e-16 -6.01146588e-16 -5.33551665e-16 -2.58582827e-16
      5.67401646e-18 3.48995600e-16 2.91791812e-16 1.85467194e-16
      8.29149898e-17 -8.38627098e-16 -1.38338228e-16 -4.94342245e-16
      -6.14906480e-16 3.88161557e-16 -2.73450240e-16 3.82703912e-16
      6.90574527e-16 5.26023554e-16 -4.37205135e-16 -8.74271250e-16
      -2.87802208e-16 1.90532385e-16 -6.47523919e-16 -1.68337955e-17
      -8.78963866e-16 -4.30174682e-16 -4.55229228e-16 -7.41356376e-16
      -1.47410229e-16 8.40620643e-17 2.59153383e-16 -2.43890855e-16
      9.05674560e-17 -3.19789375e-16 -8.00391396e-16 -2.79009688e-16
      -4.87438556e-16 7.66126660e-18 8.87200203e-16 2.02496580e-16
      2.68443852e-16 7.10039291e-16 9.30402377e-16 6.94186170e-16
      5.25015426e-16 -1.32402393e-16 3.50830657e-17 1.05022325e-16
      -1.64307790e-15 -5.72202625e-16 -4.94527957e-16 1.05426929e-16
      -4.98477037e-16 -1.16705669e-16 -2.73891995e-16 9.53505849e-17
      -1.91903626e-16 -3.90764224e-16 3.50671931e-16 7.65081821e-16
      -1.31580189e-16 -6.62003259e-16 2.84229741e-16 1.05157288e-16
      4.09114366e-17 8.30990937e-17 -1.10917621e-16 -2.64548348e-16
      2.58895938e-16 4.04803398e-16 -3.21799887e-16 -2.27483059e-16
      1.47157165e-16 2.10635041e-17 -8.12765859e-16 -5.62909377e-17
      -1.49325437e-16 4.86716408e-16 9.96210140e-17 1.42165348e-16
      1.94786026e-16 -6.80625278e-16 -2.96129256e-16 -6.96276912e-16
      -2.66525878e-16 7.25388216e-16 -3.96937691e-16 -3.02659245e-16
      -4.19297111e-16 2.91077896e-16 -5.69950471e-16 -6.66699474e-16
      4.23445720e-16 -2.16157766e-16 1.03324374e-16 5.07660832e-16
      8.02352542e-16 9.40215571e-16 -6.43735405e-16 6.07701459e-16
      5.83926673e-16 4.62025238e-16 3.19577325e-16 -1.12150643e-16
      -7.58515993e-16 5.68343279e-16 8.54999345e-16 1.30360446e-15
      3.40838699e-16 2.18535652e-16 -1.46138776e-17 5.14870777e-16
      -6.19779963e-17 5.46384625e-17 1.33989294e-15 1.38355950e-16
      1.27621673e-16 5.86702718e-16 1.10160108e-15 -1.95152474e-16
      6.00939277e-16 3.71727979e-16 7.96165839e-17 3.51161913e-16
      -1.47567393e-16 2.47876013e-16 3.10564895e-16 7.56323712e-16
      6.00463721e-16 1.10785451e-15 5.45082536e-16 2.49273564e-16
      -4.29469898e-16 -1.81252324e-15 -3.55748120e-16 9.83607547e-17
      5.11770372e-16 -2.88808483e-16 -3.45151512e-18 7.58803084e-17
      -7.74475470e-16 1.98881986e-16 -5.96505854e-16 9.32604517e-17
      1.73114648e-16 -4.11905505e-17 -2.83039606e-16 -1.00508506e-15
      1.28154592e-15 8.86347505e-16 5.22923499e-17 -1.57339890e-16
      2.48476420e-17 1.66840318e-16 9.92072411e-16 -4.41386063e-16
      -4.89528716e-16 -4.45486928e-18 -5.15651530e-16 7.20213427e-16
      2.72822298e-16 -4.90482581e-16 -1.37096253e-16 1.99120704e-17
      7.29022994e-16 -1.14007922e-16 4.72006463e-17 -3.98152522e-16
      -2.75479043e-16 -7.24202648e-17 -5.43781123e-16 -1.04206460e-16
      2.18813651e-16 -6.12207158e-17 -4.07263526e-16 1.76771462e-16
      6.91442630e-16 -1.83950119e-16 -9.95650066e-16 -4.39063949e-16
      3.90702788e-16 -6.77824881e-16 9.35932562e-17 9.89896912e-16
      2.06057546e-16 1.11829006e-15 1.05446966e-17 3.80269909e-16
      9.46110391e-16 -4.98021545e-16 -1.70993949e-17 1.06080229e-16
      -2.29015316e-16 -1.34069169e-16 2.94498056e-16 3.12769351e-16
      -6.36910596e-16 4.05841490e-16 -8.72317781e-16 -3.18260355e-17
      5.64162536e-16 5.00375396e-16 1.03004373e-15 2.23934362e-16
      3.19155476e-16 -2.07506290e-16 2.86005572e-17 6.36186859e-16
      6.20505738e-16 -1.38767780e-16 -2.87847921e-16 2.18102077e-16
      3.85305759e-17 -8.92314164e-16 -6.99813433e-16 5.89320738e-16
      1.56416937e-15 6.22444755e-16 4.12298184e-16 9.12083556e-17
      3.45286628e-16 1.18683737e-15 1.78954583e-16 4.41600548e-16
      1.03646424e-15 -2.94497765e-16 1.41577150e-16 -4.89895587e-16
      5.58748884e-16 -5.88069167e-17 7.01434707e-16 3.57352811e-17
      4.55575030e-16 -3.05022732e-16 5.63330802e-16 -3.94348696e-17
      -1.48961332e-16 -5.62724618e-17 3.80208817e-16 -5.58197253e-16
      9.26508527e-17 -3.33391506e-16 3.27854081e-16 -2.34304269e-16
      -2.95464097e-16 8.08389875e-16 -4.27991799e-16 1.31800709e-15
      4.43681681e-16 8.84336966e-16 1.85880388e-16 -6.31539825e-17
      -7.62303977e-16 1.23117377e-16 6.42803626e-18 -1.14470243e-16
      6.63540359e-16 9.76850911e-16 5.07197505e-16 -3.89673960e-16
      -1.55347712e-17 2.60133198e-17 -3.86915386e-17 7.46027868e-16
      -5.27731331e-16 2.17779807e-16 4.92338059e-16 2.73671263e-16
      8.15448200e-16 3.26325928e-16 5.92452113e-16 5.21240200e-16</_></support_vectors>
  <decision_functions>
    <_>
      <sv_count>1</sv_count>
      <rho>-2.6756374893466273e-14</rho>
      <alpha>
        1.</alpha>
      <index>
        0</index></_></decision_functions></my_svm>
</opencv_storage>
