<?xml version="1.0"?>
<opencv_storage>
<my_svm type_id="opencv-ml-svm">
  <svm_type>C_SVC</svm_type>
  <kernel><type>LINEAR</type></kernel>
  <C>1.0000000000000001e-01</C>
  <term_criteria><epsilon>1.1920928955078125e-07</epsilon>
    <iterations>1000</iterations></term_criteria>
  <var_all>1296</var_all>
  <var_count>1296</var_count>
  <class_count>2</class_count>
  <class_labels type_id="opencv-matrix">
    <rows>1</rows>
    <cols>2</cols>
    <dt>i</dt>
    <data>
      -1 1</data></class_labels>
  <sv_total>1</sv_total>
  <support_vectors>
    <_>
      1.88794429e-03 2.58745402e-02 4.15024795e-02 -3.04524750e-02
      7.96213225e-02 1.14355803e-01 1.14043824e-01 -4.62666340e-02
      1.29514486e-02 1.72859686e-03 1.03085659e-01 -5.60193658e-02
      8.53936747e-03 -4.98344190e-03 -2.42180265e-02 5.06514274e-02
      -9.19848401e-03 8.36590976e-02 -6.06368594e-02 -4.45211725e-03
      1.84082221e-02 -4.47803400e-02 -2.92324601e-03 -2.72126310e-02
      -1.16324678e-01 2.39594951e-02 1.66791468e-03 8.80822241e-02
      8.02920014e-03 7.91742355e-02 -2.74113305e-02 -4.06308509e-02
      -4.17000987e-02 -4.16042656e-03 -5.76695912e-02 -2.11808309e-02
      -9.83037129e-02 5.86676970e-02 -3.78130302e-02 -8.72874924e-04
      1.12503059e-01 2.91338135e-02 1.60222411e-01 3.67458202e-02
      -7.32803792e-02 3.87816764e-02 -3.68839540e-02 2.74877828e-02
      -1.31911729e-02 9.34056751e-03 -5.73738711e-03 3.06519624e-02
      3.68146412e-02 -6.76409975e-02 4.78746854e-02 -6.20668642e-02
      1.24478601e-01 -1.05795018e-01 -1.15707397e-01 -8.69684964e-02
      8.56244266e-02 4.93820012e-02 6.21324554e-02 -1.20244157e-02
      -2.48683412e-02 3.70461941e-02 4.20469865e-02 3.10276449e-02
      -1.02278292e-02 2.88139824e-02 -1.62550136e-01 8.60718638e-02
      7.60546476e-02 -9.78807639e-03 -1.95523351e-02 8.74024071e-03
      3.35096978e-02 5.81164397e-02 3.87137532e-02 -5.94402365e-02
      -1.14374138e-01 -3.02209500e-02 8.65116832e-04 -3.99164818e-02
      6.38890713e-02 7.48382956e-02 -1.52653933e-03 -3.33773755e-02
      -1.90324619e-01 2.19067603e-01 4.42405157e-02 -8.81540775e-02
      1.35482907e-01 -6.98493514e-03 -4.20385748e-02 1.08188065e-03
      -6.83819801e-02 7.02934563e-02 -6.78732432e-03 -6.79695308e-02
      1.43163558e-02 9.14497580e-03 -3.26835737e-02 -3.33123170e-02
      -8.84198993e-02 -2.17057969e-02 -1.02784894e-02 -2.97949445e-02
      6.36627302e-02 4.54210080e-02 9.28817391e-02 3.48443128e-02
      1.14315981e-02 4.19911370e-02 5.12357019e-02 -2.97407657e-02
      -4.85834517e-02 -6.25943914e-02 -1.24476894e-04 1.84225589e-02
      -7.50087872e-02 4.10811789e-02 -4.96103801e-02 1.41896129e-01
      -2.23391354e-02 -4.94845547e-02 -5.01970528e-03 8.56246501e-02
      -1.36693623e-02 -4.98617738e-02 -1.35398153e-02 -1.62302870e-02
      8.62819031e-02 -1.84791368e-02 6.17474206e-02 -2.30637100e-02
      7.95447305e-02 9.87088233e-02 -1.41748369e-01 -5.13279028e-02
      -5.72212450e-02 -6.82709590e-02 -7.88937658e-02 -6.97281677e-03
      -7.40413889e-02 4.79041450e-02 -3.65819298e-02 -4.39165533e-02
      1.50811166e-01 7.23149776e-02 9.63916704e-02 1.45313174e-01
      -9.75176543e-02 -7.11147636e-02 -1.78904261e-03 -1.52913816e-02
      4.08960283e-02 -2.17808206e-02 -1.25498444e-01 -9.04259756e-02
      -1.72447916e-02 -9.17665809e-02 -1.63188130e-02 7.40305856e-02
      -2.58519351e-02 -4.02838998e-02 -2.94254217e-02 -4.20442559e-02
      -9.06894058e-02 6.57665059e-02 -9.40159112e-02 1.39952265e-03
      -4.46672961e-02 4.17012908e-02 8.09438340e-03 -8.93771648e-02
      -5.70555329e-02 2.87090484e-02 4.94673140e-02 9.85637959e-03
      -2.22343821e-02 -4.07756157e-02 -8.15436058e-03 -3.54297347e-02
      -1.58906379e-03 8.59022141e-02 1.08461305e-01 -3.08894482e-03
      8.47398583e-03 5.28034158e-02 2.93195657e-02 -3.46972421e-02
      -9.80601273e-03 4.16955352e-02 7.72957727e-02 -2.74744127e-02
      -4.88694794e-02 -7.93164298e-02 3.20713446e-02 -6.57798201e-02
      -8.52957964e-02 1.25583395e-01 4.61440831e-02 -1.40577005e-02
      5.32320701e-03 -4.71613891e-02 -2.39492040e-02 8.83257464e-02
      -4.85492200e-02 9.73562431e-03 -7.10136369e-02 -1.19795529e-02
      -8.96631479e-02 7.95683935e-02 5.40176816e-02 1.16945483e-01
      9.17369127e-02 -2.64918506e-02 -3.37995240e-03 2.35802848e-02
      4.02552634e-02 1.43534606e-02 8.79686624e-02 -3.36656123e-02
      2.11758818e-02 -5.09467497e-02 -8.14066231e-02 2.43904162e-02
      -3.69439460e-02 1.94863126e-01 1.46634376e-03 -5.36282174e-03
      -2.75669619e-02 7.17697013e-03 -1.52335793e-01 1.33655593e-01
      -2.83938218e-02 7.94765502e-02 -1.78986844e-02 -3.13413776e-02
      6.71781180e-03 -3.17725004e-03 -8.57652202e-02 1.32993445e-01
      9.36780497e-02 3.01966276e-02 -1.88951269e-02 3.84373660e-03
      -1.09145001e-01 -4.73608561e-02 -7.37583116e-02 -1.37404986e-02
      1.16027020e-01 5.32475710e-02 -6.28095237e-04 2.13739779e-02
      -2.36520935e-02 -1.99838728e-02 3.41281034e-02 3.54535878e-02
      5.81426322e-02 9.03312564e-02 -5.28950281e-02 -1.02131076e-01
      3.40826437e-03 -7.38382414e-02 -5.23982905e-02 -2.07736697e-02
      -6.48703054e-02 1.04419053e-01 3.29433382e-02 1.97303407e-02
      -1.57335654e-01 -4.99921478e-02 -1.00855082e-01 -2.90687568e-02
      -4.09379043e-02 -5.52059337e-02 -9.41190422e-02 -7.79703483e-02
      -1.60529673e-01 -1.43060431e-01 -7.38516275e-04 -9.26960409e-02
      -1.04434378e-01 -6.19572252e-02 -5.12784086e-02 -6.45787790e-02
      -2.76227683e-01 -1.07747607e-01 -1.76593125e-01 -8.53536651e-02
      -1.62416607e-01 -2.08271742e-02 -5.86935924e-03 1.97164863e-02
      -9.43856239e-02 -1.03916511e-01 -2.19504043e-01 -9.79600847e-02
      -1.49265587e-01 -7.72569329e-02 -1.88076183e-01 -1.30089372e-01
      -7.45344907e-02 -7.72100240e-02 -1.11851111e-01 -2.15119511e-01
      -1.30773172e-01 1.66217703e-02 1.07847601e-02 -1.85349062e-02
      2.06053094e-03 -4.38137017e-02 3.83435674e-02 -1.46887541e-01
      -9.59446058e-02 -5.37543669e-02 -8.87410343e-02 6.88661486e-02
      -1.14605948e-01 -4.65877131e-02 -6.40673935e-02 -5.49981743e-02
      -1.70706511e-01 -4.44407053e-02 -5.42863496e-02 -1.13447875e-01
      -5.73211163e-02 2.61317119e-02 -2.94654332e-02 -1.19903117e-01
      -1.00347787e-01 -1.50207296e-01 -7.89391175e-02 -1.25621632e-01
      -1.05682060e-01 -4.80167605e-02 -7.16540068e-02 -2.08203211e-01
      -8.31893981e-02 -2.56825149e-01 7.14883804e-02 3.14900791e-03
      -1.29900217e-01 9.75118205e-02 1.58518776e-01 6.19593747e-02
      3.75295356e-02 -8.41745138e-02 7.98479468e-02 -2.07177743e-01
      -3.67788561e-02 -7.44862482e-02 -4.18065637e-02 -5.86250387e-02
      -2.15587094e-02 -1.71243370e-01 -5.01691401e-02 -1.64974794e-01
      -1.94613077e-02 9.81974900e-02 1.71396937e-02 -2.89666355e-02
      5.60995098e-03 -2.93770302e-02 -5.37639372e-02 -1.60112217e-01
      3.20078582e-02 -3.14230435e-02 3.82921733e-02 4.43158075e-02
      5.24474531e-02 4.97296825e-02 2.00926811e-01 -2.15235889e-01
      -9.57129076e-02 -4.32015583e-02 -8.23030993e-02 -9.72831622e-02
      -5.32721765e-02 -7.47022703e-02 -4.75986823e-02 -7.05010816e-02
      -1.64913401e-01 -7.77759170e-03 1.01538114e-01 -1.12191260e-01
      -7.40586370e-02 8.32775142e-03 -9.63340979e-03 -1.57707289e-01
      -6.26687929e-02 -5.97065426e-02 -4.52700891e-02 -6.91108555e-02
      1.98567882e-02 -1.15898222e-01 9.92187709e-02 -1.71995182e-02
      3.30128781e-02 -4.42170072e-03 1.58830613e-01 2.60783476e-03
      -2.43336707e-02 2.86092702e-03 -1.69987045e-03 1.14638835e-01
      2.77794874e-03 1.54213030e-02 3.26299928e-02 5.64178191e-02
      -1.12102993e-01 1.18656881e-01 6.55527785e-02 2.43637096e-02
      7.52638467e-03 -4.50268351e-02 -7.67556624e-03 -7.27346316e-02
      -2.37994008e-02 1.80908367e-02 1.60160288e-02 2.23822594e-02
      -1.32809971e-02 -9.10114869e-02 4.42763828e-02 7.49535412e-02
      -1.74166188e-02 1.33277431e-01 2.84106806e-02 8.32900032e-02
      1.78058334e-02 -1.04518551e-02 -8.18330646e-02 -1.38555333e-01
      1.13989837e-01 -7.47905150e-02 7.07568275e-03 6.67963997e-02
      9.51585919e-03 -5.67522757e-02 -3.63124385e-02 -1.87689122e-02
      1.49743892e-02 1.32540524e-01 8.40066746e-03 -9.45473686e-02
      -6.98300684e-03 -7.58949444e-02 -5.18261008e-02 4.23042849e-02
      9.76722613e-02 -1.57716051e-02 9.52713117e-02 2.12555137e-02
      5.61317317e-02 -2.11356785e-02 7.59955421e-02 -3.31720859e-02
      -7.25587979e-02 -1.14686064e-01 -1.14545837e-01 -1.67651460e-01
      -7.07128495e-02 6.18234277e-02 5.23738712e-02 -1.07342847e-01
      -6.93816766e-02 -1.55820981e-01 -2.07865015e-01 -2.28081927e-01
      -1.23991221e-02 -1.19597666e-01 -1.89531047e-03 -1.35435194e-01
      2.17537601e-02 -1.11409910e-02 -1.15188077e-01 -2.69745588e-01
      -1.21854596e-01 5.87259643e-02 -2.28045836e-01 3.35694961e-02
      -4.33966108e-02 -7.47228563e-02 -7.64533952e-02 5.67618646e-02
      3.02679315e-02 -1.98869213e-01 -1.29242152e-01 -1.18868217e-01
      -9.17682201e-02 5.18964380e-02 -3.95356715e-02 1.02723055e-02
      -6.95261732e-03 -1.73280574e-03 -1.35829344e-01 -4.96069044e-02
      -9.56287086e-02 -9.35360119e-02 9.49299186e-02 7.83756226e-02
      -8.74133259e-02 3.22709195e-02 -5.07738162e-03 -1.08686090e-01
      3.18641588e-02 1.32300600e-01 9.53677520e-02 5.72476573e-02
      1.97675433e-02 3.79872508e-02 2.20469758e-02 1.33737382e-02
      6.37360569e-03 3.66286673e-02 -6.38170168e-03 -2.72608977e-02
      4.03707139e-02 8.86257738e-02 -1.02272160e-01 1.47775142e-02
      -2.81394124e-02 5.71856238e-02 1.07846782e-01 -5.39692603e-02
      9.61218178e-02 1.42572680e-03 4.34120558e-02 3.35468873e-02
      9.80613977e-02 -6.39414862e-02 -3.14170942e-02 1.15266956e-01
      -6.97176009e-02 -1.60443764e-02 4.23134230e-02 5.41988127e-02
      7.58464858e-02 4.74072099e-02 -6.79032356e-02 3.31300534e-02
      1.02306440e-01 8.67623612e-02 -2.55395100e-02 8.34817663e-02
      6.38964549e-02 -1.48648554e-02 1.37119256e-02 2.22792998e-02
      1.39504775e-01 1.27417818e-02 -1.15043178e-01 -7.68969059e-02
      -8.44568834e-02 3.63431573e-02 -5.18883765e-02 -6.54747114e-02
      1.18930027e-01 -5.26895039e-02 8.17144662e-02 -4.65788022e-02
      1.20950654e-01 1.01684459e-01 1.17165081e-01 -8.46325457e-02
      -8.24103430e-02 -1.10717610e-01 -1.39668256e-01 5.85730597e-02
      9.13370252e-02 -6.48023933e-03 -9.76794735e-02 -6.98089376e-02
      7.04129040e-02 -1.33297950e-01 -3.87909897e-02 -8.47408641e-03
      2.43226402e-02 -1.66268945e-01 -1.31172940e-01 -3.16546597e-02
      5.83572984e-02 -8.48097950e-02 9.54548083e-03 8.82826373e-02
      -3.21440622e-02 -7.44514838e-02 -2.31950223e-01 -2.15821072e-01
      -9.26521122e-02 -4.30931374e-02 -3.60234082e-02 1.08068712e-01
      -1.28441557e-01 -6.44459799e-02 -1.00174069e-01 2.86661405e-02
      7.39584565e-02 7.00148195e-02 9.62065905e-02 3.60608250e-02
      -1.35480557e-02 -1.03462636e-01 -9.92399380e-02 -6.09128103e-02
      -1.72434911e-01 -5.36932983e-02 3.15389149e-02 -5.83086535e-02
      -6.76197698e-03 -3.84061448e-02 1.59409679e-02 4.26017605e-02
      -3.57208261e-03 4.25372534e-02 -2.08541080e-02 -3.58106643e-02
      -7.94089027e-03 7.27927983e-02 -1.97897740e-02 -1.24437682e-01
      1.07680216e-01 3.32249515e-02 -5.40950857e-02 -1.19615056e-01
      -2.79718835e-04 1.10788152e-01 -9.73991081e-02 3.51154245e-02
      5.72332107e-02 4.53275349e-03 7.87667483e-02 -2.55585015e-02
      2.09377334e-02 1.48071110e-01 9.62860808e-02 -1.39451353e-02
      8.88635740e-02 6.24998808e-02 -5.35010658e-02 5.10766357e-02
      2.87565086e-02 3.32703255e-02 -1.87098682e-02 -4.81232964e-02
      8.65821319e-04 -6.16657287e-02 1.02380760e-01 2.52930224e-02
      -3.59728038e-02 -5.69290034e-02 5.00486093e-03 -6.27844334e-02
      -4.75143921e-03 -1.41980615e-03 -4.94127050e-02 -4.33068164e-02
      -4.98503968e-02 -2.06022505e-02 -3.22823320e-03 2.40694173e-02
      7.49049708e-02 3.45776826e-02 -8.72984454e-02 4.38603796e-02
      4.41617705e-02 -5.81817003e-03 -5.19227572e-02 -1.04340583e-01
      9.99304205e-02 5.58831133e-02 -2.85039116e-02 -1.20163493e-01
      5.19805178e-02 2.64563900e-03 3.07202991e-02 -6.58643022e-02
      -2.62561105e-02 -6.60760254e-02 -9.04176384e-03 -1.00403346e-01
      -4.56470288e-02 3.28596607e-02 -1.01631254e-01 -1.19118921e-01
      -1.27749339e-01 -2.86688000e-01 -1.60635129e-01 -1.42596781e-01
      -1.98718463e-03 6.70779124e-02 7.23480508e-02 -4.08211313e-02
      6.55099973e-02 -1.80163205e-01 -1.52797345e-02 -1.16652235e-01
      -8.84771049e-02 9.75801051e-03 1.17066717e-02 -1.05812050e-01
      -5.71884587e-02 -1.61039546e-01 -1.14614172e-02 -1.08667187e-01
      -6.52783737e-02 -1.70630679e-01 -2.28554700e-02 -3.54939476e-02
      -5.93141951e-02 -1.96926203e-02 4.75322604e-02 -1.52235761e-01
      -1.71621993e-01 -8.49504694e-02 -1.68247782e-02 -1.02133296e-01
      -3.43906321e-02 -1.77158955e-02 1.57947138e-01 -2.45610118e-01
      1.44827470e-01 -2.14510951e-02 7.55500793e-02 -6.02034852e-02
      -2.34407019e-02 7.95353055e-02 2.47444212e-02 8.36874992e-02
      -1.07227862e-01 -2.63099913e-02 -7.73699954e-02 1.05960518e-01
      -1.34343756e-02 -1.24519072e-01 3.71020958e-02 -2.59930883e-02
      -3.64338681e-02 -5.98292574e-02 5.98093644e-02 8.71336982e-02
      5.03345504e-02 8.13053269e-03 -3.75673510e-02 6.59945905e-02
      2.67036762e-02 -8.22899789e-02 3.49551626e-02 1.14870183e-01
      -7.23911962e-03 -2.05102004e-02 -1.74444206e-02 7.45024234e-02
      -6.15392067e-03 -5.96307889e-02 6.47607595e-02 3.45361456e-02
      1.00945465e-01 4.43882687e-04 -1.82702579e-02 -8.47763196e-03
      2.33859234e-02 5.85032366e-02 7.95662180e-02 6.92454353e-02
      4.84968312e-02 5.57090063e-03 -1.99853644e-01 -2.51915003e-03
      -6.43821657e-02 1.05672881e-01 2.97015365e-02 -1.58855900e-01
      -6.98515549e-02 4.58372943e-03 2.85072010e-02 -1.10869169e-01
      -1.79050828e-03 6.86673895e-02 -9.69021171e-02 -1.00792922e-01
      -1.84272695e-02 -1.32291570e-01 -1.15332603e-01 -1.86674267e-01
      -1.04210587e-04 -1.07613625e-02 -4.62757796e-02 -6.28551394e-02
      5.99942803e-02 7.34551623e-02 1.25774899e-02 2.87550483e-02
      -5.40380813e-02 -5.02827615e-02 -3.33029032e-02 2.14941502e-02
      -1.56305693e-02 -7.47604966e-02 -2.49261316e-02 -2.05226187e-02
      3.73676643e-02 -2.55678087e-01 -9.14852843e-02 -2.04739377e-01
      1.42158475e-02 -6.78972453e-02 4.62317169e-02 -5.31206056e-02
      -7.88849443e-02 -1.20398700e-01 -3.83393206e-02 9.06659961e-02
      8.64907950e-02 -3.07416562e-02 6.75640488e-03 -6.79907054e-02
      5.16374595e-02 -1.71600252e-01 -2.49397516e-01 6.50671124e-03
      1.23172684e-03 2.76867207e-02 -1.68711856e-01 -1.40884057e-01
      5.49036674e-02 2.92068068e-02 -4.89962175e-02 -7.38866776e-02
      2.29892191e-02 -1.12315960e-01 -4.42016572e-02 -3.04681584e-02
      -4.11511585e-02 7.29056299e-02 -1.30340770e-01 -3.69961821e-02
      8.15965757e-02 3.24613154e-02 -5.00288792e-02 -6.07812032e-02
      -1.10889569e-01 -4.23173532e-02 8.71673878e-03 4.88067828e-02
      4.88856435e-03 -2.46493034e-02 5.38462549e-02 -4.32605157e-03
      1.99277923e-02 -7.57030621e-02 3.15741822e-02 1.45343751e-01
      -6.27909005e-02 -4.86692563e-02 -6.16023913e-02 5.48749641e-02
      6.50308654e-02 5.80268167e-02 -2.85233967e-02 5.98923815e-03
      1.40613630e-01 8.50386322e-02 -3.54595110e-03 -5.83445206e-02
      -3.80569920e-02 -2.46303510e-02 -5.36601990e-02 -1.28025472e-01
      -4.23200056e-02 -5.45920338e-03 -7.09088966e-02 -1.50573879e-01
      -4.52478044e-03 4.23348509e-02 -7.22132772e-02 -3.44878808e-02
      8.45439956e-02 7.47712096e-03 -1.29533395e-01 -6.94982260e-02
      7.80109838e-02 2.75205448e-02 -9.16359350e-02 4.98373732e-02
      -5.44721335e-02 7.42169842e-02 6.04708605e-02 5.38744181e-02
      -1.31763712e-01 1.57248795e-01 -8.93726852e-03 3.80013622e-02
      -1.74181029e-01 2.68386267e-02 -6.56186566e-02 -9.24461037e-02
      -6.45869449e-02 1.00732855e-02 3.54760922e-02 5.24003357e-02
      -7.63436556e-02 -4.49627601e-02 -1.52491644e-01 -2.94783935e-02
      1.66640729e-01 -4.26095910e-02 -1.82154253e-02 4.31043133e-02
      -5.55840544e-02 -3.22560407e-02 -8.19429085e-02 -1.71717510e-01
      -9.83052105e-02 -1.51875839e-01 2.22313181e-02 -6.08415576e-03
      7.83043206e-02 -2.52646022e-02 -8.18730220e-02 -1.97989866e-02
      -1.53268604e-02 6.56616390e-02 4.91989292e-02 -1.68606546e-02
      -3.49430516e-02 -5.78932464e-02 -1.69197187e-01 -3.15007232e-02
      -1.12722136e-01 1.97021514e-02 -6.95163980e-02 -7.68860728e-02
      -8.94287154e-02 7.87499845e-02 4.87196147e-02 -9.57341120e-03
      4.55595851e-02 -1.36276573e-01 -6.78298548e-02 2.49398760e-02
      -3.09982337e-04 -1.37087673e-01 -5.52167222e-02 -1.12952471e-01
      -1.40374899e-02 -1.11660950e-01 -1.28077656e-01 -1.93836801e-02
      -1.10076874e-01 -2.21232787e-01 -1.02169797e-01 -1.90368779e-02
      1.00517817e-01 -4.79740277e-02 -1.04580624e-02 -1.65701479e-01
      -6.04986139e-02 -1.95452601e-01 -8.74173343e-02 -8.60818326e-02
      -1.37595817e-01 -9.94167030e-02 -2.60538161e-02 -3.79544273e-02
      -2.29599718e-02 2.06401385e-02 -2.70420928e-02 -1.91160068e-01
      -1.55031513e-02 4.94159991e-03 -4.04679663e-02 -2.02315435e-01
      -5.21316901e-02 2.69044973e-02 -2.97858045e-02 1.98197849e-05
      -1.24211095e-01 -1.39207423e-01 -1.53946146e-01 -1.48697570e-01
      5.44275232e-02 2.08342914e-02 -5.03975935e-02 -1.16616726e-01
      5.64346928e-03 -5.44369556e-02 -1.27419382e-01 -1.24662220e-02
      -1.59578528e-02 -2.03945749e-02 -5.43533005e-02 1.43343911e-01
      -1.82855073e-02 -1.47912651e-01 -1.51802987e-01 -2.37096801e-01
      -1.30247414e-01 -1.28897309e-01 9.03654844e-02 3.49134468e-02
      -2.76844576e-02 -1.16950691e-01 -3.68840061e-02 -5.04531041e-02
      7.19822645e-02 -1.11972891e-01 -2.11882070e-01 -1.84960976e-01
      -1.04223281e-01 -1.89980701e-01 -1.37740970e-01 -8.20675716e-02
      -1.27404388e-02 6.05292693e-02 -1.62300617e-02 -1.46092772e-01
      1.26250777e-02 -1.19702421e-01 7.57764876e-02 -4.03896011e-02
      -1.11318389e-02 -2.11383849e-02 -9.42081865e-03 2.47562025e-02
      4.02459055e-02 -2.59592403e-02 -1.46605801e-02 6.69291019e-02
      -1.35064930e-01 -4.41352949e-02 5.14986590e-02 -6.97778910e-02
      3.38638909e-02 6.42761365e-02 3.99684086e-02 7.50434920e-02
      1.03740804e-01 7.44949132e-02 -8.53219721e-03 -7.86273330e-02
      8.53774045e-03 8.58963281e-03 -1.34831503e-01 -2.53985785e-02
      -6.43623918e-02 -7.03568831e-02 -8.21527001e-03 6.90050945e-02
      5.48959151e-02 -3.80528569e-02 1.15273595e-01 -9.84169426e-04
      1.32874250e-02 3.20123695e-02 -9.35903415e-02 -2.90831216e-02
      5.12619987e-02 3.10542099e-02 1.15858145e-01 1.13382079e-01
      1.13273486e-02 3.72850783e-02 9.14963484e-02 -4.49977405e-02
      5.71874492e-02 -7.84898400e-02 1.70074143e-02 1.23915775e-02
      -1.70206279e-01 -5.89085370e-02 3.83005291e-02 -4.46725413e-02
      -1.42557267e-02 3.15738693e-02 6.09464720e-02 -2.96053737e-02
      -8.84423032e-02 -1.18035294e-01 -7.49344099e-03 2.42281966e-02
      5.49276508e-02 -4.62052897e-02 4.32957197e-03 -5.35079874e-02
      -4.32830788e-02 -6.12223223e-02 -3.50530935e-03 -2.91563347e-02
      -3.12963407e-03 1.05975404e-01 2.39758994e-02 2.33033001e-02
      -8.47973451e-02 1.57444347e-02 1.46147870e-02 -4.69062142e-02
      -1.24859445e-01 4.30408716e-02 3.38335484e-02 2.24245694e-02
      -4.59471010e-02 -1.82765517e-02 -3.05609256e-02 4.64256890e-02
      -5.48463762e-02 4.11680080e-02 4.43359241e-02 -7.58824572e-02
      -9.48514789e-02 -2.07358766e-02 1.75117031e-02 7.32659996e-02
      -4.87148529e-03 2.48065367e-02 9.33994055e-02 1.37450993e-01
      -3.32453735e-02 -4.26624604e-02 -7.55866840e-02 2.11527236e-02
      7.36734495e-02 6.79411814e-02 -8.17679763e-02 -4.12895679e-02
      5.34603931e-02 -3.58613320e-02 1.08525001e-01 1.04363084e-01
      -1.47070177e-02 3.09498124e-02 -8.95309150e-02 6.06973246e-02
      1.01525553e-01 -9.75785479e-02 2.55563911e-02 -1.82923730e-02
      5.56211360e-03 1.89731754e-02 1.41268224e-01 -9.13037285e-02
      3.58663388e-02 1.16558373e-01 -9.10039246e-02 4.58177552e-02
      -6.03008382e-02 1.06709532e-01 -1.93842407e-02 -3.54191437e-02
      9.39588174e-02 9.59640667e-02 1.17540760e-02 -6.72182348e-03
      -1.71617866e-02 -1.81490853e-01 -4.14421302e-05 6.51705870e-03
      -1.81208793e-02 -2.89117601e-02 -4.38497104e-02 -1.04143530e-01
      -4.89565171e-02 2.55086143e-02 4.44709994e-02 -3.24797519e-02
      -3.60145010e-02 -3.86951603e-02 -3.40632126e-02 2.02403422e-02
      1.79644242e-01 9.13273618e-02 -1.94201823e-02 -5.28778695e-02
      5.76909594e-02 1.41855248e-03 -7.83369131e-03 -3.76792997e-02
      -4.59622517e-02 -9.77134407e-02 1.96189787e-02 8.76316428e-02
      -3.81774944e-03 -9.96606499e-02 1.28649816e-01 -4.33468306e-03
      6.12681359e-02 -6.70685694e-02 1.18315205e-01 -1.56386476e-02
      -5.65611981e-02 -6.17211908e-02 -8.27180874e-03 5.91252837e-03
      -3.47162448e-02 1.89286191e-02 2.35608667e-02 3.74212302e-03
      -5.36192395e-02 -1.05137795e-01 -2.83479672e-02 3.68786789e-02
      5.60515635e-02 -8.74394402e-02 -7.18106329e-02 1.10537723e-01
      3.40580903e-02 5.97392172e-02 3.36565487e-02 2.62540188e-02
      8.46070498e-02 -2.31765746e-03 -8.16985965e-02 2.43672449e-02
      -4.39093970e-02 -8.18044543e-02 1.11111939e-01 1.67027302e-02
      -5.75774945e-02 -1.13295816e-01 -1.41691715e-01 -1.89329237e-02
      1.15796719e-02 2.42119730e-02 8.60226899e-02 -1.34790480e-01
      6.21541180e-02 3.95557203e-04 2.41289381e-02 6.27110600e-02
      4.01328802e-02 -2.26876866e-02 1.80286597e-02 -1.25798471e-02
      -2.14613490e-02 -1.34487510e-01 -6.81819022e-02 -5.04381768e-02
      3.80132049e-02 3.30561735e-02 4.52823415e-02 1.94043238e-02
      2.06593554e-02 1.47743762e-01 -1.96874049e-02 2.07048841e-02
      3.85335386e-02 -9.11454707e-02 7.81745538e-02 -5.12915403e-02
      -1.94060002e-02 4.92740944e-02 1.72630906e-01 -2.69112810e-02
      -6.16529360e-02 3.58375050e-02 9.95762795e-02 2.59281881e-02
      2.28023119e-02 5.94426505e-02 -5.44736087e-02 2.61480249e-02
      -6.82115182e-02 -3.88899185e-02 1.94540024e-02 -8.67146254e-02
      3.90194403e-03 2.20162682e-02 1.67915151e-02 -1.60353929e-02
      -7.15059936e-02 -2.82898247e-02 -9.95926838e-03 -3.31325307e-02
      -7.90151507e-02 -6.23307712e-02 8.47155601e-02 9.77319553e-02
      1.15106642e-01 8.20864961e-02 1.99104287e-02 1.89168612e-03
      2.03430504e-02 -1.69081055e-02 7.66792819e-02 1.27947927e-01
      1.20615093e-02 1.48086518e-01 -6.01024665e-02 -1.85004789e-02
      5.69688901e-03 5.60233146e-02 -1.12807639e-02 -4.83018048e-02</_></support_vectors>
  <decision_functions>
    <_>
      <sv_count>1</sv_count>
      <rho>-3.5174247410757982e+00</rho>
      <alpha>
        1.</alpha>
      <index>
        0</index></_></decision_functions></my_svm>
</opencv_storage>
