<?xml version="1.0"?>
<opencv_storage>
<my_svm type_id="opencv-ml-svm">
  <svm_type>C_SVC</svm_type>
  <kernel><type>LINEAR</type></kernel>
  <C>1.0000000000000001e-01</C>
  <term_criteria><epsilon>1.1920928955078125e-07</epsilon>
    <iterations>1000</iterations></term_criteria>
  <var_all>1296</var_all>
  <var_count>1296</var_count>
  <class_count>2</class_count>
  <class_labels type_id="opencv-matrix">
    <rows>1</rows>
    <cols>2</cols>
    <dt>i</dt>
    <data>
      -1 1</data></class_labels>
  <sv_total>1</sv_total>
  <support_vectors>
    <_>
      2.76680142e-02 -3.36009567e-03 5.50033432e-03 -1.03105232e-01
      -4.78341803e-02 1.15780972e-01 4.69859205e-02 -1.30274089e-03
      -1.87870394e-03 -1.30303338e-01 -1.53101534e-02 2.97583677e-02
      -7.66767785e-02 2.52884552e-02 -3.87588255e-02 1.13460291e-02
      -9.21070874e-02 1.17173539e-02 7.95513093e-02 -5.75745702e-02
      8.35019425e-02 1.79283880e-02 -7.50929639e-02 -4.88920249e-02
      -1.06576063e-01 -7.64850602e-02 5.32884896e-03 9.72515717e-02
      -1.44539401e-02 8.39134008e-02 -7.07983449e-02 -4.15726714e-02
      -2.71801651e-02 9.29942075e-03 7.27221146e-02 -6.62421286e-02
      1.18940711e-01 1.02300951e-02 -7.90012926e-02 5.64847998e-02
      1.27223119e-01 6.29188344e-02 4.35710065e-02 2.24616732e-02
      -5.00216782e-02 2.00382899e-03 -3.46405283e-02 -6.25149310e-02
      -3.98116447e-02 4.69164178e-02 3.01448256e-02 5.99179743e-03
      5.67048118e-02 4.64217402e-02 5.11326864e-02 -1.14634566e-01
      1.55600548e-01 -5.28533384e-02 -2.21981518e-02 -2.78980248e-02
      -5.63343242e-02 -9.83241294e-03 4.67310809e-02 1.46376133e-01
      8.44628830e-03 6.59876019e-02 1.22717828e-01 1.03269421e-01
      6.22722507e-03 -4.01593968e-02 4.73411940e-03 -9.19413492e-02
      -4.24875803e-02 -6.52823448e-02 -4.33283411e-02 -1.95740573e-02
      5.20874970e-02 -8.52052495e-03 7.88109526e-02 -4.56623621e-02
      -2.16412358e-02 6.92340806e-02 2.30360329e-02 6.29235581e-02
      -6.49569035e-02 1.00251921e-01 2.85080280e-02 -6.91249641e-03
      -2.31981575e-02 1.53438032e-01 4.47232388e-02 -1.92488041e-02
      2.09691763e-01 -3.07725798e-02 -2.39976253e-02 -4.18781256e-03
      8.09489097e-03 7.90982619e-02 1.03840567e-01 -1.12771876e-02
      -7.84677174e-03 5.95857501e-02 -1.51340157e-01 -8.59141443e-03
      -4.71668877e-02 6.70928732e-02 -1.99014619e-02 -4.75808568e-02
      1.46373259e-02 -6.35721684e-02 1.77627709e-02 -9.05283764e-02
      -1.55037167e-02 -3.31858583e-02 1.12079736e-02 2.48050597e-02
      -1.48867473e-01 5.94401881e-02 -4.28489298e-02 6.92216903e-02
      -8.41862783e-02 9.33159515e-02 -5.29471487e-02 6.85301721e-02
      -9.02429372e-02 2.28712112e-02 2.11623795e-02 3.41191655e-03
      -4.98944260e-02 6.82950839e-02 -1.55288912e-03 -3.85093652e-02
      1.09797262e-01 6.74749464e-02 -2.99592391e-02 -2.80357730e-02
      1.09388627e-01 1.20759597e-02 -4.98309284e-02 -9.92870424e-03
      6.75729811e-02 5.54311424e-02 1.19114360e-02 1.79909449e-02
      3.30453999e-02 2.07560323e-02 9.97433215e-02 -5.65641001e-03
      1.13283679e-01 1.89844109e-02 5.35581633e-02 -2.54774839e-02
      -1.39045715e-02 -3.39648314e-02 -1.01064131e-01 8.21070895e-02
      -3.89920436e-02 3.76673788e-02 7.90593773e-02 2.44847946e-02
      -5.45794964e-02 -2.02965699e-02 -2.30056997e-02 2.54989956e-02
      -5.94790764e-02 -3.21018286e-02 3.82063240e-02 -3.19818929e-02
      6.58946484e-02 -5.83881103e-02 -9.17443708e-02 5.00967242e-02
      7.19975829e-02 2.59537157e-02 -6.24019988e-02 -4.23182100e-02
      -3.77257019e-02 -2.09781714e-02 -5.78680448e-02 1.01923216e-02
      2.72448771e-02 -1.13486215e-01 3.45720467e-03 -1.58742309e-01
      -5.20003848e-02 9.34370980e-02 6.52666166e-02 -5.39240837e-02
      -6.69277012e-02 6.46237060e-02 -8.25298280e-02 6.98826276e-03
      -4.38737907e-02 7.98841417e-02 -5.02464781e-03 -2.76176799e-02
      -9.70476046e-02 -1.05475746e-01 1.02529973e-01 -4.44846898e-02
      -2.02723797e-02 1.34483827e-02 -7.40520880e-02 7.73005281e-03
      -2.94853188e-03 -6.36310354e-02 -5.13022542e-02 -2.09586117e-02
      1.29111353e-02 2.40323506e-02 -6.33883476e-03 -5.40307984e-02
      -2.04794452e-01 -3.29193696e-02 1.95133910e-02 7.52103627e-02
      1.98248532e-02 -4.35071699e-02 4.30167094e-02 1.70500949e-02
      -4.16700616e-02 1.42659014e-02 8.13592598e-02 -6.43502176e-02
      -3.71795222e-02 -7.48424456e-02 -9.30377543e-02 -5.39818741e-02
      -6.76904842e-02 6.66063353e-02 -4.28308062e-02 3.60871456e-03
      8.50723013e-02 -4.62369248e-03 3.11149508e-02 6.02651127e-02
      -2.33419258e-02 -4.53570932e-02 -4.37991284e-02 -1.56922285e-02
      -1.52394213e-02 -4.85950075e-02 -9.68603492e-02 7.57533759e-02
      1.17518805e-01 7.88742378e-02 6.06287234e-02 1.30798623e-01
      -1.33654714e-01 -1.13860564e-02 -1.01967841e-01 -5.39914444e-02
      8.23110640e-02 2.49250736e-02 4.07680273e-02 5.05872630e-02
      1.40541673e-01 -6.34528548e-02 6.00072630e-02 3.56893353e-02
      1.39809430e-01 6.58298358e-02 -6.43105283e-02 -8.68419632e-02
      -6.40466735e-02 5.81452716e-03 -8.76615271e-02 -5.37467152e-02
      4.32562977e-02 6.58455421e-04 2.09154591e-01 -1.14431933e-01
      -6.46377429e-02 -2.42816173e-02 -1.13942198e-01 3.88525985e-02
      4.26214263e-02 7.05805346e-02 1.99109577e-02 -6.54401705e-02
      -1.34562194e-01 -1.59382924e-01 -2.01269449e-03 -6.38524964e-02
      -1.70534998e-02 -1.49944082e-01 -1.05320148e-01 -9.04419869e-02
      -7.74696618e-02 -1.31713897e-01 -9.06292945e-02 -7.56177604e-02
      -1.25234932e-01 2.33020913e-02 -7.19126910e-02 -1.79488510e-02
      -2.36642793e-01 -9.50016901e-02 -6.91192746e-02 -1.03243239e-01
      -3.18253972e-02 -4.10773791e-02 -1.39547914e-01 -9.45461094e-02
      -1.87627241e-01 -1.25244573e-01 3.97700444e-02 -1.15089849e-01
      -9.86791253e-02 8.73557106e-02 -1.62336379e-01 5.02664270e-03
      4.06617895e-02 -8.58396143e-02 2.53206901e-02 -1.76849559e-01
      7.74316536e-03 -7.09958076e-02 -6.51478544e-02 1.00436173e-01
      -8.57222453e-02 -1.30941682e-02 -9.79714990e-02 -7.05004930e-02
      -1.12898603e-01 -7.98135698e-02 -1.14492469e-01 -1.82331912e-02
      -1.04305208e-01 3.24618560e-03 -5.48458211e-02 -1.16895191e-01
      -1.01734802e-01 -5.30009344e-02 -5.08386791e-02 -5.27270176e-02
      -7.83954710e-02 3.13155092e-02 -6.78151846e-02 -1.28012970e-01
      -1.31371647e-01 -2.55451739e-01 -3.24931145e-02 1.33217936e-02
      -6.84653549e-03 1.29089104e-02 2.52913609e-02 7.11536333e-02
      1.41598191e-02 -4.25088629e-02 -5.48844971e-03 -6.53827265e-02
      -9.93681177e-02 -5.24247140e-02 -8.48442316e-02 -1.20914422e-01
      -8.79782364e-02 2.62143346e-03 -1.84099242e-01 -2.64458328e-01
      -4.86768894e-02 -2.30948068e-02 -1.21132001e-01 -3.59246470e-02
      8.19946975e-02 5.18473648e-02 -1.14048552e-02 -4.46774215e-02
      -4.23373245e-02 -1.27998227e-02 -1.04286760e-01 2.43756194e-02
      5.68775348e-02 1.42207429e-01 2.03537643e-01 -2.45393544e-01
      -4.51193899e-02 6.32412732e-02 1.69188306e-02 -1.84839174e-01
      -1.71865046e-01 -3.18721123e-02 5.12384214e-02 -4.53117453e-02
      -9.98159274e-02 1.37315402e-02 -7.33183250e-02 -1.50343701e-01
      -1.03195935e-01 -6.43497780e-02 -9.89055261e-03 4.59592566e-02
      -3.44218947e-02 -5.07655106e-02 -5.88898621e-02 6.09202497e-02
      8.50910670e-04 -3.75172719e-02 1.07206684e-02 -5.55252135e-02
      9.62407961e-02 1.16622522e-02 1.46146417e-02 4.81806248e-02
      5.76248206e-02 1.25572970e-02 1.14191242e-01 2.10558161e-01
      7.17578223e-03 3.17896493e-02 7.08598718e-02 -1.52661931e-02
      -3.09912730e-02 4.47809622e-02 5.28018735e-02 -3.38334367e-02
      -4.54030298e-02 -1.03896581e-01 -1.05401702e-01 -1.81888044e-01
      5.61459139e-02 -1.94704011e-02 9.53968801e-03 -3.41765545e-02
      5.46686389e-02 -9.62124020e-02 -6.47664443e-02 1.04394920e-01
      2.20626593e-02 8.00766274e-02 -2.63560060e-02 5.45517392e-02
      5.19340532e-03 -3.73240164e-03 -5.31633608e-02 -1.22434430e-01
      6.36476949e-02 -2.53133039e-05 1.77450683e-02 -3.06166392e-02
      -5.74781820e-02 -1.59790516e-02 2.32976954e-02 5.87702580e-02
      1.92799233e-02 2.99874898e-02 7.96244293e-02 -4.86472920e-02
      1.44798886e-02 -1.15728624e-01 -7.97780901e-02 8.80992040e-02
      6.26122653e-02 4.69847172e-02 6.90283999e-03 7.18038082e-02
      7.91760907e-02 -3.24130394e-02 -7.01392069e-02 -1.01178251e-01
      5.17096836e-03 -1.29755914e-01 3.84227596e-02 -2.08288670e-01
      -9.85994563e-02 7.03896508e-02 -2.72028558e-02 -1.21050969e-01
      3.43071073e-02 -3.48074511e-02 -2.03743309e-01 -2.41801992e-01
      -5.77303246e-02 -9.87947211e-02 7.92529061e-02 6.75058400e-04
      3.16086300e-02 -1.81892160e-02 -2.28627250e-01 -2.94775456e-01
      -1.35604158e-01 -4.97689843e-02 -1.16355726e-02 3.20822522e-02
      -1.16030172e-01 -5.14047854e-02 -6.83490112e-02 2.71313246e-02
      2.36083120e-02 -2.47134194e-01 -1.79645285e-01 -1.02877207e-01
      -4.61941846e-02 -6.15321919e-02 -9.02376175e-02 2.37975400e-02
      -8.14281404e-02 2.30528470e-02 -1.23982318e-01 -1.24789029e-02
      -1.15942486e-01 -1.07833631e-01 9.84312668e-02 1.87577363e-02
      -5.36206588e-02 1.28125548e-02 -3.00655458e-02 -1.28366370e-02
      1.30870387e-01 1.81693703e-01 1.32965729e-01 1.00447267e-01
      -3.37368660e-02 7.38991871e-02 5.08767888e-02 8.14650431e-02
      1.06631666e-01 -6.66729361e-02 -8.84537771e-02 3.91606465e-02
      1.05920359e-01 2.23744418e-02 -1.02260783e-01 -8.22742581e-02
      6.83698878e-02 -7.99158867e-03 2.29336135e-02 -5.91963269e-02
      -1.29595436e-02 5.13972566e-02 1.04506686e-01 3.20057012e-02
      -1.64623801e-02 4.32449533e-03 1.38726982e-03 5.51708676e-02
      -6.17213435e-02 1.82906166e-02 4.52476367e-02 -1.05174996e-01
      3.12223230e-02 8.73832311e-03 6.45492673e-02 1.28461570e-01
      1.88377768e-01 -6.31135609e-03 1.70745850e-02 3.82574946e-02
      -1.61097292e-02 1.02979513e-02 -3.82336006e-02 -4.17171419e-02
      1.08285099e-01 3.03651374e-02 -1.96062103e-01 -5.92410266e-02
      3.05145830e-02 1.48230447e-02 -2.27788426e-02 -1.13695011e-01
      1.13958441e-01 -4.70387330e-03 3.37904431e-02 -8.21722299e-02
      2.38648668e-01 5.54819219e-02 5.91974556e-02 2.46417224e-02
      -4.50002365e-02 -3.50066125e-02 -1.94129765e-01 1.46021858e-01
      -9.87825766e-02 2.85632536e-02 -1.38042733e-01 -1.78598706e-02
      9.24775004e-02 -1.35986388e-01 -7.50881732e-02 9.98524111e-03
      2.67383866e-02 -1.99167803e-01 -2.46575609e-01 1.42498119e-02
      -6.95421419e-04 -9.42891538e-02 -6.82314113e-02 5.90911843e-02
      -1.75319239e-02 -8.22885931e-02 -1.46398872e-01 -2.03865528e-01
      -1.25745624e-01 -7.04139993e-02 4.62481268e-02 3.67252342e-03
      -2.60545369e-02 -1.98095962e-02 2.43932176e-02 -6.29438758e-02
      2.32242644e-02 9.59307179e-02 1.22575067e-01 6.44918298e-04
      2.41213143e-02 -1.23632528e-01 -2.27799669e-01 -1.18176058e-01
      -2.30315670e-01 -4.59504984e-02 -1.69955250e-02 8.26659650e-02
      -7.35873282e-02 1.07275415e-02 4.70107384e-02 -5.65007143e-02
      -6.39563650e-02 -2.69198194e-02 5.20668924e-02 -4.04840298e-02
      8.31254199e-02 1.90988574e-02 -9.21740159e-02 9.17985849e-03
      1.53886983e-02 3.32788448e-03 1.73023473e-02 -7.41510913e-02
      -2.08776891e-02 1.31921992e-01 -1.97604317e-02 3.00366338e-02
      -1.13596162e-02 2.97328494e-02 -3.86998465e-04 -9.14947654e-04
      -5.64445704e-02 2.10284382e-01 8.04866031e-02 -7.26946294e-02
      -1.90467406e-02 4.19741943e-02 -8.37731883e-02 -5.39700268e-03
      3.49724293e-03 -5.06498627e-02 6.96210787e-02 9.76570547e-02
      -3.04255378e-03 4.85572033e-02 2.81365085e-02 -8.78046732e-03
      2.41871938e-04 -6.98229074e-02 3.24931629e-02 -8.82892311e-02
      2.20719464e-02 -1.38198867e-01 -7.06019700e-02 -2.87352465e-02
      -1.87508594e-02 -5.41989729e-02 7.57335424e-02 -3.14238593e-02
      8.89844820e-03 9.61193070e-02 -6.96988718e-05 5.55868112e-02
      5.97034805e-02 -2.06522532e-02 1.82904482e-01 -9.44917351e-02
      4.17953618e-02 -1.17604673e-01 -1.65062845e-01 -1.45886764e-01
      -3.12908553e-02 4.90930676e-02 -1.63318461e-03 -1.14153214e-01
      -5.23859577e-04 4.56284806e-02 9.46378782e-02 -1.01585224e-01
      -1.31558077e-02 -3.10592744e-02 -5.00945654e-03 -7.50536919e-02
      -1.17867596e-01 -2.43430316e-01 -2.23917618e-01 1.53937889e-02
      9.25061777e-02 1.06330648e-01 2.33970433e-02 7.78539777e-02
      -3.53655871e-03 -1.67263648e-03 -5.59795611e-02 2.25303527e-02
      -8.00271928e-02 2.97008269e-02 -1.67947307e-01 -1.19078003e-01
      -5.67722060e-02 -8.15789849e-02 -1.07613198e-01 -1.86591670e-01
      -3.32908422e-01 -6.12327904e-02 4.24067900e-02 7.56394193e-02
      -2.67443836e-01 -6.01967759e-02 -8.52915570e-02 -1.41942590e-01
      -2.20099464e-01 -1.90178439e-01 -8.80898312e-02 -5.18454313e-02
      -1.38742179e-02 -1.28100971e-02 7.81485736e-02 -2.58523673e-01
      2.36362010e-01 8.54418427e-02 1.00084648e-01 -2.43866537e-02
      1.26826745e-02 1.68809041e-01 6.29942939e-02 1.91227384e-02
      -1.60855025e-01 8.78060237e-02 -3.28150997e-03 3.48782726e-02
      -5.46841025e-02 -5.40226027e-02 1.22449942e-01 3.35901156e-02
      1.04009219e-01 4.38755788e-02 -4.01143804e-02 4.75970209e-02
      -2.98613515e-02 2.91986782e-02 -5.52167334e-02 2.04442870e-02
      8.15394446e-02 -4.59212027e-02 2.42428090e-02 1.51180714e-01
      -1.80984363e-02 -7.47612342e-02 2.02951971e-02 6.90959319e-02
      -2.18020994e-02 -1.92701258e-02 2.31253244e-02 -3.95654589e-02
      1.03194803e-01 7.15003014e-02 -3.27621698e-02 -7.55802020e-02
      9.12437811e-02 3.03488020e-02 4.46528271e-02 2.04532389e-02
      5.25229145e-03 7.03144819e-02 -1.83318183e-01 8.16283375e-03
      -4.98260520e-02 1.14581108e-01 7.09281191e-02 -5.55570647e-02
      -1.61988437e-02 9.30619985e-02 1.35378808e-01 -2.64125198e-01
      -1.87219083e-02 1.16453111e-01 3.69817130e-02 -1.30483612e-01
      -1.26539215e-01 -6.55311197e-02 -5.67396916e-02 -6.65970594e-02
      -1.03595458e-01 -3.02868593e-03 1.84389986e-02 -1.36354903e-03
      2.72096787e-02 -1.62200965e-02 -3.80611457e-02 1.04867615e-01
      -6.32379353e-02 -2.90565453e-02 -5.16001135e-03 2.74459254e-02
      1.99570227e-02 -7.32252896e-02 -2.66226716e-02 -7.67570436e-02
      -1.00478515e-01 -1.80262774e-01 -4.33874428e-02 -1.26710162e-01
      7.22384825e-02 -2.08538264e-01 5.41273095e-02 -6.53839931e-02
      -1.54144093e-01 -1.26029655e-01 -1.33248910e-01 1.49524122e-01
      2.06366643e-01 3.06676105e-02 6.14251345e-02 3.47640179e-02
      -1.91563040e-01 -1.88421831e-01 -1.80517614e-01 -2.26630464e-01
      -4.79507558e-02 5.06561361e-02 -5.83230816e-02 -1.97585057e-02
      -5.71260899e-02 2.28502862e-02 -9.87703204e-02 -4.88827229e-02
      -6.68288991e-02 -2.36836560e-02 1.98694840e-02 -8.99869502e-02
      7.75274187e-02 5.85494787e-02 4.16755974e-02 6.38540238e-02
      7.74321929e-02 -3.56140174e-02 -1.67354923e-02 -2.17035059e-02
      -1.25999581e-02 4.32270095e-02 -4.15111855e-02 1.87903009e-02
      -6.47628978e-02 -2.56976858e-03 1.33664981e-01 2.98512839e-02
      -1.97005477e-02 -8.89136828e-03 1.80278509e-03 1.03546150e-01
      -3.14486064e-02 -4.03634496e-02 -9.19979736e-02 1.27197698e-01
      1.22942887e-02 4.72014509e-02 9.76916775e-03 -3.74982925e-03
      8.39242190e-02 5.21976314e-02 2.37921812e-02 1.71013046e-02
      1.78627849e-01 5.86625412e-02 2.18048748e-02 -8.89736563e-02
      -9.59253982e-02 -3.45126055e-02 -1.51039019e-01 5.22109307e-03
      3.53290024e-03 6.84245452e-02 5.28582595e-02 3.30668055e-02
      -6.48110360e-02 -6.78661242e-02 -1.38839453e-01 -6.24083057e-02
      1.10734239e-01 2.90859193e-02 -5.08389995e-02 5.13529144e-02
      -2.54330505e-02 9.16973278e-02 -4.28625196e-02 -4.15920578e-02
      -7.71430805e-02 1.05467059e-01 -3.68760526e-02 -1.54727846e-01
      -7.02971891e-02 4.06963788e-02 -1.71009507e-02 -8.45247507e-02
      -4.53484580e-02 5.21175787e-02 4.55486365e-02 4.13567163e-02
      5.65300100e-02 -9.88279954e-02 -8.61593112e-02 -5.22941202e-02
      8.04389268e-02 -4.14265171e-02 -8.71492773e-02 1.25587329e-01
      -7.80578256e-02 6.80296449e-03 -9.66751203e-02 -2.27647334e-01
      -1.07722260e-01 -8.17495286e-02 -5.83199151e-02 -2.07341939e-01
      -6.16762824e-02 -1.52169302e-01 -2.03778613e-02 -3.47714163e-02
      5.36680873e-03 8.17495435e-02 4.71533654e-04 7.67917112e-02
      5.58892936e-02 8.26143101e-03 -8.39915648e-02 1.78618648e-03
      -9.08640847e-02 -9.45942402e-02 1.00937627e-01 -5.42941578e-02
      -4.25169282e-02 -7.17089102e-02 2.00152859e-01 1.50229270e-02
      8.68205428e-02 -3.81563716e-02 3.66059206e-02 -1.23694167e-02
      -1.62628498e-02 -1.66859239e-01 -8.42373520e-02 -4.20611091e-02
      6.40278161e-02 -5.30405417e-02 2.08633598e-02 -3.64550226e-03
      -1.19833663e-01 -2.02420309e-01 -2.10625876e-04 4.89613181e-03
      1.05270088e-01 -1.13539472e-01 2.39453241e-02 7.77529040e-03
      -1.53789878e-01 -2.18943924e-01 -1.56722143e-01 -1.41853750e-01
      -4.89964075e-02 -1.06169142e-01 2.40777759e-03 6.88561723e-02
      -9.15678144e-02 -7.07443729e-02 -4.79287095e-02 -1.71914488e-01
      3.15621160e-02 3.72547023e-02 -1.78451478e-01 -1.39624208e-01
      4.26154933e-04 -5.29179014e-02 6.91694766e-02 1.91469211e-02
      -4.27528881e-02 -1.49412587e-01 -5.24469279e-02 -1.14406683e-01
      -1.78475603e-01 -4.72548744e-03 -8.61519352e-02 -6.74909353e-02
      -6.09790795e-02 -1.98615603e-02 -9.63844880e-02 -2.86463536e-02
      -3.95397171e-02 -6.60837814e-02 -1.66569464e-02 -2.06313655e-02
      -2.01621354e-02 -2.23400488e-01 -1.97198778e-01 -2.62217402e-01
      -1.86560452e-01 -4.95638847e-02 -1.11889869e-01 1.98831297e-02
      -6.42209575e-02 -9.40198228e-02 -2.17138138e-02 -1.12140961e-01
      -2.11404152e-02 -1.53067246e-01 -1.50488928e-01 -2.72095576e-02
      -3.49489376e-02 -7.91504234e-02 -7.43075386e-02 -9.44607705e-02
      -1.91901531e-02 -2.09496710e-02 -8.70588422e-02 -1.42015323e-01
      -1.18596144e-01 -4.31563072e-02 8.13123956e-02 -1.70086417e-02
      6.28138557e-02 -2.32187733e-02 -1.32950693e-02 3.92720625e-02
      8.78338143e-02 8.75111436e-05 5.55478372e-02 7.62422476e-03
      -4.61089425e-02 -9.24292505e-02 -1.91101469e-02 -3.14439610e-02
      -2.57317517e-02 -1.08179217e-02 7.31460303e-02 1.70039818e-01
      1.21880248e-01 7.67572783e-03 1.04946412e-01 -8.12695175e-02
      7.66915679e-02 -3.99589054e-02 -5.57075143e-02 -7.83502404e-03
      1.02665171e-01 -8.33341032e-02 -6.29075393e-02 1.58210862e-02
      3.83487120e-02 -2.53351443e-02 1.26489937e-01 6.81795785e-03
      -2.45133997e-03 -3.55462879e-02 -2.14336738e-01 -6.58866763e-02
      -4.64612059e-02 -3.48038115e-02 8.61428007e-02 8.77488703e-02
      8.00486803e-02 3.64443846e-02 -3.68085429e-02 -6.89547807e-02
      8.00932497e-02 -2.74234116e-02 -1.28677143e-02 2.58636754e-02
      -2.59363167e-02 -6.92573749e-03 5.57102226e-02 -2.99189407e-02
      -8.95540118e-02 7.07199201e-02 1.02979839e-01 3.00786179e-02
      -6.14856184e-03 -3.32821906e-02 -5.99681921e-02 5.17350249e-02
      1.05039977e-01 -1.35264531e-01 -7.72559550e-03 -3.52749624e-03
      -5.25015332e-02 -2.78077237e-02 -4.24869135e-02 -7.44194835e-02
      -8.98853913e-02 4.47044522e-02 5.53347869e-03 3.05143055e-02
      7.45055825e-02 -2.59650089e-02 3.96962650e-02 -8.46666321e-02
      -1.75681878e-02 3.72498110e-02 -6.60834983e-02 5.27872555e-02
      -2.74935048e-02 9.17317346e-03 3.63292620e-02 -3.42341922e-02
      4.39612567e-02 4.00980189e-02 4.46543619e-02 9.47855487e-02
      6.36660457e-02 4.60682623e-03 -1.52565479e-01 -4.18591201e-02
      3.14715132e-02 -1.18368911e-03 8.59912857e-02 1.03288934e-01
      3.35608274e-02 -6.16845600e-02 -9.35805365e-02 4.52744067e-02
      6.69853315e-02 4.76638880e-03 -4.57818210e-02 -9.29738432e-02
      1.21617573e-03 -3.93614732e-02 4.80397195e-02 2.40514390e-02
      -4.91381362e-02 5.23087941e-02 -1.53635703e-02 1.43647611e-01
      5.89172356e-02 -7.92727713e-03 7.12377019e-03 9.18811485e-02
      -1.58734433e-02 -1.04989139e-02 4.48776931e-02 -5.83801344e-02
      5.52373864e-02 9.27474052e-02 -3.40902396e-02 1.10269219e-01
      -9.26620960e-02 8.16943124e-02 4.18983698e-02 4.38806228e-02
      1.91732183e-01 7.86239579e-02 9.49902635e-04 3.26634734e-03
      -4.49719541e-02 -2.06865862e-01 3.27966921e-02 2.20580827e-02
      -7.53519242e-04 -8.15213099e-02 -5.75590655e-02 2.61424985e-02
      -3.05258706e-02 -3.87587473e-02 4.02350351e-02 1.93044860e-02
      1.33483112e-01 -1.98988318e-02 -2.59173643e-02 -1.39137474e-03
      9.86917466e-02 6.07665889e-02 8.29743445e-02 -1.79886762e-02
      7.09666088e-02 -4.12189811e-02 6.00908697e-02 -9.43698063e-02
      -2.03712191e-02 -1.11346655e-01 -1.00585334e-01 1.05234224e-03
      -5.26673011e-02 -1.11973897e-01 -4.72854525e-02 -7.84802511e-02
      1.58498153e-01 -8.05306956e-02 2.95664128e-02 -4.07075174e-02
      -1.09909706e-01 -6.64875954e-02 -8.23896751e-02 1.13029227e-01
      5.24122119e-02 -7.03675374e-02 -4.31638695e-02 -6.36577010e-02
      7.74598867e-02 -1.90301970e-01 -1.64605137e-02 -3.91478725e-02
      5.51377796e-02 -2.01365799e-01 5.69055900e-02 2.19951570e-01
      1.70055032e-01 4.08719629e-02 7.47451037e-02 2.42870450e-02
      1.51451409e-01 -3.92353721e-02 -1.43098887e-02 -1.18893623e-01
      -2.25276537e-02 2.67308168e-02 -5.51071092e-02 -1.24488838e-01
      -2.24289834e-05 7.69646317e-02 -1.05916306e-01 9.23163607e-04
      2.04714667e-02 -2.66447403e-02 3.97967622e-02 -4.37769555e-02
      5.01585044e-02 -7.84128979e-02 3.72340046e-02 6.86610416e-02
      7.73957968e-02 -4.11210116e-03 -1.56947225e-02 3.25019583e-02
      4.93943468e-02 4.52874266e-02 -9.41584855e-02 -1.85445949e-01
      1.77729167e-02 1.60946641e-02 1.47405982e-01 1.98721173e-04
      8.27374533e-02 9.30877477e-02 -4.99819517e-02 6.41724989e-02
      1.25963390e-01 -1.27936006e-01 -4.03993651e-02 -2.26148916e-03
      3.52530442e-02 5.95816113e-02 1.72289923e-01 -1.32202804e-01
      -4.92345244e-02 -8.27353224e-02 -1.72857828e-02 -4.03504185e-02
      -1.14548942e-02 1.03208218e-02 -8.50202739e-02 -2.18556635e-02
      -3.13534774e-02 -8.56397152e-02 6.95888465e-03 7.33534619e-02
      9.50819030e-02 -4.15992402e-02 1.03141248e-01 1.73148811e-01
      7.14658648e-02 2.71220561e-02 -3.59719098e-02 -8.36963058e-02
      -5.16953394e-02 7.93353096e-03 -1.02729166e-04 -6.07361384e-02
      2.04699840e-02 -5.85239287e-03 3.26833548e-03 -4.69817854e-02
      1.01868492e-02 -2.90578939e-02 1.27864513e-03 6.56152368e-02
      1.43965064e-02 9.12414044e-02 -1.55650470e-02 4.37944792e-02
      -2.05056462e-02 2.56932359e-02 -1.85795557e-02 -5.18073328e-02</_></support_vectors>
  <decision_functions>
    <_>
      <sv_count>1</sv_count>
      <rho>-3.1191286282780233e+00</rho>
      <alpha>
        1.</alpha>
      <index>
        0</index></_></decision_functions></my_svm>
</opencv_storage>
