<?xml version="1.0"?>
<opencv_storage>
<my_svm type_id="opencv-ml-svm">
  <svm_type>C_SVC</svm_type>
  <kernel><type>LINEAR</type></kernel>
  <C>1.0000000000000001e-01</C>
  <term_criteria><epsilon>1.1920928955078125e-07</epsilon>
    <iterations>1000</iterations></term_criteria>
  <var_all>1296</var_all>
  <var_count>1296</var_count>
  <class_count>2</class_count>
  <class_labels type_id="opencv-matrix">
    <rows>1</rows>
    <cols>2</cols>
    <dt>i</dt>
    <data>
      -1 1</data></class_labels>
  <sv_total>1</sv_total>
  <support_vectors>
    <_>
      4.19202186e-02 -3.79119092e-03 -2.21272707e-02 -2.26327265e-03
      8.55678171e-02 5.84885329e-02 4.96102870e-02 9.31030046e-03
      -5.93486018e-02 -1.72284746e-03 1.11308478e-01 -7.70041645e-02
      -1.49983644e-01 -6.29342645e-02 -6.23787865e-02 -5.21580502e-03
      -8.12845677e-02 7.71510452e-02 -3.62426713e-02 8.37177411e-03
      6.34533167e-02 -6.74343258e-02 -1.18206674e-02 -4.19996027e-03
      -2.03858733e-01 -9.99224707e-02 -4.46277158e-03 4.76479270e-02
      -2.69745402e-02 5.12118861e-02 -2.55667884e-02 6.35640547e-02
      3.65428366e-02 2.83612311e-02 -1.04077235e-01 -4.62608337e-02
      -3.62045355e-02 2.99212113e-02 -1.81770802e-01 -2.12760158e-02
      1.44774258e-01 8.53597522e-02 1.08620442e-01 -3.74706425e-02
      -7.13697821e-02 -1.06645580e-02 -6.85351640e-02 -7.77199194e-02
      1.29894063e-01 2.13258751e-02 5.44125810e-02 -3.15117389e-02
      2.62222905e-02 -8.28989744e-02 1.08251847e-01 -4.95736413e-02
      8.41446221e-03 -1.59676433e-01 -2.30592638e-02 8.39806721e-03
      3.96080054e-02 1.01107918e-01 -4.20898758e-02 2.18767300e-02
      5.45988195e-02 9.41525251e-02 -2.53186282e-03 9.28261131e-02
      -1.47000970e-02 -2.57865284e-02 -3.11450548e-02 -3.15442048e-02
      8.39697719e-02 4.00153967e-03 -3.12079769e-02 1.38638010e-02
      -6.39080852e-02 3.32272165e-02 1.16504647e-01 -1.29625639e-02
      -5.02150729e-02 1.98583063e-02 -1.04633652e-01 3.84266451e-02
      -1.88228749e-02 -4.40573990e-02 -2.26320717e-02 -2.88385358e-02
      1.24830930e-02 1.43862888e-01 9.76610854e-02 -6.57082871e-02
      5.81547134e-02 -3.34696583e-02 -7.30568022e-02 -3.22886370e-02
      -1.70054007e-02 1.19222008e-01 1.35235295e-01 -2.67480128e-02
      -2.26806272e-02 -3.95018514e-03 -1.73165366e-01 2.73250528e-02
      -8.55393559e-02 -4.24017012e-02 -4.79026847e-02 6.27251016e-03
      8.88511315e-02 8.36733729e-02 3.65593731e-02 2.01602653e-02
      3.03555783e-02 1.15838028e-01 2.70269644e-02 -5.46440929e-02
      -1.69168543e-02 4.95002940e-02 7.36257285e-02 4.14640717e-02
      -5.64587861e-02 -6.42245263e-02 -8.02935064e-02 1.38979871e-02
      -1.03723975e-02 -3.31326425e-02 7.26857632e-02 3.08522675e-02
      3.10545992e-02 5.59261143e-02 -5.55474386e-02 5.86859360e-02
      1.18939139e-01 5.26114888e-02 4.99210088e-03 1.64244175e-02
      1.79556701e-02 -4.63982970e-02 -1.38780743e-01 5.61849633e-03
      2.27295589e-02 2.47964840e-02 -7.11841509e-02 -6.61342293e-02
      2.48523951e-01 -4.40575704e-02 5.42176515e-02 5.92712536e-02
      9.90816429e-02 5.94711751e-02 6.57929434e-03 -1.40004987e-02
      2.74033193e-02 -4.36582901e-02 -6.33955672e-02 1.97097566e-03
      1.00974187e-01 3.34024988e-02 -6.89029461e-03 9.74619016e-02
      -1.64811164e-02 -3.86257172e-02 -1.09031359e-02 1.09470800e-01
      -2.20820718e-02 -4.20338847e-02 2.33808253e-03 1.07563198e-01
      9.71790589e-03 -4.73918691e-02 -9.65594426e-02 -2.66993288e-02
      -5.74500337e-02 -9.77656897e-03 -8.94456282e-02 -1.24756165e-01
      -1.57810096e-02 1.10918187e-01 -5.35503663e-02 -4.21829186e-02
      5.23516573e-02 -1.69582628e-02 -6.42973036e-02 -1.78255677e-01
      2.60614417e-02 1.75215423e-01 4.23757248e-02 -1.38846925e-02
      3.89456823e-02 5.90443797e-02 -4.07521985e-02 4.63708444e-03
      -8.27720165e-02 8.96086246e-02 4.37233038e-02 -4.18835208e-02
      -8.97606313e-02 7.46388407e-03 1.18303917e-01 9.39783920e-03
      4.70446870e-02 1.35069370e-01 2.11903714e-02 5.95331639e-02
      -2.54240017e-02 -2.21425947e-02 1.84794199e-02 3.95427383e-02
      5.06755710e-02 8.43540207e-02 -6.23071902e-02 -5.76924123e-02
      -9.91155207e-02 3.56065854e-02 1.35014113e-02 9.37114954e-02
      4.16334346e-02 8.40568356e-03 -4.21341099e-02 -2.44337004e-02
      -9.39903036e-02 -2.17883587e-02 2.18608394e-01 -1.31186873e-01
      -3.08834482e-02 4.94864881e-02 -4.86950316e-02 -4.74564694e-02
      -3.32616903e-02 3.37919518e-02 -4.85560112e-02 -4.95860800e-02
      1.63641330e-02 -4.37913537e-02 -3.65025364e-02 1.20646887e-01
      -3.41518000e-02 5.43629080e-02 -8.13028440e-02 9.70164686e-03
      -6.62634000e-02 -2.35505998e-02 -6.87697455e-02 4.81574796e-02
      1.43888324e-01 2.46732906e-01 1.08734533e-01 9.48307365e-02
      2.21846569e-02 -3.08170468e-02 -1.89110368e-01 -4.35862727e-02
      1.73017886e-02 9.23976477e-04 1.68670006e-02 -6.11508191e-02
      -3.08557972e-03 -5.36506511e-02 5.21011390e-02 -2.99424538e-03
      -8.90881717e-02 6.37350045e-03 -7.72142643e-03 -1.03283450e-01
      4.98488769e-02 2.85261497e-02 -8.55445936e-02 3.86085920e-02
      -8.08577240e-02 2.54781544e-03 1.19834810e-01 -7.36652911e-02
      -8.58044699e-02 -1.83381010e-02 -6.65822774e-02 -8.05084854e-02
      1.46534061e-02 6.86150342e-02 -1.17376052e-01 -8.33051205e-02
      -2.74056822e-01 -2.62991428e-01 -2.73175184e-02 -6.78371778e-03
      -5.50676621e-02 -6.22361861e-02 -2.90069915e-02 -6.91427365e-02
      -1.80335864e-01 -1.12628587e-01 -1.46067083e-01 -5.13066957e-03
      -8.39695334e-02 2.15240344e-02 5.98668531e-02 1.94545705e-02
      -2.58901954e-01 -1.02350168e-01 -1.53240785e-01 -5.26799224e-02
      -2.74653062e-02 1.92011194e-03 -1.97339237e-01 -7.68103600e-02
      -1.61920220e-01 -6.19875938e-02 2.11273395e-02 -1.85710713e-01
      -8.32660869e-02 5.87871149e-02 -1.57109261e-01 5.86178154e-03
      -2.94257533e-02 -6.54928461e-02 6.58152476e-02 -5.18018901e-02
      -6.81011453e-02 -8.98436010e-02 -1.32332712e-01 9.61760730e-02
      -6.80895057e-03 -1.05408594e-01 -2.12000936e-01 -2.45414898e-01
      -1.29635558e-01 -1.05264202e-01 -4.94936854e-02 -1.10428138e-02
      -7.24771768e-02 6.81697810e-03 -3.89222428e-02 -7.72417411e-02
      -1.63064107e-01 -5.47339022e-02 -3.27136330e-02 -6.15407340e-02
      -1.05442181e-01 2.01877952e-02 -7.41846040e-02 -1.92856029e-01
      -1.07812695e-01 -1.55119568e-01 -1.09774582e-01 -1.11014862e-02
      -2.83970125e-02 2.95481980e-02 1.38781622e-01 4.69100811e-02
      5.81303090e-02 -1.78312719e-01 2.08395272e-02 7.53488299e-03
      -5.91380987e-03 -3.00799422e-02 -1.74851075e-01 -6.81603700e-02
      -2.03619838e-01 -6.45647794e-02 -1.58547938e-01 -1.75412536e-01
      3.99304219e-02 6.11385331e-02 1.34795289e-02 -5.44362143e-02
      4.51504625e-02 -5.78097291e-02 -6.45544752e-02 4.27764766e-02
      -7.45208934e-02 -6.25496283e-02 -2.87242215e-02 1.66659616e-02
      -3.91384028e-03 1.66452378e-01 1.15117721e-01 -1.51163518e-01
      -2.27636434e-02 3.10148615e-02 1.21450471e-03 -1.03000127e-01
      -1.35432944e-01 -1.00852028e-01 -1.40973553e-01 -5.59296866e-04
      -1.52271122e-01 -6.99760467e-02 -8.34772065e-02 -1.96325496e-01
      -2.28876178e-03 1.19329415e-01 -2.00009216e-02 -1.19013220e-01
      -1.27015054e-01 5.62600233e-03 2.18403749e-02 -4.26724218e-02
      -6.63580233e-03 -4.51885648e-02 -4.03542407e-02 -7.99291581e-02
      1.41373590e-01 1.64647475e-02 4.95177396e-02 1.62083320e-02
      -1.86700914e-02 -2.96543371e-02 7.92733505e-02 5.64526804e-02
      2.07487475e-02 8.15930963e-02 3.37322727e-02 -7.48123322e-03
      -2.41946559e-02 7.98297301e-03 -1.44428329e-03 -2.04356052e-02
      1.07143745e-01 -4.02743705e-02 7.51999319e-02 -8.58711451e-02
      6.46334663e-02 -5.63353598e-02 1.83842611e-02 7.83340484e-02
      3.96039337e-02 -2.31817905e-02 -5.81399165e-02 1.12180784e-01
      3.64934206e-02 -2.28824727e-02 3.97911668e-02 -1.52538316e-02
      1.25470357e-02 -8.80286191e-03 -6.95797727e-02 -5.45187220e-02
      7.78462887e-02 -1.02043286e-01 2.09476985e-02 1.69576764e-01
      4.62185685e-03 -8.12057704e-02 -6.61872774e-02 -4.50640172e-02
      -4.39159274e-02 -7.35865440e-03 1.87635794e-01 -2.46379469e-02
      -1.25343492e-02 -1.51487812e-01 -1.59591176e-02 8.83422121e-02
      -1.17649110e-02 6.69275597e-02 6.42690733e-02 2.12776996e-02
      5.86292706e-03 -2.01785620e-02 2.31752377e-02 -5.96456677e-02
      -1.05649672e-01 -5.84813431e-02 4.58716750e-02 -1.13856010e-01
      -9.99790430e-02 -1.22577157e-02 1.08979411e-01 -6.09526746e-02
      1.37830880e-02 -2.64025088e-02 -2.00338379e-01 -2.20990747e-01
      -3.62427831e-02 -1.06354572e-01 -2.21042354e-02 -1.15852267e-01
      -1.39460210e-02 -5.25643602e-02 -1.27288625e-01 -1.54106915e-01
      -5.76309636e-02 -3.96218374e-02 -4.12109233e-02 -8.86155441e-02
      5.16444631e-02 -9.31797698e-02 -5.68115041e-02 5.81099913e-02
      -7.08965957e-02 -2.44172901e-01 -1.53845340e-01 -7.39323497e-02
      -4.91466187e-02 -2.41051894e-02 6.27526864e-02 -6.35086298e-02
      -1.15661390e-01 3.37219564e-03 -1.36159211e-01 -1.20456755e-01
      -1.80892386e-02 4.46292665e-03 5.56413978e-02 9.46259275e-02
      -5.70793636e-02 9.15407389e-02 -1.41403200e-02 -1.19267190e-02
      8.16094056e-02 2.53779560e-01 1.11081138e-01 7.01395497e-02
      -7.67006129e-02 8.61607268e-02 -7.33370427e-03 -7.62351230e-02
      -4.82338108e-02 8.21487382e-02 -8.48970562e-02 -5.33559434e-02
      6.39927480e-03 1.25505971e-02 -2.97388956e-02 -6.11811597e-03
      5.71892448e-02 5.81404045e-02 4.62939106e-02 -1.66110888e-01
      -3.33970264e-02 -2.23713573e-02 3.75618413e-02 -5.63656213e-03
      3.06046810e-02 -1.02265617e-02 5.23850359e-02 1.45448223e-01
      -9.45626646e-02 5.64821698e-02 8.81274268e-02 1.76489521e-02
      -9.25776884e-02 8.61863270e-02 7.89829195e-02 2.37362515e-02
      1.19697265e-01 -2.74410546e-02 -1.60536636e-02 -8.03887323e-02
      -1.85722578e-02 3.31644602e-02 9.14357230e-03 1.44522890e-01
      2.34568834e-01 6.08724616e-02 -1.27792731e-01 -5.18914536e-02
      -1.72744133e-03 -4.42920864e-04 -2.96073053e-02 -1.66418049e-02
      7.27841258e-02 2.54336037e-02 1.22297652e-01 -9.81023535e-03
      9.09287781e-02 1.41837802e-02 1.19974837e-01 -1.10672368e-02
      -4.38712761e-02 -1.43595651e-01 -1.27756909e-01 4.58380952e-02
      2.81440504e-02 -6.33757934e-02 -4.08638753e-02 -9.59526375e-02
      8.98557901e-02 -1.52502432e-01 -1.08887538e-01 -2.72774771e-02
      2.00265706e-01 -1.06459275e-01 -2.07932577e-01 -9.98516455e-02
      3.96980299e-03 -8.44430029e-02 -1.47289969e-02 4.01119925e-02
      -5.90647981e-02 -1.46908402e-01 -1.65880218e-01 -2.09541902e-01
      -8.76526311e-02 -2.83563472e-02 -4.62894142e-02 5.97837865e-02
      -2.56731664e-03 -5.91216050e-02 -3.15261520e-02 1.45350788e-02
      8.55664462e-02 5.01100272e-02 1.01012968e-01 -3.33981998e-02
      -1.75152346e-01 -9.63316262e-02 -1.43941626e-01 -1.40270397e-01
      -1.30188525e-01 -1.22512579e-01 -1.41705722e-01 -8.34300071e-02
      7.72436038e-02 -3.24598094e-03 1.44455612e-01 -7.06864297e-02
      -2.63720676e-02 7.55607523e-03 -7.37010613e-02 -2.36719381e-02
      1.38677374e-01 3.17386724e-02 -3.38662416e-02 -7.48381168e-02
      5.31551838e-02 1.26389489e-01 4.41827103e-02 2.53846385e-02
      -6.13706708e-02 -3.36025245e-02 -7.26591200e-02 1.44298812e-02
      9.62619558e-02 -4.25111912e-02 1.59198970e-01 5.92471585e-02
      4.70108874e-02 7.81775191e-02 1.37580588e-01 -9.97880176e-02
      -6.44697994e-02 9.36967321e-03 -1.46672130e-01 3.98209915e-02
      6.02493919e-02 -7.30125159e-02 -2.60722097e-02 2.43174229e-02
      -3.93496342e-02 -1.50500704e-02 2.34210733e-02 -3.58513556e-02
      -1.06967771e-02 -1.21580595e-02 1.52512863e-02 -6.13101535e-02
      7.64835551e-02 -4.21802700e-02 -4.50436510e-02 -4.92949598e-02
      -5.84205426e-02 5.40975444e-02 -7.22426130e-03 3.83630171e-02
      -1.52700031e-02 -1.75987687e-02 -4.62782197e-02 -5.11382967e-02
      3.78709473e-02 -2.34857779e-02 -7.62651674e-03 -1.32291168e-02
      1.24161482e-01 -1.11911342e-01 -2.31310911e-02 -1.48909315e-01
      -3.39353420e-02 -1.67387083e-01 -8.99789110e-03 -7.46249035e-02
      -9.04804245e-02 -1.50566110e-02 9.76492371e-03 -4.09228802e-02
      -4.29040520e-03 5.66826612e-02 -4.59018685e-02 -1.40748143e-01
      -1.62814304e-01 -2.22406641e-01 -1.10237680e-01 -3.11385561e-02
      -5.88902319e-03 3.44978012e-02 5.89337423e-02 -1.32205067e-02
      1.06482729e-02 -2.24511581e-03 -7.26688132e-02 6.25481158e-02
      7.41021754e-03 -5.92010766e-02 -5.43114915e-02 -5.90130351e-02
      -4.72241640e-03 -1.35831386e-01 -6.04481027e-02 -1.53305396e-01
      -1.43525884e-01 -1.44087613e-01 7.31643811e-02 -4.51662671e-03
      -1.58794016e-01 -5.04382215e-02 1.12876654e-01 -5.25408098e-03
      -1.85810998e-01 -2.10223839e-01 -7.32791126e-02 -2.64174901e-02
      -1.25304321e-02 -3.14502120e-02 5.27548678e-02 -1.87699869e-01
      2.38178238e-01 2.55081933e-02 1.75449625e-01 2.62605064e-02
      -7.80524313e-02 -1.66985467e-02 3.00163846e-03 6.95801377e-02
      -6.07595965e-02 4.88863094e-03 -5.02679832e-02 1.15797713e-01
      2.47792173e-02 -1.43233344e-01 4.65316847e-02 5.43843620e-02
      -1.33187817e-02 7.09233359e-02 7.28669539e-02 -9.62429959e-03
      -4.42666709e-02 -2.80062836e-02 -5.89409261e-04 1.21685989e-01
      1.91380735e-02 3.71250659e-02 9.89296194e-03 1.21607497e-01
      -9.32651237e-02 -5.36421463e-02 4.47181426e-02 1.56262219e-01
      -4.73585501e-02 -9.45478007e-02 1.59119299e-04 -5.30800316e-03
      9.85203907e-02 1.07066333e-01 7.51897842e-02 -6.50103241e-02
      -2.55571064e-02 4.32005748e-02 4.63909134e-02 4.98675406e-02
      -2.32712589e-02 -1.35780526e-02 -1.67610765e-01 -8.04679617e-02
      -2.61189789e-02 1.41664729e-01 6.36099949e-02 -4.87716049e-02
      5.83885536e-02 1.34674599e-02 1.10620059e-01 -5.04925624e-02
      -8.25702026e-02 -8.93144682e-03 1.03653735e-02 1.67324141e-01
      -8.30359086e-02 -1.25727415e-01 -8.68187845e-02 -1.07431851e-01
      -5.75359799e-02 8.55287910e-02 -4.59951989e-05 -7.61562958e-02
      1.28252640e-01 -6.89513907e-02 4.84682620e-02 5.93729280e-02
      3.94866802e-02 -4.40654717e-02 -8.71044546e-02 5.12157306e-02
      1.66707672e-02 -4.47665267e-02 -5.80000952e-02 -2.85717901e-02
      -8.20051432e-02 -2.19584778e-01 -1.77290231e-01 -2.19968453e-01
      -2.43135565e-03 -1.72519669e-01 -6.93711359e-03 -6.61999658e-02
      -1.34870514e-01 -1.77119941e-01 -3.73228714e-02 7.68915936e-02
      1.91410229e-01 -8.40454772e-02 2.36852537e-03 4.11054306e-02
      1.57231111e-02 -1.47287399e-01 -7.03370050e-02 -5.05906381e-02
      -2.33301129e-02 -8.45842212e-02 -9.29823145e-02 -1.12498976e-01
      -7.14727864e-02 8.13684911e-02 -1.92018658e-01 -6.25866279e-02
      7.95196891e-02 -2.10739691e-02 9.43704508e-03 -1.11284345e-01
      2.22248435e-02 -1.87139269e-02 8.55376646e-02 -9.15726088e-03
      3.54996249e-02 8.21389630e-02 3.39963920e-02 -9.03597772e-02
      -2.13343669e-02 3.80058847e-02 6.19813427e-02 3.84388864e-02
      2.02973150e-02 -2.78366618e-02 1.43025070e-01 -5.44777187e-03
      -1.86208766e-02 -2.07002312e-02 7.07384944e-03 6.34629279e-02
      -6.48530060e-03 -8.85251090e-02 -1.18176945e-01 8.31849799e-02
      -1.45252394e-02 1.28814951e-01 1.02876335e-01 9.50962827e-02
      4.58261445e-02 4.95246053e-03 1.99951953e-03 -4.15087491e-02
      1.17917098e-02 3.83856557e-02 2.34858710e-02 -8.32663402e-02
      -1.25490106e-03 2.07647141e-02 -2.78946161e-02 -1.58998277e-03
      3.14456262e-02 -8.82889181e-02 -2.52146684e-02 -1.21809177e-01
      7.31809414e-04 -8.97995196e-03 -1.65898770e-01 1.55967858e-03
      6.48603588e-02 -9.96434242e-02 -8.62276703e-02 -8.59543979e-02
      3.73369083e-02 1.71750024e-01 -4.61099073e-02 1.09584779e-01
      -1.18086495e-01 1.23544343e-01 -1.27731711e-01 4.39371690e-02
      -6.78504780e-02 5.39831519e-02 -5.37840463e-02 -7.67344162e-02
      1.39906043e-02 7.07641542e-02 7.82914311e-02 3.41903307e-02
      6.00720942e-02 -1.42770648e-01 -1.49067357e-01 1.21843107e-02
      1.73697814e-01 -4.53873016e-02 -1.11438923e-01 1.23726435e-01
      -4.00534272e-03 -7.64309242e-02 -6.83719888e-02 -1.36103570e-01
      -2.68629372e-01 -5.57288229e-02 1.51361963e-02 -6.85044527e-02
      5.95892966e-02 -5.99926561e-02 -4.20980640e-02 -6.68512285e-02
      2.36883457e-03 1.06444247e-01 2.91389767e-02 7.19619542e-02
      5.38033880e-02 -2.33629961e-02 -8.90743881e-02 -9.78594497e-02
      -4.60792631e-02 -2.13711467e-02 3.22411656e-02 1.20780747e-02
      -1.30677953e-01 -6.54060543e-02 1.25415340e-01 -1.39974490e-01
      9.08431038e-02 9.52763204e-03 1.59932300e-02 -6.08129576e-02
      -3.35314833e-02 -2.04909936e-01 -3.16314138e-02 9.19469595e-02
      1.87011901e-02 -1.26511157e-01 4.18866426e-02 1.91782489e-02
      -7.68305957e-02 -1.23887680e-01 -1.28617033e-01 3.42794582e-02
      9.77618173e-02 -2.35345252e-02 -2.59030610e-04 -6.30218163e-02
      -2.36818299e-01 -1.95900649e-01 -1.72587410e-01 -2.52282530e-01
      -6.36879355e-02 -7.22719729e-02 3.51633765e-02 -3.06107104e-02
      -1.04445152e-01 -1.26272365e-01 -2.59735081e-02 -1.90218002e-01
      -4.49209921e-02 -3.20912972e-02 -1.31179884e-01 -1.55163303e-01
      3.37127261e-02 -6.90697646e-03 6.08953685e-02 -1.64734118e-03
      -1.38439283e-01 -1.30170122e-01 -2.17042357e-01 -1.23343080e-01
      -9.76099521e-02 3.35165113e-02 -2.11031422e-01 -1.20753020e-01
      -1.31811127e-02 -2.80905627e-02 -1.93581283e-01 -1.56713083e-01
      1.26318447e-02 -2.91157421e-02 1.20892776e-02 1.11354478e-02
      -2.04495750e-02 -2.25671336e-01 -1.63710147e-01 -1.57928064e-01
      -2.55286634e-01 -8.14672858e-02 -1.23078320e-02 4.39223945e-02
      -7.38739967e-02 -1.52055860e-01 9.47977509e-03 -1.35191992e-01
      1.08115003e-01 -1.17385194e-01 -1.57684252e-01 -7.53978342e-02
      -4.01290916e-02 -1.29395217e-01 -1.52803749e-01 -1.47994250e-01
      2.58082654e-02 -1.24779552e-01 3.25711668e-02 -7.53890276e-02
      -5.85183427e-02 -6.73222691e-02 1.58571033e-03 -2.00676560e-01
      1.08239144e-01 -2.25133728e-02 -9.41436365e-03 3.62932421e-02
      1.67014018e-01 5.45302071e-02 3.89803313e-02 6.99403062e-02
      -4.17558402e-02 -1.07532926e-01 -4.28350195e-02 5.59624285e-02
      -1.16867267e-01 -5.10588475e-02 5.07858805e-02 1.48415074e-01
      4.76959497e-02 8.45429003e-02 -1.29427128e-02 -2.89697349e-02
      2.69775782e-02 -6.74063293e-03 -9.76388305e-02 1.45802215e-01
      8.34078565e-02 -3.04403491e-02 -3.16051999e-03 -4.86719050e-02
      -2.18089893e-02 -1.33741181e-02 5.01533151e-02 -1.47793582e-02
      8.40185955e-02 3.88775021e-02 -1.97447911e-02 -8.56674761e-02
      4.44260950e-04 4.20782119e-02 4.57794666e-02 5.53407446e-02
      2.17477810e-02 4.69084717e-02 9.24918056e-02 -5.46504483e-02
      -2.10441183e-02 1.35538746e-02 6.81005269e-02 7.86070377e-02
      -1.97861329e-01 -7.62348548e-02 4.27271686e-02 3.88347218e-03
      7.29212314e-02 3.04967482e-02 5.79027459e-03 4.03972864e-02
      1.19111324e-02 -1.01266153e-01 -6.38490841e-02 -1.81024417e-03
      9.29617956e-02 -1.77044719e-01 -5.53999780e-05 3.85115966e-02
      -5.99504029e-03 6.76825866e-02 8.05296749e-03 -2.68983282e-02
      3.48344445e-03 -1.64812023e-03 -4.22837362e-02 1.37366086e-01
      -6.78479150e-02 8.68556276e-02 -1.01073738e-02 -4.92275432e-02
      -6.53498322e-02 -7.72121400e-02 -8.26079920e-02 3.49978879e-02
      -2.77766865e-03 -1.58271819e-01 -2.06623245e-02 -4.75630946e-02
      -1.06061444e-01 1.45919481e-02 -1.01318114e-01 1.04596047e-02
      4.46155173e-04 -1.10419497e-01 5.27348332e-02 -4.86655869e-02
      1.05667569e-01 6.89052567e-02 8.50510821e-02 7.26377666e-02
      -4.44761738e-02 -8.98178443e-02 -9.56569910e-02 1.11827731e-01
      1.57352522e-01 2.33085174e-02 -5.09870192e-03 2.75087915e-02
      -1.94519181e-02 2.24864222e-02 9.78240296e-02 1.40091971e-01
      -2.20833663e-02 7.28952512e-02 -8.95933956e-02 5.56601398e-02
      1.03472836e-01 -1.00804470e-01 6.01015128e-02 2.98383832e-02
      -3.47286393e-03 4.13343720e-02 4.53647412e-02 1.52914636e-02
      -4.63345423e-02 7.26081729e-02 -1.15485815e-02 3.69822793e-02
      2.01405883e-02 8.59893337e-02 4.16307673e-02 -3.38045061e-02
      8.36828649e-02 7.57657513e-02 7.31222853e-02 -6.93535283e-02
      -3.86457630e-02 -1.64034232e-01 1.80735178e-02 -4.07845452e-02
      7.54432231e-02 -2.23974660e-02 1.62163898e-02 5.13461269e-02
      -1.31166540e-02 -4.20119576e-02 2.30931398e-02 2.17852257e-02
      4.27115224e-02 2.43159924e-02 8.27739015e-02 -3.93452942e-02
      2.09035426e-01 -5.01570739e-02 4.29595448e-02 7.75096416e-02
      -3.60097736e-02 -7.48390257e-02 5.28130401e-03 -1.32802948e-01
      4.45301980e-02 2.16602180e-02 -4.47849743e-02 8.51138458e-02
      -1.73703060e-02 8.03001001e-02 2.42260899e-02 -7.22299283e-03
      1.23409711e-01 -9.58927199e-02 5.58929183e-02 2.69609578e-02
      -6.92038983e-02 -6.15568422e-02 -4.74945717e-02 1.89204551e-02
      -7.84868598e-02 7.16376491e-03 7.21349642e-02 1.54851675e-01
      7.17909215e-03 -1.65508129e-02 -9.05517638e-02 -3.88817396e-03
      7.77576789e-02 -3.33734192e-02 -6.98783472e-02 1.47268802e-01
      -3.97943221e-02 1.05506852e-01 8.39300901e-02 1.19002443e-03
      5.33808619e-02 -5.65722808e-02 4.00751792e-02 -2.63896938e-02
      -9.05470476e-02 -7.37193367e-03 4.64669131e-02 2.64709145e-02
      -9.13064033e-02 -3.97104397e-02 -2.88243387e-02 -2.78071985e-02
      -1.53164016e-02 -6.69728220e-02 -3.21636908e-02 -7.35726878e-02
      4.85991612e-02 1.30890114e-02 9.87893865e-02 5.66044301e-02
      2.76215170e-02 -1.03110289e-02 -5.84105551e-02 -1.44116357e-01
      -2.49265926e-04 -9.34438482e-02 -3.42738517e-02 -2.22274400e-02
      4.27750945e-02 -7.44567513e-02 1.44088715e-02 -8.35229550e-03
      -2.29239576e-02 2.38611400e-02 3.40517238e-03 -7.90520459e-02
      1.58711851e-01 -3.77011711e-05 -2.04950590e-02 -1.07362203e-01
      1.97610725e-02 6.38319319e-03 1.91392809e-01 5.55373579e-02
      -7.04663321e-02 8.17964077e-02 -3.00550386e-02 -1.27359986e-01
      -2.02627108e-02 -4.88167331e-02 -6.53595477e-02 -2.45626122e-02
      2.31024809e-02 -1.05683170e-02 2.96770921e-03 6.85401121e-03
      7.16016395e-03 9.00519080e-03 3.15320566e-02 9.98480394e-02
      -1.61818927e-03 5.88790961e-02 3.75151471e-03 -2.49449257e-02
      3.24705243e-02 5.91100156e-02 -4.05681916e-02 -1.34074623e-02
      9.86885056e-02 1.20401740e-01 3.27553637e-02 -8.69489387e-02
      5.00944778e-02 -1.79933254e-02 -2.83884611e-02 -2.89537292e-02
      -5.21200299e-02 4.83463332e-02 -1.60081610e-02 3.61140557e-02
      1.08934514e-01 1.21925678e-02 -1.87035538e-02 6.17456399e-02</_></support_vectors>
  <decision_functions>
    <_>
      <sv_count>1</sv_count>
      <rho>-2.9950407127633061e+00</rho>
      <alpha>
        1.</alpha>
      <index>
        0</index></_></decision_functions></my_svm>
</opencv_storage>
