<?xml version="1.0"?>
<opencv_storage>
<my_svm type_id="opencv-ml-svm">
  <svm_type>C_SVC</svm_type>
  <kernel><type>LINEAR</type></kernel>
  <C>3.8149999999999999e-06</C>
  <term_criteria><epsilon>1.1920928955078125e-07</epsilon>
    <iterations>1000</iterations></term_criteria>
  <var_all>1296</var_all>
  <var_count>1296</var_count>
  <class_count>2</class_count>
  <class_labels type_id="opencv-matrix">
    <rows>1</rows>
    <cols>2</cols>
    <dt>i</dt>
    <data>
      -1 1</data></class_labels>
  <sv_total>1</sv_total>
  <support_vectors>
    <_>
      2.26454358e-06 -5.40988594e-07 1.90979358e-06 1.51930783e-06
      4.65206494e-06 8.63346997e-07 1.88212653e-06 1.81691306e-07
      -1.41871271e-06 -7.29512431e-06 6.74427656e-06 -3.93246046e-06
      -5.36713799e-07 -3.81241784e-06 -2.55302825e-06 2.04680123e-06
      -5.09038409e-06 1.69357452e-06 5.39947251e-08 -9.13969359e-07
      1.01825640e-06 -1.87442492e-06 3.53794985e-06 -1.13291753e-06
      -5.39258872e-06 -4.99297948e-06 -6.76127797e-07 -2.24720316e-06
      -8.58028955e-07 3.27433054e-06 -5.09756001e-06 -3.54422627e-06
      -1.84474129e-06 1.07264640e-07 -1.87411229e-06 -2.72169018e-06
      8.42801398e-07 3.42704880e-06 -2.50852872e-06 6.40035637e-07
      5.73107354e-06 1.96026531e-06 1.85942292e-06 -2.02249953e-06
      -3.90232117e-06 -2.28767703e-06 -4.88650585e-07 -1.58820751e-06
      9.46902730e-07 1.83301324e-06 2.87042758e-06 -2.94678443e-06
      2.39333031e-06 5.43673741e-06 3.51658559e-06 -4.61551281e-06
      -3.95723362e-07 -2.97157908e-06 -7.87663396e-07 -1.73969255e-07
      1.85580961e-06 2.15757859e-06 6.00243936e-07 -1.80787924e-06
      1.33792241e-06 3.80341021e-06 3.48338858e-06 -1.46407285e-06
      5.65156881e-08 6.46585818e-07 -7.21809283e-06 -2.76033188e-06
      -2.27373380e-06 -2.31619697e-06 -7.50473816e-07 3.68295196e-06
      1.95887242e-06 -2.17719889e-06 2.80257905e-06 3.56326275e-08
      -1.82247368e-06 -5.41608415e-06 -2.94772985e-06 -4.02680917e-06
      -7.86676821e-07 7.30728107e-06 4.11693645e-06 -1.63327059e-06
      6.21105983e-07 2.47687694e-06 -5.65563653e-07 -1.29049113e-06
      3.90147716e-06 -3.79513517e-06 -1.50539188e-06 1.73800117e-07
      -2.03313812e-06 -9.96639528e-07 2.89056629e-06 -9.76892011e-07
      -8.69284577e-07 1.03631498e-06 -4.02093201e-06 -2.41841803e-07
      -2.31466834e-06 -1.09116672e-06 2.11519955e-06 -2.43538375e-06
      2.48993274e-06 -5.14012015e-07 -6.38026947e-08 -1.56949216e-06
      -1.56158251e-06 4.29761076e-06 4.85022883e-06 3.26449094e-06
      -4.71130221e-07 -2.21317896e-06 -4.93528023e-06 -9.86546524e-07
      -4.18512309e-06 -3.11587058e-07 -4.66637039e-06 2.63477318e-07
      -3.05312074e-06 6.33472325e-07 -1.01643991e-06 3.87122827e-06
      -1.36011204e-06 1.08703102e-06 1.78542166e-06 2.27496935e-06
      6.49048786e-07 3.18314665e-06 -2.65115773e-06 -1.23862890e-06
      4.12764985e-06 3.73711401e-07 -4.62138178e-06 4.19839034e-06
      1.78984169e-06 -4.44242943e-07 -3.68781411e-06 1.58562830e-06
      -3.86135935e-06 -2.59045783e-06 1.09450070e-06 2.09820269e-06
      -6.67457016e-07 1.98435896e-06 2.65915651e-06 -6.30890611e-07
      -1.43761724e-06 -4.12361169e-06 7.14420878e-08 -3.56142345e-06
      9.63553248e-07 4.93017694e-07 -1.00448153e-06 9.21372987e-08
      8.85956126e-07 -5.31864725e-06 -6.91491266e-07 1.49526261e-06
      -3.35731420e-06 4.09188658e-07 2.01021476e-06 -8.13605538e-07
      1.76444109e-06 1.42038334e-06 -2.65484891e-06 -4.09558061e-06
      -3.21839661e-06 4.10252505e-06 -6.86496605e-06 -6.38026540e-06
      -4.27625673e-06 4.10346138e-06 -1.35437574e-06 -1.76642664e-06
      6.86177032e-07 -7.86830299e-07 1.04248159e-06 -6.06396134e-06
      2.77469462e-06 4.85080318e-06 3.51407675e-06 -1.38347264e-06
      1.35809705e-06 -1.64043638e-06 -4.13256402e-07 1.33491824e-06
      -4.35572883e-06 5.81888298e-06 1.78229698e-06 4.03771480e-07
      -5.54613564e-07 -3.55914176e-06 1.77917983e-07 3.44705967e-07
      1.82707754e-06 4.94911546e-06 1.67585983e-06 -4.43116687e-06
      -1.47215781e-06 -6.72538079e-07 -3.28391070e-06 3.81022642e-06
      3.04275346e-07 1.95575103e-06 -2.73408659e-06 -6.31221667e-07
      -3.18980688e-06 1.05971912e-06 1.64752089e-06 -1.51486859e-06
      6.07803850e-06 -3.91601588e-06 -5.15202657e-07 3.52512870e-06
      1.65577387e-06 6.64047434e-07 5.77813671e-06 -3.06337506e-06
      2.11591737e-06 7.07478193e-07 2.54508905e-07 -3.33222692e-06
      -3.52584811e-06 8.57247642e-07 -2.94253459e-06 -2.16563831e-06
      -1.56145370e-06 -2.74093054e-06 -2.16586727e-06 4.61289943e-07
      2.59221883e-06 4.67964901e-06 1.46392540e-06 1.67188421e-06
      -2.77820982e-06 2.04509070e-06 -6.39541031e-06 -1.85026920e-06
      3.78829668e-06 -1.22000824e-06 2.72224293e-06 -8.20013042e-07
      -9.74262448e-09 4.64915786e-07 -4.13523594e-06 -1.99465671e-06
      -2.85697183e-06 -4.50946715e-07 -2.22594667e-06 -1.28242959e-06
      1.57650334e-06 2.79064602e-06 3.09032248e-06 -1.60158186e-06
      1.04755952e-06 -2.62899562e-06 -8.62631714e-06 -4.77531739e-06
      6.86787587e-07 2.17952515e-06 -4.48001720e-06 2.29530497e-06
      1.04346259e-06 -1.59903323e-07 2.63338779e-06 -3.76883941e-06
      -4.45221394e-06 -2.02471870e-06 -1.43544685e-06 2.78571451e-06
      -3.54363056e-06 1.33795368e-06 -4.62362777e-06 -4.89213744e-06
      -6.81296797e-06 -6.18259082e-06 -1.69923908e-06 -2.57985221e-07
      -9.16747126e-07 -5.28495275e-06 -4.29138908e-07 -5.53426935e-06
      -6.31754119e-06 -4.75438992e-06 -4.95348422e-06 -3.45079343e-06
      -4.32184635e-07 -1.71405452e-06 -3.85982958e-06 4.55422878e-06
      -7.59002069e-06 -4.23312713e-06 -1.97267718e-06 -1.99625720e-06
      -4.03566673e-06 8.43981297e-07 -4.66010579e-06 9.72332899e-08
      -3.90684909e-06 -4.03219110e-06 2.44928657e-07 -7.25197879e-06
      -4.06801701e-06 3.16040382e-06 -3.16276964e-06 -8.82723214e-07
      1.70900194e-07 -4.41240900e-06 1.11395457e-06 -5.65928804e-06
      -2.87357079e-06 -2.87795092e-06 1.52357825e-06 3.64636890e-06
      -2.55656323e-06 1.08438928e-06 -7.00104465e-06 -5.99197165e-06
      7.16586953e-07 -3.51960398e-06 -1.97490067e-06 -2.47247567e-06
      -1.60609670e-06 1.08995732e-06 9.43572275e-07 -6.65396419e-06
      -8.11433620e-06 -1.21055280e-06 -4.96539769e-06 -5.06750575e-06
      -1.88490264e-06 -6.56245618e-08 1.87999376e-07 -3.63932804e-06
      -8.82213772e-06 -8.16414922e-06 3.31621231e-06 -1.92649304e-06
      -3.08465110e-06 -1.05951847e-06 1.24253927e-06 -4.21486789e-07
      -9.16859051e-08 -3.76628327e-06 6.81581241e-07 -1.23757627e-06
      -1.71022361e-06 -2.64611549e-06 -4.34864069e-06 -8.71535065e-07
      -2.74931108e-06 -4.31187300e-06 -4.87863463e-06 -4.79814344e-06
      1.91231743e-06 1.11569287e-08 -2.18975197e-06 -1.37166194e-06
      -1.36226492e-06 -2.26462089e-06 -4.97673773e-06 -2.76971241e-06
      -2.03328455e-06 -2.63813331e-06 -6.19511411e-07 2.54205270e-06
      3.88285071e-06 8.00698956e-08 6.04280967e-06 -5.10134305e-06
      4.27082938e-07 -2.32796856e-06 5.62559194e-07 -8.50142897e-06
      -6.35150900e-06 -2.89875106e-06 -1.85194153e-06 -3.12930047e-06
      -8.99911811e-06 -2.07072776e-06 1.09034841e-06 -3.32007858e-06
      -2.74387412e-06 7.21258232e-07 -2.72778902e-06 -4.24174323e-06
      -1.74853858e-06 3.33425692e-06 9.12129792e-07 -1.30041110e-06
      -2.23798133e-06 -5.15915929e-07 3.46695344e-07 -1.84104158e-06
      3.78995583e-06 2.52870745e-06 4.30970340e-06 6.40507642e-06
      7.28766054e-07 7.36813092e-07 1.50799360e-06 2.86975933e-06
      -5.08216090e-06 7.35802769e-06 -4.11043928e-08 4.07945163e-06
      -1.25480187e-06 -1.19883384e-06 2.58792193e-06 1.15018929e-06
      7.37390394e-07 5.70470490e-07 -2.77479694e-06 -3.96260793e-06
      2.11225384e-07 -2.32304753e-08 -1.67169514e-06 2.62107301e-06
      2.50455514e-06 1.09843347e-06 2.38032698e-07 4.27594205e-06
      -1.34179663e-06 9.63321440e-07 -2.65444669e-06 -1.74257639e-06
      3.54043027e-06 2.50904486e-06 -6.28556154e-06 -3.51150516e-06
      1.16386639e-06 -5.59084924e-07 -1.00983425e-06 8.87282781e-08
      -7.12663280e-07 -1.98800626e-06 -1.70759620e-06 -3.35037362e-06
      -6.54726939e-09 2.02799285e-07 2.03085688e-06 -2.90336061e-06
      -4.63316292e-06 -3.76515072e-06 -3.64122684e-07 -1.21242294e-06
      -3.26174074e-08 -2.43290003e-07 -1.83315318e-08 -5.03024069e-07
      1.79726635e-06 7.88272928e-07 1.72469427e-07 -5.13023542e-06
      -2.69801239e-06 -5.01260820e-06 4.14350507e-06 -2.37704944e-06
      -1.22415986e-06 -2.84785028e-06 -5.78170011e-06 -4.18377385e-06
      -3.39661142e-07 -2.00846830e-06 -4.89150079e-06 -9.05483466e-06
      -4.03643389e-06 -4.70367104e-06 2.12660871e-06 -3.23422000e-06
      -2.62255958e-06 3.12252405e-06 -5.81933364e-06 -8.52035555e-06
      -4.57345277e-06 8.14371575e-08 -3.27907537e-06 6.42327961e-07
      1.37841269e-07 -2.44266349e-08 -1.38521079e-06 3.62448804e-06
      1.11693248e-06 -8.63745663e-06 -6.59257921e-06 -2.68003350e-06
      -2.21795517e-06 -2.62863887e-06 3.39756707e-06 -2.94794495e-06
      -3.44426780e-06 -1.26426642e-06 -4.85194596e-06 -2.42803412e-06
      -7.62389982e-06 -3.10301203e-07 -5.50538118e-07 -3.86327031e-07
      -3.36973426e-06 1.74825584e-06 3.28166834e-06 -4.33603418e-06
      2.64598111e-06 4.78865741e-06 1.20188713e-06 4.42174178e-06
      1.12441576e-07 2.41225257e-06 2.74200875e-06 5.30958857e-07
      6.79881339e-07 -7.97558300e-07 -5.64682125e-07 -3.03510797e-06
      3.91590993e-06 2.16773378e-06 -3.61428715e-06 -1.66448979e-06
      3.40410224e-06 -7.23161349e-07 2.52630139e-06 -3.10945370e-06
      1.39915940e-07 -1.65689846e-06 -5.33791365e-07 9.06180162e-07
      4.01843863e-06 4.35220227e-06 -3.99172677e-06 3.25261362e-06
      -1.77976219e-07 2.18217656e-06 1.79175993e-06 -3.76098484e-07
      4.36941946e-06 -1.50631377e-06 -3.54962452e-07 9.35498917e-07
      2.57992565e-06 -6.00891269e-07 2.32347406e-06 -4.69175177e-07
      3.04382615e-06 5.33726006e-06 8.31802765e-07 9.27098711e-07
      6.26454266e-06 1.84576720e-06 -5.25700352e-06 -1.74107981e-06
      1.35877224e-06 -1.15745934e-07 2.26417413e-07 -1.61670573e-06
      3.54576537e-06 -2.68251711e-07 3.23584231e-06 -4.39964680e-07
      3.90687546e-06 2.60569686e-06 5.16796035e-06 -1.35180198e-06
      -2.34309960e-06 -3.74196907e-06 -4.84268003e-06 1.45438992e-06
      -8.64525816e-07 -4.73604587e-06 -5.42798625e-06 -1.20270670e-06
      8.09431185e-07 6.75502463e-07 -2.66931170e-06 -1.52500093e-06
      2.94713823e-06 -1.03236232e-06 -1.14358691e-05 -1.86190346e-06
      1.79510243e-06 -5.44960994e-06 -2.13853104e-06 4.55901682e-06
      -1.80915981e-06 -5.21417540e-08 -7.70594670e-06 -5.85345242e-06
      -4.17689307e-06 -5.96190091e-07 7.75016815e-07 6.00983549e-06
      -5.35425670e-06 -4.73901491e-06 -1.99370606e-06 4.01638943e-07
      1.20918926e-07 4.97601661e-07 5.47078707e-06 1.40139662e-07
      -4.11396741e-06 -3.65808455e-06 -7.71583109e-06 -4.58411705e-06
      -4.48913761e-06 -2.37778025e-07 -3.71854799e-06 -6.20776063e-06
      -4.17724823e-06 -1.62281128e-06 2.96551707e-06 -7.70383167e-07
      2.73431647e-06 -9.30225951e-07 -7.42669954e-07 1.05616834e-06
      3.34675610e-06 -1.42950526e-07 -8.73516683e-07 1.16296036e-07
      2.24327073e-06 1.37169718e-06 -1.63181926e-06 -3.86011652e-06
      -1.93498454e-06 5.28781266e-06 -1.21265728e-07 7.11277153e-07
      1.74372974e-06 4.08306323e-06 3.62934725e-06 2.06401660e-06
      -1.65746530e-06 2.12339341e-06 5.26277245e-06 4.32218758e-06
      -1.31731872e-06 8.72767544e-07 -3.50256983e-06 3.76192111e-06
      3.94023391e-06 5.52237168e-07 -3.08244535e-06 1.86110776e-06
      -5.66105382e-06 -1.65744757e-06 3.67491020e-06 -2.73741148e-06
      3.46043339e-06 -2.74745594e-06 -2.86620298e-06 -3.43518423e-06
      1.88933382e-06 -1.00386607e-07 1.85740259e-06 7.32080139e-07
      -1.26071632e-06 7.77859555e-07 2.28770728e-06 3.02857757e-06
      -1.49843302e-07 3.19480660e-06 -4.00021054e-06 -4.55904825e-07
      6.53798725e-06 -3.95256450e-07 1.92746552e-06 1.65206853e-08
      3.50274672e-06 1.66265249e-06 -7.89638364e-07 -3.69372287e-06
      -8.60689056e-07 2.73259366e-06 -7.26317921e-08 -2.36826267e-07
      1.48116965e-06 -1.35965615e-06 -2.95930272e-06 2.39320542e-07
      -4.36338996e-06 -7.42763177e-07 -1.22454821e-06 -3.94974722e-06
      -5.99783380e-06 -7.82468851e-06 -4.47950151e-06 -2.89973354e-06
      -1.32159937e-06 1.10798101e-06 2.23524125e-06 1.29076898e-06
      -1.18204844e-06 -5.51774474e-06 -3.05717981e-06 2.06471032e-06
      -1.05078266e-06 -1.68727524e-06 6.39423945e-07 -6.51334676e-06
      -3.84498162e-06 -3.92994389e-06 1.82913197e-06 -1.92534071e-06
      -7.81225026e-06 -7.76769184e-07 -1.08099971e-06 2.89874356e-06
      -6.89181570e-06 1.06380674e-06 -5.47174352e-07 -4.73169439e-06
      -7.70219503e-06 -8.83526809e-06 -4.65236644e-06 -1.23579196e-06
      -3.11394069e-06 1.05597348e-06 6.03191756e-06 -9.87426938e-06
      4.75207344e-06 5.41796112e-07 6.47725437e-06 1.65352367e-06
      -3.91351205e-06 -1.09987286e-06 -1.04720391e-06 1.99212400e-06
      2.68520444e-06 1.02709760e-06 -4.79466871e-06 2.13634348e-06
      4.78481127e-07 -2.97171528e-06 1.28681577e-09 2.97785641e-06
      -2.50730068e-06 3.96905705e-07 -1.44594344e-06 1.72140278e-06
      -5.08680432e-06 -3.65303617e-06 2.48777678e-06 2.24420478e-06
      3.24467578e-06 2.11810220e-06 6.66048254e-06 4.14750002e-06
      -1.85907015e-06 2.30335218e-07 -1.50446260e-06 4.83586746e-06
      -2.39306428e-06 -2.37667996e-06 -4.28735802e-07 -2.50935045e-06
      6.84682209e-06 -7.32106912e-07 -2.32773505e-06 -2.20630326e-07
      -1.36333279e-06 -1.24455551e-06 -2.05551305e-06 5.52461074e-07
      2.16680132e-06 5.81341567e-07 -1.58846331e-06 -1.65096708e-06
      -1.86462216e-06 7.64616652e-06 -1.29568321e-06 -1.42108729e-06
      -1.85052670e-06 -2.63015500e-06 2.06789491e-06 -3.34507763e-06
      -1.56337069e-06 2.56380281e-06 2.16995818e-06 -1.18344883e-06
      -4.23772053e-06 -8.49480784e-06 -3.27618636e-06 -5.88759917e-07
      -1.38437815e-06 2.22702283e-06 -6.10291579e-07 -3.22422437e-07
      5.59669115e-06 1.67693281e-06 -6.24311838e-07 4.45063461e-06
      8.61191495e-07 -5.25708947e-06 -8.50711149e-06 3.09823736e-06
      -5.69533199e-07 -1.79113454e-06 -1.27566670e-06 1.27033422e-06
      -5.83600126e-07 -8.59960892e-06 -1.39734368e-06 -4.01954458e-06
      4.82534290e-07 -5.14357453e-06 1.77501749e-06 -2.01847661e-06
      -6.67258246e-06 -8.06906701e-06 -1.47208084e-06 1.85841429e-06
      5.94867834e-06 1.86167540e-06 -1.80480481e-06 -2.03043874e-06
      -1.82089468e-06 -6.84443239e-06 -4.16659168e-06 -3.64645393e-06
      -1.79383869e-06 -2.39803330e-06 -5.78552272e-06 -4.48499986e-06
      -1.53101496e-06 1.71402121e-06 -1.82242457e-06 8.71410407e-07
      2.23483809e-07 -4.85171029e-07 1.16025353e-06 -5.69132453e-06
      -1.37263180e-06 1.03139348e-06 -1.17823583e-06 -8.37938146e-08
      2.30889850e-06 -2.43802987e-07 -2.60737721e-07 -1.75913669e-06
      -1.74083641e-06 4.80451831e-07 -8.10489951e-07 6.01374495e-06
      2.10261373e-06 -1.77763536e-06 3.87141000e-07 4.98428108e-07
      2.82735164e-06 -3.00603972e-07 9.26695293e-07 -2.65448534e-07
      -4.60958563e-06 -6.11300584e-06 -9.65925210e-07 2.00024465e-06
      4.57039778e-06 1.40732368e-06 4.38786583e-06 3.21897323e-06
      -5.28414205e-07 4.05092078e-06 7.68386712e-07 -8.00874375e-07
      -1.62244851e-06 1.24515168e-06 -2.91658949e-07 4.64902172e-07
      7.52938547e-07 -2.79717915e-06 -2.42419173e-06 -1.96971700e-06
      1.88723476e-07 3.17617196e-06 -4.99485679e-07 2.08270535e-06
      6.09409881e-07 9.69266580e-07 -3.45876015e-06 4.42312239e-06
      9.36069227e-07 1.22489894e-06 2.77952631e-06 7.64719573e-07
      -8.05817024e-07 2.28631575e-06 -3.71522077e-07 -2.01578405e-06
      -3.12305906e-06 1.35221546e-06 -1.81193485e-07 1.44595549e-06
      -2.23235793e-06 2.56468957e-06 -8.08390269e-07 -4.68036524e-06
      3.38954919e-06 3.85846170e-06 1.35132825e-06 2.23005964e-06
      -1.64049061e-06 -3.72587419e-06 -2.29101715e-06 3.88214903e-06
      4.61828404e-06 -3.00158604e-06 -5.29912586e-06 9.02500346e-07
      -1.53364897e-06 -1.09436985e-06 -5.26802978e-06 -6.93620677e-06
      -6.98886060e-06 -5.27177008e-06 2.77680579e-06 1.52537109e-06
      2.12315754e-07 -4.56606222e-06 -2.77002556e-07 -4.73914810e-07
      1.59158208e-06 -8.42582494e-07 2.71230260e-06 2.09522113e-06
      1.61340063e-06 5.85550197e-07 -4.78134268e-07 -4.78908260e-06
      3.29853583e-06 1.38835094e-06 2.28402371e-07 -3.64222410e-06
      -6.34341814e-06 -3.22460983e-06 6.53708321e-06 -5.53055258e-07
      2.70822716e-06 -9.29553096e-07 -6.01193824e-06 -4.00602903e-06
      1.62631147e-06 -3.81082850e-06 -8.84971723e-06 1.17170111e-06
      3.33230832e-06 -3.43972897e-06 -4.57386079e-07 -2.71266714e-07
      -6.25143321e-06 -7.62815625e-06 -1.20715595e-06 -1.54517215e-06
      2.80805989e-06 -5.43744954e-06 -2.08633787e-06 -6.89412161e-07
      -7.49327228e-06 -6.66737969e-06 -4.81882989e-06 -3.11268127e-06
      -6.72129408e-06 -2.43363365e-06 -2.60085540e-06 -1.96770111e-06
      -5.20893673e-06 -3.95979396e-06 -2.28049294e-06 -8.65376569e-06
      -2.81860457e-06 1.67420455e-06 9.61664341e-07 -1.27242708e-06
      1.30998998e-07 7.98905148e-07 2.00585578e-06 1.10537417e-06
      -6.29643819e-06 -6.37531275e-06 -3.45726858e-06 -5.05067510e-06
      -4.23421397e-06 8.12589462e-07 -1.64733308e-06 -3.68373640e-06
      -6.18249487e-07 8.66969401e-07 -9.74205341e-06 -3.94456447e-06
      -2.12245322e-06 -3.75785589e-06 -2.96047773e-07 -2.99801718e-06
      -2.69226439e-06 -2.62514664e-06 -6.70202598e-06 -4.79188930e-06
      -4.53403663e-06 -3.45974377e-06 -2.88215665e-06 -2.52430505e-06
      -5.47538139e-06 -4.16098783e-06 2.14733200e-06 -5.37094911e-06
      3.92162883e-06 -2.05321157e-06 -8.17964883e-06 -2.15316027e-06
      6.15691022e-07 -2.20662386e-07 -3.59345427e-06 -4.79341907e-06
      -4.00051420e-07 -7.10256359e-07 -2.58924331e-07 -7.70380325e-07
      -1.85516296e-06 -2.51539132e-06 -7.14931616e-07 -1.42133501e-06
      3.42885596e-06 3.30230932e-07 3.33185085e-07 4.05073388e-06
      2.78037135e-07 2.58407727e-06 1.44930891e-06 6.18307331e-06
      -3.80173401e-06 -4.61733362e-06 2.55229133e-06 -1.50675919e-06
      -3.08380322e-06 4.69297083e-06 1.40529619e-06 3.63749791e-06
      5.19225523e-07 1.89989089e-06 -7.39741893e-07 -6.55157692e-06
      -3.47132163e-06 -4.51097975e-07 -3.11582767e-06 4.28237541e-07
      1.64708365e-06 6.61541094e-07 -1.20344214e-06 -4.31129502e-06
      3.70807879e-06 -1.73343471e-06 2.95192740e-06 5.31282376e-06
      8.88080592e-07 -4.37937331e-07 -2.00554587e-06 -2.55127793e-06
      3.77725337e-06 2.96003691e-07 4.31763056e-06 4.89182503e-06
      8.45951831e-07 -1.29478644e-06 -3.29869931e-06 1.99840838e-06
      1.21789083e-06 -4.75272088e-07 -4.22980037e-07 5.13965631e-07
      -4.82809719e-06 -1.57220438e-06 -3.33199546e-06 -1.83334271e-06
      -2.98297103e-08 4.79224411e-07 -1.41499333e-06 -1.02917977e-06
      -3.60789659e-06 -2.50530775e-06 -6.01557304e-07 -6.05174819e-07
      6.45099135e-07 -2.34329514e-06 -2.16901981e-06 -1.01352896e-06
      4.70086235e-07 2.31569766e-06 -1.86976240e-06 -4.15099476e-06
      4.89780575e-07 3.64743778e-06 -1.19079715e-07 3.08306289e-06
      -1.13300268e-06 -9.97792569e-08 -7.72531106e-09 2.50390167e-06
      2.70593569e-06 9.98719202e-07 3.01636334e-07 6.25635721e-07
      5.36413950e-07 -7.19672357e-07 -1.21285234e-06 5.19863590e-07
      -3.81033760e-06 4.08529360e-07 5.55381177e-07 -2.30625710e-06
      -6.95785729e-07 -2.87388161e-06 -1.84744988e-06 -2.16115973e-06
      -5.66151641e-07 -1.34950653e-06 3.80385563e-06 4.76643754e-06
      -9.42559268e-07 -3.24914231e-06 -2.77735626e-06 -2.67398332e-06
      -7.60806017e-07 -1.58279511e-06 -1.64407390e-06 -1.04313096e-06
      9.59186764e-07 7.61527019e-07 4.55083273e-06 3.24948610e-06
      -3.07490473e-06 -1.13312524e-06 2.75247839e-06 1.22157383e-06
      1.06552670e-06 9.53880885e-07 1.10510950e-06 -3.11528470e-06
      -8.35535559e-07 2.39657538e-06 5.29272620e-06 -3.15645389e-06
      -8.93856225e-08 1.22112885e-06 1.53632755e-06 1.59272236e-06
      5.73567789e-08 -1.20659820e-06 1.62930860e-08 5.90275135e-07
      1.41644216e-06 3.77667629e-06 1.32025650e-06 -2.80151517e-06
      2.74550388e-07 -5.97168173e-06 -7.61312208e-07 -1.72298735e-06
      8.23971050e-07 7.22603772e-07 2.42156239e-06 -1.40444661e-06
      -2.48543620e-06 -2.05033371e-06 2.39526094e-06 -1.10168389e-06
      1.92380192e-08 3.76760340e-06 1.43556508e-06 -2.43142085e-06
      5.25742871e-06 -6.53134236e-07 -3.60070044e-06 3.92764559e-06
      3.47087075e-06 -3.27384942e-06 3.79389394e-06 -2.94110964e-06
      1.83542511e-06 -8.29993496e-07 -3.92993979e-06 3.34668425e-06
      -1.26297666e-08 -9.14919781e-07 1.31052320e-06 -2.33316928e-06
      1.90489720e-06 -2.80413201e-06 3.85565954e-06 -2.59484955e-06
      -3.96314863e-06 -2.21203413e-06 -2.54701899e-06 2.74837885e-06
      7.04610693e-06 2.31554236e-06 -7.04628235e-07 1.14954148e-07
      -4.67166615e-07 -6.55218219e-06 7.39292091e-07 4.25757707e-06
      4.07051357e-06 -6.13166003e-06 1.64049777e-06 2.23678012e-06
      3.41121427e-06 1.10699602e-06 4.65941639e-06 -4.20087218e-07
      4.33206378e-06 -1.84416217e-06 1.64526625e-06 -2.35153493e-06
      3.53228671e-07 -2.56113344e-06 -6.96089302e-08 -1.34171080e-06
      -1.41739235e-06 -1.56902297e-06 3.37960216e-07 -4.72426080e-07
      2.08182769e-06 6.93536393e-08 2.40966619e-06 -1.16362185e-06
      6.73367322e-06 3.73320222e-06 4.88871092e-06 -3.81737294e-07
      1.43405066e-06 -2.11834868e-06 4.95705990e-06 -1.17710192e-06
      6.63426135e-07 -3.41862074e-06 -3.33199591e-06 -1.87345358e-06
      1.37539735e-06 2.71263343e-06 7.28315626e-07 -6.05655543e-07
      7.84089707e-07 4.55331838e-06 2.94967833e-07 -6.76495063e-07
      3.69800932e-06 -1.58100065e-07 -1.31319359e-06 3.37390929e-07
      3.04905166e-06 3.45534113e-06 7.34811692e-06 1.07217062e-07
      -6.59880072e-07 -1.18943046e-06 -3.00633997e-06 -2.36566370e-06
      2.37489871e-06 -1.81163685e-07 -1.55975715e-06 -4.03389379e-07
      1.74316972e-06 -2.94941970e-06 -1.66277528e-06 3.77101173e-07
      -5.84503709e-07 -1.73623800e-06 2.85885153e-06 7.03635897e-06
      -4.05833731e-07 7.68666553e-07 1.74738182e-06 -2.19434696e-06
      8.61419721e-07 6.17097555e-07 -1.33069818e-06 2.41203065e-06
      3.16266255e-06 -1.68731299e-06 9.27173573e-07 3.72516553e-07
      9.95565642e-07 1.14305271e-06 -3.05732078e-06 2.40123086e-06
      -3.27667703e-06 1.67076655e-06 2.62854087e-06 3.22271785e-06
      -1.29655280e-06 1.13393810e-06 4.91123728e-06 1.19210029e-06</_></support_vectors>
  <decision_functions>
    <_>
      <sv_count>1</sv_count>
      <rho>-1.2139075205069849e-04</rho>
      <alpha>
        1.</alpha>
      <index>
        0</index></_></decision_functions></my_svm>
</opencv_storage>
