<?xml version="1.0"?>
<opencv_storage>
<my_svm type_id="opencv-ml-svm">
  <svm_type>C_SVC</svm_type>
  <kernel><type>LINEAR</type></kernel>
  <C>3.8149999999999999e-06</C>
  <term_criteria><epsilon>1.1920928955078125e-07</epsilon>
    <iterations>1000</iterations></term_criteria>
  <var_all>1296</var_all>
  <var_count>1296</var_count>
  <class_count>2</class_count>
  <class_labels type_id="opencv-matrix">
    <rows>1</rows>
    <cols>2</cols>
    <dt>i</dt>
    <data>
      -1 1</data></class_labels>
  <sv_total>1</sv_total>
  <support_vectors>
    <_>
      -2.94242841e-06 -3.18532898e-06 2.63216657e-06 -2.50394555e-06
      -1.05241486e-06 2.42084717e-08 3.34103424e-06 7.17424541e-07
      5.00221304e-08 -3.98320253e-06 1.80147720e-06 -2.04196817e-06
      -4.77676849e-06 3.41847340e-06 -4.76600803e-07 3.32066338e-06
      -3.15262719e-06 3.71093120e-06 5.49593551e-07 6.42144869e-07
      -1.38423815e-07 -1.44732678e-06 -7.68098573e-07 1.30592025e-06
      -5.05025946e-06 -1.98251814e-06 2.08563029e-06 1.90994706e-06
      3.76179855e-06 7.55898554e-07 -5.22746120e-07 -1.53107351e-06
      -9.81293283e-07 1.34140009e-06 -6.87514543e-08 -2.98800910e-06
      -1.66937838e-07 -1.74540446e-06 -1.37272878e-06 -2.97219685e-07
      3.36330777e-06 1.52612790e-06 5.70974817e-06 8.33573893e-07
      -2.07159201e-06 1.26563111e-06 4.21471924e-07 5.87282011e-06
      2.24454675e-06 8.09959147e-07 5.04345962e-07 -2.89008403e-06
      2.28672729e-06 1.49971822e-06 -9.61857040e-07 -2.52057271e-06
      5.37339929e-06 -1.43285106e-07 -2.59506987e-06 -7.57229202e-07
      2.96874873e-07 2.15384284e-06 9.75219336e-07 4.47868479e-06
      -6.29008355e-07 6.28241025e-07 -1.23312429e-06 6.31411865e-07
      1.04610166e-07 1.24587007e-06 -3.21201196e-06 -3.52580059e-06
      3.34861909e-07 -4.45451633e-06 2.57601300e-07 1.86505008e-06
      4.81641564e-06 6.09747474e-07 2.13049339e-06 -1.69578118e-06
      4.34073712e-07 1.97172699e-06 -5.22580922e-06 3.67064501e-07
      1.30103706e-06 2.20219889e-07 -3.56633535e-07 -1.29666887e-06
      -3.52235952e-06 1.98843054e-06 3.52569577e-06 -6.54277642e-07
      1.10238670e-05 -1.66342829e-06 -3.89033403e-06 1.41682801e-06
      -2.76224966e-07 4.28272688e-06 4.48137325e-06 -8.49167179e-07
      -9.19670754e-07 1.25070721e-06 -9.53605024e-07 -2.78570747e-06
      -5.04740501e-06 3.44806085e-06 -5.85671444e-07 -4.37553567e-08
      1.18372975e-06 2.36139783e-07 -5.50493894e-07 -8.42862988e-08
      -1.62000833e-06 3.82125745e-06 5.97494727e-06 -1.62480649e-06
      -4.61581612e-06 -2.26111774e-06 -2.29820375e-06 -7.02928446e-07
      -3.32891614e-06 1.16695833e-06 -2.52495329e-06 5.42414364e-06
      -1.52210077e-06 3.50482878e-07 3.35031859e-06 -1.15416846e-07
      3.18882553e-06 3.75842569e-06 -2.11499514e-06 -2.76314353e-07
      5.21364109e-06 -2.07246202e-07 1.41088321e-06 -4.42460077e-06
      9.61532464e-07 2.35296625e-06 -4.49119534e-06 -2.43477598e-06
      -2.18182663e-06 -2.57185519e-07 -1.19699735e-06 3.15278430e-06
      8.92494143e-07 5.06678089e-06 6.27086479e-07 1.08345341e-06
      -2.42208353e-06 -3.37518067e-08 3.12377824e-06 5.72872705e-06
      -3.23435711e-06 -4.78253514e-06 7.14633302e-07 -4.75157975e-07
      7.56527569e-08 1.72606281e-06 -1.03368393e-06 9.44113424e-07
      -8.04616889e-07 -3.60865465e-06 -2.62346794e-06 -5.32924787e-07
      -2.61652281e-06 2.19872800e-06 1.57813918e-06 -2.32658908e-06
      3.04556039e-07 2.19716981e-06 -2.46713512e-06 -4.25480539e-06
      -4.08720189e-06 1.85989990e-07 -5.06126389e-06 3.95187470e-07
      -6.83145743e-07 4.10583516e-06 -2.58767864e-06 -4.90808816e-06
      -1.64183621e-06 -1.06956895e-06 -2.48181300e-06 -5.48519620e-06
      -3.08982806e-07 4.40928807e-06 2.61871787e-06 -1.93568121e-06
      1.19190338e-06 4.59151033e-06 -2.45671504e-06 -1.47582875e-06
      -3.87153887e-06 4.13481803e-06 5.21194750e-07 -1.83795362e-06
      -2.79460869e-06 4.77641265e-07 3.28537226e-06 3.44400132e-06
      5.65317123e-06 1.02273339e-06 1.15443538e-06 -2.63968695e-06
      1.54626275e-06 -4.40585417e-08 -1.62545791e-06 2.86391332e-06
      -3.24776852e-06 -2.12320288e-06 -1.04390176e-06 -4.41286466e-06
      -1.50610759e-07 3.23782160e-06 1.12067187e-06 8.09619337e-07
      2.09034806e-06 -3.76067965e-06 -5.05959690e-07 2.22129256e-06
      -1.22645042e-06 4.09793392e-06 4.62957723e-06 -3.57363388e-06
      -3.20248341e-06 -1.95668645e-06 -2.08777763e-07 -3.94989684e-06
      -8.59773024e-07 1.30660487e-06 -3.49059974e-06 -5.71203191e-06
      -7.02031002e-08 -3.37838196e-06 -2.21714890e-06 4.37701328e-06
      7.82839038e-07 3.08044832e-06 1.20014556e-06 -1.12547843e-06
      -4.52644963e-06 -1.87050853e-06 -1.23061113e-06 8.54758014e-07
      2.43651152e-06 2.51544157e-06 -8.66202541e-08 9.90302965e-07
      -5.07584991e-06 -3.14830515e-07 -2.17678121e-06 -1.07634162e-06
      3.02265607e-06 8.28036377e-07 -1.14911654e-06 2.71244886e-07
      3.48624371e-06 2.83966392e-06 -2.03319519e-06 -3.07630685e-08
      2.90151866e-06 -2.26427960e-06 -5.00507531e-06 -5.20858521e-06
      2.38614575e-06 -4.43208506e-07 -3.81125960e-06 2.16621925e-06
      -2.79703636e-06 5.79176003e-06 2.69026395e-06 -7.58831447e-07
      -3.27070074e-06 -4.30659702e-06 -3.08159815e-06 -1.66831427e-07
      1.90359492e-06 3.37506685e-06 -1.87010741e-07 -2.51826486e-06
      -8.06553635e-06 -6.22498874e-06 -4.88353407e-07 -1.34683637e-06
      -1.00815600e-06 -3.45092258e-06 -3.73105786e-06 -5.17843716e-07
      -7.64411107e-06 -4.18919717e-06 -2.04040634e-06 -3.76729417e-06
      -3.82902641e-07 -3.63072331e-07 3.06080415e-06 2.69858060e-06
      -6.83356484e-06 -5.49585002e-06 -5.87495151e-06 -3.40463589e-06
      -1.15031082e-06 -2.96998138e-07 -8.78775063e-06 -1.74574211e-06
      -5.30499892e-06 -3.48221715e-06 -2.88960251e-07 -6.28939097e-06
      -1.16616820e-06 2.51224287e-06 -2.89609261e-06 -2.07466587e-06
      -5.54936889e-07 -2.44903754e-06 1.00437808e-06 -6.51581377e-06
      -2.21943037e-06 -4.45825617e-06 -4.77857657e-06 3.70942212e-06
      -2.04532444e-06 1.47725544e-07 -7.92194533e-06 -2.73986848e-06
      -5.68694759e-06 -6.04913248e-06 -9.74093041e-07 -1.94558675e-06
      1.62685626e-06 4.36200281e-07 -2.41267617e-06 -6.23948245e-06
      -5.91389608e-06 -5.06819060e-06 -2.52446921e-06 -2.05839751e-06
      -4.87965872e-06 -4.04052145e-07 -3.06624725e-06 -6.64738900e-06
      -4.71572594e-06 -4.68136795e-06 -1.44554508e-06 3.13680033e-07
      -7.96894540e-07 2.03677530e-07 -1.00879117e-06 2.65025915e-06
      2.23812734e-07 -8.06865046e-06 1.06731920e-06 -5.30806756e-06
      -5.60289983e-08 -1.22176095e-06 -5.96339805e-06 4.54194861e-07
      -2.60680940e-06 -4.40234589e-06 -4.21646655e-06 -6.81895244e-06
      2.40690997e-06 -3.47392756e-07 -5.72997851e-06 -1.54225472e-06
      -9.87772637e-07 -4.99027912e-08 -1.75231980e-06 -1.11725421e-06
      3.15914207e-07 -1.12041732e-06 -2.02647129e-06 1.60747675e-07
      1.42162651e-06 4.97799056e-06 4.00579256e-06 -8.61075023e-06
      -3.00188208e-06 2.17461661e-06 -3.29779914e-06 -2.42250735e-06
      -3.95777852e-06 -4.56489352e-06 -5.56146574e-07 -1.23486927e-06
      -4.70273153e-06 -2.66731558e-06 -3.80531310e-06 -7.35631465e-06
      -1.73588785e-06 -9.48269019e-07 -8.46600869e-07 -2.88640240e-06
      -1.09593839e-06 -3.78022310e-06 -3.55264910e-06 4.54888686e-06
      -3.13769760e-07 1.32414641e-07 -1.73281205e-06 -3.16674982e-06
      2.95484620e-06 -3.18996945e-06 1.48263166e-06 -2.06927371e-06
      -3.49432162e-06 -5.02265311e-06 -5.23964673e-06 2.85783972e-06
      4.86599454e-08 2.97975021e-06 6.06806589e-06 1.11621534e-06
      -1.12877649e-06 -6.94188770e-07 3.22971232e-06 8.96003314e-07
      -2.46599348e-06 -6.24495613e-07 -1.57416605e-06 -4.32645493e-06
      -2.81739335e-06 -5.41410418e-06 -1.00346142e-06 -1.43390400e-06
      3.91587764e-06 -1.96403926e-06 -1.15072112e-06 4.21700065e-07
      -8.02583202e-07 2.90856406e-06 1.75581999e-06 2.95988229e-06
      4.10949315e-06 8.05958166e-07 -3.16829937e-06 -3.18607908e-06
      1.37895620e-06 -3.37308484e-06 -4.59516468e-06 1.74921843e-06
      8.17189573e-07 -7.37192124e-07 6.88152340e-07 3.08882562e-07
      -1.68287772e-06 2.27144301e-06 -1.25200950e-06 -5.38424774e-06
      -2.15769114e-06 -8.41238375e-07 -1.15932301e-06 6.10492680e-06
      3.45250623e-06 -1.90005903e-06 1.98799421e-06 1.08873769e-06
      1.81075123e-07 -2.53739177e-06 -3.26626673e-06 -7.68610676e-07
      -1.21139567e-06 -4.41996235e-06 -5.08719147e-08 -5.44068962e-06
      -4.44897887e-06 9.24653307e-07 1.72147463e-06 -2.83209010e-06
      -2.49733989e-06 1.05071808e-06 -5.37777396e-06 -8.02357681e-06
      -1.58138698e-06 -1.96413134e-06 1.55918929e-06 -1.78840116e-06
      1.60167110e-06 1.37510551e-06 -3.68999736e-06 -9.96705148e-06
      -5.04326317e-06 2.07545682e-07 -3.10729615e-06 1.08899690e-06
      -5.05379035e-07 -5.02774071e-07 -3.53961309e-06 2.37301310e-06
      1.59478333e-07 -7.21431206e-06 -5.01122258e-06 -3.61181765e-06
      -4.65281300e-06 -7.80585822e-07 -2.47562457e-06 2.96071168e-08
      -3.47729178e-06 -3.24843995e-06 -5.76493676e-06 -2.46808759e-06
      -2.58802714e-07 1.23519851e-06 4.96359735e-06 -2.17575334e-07
      -1.27264593e-06 3.02436297e-06 2.00182129e-07 -9.55127462e-07
      -1.15459579e-06 7.23946414e-06 3.92107040e-06 1.63132722e-06
      -1.58528758e-06 3.27326120e-06 3.31989418e-06 -1.64557287e-06
      -9.52398182e-07 -1.01992995e-07 -2.11920565e-07 -4.58705301e-07
      1.02853483e-06 3.28113947e-06 -2.52290107e-07 1.21850735e-06
      2.58143950e-06 -3.60730564e-06 6.20906860e-07 1.62665259e-07
      1.77673724e-06 -1.27843691e-06 2.28966564e-06 2.71766748e-06
      1.71010481e-06 5.38035181e-07 -1.80996267e-07 6.83109647e-06
      -5.56437158e-07 -1.41914302e-06 2.02582396e-06 -2.28247586e-06
      5.83904557e-06 3.25005863e-06 -3.25612973e-07 -1.19484241e-06
      3.84217947e-06 3.12333714e-06 -1.81287260e-06 -5.30881425e-06
      3.26588724e-06 5.44503837e-06 1.85442659e-07 5.72890201e-07
      3.12228576e-06 2.46944614e-06 -7.22237428e-06 -2.55413079e-06
      5.55234749e-07 2.34516642e-06 -3.07076493e-06 -5.45222747e-06
      6.44799729e-06 -4.25408280e-06 7.57144221e-07 2.77087196e-07
      4.73320051e-06 1.95193707e-06 1.35970970e-06 2.09611881e-06
      -2.03242939e-06 -5.94476478e-06 -2.78086668e-06 3.12703310e-06
      -2.05833135e-06 -3.48726599e-06 -7.38406698e-07 -3.32091918e-06
      -9.62641820e-07 -5.53720429e-06 9.64976834e-07 -2.36667006e-06
      1.22288759e-06 -7.77793139e-06 -7.15219448e-06 -6.64743629e-06
      2.50725566e-06 -5.01780323e-06 -3.63110030e-06 2.08894744e-06
      -4.30019054e-06 -4.70919076e-06 -9.07860976e-06 -1.20745563e-05
      -3.91283857e-06 -1.68331997e-06 2.54867723e-06 1.11400675e-06
      3.45797929e-07 -1.51422830e-06 -1.44111436e-06 3.37232442e-09
      9.96662266e-07 1.81022313e-06 6.79381219e-06 1.04615970e-06
      -2.50419816e-06 -4.78671700e-06 -1.64426615e-06 -5.14184603e-06
      -9.54272036e-06 -5.05771550e-06 -2.63046104e-06 -3.74852971e-06
      -5.17687749e-06 -4.59111152e-06 1.56744454e-06 6.00600572e-07
      1.31885611e-06 5.47805570e-08 -2.24553574e-07 3.21361995e-07
      1.25167361e-07 -4.05412356e-06 -2.95687164e-06 1.56246256e-06
      1.49828350e-06 9.62471631e-07 -3.65514438e-06 -2.07331118e-06
      -1.45010210e-06 6.96616735e-06 -4.55292775e-06 1.22736935e-06
      1.59191018e-06 3.47016794e-06 4.42478586e-06 2.50272751e-06
      1.16226352e-06 4.09257154e-06 8.21173501e-07 5.83145209e-07
      4.90185528e-07 2.18934997e-06 -3.49439165e-06 -1.03218895e-06
      2.41150315e-06 2.15543605e-06 6.27083125e-07 1.22583299e-06
      -4.11650404e-07 -3.54238477e-06 1.49597429e-06 8.05487659e-08
      -4.02510295e-06 -4.62451726e-06 -3.05221920e-06 -2.63528227e-06
      1.16710112e-06 -3.03710203e-06 -2.73870410e-06 2.11426709e-07
      -6.25547329e-07 -2.24052906e-06 -6.93211291e-07 2.99783392e-06
      -4.83277745e-07 3.12593983e-07 -1.07793724e-07 6.49081713e-08
      -5.40166297e-07 5.42557537e-08 -1.77164497e-06 -1.48278912e-06
      6.51059054e-06 3.62076366e-06 -2.47868661e-06 -4.61536320e-06
      4.69857241e-06 2.61551827e-06 9.56285220e-08 -2.90018716e-06
      -3.11296077e-07 -2.89492186e-06 2.88372746e-07 -2.08181427e-06
      -1.62958042e-06 1.51953770e-06 -7.07416802e-07 -5.05507387e-06
      -6.81033634e-06 -7.82938787e-06 -5.31793739e-06 -2.92759296e-07
      -5.06447634e-07 -1.19837622e-07 1.68675979e-06 -2.31600256e-06
      1.36106075e-06 -2.30774253e-06 -3.63464756e-06 -7.54582629e-07
      -1.62795880e-06 -1.43561942e-06 1.97163740e-06 -3.67838970e-06
      -1.50911404e-07 -7.71409032e-06 -1.61694970e-06 -4.28900921e-06
      -7.77235346e-06 -6.16698799e-06 -1.39185232e-07 -4.42519195e-08
      -4.01621037e-06 -1.17918228e-06 -7.51197490e-07 -6.03147896e-07
      -2.82337146e-06 -9.41509370e-06 -1.82878944e-06 -4.72839838e-06
      1.59560784e-06 3.01659315e-06 5.24319512e-06 -8.39409768e-06
      1.51161157e-06 4.72592455e-06 3.15579632e-06 -9.50805543e-07
      9.73666602e-07 1.07465326e-06 -2.60134789e-06 1.48064737e-06
      -2.26287875e-06 -3.27629294e-07 -6.02252214e-07 4.76875766e-06
      -1.73681576e-06 -2.73505179e-06 2.15187697e-06 -4.57044365e-07
      1.46764614e-06 -2.20735316e-07 -3.21228026e-06 -2.39839864e-07
      1.40061638e-06 2.86408704e-06 1.09904533e-07 1.22823110e-06
      -5.15493457e-06 -6.91301125e-07 2.55127475e-06 6.00092108e-06
      2.09757877e-06 -2.37714517e-06 9.81768949e-07 3.30195667e-06
      -1.91347453e-07 -4.45713340e-06 -1.63154652e-06 -7.63913420e-07
      4.72752026e-06 3.50052147e-07 7.75645049e-07 -1.33899061e-06
      3.62821697e-06 4.53823350e-06 3.94296649e-06 1.38852624e-06
      -3.82924600e-06 4.37398876e-06 -2.61325749e-06 -4.67944528e-06
      -7.71102862e-07 2.37647328e-06 2.70131886e-06 -3.63466711e-06
      1.16122180e-07 -7.11637256e-07 2.95487075e-06 -1.58802959e-06
      1.90050309e-06 1.85894851e-06 -1.64005530e-06 -1.17787101e-06
      -1.54510678e-06 -5.42381213e-06 -4.64590266e-06 -7.98460235e-07
      -2.46634750e-06 4.01895022e-06 -4.25025019e-06 -2.35080492e-07
      1.46992545e-06 1.04585432e-07 -8.53013432e-07 1.19518506e-06
      3.34259039e-06 -2.39198039e-06 -4.58597378e-06 1.80524285e-06
      1.59221497e-06 -3.02672493e-06 2.70788689e-07 -3.51628637e-06
      -7.15312171e-06 -4.07467360e-06 -3.36747075e-06 -5.95853135e-06
      5.26405124e-08 -2.91092692e-06 3.53970449e-07 -3.20044342e-06
      -3.90289642e-06 -4.40393751e-06 -2.41454586e-06 3.28839792e-06
      4.85123337e-06 -8.23032281e-07 -2.30869000e-06 1.75739876e-06
      -4.77060610e-07 -7.74792807e-06 -7.16874911e-06 -6.47467778e-06
      -3.89742672e-06 -9.84871804e-07 -4.25756889e-06 -4.98366444e-06
      -1.06011362e-06 -1.27259477e-06 -5.50440200e-06 -2.22911535e-06
      4.31578428e-06 -2.02981437e-06 1.92945322e-06 -5.70358816e-06
      6.48471428e-07 -1.03574514e-07 -1.99498913e-06 4.99652970e-06
      2.80017343e-06 -2.10272060e-06 -2.49507707e-06 -2.27435066e-06
      -3.92414495e-06 -2.85637907e-06 -2.44572766e-06 4.02248702e-07
      1.18112325e-06 -4.19461776e-06 -6.09787264e-07 4.03873855e-06
      4.92343474e-07 -3.73415173e-06 -1.63638265e-06 1.06420202e-06
      -3.03832167e-06 1.21685753e-06 -4.04078810e-06 4.26324777e-06
      2.53304484e-06 4.27365080e-07 -1.08198503e-06 4.78440484e-07
      -3.73381840e-06 -1.16952727e-07 -6.13000566e-07 -1.19972640e-06
      -3.11438248e-06 1.88716035e-06 4.03626291e-06 -1.29040018e-06
      1.10669198e-08 -1.94839436e-06 -4.58668273e-06 -5.74647686e-07
      -1.35293351e-06 1.21407325e-07 -2.50340031e-06 -1.83590987e-06
      5.84007864e-07 3.61433877e-06 3.48507825e-07 1.00045827e-06
      -3.22832398e-06 3.86245165e-06 -7.95397773e-06 6.66065262e-06
      3.61957905e-06 3.99612964e-06 -6.56980092e-07 -2.41985049e-06
      6.82669281e-07 3.37529832e-06 -1.49841878e-06 -8.65739196e-07
      -2.10059193e-06 4.47060665e-06 -6.26573296e-07 -6.84373390e-07
      -1.25259533e-06 1.75180915e-07 2.24569226e-06 5.67389588e-06
      1.08579695e-06 -2.94215761e-06 -5.99019540e-06 6.58997749e-07
      3.23514246e-06 -3.92699212e-06 -3.31713363e-06 2.84056000e-07
      -1.65683900e-06 -1.31497472e-06 -2.85640294e-06 -7.78372669e-06
      -3.34416404e-06 -4.80855670e-06 -3.51016433e-06 -7.01926197e-08
      4.81711731e-06 -1.74383547e-06 -3.13529495e-06 1.95875728e-07
      -3.27649627e-06 -2.11706515e-06 1.24294377e-06 6.08558310e-07
      2.84748353e-06 -1.35311166e-06 -3.12445763e-06 -4.97670544e-06
      -3.54091048e-06 2.33280343e-06 1.50949586e-06 -4.11829478e-06
      -3.75253489e-06 1.96704423e-06 5.30827356e-06 -1.55356031e-06
      5.17738636e-06 4.45354935e-08 -2.14756437e-06 -1.09241239e-06
      -5.20700723e-07 -6.23203141e-06 2.66455430e-07 -9.03148916e-08
      3.86980616e-07 -1.05156050e-06 2.33422725e-06 2.33422796e-07
      -1.44412684e-06 -7.58982878e-06 -3.52031725e-06 -3.14095450e-06
      4.75341358e-06 -2.52988480e-06 -1.78517962e-06 -4.33414471e-06
      -4.48415994e-06 -5.84142117e-06 -2.98809505e-06 -6.72465922e-06
      -3.46767160e-06 -3.04860851e-06 -2.96952408e-06 3.45898258e-07
      -3.35304048e-06 -2.71126851e-06 1.74394802e-06 -3.62159039e-06
      -1.72653824e-06 6.73481281e-07 -1.58428577e-06 -4.12323743e-06
      1.71796546e-06 4.44196388e-07 6.33112222e-07 -9.83333681e-09
      -6.87718739e-06 -4.98838608e-06 -1.01651995e-05 -5.15105376e-06
      -4.17088186e-09 3.01098657e-06 5.97287510e-07 -1.45135130e-06
      -5.18307661e-06 -4.41174097e-06 -7.29704971e-06 -6.36224286e-06
      -1.19288256e-06 -4.84946349e-06 1.30690148e-06 -2.18465243e-06
      -3.02842113e-06 -4.79437313e-06 -6.69106157e-06 -7.79043694e-06
      -8.72522287e-06 -5.08268022e-06 -2.10051076e-06 -9.29696284e-07
      -7.49599030e-06 -4.62369007e-06 1.09317148e-06 -2.37640438e-06
      7.44348290e-06 -3.20022718e-06 -4.42341707e-06 1.28379224e-06
      -1.39972531e-06 -1.04427795e-06 -3.36434505e-06 -1.10647966e-06
      -3.31474871e-06 4.37971892e-07 -4.95268523e-06 -1.52828207e-07
      -2.24163773e-06 -2.07109088e-06 1.42588448e-07 -8.77505613e-07
      2.68792701e-06 -1.05948880e-06 -2.72144052e-06 3.34912647e-06
      -4.26270935e-06 1.00019622e-06 -2.04939511e-06 4.82735913e-06
      -2.71296517e-06 -4.34278672e-06 1.44632997e-06 1.29844750e-06
      -4.20888682e-06 5.23061544e-06 2.19837557e-06 2.83659892e-06
      2.52146651e-06 3.98898965e-06 -2.23774396e-06 -4.63578726e-06
      -2.29605484e-06 -4.06232357e-06 -4.43911904e-06 1.87219314e-06
      -1.97969530e-06 -2.58581235e-06 -7.56544296e-07 -2.00583509e-06
      1.63920879e-06 -1.44691785e-06 3.16856222e-06 -6.81129166e-07
      3.19625798e-07 5.42567068e-06 -2.02807678e-06 -1.93070559e-06
      8.42279917e-07 2.42868646e-06 -1.59976685e-06 2.35269113e-06
      2.46742411e-06 1.35604785e-06 4.29534566e-06 -3.34573861e-06
      2.80436575e-06 -2.10014923e-06 -2.87291505e-06 4.90204116e-07
      -2.83819668e-06 1.09665393e-06 -1.09434518e-06 -2.59485091e-06
      -5.29835972e-07 1.93795472e-06 3.09224197e-06 -6.91242167e-06
      -1.23315613e-06 -2.76358287e-06 2.44727488e-07 7.17229705e-06
      -6.44767056e-07 -3.66688823e-06 7.89145020e-07 -1.66339578e-06
      1.49260529e-06 -3.20928166e-06 1.93685469e-06 -6.21247182e-06
      6.74948637e-07 1.19743595e-06 -4.90334628e-07 2.04146386e-06
      1.71890269e-06 1.22736674e-06 3.53215523e-06 4.47984291e-07
      -7.39197390e-07 3.68815199e-06 6.78222023e-07 9.21019819e-07
      1.38224402e-06 -3.78714481e-06 -1.91925733e-06 -3.01813913e-07
      -2.26637394e-06 1.61898026e-06 -2.08484153e-06 -3.42893418e-06
      -9.32975581e-07 -3.63969866e-06 -5.04374839e-06 3.57455838e-06
      -1.77418303e-06 5.31283433e-07 2.37454469e-06 1.68026213e-06
      -2.90670073e-06 -1.59227477e-06 -3.00408828e-06 -7.35190099e-07
      2.34023204e-07 3.43269926e-06 -1.83703719e-06 -2.59961917e-06
      1.77618404e-06 2.06976870e-06 5.04729587e-06 3.46425395e-06
      3.21622508e-07 2.36980236e-06 4.97501674e-07 2.89761442e-06
      4.64025504e-07 -2.06132358e-06 2.90644471e-06 4.55530699e-06
      -1.93242704e-06 3.29677914e-06 1.39128008e-06 3.82979806e-06
      1.51358688e-06 4.87884904e-07 -2.59549608e-07 -6.90998434e-07
      -1.14519048e-06 -1.09033431e-06 -8.83514303e-07 -2.96360258e-06
      3.83533870e-06 3.94807876e-06 8.82282407e-08 -4.22806266e-07
      -1.41924897e-06 -2.44970556e-06 2.26190605e-06 2.11673432e-06
      4.30435148e-06 -1.47914886e-06 -8.84567100e-07 -9.67122276e-08
      -2.68562644e-06 1.97247473e-07 5.78721711e-06 -4.76657760e-06
      -8.61031936e-07 -1.75173443e-06 -1.33942717e-06 3.79966387e-08
      4.93987454e-06 -7.23773667e-07 -1.69211057e-06 -4.16736640e-07
      -3.85682739e-07 -1.30521755e-06 3.89513934e-06 -1.57701254e-06
      -2.58014347e-06 -3.47065179e-06 -2.29918601e-06 4.25362941e-06
      -1.91901290e-06 8.46730401e-08 4.45379840e-07 -2.56963085e-06
      5.87666227e-06 -2.39012434e-06 5.07058485e-06 2.26980796e-06
      -2.99913540e-06 -2.69777138e-06 -2.84851399e-06 3.07440541e-06
      1.39179701e-06 -2.69157363e-06 1.12059877e-06 -3.55972270e-06
      -2.88065138e-07 -2.32019806e-06 -1.53498047e-06 1.19394628e-07
      3.40944825e-06 -4.13162525e-06 -3.09340976e-06 4.86859744e-06
      2.47915455e-06 3.15311854e-06 -5.71288039e-09 1.04856281e-06
      3.80182519e-06 -4.60587717e-06 -2.12513214e-06 -1.01950184e-06
      6.42513740e-08 -2.65969993e-06 1.24926692e-06 -2.27071678e-06
      2.08734804e-07 -5.05592993e-07 -1.93042365e-06 2.79653477e-06
      6.72847193e-07 -3.14817794e-06 2.05765537e-06 1.84485600e-06
      -2.99833027e-06 -8.86797807e-07 -9.28587099e-07 5.71405280e-07
      3.15864713e-06 9.90883677e-07 2.95742961e-06 -1.73552041e-06
      -1.15206512e-06 1.93087246e-07 -3.65920528e-06 -3.63440506e-07
      2.96619555e-06 1.14450927e-07 2.82312544e-06 -8.59197826e-07
      7.97751682e-07 3.72291061e-06 -6.07127106e-07 3.93492286e-07
      3.03605475e-06 -2.90716639e-06 2.24251630e-06 -2.10158328e-06
      3.59280648e-07 -5.58529258e-08 4.14294846e-06 -1.51447546e-06
      -3.14322875e-07 1.13121564e-06 -3.39198368e-06 -4.84541488e-06
      2.32123034e-06 -3.74681633e-07 -1.26137547e-06 6.61111756e-07
      -2.87287139e-06 -4.32701700e-06 1.98235216e-06 1.82894894e-06
      3.12806992e-06 -3.71040528e-06 -5.36480002e-06 4.35167294e-06
      1.61862408e-06 -2.23192683e-06 2.14284887e-06 2.17394336e-06
      -2.91643482e-06 -1.00612715e-06 4.60417004e-06 3.02438775e-06
      2.37965628e-06 -1.79238441e-06 3.51966901e-06 -1.66639154e-06
      7.61728586e-07 3.57535242e-07 1.34565380e-06 7.89314527e-07
      -4.48122000e-06 4.87642183e-07 4.20313290e-06 9.72961175e-07
      1.77146228e-06 -1.77653601e-06 1.27543331e-06 -3.31482670e-06</_></support_vectors>
  <decision_functions>
    <_>
      <sv_count>1</sv_count>
      <rho>-1.4267415496455049e-04</rho>
      <alpha>
        1.</alpha>
      <index>
        0</index></_></decision_functions></my_svm>
</opencv_storage>
