<?xml version="1.0"?>
<opencv_storage>
<my_svm type_id="opencv-ml-svm">
  <svm_type>C_SVC</svm_type>
  <kernel><type>LINEAR</type></kernel>
  <C>3.8149999999999999e-06</C>
  <term_criteria><epsilon>1.1920928955078125e-07</epsilon>
    <iterations>1000</iterations></term_criteria>
  <var_all>1296</var_all>
  <var_count>1296</var_count>
  <class_count>2</class_count>
  <class_labels type_id="opencv-matrix">
    <rows>1</rows>
    <cols>2</cols>
    <dt>i</dt>
    <data>
      -1 1</data></class_labels>
  <sv_total>1</sv_total>
  <support_vectors>
    <_>
      2.16658077e-06 -4.82169526e-07 -2.06940967e-06 8.33749027e-07
      5.15145587e-07 3.98370230e-06 4.00078216e-06 -2.45219371e-06
      -1.44839396e-06 -2.26088537e-06 3.80701090e-06 -1.48024867e-07
      -2.70356878e-07 1.10127587e-06 -2.85849683e-06 1.34661873e-08
      -2.73510614e-06 1.81574865e-06 -1.84027829e-06 -1.56294459e-06
      2.51769552e-06 4.46138614e-07 8.87528245e-07 -2.45935826e-06
      -5.10683867e-06 -2.05415631e-06 -7.64940012e-07 4.24107657e-06
      -1.81835958e-06 5.24751113e-06 -3.90678633e-06 -1.12392956e-06
      -8.02736906e-07 -3.60245917e-06 -1.49450656e-07 -1.82322566e-08
      -1.17804882e-06 9.08649042e-07 -4.87746593e-06 3.91102640e-06
      4.43992667e-06 6.57138116e-06 1.28328020e-06 1.97297527e-06
      -4.21148663e-08 3.80519964e-06 -7.23805158e-07 1.80642223e-06
      4.80896006e-06 1.19570848e-06 1.53889403e-06 -2.07403059e-06
      3.52281518e-06 2.86886711e-06 -1.12009832e-06 -4.24328255e-06
      2.22585686e-06 3.04664070e-07 -2.40201803e-06 1.61569153e-06
      -7.97350026e-07 2.95488849e-06 2.09968744e-06 8.33314914e-07
      -7.04402169e-07 9.28808106e-07 2.56865997e-06 9.19308434e-07
      -1.10806732e-10 1.08714119e-06 -2.49306663e-06 1.90171519e-07
      7.38740027e-07 1.26298391e-06 -2.50464609e-07 1.84554278e-06
      1.71159252e-06 -6.06547303e-07 3.41066334e-06 2.52900304e-06
      -1.35942207e-06 3.44337673e-06 1.06329173e-06 2.61563832e-06
      1.45879335e-06 3.65351639e-07 7.33341707e-08 -1.07410949e-06
      -8.31469436e-07 5.70896691e-06 4.26801080e-06 -2.57108650e-06
      1.13580643e-06 1.30615115e-06 -1.42538511e-06 2.65010863e-06
      -1.97453119e-06 1.38899463e-06 3.15396574e-06 2.03760735e-07
      -3.59273770e-07 -3.43064812e-07 -1.61695573e-06 -1.29033788e-06
      -3.45415970e-06 2.69912312e-06 -1.62332560e-06 -3.62368792e-06
      5.70424163e-06 -3.99493229e-06 -2.05305810e-06 8.88917043e-07
      -5.20818867e-06 3.57313138e-06 4.16537068e-06 5.49033530e-07
      -3.70763291e-06 -1.75347077e-06 9.16454383e-07 -9.03437012e-07
      1.01260605e-06 1.74600336e-06 -4.28146905e-06 -2.38529321e-08
      1.26296538e-06 2.80233212e-06 -6.23956282e-07 2.27986249e-07
      -2.87422313e-06 -6.53128325e-07 -2.33750438e-06 7.81725760e-08
      2.19846697e-06 -1.39882900e-06 -2.91461151e-06 -1.89080254e-06
      5.04399509e-08 3.66304221e-07 -5.18204479e-06 -3.85757744e-07
      1.48543256e-06 -1.34512732e-06 -2.42066494e-06 1.28877821e-06
      2.10590474e-06 1.75127241e-07 2.93880248e-06 3.60544414e-06
      4.34994035e-06 3.80510414e-06 2.51544270e-06 5.04712762e-06
      4.64964523e-06 -2.40663240e-07 1.89599496e-06 -6.39968505e-07
      2.13349836e-06 8.96654285e-07 6.91740468e-07 -4.93434482e-06
      -1.29195053e-06 -1.76749083e-07 1.61988297e-07 3.15290254e-06
      -2.46911168e-06 -2.04965954e-06 1.36669621e-06 -1.38606325e-07
      -4.01550187e-06 1.65829363e-06 -2.12434588e-06 -1.97530244e-06
      -1.96655742e-06 -1.97303279e-06 -2.25144800e-06 -1.74684442e-06
      5.54421433e-07 3.28139981e-06 -2.87238713e-08 -6.05692776e-07
      1.17297941e-06 1.75939124e-06 -4.65931180e-06 -1.20675986e-06
      -3.25592168e-06 -2.38821440e-06 6.83644771e-07 7.98342853e-07
      1.57804982e-06 1.37590496e-06 9.57753969e-07 3.10795576e-06
      -3.30557305e-06 4.51609048e-06 -1.92070019e-07 -7.85778525e-07
      -3.62577316e-06 -3.68658402e-06 4.56200814e-06 -3.35016489e-06
      -1.86400223e-06 4.73027330e-06 4.81272018e-08 -2.52620544e-06
      8.09319886e-07 -1.06113293e-06 -9.19070999e-07 1.34419611e-06
      5.99882128e-07 1.10199539e-06 -1.93403048e-06 -2.02621072e-06
      -3.13195437e-06 3.07682694e-06 -8.89066428e-07 2.14327588e-06
      3.36750236e-06 5.03766103e-07 -1.10114877e-06 1.87252579e-06
      3.68045949e-09 -1.83218549e-06 1.03804477e-05 4.94394037e-08
      -4.47701112e-08 -1.07131666e-06 -1.91563845e-06 -6.66818437e-07
      3.60204695e-07 1.67836856e-06 6.53126563e-07 -8.81122304e-08
      -6.02405748e-07 -9.72848966e-07 -3.54012627e-06 4.50776133e-06
      -1.20640109e-07 4.04653338e-06 4.16210781e-07 -2.50938751e-06
      -7.12192445e-07 -1.29736327e-06 -1.67154326e-06 -1.34261722e-06
      3.54577924e-06 -1.59221329e-07 -1.32688740e-06 2.67150540e-06
      -3.03494949e-06 2.63172956e-06 -5.29762883e-06 -2.03878108e-06
      1.28545605e-06 3.28023202e-06 2.41509747e-06 -1.23115274e-06
      2.13317321e-06 -2.71607860e-06 1.92916741e-06 -5.75752836e-07
      1.27929547e-06 2.83768463e-06 -2.29058719e-06 -2.14854163e-06
      -9.25692973e-07 -3.08387484e-06 -6.56243219e-06 2.46948912e-06
      -8.24785729e-07 2.02678780e-06 1.95284406e-06 -1.22833455e-06
      -6.74895682e-06 -5.76839739e-06 -4.96482198e-06 1.14643262e-06
      3.08902418e-06 -3.31356830e-07 -2.59568947e-06 -7.10666336e-06
      -5.39818484e-06 -5.90814079e-06 -2.44691523e-06 3.55284811e-07
      3.06929167e-07 -3.10584687e-06 -2.30293040e-07 -6.63649189e-06
      -3.20442018e-06 -3.96474752e-06 -1.47941705e-06 -5.29191084e-06
      -3.75875243e-06 -1.98270959e-06 -1.11772522e-06 2.75609341e-06
      -7.55960991e-06 -4.78052880e-06 -4.69330143e-06 -7.75306034e-07
      -3.56207170e-06 1.41017313e-06 -5.68808991e-06 -3.31245769e-06
      -7.61249112e-06 -3.63229265e-06 1.38627252e-06 -6.67104496e-06
      -6.70685949e-07 -2.05134114e-07 -2.95604394e-07 5.31570436e-07
      2.96429357e-06 1.18262801e-06 -1.49571548e-07 -2.43243790e-06
      -4.92651816e-06 -2.60278739e-06 -3.30853595e-06 4.24900645e-06
      -1.86255477e-06 -3.57203049e-07 -4.35283891e-06 -6.35391598e-06
      -5.46538331e-06 -9.81664584e-07 -2.54895212e-06 -3.74483784e-06
      -3.45756371e-06 -3.10516248e-06 -6.81830841e-07 -1.45287561e-06
      -5.61393244e-06 -5.65220535e-06 -2.32724938e-06 -3.33342973e-06
      -1.74644561e-06 -1.90556943e-06 1.12548594e-06 -7.12724204e-06
      -5.70789871e-06 -6.08100299e-06 1.12475459e-06 6.72089129e-07
      1.63547065e-06 3.62329928e-07 2.37040854e-06 1.56610997e-06
      1.99826604e-06 -6.28051566e-06 -2.16136596e-06 -2.19497429e-06
      9.89495220e-07 -2.34677464e-06 -9.82940492e-06 -7.70901636e-07
      -4.56078055e-07 -5.23132030e-06 -5.89129741e-06 -8.51880031e-06
      2.94682764e-07 2.73800106e-06 1.58931721e-06 1.30775524e-08
      3.15499597e-06 -4.75846809e-06 -1.90371895e-06 9.44852502e-07
      8.89313299e-07 -2.38249277e-06 2.67591508e-06 5.73665240e-08
      2.57687611e-06 2.24202836e-06 5.72315685e-06 -4.07034941e-06
      -3.74162511e-07 8.69063285e-07 2.28700492e-06 -3.20502318e-06
      -3.11555300e-06 -4.97041083e-06 -3.70499401e-06 -3.23966651e-06
      -8.05091349e-06 -4.12300233e-06 -5.32205831e-06 -5.40603469e-06
      8.15918156e-07 2.40401073e-06 -1.28810512e-07 -3.67140842e-06
      -1.92142215e-06 2.15768523e-06 -1.52125483e-06 -3.12136308e-07
      -5.62282821e-07 -3.82745520e-06 -7.45262298e-07 -3.83877432e-06
      4.77139201e-06 3.10878931e-07 4.92373283e-06 -4.67482494e-07
      8.80219034e-07 -2.43227669e-06 1.52022619e-06 2.87806188e-06
      -2.53406756e-06 3.97538042e-06 3.41896248e-06 6.10743996e-07
      -7.50775780e-06 6.05899868e-06 3.79234734e-06 -8.90253034e-07
      2.78361222e-06 -2.61085120e-06 2.89027048e-06 -6.74548119e-06
      -7.79922800e-07 -1.29192802e-06 -6.32168678e-07 2.04440971e-06
      1.50865037e-06 -1.12368537e-06 -4.35207949e-06 3.53625319e-06
      -1.14481384e-06 1.49255754e-06 -1.46280297e-06 1.11355973e-06
      1.00311809e-06 -3.64521867e-07 -3.08234030e-06 -4.47222146e-06
      4.04530829e-06 -3.10539212e-06 -1.81359223e-06 3.57341514e-06
      -3.60426225e-06 -2.46935906e-06 1.58915486e-06 -2.84587941e-06
      3.42303701e-06 2.29207512e-06 3.65485016e-06 -8.35416643e-07
      -1.77528921e-06 -3.23825680e-06 2.65538779e-06 1.86402178e-06
      8.51034088e-07 1.86684611e-06 3.31137176e-06 7.75598619e-06
      3.34300444e-06 4.35571678e-07 -3.81333416e-06 2.69897123e-06
      -4.87785292e-06 -1.03287653e-06 2.77397112e-06 -1.10248959e-06
      -2.89238847e-06 5.03456988e-07 -4.91949720e-07 -2.13494991e-06
      -1.75544517e-06 -6.74093826e-07 -3.83012502e-06 -5.12218230e-06
      -5.97322696e-06 -5.86117721e-06 -2.96421376e-06 -6.40855387e-06
      5.42748410e-07 1.51082838e-06 -4.97645169e-06 -9.78191565e-06
      -6.58528097e-06 2.58121577e-06 -8.89423700e-06 -5.00190595e-07
      -3.71374722e-06 -9.83612381e-07 -1.69352302e-06 1.50875098e-06
      -3.21744415e-06 -5.91884418e-06 -1.09895072e-05 -3.88486160e-06
      -6.12042754e-07 -1.87852959e-06 2.37579457e-06 -3.79806283e-06
      -1.97048939e-06 -1.35045627e-06 -8.91264608e-06 -2.13569592e-06
      3.40145152e-06 1.15866078e-06 1.27154408e-06 1.36178144e-07
      -4.35245113e-07 2.61154105e-06 -9.53061829e-07 -1.90513094e-06
      1.30153626e-06 7.72181829e-06 4.93971311e-06 -1.88417744e-06
      -1.97357372e-06 3.21513426e-06 1.84535702e-06 4.77662866e-07
      -9.51285870e-07 -1.12778116e-06 -6.29502529e-06 1.48101731e-06
      2.42176179e-06 2.01387866e-06 -3.81309133e-06 -1.35400160e-06
      1.22182507e-06 -3.42531234e-06 -1.93006167e-06 -2.29242141e-06
      2.30927753e-06 1.89466471e-06 -7.80196785e-07 -2.02796696e-06
      2.88486899e-06 -1.58515638e-06 -9.82153892e-07 4.86940462e-06
      7.45426973e-07 2.72306966e-06 2.34200820e-06 1.09839689e-07
      -2.88541088e-07 -4.64909647e-07 -9.37701373e-07 4.85030660e-06
      3.98799784e-06 -2.27532632e-06 4.57170188e-07 1.42997942e-06
      -7.29480476e-08 3.24801067e-06 1.59246429e-06 4.93289190e-06
      5.06186143e-06 -1.07031576e-06 -5.41513919e-06 -3.44904402e-06
      5.06564993e-06 2.57460124e-06 -1.38301971e-06 -2.32241246e-06
      5.25836185e-06 1.79648043e-06 3.90975310e-06 -2.12028658e-06
      5.96551126e-06 4.98549889e-06 2.89069567e-06 3.46132038e-06
      6.46595538e-07 -2.31672811e-06 -4.14954002e-06 7.65732148e-06
      -9.82190841e-07 -2.37252129e-06 -3.12473276e-06 -3.43334750e-06
      4.73228874e-06 -2.78090852e-06 -1.71898841e-06 -2.51754477e-06
      1.22073436e-06 -4.00477484e-06 -8.71394241e-06 -7.41019448e-06
      3.37456709e-06 -2.22885592e-06 -2.68614190e-06 3.87846057e-06
      3.70205476e-06 3.38698207e-08 -4.60672936e-06 -1.04598084e-05
      -4.14772239e-06 -4.80984772e-06 -9.33962724e-07 9.35692924e-07
      -4.67587643e-06 -9.92930609e-07 -1.22572249e-06 6.97886335e-08
      4.23852953e-06 3.77907008e-06 5.42827911e-06 -1.96028259e-06
      2.59069111e-07 -3.98548536e-06 -4.40439999e-06 -3.00555394e-06
      -4.94938422e-06 -1.85082240e-06 -2.99896351e-06 -6.06953927e-06
      -2.87737407e-06 -5.36595780e-06 2.14354986e-06 1.10784856e-06
      2.55277740e-07 -2.39522751e-06 1.27093347e-06 1.77610480e-06
      1.68752149e-06 2.53673829e-06 -3.83460565e-06 -2.41612298e-07
      5.36916650e-06 1.84900136e-06 -8.81485676e-07 -1.64536644e-07
      2.21941400e-06 5.74407409e-07 -1.72268085e-06 -6.15714782e-07
      -1.68246871e-07 -1.23965560e-06 1.52312126e-07 -2.47581625e-06
      -7.95953383e-07 2.54975362e-06 2.46627701e-06 -1.87478918e-06
      -3.61234311e-06 2.01746025e-06 -6.78476272e-06 2.22104359e-06
      4.92779418e-06 -2.30063620e-06 1.87537375e-06 2.01725243e-06
      -3.74353453e-06 -1.17843888e-06 -4.57559480e-07 -1.58201146e-06
      -1.31988850e-06 -4.03772037e-06 5.90043953e-07 1.25289972e-07
      -1.15069986e-06 -7.88177317e-07 1.39183783e-06 1.46210107e-06
      6.08649884e-07 -1.29076068e-06 -5.81483391e-06 8.43284226e-07
      -9.80947448e-07 1.01735293e-06 -2.73512865e-06 -1.18010769e-06
      5.69182248e-06 -8.71112832e-07 -3.11397866e-06 -3.32183572e-06
      2.55658915e-06 4.48217179e-06 -1.40575935e-06 -3.35399636e-06
      9.58090254e-07 5.07237814e-07 2.01474359e-06 -8.31060697e-06
      3.27272119e-07 -4.45664966e-07 2.57852639e-06 -4.27667328e-06
      3.22893442e-07 2.71159433e-06 -8.24271638e-08 -4.15357636e-06
      -7.34244122e-06 -7.66999528e-06 -7.58194892e-06 -2.22106405e-06
      -1.86919479e-07 1.12197631e-06 5.02038802e-07 -2.66657054e-07
      -2.05030619e-06 -1.28018644e-06 -3.18683851e-06 -3.70664839e-06
      -4.81571033e-06 -2.08995772e-08 -2.02680803e-06 -3.41254258e-06
      -1.60849345e-06 -6.73564864e-06 2.07609475e-07 -9.26398479e-06
      -6.24539507e-06 -4.03136437e-06 5.86949909e-07 -4.34854473e-06
      -5.88308831e-06 -1.40836801e-06 -1.06378366e-06 -2.68985400e-06
      -5.28290911e-06 -8.74379839e-06 -5.34978062e-06 -5.35784966e-06
      -3.07530081e-06 -2.29397165e-06 1.60726734e-06 -6.78648576e-06
      5.55868201e-06 -1.95316193e-06 -4.26125837e-07 -3.31979459e-06
      -3.15248570e-07 2.52995346e-06 3.15247462e-06 4.64789309e-07
      -4.36299069e-06 2.89925879e-06 -9.87648946e-07 -8.68602470e-08
      1.85144629e-07 -4.71804015e-06 1.71661168e-06 4.38027791e-06
      -1.68631311e-06 3.92632910e-06 -2.56445333e-06 1.37277993e-06
      -3.77138167e-06 1.78921835e-06 -2.53904818e-06 3.32154332e-06
      2.11316001e-06 -2.15343402e-06 2.88858632e-06 2.47336857e-06
      -2.35813809e-06 2.35397624e-06 1.68943268e-06 5.91277239e-06
      -1.35699480e-07 -1.74708316e-06 4.23315805e-06 -1.55981672e-06
      4.44199259e-06 3.38315635e-06 8.25609447e-07 -1.13343970e-06
      1.99949432e-06 2.61589150e-07 -3.50887092e-07 9.92494392e-07
      1.14563113e-06 1.19724643e-06 -5.86316764e-06 -5.53370228e-07
      -1.56629233e-06 3.65034703e-06 2.47405774e-06 -5.95361735e-06
      -1.44683395e-06 -4.03957711e-06 6.45855243e-06 -2.75139109e-06
      4.84330576e-06 2.09068617e-06 3.09356574e-06 -1.61388232e-06
      -8.06791434e-07 -2.77131835e-06 -5.84196549e-08 -3.23289714e-06
      -1.50856113e-06 1.50410051e-06 1.07181769e-07 -5.28125497e-07
      1.22283802e-06 -2.87157354e-06 2.61019250e-06 7.26060136e-07
      -3.24257030e-08 -3.25091673e-06 -4.42959436e-06 4.21294317e-06
      -1.85210055e-07 1.97980782e-07 -5.16378623e-06 -1.25334748e-06
      -4.49137269e-06 -8.17182718e-06 -3.01601949e-06 -3.21872221e-06
      2.81523853e-06 1.91239202e-08 -3.42553358e-06 -2.78810120e-07
      -6.33971513e-06 -7.68867994e-06 -2.05380252e-06 3.20729396e-06
      1.92723405e-06 4.04021563e-08 -3.06273273e-06 1.57191494e-06
      2.10620783e-06 -5.57121120e-06 -2.52165296e-06 -1.04544279e-06
      -6.23757433e-06 -3.18120624e-06 -9.21609001e-07 -2.79848427e-06
      -1.71395141e-06 3.42837438e-06 9.43973646e-07 -4.23948995e-06
      2.90563639e-06 -1.72134844e-06 2.79211690e-06 -5.44984641e-06
      1.48576441e-06 -1.99532178e-06 1.82554436e-06 4.65792300e-06
      1.33552771e-06 1.06594177e-06 -2.30510295e-06 -2.52121959e-06
      -3.80874030e-06 -1.34666834e-06 -1.84208693e-06 4.65066842e-06
      -3.84350159e-07 1.63925461e-06 1.57841157e-06 8.61904539e-07
      1.96420910e-06 3.60599120e-06 1.13593160e-06 2.61360469e-06
      -2.65937069e-06 -3.08957306e-06 -2.53981830e-06 1.51960751e-06
      3.73478861e-06 4.05434434e-07 2.29929060e-06 1.00803607e-06
      3.35281197e-06 3.10150040e-06 2.22054973e-06 -1.78856601e-06
      4.69288864e-07 9.01655028e-07 -9.55370069e-07 1.46599362e-07
      -1.15817056e-06 -1.22658957e-06 -2.75606953e-06 -3.62068704e-06
      1.37976076e-06 3.26676877e-06 1.04436606e-06 9.95720598e-07
      3.88854141e-06 2.23095867e-06 -8.15851081e-07 -2.09706809e-06
      2.79366327e-06 6.76416576e-08 -3.23072391e-06 3.89376191e-06
      1.78828117e-07 2.74999252e-06 4.98198176e-07 9.21394303e-07
      2.59776954e-07 4.04538832e-06 1.30953083e-06 3.40287534e-06
      -5.84636882e-06 -1.89175796e-06 -4.16432840e-07 -9.59284534e-07
      1.27722353e-06 2.69750302e-07 2.25080885e-06 5.61562183e-06
      1.79885546e-07 -4.50923153e-06 -3.83612178e-06 -7.25869143e-07
      7.13757299e-06 -3.50645723e-06 -1.71249189e-06 -2.60838931e-07
      -3.87071350e-06 -3.20790946e-06 -3.49938387e-06 -4.92204754e-06
      -8.61179524e-06 -4.59879357e-06 5.44073316e-07 -4.22369476e-06
      1.70026021e-06 -3.87830141e-06 1.35053824e-06 3.26690451e-06
      -1.34630488e-06 -2.98565374e-06 2.16189324e-06 -1.52767575e-06
      4.29586362e-06 -2.27577857e-06 -6.81352958e-06 -3.09645975e-06
      1.00686123e-06 1.48542870e-06 -1.82223505e-06 -2.07519088e-06
      -5.84235977e-06 -9.28091424e-07 4.09146105e-06 8.28951102e-07
      3.24496739e-07 -2.54999850e-06 -5.16828277e-06 -3.37639585e-06
      5.51220410e-07 -4.26779161e-06 -6.12472468e-06 -4.12336658e-06
      -2.93523286e-08 2.05780975e-06 -6.17314299e-07 -1.28459590e-07
      -5.44367367e-06 -2.70292071e-06 -2.76005335e-06 -2.40393047e-06
      6.48708692e-07 -1.78995924e-06 9.70642759e-07 -5.92752440e-06
      -6.02044156e-06 -8.17152704e-06 -1.26286586e-05 -4.64606637e-06
      -5.22570372e-06 -7.84897657e-06 -1.18699938e-06 -5.59010573e-07
      -1.77661400e-06 -1.07485278e-06 9.88654961e-07 -8.36436811e-06
      -3.25251017e-06 1.72936268e-07 -3.38995414e-06 -4.12451436e-06
      5.89747629e-07 -1.53964481e-06 1.34010335e-07 -4.83717258e-07
      -3.14386352e-06 -8.00115049e-06 -3.89001161e-06 -5.83189785e-06
      -3.82193690e-07 -3.81831796e-07 8.05098125e-07 7.97348150e-07
      -1.23418647e-06 -1.87768740e-06 -6.34359685e-06 -6.34407616e-06
      -9.12730286e-07 -1.15558828e-06 2.28656563e-06 -1.29565967e-06
      1.54671245e-08 -2.43328896e-06 -8.44668375e-06 -8.08182722e-06
      -5.98424094e-06 -1.01784690e-06 9.99597887e-07 4.35069467e-07
      -4.32592878e-06 -6.93372567e-06 6.49170318e-07 -6.60787055e-06
      1.95715552e-06 -5.60149101e-06 -5.48289700e-06 -1.69937687e-06
      -4.28794328e-06 -2.42403758e-07 -4.05129367e-06 -2.54142560e-06
      -2.12497937e-07 -5.87338218e-06 -1.02235856e-06 -2.64318487e-06
      -2.04554840e-06 -4.25607595e-06 -1.92005632e-06 -3.15679949e-06
      2.62211552e-06 1.59786021e-06 8.51448760e-07 4.97055055e-07
      3.80646327e-07 2.32416028e-06 1.97959480e-06 6.36252116e-06
      -2.95486825e-06 -3.67298867e-06 2.28158933e-06 -3.09417601e-06
      -4.78640959e-06 7.46617729e-07 -5.08608821e-07 3.37499318e-06
      2.68235976e-06 -1.33713684e-06 5.29678239e-08 -6.26134624e-06
      -3.64577295e-06 4.08915241e-07 -5.27379962e-06 -1.51337088e-06
      -1.20114279e-07 1.40001998e-06 -2.43181580e-06 -3.90523928e-06
      1.14539455e-06 -1.24264307e-06 5.42651378e-06 2.54751149e-06
      2.90896469e-06 2.19290158e-07 -2.89781292e-06 1.70905707e-06
      3.90196101e-06 -4.16566536e-07 1.82081578e-06 3.78584673e-06
      1.32153389e-06 2.05133438e-06 -1.89089192e-07 1.20107075e-06
      3.67703092e-06 -2.31409967e-06 2.37382073e-06 1.26881037e-06
      -3.79781591e-06 -1.74029969e-06 -4.29046713e-06 5.94773269e-07
      -3.33461639e-06 4.04367114e-07 -3.59506521e-06 -2.86892191e-06
      1.67034568e-06 -2.42374267e-06 5.28854684e-07 3.70025259e-06
      1.86100135e-06 -1.12856446e-06 -1.61303740e-06 9.44854662e-07
      4.32526406e-07 -1.24953556e-06 -2.38327425e-06 -1.74690990e-06
      1.29398120e-06 3.72055496e-07 -1.75150819e-06 3.79204107e-06
      -5.22859978e-07 -2.44316567e-07 -1.51064455e-06 -1.56172052e-06
      -3.16600267e-06 -4.71961494e-06 3.74761214e-07 -6.42374744e-07
      3.79017069e-06 9.95762690e-08 -4.07136076e-06 -2.34519234e-06
      1.51915151e-06 -8.41372355e-07 -1.80310087e-06 -1.60421609e-09
      1.71071645e-06 -4.50696280e-06 -2.11694305e-06 1.76619142e-06
      -1.85305316e-06 1.60320894e-06 2.71866793e-06 2.95429595e-06
      1.25863050e-06 -1.95152120e-06 -6.02076852e-06 2.90893468e-06
      1.68092970e-06 -1.17160107e-06 -3.85936164e-06 9.47353954e-07
      -1.32558148e-06 2.53655958e-06 3.10055361e-06 1.87965168e-06
      -1.28361592e-07 2.65572430e-06 -4.96890289e-06 3.49092215e-06
      2.39705582e-06 -1.67149301e-06 4.14581609e-06 2.71121644e-06
      -1.45666502e-06 1.19174490e-06 2.91924857e-06 -1.68851432e-06
      5.64886875e-07 1.08659344e-06 2.42444776e-06 1.72565774e-06
      -2.54839642e-06 -4.48188445e-07 3.32373497e-06 -4.20480228e-06
      5.42696625e-06 2.03937680e-06 1.92491188e-06 8.57258044e-07
      4.76421640e-08 -6.77711159e-06 1.63164270e-06 -3.91185495e-06
      1.00956447e-06 -9.78573098e-07 2.65196832e-07 1.06950188e-06
      -4.55882582e-06 -6.76810430e-07 1.56330952e-06 1.28254328e-07
      -1.46368961e-06 2.05687752e-06 1.48045990e-06 -5.97917051e-06
      4.53984558e-06 3.55575395e-07 3.72439445e-06 2.67241239e-06
      2.88858223e-06 3.13447435e-06 1.73577519e-06 -1.38115547e-06
      3.44296177e-06 -2.69155430e-06 -1.07820983e-06 2.13866451e-06
      8.36346260e-07 -7.92494177e-07 -1.32395360e-06 1.35866594e-06
      -5.87299875e-10 -2.16347848e-06 3.06885522e-06 2.35961670e-06
      -1.45240847e-06 -1.80137832e-07 -3.34067818e-06 1.25636257e-06
      1.21232381e-06 -3.26706498e-07 -3.39000508e-07 4.43833628e-08
      -9.26271014e-07 -2.13818544e-06 -1.29368971e-06 2.43312888e-06
      7.56603470e-07 -5.21108859e-06 -1.94129257e-06 2.88385718e-06
      4.53633356e-06 2.66844404e-06 4.27102350e-06 3.04853438e-06
      2.38841312e-06 -2.94319739e-06 -1.40093437e-06 -5.92947515e-07
      -1.26257510e-06 2.28925114e-06 9.88024681e-07 -5.14298381e-06
      2.38220267e-07 -9.45640920e-07 -2.33074525e-06 1.76242395e-06
      1.49432310e-06 -4.23426809e-06 2.33598666e-06 -1.22146275e-06
      -1.23240216e-06 -1.92871926e-06 -3.32837942e-07 -9.91240199e-07
      4.03291779e-06 2.88034585e-07 1.91951881e-06 -3.08924223e-06
      -1.84853104e-06 3.98724609e-07 -2.43474119e-06 -3.69191184e-06
      3.10145515e-06 4.43465069e-06 2.32081038e-06 2.88473689e-08
      -1.78780408e-06 3.62211563e-06 1.31898014e-06 -9.57050247e-07
      -2.73853573e-07 -4.99735643e-06 1.83562736e-06 -2.73303226e-06
      -1.48805782e-06 -9.85781867e-07 4.07993821e-06 -5.51053176e-07
      1.70103021e-06 -7.27050576e-07 -6.05702098e-07 -1.90856349e-06
      3.15098555e-06 3.79385187e-06 3.10233787e-07 -4.19552549e-07
      -2.71095382e-06 7.22603261e-07 2.11705105e-06 2.19737262e-06
      2.53111034e-06 -4.77406184e-06 1.19511768e-07 -2.78628534e-07
      8.07727815e-07 2.24028054e-06 4.24712698e-06 2.82368342e-06
      -5.08780931e-06 -2.45008982e-06 -2.64805180e-07 3.06149423e-06
      4.05205628e-06 -2.90279377e-06 -1.04334572e-06 -2.21325399e-06
      1.99997157e-06 5.18423394e-06 8.94193519e-08 9.29352780e-07
      6.46429555e-07 5.03535375e-07 1.69793066e-06 3.27139219e-06
      1.62083222e-06 -4.58221734e-07 2.68146749e-07 -7.24227846e-07</_></support_vectors>
  <decision_functions>
    <_>
      <sv_count>1</sv_count>
      <rho>-1.1729983857522441e-04</rho>
      <alpha>
        1.</alpha>
      <index>
        0</index></_></decision_functions></my_svm>
</opencv_storage>
