<?xml version="1.0"?>
<opencv_storage>
<my_svm type_id="opencv-ml-svm">
  <svm_type>C_SVC</svm_type>
  <kernel><type>LINEAR</type></kernel>
  <C>7.6299999999999998e-06</C>
  <term_criteria><epsilon>1.1920928955078125e-07</epsilon>
    <iterations>1000</iterations></term_criteria>
  <var_all>1296</var_all>
  <var_count>1296</var_count>
  <class_count>2</class_count>
  <class_labels type_id="opencv-matrix">
    <rows>1</rows>
    <cols>2</cols>
    <dt>i</dt>
    <data>
      -1 1</data></class_labels>
  <sv_total>1</sv_total>
  <support_vectors>
    <_>
      1.41991268e-06 -1.24161829e-06 2.24554265e-06 -3.58726606e-06
      6.03842318e-06 2.09385163e-07 1.51352097e-05 -7.99973975e-07
      -2.25246367e-06 -7.95308279e-06 1.28840447e-05 -4.99052703e-06
      -5.48704293e-06 2.48247911e-08 2.43863860e-06 -3.79257494e-06
      4.45121896e-06 2.83622148e-06 -1.64754272e-06 3.95602092e-06
      -1.54124348e-06 5.29349518e-06 7.94453342e-07 3.43826105e-06
      -9.22912022e-06 4.52176664e-07 -4.71270823e-06 -2.26202405e-06
      -2.84192424e-06 8.72450437e-06 5.87955628e-06 -2.99137514e-06
      3.06839706e-06 5.07144432e-06 -4.12039208e-06 -8.79473009e-06
      2.12764257e-06 2.72538887e-06 -2.31577837e-06 -2.94517577e-06
      4.88190517e-06 2.44958414e-06 4.97674409e-06 1.35414427e-06
      -6.06316189e-06 -1.81327209e-06 9.92030436e-07 -4.60537831e-06
      -9.49289006e-06 5.18066872e-06 -2.18177252e-06 -1.29520220e-06
      6.48499372e-06 -3.25902465e-06 5.98430870e-06 -9.80196819e-06
      1.07235860e-06 3.12677298e-06 -2.09926407e-06 -1.68258134e-06
      3.33351932e-06 -5.66262543e-06 1.00426078e-05 -3.52049119e-06
      2.94003462e-06 -3.18633596e-07 -5.32624290e-06 5.79236087e-07
      4.29811780e-06 1.45841148e-06 -4.58562727e-06 -5.72944737e-06
      -1.27165879e-06 -6.30949717e-06 1.51091115e-06 -1.85628483e-06
      7.56065992e-06 -2.69047541e-06 9.05586694e-06 9.76459589e-08
      -3.75928926e-06 7.60843363e-07 -5.91701883e-06 6.78120600e-08
      -5.84525924e-06 5.58520014e-07 1.90056619e-06 1.26777422e-06
      -2.45221349e-06 1.27652193e-05 -3.46375350e-06 -1.91686354e-06
      2.49798268e-06 -8.20656453e-07 -3.18782827e-06 1.52036773e-06
      -7.17530293e-06 1.17670479e-05 5.50142522e-06 -6.54795542e-07
      -5.29136287e-06 -3.26416148e-06 -1.52533421e-05 -8.62015168e-06
      -7.64965444e-06 2.36704977e-07 2.08973620e-06 2.69882480e-06
      2.07636685e-06 2.24745776e-07 -3.48329695e-06 2.23565507e-06
      -1.03258290e-05 4.92798972e-06 4.54965493e-06 3.53009318e-06
      -8.28827069e-06 5.72564068e-06 -7.10678933e-06 -3.31605270e-06
      -1.07748137e-05 -1.50778146e-06 -1.22075808e-05 8.72540386e-06
      9.05121033e-06 9.46225320e-09 7.13172085e-06 -1.71391730e-06
      2.31241552e-06 5.74679962e-06 -8.16434385e-06 3.35522759e-06
      4.64305958e-06 -4.86731733e-06 5.48025309e-06 -5.54768530e-06
      -6.95757990e-07 4.39424912e-06 -1.13058777e-05 1.95315565e-07
      -3.23399036e-06 3.19893775e-06 -1.14179029e-05 8.60212549e-06
      5.03846331e-06 -2.77610548e-06 8.68851430e-07 8.65636139e-07
      -1.90179378e-06 5.35987510e-06 9.73039914e-06 2.89507761e-06
      -3.94877179e-06 -6.47165871e-06 -9.68371114e-06 -4.35798142e-07
      -1.98439185e-08 2.57091210e-06 2.64056939e-06 -2.30586170e-06
      -6.46982971e-06 4.50433254e-06 -6.81838219e-06 1.64406254e-06
      -9.69297957e-07 -1.82411748e-06 -1.69073394e-06 8.22425409e-06
      -2.86426166e-06 4.96571329e-06 1.13791157e-06 -5.27209841e-06
      1.70789587e-08 6.77819753e-06 -1.45373015e-05 -7.17303874e-06
      -3.83143470e-06 4.57410806e-06 -1.30382841e-06 -9.45952507e-08
      -2.79368606e-07 5.92243737e-07 -8.78711091e-07 -3.94587596e-06
      1.12971895e-06 1.22613446e-05 4.37009521e-06 -1.13742899e-05
      5.63159711e-06 2.08986103e-06 -3.77497099e-06 2.89641935e-06
      -1.14896160e-07 1.21326975e-05 2.18025070e-06 -3.65285973e-06
      -7.82560073e-06 -8.71693737e-06 2.57259876e-06 1.31867623e-07
      8.06432217e-06 1.17372037e-05 -4.27069062e-06 3.56677219e-06
      -3.01626187e-06 -5.92151673e-06 -1.12360476e-06 1.53662882e-06
      2.12085320e-06 -5.27089469e-06 -5.99784198e-06 3.04352830e-06
      3.48650087e-06 3.15734360e-06 2.00089539e-06 -2.39756105e-06
      2.38160374e-06 6.70520990e-07 -4.05035053e-06 -1.05497145e-06
      2.98042391e-06 6.29672149e-06 1.27256799e-05 -4.95428185e-06
      -7.39570760e-06 -1.47400158e-06 -8.27795475e-07 -1.98972339e-06
      -5.24323605e-06 5.50302047e-06 -4.69529687e-06 -3.35473351e-06
      -1.02080719e-06 5.25883763e-07 -6.08359369e-06 3.55550628e-06
      -5.50360426e-07 6.30383511e-06 6.77358287e-07 -1.79443759e-06
      -4.09678205e-06 -3.06081165e-06 -4.60935462e-06 3.69143504e-06
      5.60217313e-06 7.34406785e-06 6.48301148e-06 -9.37944435e-07
      -1.05476984e-05 4.21676077e-07 -1.23594327e-05 -1.48576930e-06
      4.37927247e-06 3.91113372e-06 5.95383335e-06 8.80126936e-06
      -2.01596890e-06 -2.09609925e-06 8.14765571e-08 -6.52076233e-06
      1.21726334e-05 -6.75703313e-06 -2.73299929e-06 -1.09619550e-05
      -3.33571563e-07 -9.08396851e-06 -1.08712293e-05 5.23755989e-06
      -8.54363043e-06 2.95076370e-06 1.18025600e-05 -9.61973637e-06
      -9.29192720e-06 -5.30954139e-06 -6.75083447e-06 3.32912828e-06
      9.11725783e-06 1.01535134e-05 -3.92567154e-06 -8.03871626e-06
      -1.38921550e-05 -1.66904119e-05 -6.45902082e-06 4.01792886e-06
      2.39041469e-06 -8.57285340e-06 -5.35098525e-06 -5.30272928e-06
      -1.06770412e-05 -1.44917176e-05 -1.81817959e-05 1.88641332e-06
      -7.97766916e-06 2.54955012e-06 -2.81450366e-06 -5.27059501e-06
      -1.80179632e-05 -1.39004878e-05 -1.61313401e-05 1.73175670e-06
      -6.80835774e-06 7.80866139e-06 -1.31499855e-05 -6.91471632e-06
      -1.70072144e-05 -7.64367815e-06 5.35655090e-06 -1.47674209e-05
      -8.43213638e-06 4.14038141e-06 -5.22915525e-06 2.10343887e-06
      7.40576979e-07 8.56731219e-07 1.59063165e-06 -1.28665533e-05
      -3.26331451e-06 -5.87226123e-06 -8.90649790e-06 7.60100147e-06
      -6.07427864e-06 3.11709618e-06 -1.33953063e-05 -1.64715348e-05
      -1.65566303e-06 -3.03098545e-06 -4.55731470e-06 -5.56574969e-06
      1.03354580e-06 5.34217043e-06 4.40299686e-07 -1.79472624e-06
      -1.34284001e-05 -8.42178815e-06 -4.00649787e-06 -1.71906299e-06
      -1.00354082e-05 4.32196157e-06 2.69461964e-07 -1.16609317e-05
      -4.99856105e-06 -2.13576332e-05 2.02919659e-06 2.15503678e-06
      -1.24422752e-06 5.29251906e-07 3.44015029e-06 -1.55766486e-06
      7.44874660e-06 -8.31360376e-06 1.17782974e-06 -5.47201353e-06
      1.93300912e-06 -2.61449509e-06 -6.32163437e-06 -1.68219674e-06
      -6.59590933e-06 -7.59098043e-07 -1.21459843e-05 -5.90219997e-06
      4.84356678e-06 7.32730041e-06 -8.47649881e-06 -3.01132854e-06
      -3.51122452e-07 4.98413647e-06 -9.55909854e-06 -3.53856603e-06
      3.55897100e-07 -6.07776826e-07 -6.35411561e-06 4.91594801e-06
      5.87695968e-06 1.07221749e-05 1.10098090e-05 -6.53263305e-06
      -3.25618453e-06 3.58776583e-06 -5.96449445e-06 -1.33961557e-05
      -3.66875315e-06 -6.38163192e-06 -1.97131703e-06 2.34419440e-06
      -7.97806933e-06 -5.98601309e-06 -6.67959694e-06 -7.52896494e-06
      -6.95829216e-09 -1.53881535e-06 2.85163378e-06 -8.72726650e-06
      -7.60724561e-06 2.99017688e-06 -8.82671316e-07 -4.08338337e-06
      1.06279313e-05 1.22304641e-07 -4.06724530e-06 -1.06682928e-05
      4.85753935e-06 4.14909937e-06 6.91987134e-06 2.25823464e-06
      1.09391722e-05 1.76018955e-06 5.54297776e-06 1.13338447e-05
      -1.03907241e-05 6.09121162e-06 3.26958389e-06 -7.10697464e-07
      -8.32252044e-06 1.13068825e-06 1.12865587e-06 5.90058880e-06
      6.82646214e-06 -5.77229059e-07 -4.93556217e-06 -6.81241227e-06
      6.18776255e-07 1.28299064e-06 -2.97911788e-06 -8.50839456e-07
      5.26847498e-06 -1.87854084e-06 1.33784340e-06 5.53731206e-06
      -3.30801163e-06 4.18484933e-06 -2.48618971e-06 -3.75092867e-07
      -2.36422534e-06 4.62294878e-07 -6.72249507e-06 -5.11419285e-06
      7.04379408e-06 -9.25928089e-06 -2.20552965e-06 7.71841042e-06
      8.66677055e-07 4.23534584e-06 -3.92647007e-06 1.20527613e-06
      -1.47803598e-06 5.15520981e-07 5.92666447e-06 -3.85637304e-06
      -1.72800966e-07 -7.56582494e-06 2.61015407e-06 -1.04302558e-06
      1.23978498e-05 -1.01551168e-05 3.70434577e-06 -5.42671069e-06
      5.85035650e-07 -2.06133336e-06 -3.38274958e-06 -1.38365567e-06
      -3.81228392e-06 -3.92498987e-06 -3.04729315e-06 -1.05852196e-05
      -7.21552124e-06 -5.05157777e-06 -6.12846134e-06 -5.10065138e-06
      -3.80507186e-06 -3.36069047e-06 -1.79599283e-05 -1.69505583e-05
      -1.10452274e-05 -1.70220810e-05 -7.16004342e-06 -1.42101180e-05
      -5.99945088e-06 6.06896401e-06 -1.38443802e-05 -2.01910916e-05
      -1.41056280e-05 2.56705812e-06 -3.44119167e-06 -1.16333035e-06
      1.37794211e-06 1.02714523e-06 -1.77750462e-06 4.06967183e-06
      -3.35086338e-06 -1.86521502e-05 -1.46479088e-05 -8.04767024e-06
      -5.49094921e-06 -1.28645308e-06 -2.82795827e-06 -3.60568310e-06
      -4.95547829e-06 -6.56375505e-06 -1.31057732e-05 -7.68949303e-06
      1.23707309e-06 -4.14752822e-06 6.81228494e-06 2.43745467e-06
      -2.33899459e-06 1.07967680e-05 5.35606387e-06 2.77052936e-06
      -1.54824011e-06 1.75519272e-05 9.07171852e-06 1.12771613e-05
      1.19334663e-06 9.15102555e-06 -1.39751376e-06 -4.03575177e-06
      -2.87957482e-06 7.20549679e-06 -7.63026492e-06 8.67333085e-07
      8.25195548e-06 7.54723374e-07 -5.66359267e-06 -6.41537827e-06
      -6.40526594e-07 4.22994844e-06 -8.43391149e-07 -8.50426716e-07
      3.34880360e-06 -2.03813624e-06 6.16459192e-06 5.10134851e-06
      5.99570149e-06 -2.18539549e-06 3.38261930e-06 9.82988240e-06
      -7.84091753e-06 5.75651939e-06 -1.35849109e-06 5.63789990e-06
      -3.26608642e-06 6.57971350e-06 -2.30307342e-06 4.37110202e-06
      1.03522761e-05 -4.57832869e-07 6.77586840e-08 -5.46835781e-06
      6.46578542e-07 -3.27064981e-06 2.84135012e-06 4.32662364e-06
      7.04913919e-06 9.73385431e-06 -6.22175139e-06 -3.60234367e-06
      1.05852075e-06 -3.06839252e-06 -2.85560736e-06 -5.17599074e-06
      1.52425093e-06 1.84362261e-06 4.49897743e-06 -3.46891738e-06
      1.33126305e-05 1.01789992e-05 2.54078623e-06 -6.00064050e-06
      -7.64925005e-07 -6.97029054e-06 -8.82428867e-06 -1.38125176e-06
      1.60485843e-06 -1.55839325e-06 3.26176087e-06 -1.28435177e-05
      3.92292168e-06 -2.19899971e-06 -7.94082462e-06 -7.61657520e-06
      2.78926855e-08 -1.18379548e-05 -1.18929856e-05 -1.15305511e-05
      -7.30954639e-08 -7.21660626e-06 1.97456961e-06 1.34996822e-06
      -5.84646887e-06 -5.15965485e-06 -8.94239565e-06 -1.10294204e-05
      -9.48803245e-06 2.10763824e-06 9.51693619e-06 4.20626657e-06
      -8.30437966e-06 -2.34877120e-06 -4.53230950e-06 3.53760333e-06
      6.73608019e-06 6.50083666e-06 9.37331970e-06 -7.10699339e-07
      1.40872703e-06 -2.60465595e-06 -1.98756643e-05 -7.69811413e-06
      -1.01149408e-05 6.23152664e-06 -5.06449942e-06 -9.82368783e-06
      -6.66838969e-06 1.97432808e-08 8.92834578e-06 5.92320657e-06
      -6.29866418e-06 -1.25998622e-06 -1.99817350e-06 -2.61565606e-06
      4.55044756e-06 6.33963191e-06 -5.85788575e-06 1.20242621e-05
      1.51910635e-05 3.46628190e-06 -5.35694062e-06 3.55627731e-06
      2.30362321e-06 1.13855840e-05 -4.99361431e-06 2.73617047e-06
      2.22437939e-06 -1.04843650e-06 -2.05927836e-06 6.81019810e-06
      -5.00989790e-06 1.31969273e-05 5.95181837e-06 1.30165506e-06
      -3.78335903e-06 4.24364453e-06 -4.98398094e-06 4.22884978e-06
      6.75946512e-06 -2.19701701e-06 8.52005269e-06 4.36558457e-06
      -3.59874753e-06 -3.79277208e-06 8.65383754e-06 -1.98873727e-06
      -2.50723201e-06 -3.41605846e-06 2.44925354e-06 -1.23243126e-06
      -1.57192244e-06 -1.49733989e-06 -4.64159893e-06 1.45853903e-07
      5.04915022e-07 -4.18848686e-06 -3.91436333e-06 9.10122424e-07
      3.21051402e-06 6.12925078e-06 1.87632122e-06 1.51841709e-06
      8.25495499e-06 -3.45271837e-06 3.50851496e-06 -6.10410734e-06
      1.43229965e-06 -3.00852861e-07 5.42535281e-06 -6.38640086e-06
      -1.42311308e-06 6.58849686e-08 -3.88805893e-06 -2.00516911e-06
      1.07926428e-06 -3.00605370e-06 4.06216350e-06 -3.57502131e-06
      3.74393017e-06 1.41074656e-06 2.45666070e-06 -1.46454604e-05
      -1.35584123e-05 -1.32759342e-05 -4.20607512e-06 7.45270427e-06
      6.78873266e-06 8.59840213e-07 4.10899293e-06 -3.71997385e-06
      -1.12404132e-06 -6.23208689e-06 5.58511921e-08 -3.29904469e-06
      -2.46304808e-06 1.01455862e-06 5.38680695e-07 -8.07529341e-06
      -4.07555990e-06 -9.31160139e-06 -6.17848002e-07 -1.61675616e-05
      -2.02962237e-05 -6.26513520e-06 9.82829351e-06 3.20780737e-06
      -1.49559073e-05 -2.23780012e-06 -7.72052658e-07 -1.16573901e-05
      -1.87012101e-05 -9.88805914e-06 -6.14053442e-06 -8.35848823e-06
      -6.27632744e-06 2.40367103e-06 5.84091822e-06 -1.49821508e-05
      1.08516642e-05 -1.63480649e-06 1.65767074e-06 1.28022214e-06
      -2.38570465e-06 -7.12744850e-06 1.85947351e-06 -4.40858867e-06
      -8.81333290e-06 7.71873783e-06 -7.62956552e-06 5.88005514e-06
      3.71730630e-06 -1.20429095e-05 1.06331054e-05 7.97083521e-06
      2.54981182e-06 -1.14848274e-06 4.13081580e-06 -1.34131881e-06
      1.41532598e-06 -9.12527071e-07 -2.44148453e-07 4.44737225e-06
      2.07401285e-06 -1.23420762e-06 -9.92735636e-07 9.72327234e-06
      3.17337026e-06 2.85064471e-06 2.27896317e-06 1.40174643e-05
      8.41087171e-07 -5.21014545e-06 -1.27289536e-06 -4.04620323e-06
      3.31210140e-06 1.80008908e-06 1.76457706e-06 2.63263757e-07
      4.21550067e-06 -3.06885636e-06 -1.80988025e-06 3.71212906e-07
      3.95265397e-06 4.39738778e-06 -3.05553590e-06 -3.42258409e-06
      2.70824489e-06 1.14424711e-05 2.50068342e-06 -1.30781264e-05
      -7.74986893e-06 -6.39032169e-06 1.16539559e-05 -5.78340359e-06
      2.43141267e-06 8.12659982e-06 6.33201216e-06 -8.13167208e-06
      -3.55313500e-06 -1.00961515e-05 -1.46682451e-05 -7.50294248e-06
      -2.13099406e-06 -4.94331471e-06 -3.50881396e-06 2.27537498e-06
      2.07968446e-06 3.38210953e-06 -6.45979981e-06 6.89007720e-06
      9.10045674e-06 -9.93849767e-07 -7.52642018e-06 6.01952706e-06
      -4.50761172e-06 2.47734351e-06 -8.32781188e-06 -1.92382249e-05
      -6.50769061e-06 -1.86330089e-05 -1.04963219e-05 -1.65308793e-05
      1.87072203e-06 -6.67882387e-06 1.76811159e-06 -6.30797786e-06
      -1.31448669e-05 -1.12062507e-05 -2.66028337e-06 7.26520602e-06
      1.70070889e-05 1.28550973e-05 -2.36234132e-06 -2.92640925e-06
      -9.06490914e-06 -8.83964913e-06 -1.82893273e-05 -3.34217157e-06
      -7.59572276e-06 -8.09697121e-06 -7.85133670e-06 -9.31944032e-06
      7.85104112e-06 4.03013388e-07 -6.89169838e-06 -8.27751649e-07
      2.79624328e-06 -5.27507098e-07 1.77936079e-06 -1.03191842e-05
      -9.03768580e-07 -3.04113115e-07 -1.39189763e-06 -3.98940870e-07
      2.63833113e-06 -4.29452257e-06 7.96899258e-08 -3.22847222e-06
      -3.46003139e-06 8.47450701e-06 -4.82777466e-07 2.08221400e-06
      3.22015535e-06 -5.23367419e-07 -1.51574241e-07 4.71907788e-06
      -1.11498116e-06 7.03226249e-07 -3.78346022e-06 6.29657552e-06
      -8.72709188e-06 -2.75543562e-06 -9.80618552e-06 5.28659757e-06
      4.26515453e-06 1.21160085e-07 -4.53653293e-08 3.81189056e-06
      4.02405340e-06 -8.24949495e-07 1.54430120e-06 -3.73561477e-07
      2.98978375e-06 1.10026849e-05 2.29140301e-06 2.31679564e-06
      4.22135008e-06 -1.62347408e-06 -2.83506029e-06 4.19296612e-07
      1.59465696e-06 2.80579320e-06 -8.27892836e-06 -4.62079925e-06
      -4.10315351e-06 2.63918946e-06 -3.54966296e-08 7.36466347e-07
      7.53681798e-06 -5.58412148e-06 -1.05552235e-05 5.50774121e-06
      -2.19347135e-06 3.57465296e-06 -5.83565622e-07 3.98571365e-06
      -6.13444172e-06 7.78085814e-06 -1.01463247e-05 5.48994819e-07
      -2.44949229e-06 2.56691260e-06 -6.04749914e-07 -6.60394517e-06
      -5.59379600e-07 8.94016296e-07 -7.76415391e-07 1.16928622e-05
      2.73937849e-06 -8.10313566e-07 -4.36431765e-06 2.56850922e-06
      1.21782614e-05 -5.87317436e-06 -2.87769330e-06 2.01809684e-07
      -5.04523496e-06 5.04544323e-06 -1.24943435e-05 -1.74220349e-05
      -1.61803819e-05 -7.26801863e-06 5.36190691e-06 -7.18288584e-06
      -2.01648072e-06 4.06093977e-06 4.13876506e-07 1.21303106e-06
      -9.00420400e-06 -2.13950193e-06 -2.90064099e-06 -4.78987886e-06
      -7.74317505e-06 -4.24671043e-06 -1.24714115e-05 -9.42394490e-06
      -6.52157325e-07 -4.00705034e-07 4.55670761e-06 -7.08008702e-06
      -1.15871044e-05 -2.39864324e-08 8.59464126e-06 -1.15271696e-05
      6.06830645e-06 2.38634271e-07 -3.99410828e-06 -6.50317418e-07
      -7.40157157e-06 -1.71501106e-05 -8.64845606e-06 -2.16224953e-06
      -2.72993520e-06 -3.94242261e-06 6.37894391e-06 -5.81801601e-07
      -9.59258341e-06 -1.18635426e-05 -9.11048846e-06 3.02519720e-06
      3.70734324e-06 -6.30039540e-06 -3.10636847e-06 -1.13915867e-05
      -1.19995238e-05 -1.71717820e-05 -6.21278923e-06 -7.77310561e-06
      -6.15701128e-06 -1.21679368e-05 -1.41069347e-06 -4.83552128e-07
      -6.42288023e-06 -6.41148108e-06 8.40335929e-07 -4.23251913e-06
      -1.26864211e-06 5.39760450e-08 -3.99059354e-06 -6.57530745e-06
      -2.32305890e-08 6.13499560e-06 1.26172272e-05 6.36869663e-06
      -8.55694179e-06 -1.20202803e-05 -1.35762230e-05 -1.13557971e-05
      -1.44586153e-07 8.90658794e-06 2.84446469e-06 -7.56492364e-06
      -1.99913279e-06 -8.53933898e-07 -1.68009956e-05 -8.39837594e-06
      -5.06620700e-06 1.55371379e-06 2.08779284e-06 -2.42145205e-07
      -2.59169406e-06 -9.86313989e-06 -1.38574887e-05 -9.26784651e-06
      -1.39905678e-05 -1.17589443e-05 -6.08498340e-06 4.82806900e-06
      -6.15466342e-06 -1.06012376e-05 1.52375969e-06 -7.14278758e-06
      4.53803023e-06 -9.96318795e-06 -1.80046809e-05 -5.10164682e-06
      -8.41244673e-06 -1.30391727e-05 -8.05014224e-06 -2.17854335e-06
      -3.80973484e-06 -5.76283310e-06 1.52962582e-06 -7.25202790e-06
      -1.00119687e-05 -1.22387455e-05 -8.44752503e-06 4.56416637e-06
      5.91560138e-06 -1.11812574e-06 -2.67813084e-06 -1.78568928e-06
      3.04965761e-06 -1.36317713e-05 3.73142143e-06 5.71468627e-06
      -7.16992508e-06 -1.09648618e-05 1.55600196e-06 7.27353154e-06
      -2.67010478e-06 7.07757408e-06 -3.64593848e-06 7.00796193e-07
      8.59317879e-06 4.67785185e-06 -1.10934261e-05 -6.23052642e-07
      -9.05490288e-06 -4.45454998e-06 -5.96944892e-06 8.55805581e-07
      -6.45734690e-06 -1.06561671e-07 2.11809197e-06 -4.01203215e-06
      -1.43222883e-06 5.68828864e-06 -1.85636026e-07 3.61415596e-06
      1.06897851e-05 -5.15838246e-06 -1.06722418e-05 -6.32630019e-07
      1.89351715e-06 3.92496395e-06 -4.38229222e-07 6.76186392e-06
      6.34707430e-06 6.65955577e-06 7.82129337e-06 -6.09271501e-06
      4.24531208e-06 -8.56883980e-06 7.62462832e-06 -1.33300574e-07
      -8.86731050e-06 -1.76119204e-06 -6.58887302e-06 -3.70432622e-06
      -6.41624524e-07 6.70843747e-06 3.25675774e-06 1.71472595e-06
      -2.88568185e-06 -3.94569906e-06 -3.21122388e-06 4.34768117e-06
      7.24873689e-06 -1.50997103e-05 -7.62046784e-06 -3.23036215e-06
      1.58832620e-06 -3.89328397e-06 -3.71843498e-06 -7.12270548e-06
      4.88962405e-06 7.33761863e-06 -6.99944280e-08 4.25770440e-06
      -1.20094160e-06 1.70249109e-06 -1.86680029e-06 -1.33736694e-06
      -7.38122071e-06 -4.64030290e-06 -1.24775033e-06 -2.55926147e-06
      3.49009679e-06 5.98880479e-06 2.80579047e-06 -2.43312570e-06
      4.41205793e-06 4.65228732e-06 -4.48682067e-06 -4.49097513e-07
      -5.77787705e-06 -9.80205868e-07 -7.15109763e-06 -6.72525448e-06
      4.23748361e-06 2.44629973e-06 -2.08596771e-06 8.16563261e-06
      -5.33820048e-06 2.48831861e-06 -1.34868451e-05 -2.23695520e-06
      3.68094470e-06 3.28377746e-06 -2.36007099e-06 -2.33409060e-06
      1.54999805e-06 3.58405759e-06 6.55786971e-06 1.07764697e-06
      -6.02369084e-07 4.13188354e-06 -2.68331360e-06 4.69638007e-06
      5.40453493e-06 3.08761287e-07 4.94009646e-06 3.25858423e-06
      -2.26130692e-06 9.52786741e-06 1.19598371e-05 -4.09514860e-06
      -3.53462951e-06 2.31045283e-06 2.80734957e-06 -6.00377348e-07
      -7.99997815e-06 1.14590262e-06 -3.96146743e-06 1.67687222e-06
      -1.98342676e-08 5.56102759e-06 5.64502034e-06 2.49544627e-07
      -9.70167775e-07 -8.49509979e-06 5.33838420e-06 1.59459205e-06
      5.80118740e-06 3.56280657e-06 3.90058995e-06 4.60369210e-06
      -9.92965943e-06 -1.72468606e-06 6.93620677e-06 -3.70811085e-06
      4.32898696e-06 4.38845245e-06 1.13131873e-05 -6.86682779e-06
      1.80042880e-05 1.82316683e-06 -4.34702997e-06 6.45471891e-06
      3.49636775e-06 -1.57193301e-06 4.35770926e-06 -5.92631386e-06
      4.87632769e-06 -3.51483754e-06 -3.14773024e-06 3.89233810e-06
      5.85902626e-07 -5.32114063e-06 1.82020472e-06 1.59933336e-06
      7.70915813e-06 1.28894897e-06 4.50188480e-07 -1.89930142e-06
      -1.09064486e-05 3.10239265e-08 -5.46047386e-06 3.42905741e-06
      7.22568939e-06 7.98341489e-07 1.04423725e-05 -5.02017883e-06
      5.47234549e-06 -2.73912087e-06 -2.07893777e-06 -1.65125232e-06
      3.14526324e-06 -7.76523848e-06 5.61417301e-06 4.23237225e-06
      3.29050067e-06 5.21137008e-06 -1.62671412e-07 -3.78233622e-08
      2.05138531e-06 -2.73959290e-06 8.80905463e-06 -8.67391918e-06
      -6.31183957e-06 -1.42706594e-05 -6.04295928e-06 -6.09548636e-07
      -7.28814530e-06 2.90834078e-06 -1.90082551e-06 -3.68694896e-06
      6.42993314e-07 -9.92266180e-09 -1.48358447e-06 1.13984629e-06
      -4.11628298e-06 9.40763039e-06 8.80204789e-06 2.96304529e-06
      3.95124607e-06 -6.34228127e-06 -2.87736566e-06 -2.45901128e-06
      -4.13128009e-06 -8.88997056e-06 -1.25428335e-06 8.21406331e-07
      1.41038538e-06 -5.54544658e-06 4.41797010e-06 4.15509959e-07
      1.47328831e-06 1.40789936e-07 -2.27726650e-06 -7.23740823e-06
      9.69398457e-07 -4.70265695e-06 -1.49009466e-07 -3.93418713e-06
      7.86291139e-07 5.82738221e-06 9.47392618e-06 -2.28608158e-07
      2.25155895e-06 4.42549521e-07 3.62574656e-06 -2.71666499e-06
      -2.16016042e-06 8.03662601e-07 -6.39978543e-06 3.28496731e-06
      4.74558738e-06 -6.05851665e-06 3.43603756e-06 2.43615716e-07
      -1.47527521e-06 2.91937312e-07 -1.37184963e-06 1.61051946e-06
      -1.40200927e-06 1.93222263e-06 6.12509575e-06 1.34508056e-07
      1.98950056e-06 -1.58844682e-06 7.22116553e-08 2.98598661e-06
      -3.81170526e-06 -3.75846889e-06 7.94740117e-06 -1.26528209e-06
      1.03982029e-06 -6.07103448e-06 2.40695113e-06 -3.17430431e-06
      -7.58471924e-06 1.04018654e-05 1.41754535e-05 8.43438193e-06
      -1.99326496e-06 2.72453099e-06 -4.84466739e-07 -1.57160650e-06</_></support_vectors>
  <decision_functions>
    <_>
      <sv_count>1</sv_count>
      <rho>-2.5480109568659648e-04</rho>
      <alpha>
        1.</alpha>
      <index>
        0</index></_></decision_functions></my_svm>
</opencv_storage>
