<?xml version="1.0"?>
<opencv_storage>
<my_svm type_id="opencv-ml-svm">
  <svm_type>C_SVC</svm_type>
  <kernel><type>LINEAR</type></kernel>
  <C>7.6299999999999998e-06</C>
  <term_criteria><epsilon>1.1920928955078125e-07</epsilon>
    <iterations>1000</iterations></term_criteria>
  <var_all>1296</var_all>
  <var_count>1296</var_count>
  <class_count>2</class_count>
  <class_labels type_id="opencv-matrix">
    <rows>1</rows>
    <cols>2</cols>
    <dt>i</dt>
    <data>
      -1 1</data></class_labels>
  <sv_total>1</sv_total>
  <support_vectors>
    <_>
      -2.78820698e-06 1.29659486e-06 2.62689787e-06 1.95115035e-06
      3.01430930e-07 2.38906932e-06 4.24842028e-06 5.93535447e-07
      5.14745750e-07 -5.38759832e-06 1.34164975e-05 1.86424700e-06
      -4.95069617e-06 9.95650134e-06 -4.71587646e-06 -4.95374388e-06
      1.80817574e-06 9.53098879e-06 8.62450179e-06 -4.51824371e-06
      2.55930763e-06 6.51500841e-06 3.24379641e-07 2.27171677e-06
      -7.89501973e-06 5.06469723e-06 5.87153590e-06 3.29882914e-06
      4.12808095e-06 1.23397695e-05 -2.60323986e-06 -3.60694548e-06
      -3.13119881e-06 -3.81071118e-07 3.61344155e-06 -7.90192007e-06
      9.87147132e-07 1.55260568e-06 3.42733847e-06 1.51186850e-06
      1.20125333e-06 1.14085460e-05 5.81729455e-06 -7.22064897e-06
      -4.67008704e-06 8.09394078e-06 7.37331561e-07 -6.41003589e-06
      4.70666328e-06 1.01639280e-05 3.79236462e-06 7.84538713e-07
      6.23631331e-06 2.13375097e-06 7.49341552e-06 1.56325689e-06
      9.32002422e-06 -1.01906780e-05 -4.63047672e-06 3.77557558e-06
      4.45167689e-06 -3.82938374e-08 3.32000263e-06 5.78943491e-06
      4.98496865e-06 6.38260144e-06 -7.60786293e-07 -4.45054638e-06
      2.69901852e-06 -2.23116501e-07 -2.17650586e-06 -5.23328390e-06
      -1.58584442e-06 -2.99077692e-06 -5.60653143e-06 4.52387394e-06
      -2.46738659e-06 2.51060555e-06 7.16529848e-06 -4.90670345e-06
      -9.43421855e-06 -9.84149665e-07 2.59347280e-06 8.30177044e-07
      -6.02760110e-06 -1.26681994e-06 2.48817832e-06 -4.52129416e-06
      -1.03051127e-06 6.64498975e-06 4.54467454e-06 -3.18439720e-06
      6.95006975e-07 -2.43265094e-06 -8.48471154e-06 2.82554265e-06
      -8.09623486e-07 6.38840811e-06 1.38687974e-05 1.60789284e-06
      7.71700161e-06 5.29132819e-07 -6.79511641e-06 -9.18873047e-06
      -6.02539046e-07 -2.09831728e-06 -4.68657026e-06 -4.64287859e-06
      5.40553083e-06 8.76904960e-06 -2.67903351e-06 -1.35201242e-06
      -4.42359851e-06 9.45203453e-07 3.37522533e-06 4.76847572e-06
      -5.82166331e-06 2.93148946e-06 -6.52999461e-06 -4.13426187e-06
      -2.33498849e-06 -4.91086394e-06 2.85417718e-06 3.80807478e-06
      2.64658388e-06 5.16282944e-06 4.67577092e-06 2.88384604e-06
      -7.52677181e-07 -3.06577726e-06 1.47599769e-06 5.67028610e-06
      6.90970319e-06 4.18159289e-06 2.55961572e-06 -2.36660230e-06
      -7.87919134e-07 -2.25656572e-06 -1.37808593e-05 -2.07170433e-06
      2.22773474e-06 -1.23651262e-06 -5.32191962e-06 4.88470687e-06
      8.13387214e-06 4.19508115e-06 4.30348064e-06 3.80391316e-06
      5.02082185e-06 9.48390425e-06 6.17542037e-06 2.56813053e-07
      3.40009296e-06 4.65237781e-06 -1.41677890e-06 -2.17290994e-06
      -8.75467606e-07 1.71221870e-06 -8.43325324e-06 -3.18519687e-06
      -6.68720804e-06 1.31920103e-07 1.61234152e-06 -1.23398559e-06
      -1.73808337e-06 -2.18587979e-06 -6.06419735e-06 1.64313258e-06
      -1.60934270e-08 1.79246445e-06 1.05234740e-05 2.05617948e-06
      -2.68225153e-06 6.13512930e-06 3.37545316e-06 -1.07405394e-05
      -1.63091318e-06 -2.18693822e-06 2.22992558e-08 2.05485617e-06
      5.48716753e-06 -2.98353802e-06 -3.24821076e-06 -6.53297730e-06
      5.67868528e-06 9.65998879e-06 7.93630898e-06 -1.09133425e-05
      -5.54544295e-06 5.33208140e-06 -4.85728606e-06 7.45410989e-06
      -6.98505573e-06 7.87757381e-06 3.76746061e-06 -5.89282672e-06
      -6.59759394e-07 5.39927214e-07 7.61753336e-06 7.74591808e-06
      4.45035403e-06 1.53974770e-06 -3.88796843e-06 -6.54382529e-06
      -8.17333239e-06 -4.58880459e-06 1.51223412e-06 7.20160779e-06
      4.11146220e-06 -2.20537959e-06 -7.69606413e-06 3.85493968e-06
      2.94341862e-06 -7.24326583e-06 3.46179877e-06 -4.16273861e-06
      3.92325046e-06 -2.71408089e-06 -7.82071402e-06 -1.39946621e-07
      -3.17527451e-06 6.14785961e-07 1.58754137e-05 -6.35237393e-06
      -5.44370550e-07 5.82695338e-06 3.99452347e-06 6.74877583e-07
      -3.90608920e-06 1.27692019e-05 -5.69019949e-06 -8.44616977e-07
      -1.08827385e-06 -6.18245031e-06 2.84310249e-06 5.28332805e-07
      5.14834255e-06 4.43483077e-06 -5.88370585e-06 1.52829386e-06
      -6.60175544e-07 6.39482607e-07 -3.74039109e-06 7.18613435e-08
      2.86000750e-06 4.20919196e-06 -4.06339223e-06 3.10927180e-06
      -6.63359288e-06 1.75385037e-06 -7.62770878e-06 -4.92273466e-06
      4.49179242e-06 4.40668327e-06 -9.66314656e-06 -2.31418994e-06
      4.89129070e-06 -7.66249741e-07 -1.98144949e-06 -2.79104484e-07
      5.71522241e-06 1.68392069e-06 2.96903067e-06 -5.17795752e-06
      2.10747066e-06 3.12888687e-06 -6.14829833e-06 -1.56484259e-06
      -1.37174595e-06 1.11053159e-05 5.53526570e-06 -2.23694860e-06
      -5.91522257e-06 -5.92731385e-06 -6.84014094e-06 1.02153263e-05
      4.94953429e-06 2.34044819e-06 6.16049363e-07 -7.79941729e-06
      -1.22597903e-05 -9.77307536e-06 2.08917314e-07 -8.94019138e-07
      -2.53455028e-07 -1.21590620e-05 -7.18517367e-06 -1.24598955e-05
      -1.57066061e-05 -1.35725520e-06 -1.32800042e-05 -1.80232212e-06
      -6.71453336e-06 5.80128471e-06 -2.82224482e-06 1.14198365e-07
      -6.99216707e-06 -1.15298280e-05 -1.11042900e-05 -3.39066469e-06
      4.39641417e-06 3.02590365e-06 -9.14147313e-06 -3.58565921e-06
      -2.86375234e-06 -6.85215537e-06 -3.34295578e-06 -1.15990306e-05
      -7.74592138e-07 2.07553171e-06 -6.46850413e-06 -5.13742680e-06
      1.02406851e-07 1.21083156e-06 -4.74913986e-06 -1.19459874e-05
      -9.68694803e-06 -3.47584978e-06 -8.38974029e-06 3.83319548e-06
      -1.27356429e-06 -2.81688563e-06 -3.12377961e-06 -1.35490291e-05
      -8.78135597e-06 -4.34234062e-06 -7.73363172e-06 -6.91645391e-06
      -6.93070842e-06 7.03043270e-06 6.40647954e-07 -1.02814693e-05
      -1.22796127e-05 -1.67065696e-06 -4.26087809e-06 -5.31290380e-06
      -7.86717737e-06 3.28786405e-06 -4.49142499e-06 -1.47573674e-05
      -1.42359713e-05 -1.08811400e-05 8.62520153e-07 2.29586462e-07
      -1.39304291e-06 1.72897046e-06 4.98349755e-06 4.35715037e-06
      7.61505476e-07 -9.73188708e-06 5.74394676e-07 -7.04640706e-06
      3.59959108e-06 -1.39442830e-06 -1.48967720e-05 -8.85371901e-06
      -5.97103144e-06 -9.91938487e-06 -1.78906885e-05 -2.25418680e-05
      -1.02327158e-06 1.75335720e-06 -2.44789476e-06 -5.57930343e-06
      -8.02928207e-06 -2.79940855e-06 -1.12636790e-05 -2.19126173e-06
      -4.57870237e-06 4.48962453e-07 -7.20364505e-06 9.10400558e-06
      1.45921126e-06 6.42898613e-06 1.10163273e-05 -1.09633984e-05
      -5.73045509e-06 -8.52659559e-06 -2.63472180e-06 -6.78869264e-06
      -9.15661894e-06 -1.00770694e-05 -8.14405666e-06 -6.53599955e-06
      -1.70522235e-05 -1.08544709e-05 -9.24374126e-06 -1.01245205e-05
      -3.17177887e-06 -7.94119660e-06 1.10778547e-06 -1.19186063e-06
      -5.30447460e-06 5.12335600e-06 -7.59431896e-06 -1.51845040e-06
      8.07512424e-06 2.89324163e-07 1.99484839e-06 -1.52680568e-05
      1.42819442e-06 4.77093135e-06 1.46593038e-06 -5.46334832e-06
      -4.43783483e-06 -4.76051400e-06 8.46138028e-06 1.18997123e-05
      -6.57050805e-06 5.84262170e-06 -3.63138724e-07 -2.80729728e-06
      -4.43814997e-06 4.80581411e-06 5.53250447e-06 -4.35869254e-07
      2.17534898e-06 -3.33945991e-06 -7.48037610e-06 -5.98440010e-06
      9.81496487e-06 1.81377447e-06 1.46759112e-06 2.49454672e-07
      5.20652839e-06 7.40165797e-06 4.28003858e-07 8.04818683e-06
      -1.91286881e-06 5.77558239e-07 -3.49942411e-06 -3.88604622e-06
      -5.63803326e-07 -3.61674870e-06 -4.15154454e-06 -3.90079458e-06
      4.14066380e-06 -2.36317851e-06 -5.04741092e-06 5.68426958e-06
      -5.45074363e-06 -9.58024771e-07 -1.59659521e-06 1.02397496e-06
      1.01319256e-06 3.55916700e-06 -2.92298728e-06 -2.39801625e-06
      -1.57896000e-06 -2.42643796e-06 -5.97767985e-06 7.52030519e-06
      6.78732931e-06 -2.75270713e-06 5.63231424e-06 4.08354981e-06
      3.61908269e-06 -5.20964250e-06 2.03476702e-06 -2.03174386e-06
      -1.11054933e-05 -5.89331512e-06 -2.13189674e-06 -9.32250987e-06
      -6.46431135e-06 4.27364739e-08 4.05786892e-07 -1.01477644e-06
      -1.38295206e-06 -4.83671920e-06 -1.23956024e-05 -1.67818835e-05
      -3.56172950e-06 -5.66801236e-06 -1.77363609e-06 -3.38770292e-06
      8.33650211e-06 2.40073041e-06 -8.68598363e-06 -1.81109517e-05
      -9.45403008e-06 4.26184306e-06 -7.01348381e-06 -3.03894331e-06
      -3.52798270e-06 -4.13284943e-06 -3.41129817e-06 6.85710177e-07
      -3.42251087e-06 -1.15999419e-05 -1.27689764e-05 -5.85444104e-06
      -6.30100794e-06 -5.49933975e-06 2.93914832e-06 2.65963513e-06
      -6.50512311e-06 -6.35653714e-06 -1.49111738e-05 -7.15238116e-07
      2.04360987e-07 -8.57956366e-06 3.89952902e-06 9.00034607e-08
      -3.55294901e-06 6.17966361e-06 2.99601470e-06 -2.80383938e-06
      1.05038562e-05 3.24324424e-06 3.92887478e-06 8.99779388e-06
      -9.77630316e-06 5.24607594e-06 4.91146147e-06 -1.21542723e-06
      8.80748848e-06 6.89281387e-06 -9.65261165e-07 4.17154610e-07
      2.15894511e-06 2.21420055e-06 -1.12337029e-05 2.19007944e-07
      5.17386127e-07 -5.87908993e-08 6.05137302e-07 -9.96872345e-08
      -2.55808573e-06 -9.00648683e-06 -4.03933609e-06 6.41634324e-06
      1.29190028e-06 -7.12239444e-06 4.78194170e-06 2.05327287e-05
      -2.27129021e-06 3.87681530e-06 2.35577886e-06 -2.47956973e-06
      2.68520512e-06 7.91577895e-06 -6.08760956e-06 1.20987806e-06
      8.54955397e-06 4.77238200e-06 4.56730777e-06 8.74349666e-07
      -9.10733263e-07 5.19988953e-06 2.13895873e-06 -3.02282547e-06
      2.88858337e-06 4.89764898e-06 -1.54338559e-05 -6.46571107e-06
      -1.62916592e-06 -3.76686967e-06 4.13943599e-06 -4.76187643e-06
      9.71335157e-06 -3.94691733e-06 7.08330708e-06 -7.04324657e-06
      1.55315574e-05 7.64665492e-06 3.24274652e-06 -2.92978348e-06
      -7.52854112e-06 2.36900746e-06 -1.10917663e-05 6.95654398e-06
      -2.14371380e-06 -6.18366630e-06 -6.67234326e-06 -3.35424124e-06
      6.87585043e-06 -9.08239690e-06 -2.23556003e-06 -5.00224587e-06
      2.26711836e-06 -9.69215853e-06 -1.55521266e-05 -5.15545116e-06
      6.49859189e-08 -3.35804407e-06 -4.05854871e-06 4.97161273e-06
      -6.78355400e-06 9.53819494e-07 -8.04675892e-06 -1.41793134e-05
      -5.38408585e-06 5.27037764e-06 2.33491346e-06 7.44206727e-06
      -3.65244250e-06 -6.68502025e-06 -4.15769728e-06 -5.18190518e-07
      4.12645068e-06 5.81674476e-06 2.86514432e-06 -3.59712743e-07
      -6.95312474e-06 -3.04187574e-06 -4.39696623e-06 -1.15355551e-05
      -9.99469285e-06 -5.66386598e-06 -7.85825887e-06 -1.28103193e-05
      -3.48444814e-06 -3.14220347e-06 4.22329003e-06 -2.99160502e-06
      7.34735352e-07 -5.28736336e-06 -5.81991526e-06 -2.10395024e-06
      8.27368603e-06 1.28200338e-06 2.34042341e-06 4.35303764e-06
      7.89676619e-07 1.55696239e-06 1.26373857e-06 -5.03504566e-07
      -3.20524236e-07 5.90963191e-06 -2.29068633e-06 4.13860391e-07
      1.29202463e-05 -4.22864377e-06 5.41583177e-06 6.29341866e-06
      1.05921436e-05 1.05234776e-05 7.83994892e-06 -2.85187662e-06
      -1.00602383e-05 5.32154354e-06 -1.40023412e-05 4.09415725e-06
      8.41810743e-06 -2.91541573e-06 -1.63650247e-06 9.52199844e-06
      -1.09496341e-05 -1.06541820e-05 1.34049924e-06 -8.48868603e-06
      -2.61190553e-06 -2.80665677e-06 2.57422062e-06 -6.72890474e-06
      3.85402200e-06 -2.96845246e-06 1.16687181e-06 2.66126472e-06
      1.24520147e-06 -1.29107059e-06 3.77711194e-06 1.90167657e-06
      2.90606590e-06 -3.17664330e-06 1.52551490e-06 -2.95612585e-06
      -1.43922455e-06 -3.96577707e-06 8.69008272e-06 -3.79846114e-07
      1.23605350e-05 -6.32708748e-07 -2.10359985e-07 -1.05050067e-05
      -2.92871823e-06 -3.38568225e-06 8.29983492e-06 -5.33928778e-06
      1.87725072e-06 2.51000279e-06 -6.28939574e-07 -5.02440753e-06
      6.14562168e-07 6.09106655e-06 -2.42084667e-07 -9.69005578e-06
      -1.53996589e-05 -1.88663907e-05 -6.14239025e-06 -2.73074448e-07
      4.39987252e-06 -5.30536363e-06 5.43836165e-07 5.74362411e-06
      -5.12725364e-06 -1.29058744e-05 -1.00521163e-06 -2.35403286e-06
      -6.40881626e-06 -2.80133804e-06 -6.99111706e-06 -5.94744051e-06
      -1.15253488e-05 -1.46373322e-05 -1.61278649e-06 -8.90972842e-06
      -1.06301022e-05 5.13736779e-07 7.04441027e-06 -2.56529870e-06
      -8.39469612e-06 -1.54742463e-06 -3.01916339e-06 -1.44248443e-05
      -1.17364252e-05 -1.05220697e-05 -8.75716069e-06 -6.85545274e-07
      5.39236044e-06 -5.81765516e-06 6.96029929e-06 -1.14081522e-05
      1.28830925e-05 4.60689944e-06 -3.28125952e-06 -6.15650515e-06
      -3.27048292e-06 1.11160389e-05 -2.92750838e-06 2.61154992e-06
      -7.50504796e-07 1.24567816e-06 -1.47950243e-06 2.28559273e-07
      -2.34026720e-06 -4.55730196e-06 5.36642392e-06 -8.74738987e-07
      -3.46775664e-06 4.13490670e-06 -1.00030420e-05 7.87298177e-06
      -2.28956105e-06 -7.28157488e-07 -3.25112580e-07 4.57176020e-06
      2.49983145e-06 4.64013647e-06 1.47087383e-06 1.48726476e-05
      -5.39247640e-06 -4.46200193e-06 3.32041463e-06 3.57404087e-06
      -3.21021929e-07 -1.98007933e-06 -1.26620569e-06 1.93709366e-06
      8.45927025e-06 4.25034705e-06 -9.53219455e-07 -1.03133664e-06
      -4.40124040e-07 -1.27414069e-06 6.26363260e-07 -3.87549926e-06
      4.16774856e-06 -1.58524790e-06 -1.44437363e-05 1.60017404e-08
      -1.25476078e-07 8.12933376e-06 5.07679761e-06 -6.46974513e-06
      -4.78132051e-06 6.90133220e-06 5.40608380e-06 -5.88673174e-07
      -7.11383655e-06 -4.40894269e-07 1.62001879e-06 -1.77538698e-06
      -4.10061557e-06 -1.05008339e-05 -2.16645162e-06 -8.61264198e-06
      -5.86546275e-06 1.89910872e-06 -1.49114157e-06 2.68768895e-06
      5.50210507e-06 4.43752560e-06 -5.10376003e-06 2.32384491e-06
      3.31639399e-06 -6.84903353e-06 -6.94725486e-06 6.24078166e-06
      -8.42733698e-06 -5.13494751e-06 -6.00473129e-07 -7.90219383e-06
      -6.16496300e-06 -2.26431384e-05 -9.91753859e-06 -6.83789222e-06
      5.75094100e-06 -9.68618860e-06 6.86594103e-06 -3.90330888e-06
      -3.37744132e-06 -1.23920872e-05 -7.79111542e-06 -2.81927373e-06
      9.33174306e-06 7.42680913e-06 -5.84281906e-06 -7.10655468e-06
      -6.70697182e-06 -1.16802858e-05 -9.79725883e-06 -5.79326809e-07
      -1.13004116e-05 -4.48876136e-07 -9.83124846e-06 -7.28322357e-06
      7.56584598e-07 2.38542293e-06 -3.52601228e-06 -2.20071729e-06
      -1.99356782e-06 -1.08782597e-05 2.19355275e-06 -1.10971605e-05
      -1.45396385e-07 1.08866391e-06 -4.25387407e-06 6.81339952e-06
      3.57220142e-06 -1.03082584e-05 -1.46091079e-05 6.14750263e-07
      -9.11171082e-06 -8.13969473e-06 1.42601039e-06 5.05866819e-06
      -1.61620665e-06 1.21998755e-06 8.64729464e-06 -4.24447262e-06
      -1.63169420e-06 -6.78179867e-06 9.65733989e-07 8.59522424e-06
      -9.74640670e-07 -1.67599944e-06 -5.92211518e-06 3.44671798e-06
      7.32712124e-06 -3.80110555e-06 -2.87062517e-06 3.75394364e-07
      5.66207245e-06 3.93471510e-06 5.89640422e-06 8.13611393e-07
      5.33594539e-06 2.45951105e-06 1.75968864e-06 -6.25823623e-06
      -1.83073098e-06 -4.35784784e-07 -8.90420870e-06 -1.27742032e-05
      -3.99956616e-06 -2.07302764e-06 -2.11278211e-06 -1.50276664e-05
      4.53121766e-06 1.54505017e-06 -8.50091146e-06 2.04800017e-06
      3.31616457e-06 -1.06133109e-06 -2.65413428e-06 8.32887872e-06
      -8.52796632e-07 4.68751068e-06 -5.15385909e-06 2.63425655e-08
      -2.17774573e-06 7.27533461e-06 -1.50767249e-07 -1.53726569e-06
      -4.46819331e-06 6.66505429e-08 -6.06914568e-07 -9.05082834e-06
      -2.80943846e-06 4.45079604e-06 -3.43416718e-06 3.16210071e-06
      9.67126425e-07 -1.58293624e-05 -1.61083281e-05 3.27794351e-06
      8.73509634e-06 -6.43170279e-06 -1.11893758e-06 3.10534438e-06
      -1.06057696e-05 -1.30067144e-06 -1.52763041e-05 -9.64753690e-06
      -1.29844120e-05 -6.52933386e-06 -5.42722951e-08 1.28369322e-06
      2.35202924e-06 -2.37563791e-06 1.88263755e-07 1.30348133e-06
      -6.88941236e-06 2.47914795e-06 8.53046572e-07 2.81543566e-06
      8.28648990e-06 2.37973268e-06 -5.30122270e-06 -5.26961958e-06
      5.57538272e-07 -6.07917445e-06 1.15209855e-06 -3.67999610e-06
      -4.94044752e-06 -4.85567625e-06 1.29453301e-05 2.43641398e-06
      6.83871440e-06 -4.10023358e-06 -5.48901880e-06 -7.59142449e-06
      -2.06512414e-06 -9.86778559e-06 -7.85751490e-06 4.75063047e-07
      -2.07400808e-06 -2.45877641e-06 2.52113909e-06 4.26584364e-07
      -1.09228095e-05 -1.04417195e-05 -1.29651562e-05 -5.32595050e-06
      4.08186270e-06 -6.64997242e-06 -5.39345066e-08 -1.35843593e-05
      -1.25652168e-05 -2.55547802e-05 -1.79155431e-05 -1.00488132e-05
      -1.14931054e-05 -4.86922590e-06 -2.25185454e-06 3.66425138e-06
      -1.43645393e-05 -6.99198472e-06 -1.44197811e-05 -7.72729891e-06
      -4.94655387e-06 -3.31984324e-06 -2.08808183e-06 -5.57031717e-06
      2.95104257e-07 9.64853007e-06 1.00130501e-05 5.51062749e-06
      -5.66609651e-06 -1.25834622e-05 -1.00140223e-05 -8.74558282e-06
      -4.31756507e-06 -4.60168212e-06 -5.35896152e-06 -6.93015363e-06
      -5.85011594e-06 -3.94357858e-06 -1.09825614e-05 -8.03321200e-06
      -5.45097510e-06 -3.64425603e-07 9.38897813e-08 6.32027707e-07
      -7.53062568e-06 -9.21014907e-06 -1.35434193e-05 -1.13418373e-05
      -8.79283016e-06 -8.76552895e-06 -6.73272962e-06 -2.36734166e-07
      -9.03750424e-06 -6.52862900e-06 3.28333340e-06 -1.29802938e-05
      9.09749269e-06 -5.75999593e-06 -1.48261761e-05 -1.02381764e-05
      -7.62786703e-06 -5.68453379e-06 -7.31605223e-06 -5.47065110e-06
      -1.32417063e-06 -9.67477172e-06 -4.36167011e-06 -9.01729345e-06
      -1.20173518e-05 -2.29508964e-06 6.60790056e-06 -1.08418669e-06
      2.71259296e-06 -5.32948025e-06 2.25401004e-06 1.28581280e-06
      -2.92500044e-06 -1.35503024e-06 -2.95630571e-06 6.18470040e-06
      -6.49643789e-06 -7.30826014e-06 8.07691140e-06 -1.79880169e-06
      -7.84572123e-08 9.03105320e-06 2.63177708e-06 3.86381635e-06
      5.00509032e-06 -7.75384080e-07 -4.41866359e-06 -2.46384207e-06
      -2.75167849e-06 -4.84118254e-06 -4.72169359e-06 5.64615038e-06
      2.02831620e-06 1.05424203e-06 -3.09500228e-06 -1.53218366e-06
      2.88539610e-07 8.85096779e-06 6.57545661e-06 2.56655380e-06
      -2.72927167e-07 -6.52208519e-06 -9.87040266e-07 -8.28274460e-06
      -1.24776113e-06 -3.60455715e-07 -9.20836555e-07 1.06919506e-05
      4.84730208e-06 -4.89413515e-06 -2.36319875e-06 1.87298625e-07
      3.78052135e-07 -9.30689203e-06 3.19234391e-06 8.07847027e-06
      -3.38937639e-06 1.38487110e-06 -4.17926685e-06 4.99323278e-06
      7.23595008e-07 2.99508997e-06 -3.16518793e-07 1.96738620e-06
      4.24681139e-06 -5.72332192e-06 -4.48250466e-06 -2.04824801e-06
      2.32287471e-06 -5.36255129e-06 -3.91994627e-06 -2.37263680e-06
      4.30314094e-06 1.43122918e-06 1.82791268e-06 -4.13751422e-06
      -1.61994183e-06 3.16181900e-06 -4.41155362e-06 -1.72994896e-06
      5.03368892e-06 3.60807985e-06 3.09396387e-06 3.95499546e-06
      -9.57104021e-06 -6.05963623e-06 4.17744468e-06 2.39947849e-06
      2.18049013e-06 -1.86702789e-06 -4.09670838e-06 5.37610822e-06
      2.13742055e-06 5.04688160e-07 -1.23622942e-06 -1.73241187e-06
      -3.36173048e-06 -3.19378978e-06 1.14264787e-06 -3.64447942e-06
      -5.67040672e-08 2.81908433e-06 3.32072182e-06 7.23712265e-06
      -3.96223504e-06 -7.53882659e-06 -1.41690471e-05 4.80385597e-06
      4.38815391e-07 3.50540608e-06 -2.13671819e-06 -2.06922141e-06
      7.03465912e-06 3.66508243e-06 9.10149993e-06 7.19822879e-07
      1.22491633e-06 2.92642312e-06 -4.81076586e-06 8.88284831e-06
      9.03436739e-06 -3.72976683e-06 6.95050812e-06 6.78286779e-06
      1.41155704e-06 3.28001829e-06 8.15067415e-06 -5.02600369e-06
      4.32519801e-06 3.09281830e-07 -3.11419626e-06 5.79219568e-06
      -1.02422769e-06 -5.69769782e-06 3.97721578e-06 9.55005453e-06
      7.63334083e-06 7.68221798e-06 1.22367819e-05 1.79895551e-06
      -4.76923060e-06 -1.62201086e-05 1.53686287e-07 -3.81430141e-06
      -1.22398887e-06 -2.62376574e-08 2.30226556e-06 2.84269117e-06
      2.90406717e-07 -9.60828128e-09 6.02908904e-06 9.92771675e-07
      -8.96487393e-07 3.96766927e-06 6.93097354e-06 -3.90323248e-06
      1.23266618e-05 1.09788107e-05 3.82129974e-06 -4.87120019e-07
      3.19305968e-06 6.01477313e-06 4.00100291e-08 -6.92902222e-06
      2.51715642e-06 -7.89139165e-07 -2.08763572e-06 3.89132583e-06
      1.24670339e-06 1.38372940e-07 4.22400763e-06 -1.31322361e-06
      -3.87285809e-06 -7.50536685e-07 6.54397763e-06 2.69458246e-06
      -7.25101700e-06 4.17691609e-07 4.68388464e-07 2.77509844e-06
      -3.08229323e-06 4.67637938e-06 -3.34353103e-06 -3.42924568e-06
      4.83627036e-06 -4.73782529e-06 -3.12110637e-06 4.04146067e-06
      9.12657015e-07 -6.45467935e-06 4.16098783e-06 4.96316443e-06
      5.13503710e-06 2.44624152e-06 5.98090446e-06 -3.68911714e-07
      1.36623785e-05 -2.65883295e-06 -2.60845036e-06 -3.33120511e-06
      -5.40534666e-06 -4.25926009e-06 2.80351742e-06 2.37956647e-06
      -3.01284626e-06 -1.95713460e-06 -4.01792386e-06 -1.09930284e-06
      -5.67938696e-06 -4.49349045e-07 -3.88754324e-06 -5.12063207e-06
      3.86582815e-06 -4.45650386e-07 2.94774986e-06 1.52011648e-06
      8.07905235e-06 -4.12785198e-07 7.46337400e-06 5.16234149e-06
      -1.80913389e-06 4.80660809e-08 -7.91880939e-06 -5.33411958e-06
      8.29452711e-06 7.77367040e-06 4.34052799e-06 -6.49061849e-06
      4.97827796e-06 6.05676814e-06 2.25295184e-06 1.45542776e-06
      -4.39897043e-08 -1.11091385e-05 -2.48331003e-06 -6.44737156e-06
      2.11569682e-06 6.99955945e-06 -8.96440497e-07 -6.66324240e-06
      7.17650664e-06 -2.36859069e-06 -2.71257841e-06 -1.29005127e-06
      -3.10637643e-06 3.98294196e-06 -8.44126953e-06 -3.12269435e-06
      3.31937895e-06 -5.74831301e-06 -2.87171065e-06 -3.13347982e-06
      5.23665585e-06 1.04612491e-06 2.41742237e-06 4.73486671e-06
      1.15262728e-05 -1.87700414e-06 -8.25373081e-06 -4.59447620e-06
      -1.05906247e-05 2.52707696e-06 -4.16738749e-06 2.86181239e-06
      2.34864365e-06 -7.69524286e-06 5.52834263e-06 -4.70348550e-06
      9.05260151e-07 -3.13356941e-06 6.00720614e-06 4.40325266e-06
      -3.65288929e-06 6.02288401e-06 4.76556033e-06 5.12720771e-06
      4.05318087e-06 -2.72298143e-06 1.23965974e-05 2.58183991e-06</_></support_vectors>
  <decision_functions>
    <_>
      <sv_count>1</sv_count>
      <rho>-2.3921402635151967e-04</rho>
      <alpha>
        1.</alpha>
      <index>
        0</index></_></decision_functions></my_svm>
</opencv_storage>
