<?xml version="1.0"?>
<opencv_storage>
<my_svm type_id="opencv-ml-svm">
  <svm_type>C_SVC</svm_type>
  <kernel><type>LINEAR</type></kernel>
  <C>7.6299999999999998e-06</C>
  <term_criteria><epsilon>1.1920928955078125e-07</epsilon>
    <iterations>1000</iterations></term_criteria>
  <var_all>1296</var_all>
  <var_count>1296</var_count>
  <class_count>2</class_count>
  <class_labels type_id="opencv-matrix">
    <rows>1</rows>
    <cols>2</cols>
    <dt>i</dt>
    <data>
      -1 1</data></class_labels>
  <sv_total>1</sv_total>
  <support_vectors>
    <_>
      4.33316154e-06 -9.64339051e-07 -4.13881935e-06 1.66749805e-06
      1.03029117e-06 7.96740460e-06 8.00156431e-06 -4.90438742e-06
      -2.89678792e-06 -4.52177073e-06 7.61402180e-06 -2.96049734e-07
      -5.40713756e-07 2.20255174e-06 -5.71699366e-06 2.69323746e-08
      -5.47021227e-06 3.63149729e-06 -3.68055657e-06 -3.12588918e-06
      5.03539104e-06 8.92277228e-07 1.77505649e-06 -4.91871651e-06
      -1.02136773e-05 -4.10831262e-06 -1.52988002e-06 8.48215313e-06
      -3.63671916e-06 1.04950223e-05 -7.81357267e-06 -2.24785913e-06
      -1.60547381e-06 -7.20491835e-06 -2.98901313e-07 -3.64645132e-08
      -2.35609764e-06 1.81729808e-06 -9.75493185e-06 7.82205279e-06
      8.87985334e-06 1.31427623e-05 2.56656040e-06 3.94595054e-06
      -8.42297325e-08 7.61039928e-06 -1.44761032e-06 3.61284447e-06
      9.61792011e-06 2.39141696e-06 3.07778805e-06 -4.14806118e-06
      7.04563035e-06 5.73773423e-06 -2.24019664e-06 -8.48656509e-06
      4.45171372e-06 6.09328140e-07 -4.80403605e-06 3.23138306e-06
      -1.59470005e-06 5.90977697e-06 4.19937487e-06 1.66662983e-06
      -1.40880434e-06 1.85761621e-06 5.13731993e-06 1.83861687e-06
      -2.21613464e-10 2.17428237e-06 -4.98613326e-06 3.80343039e-07
      1.47748005e-06 2.52596783e-06 -5.00929218e-07 3.69108557e-06
      3.42318503e-06 -1.21309461e-06 6.82132668e-06 5.05800608e-06
      -2.71884414e-06 6.88675345e-06 2.12658347e-06 5.23127665e-06
      2.91758670e-06 7.30703277e-07 1.46668341e-07 -2.14821898e-06
      -1.66293887e-06 1.14179338e-05 8.53602160e-06 -5.14217299e-06
      2.27161286e-06 2.61230230e-06 -2.85077022e-06 5.30021725e-06
      -3.94906237e-06 2.77798927e-06 6.30793147e-06 4.07521469e-07
      -7.18547540e-07 -6.86129624e-07 -3.23391146e-06 -2.58067575e-06
      -6.90831939e-06 5.39824623e-06 -3.24665120e-06 -7.24737583e-06
      1.14084833e-05 -7.98986457e-06 -4.10611619e-06 1.77783409e-06
      -1.04163773e-05 7.14626276e-06 8.33074137e-06 1.09806706e-06
      -7.41526583e-06 -3.50694154e-06 1.83290877e-06 -1.80687402e-06
      2.02521210e-06 3.49200673e-06 -8.56293809e-06 -4.77058641e-08
      2.52593077e-06 5.60466424e-06 -1.24791256e-06 4.55972497e-07
      -5.74844626e-06 -1.30625665e-06 -4.67500877e-06 1.56345152e-07
      4.39693395e-06 -2.79765800e-06 -5.82922303e-06 -3.78160507e-06
      1.00879902e-07 7.32608441e-07 -1.03640896e-05 -7.71515488e-07
      2.97086513e-06 -2.69025463e-06 -4.84132988e-06 2.57755642e-06
      4.21180948e-06 3.50254481e-07 5.87760496e-06 7.21088827e-06
      8.69988071e-06 7.61020829e-06 5.03088540e-06 1.00942552e-05
      9.29929047e-06 -4.81326481e-07 3.79198991e-06 -1.27993701e-06
      4.26699671e-06 1.79330857e-06 1.38348094e-06 -9.86868963e-06
      -2.58390105e-06 -3.53498166e-07 3.23976593e-07 6.30580507e-06
      -4.93822336e-06 -4.09931909e-06 2.73339242e-06 -2.77212649e-07
      -8.03100374e-06 3.31658725e-06 -4.24869177e-06 -3.95060488e-06
      -3.93311484e-06 -3.94606559e-06 -4.50289599e-06 -3.49368884e-06
      1.10884287e-06 6.56279963e-06 -5.74477426e-08 -1.21138555e-06
      2.34595882e-06 3.51878248e-06 -9.31862360e-06 -2.41351972e-06
      -6.51184337e-06 -4.77642880e-06 1.36728954e-06 1.59668571e-06
      3.15609964e-06 2.75180992e-06 1.91550794e-06 6.21591153e-06
      -6.61114609e-06 9.03218097e-06 -3.84140037e-07 -1.57155705e-06
      -7.25154632e-06 -7.37316805e-06 9.12401629e-06 -6.70032978e-06
      -3.72800446e-06 9.46054661e-06 9.62544036e-08 -5.05241087e-06
      1.61863977e-06 -2.12226587e-06 -1.83814200e-06 2.68839221e-06
      1.19976426e-06 2.20399079e-06 -3.86806096e-06 -4.05242145e-06
      -6.26390874e-06 6.15365389e-06 -1.77813286e-06 4.28655176e-06
      6.73500472e-06 1.00753221e-06 -2.20229754e-06 3.74505157e-06
      7.36091899e-09 -3.66437098e-06 2.07608955e-05 9.88788074e-08
      -8.95402223e-08 -2.14263332e-06 -3.83127690e-06 -1.33363687e-06
      7.20409389e-07 3.35673712e-06 1.30625313e-06 -1.76224461e-07
      -1.20481150e-06 -1.94569793e-06 -7.08025254e-06 9.01552266e-06
      -2.41280219e-07 8.09306675e-06 8.32421563e-07 -5.01877503e-06
      -1.42438489e-06 -2.59472654e-06 -3.34308652e-06 -2.68523445e-06
      7.09155847e-06 -3.18442659e-07 -2.65377480e-06 5.34301080e-06
      -6.06989897e-06 5.26345912e-06 -1.05952577e-05 -4.07756215e-06
      2.57091210e-06 6.56046404e-06 4.83019494e-06 -2.46230547e-06
      4.26634642e-06 -5.43215720e-06 3.85833482e-06 -1.15150567e-06
      2.55859095e-06 5.67536927e-06 -4.58117438e-06 -4.29708325e-06
      -1.85138595e-06 -6.16774969e-06 -1.31248644e-05 4.93897824e-06
      -1.64957146e-06 4.05357559e-06 3.90568812e-06 -2.45666911e-06
      -1.34979136e-05 -1.15367948e-05 -9.92964397e-06 2.29286525e-06
      6.17804835e-06 -6.62713660e-07 -5.19137893e-06 -1.42133267e-05
      -1.07963697e-05 -1.18162816e-05 -4.89383046e-06 7.10569623e-07
      6.13858333e-07 -6.21169374e-06 -4.60586079e-07 -1.32729838e-05
      -6.40884036e-06 -7.92949504e-06 -2.95883410e-06 -1.05838217e-05
      -7.51750486e-06 -3.96541918e-06 -2.23545044e-06 5.51218682e-06
      -1.51192198e-05 -9.56105760e-06 -9.38660287e-06 -1.55061207e-06
      -7.12414339e-06 2.82034625e-06 -1.13761798e-05 -6.62491539e-06
      -1.52249822e-05 -7.26458529e-06 2.77254503e-06 -1.33420899e-05
      -1.34137190e-06 -4.10268228e-07 -5.91208789e-07 1.06314087e-06
      5.92858714e-06 2.36525602e-06 -2.99143096e-07 -4.86487579e-06
      -9.85303632e-06 -5.20557478e-06 -6.61707190e-06 8.49801290e-06
      -3.72510954e-06 -7.14406099e-07 -8.70567783e-06 -1.27078320e-05
      -1.09307666e-05 -1.96332917e-06 -5.09790425e-06 -7.48967568e-06
      -6.91512741e-06 -6.21032495e-06 -1.36366168e-06 -2.90575122e-06
      -1.12278649e-05 -1.13044107e-05 -4.65449875e-06 -6.66685946e-06
      -3.49289121e-06 -3.81113887e-06 2.25097187e-06 -1.42544841e-05
      -1.14157974e-05 -1.21620060e-05 2.24950918e-06 1.34417826e-06
      3.27094131e-06 7.24659856e-07 4.74081708e-06 3.13221994e-06
      3.99653209e-06 -1.25610313e-05 -4.32273191e-06 -4.38994857e-06
      1.97899044e-06 -4.69354927e-06 -1.96588098e-05 -1.54180327e-06
      -9.12156111e-07 -1.04626406e-05 -1.17825948e-05 -1.70376006e-05
      5.89365527e-07 5.47600212e-06 3.17863442e-06 2.61551047e-08
      6.30999193e-06 -9.51693619e-06 -3.80743791e-06 1.88970500e-06
      1.77862660e-06 -4.76498553e-06 5.35183017e-06 1.14733048e-07
      5.15375223e-06 4.48405672e-06 1.14463137e-05 -8.14069881e-06
      -7.48325022e-07 1.73812657e-06 4.57400984e-06 -6.41004635e-06
      -6.23110600e-06 -9.94082166e-06 -7.40998803e-06 -6.47933302e-06
      -1.61018270e-05 -8.24600465e-06 -1.06441166e-05 -1.08120694e-05
      1.63183631e-06 4.80802146e-06 -2.57621025e-07 -7.34281684e-06
      -3.84284431e-06 4.31537046e-06 -3.04250966e-06 -6.24272616e-07
      -1.12456564e-06 -7.65491041e-06 -1.49052460e-06 -7.67754864e-06
      9.54278403e-06 6.21757863e-07 9.84746566e-06 -9.34964987e-07
      1.76043807e-06 -4.86455338e-06 3.04045238e-06 5.75612376e-06
      -5.06813512e-06 7.95076085e-06 6.83792496e-06 1.22148799e-06
      -1.50155156e-05 1.21179974e-05 7.58469469e-06 -1.78050607e-06
      5.56722443e-06 -5.22170239e-06 5.78054096e-06 -1.34909624e-05
      -1.55984560e-06 -2.58385603e-06 -1.26433736e-06 4.08881942e-06
      3.01730074e-06 -2.24737073e-06 -8.70415897e-06 7.07250638e-06
      -2.28962767e-06 2.98511509e-06 -2.92560594e-06 2.22711947e-06
      2.00623617e-06 -7.29043734e-07 -6.16468060e-06 -8.94444292e-06
      8.09061657e-06 -6.21078425e-06 -3.62718447e-06 7.14683028e-06
      -7.20852449e-06 -4.93871812e-06 3.17830973e-06 -5.69175882e-06
      6.84607403e-06 4.58415025e-06 7.30970032e-06 -1.67083329e-06
      -3.55057841e-06 -6.47651359e-06 5.31077558e-06 3.72804357e-06
      1.70206818e-06 3.73369221e-06 6.62274351e-06 1.55119724e-05
      6.68600887e-06 8.71143357e-07 -7.62666832e-06 5.39794246e-06
      -9.75570583e-06 -2.06575305e-06 5.54794224e-06 -2.20497918e-06
      -5.78477693e-06 1.00691398e-06 -9.83899440e-07 -4.26989982e-06
      -3.51089034e-06 -1.34818765e-06 -7.66025005e-06 -1.02443646e-05
      -1.19464539e-05 -1.17223544e-05 -5.92842753e-06 -1.28171077e-05
      1.08549682e-06 3.02165677e-06 -9.95290338e-06 -1.95638313e-05
      -1.31705619e-05 5.16243153e-06 -1.77884740e-05 -1.00038119e-06
      -7.42749444e-06 -1.96722476e-06 -3.38704604e-06 3.01750197e-06
      -6.43488829e-06 -1.18376884e-05 -2.19790145e-05 -7.76972320e-06
      -1.22408551e-06 -3.75705918e-06 4.75158913e-06 -7.59612567e-06
      -3.94097879e-06 -2.70091255e-06 -1.78252922e-05 -4.27139184e-06
      6.80290304e-06 2.31732156e-06 2.54308816e-06 2.72356289e-07
      -8.70490226e-07 5.22308210e-06 -1.90612366e-06 -3.81026189e-06
      2.60307252e-06 1.54436366e-05 9.87942622e-06 -3.76835487e-06
      -3.94714743e-06 6.43026851e-06 3.69071404e-06 9.55325731e-07
      -1.90257174e-06 -2.25556232e-06 -1.25900506e-05 2.96203461e-06
      4.84352358e-06 4.02775731e-06 -7.62618265e-06 -2.70800319e-06
      2.44365015e-06 -6.85062469e-06 -3.86012334e-06 -4.58484283e-06
      4.61855507e-06 3.78932941e-06 -1.56039357e-06 -4.05593391e-06
      5.76973798e-06 -3.17031277e-06 -1.96430778e-06 9.73880924e-06
      1.49085395e-06 5.44613931e-06 4.68401640e-06 2.19679379e-07
      -5.77082176e-07 -9.29819294e-07 -1.87540275e-06 9.70061319e-06
      7.97599569e-06 -4.55065265e-06 9.14340376e-07 2.85995884e-06
      -1.45896095e-07 6.49602134e-06 3.18492857e-06 9.86578380e-06
      1.01237229e-05 -2.14063152e-06 -1.08302784e-05 -6.89808803e-06
      1.01312999e-05 5.14920248e-06 -2.76603942e-06 -4.64482491e-06
      1.05167237e-05 3.59296087e-06 7.81950621e-06 -4.24057316e-06
      1.19310225e-05 9.97099778e-06 5.78139134e-06 6.92264075e-06
      1.29319108e-06 -4.63345623e-06 -8.29908004e-06 1.53146430e-05
      -1.96438168e-06 -4.74504259e-06 -6.24946551e-06 -6.86669500e-06
      9.46457749e-06 -5.56181703e-06 -3.43797683e-06 -5.03508954e-06
      2.44146872e-06 -8.00954967e-06 -1.74278848e-05 -1.48203890e-05
      6.74913417e-06 -4.45771184e-06 -5.37228379e-06 7.75692115e-06
      7.40410951e-06 6.77396415e-08 -9.21345872e-06 -2.09196169e-05
      -8.29544479e-06 -9.61969545e-06 -1.86792545e-06 1.87138585e-06
      -9.35175285e-06 -1.98586122e-06 -2.45144497e-06 1.39577267e-07
      8.47705905e-06 7.55814017e-06 1.08565582e-05 -3.92056518e-06
      5.18138222e-07 -7.97097073e-06 -8.80879998e-06 -6.01110787e-06
      -9.89876844e-06 -3.70164480e-06 -5.99792702e-06 -1.21390785e-05
      -5.75474814e-06 -1.07319156e-05 4.28709973e-06 2.21569712e-06
      5.10555481e-07 -4.79045502e-06 2.54186693e-06 3.55220959e-06
      3.37504298e-06 5.07347659e-06 -7.66921130e-06 -4.83224596e-07
      1.07383330e-05 3.69800273e-06 -1.76297135e-06 -3.29073288e-07
      4.43882800e-06 1.14881482e-06 -3.44536170e-06 -1.23142956e-06
      -3.36493741e-07 -2.47931121e-06 3.04624251e-07 -4.95163249e-06
      -1.59190677e-06 5.09950723e-06 4.93255402e-06 -3.74957835e-06
      -7.22468621e-06 4.03492049e-06 -1.35695254e-05 4.44208717e-06
      9.85558836e-06 -4.60127239e-06 3.75074751e-06 4.03450485e-06
      -7.48706907e-06 -2.35687776e-06 -9.15118960e-07 -3.16402293e-06
      -2.63977699e-06 -8.07544075e-06 1.18008791e-06 2.50579944e-07
      -2.30139972e-06 -1.57635463e-06 2.78367565e-06 2.92420214e-06
      1.21729977e-06 -2.58152136e-06 -1.16296678e-05 1.68656845e-06
      -1.96189490e-06 2.03470586e-06 -5.47025729e-06 -2.36021538e-06
      1.13836450e-05 -1.74222566e-06 -6.22795733e-06 -6.64367144e-06
      5.11317830e-06 8.96434358e-06 -2.81151870e-06 -6.70799272e-06
      1.91618051e-06 1.01447563e-06 4.02948717e-06 -1.66212139e-05
      6.54544237e-07 -8.91329933e-07 5.15705278e-06 -8.55334656e-06
      6.45786884e-07 5.42318867e-06 -1.64854328e-07 -8.30715271e-06
      -1.46848824e-05 -1.53399906e-05 -1.51638978e-05 -4.44212810e-06
      -3.73838958e-07 2.24395262e-06 1.00407760e-06 -5.33314108e-07
      -4.10061239e-06 -2.56037288e-06 -6.37367702e-06 -7.41329677e-06
      -9.63142065e-06 -4.17991544e-08 -4.05361607e-06 -6.82508517e-06
      -3.21698690e-06 -1.34712973e-05 4.15218949e-07 -1.85279696e-05
      -1.24907901e-05 -8.06272874e-06 1.17389982e-06 -8.69708947e-06
      -1.17661766e-05 -2.81673601e-06 -2.12756731e-06 -5.37970800e-06
      -1.05658182e-05 -1.74875968e-05 -1.06995612e-05 -1.07156993e-05
      -6.15060162e-06 -4.58794329e-06 3.21453467e-06 -1.35729715e-05
      1.11173640e-05 -3.90632385e-06 -8.52251674e-07 -6.63958917e-06
      -6.30497141e-07 5.05990693e-06 6.30494924e-06 9.29578619e-07
      -8.72598139e-06 5.79851758e-06 -1.97529789e-06 -1.73720494e-07
      3.70289257e-07 -9.43608029e-06 3.43322336e-06 8.76055583e-06
      -3.37262622e-06 7.85265820e-06 -5.12890665e-06 2.74555987e-06
      -7.54276334e-06 3.57843669e-06 -5.07809636e-06 6.64308664e-06
      4.22632002e-06 -4.30686805e-06 5.77717265e-06 4.94673714e-06
      -4.71627618e-06 4.70795248e-06 3.37886536e-06 1.18255448e-05
      -2.71398960e-07 -3.49416632e-06 8.46631610e-06 -3.11963345e-06
      8.88398517e-06 6.76631271e-06 1.65121889e-06 -2.26687939e-06
      3.99898863e-06 5.23178301e-07 -7.01774184e-07 1.98498878e-06
      2.29126226e-06 2.39449287e-06 -1.17263353e-05 -1.10674046e-06
      -3.13258465e-06 7.30069405e-06 4.94811547e-06 -1.19072347e-05
      -2.89366790e-06 -8.07915421e-06 1.29171049e-05 -5.50278219e-06
      9.68661152e-06 4.18137233e-06 6.18713148e-06 -3.22776464e-06
      -1.61358287e-06 -5.54263670e-06 -1.16839310e-07 -6.46579429e-06
      -3.01712225e-06 3.00820102e-06 2.14363538e-07 -1.05625099e-06
      2.44567605e-06 -5.74314709e-06 5.22038499e-06 1.45212027e-06
      -6.48514060e-08 -6.50183347e-06 -8.85918871e-06 8.42588634e-06
      -3.70420111e-07 3.95961564e-07 -1.03275725e-05 -2.50669495e-06
      -8.98274538e-06 -1.63436544e-05 -6.03203898e-06 -6.43744443e-06
      5.63047706e-06 3.82478405e-08 -6.85106716e-06 -5.57620240e-07
      -1.26794303e-05 -1.53773599e-05 -4.10760504e-06 6.41458792e-06
      3.85446810e-06 8.08043126e-08 -6.12546546e-06 3.14382987e-06
      4.21241566e-06 -1.11424224e-05 -5.04330592e-06 -2.09088557e-06
      -1.24751487e-05 -6.36241248e-06 -1.84321800e-06 -5.59696855e-06
      -3.42790281e-06 6.85674877e-06 1.88794729e-06 -8.47897991e-06
      5.81127279e-06 -3.44269688e-06 5.58423380e-06 -1.08996928e-05
      2.97152883e-06 -3.99064356e-06 3.65108872e-06 9.31584600e-06
      2.67105543e-06 2.13188355e-06 -4.61020591e-06 -5.04243917e-06
      -7.61748061e-06 -2.69333668e-06 -3.68417386e-06 9.30133683e-06
      -7.68700318e-07 3.27850921e-06 3.15682314e-06 1.72380908e-06
      3.92841821e-06 7.21198239e-06 2.27186320e-06 5.22720939e-06
      -5.31874139e-06 -6.17914611e-06 -5.07963659e-06 3.03921502e-06
      7.46957721e-06 8.10868869e-07 4.59858120e-06 2.01607213e-06
      6.70562395e-06 6.20300079e-06 4.44109946e-06 -3.57713202e-06
      9.38577728e-07 1.80331006e-06 -1.91074014e-06 2.93198724e-07
      -2.31634112e-06 -2.45317915e-06 -5.51213907e-06 -7.24137408e-06
      2.75952152e-06 6.53353754e-06 2.08873212e-06 1.99144120e-06
      7.77708283e-06 4.46191734e-06 -1.63170216e-06 -4.19413618e-06
      5.58732654e-06 1.35283315e-07 -6.46144781e-06 7.78752383e-06
      3.57656234e-07 5.49998504e-06 9.96396352e-07 1.84278861e-06
      5.19553907e-07 8.09077665e-06 2.61906166e-06 6.80575067e-06
      -1.16927376e-05 -3.78351592e-06 -8.32865680e-07 -1.91856907e-06
      2.55444706e-06 5.39500604e-07 4.50161770e-06 1.12312437e-05
      3.59771093e-07 -9.01846306e-06 -7.67224356e-06 -1.45173829e-06
      1.42751460e-05 -7.01291447e-06 -3.42498379e-06 -5.21677862e-07
      -7.74142700e-06 -6.41581892e-06 -6.99876773e-06 -9.84409508e-06
      -1.72235905e-05 -9.19758713e-06 1.08814663e-06 -8.44738952e-06
      3.40052043e-06 -7.75660283e-06 2.70107648e-06 6.53380903e-06
      -2.69260977e-06 -5.97130747e-06 4.32378647e-06 -3.05535150e-06
      8.59172724e-06 -4.55155714e-06 -1.36270592e-05 -6.19291950e-06
      2.01372245e-06 2.97085739e-06 -3.64447010e-06 -4.15038176e-06
      -1.16847195e-05 -1.85618285e-06 8.18292210e-06 1.65790220e-06
      6.48993478e-07 -5.09999700e-06 -1.03365655e-05 -6.75279171e-06
      1.10244082e-06 -8.53558322e-06 -1.22494494e-05 -8.24673316e-06
      -5.87046571e-08 4.11561950e-06 -1.23462860e-06 -2.56919179e-07
      -1.08873473e-05 -5.40584142e-06 -5.52010670e-06 -4.80786093e-06
      1.29741738e-06 -3.57991848e-06 1.94128552e-06 -1.18550488e-05
      -1.20408831e-05 -1.63430541e-05 -2.52573172e-05 -9.29213275e-06
      -1.04514074e-05 -1.56979531e-05 -2.37399877e-06 -1.11802115e-06
      -3.55322800e-06 -2.14970555e-06 1.97730992e-06 -1.67287362e-05
      -6.50502034e-06 3.45872536e-07 -6.77990829e-06 -8.24902872e-06
      1.17949526e-06 -3.07928963e-06 2.68020671e-07 -9.67434516e-07
      -6.28772705e-06 -1.60023010e-05 -7.78002322e-06 -1.16637957e-05
      -7.64387380e-07 -7.63663593e-07 1.61019625e-06 1.59469630e-06
      -2.46837294e-06 -3.75537479e-06 -1.26871937e-05 -1.26881523e-05
      -1.82546057e-06 -2.31117656e-06 4.57313126e-06 -2.59131934e-06
      3.09342489e-08 -4.86657791e-06 -1.68933675e-05 -1.61636544e-05
      -1.19684819e-05 -2.03569380e-06 1.99919577e-06 8.70138933e-07
      -8.65185757e-06 -1.38674513e-05 1.29834064e-06 -1.32157411e-05
      3.91431104e-06 -1.12029820e-05 -1.09657940e-05 -3.39875373e-06
      -8.57588657e-06 -4.84807515e-07 -8.10258734e-06 -5.08285120e-06
      -4.24995875e-07 -1.17467644e-05 -2.04471712e-06 -5.28636974e-06
      -4.09109680e-06 -8.51215191e-06 -3.84011264e-06 -6.31359899e-06
      5.24423103e-06 3.19572041e-06 1.70289752e-06 9.94110110e-07
      7.61292654e-07 4.64832056e-06 3.95918960e-06 1.27250423e-05
      -5.90973650e-06 -7.34597734e-06 4.56317866e-06 -6.18835202e-06
      -9.57281918e-06 1.49323546e-06 -1.01721764e-06 6.74998637e-06
      5.36471953e-06 -2.67427367e-06 1.05935648e-07 -1.25226925e-05
      -7.29154590e-06 8.17830482e-07 -1.05475992e-05 -3.02674175e-06
      -2.40228559e-07 2.80003997e-06 -4.86363160e-06 -7.81047856e-06
      2.29078910e-06 -2.48528613e-06 1.08530276e-05 5.09502297e-06
      5.81792938e-06 4.38580315e-07 -5.79562584e-06 3.41811415e-06
      7.80392202e-06 -8.33133072e-07 3.64163157e-06 7.57169346e-06
      2.64306777e-06 4.10266875e-06 -3.78178385e-07 2.40214149e-06
      7.35406184e-06 -4.62819935e-06 4.74764147e-06 2.53762073e-06
      -7.59563181e-06 -3.48059939e-06 -8.58093426e-06 1.18954654e-06
      -6.66923279e-06 8.08734228e-07 -7.19013042e-06 -5.73784382e-06
      3.34069136e-06 -4.84748534e-06 1.05770937e-06 7.40050518e-06
      3.72200270e-06 -2.25712893e-06 -3.22607480e-06 1.88970932e-06
      8.65052812e-07 -2.49907112e-06 -4.76654850e-06 -3.49381980e-06
      2.58796240e-06 7.44110991e-07 -3.50301639e-06 7.58408214e-06
      -1.04571996e-06 -4.88633134e-07 -3.02128910e-06 -3.12344105e-06
      -6.33200534e-06 -9.43922987e-06 7.49522428e-07 -1.28474949e-06
      7.58034139e-06 1.99152538e-07 -8.14272153e-06 -4.69038469e-06
      3.03830302e-06 -1.68274471e-06 -3.60620174e-06 -3.20843219e-09
      3.42143289e-06 -9.01392559e-06 -4.23388610e-06 3.53238283e-06
      -3.70610633e-06 3.20641789e-06 5.43733586e-06 5.90859190e-06
      2.51726101e-06 -3.90304240e-06 -1.20415370e-05 5.81786935e-06
      3.36185940e-06 -2.34320214e-06 -7.71872328e-06 1.89470791e-06
      -2.65116296e-06 5.07311915e-06 6.20110723e-06 3.75930335e-06
      -2.56723183e-07 5.31144860e-06 -9.93780577e-06 6.98184431e-06
      4.79411165e-06 -3.34298602e-06 8.29163218e-06 5.42243288e-06
      -2.91333004e-06 2.38348980e-06 5.83849715e-06 -3.37702863e-06
      1.12977375e-06 2.17318689e-06 4.84889551e-06 3.45131548e-06
      -5.09679285e-06 -8.96376889e-07 6.64746995e-06 -8.40960456e-06
      1.08539325e-05 4.07875359e-06 3.84982377e-06 1.71451609e-06
      9.52843280e-08 -1.35542232e-05 3.26328541e-06 -7.82370989e-06
      2.01912894e-06 -1.95714620e-06 5.30393663e-07 2.13900375e-06
      -9.11765164e-06 -1.35362086e-06 3.12661905e-06 2.56508656e-07
      -2.92737923e-06 4.11375504e-06 2.96091980e-06 -1.19583410e-05
      9.07969115e-06 7.11150790e-07 7.44878889e-06 5.34482479e-06
      5.77716446e-06 6.26894871e-06 3.47155037e-06 -2.76231094e-06
      6.88592354e-06 -5.38310860e-06 -2.15641967e-06 4.27732903e-06
      1.67269252e-06 -1.58498835e-06 -2.64790719e-06 2.71733188e-06
      -1.17459975e-09 -4.32695697e-06 6.13771044e-06 4.71923340e-06
      -2.90481694e-06 -3.60275664e-07 -6.68135635e-06 2.51272513e-06
      2.42464762e-06 -6.53412997e-07 -6.78001015e-07 8.87667255e-08
      -1.85254203e-06 -4.27637087e-06 -2.58737941e-06 4.86625777e-06
      1.51320694e-06 -1.04221772e-05 -3.88258513e-06 5.76771436e-06
      9.07266713e-06 5.33688808e-06 8.54204700e-06 6.09706876e-06
      4.77682624e-06 -5.88639477e-06 -2.80186873e-06 -1.18589503e-06
      -2.52515019e-06 4.57850228e-06 1.97604936e-06 -1.02859676e-05
      4.76440533e-07 -1.89128184e-06 -4.66149049e-06 3.52484790e-06
      2.98864620e-06 -8.46853618e-06 4.67197333e-06 -2.44292551e-06
      -2.46480431e-06 -3.85743851e-06 -6.65675884e-07 -1.98248040e-06
      8.06583557e-06 5.76069169e-07 3.83903762e-06 -6.17848445e-06
      -3.69706208e-06 7.97449218e-07 -4.86948238e-06 -7.38382369e-06
      6.20291030e-06 8.86930138e-06 4.64162076e-06 5.76947379e-08
      -3.57560816e-06 7.24423126e-06 2.63796028e-06 -1.91410049e-06
      -5.47707145e-07 -9.99471285e-06 3.67125472e-06 -5.46606452e-06
      -2.97611564e-06 -1.97156373e-06 8.15987642e-06 -1.10210635e-06
      3.40206043e-06 -1.45410115e-06 -1.21140420e-06 -3.81712698e-06
      6.30197110e-06 7.58770375e-06 6.20467574e-07 -8.39105098e-07
      -5.42190764e-06 1.44520652e-06 4.23410211e-06 4.39474525e-06
      5.06222068e-06 -9.54812367e-06 2.39023535e-07 -5.57257067e-07
      1.61545563e-06 4.48056107e-06 8.49425396e-06 5.64736683e-06
      -1.01756186e-05 -4.90017965e-06 -5.29610361e-07 6.12298845e-06
      8.10411257e-06 -5.80558753e-06 -2.08669144e-06 -4.42650799e-06
      3.99994315e-06 1.03684679e-05 1.78838704e-07 1.85870556e-06
      1.29285911e-06 1.00707075e-06 3.39586131e-06 6.54278438e-06
      3.24166444e-06 -9.16443469e-07 5.36293498e-07 -1.44845569e-06</_></support_vectors>
  <decision_functions>
    <_>
      <sv_count>1</sv_count>
      <rho>-2.3459967714911656e-04</rho>
      <alpha>
        1.</alpha>
      <index>
        0</index></_></decision_functions></my_svm>
</opencv_storage>
