<?xml version="1.0"?>
<opencv_storage>
<my_svm type_id="opencv-ml-svm">
  <svm_type>C_SVC</svm_type>
  <kernel><type>LINEAR</type></kernel>
  <C>9.5400000000000010e-07</C>
  <term_criteria><epsilon>1.1920928955078125e-07</epsilon>
    <iterations>1000</iterations></term_criteria>
  <var_all>1296</var_all>
  <var_count>1296</var_count>
  <class_count>2</class_count>
  <class_labels type_id="opencv-matrix">
    <rows>1</rows>
    <cols>2</cols>
    <dt>i</dt>
    <data>
      -1 1</data></class_labels>
  <sv_total>1</sv_total>
  <support_vectors>
    <_>
      7.11689211e-07 -2.25546927e-07 4.33148784e-07 -4.53699073e-07
      2.33741474e-07 1.42827105e-06 1.90495007e-06 -7.81962228e-07
      3.61284293e-07 -3.68151149e-07 1.23119946e-06 5.27784550e-07
      -1.28959243e-07 1.05429208e-07 -7.31477598e-07 1.59954618e-06
      -5.84795544e-07 7.44614965e-07 3.58821495e-07 -3.04455483e-07
      3.59460216e-07 -9.53947961e-07 2.21991684e-07 6.95627236e-08
      -6.48494051e-07 -8.86145415e-07 3.89127791e-07 9.48757474e-07
      -5.19778098e-07 9.92212676e-07 -1.98445619e-07 -7.34187950e-07
      2.63267481e-07 1.37261839e-06 -5.90532466e-07 -6.17517173e-07
      -6.28972714e-07 -4.56816558e-08 -3.90374026e-07 -8.56694726e-07
      6.91079549e-07 -5.67784824e-08 6.32948115e-07 -1.61201385e-07
      -1.00396574e-06 -5.31817186e-08 -1.70215898e-07 -5.50489915e-07
      -1.59820672e-07 4.46462991e-07 -7.80758000e-07 1.65987032e-07
      3.57482236e-07 -1.68015077e-07 1.17481852e-06 -1.41390967e-06
      5.20794572e-07 -3.48333458e-07 -6.97330449e-07 -3.25093197e-07
      2.70716612e-07 -6.87657405e-07 3.34281822e-07 1.03613513e-06
      -9.34500122e-08 8.04433512e-07 1.12622864e-07 3.89383587e-07
      6.52651636e-07 4.91055800e-07 -8.43054977e-07 7.08485501e-08
      4.08091495e-07 8.53718589e-08 -1.59901515e-06 7.05638115e-07
      -2.07850562e-07 -2.16352277e-07 6.30164664e-07 6.06630749e-07
      -2.62646523e-07 2.35762727e-07 -8.86521860e-08 7.40224550e-07
      -7.99503709e-07 6.44586976e-07 8.33366130e-07 -1.85860529e-07
      3.30010977e-07 1.16873093e-06 -1.99518894e-07 -2.23372524e-07
      1.68783640e-06 -1.00881800e-06 6.13327472e-07 3.57730073e-07
      -4.52201192e-07 1.21664073e-06 7.20671210e-07 -1.98769357e-08
      -1.01193649e-07 -5.44591536e-08 -1.29833893e-06 -1.24517260e-06
      -8.82016451e-08 -4.76107317e-07 -4.41634178e-08 -9.73411261e-07
      3.08892481e-07 4.26967972e-07 -8.65470682e-08 3.03142457e-07
      -1.87141063e-06 4.62230247e-07 -1.68967574e-07 -8.46045278e-09
      -1.24624492e-07 -1.26189616e-06 -1.11781355e-06 8.67536727e-08
      3.54839301e-07 3.56434526e-07 -9.77828336e-07 2.06173709e-07
      6.83820986e-07 -8.40142661e-07 8.11766824e-07 5.28553244e-07
      -2.48294810e-07 2.82454636e-07 -7.60118667e-07 3.97012542e-07
      1.19150127e-06 7.17465639e-07 2.67773601e-07 -6.16474438e-07
      6.62873049e-07 2.37570617e-07 -5.64600271e-07 5.18251909e-07
      2.56248796e-07 6.00956639e-07 -6.68621055e-07 1.85605614e-07
      1.50917032e-07 -2.13616431e-07 2.36897577e-08 -9.59516484e-08
      -1.22714610e-07 7.03208229e-07 5.95562085e-07 2.87822729e-07
      -5.76816205e-07 -3.04713211e-07 1.41988522e-07 -7.31408250e-08
      2.81742103e-07 2.77162542e-07 -5.57822830e-07 -1.35672963e-06
      -2.27661275e-07 1.63248131e-07 8.95316418e-07 -4.16562251e-08
      -4.99866957e-08 5.34949208e-07 5.50983259e-07 2.20619441e-07
      2.74421723e-07 1.87345364e-07 -9.72399903e-07 -3.56769299e-08
      -6.68308701e-07 1.98245957e-07 -8.84421070e-07 5.68562228e-08
      -4.61841438e-07 3.33050991e-07 -2.91392183e-07 5.18456204e-07
      5.60288242e-07 1.61320671e-07 5.34786182e-07 -1.25349004e-06
      3.50343100e-07 7.32582293e-07 4.36631353e-07 -4.91761398e-07
      8.48004191e-08 3.08047299e-09 -8.08103380e-07 2.08839779e-07
      -1.16460501e-06 -1.55722859e-07 1.68162003e-07 -2.66686612e-07
      -1.24419842e-06 -8.20794355e-07 4.08024277e-07 -4.21528313e-07
      2.26797127e-07 1.19408674e-06 2.28760527e-07 2.53202046e-07
      -6.35117999e-07 -2.57166192e-07 3.26500867e-07 9.51112440e-07
      3.42305100e-07 9.51645006e-07 -1.24220310e-06 -6.92739803e-08
      -7.87199326e-07 4.97937833e-07 -1.94963064e-07 -8.93952148e-08
      1.25553115e-07 -2.46649734e-07 -2.54273715e-07 5.93205641e-07
      1.70574133e-08 1.79967543e-07 1.71863678e-06 -9.57000907e-07
      -7.45229045e-07 -9.82735060e-07 -5.54313658e-07 -1.14365093e-06
      -4.90725824e-07 1.02695196e-07 -4.38162914e-07 -8.37854429e-07
      -4.35961226e-07 -2.83294241e-07 -5.48175592e-07 1.35105415e-06
      -1.13902971e-07 3.76045136e-07 -8.19727461e-07 -2.82799675e-07
      4.53813470e-07 3.19946992e-07 -9.37302445e-07 4.00310086e-07
      4.51945112e-07 3.51740056e-07 3.68405381e-07 -3.45787825e-08
      -7.21813763e-07 7.01407259e-07 -8.05469142e-07 1.41344415e-07
      1.21278703e-07 7.57105852e-07 -4.99100716e-09 -2.33283401e-07
      3.17199671e-08 6.22936113e-07 1.91176866e-07 -1.60128337e-07
      1.09248333e-06 3.27056313e-07 -4.68493425e-07 -7.87664703e-07
      8.23056155e-07 -2.36932607e-07 -5.67917937e-07 6.38580730e-07
      -3.16956971e-07 -3.02256495e-07 1.19115396e-06 -7.92494973e-07
      -9.44060218e-07 -6.24019236e-08 -1.10851613e-06 -5.26677923e-07
      4.96169889e-07 1.09285884e-06 4.07040773e-07 -9.03754866e-08
      -1.70288786e-06 -2.79858568e-06 -7.58903411e-07 -9.42426425e-07
      -7.37738389e-07 -1.56218016e-06 -1.51314464e-06 -7.83965163e-07
      -2.63475749e-06 -1.25594329e-06 -4.21799058e-07 -4.36014574e-07
      -6.87485624e-07 -7.93928223e-07 -3.91455245e-07 -2.39566020e-07
      -2.40634245e-06 -1.69502198e-06 -1.14061504e-06 4.29787946e-07
      -2.26920378e-07 7.37018411e-07 -7.18443971e-07 -3.87598192e-07
      -1.72505554e-06 -8.54313953e-07 8.47413943e-08 -1.75492619e-06
      -1.28888087e-06 3.77508769e-07 -1.23181712e-06 1.67865124e-07
      -2.94321325e-07 -4.39948593e-07 -9.54332293e-08 -1.28103943e-06
      -3.45029974e-07 2.20713368e-08 -6.34842593e-07 1.45418119e-06
      -9.40499206e-07 -8.69565326e-07 -2.07382209e-06 -1.03076252e-06
      -9.39354322e-07 -7.89858234e-07 -5.81116922e-07 -6.67697918e-07
      -3.58635816e-07 4.58848639e-08 1.24926203e-07 -1.06204232e-06
      -2.65680342e-06 -1.17627133e-06 -3.26141304e-07 -2.86818533e-07
      -1.09968857e-06 4.15565822e-08 -5.94269750e-07 -2.43165596e-06
      -2.14561851e-06 -2.38408688e-06 2.48320191e-07 -2.52555594e-07
      4.40929711e-08 -3.85924039e-07 -3.48993467e-07 8.78669084e-07
      7.71649184e-07 -1.07772496e-06 1.07680410e-06 -3.48124672e-07
      -4.35656062e-07 -2.19406388e-07 -1.34910522e-06 -2.45542253e-07
      -3.01973927e-07 -6.03404146e-07 -1.43236946e-06 -1.75803052e-06
      2.33827762e-07 2.54077634e-07 -5.45710805e-07 2.62339057e-07
      -1.30942734e-09 -3.99173587e-07 -1.04211949e-06 3.79498857e-07
      -3.56719482e-07 5.82957057e-07 -4.77787069e-07 2.30526069e-07
      3.70022036e-07 3.87612658e-07 1.92945731e-06 -8.73628551e-07
      -1.42845707e-07 -5.14286285e-08 2.45250732e-07 -1.33252445e-06
      -6.91747573e-07 -1.75773266e-07 -1.66926588e-06 7.55529470e-08
      -1.24514781e-06 -1.39296583e-06 -9.15751457e-07 -1.35802838e-06
      -5.05977937e-07 1.74550706e-07 7.19582829e-08 -3.10017299e-07
      -9.41509825e-07 -2.84846720e-07 -7.88107968e-07 -2.82946615e-07
      4.96711834e-07 -3.55868849e-07 1.19331986e-07 -6.41155339e-07
      7.97384359e-07 -4.27931724e-07 -5.20367905e-07 7.22723712e-07
      -4.05027123e-07 2.00447388e-07 9.08542233e-07 4.63125161e-07
      -1.39478448e-06 7.09856010e-07 -3.84349420e-07 -5.53715438e-07
      -1.11902591e-06 1.29307239e-06 4.32951509e-07 -4.87910427e-07
      5.51269579e-07 -4.46784895e-07 1.33947324e-07 8.88202692e-07
      3.20560815e-07 8.65456400e-07 6.03272454e-08 6.16779687e-07
      4.76934133e-07 -1.10511962e-07 -3.36823547e-07 2.65408715e-07
      -7.18016850e-07 8.73575459e-07 8.45678187e-07 9.93108188e-07
      -1.31707409e-07 -3.22200890e-07 -5.74845785e-07 -9.50276160e-07
      7.35148888e-07 -2.29481515e-07 -1.05125071e-06 7.97939094e-07
      -7.31266852e-08 -9.63250386e-07 2.74352772e-07 1.88724684e-07
      -1.15696949e-07 -3.05298641e-07 3.70061514e-07 -3.64233927e-07
      -1.09771690e-06 -1.47123751e-06 1.22235377e-07 8.22716117e-07
      2.90401374e-07 5.27842481e-09 -5.57804078e-08 -1.27945739e-07
      1.07671745e-07 -9.37025561e-07 -6.13305474e-07 -9.63316211e-07
      -4.97712847e-07 -9.34256036e-07 1.82122861e-07 -1.37116899e-06
      -2.41462971e-07 8.49477573e-08 -1.09386542e-06 -9.55282303e-07
      1.61056093e-07 -1.21522703e-06 -1.37804841e-06 -1.57486409e-06
      -6.35360138e-08 -1.00529473e-06 4.26039364e-08 -7.68669736e-07
      -1.64468204e-07 -2.01674425e-07 -5.53738403e-07 -1.78957237e-06
      -1.29474415e-06 -4.01412336e-07 -2.03922173e-06 2.81638648e-07
      -4.07755152e-07 -5.37884375e-07 -4.84385680e-07 -1.00447856e-07
      -8.10619611e-07 -2.69947100e-06 -1.16913725e-06 -4.28956838e-07
      -9.65904405e-08 -6.32210970e-07 5.49648973e-07 1.47142217e-07
      -1.77093952e-07 -5.96156042e-07 -1.71795045e-06 -7.56179247e-07
      1.15028406e-07 -7.63546154e-07 6.59602392e-07 1.90649189e-07
      -2.57793516e-07 6.77220726e-07 -4.56128305e-07 -2.26978088e-07
      7.34510479e-07 1.27057126e-06 1.77241702e-06 8.12225039e-07
      -4.09228392e-07 1.09718314e-06 1.54704722e-07 3.59815118e-07
      8.15039627e-08 -6.82709754e-07 -1.08153358e-06 -2.42608934e-07
      2.09801169e-06 1.99996578e-07 5.74400900e-08 -4.58463745e-07
      1.52689850e-07 -7.37713037e-07 8.82578604e-07 -8.94783227e-07
      -5.95561914e-07 6.54453629e-08 -1.71179707e-07 2.82312072e-07
      -1.85614653e-07 -2.60444040e-07 -9.56380518e-07 1.80569975e-06
      -2.21948131e-08 2.36958329e-07 1.28858062e-06 -1.30390205e-07
      9.61773708e-07 1.37559269e-07 -5.06908179e-07 -3.14259978e-07
      9.21842059e-07 7.28041812e-07 -2.04303106e-07 1.89970635e-07
      1.06433117e-06 -2.05856736e-07 -5.07938466e-07 2.61375760e-07
      6.78214406e-07 6.03773231e-07 -2.91094722e-07 -1.37898053e-06
      -8.00928717e-07 9.44374449e-07 -1.76362335e-07 -1.20622232e-07
      9.14051839e-07 -3.73063131e-07 1.78389030e-07 -1.13997214e-06
      1.39864505e-06 2.14230931e-06 1.84689702e-06 -5.19768776e-07
      2.11636021e-07 -1.31626507e-06 1.52498600e-07 6.19856451e-07
      -2.86024601e-07 -3.38524984e-07 -9.15556143e-07 -1.28667011e-06
      8.52318820e-08 -7.76239062e-07 -1.22195991e-06 -7.15332249e-07
      1.70909530e-07 -1.08150459e-06 -2.28888894e-06 -1.45451179e-06
      1.20513187e-06 -1.42012618e-06 2.05371862e-07 8.36121558e-07
      1.02067918e-06 3.32633647e-07 -1.41097132e-06 -2.14480929e-06
      -1.73232456e-06 -2.05871657e-07 -2.33490187e-08 5.87103841e-07
      -8.91323850e-07 -9.97738880e-07 -3.50255874e-07 -3.84981604e-07
      2.18845472e-07 1.40403358e-06 -1.35136018e-08 -4.37330925e-07
      6.23748690e-07 -1.75124015e-07 -1.79933096e-07 -1.87231109e-07
      -1.57946261e-06 2.78597440e-07 -1.02296644e-06 -1.99049083e-07
      -6.16885131e-07 -4.54531886e-07 2.76871248e-07 -2.80503741e-07
      -8.35950587e-10 7.81940486e-08 8.97036273e-07 -2.16631662e-07
      -2.39536718e-07 5.84416398e-07 -6.58347631e-07 -2.98719698e-07
      -5.42281831e-10 5.55386123e-07 -1.59412210e-07 -9.73461738e-07
      -3.41260545e-07 1.25609756e-06 -6.46793339e-08 1.28193818e-07
      1.08059112e-06 7.01573299e-07 4.08942952e-07 -1.03631555e-06
      -5.53147359e-08 6.83144151e-07 9.65164418e-07 6.10485756e-07
      -6.31732235e-07 1.39912004e-07 -1.55276530e-06 -6.46723208e-08
      6.64031518e-07 8.59291518e-08 1.05190963e-06 9.13283372e-07
      7.85995098e-07 1.18976203e-07 7.39220184e-07 -1.32766317e-07
      2.64428479e-07 -8.30504916e-07 -5.79133143e-07 1.73797176e-07
      2.57764128e-07 -3.40201581e-07 1.47462245e-07 -4.87335541e-08
      -5.21104198e-07 -7.42326449e-07 -1.77767987e-07 2.66186539e-08
      1.24657362e-07 -3.05927216e-07 -1.03986144e-06 2.29260479e-07
      3.25281690e-07 1.31061455e-07 8.67008055e-07 -6.83961957e-07
      1.66885343e-06 -2.40231316e-07 -3.62311596e-07 -1.34828781e-06
      -4.53219258e-07 5.41929381e-08 -9.21588423e-07 -4.43961312e-07
      -2.11956106e-08 -8.07236873e-08 1.29858336e-06 -3.80743273e-07
      -1.91209779e-07 6.58499687e-07 -2.12961339e-07 -1.07876201e-06
      -1.30191313e-06 -1.66737595e-06 -1.08586403e-06 -1.09911002e-06
      1.53354094e-07 3.50446442e-07 -2.68505325e-08 7.08454166e-08
      -2.80387610e-07 -9.91308298e-07 -5.07571727e-08 -4.69677303e-07
      -7.63075889e-07 -4.75839073e-07 -2.34690802e-07 -1.29396926e-06
      -7.71702332e-07 -2.00657382e-06 1.94949763e-07 -1.21606115e-06
      -2.55925556e-06 -7.65623497e-07 7.27517488e-07 -7.38853373e-07
      -1.13831663e-06 -6.77437640e-07 -1.16505805e-06 -1.40336226e-06
      -2.19971821e-06 -2.64828395e-06 -2.16501212e-06 -7.19129957e-07
      -1.89469574e-07 6.98057022e-07 1.54289307e-06 -1.92292532e-06
      1.64853964e-06 -3.40203599e-07 3.29501233e-07 -3.40355086e-07
      -8.42287875e-07 -4.29736360e-07 1.14497436e-06 6.38559300e-07
      -2.21363706e-07 -1.92115877e-07 -2.03451648e-07 1.10481730e-08
      -8.32496994e-07 -1.34798870e-06 -3.06528989e-07 1.33154913e-06
      5.72549880e-07 2.98895060e-08 -2.91941689e-07 2.63884431e-07
      -8.62764580e-07 6.83320479e-07 -5.83036467e-07 1.12203963e-06
      5.77380376e-07 -4.88176852e-07 -2.83312460e-07 1.50210667e-06
      5.04174125e-07 7.22753441e-07 -5.98701888e-07 2.22524292e-07
      2.97456381e-07 -8.39586505e-07 3.88581896e-07 1.59794851e-07
      1.21709240e-06 2.31881870e-07 -3.71947095e-07 4.55797675e-08
      4.84994302e-07 6.37003438e-07 1.01733042e-06 4.59313839e-07
      -7.35973401e-07 2.56645336e-07 -1.44449655e-06 5.61629747e-07
      -1.24131674e-07 1.62232902e-06 2.94260275e-07 -8.89884291e-07
      -6.03179330e-07 -2.25053626e-07 5.09040490e-07 -1.15566991e-06
      7.01504703e-08 -3.65487523e-07 1.38463963e-06 -4.94874143e-07
      -3.54227211e-07 -1.30488354e-06 -6.33129048e-07 -1.16463934e-06
      -5.16766420e-07 5.23139818e-07 -6.26579606e-07 4.93386835e-07
      1.19995218e-06 5.87877054e-08 3.54862550e-07 -4.60939049e-07
      7.64490249e-09 4.27624997e-07 -7.69051667e-07 3.90719123e-07
      -1.02221478e-07 2.82352318e-07 -1.21211895e-06 -8.75965554e-07
      -5.14053738e-07 -2.16971625e-06 -7.53013239e-07 -1.20171615e-06
      -4.76446388e-07 -1.66859749e-07 1.28387100e-07 -7.22051993e-07
      -8.36142476e-07 -4.72342521e-07 4.38189858e-08 7.56987077e-08
      1.61191656e-06 1.19623138e-07 -1.35385051e-06 8.92896495e-08
      -4.63868901e-07 -1.66858933e-06 -1.02517083e-06 6.89835531e-07
      -1.09335815e-06 -7.33026582e-07 -1.97021723e-06 -2.15494197e-06
      -6.17538376e-07 1.27779492e-06 -8.68921518e-07 -1.29104905e-07
      5.56697373e-08 -3.09633528e-08 -6.12395695e-07 -1.15798912e-06
      6.68740540e-07 -5.38133690e-07 -2.68732492e-07 -2.42201537e-07
      9.31742420e-07 6.37516109e-07 -4.45671702e-07 2.88033476e-07
      -7.35084484e-07 -2.22926843e-07 -3.60989702e-07 4.36876576e-07
      3.61769963e-07 3.76014924e-07 -7.73457032e-07 8.05648085e-07
      -3.35468030e-07 3.89896400e-08 8.87172916e-07 9.01924693e-07
      -5.35873198e-07 -2.82393785e-07 -1.05922618e-06 3.06048150e-07
      1.19431400e-06 -1.08596602e-07 1.67881126e-07 7.37634821e-07
      5.30033390e-07 -4.35019665e-09 -5.20724200e-07 -9.77456011e-07
      5.11062865e-07 2.99262155e-07 2.18303384e-07 -9.34272251e-08
      2.38429891e-07 2.27344017e-07 -5.86007729e-07 -5.79678670e-07
      -4.52125079e-07 2.94551711e-07 -1.63780115e-07 -6.70311124e-07
      -1.20668517e-07 -5.25022813e-07 -1.10072153e-06 1.90290407e-07
      9.59752015e-07 -2.34383293e-07 -9.67708502e-07 2.88392499e-07
      -9.89668138e-07 4.19142168e-07 -7.12399071e-07 1.15401896e-07
      -9.57410634e-07 1.49801974e-06 -2.24043646e-07 -5.22049504e-07
      -6.97149460e-07 1.17913919e-06 2.50143472e-07 -1.37678171e-06
      -3.28807346e-07 6.47875254e-07 -4.06072388e-07 4.67633981e-07
      -7.35810943e-07 -9.71306349e-07 -2.02792239e-06 7.42188263e-07
      1.34175741e-06 -6.81323456e-07 -3.68780434e-07 1.20935761e-06
      3.08729767e-07 2.85619507e-07 -1.50545850e-06 -1.60210982e-06
      -1.54730753e-06 -1.67345013e-06 1.06996945e-09 -6.10032089e-07
      -2.69088076e-07 -6.91244736e-07 3.10441607e-07 6.44357954e-07
      4.10996648e-07 8.73837607e-08 7.38609401e-07 2.73178273e-07
      -4.60728472e-07 8.18724928e-08 -5.32056561e-07 -1.26480700e-06
      1.05499275e-07 7.63387398e-09 -6.57417729e-08 1.88437923e-07
      -5.88727801e-07 -8.65524157e-07 1.20577840e-06 -6.21325995e-08
      2.00051772e-07 5.67305456e-08 -1.69682903e-06 -9.46569969e-07
      -2.76468228e-07 -1.12663656e-06 -7.04298714e-07 -6.42781686e-07
      -1.00301736e-06 -3.70439551e-07 5.90080560e-07 -5.33809690e-08
      -9.71917530e-07 -1.15472631e-06 -8.67852464e-07 -2.10967102e-07
      2.97046995e-07 -6.92218862e-07 4.95357746e-08 -8.40023915e-07
      -1.44462274e-06 -2.49041750e-06 -1.66096572e-06 -1.51893562e-06
      -1.24411554e-06 -1.47632090e-06 -2.40437998e-07 -9.93823505e-07
      -9.17094212e-07 -1.42628801e-06 -5.29886961e-07 -1.72315640e-06
      2.33757319e-07 2.45385934e-08 -5.34091669e-07 -7.83225687e-07
      6.26623091e-07 8.01243232e-07 4.43054773e-07 8.02741340e-08
      -1.51827123e-06 -1.11103611e-06 -1.73430703e-06 -2.14309716e-06
      -1.18332707e-06 9.51638839e-08 -1.77617451e-07 -1.17362117e-06
      1.57490447e-07 -2.20337682e-07 -1.27106762e-06 -3.69353927e-07
      -2.38974735e-07 -9.34687080e-07 -4.54134295e-07 -6.27121437e-07
      -6.06530875e-07 -1.62170704e-06 -9.46507328e-07 -1.59830597e-06
      -2.68276222e-06 -1.46931427e-06 -7.52316225e-07 -2.13975795e-07
      -5.43671035e-07 -1.32995342e-06 1.04490573e-06 -6.18978902e-07
      5.23817562e-07 -2.32829052e-07 -1.42904116e-06 1.26958000e-07
      -1.63495736e-06 -1.43632792e-06 -7.23337962e-07 -5.64476352e-07
      -1.18936562e-07 3.21744238e-07 1.63046536e-07 -6.48220407e-07
      -3.57921635e-07 -2.50603506e-07 -1.10995597e-06 -3.36765424e-07
      1.17711681e-06 -1.94655897e-07 5.85258526e-08 1.08382164e-06
      6.19420689e-07 -2.76242616e-07 9.16717454e-07 5.12575241e-07
      3.11205156e-07 -3.05298926e-07 1.24802034e-06 3.58873621e-07
      -5.66488552e-07 -4.47384796e-09 -1.09405380e-06 1.12323073e-06
      6.85836653e-07 4.40707652e-07 -4.71443791e-08 -4.31666194e-07
      -6.87320210e-07 -7.33005194e-08 -9.52481059e-07 -2.69963294e-07
      -2.20819359e-07 -7.08246148e-07 1.46817939e-07 2.75475372e-07
      2.24493178e-07 -9.44137852e-08 1.13366070e-06 1.08899440e-06
      6.27803956e-07 5.32944910e-07 -2.18697735e-07 -1.04554957e-07
      2.62033439e-07 2.89135102e-07 6.25558584e-07 9.57094244e-07
      4.10155451e-07 -4.84424447e-07 6.46289550e-07 4.15685946e-07
      7.19865739e-07 -2.86408664e-07 5.29062220e-07 -4.56269390e-07
      -1.22252766e-06 5.04785646e-07 2.34201707e-07 4.29997158e-08
      3.65722492e-08 4.73239403e-08 2.50371613e-07 -8.55252949e-07
      -5.27341548e-09 -9.47986052e-07 7.50430971e-08 4.86401063e-07
      4.35043205e-07 -1.75886794e-06 4.26204025e-07 -1.06674449e-07
      1.61239470e-07 3.59692649e-07 9.95614116e-08 -5.92777496e-07
      -3.51393993e-07 1.10019550e-06 3.18301083e-08 5.03424246e-07
      1.05843810e-06 6.31897308e-07 2.21408285e-07 -6.28653879e-07
      -8.20436483e-08 1.18075640e-07 -2.84376597e-07 3.25542374e-07
      5.38702579e-07 -6.06167774e-08 -3.14763220e-08 -5.41029351e-07
      5.86609190e-07 1.33251558e-06 -1.54977542e-07 -7.10585937e-07
      5.11137728e-07 2.32098188e-07 -2.78678471e-07 -2.94610970e-07
      -2.36085711e-07 1.50179162e-07 4.62588872e-07 6.53139864e-07
      -2.52488348e-07 -3.39048427e-07 -3.77914006e-07 6.03526029e-09
      5.88350304e-07 1.63977700e-06 -8.12817689e-07 -1.07508072e-06
      -5.82320467e-07 -6.57042904e-07 7.60419766e-07 1.23548193e-06
      -1.25370730e-06 8.85088241e-07 -6.56768634e-07 3.44661117e-07
      -1.68538278e-07 -1.37338247e-07 4.30658787e-07 2.76246624e-07
      -1.08144820e-06 8.87293766e-07 6.89115950e-07 6.27961072e-07
      6.10993027e-07 6.31422722e-07 -2.19886971e-07 1.10374151e-06
      -7.15609815e-07 -8.00735265e-08 -1.21451046e-06 6.02503860e-07
      1.04391438e-06 1.08148458e-06 6.91075513e-07 2.55404245e-07
      -7.50950676e-07 -1.97003510e-06 -5.74633191e-07 -5.26473229e-07
      -2.10642526e-07 9.91810111e-07 -6.03692627e-07 4.74822002e-07
      -1.58238194e-07 3.98476363e-09 6.67803704e-07 -5.18903789e-07
      5.11729695e-07 -9.00779980e-07 9.37091272e-07 5.09649247e-08
      1.86040791e-06 1.01860314e-06 2.83525395e-07 -5.58315946e-07
      6.24719291e-07 -8.84506960e-07 1.48794209e-06 4.07859133e-08
      1.68979625e-07 -1.24557403e-06 -6.02999648e-07 3.09745730e-07
      -6.79382140e-07 1.59450124e-08 3.87285652e-08 -3.37685663e-07
      1.31755439e-06 -6.21072161e-07 4.09466196e-07 -8.97419568e-07
      -7.10348218e-07 1.04102028e-07 -3.08050900e-08 1.35598668e-07
      3.70934146e-07 1.04447599e-06 -4.43959323e-07 2.28712608e-07
      5.35158790e-07 -1.18904165e-06 -1.55905013e-06 5.68098187e-07
      -8.87932927e-08 -7.12567953e-07 1.97978352e-07 9.72270982e-07
      3.19576081e-08 5.77436083e-07 9.78484763e-07 5.80679000e-07
      1.54504039e-06 -1.02337583e-06 -1.82014276e-07 -4.98223926e-07
      -1.11294344e-06 -1.70120316e-07 3.69179617e-07 -1.84550430e-07
      -1.12097169e-07 9.35352148e-07 -2.89508733e-07 6.52050062e-07
      4.57140857e-07 -4.14790946e-07 8.24777203e-07 -4.87612510e-07
      1.28781210e-06 -4.81322900e-07 7.07383606e-07 -9.83587185e-08
      5.99948351e-07 -4.45844215e-08 -3.85742908e-07 -8.04730348e-07
      -4.23518060e-07 -3.99644620e-07 -7.11918062e-07 3.94852691e-07
      2.52702449e-07 8.93626066e-07 8.28804787e-07 -6.82085044e-07
      1.04170806e-06 1.26184034e-06 3.54614578e-08 8.57057501e-07
      5.40341205e-07 -8.80970561e-07 -7.09513245e-07 -7.08758193e-07
      1.62366575e-07 5.78132301e-07 1.38821872e-06 -4.24139699e-07
      -9.16091437e-07 -3.94127966e-07 -2.17827036e-07 -7.84743349e-07
      1.56452600e-07 -5.34599906e-07 -8.97514440e-07 -7.03838850e-07
      1.16010085e-07 -2.96039957e-07 -1.71789338e-07 -3.57885000e-07
      -3.91905985e-07 -1.74406455e-06 2.47311931e-07 9.84834060e-07
      -1.58822743e-07 4.69512116e-07 9.76460001e-07 -3.28344100e-07
      -3.34958088e-07 -2.10379952e-07 9.70569545e-07 8.81181617e-09
      -4.63855514e-07 2.24069694e-07 1.27022042e-06 5.98126348e-07
      5.36440837e-07 -7.89639785e-07 3.76920212e-07 2.22549687e-07
      -4.39179246e-07 3.73111646e-07 8.38083167e-07 4.48158261e-07
      1.08801623e-06 6.91386361e-08 3.26441921e-07 1.98991287e-07</_></support_vectors>
  <decision_functions>
    <_>
      <sv_count>1</sv_count>
      <rho>-3.0641391762731285e-05</rho>
      <alpha>
        1.</alpha>
      <index>
        0</index></_></decision_functions></my_svm>
</opencv_storage>
