<?xml version="1.0"?>
<opencv_storage>
<my_svm type_id="opencv-ml-svm">
  <svm_type>C_SVC</svm_type>
  <kernel><type>LINEAR</type></kernel>
  <C>9.5400000000000010e-07</C>
  <term_criteria><epsilon>1.1920928955078125e-07</epsilon>
    <iterations>1000</iterations></term_criteria>
  <var_all>1296</var_all>
  <var_count>1296</var_count>
  <class_count>2</class_count>
  <class_labels type_id="opencv-matrix">
    <rows>1</rows>
    <cols>2</cols>
    <dt>i</dt>
    <data>
      -1 1</data></class_labels>
  <sv_total>1</sv_total>
  <support_vectors>
    <_>
      4.66400280e-07 -2.41301336e-07 1.62160475e-07 3.17095584e-07
      1.40846919e-06 1.31701768e-07 1.20860830e-06 -8.10206942e-08
      3.81815575e-08 -9.49006221e-07 1.09725045e-06 -1.46407569e-06
      2.73190636e-07 1.12529187e-06 -3.49368975e-07 5.77251456e-08
      -1.37120549e-06 6.67047061e-07 -6.62240950e-07 -2.44703386e-07
      -1.27855145e-07 -7.63026037e-07 -1.31981793e-07 -5.63608410e-07
      -1.07940161e-06 -7.03019055e-07 -4.76319116e-07 -1.16530757e-07
      4.37356221e-07 4.54151547e-07 1.19567710e-06 9.71932764e-07
      3.86396692e-07 -1.00581758e-06 -1.23704410e-07 -8.74226942e-07
      2.58558600e-07 9.58839550e-08 -3.74851368e-07 6.13517784e-07
      1.54889744e-06 7.68694349e-07 2.04552634e-06 4.53669372e-07
      -6.07937352e-07 4.78147456e-07 1.05689992e-06 -8.88414036e-07
      -7.06011974e-07 1.14684531e-06 -1.81922914e-07 -2.01281942e-08
      8.24927753e-08 1.45234446e-06 3.73585550e-07 1.37737217e-07
      7.29189992e-07 -1.05485086e-07 -4.82177143e-07 -5.13161694e-07
      5.03908552e-07 -1.24973155e-07 -5.48610624e-09 1.89512832e-07
      -8.29595990e-07 3.44756415e-07 3.20870555e-07 -3.69965925e-08
      3.33090895e-07 4.80531071e-07 -1.06707887e-06 -1.38413142e-07
      7.58916030e-07 2.52288231e-07 -3.77651361e-07 1.51668655e-06
      6.66992946e-07 6.40448661e-07 1.32215973e-06 -5.71225996e-07
      -6.55988515e-07 -2.42923733e-07 -6.68900384e-07 2.39403626e-08
      6.46110507e-08 1.36572953e-06 -5.15379270e-07 -7.32778005e-07
      -3.70664907e-07 6.05957212e-07 1.03735567e-06 -3.69791053e-07
      1.64333233e-06 -7.90485785e-07 -6.24339293e-07 -2.74557777e-07
      -1.07838002e-06 5.21564687e-07 4.82775192e-07 -4.86488574e-08
      -5.92726963e-07 8.57466944e-07 -5.59849298e-07 -5.39643679e-07
      -1.33894650e-06 -3.04769912e-07 4.80954611e-07 -7.41872498e-07
      1.54966898e-07 -1.04697108e-07 -5.06457638e-07 2.25788796e-07
      -6.63141577e-07 7.92572678e-07 2.40311834e-07 1.00148259e-06
      -2.24046147e-07 -1.03911020e-06 -1.12133603e-06 8.40629397e-08
      -1.20173218e-06 -7.67144797e-07 -7.54895382e-07 1.04243225e-06
      2.01216011e-07 -5.82753046e-08 8.97253543e-08 3.75164547e-07
      3.39014406e-07 4.47619470e-07 -5.22271989e-07 3.21699417e-07
      4.26736364e-07 6.65635355e-07 1.90959852e-07 -6.12446058e-07
      -8.03847016e-08 5.78718300e-07 -1.81597909e-06 -4.75557101e-07
      -1.26305082e-07 -3.35135297e-09 -2.52415759e-07 -6.66436279e-07
      -2.60302464e-08 1.91961504e-07 6.77982769e-07 7.45162367e-07
      6.92280437e-08 1.24167016e-07 9.77909508e-07 3.92948385e-09
      -2.25670775e-07 -9.41146538e-07 -1.30511765e-07 -5.60704677e-07
      3.24611165e-07 8.89643502e-07 -9.91695742e-07 3.10801074e-09
      4.49269749e-07 -1.51918840e-07 3.89354767e-07 -2.55251081e-07
      2.90942438e-07 1.04207693e-07 1.04134045e-07 5.60694389e-07
      -4.22795296e-07 1.37520317e-07 -2.22804985e-07 -4.58896494e-07
      -1.63701577e-06 2.75090940e-07 -1.01461274e-06 2.81778032e-08
      8.49554340e-07 3.95732542e-07 3.68750193e-07 4.74978947e-07
      -2.36258586e-07 -8.09154585e-07 -2.70471617e-07 -5.38752431e-07
      -7.33485948e-08 7.24937649e-07 1.26628845e-06 -8.35157550e-07
      1.45489906e-07 2.33059012e-07 -2.15423796e-07 -2.58328726e-07
      -4.37489518e-07 1.19072320e-06 2.85351177e-07 6.14459850e-07
      -1.47925505e-06 2.45206486e-08 1.25059375e-06 2.65636970e-07
      7.39454379e-07 1.38392988e-06 -9.12814130e-07 -4.34016982e-07
      2.33521646e-07 2.46263994e-07 -9.39856122e-08 1.02228012e-06
      -3.35329418e-07 -8.98254712e-07 3.96008648e-09 -1.11428349e-07
      -8.96701309e-08 4.44691011e-07 3.94948962e-08 -4.92744618e-07
      -3.56760737e-08 3.99548696e-07 -1.92955156e-07 4.54798624e-07
      -2.38577627e-07 6.72327815e-07 2.31046897e-06 -1.04453750e-06
      -4.44193091e-07 4.67619429e-07 5.81687516e-07 5.35827098e-07
      3.41260289e-07 7.31365844e-07 -3.06451994e-07 -8.24903395e-07
      -2.79125061e-07 -1.16653752e-07 -1.00570809e-07 9.83543600e-07
      2.95338737e-07 1.02407932e-06 6.05427772e-07 2.77755561e-07
      -7.39922427e-07 5.28013345e-07 -9.43617408e-07 -4.25070709e-07
      3.25412728e-08 1.05296033e-06 9.72649445e-08 -7.96619588e-08
      -1.06820073e-06 4.80826088e-07 -2.62659711e-07 -4.57434709e-07
      -2.79745649e-07 -3.13754725e-07 2.84320947e-07 -2.55927546e-07
      3.08454787e-07 3.24972120e-07 -3.63675895e-07 6.55362555e-08
      1.08208485e-06 1.04132619e-06 -8.41457222e-07 -1.61776677e-06
      5.67857626e-07 -2.43935006e-07 -1.24602889e-06 -1.25455157e-08
      2.06995523e-07 2.36845551e-07 8.44293822e-07 -9.99252848e-07
      -2.93574516e-07 -3.44223650e-07 -1.03079958e-06 4.20703344e-07
      1.06884841e-06 3.47974265e-07 -6.49523372e-07 -7.41907741e-07
      -1.74229638e-06 -1.93343408e-06 -3.03087603e-07 4.46120850e-07
      -1.01852571e-07 -1.11354689e-06 -5.55175177e-07 -8.81147912e-07
      -1.88962349e-06 -1.17734089e-06 2.15432272e-09 -1.01107617e-06
      -4.81056986e-07 -2.63607234e-07 1.07239892e-07 2.00906527e-08
      -1.62928666e-06 -9.24281835e-07 -1.86455907e-06 -6.54696976e-07
      -6.13226803e-07 -5.29992633e-07 -5.54183316e-07 -7.69820872e-07
      -8.41713984e-07 -1.13983708e-06 -1.54369758e-07 -1.65667313e-06
      -5.48572565e-08 8.78974220e-07 -1.82375209e-06 8.00401381e-07
      2.26273045e-07 -4.17345291e-07 5.56487407e-07 -1.52889027e-06
      -6.72702527e-07 5.02265358e-08 -1.43703161e-07 3.32640582e-07
      -1.74869740e-07 1.16762259e-07 -5.65601169e-07 -5.87210877e-07
      -1.51522670e-06 -7.69480323e-07 -1.37299409e-07 -3.06528705e-07
      -2.67100745e-07 1.09141013e-07 2.83526788e-07 -1.31431079e-06
      -1.21095434e-06 -9.29994428e-07 -1.32417244e-06 -1.15126386e-06
      -1.12261603e-06 -5.16102716e-07 -1.26881019e-07 -8.54555879e-07
      -7.78076242e-07 -2.07304470e-06 -1.00153807e-06 2.07812167e-08
      -4.61589821e-07 -9.50755705e-08 5.34913660e-08 4.94050141e-07
      -3.74463198e-08 -9.67897336e-07 3.84811557e-07 -6.69680162e-07
      4.02819154e-07 -5.64513016e-07 -7.72163730e-07 -5.94769006e-07
      -1.18165372e-06 -1.12154657e-06 -1.67970632e-06 -1.52264033e-06
      4.75591889e-07 1.74594788e-07 -4.29947249e-07 9.70917768e-07
      -5.35843014e-07 -1.30031026e-07 -4.95674726e-07 -1.03068842e-07
      -4.28274888e-07 -2.79619343e-07 -9.00008729e-07 6.39922746e-07
      3.86747843e-07 1.10944154e-06 1.01808098e-06 -1.67927351e-06
      2.98996952e-07 8.51230837e-08 3.76506577e-08 -1.06987909e-06
      -1.52932398e-06 -5.40469841e-07 8.17678156e-08 -4.13729396e-07
      -1.49917162e-06 -1.17518266e-06 -1.34573042e-06 -4.15430264e-07
      -3.57886847e-07 3.20936380e-07 -9.52811433e-07 -9.30274553e-07
      -2.80059822e-07 5.24594839e-07 -2.61331024e-07 -6.69743144e-07
      4.87719603e-07 4.46486382e-07 -2.49216498e-07 2.40915313e-07
      9.14927739e-07 -5.59183944e-09 3.01109424e-07 5.31896717e-07
      -1.17122410e-08 5.96909672e-07 4.86355361e-07 4.77823392e-07
      -3.31693428e-07 7.99402585e-07 5.76372827e-07 9.95756068e-07
      -6.34911942e-07 8.88660281e-07 1.40452585e-06 8.06191849e-07
      6.20716548e-07 -2.10041549e-07 4.93858465e-07 -2.28397923e-07
      1.97610547e-07 4.42686343e-07 5.27186614e-07 8.88938871e-07
      6.93155243e-07 1.26528084e-06 3.72345880e-07 1.99011038e-06
      2.07816875e-10 -1.82576386e-07 5.38337588e-07 1.72745033e-07
      -1.14947156e-07 1.79559336e-07 -5.02075238e-07 -1.42163924e-06
      1.05666231e-06 -1.03789159e-06 -1.07581677e-07 1.25239444e-06
      1.88419747e-07 -8.67905499e-07 2.21220205e-07 4.01774770e-07
      1.40954194e-06 7.28999680e-07 -4.60734071e-07 -8.47135198e-07
      -2.73620515e-07 -1.50782989e-06 3.00623498e-07 4.60900225e-07
      7.13120414e-07 -9.51914458e-08 1.51063105e-07 -2.78754698e-07
      8.55465544e-07 -1.68038767e-07 -1.35597427e-08 -7.23316020e-07
      5.59917375e-08 -1.27217868e-06 3.84938346e-07 -1.52568919e-06
      -8.08593995e-07 -4.23976331e-07 3.89394387e-07 -7.82305676e-07
      -6.89536137e-07 -6.70901386e-07 -1.19085723e-06 -1.86564603e-06
      -3.73577024e-07 -9.99869599e-07 -5.85969175e-08 -1.56140709e-06
      -1.76217327e-07 -3.62744913e-07 -1.52703683e-06 -2.61000946e-06
      -1.81191274e-06 -7.26031431e-08 -1.52222572e-06 2.41255407e-08
      2.43735023e-08 1.96174540e-07 -1.07938558e-06 5.79461073e-07
      -6.09959784e-07 -1.59849310e-06 -1.29208604e-06 -1.36121173e-06
      -5.37961796e-07 4.52627489e-07 1.32863613e-06 -6.08956867e-08
      -4.86790377e-08 -3.81895404e-08 -8.81855328e-07 1.23856893e-07
      -2.85357800e-07 3.37040319e-07 5.69101871e-07 3.36251986e-07
      -1.73343565e-07 5.83958581e-07 -3.37651215e-07 -7.11783557e-08
      2.86598095e-07 1.77757329e-06 7.48423872e-07 3.27199558e-07
      -8.16073225e-07 3.81851493e-07 1.10026758e-06 -3.42047514e-07
      -1.90880751e-08 5.73306878e-08 -6.72637555e-07 -9.30627039e-07
      5.04546279e-07 6.05470177e-07 3.67898366e-07 1.17651176e-07
      -2.52150556e-07 -2.02227124e-08 1.53320308e-08 -4.00761195e-07
      -3.62258049e-07 -9.12176517e-07 1.97234314e-07 9.19080037e-07
      4.34662894e-07 -2.74527935e-07 -4.27343167e-07 1.41273415e-06
      -2.83881178e-07 5.27142504e-07 1.97348399e-07 4.33639997e-07
      1.00304661e-07 3.50930293e-07 -3.22897279e-07 2.63857686e-07
      6.36487869e-07 1.09086648e-06 -2.32750580e-07 -3.43452996e-07
      -5.64039851e-07 -5.26147403e-07 1.25037559e-07 3.81959183e-07
      4.22819028e-07 4.08116705e-07 -1.07400888e-06 -6.74989678e-07
      -1.10515361e-06 4.21484174e-07 1.21682615e-06 -7.75269413e-08
      5.10078110e-07 -5.45492128e-07 4.66609777e-07 -5.55073257e-07
      1.58472835e-06 5.88005378e-07 1.35866969e-06 1.01902472e-07
      3.61410706e-08 -8.70390181e-07 -1.51303777e-06 1.45356591e-06
      -8.30154136e-07 -1.28360796e-06 -8.51721438e-07 -1.02184868e-06
      2.37506825e-07 -3.20604357e-07 -4.03721089e-07 3.55474370e-08
      1.51629663e-07 -2.46388549e-06 -1.21611561e-06 -6.46122828e-07
      7.22350194e-07 -3.35480934e-07 -7.29077954e-07 6.61413935e-07
      4.90876914e-07 -1.16344677e-06 -2.00294085e-06 -1.24960502e-06
      -1.06600817e-06 3.01289191e-07 -6.23413257e-07 -4.01873535e-07
      -2.20312913e-07 -1.27100577e-06 -1.01466628e-06 3.44933575e-08
      3.99303076e-07 1.54370085e-07 4.83411384e-07 -5.21304344e-07
      -4.27163940e-07 -8.45010391e-07 -5.18189722e-07 -1.19192816e-06
      -1.98960265e-06 -4.71821721e-07 -1.09105542e-06 -1.66620714e-06
      -4.52696412e-07 -6.07065829e-07 -3.69713320e-07 -9.42978957e-08
      -3.46066230e-07 5.76251523e-07 -9.31595196e-07 1.48846368e-07
      6.15970237e-07 1.46337641e-07 -4.89094248e-07 -1.26642738e-06
      4.61336271e-07 -1.30683489e-07 -4.80616450e-07 -8.81008134e-07
      4.00166044e-07 5.11853273e-07 -5.50094171e-07 3.15779630e-07
      5.71119415e-07 4.57332590e-07 1.91349457e-07 -2.47285641e-07
      2.18978258e-07 4.57413620e-07 1.14336835e-07 2.14212108e-07
      1.64419831e-07 -3.71651510e-07 -5.44607417e-07 1.52076240e-07
      9.48882359e-07 -2.76470132e-07 7.10395057e-07 1.17393938e-06
      -2.89879381e-07 -3.28481548e-07 2.82840375e-07 -9.23005700e-07
      3.48954131e-07 -6.19190359e-07 -3.31685577e-08 -1.08563324e-06
      -7.88746547e-07 4.05233180e-08 -1.28256531e-07 2.05144971e-07
      -1.16321246e-06 8.35169374e-07 -1.00461683e-07 1.10817120e-06
      3.91362391e-08 5.19720402e-07 2.03668861e-07 -7.98387845e-08
      -1.73624059e-07 -2.06750798e-07 5.38326788e-07 6.07636650e-07
      7.25738346e-07 1.96123082e-08 -8.36785034e-07 -4.03100131e-07
      -6.97931966e-07 -5.76447263e-08 -5.97846793e-07 -1.05728941e-06
      2.40113494e-08 3.28378974e-07 1.23910399e-06 -5.80406891e-07
      1.42650904e-07 1.65242923e-07 -2.02049932e-07 -6.92455046e-07
      -1.94961285e-06 -1.89889897e-06 -7.01326599e-07 1.48126404e-07
      6.20218543e-07 -2.86725541e-08 3.53899708e-07 1.13327712e-08
      1.91596314e-07 -4.35954860e-07 -5.76729008e-07 -1.63792009e-07
      -1.52116525e-06 -6.18885053e-07 2.61173739e-07 -3.65422238e-07
      -6.37543906e-07 -6.96034533e-07 2.24408026e-07 -1.79096321e-06
      -8.00177077e-07 8.09002927e-07 8.45722070e-07 -8.22230334e-07
      -1.43171724e-06 -1.21669359e-06 5.00678166e-09 -9.89237833e-07
      -1.52690416e-06 -2.12987334e-06 -1.21699327e-06 5.92843996e-09
      1.72747274e-08 -2.08419308e-07 1.25341614e-06 -2.06950949e-06
      6.65871653e-07 -1.63499777e-07 -1.84953564e-07 -8.64750291e-07
      -8.66004882e-07 1.30830324e-06 -6.88371131e-07 9.58967121e-07
      -5.93847140e-08 -4.06766304e-07 -3.02278323e-07 2.92220676e-07
      -5.15550880e-07 -1.68656209e-06 9.37947561e-07 -1.98473789e-08
      7.13230918e-07 1.65012045e-06 -5.23187929e-08 4.61443676e-07
      -7.32279659e-08 -2.85428030e-07 -2.69031233e-08 1.35780431e-06
      1.17832860e-06 8.59153147e-07 5.36311859e-07 7.39201710e-07
      -3.68596176e-07 1.20884260e-06 6.94489700e-07 5.32358797e-07
      1.06223048e-07 -9.76165097e-07 5.66080075e-07 -1.14982356e-07
      9.07643596e-07 5.81215716e-07 1.52490713e-07 3.43733859e-07
      5.53495852e-07 2.36406024e-07 2.82838641e-07 -4.22822296e-07
      5.71460873e-07 1.67370295e-08 -1.46527407e-06 -6.60619321e-07
      -8.62318871e-07 1.59062392e-06 8.85235124e-07 -2.00601047e-08
      2.84742772e-08 -9.63742650e-07 9.97156121e-07 -1.69567591e-06
      -3.71954030e-07 7.51395078e-07 9.83642622e-07 -3.85269260e-07
      -1.17623119e-06 -1.69547513e-06 -1.73338537e-06 -1.18308617e-06
      -1.05969627e-06 5.92474578e-07 -2.44348882e-07 7.79262962e-07
      7.32559272e-07 5.60019544e-07 -6.82541838e-07 5.77271777e-08
      -1.58694192e-07 -1.07679227e-06 -1.57311536e-06 3.84126793e-07
      4.18139365e-07 7.71404771e-08 7.78561798e-07 -1.21774463e-06
      -1.98202792e-06 -1.95629741e-06 -5.25480459e-07 -8.08900495e-07
      8.25228710e-07 1.94445761e-07 9.64853939e-08 -3.95071169e-07
      -1.58200271e-06 -1.95513712e-06 -1.32738035e-06 3.65608457e-07
      1.10893848e-06 1.41312256e-07 1.27477762e-07 6.17356875e-07
      3.76071885e-09 -1.76450590e-06 -2.09199129e-06 -8.33930812e-07
      3.73101329e-07 2.29750388e-08 -2.21956938e-07 -1.47229775e-06
      -2.37038606e-07 7.14283260e-07 -1.63432020e-07 3.31741006e-07
      2.10119794e-07 -7.67209201e-07 2.03277768e-08 -2.04506250e-06
      -3.33524241e-07 -2.88139631e-07 -4.40156811e-07 -2.78585389e-07
      1.05605102e-06 -5.23617530e-07 -6.49150479e-07 1.71593598e-07
      4.98493478e-07 -6.88221178e-07 -3.57972652e-07 6.13131647e-07
      8.85720283e-07 -3.91572655e-07 -2.28723380e-07 -6.78564547e-08
      -6.04546130e-07 -8.06741525e-07 -6.00360693e-07 1.27541546e-06
      -1.98096739e-08 4.64066858e-07 -6.05462844e-07 1.12039245e-07
      1.36329265e-06 -1.85576241e-07 -5.28949158e-07 1.62770917e-07
      8.56503917e-08 -3.80279497e-09 4.20103881e-08 -4.07635071e-07
      1.90056852e-07 -3.55998310e-07 2.76569267e-07 -4.72011578e-07
      1.90735051e-07 6.00473584e-07 -1.25138729e-06 -1.03790819e-06
      -4.12584825e-07 7.65731158e-07 1.93115028e-07 -5.59142393e-07
      -3.13684225e-08 8.93597516e-08 -1.24656299e-06 -3.11734070e-08
      9.28484610e-07 -6.45088051e-07 4.26565890e-07 1.32239663e-07
      -3.60697953e-07 7.13363818e-07 -2.47061904e-09 -4.96164773e-07
      4.02317291e-08 4.63806089e-07 2.86807818e-07 2.85358112e-07
      3.12149581e-07 5.83594101e-07 2.85060047e-08 3.41268382e-08
      -8.06941102e-07 3.64937137e-07 1.66177699e-07 1.25932388e-06
      4.57197388e-07 -1.71409533e-06 -1.62987703e-06 -7.15862257e-07
      1.95254032e-07 -1.30516310e-06 -8.75445664e-07 1.18245953e-06
      -5.92254821e-07 1.93308935e-07 -7.98605242e-07 -1.13568478e-06
      -2.31753233e-06 -1.24364078e-06 -1.12481780e-06 -4.98591476e-07
      -5.71258227e-07 -1.05237882e-06 3.15027506e-07 -1.11587292e-06
      -9.35025241e-07 3.11229769e-07 2.35831109e-07 1.14283587e-07
      4.36268067e-07 5.77507080e-07 -1.37689676e-06 -5.65428536e-07
      -8.88275693e-08 -5.54727990e-07 4.86712850e-07 -5.00337876e-07
      -6.43468866e-07 -1.21033190e-06 8.79831077e-07 4.50501112e-08
      9.65908612e-07 2.24684939e-07 -2.11871793e-07 -6.36615653e-07
      -7.41595329e-07 -2.10847452e-06 -1.50508902e-06 -9.23574550e-09
      6.82372502e-07 -6.28687587e-07 -1.06546878e-07 -1.98105425e-07
      -4.10248845e-07 -1.24706514e-06 -1.45655974e-06 2.08254791e-09
      4.24923655e-07 -1.46510615e-06 -4.17189874e-08 -1.71503825e-06
      -1.07293238e-06 -2.16501667e-06 -7.66358426e-07 -2.42575402e-06
      -9.01926512e-07 -8.06905518e-07 5.86704289e-07 1.27738929e-06
      -8.54689347e-07 -1.12196960e-06 -4.08453104e-07 -1.66515076e-06
      5.05414050e-07 -5.49106005e-09 -9.25608163e-07 -1.50040296e-06
      1.03642881e-08 1.49427060e-09 8.25597851e-07 -4.11652792e-07
      -8.11334814e-07 -1.01855937e-06 -1.39782821e-06 -1.31270031e-06
      -1.26048269e-06 1.49059861e-06 6.66078734e-07 5.76810333e-09
      -5.49454228e-07 -5.97772612e-07 -9.64233323e-07 -6.72913188e-07
      -4.81877862e-07 8.25480768e-08 1.85838772e-07 -6.38859945e-07
      2.41209108e-07 -1.21820085e-06 -1.47988112e-06 -1.04482797e-06
      -1.28076158e-06 -4.60703831e-07 -2.35036268e-07 5.33191667e-07
      -7.09341123e-07 -1.35380640e-06 8.16142347e-07 -2.06870055e-07
      1.03483751e-06 -8.58953797e-07 -8.61961951e-07 -1.48752838e-06
      -5.22611174e-07 -1.92531888e-06 -1.22436154e-06 1.88044766e-07
      -5.74976127e-07 3.09464440e-07 4.86736781e-07 -4.21423749e-07
      -5.12003567e-07 -1.32414669e-07 5.29981492e-07 -7.40321980e-07
      5.73759507e-07 -4.98183852e-07 -4.25369251e-07 -2.04544847e-07
      1.36775810e-07 4.00587595e-07 -5.64284335e-07 5.70069687e-07
      -2.37619176e-07 3.47510792e-07 4.77075275e-07 -3.80044639e-07
      -7.89018031e-07 1.11542271e-07 1.93841103e-07 1.06789230e-06
      8.27689348e-08 2.00713615e-07 -8.17624823e-07 -8.83134021e-07
      3.27946346e-08 2.26595091e-07 -1.45507886e-06 2.10061856e-07
      -9.94976972e-08 7.28965290e-07 -6.50871286e-08 -2.29504565e-07
      4.50786359e-07 2.36544452e-07 6.23662231e-07 3.08979423e-07
      -4.68252296e-07 -7.79231129e-07 -4.44361348e-07 -8.56870486e-07
      -2.05150300e-07 -3.83404512e-07 -6.28165253e-08 5.91958155e-07
      1.16596618e-06 5.78609274e-07 4.83109766e-08 6.94180429e-08
      1.33057154e-06 8.98521293e-08 6.64522531e-07 2.70251377e-07
      -3.74744104e-07 -5.14917701e-07 -4.36818539e-07 -8.14125428e-07
      -3.40130327e-07 -4.88575669e-09 -5.62960508e-07 -1.00683030e-06
      -4.42064945e-08 1.15196869e-07 6.92165713e-07 3.78130665e-07
      4.95665006e-07 -1.95919071e-07 2.43224861e-07 4.38253750e-07
      -9.56754320e-07 8.47431068e-07 7.46728460e-07 -1.17231218e-06
      1.42788437e-07 9.07614037e-07 7.66286803e-07 7.75174556e-07
      -3.67187596e-07 8.60272110e-07 7.55364510e-07 6.08326673e-07
      -2.71879969e-07 9.97520601e-07 9.72358549e-08 7.11990197e-07
      9.25246653e-08 -2.82061933e-07 -2.06834116e-07 -7.99793668e-07
      -8.77985997e-07 5.47326067e-07 -3.50298080e-07 4.60825333e-08
      -2.49175116e-07 -5.59020236e-07 -4.59781319e-07 -5.04153263e-07
      -6.15922545e-07 2.88502349e-07 7.91447803e-07 1.82425737e-07
      2.49326291e-07 -2.73808894e-07 -8.06767332e-07 5.66523056e-07
      -5.25933103e-07 6.77169510e-07 -3.38723254e-07 2.68768652e-08
      -2.52544197e-07 4.94778305e-07 1.14006730e-06 1.47615538e-06
      3.18712488e-08 1.75471044e-07 -4.12527640e-07 1.26049133e-06
      1.03100581e-06 -1.45745204e-07 -2.95288292e-08 -1.87281231e-08
      -8.23398523e-07 6.46649369e-07 5.50331094e-07 4.53994744e-07
      6.19006755e-07 3.02201215e-07 -2.11704105e-07 1.60124827e-07
      -2.90942069e-07 4.07856021e-07 -1.28760831e-07 2.28776059e-07
      3.98020802e-07 1.70037356e-06 9.25235895e-07 -2.15325116e-07
      6.97743303e-07 -2.53839380e-06 -5.50518621e-07 -7.67310496e-07
      7.63841172e-07 5.34941933e-07 5.35378831e-07 2.80845029e-07
      -1.05079380e-06 -4.58436404e-07 2.16355019e-07 -3.16942021e-07
      -5.70205316e-07 2.95185600e-07 1.64501685e-07 -3.97573245e-07
      1.60720367e-06 9.72793714e-07 2.95685851e-07 3.19349908e-07
      1.75342461e-06 4.51450262e-07 2.27379331e-07 -4.23999182e-07
      4.30760053e-07 -3.42487198e-07 -5.41716247e-07 2.53574626e-07
      -2.62253064e-08 -6.64570848e-07 -1.41670313e-07 2.32826395e-07
      1.18154333e-06 -6.66669848e-07 -1.00606530e-06 -4.81258098e-07
      -8.27917063e-07 -4.87429247e-07 -8.11860559e-07 -9.59387094e-08
      5.83947724e-07 -8.42428882e-09 8.38343340e-07 -8.31119110e-07
      3.84479250e-07 -1.63561890e-06 -1.74721876e-07 -1.17905685e-07
      6.59238538e-07 -6.05522530e-07 -3.81017713e-07 4.24248356e-07
      5.68937253e-07 1.35848450e-06 8.47408273e-07 -9.60870580e-07
      1.13598230e-06 -7.45464277e-08 2.11607599e-07 -5.01694728e-07
      -1.04743481e-06 2.58018602e-08 1.80640740e-07 -7.89372791e-07
      -3.74279324e-07 2.41878496e-07 -2.57126374e-07 1.08024238e-07
      -2.40352506e-07 4.00572645e-07 1.87933878e-07 -6.17911908e-08
      -1.29496399e-07 -1.01752903e-06 3.15855402e-07 -3.19590441e-07
      -1.47302401e-07 -8.95468304e-07 -3.70271181e-07 -6.58590125e-07
      -1.80033453e-06 -3.27128731e-07 -1.72606676e-08 -1.62059052e-07
      6.48564935e-07 -1.55076179e-07 -1.98338697e-07 5.97883911e-07
      6.60674061e-07 1.27466899e-06 -1.01728780e-07 8.68086886e-07
      9.33279637e-07 -6.11684470e-07 3.78362984e-07 -5.98651809e-07
      4.59169655e-07 -1.08856774e-07 -6.71083683e-07 1.64004604e-07
      -1.09088035e-07 -7.21957861e-07 1.77599830e-07 -9.80637083e-07
      7.92949720e-07 -9.03617774e-07 -6.45261935e-07 -9.44889393e-07
      -6.43149292e-07 -1.43750708e-06 4.78946049e-07 4.00669961e-07
      7.10699908e-07 2.86080599e-08 3.47259785e-08 1.93514296e-07
      -2.04509746e-07 8.13241513e-07 -7.86757596e-07 4.49440620e-07
      -1.57290344e-07 -2.72119877e-07 5.97721737e-07 5.32208958e-07
      4.87101659e-07 2.78429324e-09 3.64040261e-07 3.30723111e-07
      -1.46194196e-07 8.75987155e-07 4.69909395e-07 1.03104469e-06
      -9.45153033e-07 8.80099620e-08 -2.41595842e-07 -1.74077186e-07
      4.20411453e-07 -1.13060446e-06 3.54738205e-07 -1.11643260e-07</_></support_vectors>
  <decision_functions>
    <_>
      <sv_count>1</sv_count>
      <rho>-2.7071765672903592e-05</rho>
      <alpha>
        1.</alpha>
      <index>
        0</index></_></decision_functions></my_svm>
</opencv_storage>
