<?xml version="1.0"?>
<opencv_storage>
<my_svm type_id="opencv-ml-svm">
  <svm_type>C_SVC</svm_type>
  <kernel><type>LINEAR</type></kernel>
  <C>9.5400000000000010e-07</C>
  <term_criteria><epsilon>1.1920928955078125e-07</epsilon>
    <iterations>1000</iterations></term_criteria>
  <var_all>1296</var_all>
  <var_count>1296</var_count>
  <class_count>2</class_count>
  <class_labels type_id="opencv-matrix">
    <rows>1</rows>
    <cols>2</cols>
    <dt>i</dt>
    <data>
      -1 1</data></class_labels>
  <sv_total>1</sv_total>
  <support_vectors>
    <_>
      -3.48617249e-07 1.62116834e-07 3.28448323e-07 2.43957743e-07
      3.76887392e-08 2.98711939e-07 5.31191745e-07 7.42113784e-08
      6.43600870e-08 -6.73626289e-07 1.67750181e-06 2.33091953e-07
      -6.18999252e-07 1.24488895e-06 -5.89639058e-07 -6.19380330e-07
      2.26081212e-07 1.19168590e-06 1.07834535e-06 -5.64928484e-07
      3.19997298e-07 8.14589498e-07 4.05580849e-08 2.84039032e-07
      -9.87136218e-07 6.33253080e-07 7.34134403e-07 4.12461731e-07
      5.16145349e-07 1.54287545e-06 -3.25490277e-07 -4.50986363e-07
      -3.91502454e-07 -4.76463775e-08 4.51798599e-07 -9.87998988e-07
      1.23425735e-07 1.94126585e-07 4.28529603e-07 1.89033102e-07
      1.50196030e-07 1.42644205e-06 7.27352415e-07 -9.02817703e-07
      -5.83913902e-07 1.01200783e-06 9.21906036e-08 -8.01464523e-07
      5.88487126e-07 1.27082410e-06 4.74169838e-07 9.80930466e-08
      7.79743516e-07 2.66788788e-07 9.36922447e-07 1.95458327e-07
      1.16530839e-06 -1.27416865e-06 -5.78961306e-07 4.72070667e-07
      5.56605471e-07 -4.78798423e-09 4.15109128e-07 7.23869050e-07
      6.23284393e-07 7.98034307e-07 -9.51232124e-08 -5.56464101e-07
      3.37465735e-07 -2.78968724e-08 -2.72134542e-07 -6.54331984e-07
      -1.98282521e-07 -3.73945085e-07 -7.01000090e-07 5.65632490e-07
      -3.08504184e-07 3.13907947e-07 8.95897074e-07 -6.13498742e-07
      -1.17958643e-06 -1.23050953e-07 3.24269081e-07 1.03799330e-07
      -7.53647612e-07 -1.58394002e-07 3.11103832e-07 -5.65309904e-07
      -1.28847688e-07 8.30841486e-07 5.68233190e-07 -3.98153986e-07
      8.68986447e-08 -3.04161063e-07 -1.06086702e-06 3.53285401e-07
      -1.01229460e-07 7.98760368e-07 1.73405408e-06 2.01039285e-07
      9.64878041e-07 6.61589397e-08 -8.49612206e-07 -1.14889235e-06
      -7.53371268e-08 -2.62358412e-07 -5.85974817e-07 -5.80511937e-07
      6.75868478e-07 1.09641860e-06 -3.34966956e-07 -1.69045862e-07
      -5.53094765e-07 1.18181404e-07 4.22013755e-07 5.96215671e-07
      -7.27898623e-07 3.66532248e-07 -8.16463285e-07 -5.16918192e-07
      -2.91950073e-07 -6.14018859e-07 3.56865655e-07 4.76134119e-07
      3.30909700e-07 6.45522846e-07 5.84624559e-07 3.60575228e-07
      -9.41093106e-08 -3.83322629e-07 1.84548085e-07 7.08971527e-07
      8.63939306e-07 5.22836103e-07 3.20035838e-07 -2.95902822e-07
      -9.85157129e-08 -2.82144640e-07 -1.72305897e-06 -2.59030912e-07
      2.78539829e-07 -1.54604592e-07 -6.65414348e-07 6.10748430e-07
      1.01700061e-06 5.24522591e-07 5.38076051e-07 4.75613774e-07
      6.27767236e-07 1.18579874e-06 7.72129908e-07 3.21100444e-08
      4.25123034e-07 5.81699624e-07 -1.77143775e-07 -2.71684939e-07
      -1.09462135e-07 2.14083443e-07 -1.05443303e-06 -3.98253974e-07
      -8.36120137e-07 1.64943348e-08 2.01595512e-07 -1.54288628e-07
      -2.17317378e-07 -2.73306597e-07 -7.58223393e-07 2.05445417e-07
      -2.01220574e-09 2.24116789e-07 1.31577895e-06 2.57089823e-07
      -3.35369322e-07 7.67092217e-07 4.22042262e-07 -1.34291940e-06
      -2.03917580e-07 -2.73438928e-07 2.78813772e-09 2.56924324e-07
      6.86075737e-07 -3.73039995e-07 -4.06132756e-07 -8.16836234e-07
      7.10021709e-07 1.20781510e-06 9.92298624e-07 -1.36452547e-06
      -6.93362040e-07 6.66684855e-07 -6.07319919e-07 9.32007993e-07
      -8.73360818e-07 9.84954909e-07 4.71056012e-07 -7.36796380e-07
      -8.24915460e-08 6.75085943e-08 9.52441269e-07 9.68493623e-07
      5.56440057e-07 1.92518911e-07 -4.86123440e-07 -8.18192575e-07
      -1.02193428e-06 -5.73750924e-07 1.89078818e-07 9.00436987e-07
      5.14067494e-07 -2.75744725e-07 -9.62260174e-07 4.81993766e-07
      3.68023791e-07 -9.05645550e-07 4.32838277e-07 -5.20478693e-07
      4.90534831e-07 -3.39349043e-07 -9.77845502e-07 -1.74979142e-08
      -3.97013366e-07 7.68683890e-08 1.98494672e-06 -7.94254902e-07
      -6.80641534e-08 7.28560110e-07 4.99446287e-07 8.43818100e-08
      -4.88389162e-07 1.59656861e-06 -7.11461382e-07 -1.05604798e-07
      -1.36069886e-07 -7.73008821e-07 3.55480950e-07 6.60589095e-08
      6.43711530e-07 5.54499138e-07 -7.35656045e-07 1.91086812e-07
      -8.25435720e-08 7.99562798e-08 -4.67671441e-07 8.98502250e-09
      3.57594644e-07 5.26286897e-07 -5.08057212e-07 3.88760839e-07
      -8.29416479e-07 2.19288751e-07 -9.53713538e-07 -6.15503097e-07
      5.61621221e-07 5.50979792e-07 -1.20820994e-06 -2.89349572e-07
      6.11571579e-07 -9.58063211e-08 -2.47746101e-07 -3.48972051e-08
      7.14590101e-07 2.10545252e-07 3.71226122e-07 -6.47414367e-07
      2.63502869e-07 3.91213376e-07 -7.68738744e-07 -1.95656597e-07
      -1.71513193e-07 1.38852840e-06 6.92089543e-07 -2.79691875e-07
      -7.39596658e-07 -7.41108408e-07 -8.55241751e-07 1.27725048e-06
      6.18853960e-07 2.92632706e-07 7.70263568e-08 -9.75182729e-07
      -1.53287544e-06 -1.22195468e-06 2.61215085e-08 -1.11781688e-07
      -3.16901811e-08 -1.52028122e-06 -8.98382154e-07 -1.55789519e-06
      -1.96384053e-06 -1.69701366e-07 -1.66043571e-06 -2.25349311e-07
      -8.39536654e-07 7.25350674e-07 -3.52873087e-07 1.42785375e-08
      -8.74249963e-07 -1.44160629e-06 -1.38840005e-06 -4.23944186e-07
      5.49695812e-07 3.78337091e-07 -1.14298359e-06 -4.48324897e-07
      -3.58062863e-07 -8.56743895e-07 -4.17979010e-07 -1.45025888e-06
      -9.68493978e-08 2.59509449e-07 -8.08774985e-07 -6.42346720e-07
      1.28042119e-08 1.51393621e-07 -5.93798063e-07 -1.49363984e-06
      -1.21118580e-06 -4.34595137e-07 -1.04899243e-06 4.79275059e-07
      -1.59237260e-07 -3.52202989e-07 -3.90574826e-07 -1.69407258e-06
      -1.09795724e-06 -5.42934856e-07 -9.66957373e-07 -8.64783317e-07
      -8.66565642e-07 8.79034417e-07 8.01019837e-08 -1.28552051e-06
      -1.53535393e-06 -2.08886860e-07 -5.32749368e-07 -6.64287086e-07
      -9.83654900e-07 4.11090753e-07 -5.61575291e-07 -1.84515443e-06
      -1.77996276e-06 -1.36049903e-06 1.07843285e-07 2.87058288e-08
      -1.74176009e-07 2.16177966e-07 6.23100448e-07 5.44786587e-07
      9.52131387e-08 -1.21680478e-06 7.18181568e-08 -8.81031724e-07
      4.50066835e-07 -1.74349239e-07 -1.86258467e-06 -1.10700489e-06
      -7.46574585e-07 -1.24024814e-06 -2.23692246e-06 -2.81847224e-06
      -1.27942485e-07 2.19227090e-07 -3.06067051e-07 -6.97595738e-07
      -1.00392333e-06 -3.50017785e-07 -1.40832890e-06 -2.73979538e-07
      -5.72487806e-07 5.61350149e-08 -9.00691646e-07 1.13829901e-06
      1.82449227e-07 8.03833871e-07 1.37740176e-06 -1.37078405e-06
      -7.16494640e-07 -1.06610378e-06 -3.29426541e-07 -8.48809009e-07
      -1.14487739e-06 -1.25996382e-06 -1.01827391e-06 -8.17214129e-07
      -2.13208682e-06 -1.35716459e-06 -1.15577063e-06 -1.26589680e-06
      -3.96576269e-07 -9.92909690e-07 1.38509478e-07 -1.49021631e-07
      -6.63233095e-07 6.40587359e-07 -9.49538673e-07 -1.89856053e-07
      1.00965519e-06 3.61749990e-08 2.49421419e-07 -1.90900732e-06
      1.78571099e-07 5.96522739e-07 1.83289316e-07 -6.83097539e-07
      -5.54874759e-07 -5.95220229e-07 1.05794970e-06 1.48785387e-06
      -8.21528772e-07 7.30519162e-07 -4.54042386e-08 -3.51004132e-07
      -5.54914152e-07 6.00884277e-07 6.91744333e-07 -5.44979351e-08
      2.71989904e-07 -4.17541912e-07 -9.35292121e-07 -7.48246066e-07
      1.22719223e-06 2.26781239e-07 1.83496979e-07 3.11900088e-08
      6.50986635e-07 9.25449797e-07 5.35145048e-08 1.00628699e-06
      -2.39171271e-07 7.22137088e-08 -4.37542667e-07 -4.85883106e-07
      -7.04938898e-08 -4.52212078e-07 -5.19079094e-07 -4.87727107e-07
      5.17718661e-07 -2.95474763e-07 -6.31091780e-07 7.10719917e-07
      -6.81521556e-07 -1.19784488e-07 -1.99626712e-07 1.28030422e-07
      1.26682266e-07 4.45012489e-07 -3.65469191e-07 -2.99830617e-07
      -1.97421741e-07 -3.03384240e-07 -7.47405807e-07 9.40284565e-07
      8.48638535e-07 -3.44178574e-07 7.04223851e-07 5.10577536e-07
      4.52503912e-07 -6.51376013e-07 2.54412555e-07 -2.54034575e-07
      -1.38855046e-06 -7.36857487e-07 -2.66556924e-07 -1.16561921e-06
      -8.08250718e-07 5.34345945e-09 5.07366593e-08 -1.26880309e-07
      -1.72914326e-07 -6.04748323e-07 -1.54985639e-06 -2.09828522e-06
      -4.45332887e-07 -7.08687253e-07 -2.21762633e-07 -4.23573852e-07
      1.04233584e-06 3.00169944e-07 -1.08603251e-06 -2.26446241e-06
      -1.18206344e-06 5.32870047e-07 -8.76915237e-07 -3.79967474e-07
      -4.41113428e-07 -5.16741636e-07 -4.26524025e-07 8.57362394e-08
      -4.27926011e-07 -1.45037279e-06 -1.59654041e-06 -7.31996977e-07
      -7.87832448e-07 -6.87597662e-07 3.67489832e-07 3.32541532e-07
      -8.13353552e-07 -7.94775417e-07 -1.86438524e-06 -8.94282053e-08
      2.55518202e-08 -1.07272649e-06 4.87568855e-07 1.12533822e-08
      -4.44235042e-07 7.72660428e-07 3.74600006e-07 -3.50571781e-07
      1.31332615e-06 4.05511798e-07 4.91238097e-07 1.12501903e-06
      -1.22235826e-06 6.55931387e-07 6.14093608e-07 -1.51968223e-07
      1.10122460e-06 8.61827573e-07 -1.20689265e-07 5.21579935e-08
      2.69938880e-07 2.76847601e-07 -1.40458087e-06 2.73831677e-08
      6.46902194e-08 -7.35078842e-09 7.56619940e-08 -1.24641701e-08
      -3.19844531e-07 -1.12610587e-06 -5.05049343e-07 8.02253112e-07
      1.61529869e-07 -8.90532704e-07 5.97899430e-07 2.56726389e-06
      -2.83985685e-07 4.84728901e-07 2.94549551e-07 -3.10027445e-07
      3.35738605e-07 9.89731689e-07 -7.61150659e-07 1.51274406e-07
      1.06897437e-06 5.96704069e-07 5.71063140e-07 1.09322357e-07
      -1.13871494e-07 6.50156551e-07 2.67439930e-07 -3.77952205e-07
      3.61167594e-07 6.12366591e-07 -1.92973766e-06 -8.08425682e-07
      -2.03699116e-07 -4.70982144e-07 5.17565127e-07 -5.95390588e-07
      1.21448727e-06 -4.93493985e-07 8.85645477e-07 -8.80636605e-07
      1.94195354e-06 9.56082431e-07 4.05449583e-07 -3.66318943e-07
      -9.41314283e-07 2.96203552e-07 -1.38683424e-06 8.69795883e-07
      -2.68034455e-07 -7.73160878e-07 -8.34261527e-07 -4.19390062e-07
      8.59706574e-07 -1.13559713e-06 -2.79518275e-07 -6.25444613e-07
      2.83464061e-07 -1.21183746e-06 -1.94452537e-06 -6.44600334e-07
      8.12536971e-09 -4.19865529e-07 -5.07451546e-07 6.21614447e-07
      -8.48166565e-07 1.19258686e-07 -1.00610850e-06 -1.77287882e-06
      -6.73187117e-07 6.58969896e-07 2.91940694e-07 9.30502267e-07
      -4.56674996e-07 -8.35846606e-07 -5.19848413e-07 -6.47907896e-08
      5.15941508e-07 7.27283691e-07 3.58236917e-07 -4.49758772e-08
      -8.69368364e-07 -3.80334143e-07 -5.49764877e-07 -1.44232240e-06
      -1.24966414e-06 -7.08168784e-07 -9.82539859e-07 -1.60170964e-06
      -4.35670188e-07 -3.92878377e-07 5.28049668e-07 -3.74048653e-07
      9.18659993e-08 -6.61093679e-07 -7.27680117e-07 -2.63062702e-07
      1.03448178e-06 1.60292430e-07 2.92629608e-07 5.44272325e-07
      9.87354554e-08 1.94671316e-07 1.58008717e-07 -6.29545696e-08
      -4.00760314e-08 7.38897597e-07 -2.86410824e-07 5.17461096e-08
      1.61545415e-06 -5.28719056e-07 6.77156436e-07 7.86883561e-07
      1.32436503e-06 1.31577951e-06 9.80250434e-07 -3.56578028e-07
      -1.25785937e-06 6.65367338e-07 -1.75075149e-06 5.11903806e-07
      1.05253923e-06 -3.64522492e-07 -2.04616441e-07 1.19056187e-06
      -1.36906306e-06 -1.33212177e-06 1.67606331e-07 -1.06136383e-06
      -3.26573769e-07 -3.50924068e-07 3.21861933e-07 -8.41333588e-07
      4.81878999e-07 -3.71153817e-07 1.45897204e-07 3.32745287e-07
      1.55690984e-07 -1.61426115e-07 4.72262741e-07 2.37771872e-07
      3.63353450e-07 -3.97184493e-07 1.90739357e-07 -3.69612593e-07
      -1.79950234e-07 -4.95852078e-07 1.08654513e-06 -4.74932094e-08
      1.54547183e-06 -7.91093200e-08 -2.63018922e-08 -1.31347008e-06
      -3.66185731e-07 -4.23321239e-07 1.03775130e-06 -6.67585880e-07
      2.34717845e-07 3.13832601e-07 -7.86380525e-08 -6.28215560e-07
      7.68404078e-08 7.61582896e-07 -3.02685130e-08 -1.21157450e-06
      -1.92546190e-06 -2.35891707e-06 -7.68000064e-07 -3.41432518e-08
      5.50128220e-07 -6.63344281e-07 6.79973411e-08 7.18141166e-07
      -6.41074678e-07 -1.61365722e-06 -1.25684394e-07 -2.94331244e-07
      -8.01312012e-07 -3.50259029e-07 -8.74118712e-07 -7.43624923e-07
      -1.44104627e-06 -1.83014618e-06 -2.01651162e-07 -1.11400800e-06
      -1.32911100e-06 6.42339302e-08 8.80782068e-07 -3.20746381e-07
      -1.04961202e-06 -1.93478783e-07 -3.77494331e-07 -1.80357824e-06
      -1.46743764e-06 -1.31560341e-06 -1.09493203e-06 -8.57156266e-08
      6.74221781e-07 -7.27397548e-07 8.70265467e-07 -1.42639283e-06
      1.61080868e-06 5.76013406e-07 -4.10264960e-07 -7.69764881e-07
      -4.08917515e-07 1.38986911e-06 -3.66034470e-07 3.26529289e-07
      -9.38376914e-08 1.55750584e-07 -1.84986291e-07 2.85773982e-08
      -2.92610082e-07 -5.69812073e-07 6.70978807e-07 -1.09371030e-07
      -4.33583210e-07 5.16998796e-07 -1.25070801e-06 9.84380677e-07
      -2.86270136e-07 -9.10435460e-08 -4.06497236e-08 5.71619807e-07
      3.12560843e-07 5.80169115e-07 1.83907432e-07 1.85956821e-06
      -6.74236219e-07 -5.57896442e-07 4.15160628e-07 4.46872207e-07
      -4.01382572e-08 -2.47574775e-07 -1.58317192e-07 2.42200201e-07
      1.05768595e-06 5.31432647e-07 -1.19183667e-07 -1.28950873e-07
      -5.50299255e-08 -1.59309337e-07 7.83159351e-08 -4.84564339e-07
      5.21105108e-07 -1.98207928e-07 -1.80594031e-06 2.00074179e-09
      -1.56886202e-08 1.01643309e-06 6.34766081e-07 -8.08930110e-07
      -5.97821725e-07 8.62892648e-07 6.75937599e-07 -7.36034380e-08
      -8.89462683e-07 -5.51262289e-08 2.02555441e-07 -2.21981537e-07
      -5.12711267e-07 -1.31294837e-06 -2.70877422e-07 -1.07686242e-06
      -7.33375032e-07 2.37450806e-07 -1.86441554e-07 3.36049169e-07
      6.87943384e-07 5.54836106e-07 -6.38137237e-07 2.90556756e-07
      4.14657904e-07 -8.56353552e-07 -8.68634515e-07 7.80302173e-07
      -1.05369327e-06 -6.42036696e-07 -7.50788161e-08 -9.88033207e-07
      -7.70822339e-07 -2.83113422e-06 -1.24001724e-06 -8.54960547e-07
      7.19056061e-07 -1.21109099e-06 8.58467615e-07 -4.88041508e-07
      -4.22290839e-07 -1.54941688e-06 -9.74144655e-07 -3.52501615e-07
      1.16677370e-06 9.28594488e-07 -7.30543832e-07 -8.88552222e-07
      -8.38591234e-07 -1.46041839e-06 -1.22497840e-06 -7.24348297e-08
      -1.41292173e-06 -5.61242253e-08 -1.22922825e-06 -9.10641575e-07
      9.45978655e-08 2.98256026e-07 -4.40867069e-07 -2.75161767e-07
      -2.49261291e-07 -1.36013887e-06 2.74265972e-07 -1.38750863e-06
      -1.81793123e-08 1.36118658e-07 -5.31873638e-07 8.51898221e-07
      4.46642218e-07 -1.28887007e-06 -1.82661711e-06 7.68639268e-08
      -1.13926239e-06 -1.01772855e-06 1.78298023e-07 6.32499280e-07
      -2.02078795e-07 1.52538419e-07 1.08119514e-06 -5.30698173e-07
      -2.04015237e-07 -8.47947092e-07 1.20748396e-07 1.07468463e-06
      -1.21862030e-07 -2.09554841e-07 -7.40458461e-07 4.30952696e-07
      9.16130205e-07 -4.75262738e-07 -3.58922193e-07 4.69365951e-08
      7.07944594e-07 4.91968308e-07 7.37243681e-07 1.01728084e-07
      6.67168024e-07 3.07519485e-07 2.20018734e-07 -7.82484562e-07
      -2.28901357e-07 -5.44873764e-08 -1.11331792e-06 -1.59719389e-06
      -5.00076851e-07 -2.59196383e-07 -2.64166971e-07 -1.87895068e-06
      5.66550682e-07 1.93181890e-07 -1.06289247e-06 2.56067125e-07
      4.14629227e-07 -1.32701160e-07 -3.31853755e-07 1.04138280e-06
      -1.06627517e-07 5.86092426e-07 -6.44401268e-07 3.29368377e-09
      -2.72289583e-07 9.09655171e-07 -1.88508462e-08 -1.92208574e-07
      -5.58670592e-07 8.33350189e-09 -7.58842020e-08 -1.13165015e-06
      -3.51271865e-07 5.56495365e-07 -4.29383419e-07 3.95366186e-07
      1.20922479e-07 -1.97918894e-06 -2.01406874e-06 4.09850344e-07
      1.09217331e-06 -8.04173567e-07 -1.39903861e-07 3.88269797e-07
      -1.32606874e-06 -1.62626549e-07 -1.91003869e-06 -1.20625828e-06
      -1.62347692e-06 -8.16380691e-07 -6.78581547e-09 1.60503717e-07
      2.94080735e-07 -2.97032585e-07 2.35391386e-08 1.62977869e-07
      -8.61402270e-07 3.09974723e-07 1.06658767e-07 3.52021715e-07
      1.03608284e-06 2.97544545e-07 -6.62826494e-07 -6.58875138e-07
      6.97105520e-08 -7.60095986e-07 1.44050077e-07 -4.60120106e-07
      -6.17717831e-07 -6.07118579e-07 1.61859043e-06 3.04631584e-07
      8.55063377e-07 -5.12663576e-07 -6.86307203e-07 -9.49176751e-07
      -2.58208189e-07 -1.23379652e-06 -9.82446863e-07 5.93984488e-08
      -2.59318966e-07 -3.07427626e-07 3.15224980e-07 5.33370219e-08
      -1.36570907e-06 -1.30555713e-06 -1.62106937e-06 -6.65918321e-07
      5.10366533e-07 -8.31464433e-07 -6.74358080e-09 -1.69849000e-06
      -1.57106376e-06 -3.19518472e-06 -2.24002974e-06 -1.25643089e-06
      -1.43701470e-06 -6.08812798e-07 -2.81555600e-07 4.58151476e-07
      -1.79603808e-06 -8.74227169e-07 -1.80294512e-06 -9.66165544e-07
      -6.18481351e-07 -4.15089175e-07 -2.61078640e-07 -6.96472171e-07
      3.68977027e-08 1.20638242e-06 1.25195936e-06 6.89009028e-07
      -7.08447715e-07 -1.57334500e-06 -1.25208089e-06 -1.09348434e-06
      -5.39837060e-07 -5.75361014e-07 -6.70045779e-07 -8.66496293e-07
      -7.31456169e-07 -4.93076527e-07 -1.37318000e-06 -1.00441468e-06
      -6.81550489e-07 -4.55651410e-08 1.17392993e-08 7.90241685e-08
      -9.41574967e-07 -1.15157036e-06 -1.69337113e-06 -1.41810131e-06
      -1.09939185e-06 -1.09597829e-06 -8.41811811e-07 -2.95995282e-08
      -1.12998418e-06 -8.16292527e-07 4.10524251e-07 -1.62296203e-06
      1.13748467e-06 -7.20188211e-07 -1.85375779e-06 -1.28010754e-06
      -9.53733320e-07 -7.10753000e-07 -9.14746238e-07 -6.84010615e-07
      -1.65564714e-07 -1.20966342e-06 -5.45351668e-07 -1.12745715e-06
      -1.50256267e-06 -2.86961409e-07 8.26204086e-07 -1.35558864e-07
      3.39163023e-07 -6.66359654e-07 2.81825123e-07 1.60768721e-07
      -3.65720894e-07 -1.69423174e-07 -3.69635075e-07 7.73290196e-07
      -8.12267615e-07 -9.13771942e-07 1.00987859e-06 -2.24909158e-07
      -9.80972192e-09 1.12917758e-06 3.29058366e-07 4.83103690e-07
      6.25800283e-07 -9.69484191e-08 -5.52477729e-07 -3.08060976e-07
      -3.44049965e-07 -6.05306411e-07 -5.90366426e-07 7.05953767e-07
      2.53605975e-07 1.31814801e-07 -3.86976694e-07 -1.91573164e-07
      3.60769050e-08 1.10666099e-06 8.22147513e-07 3.20903325e-07
      -3.41248381e-08 -8.15474380e-07 -1.23412377e-07 -1.03561445e-06
      -1.56011026e-07 -4.50687736e-08 -1.15134739e-07 1.33684409e-06
      6.06071580e-07 -6.11927248e-07 -2.95477264e-07 2.34184654e-08
      4.72689052e-08 -1.16366641e-06 3.99147581e-07 1.01007356e-06
      -4.23783121e-07 1.73154262e-07 -5.22545292e-07 6.24317693e-07
      9.04730868e-08 3.74484387e-07 -3.95752195e-08 2.45987735e-07
      5.30990519e-07 -7.15602766e-07 -5.60459966e-07 -2.56098105e-07
      2.90435452e-07 -6.70494671e-07 -4.90121693e-07 -2.96657362e-07
      5.38033646e-07 1.78950543e-07 2.28548970e-07 -5.17324850e-07
      -2.02545806e-07 3.95330972e-07 -5.51588755e-07 -2.16300307e-07
      6.29376075e-07 4.51128216e-07 3.86846864e-07 4.94504036e-07
      -1.19669369e-06 -7.57653083e-07 5.22317464e-07 3.00013426e-07
      2.72632718e-07 -2.33439664e-07 -5.12222755e-07 6.72189685e-07
      2.67247600e-07 6.31025543e-08 -1.54569179e-07 -2.16608242e-07
      -4.20326444e-07 -3.99328371e-07 1.42868416e-07 -4.55679356e-07
      -7.08986647e-09 3.52477912e-07 4.15199025e-07 9.04877481e-07
      -4.95409211e-07 -9.42600309e-07 -1.77159507e-06 6.00639396e-07
      5.48663017e-08 4.38290613e-07 -2.67159805e-07 -2.58720462e-07
      8.79562890e-07 4.58255386e-07 1.13798569e-06 9.00014427e-08
      1.53154673e-07 3.65898785e-07 -6.01503359e-07 1.11064708e-06
      1.12959196e-06 -4.66343039e-07 8.69041230e-07 8.48080731e-07
      1.76490886e-07 4.10109749e-07 1.01910132e-06 -6.28415137e-07
      5.40791461e-07 3.86703611e-08 -3.89376567e-07 7.24214203e-07
      -1.28062027e-07 -7.12398901e-07 4.97282315e-07 1.19406968e-06
      9.54417715e-07 9.60528951e-07 1.52999860e-06 2.24928385e-07
      -5.96310088e-07 -2.02804495e-06 1.92158200e-08 -4.76912646e-07
      -1.53038712e-07 -3.28056693e-09 2.87858626e-07 3.55429535e-07
      3.63103538e-08 -1.20135002e-09 7.53833717e-07 1.24128988e-07
      -1.12090298e-07 4.96088660e-07 8.66598782e-07 -4.88031958e-07
      1.54123654e-06 1.37271104e-06 4.77787637e-07 -6.09059612e-08
      3.99237081e-07 7.52043718e-07 5.00256458e-09 -8.66354810e-07
      3.14727032e-07 -9.86682522e-08 -2.61022876e-07 4.86543229e-07
      1.55878780e-07 1.73011507e-08 5.28139367e-07 -1.64195981e-07
      -4.84234192e-07 -9.38416775e-08 8.18211618e-07 3.36911114e-07
      -9.06614730e-07 5.22251362e-08 5.85639057e-08 3.46978226e-07
      -3.85387665e-07 5.84700615e-07 -4.18050945e-07 -4.28768089e-07
      6.04692275e-07 -5.92383401e-07 -3.90240558e-07 5.05315029e-07
      1.14112034e-07 -8.07046433e-07 5.20259789e-07 6.20558183e-07
      6.42047837e-07 3.05860340e-07 7.47809054e-07 -4.61260505e-08
      1.70824489e-06 -3.32441232e-07 -3.26141759e-07 -4.16509778e-07
      -6.75845456e-07 -5.32547062e-07 3.50531536e-07 2.97523769e-07
      -3.76704520e-07 -2.44705944e-07 -5.02372131e-07 -1.37448879e-07
      -7.10109418e-07 -5.61833566e-08 -4.86070292e-07 -6.40246810e-07
      4.83355166e-07 -5.57208999e-08 3.68565338e-07 1.90064355e-07
      1.01014632e-06 -5.16116749e-08 9.33166291e-07 6.45461853e-07
      -2.26201010e-07 6.00983485e-09 -9.90110607e-07 -6.66939741e-07
      1.03708771e-06 9.71963459e-07 5.42708221e-07 -8.11540019e-07
      6.22447885e-07 7.57294458e-07 2.81692792e-07 1.81976148e-07
      -5.50015411e-09 -1.38900634e-06 -3.10495125e-07 -8.06132732e-07
      2.64531423e-07 8.75174294e-07 -1.12084436e-07 -8.33123579e-07
      8.97298435e-07 -2.96151427e-07 -3.39161204e-07 -1.61298672e-07
      -3.88398831e-07 4.97998258e-07 -1.05543529e-06 -3.90439112e-07
      4.15031138e-07 -7.18727506e-07 -3.59057935e-07 -3.91787637e-07
      6.54753592e-07 1.30799890e-07 3.02257007e-07 5.92013521e-07
      1.44116177e-06 -2.34687022e-07 -1.03198670e-06 -5.74460046e-07
      -1.32417517e-06 3.15967412e-07 -5.21059974e-07 3.57820312e-07
      2.93657422e-07 -9.62157515e-07 6.91223988e-07 -5.88089790e-07
      1.13187177e-07 -3.91798835e-07 7.51097559e-07 5.50550851e-07
      -4.56730845e-07 7.53057861e-07 5.95851191e-07 6.41068937e-07
      5.06780395e-07 -3.40461895e-07 1.54998088e-06 3.22814572e-07</_></support_vectors>
  <decision_functions>
    <_>
      <sv_count>1</sv_count>
      <rho>-2.9909591234889010e-05</rho>
      <alpha>
        1.</alpha>
      <index>
        0</index></_></decision_functions></my_svm>
</opencv_storage>
