<?xml version="1.0"?>
<opencv_storage>
<my_svm type_id="opencv-ml-svm">
  <svm_type>C_SVC</svm_type>
  <kernel><type>LINEAR</type></kernel>
  <C>9.5400000000000010e-07</C>
  <term_criteria><epsilon>1.1920928955078125e-07</epsilon>
    <iterations>1000</iterations></term_criteria>
  <var_all>1296</var_all>
  <var_count>1296</var_count>
  <class_count>2</class_count>
  <class_labels type_id="opencv-matrix">
    <rows>1</rows>
    <cols>2</cols>
    <dt>i</dt>
    <data>
      -1 1</data></class_labels>
  <sv_total>1</sv_total>
  <support_vectors>
    <_>
      4.49853502e-07 -1.74735590e-07 4.60990549e-07 3.46894495e-08
      6.81102563e-07 1.55838404e-06 4.57093535e-07 -3.10405497e-08
      5.01610316e-07 1.19473880e-08 1.05531478e-06 -2.95830660e-07
      -6.01491706e-07 1.05894173e-06 -5.90648483e-07 6.66547407e-07
      -9.84410690e-07 2.76902540e-07 5.58007258e-08 -6.62490436e-07
      -8.44573037e-07 9.77523314e-07 -5.11962355e-07 -3.31567293e-07
      -1.04751052e-06 -4.96522830e-07 -5.16818773e-07 4.47996911e-07
      -3.51374581e-07 2.92312819e-07 -1.06291691e-06 -1.00700549e-06
      -2.85133666e-07 1.14083082e-06 1.81474505e-07 -3.58306266e-07
      4.12059471e-08 3.65467287e-07 1.94625855e-07 1.10023382e-06
      1.45660442e-06 -6.88302038e-08 1.19267656e-06 -5.52595679e-07
      -3.01872774e-07 3.02452179e-07 4.70626702e-07 -8.19032095e-07
      -5.05074468e-07 -2.91124252e-07 1.71617970e-07 1.45649381e-07
      1.23179223e-06 6.35305810e-07 9.62960030e-07 -1.43997067e-06
      9.32419994e-07 -5.09192034e-07 -7.78067204e-07 -9.17636669e-07
      -1.99823830e-07 1.34233318e-07 1.10881251e-06 -3.25375623e-07
      -4.98054476e-07 5.59315367e-07 -7.15900654e-08 -4.15687481e-07
      8.19987804e-07 1.79593115e-07 -1.32324578e-06 -4.74655451e-07
      -9.07518768e-07 -9.93377739e-07 7.21503568e-08 3.12449231e-07
      -3.43315037e-07 1.63492075e-07 9.05458194e-07 2.36638584e-07
      -3.56510327e-07 -7.80492027e-09 1.12848433e-07 6.96738098e-08
      9.65707443e-08 8.89107014e-07 6.72241242e-07 -9.09069740e-07
      4.61079765e-07 1.55356759e-06 3.13962829e-07 -1.94651804e-07
      2.21992241e-06 -3.52557294e-07 -1.09277028e-06 1.88903428e-07
      1.53987386e-07 1.37680502e-06 6.68028179e-07 -3.89166502e-07
      -1.24603162e-06 3.31115501e-07 -1.34713036e-06 -4.97449264e-07
      1.70467409e-08 -3.30438565e-09 -1.73010378e-07 -9.37509640e-07
      -9.04176432e-08 5.74972489e-07 -1.05377751e-06 8.43666896e-07
      -8.90127183e-07 1.70312433e-06 5.64907793e-07 8.37972834e-07
      -5.06372828e-07 -6.34687467e-07 -4.69861106e-07 7.11063635e-08
      -1.28379884e-06 1.81798598e-07 -3.50908607e-07 8.15510191e-07
      6.76399509e-07 4.01989809e-07 1.92033826e-06 -3.11648932e-07
      4.75641599e-07 -6.43386784e-07 -6.69874510e-07 -3.13687337e-07
      9.20627315e-07 -1.38894421e-07 -1.50230832e-08 -6.37517189e-07
      -6.66314918e-07 5.93649190e-07 -1.20070956e-06 -5.55348834e-07
      1.09918915e-07 9.27177609e-07 -3.83655220e-07 4.50182540e-07
      3.96690808e-07 3.18508313e-07 3.75628389e-07 1.42457361e-06
      8.91272009e-07 7.59143461e-07 4.09475206e-07 -7.90722993e-07
      -4.35618176e-07 1.19317306e-07 -1.72390067e-08 1.37366797e-07
      -5.00823830e-07 2.01669081e-07 -4.36460283e-07 -1.79742813e-07
      1.68161932e-07 -1.38039269e-07 6.44596753e-07 -5.24654752e-07
      3.37760866e-07 -6.23484908e-08 9.59630484e-07 6.61124488e-07
      2.56182915e-07 4.19163911e-07 1.78445148e-07 -2.49768078e-07
      -7.82209327e-07 1.14107945e-06 -1.58063813e-06 -6.36239292e-07
      9.12753890e-08 1.02039007e-06 -1.77516341e-07 -6.43700787e-07
      4.86217914e-07 -5.15348631e-07 -8.29187954e-08 -5.69223687e-07
      2.38253023e-07 1.04018034e-06 1.23736513e-07 -8.74609952e-07
      3.09055650e-07 1.81842623e-07 -4.31288413e-07 2.77920634e-07
      2.77897612e-07 7.85566385e-07 4.51625738e-07 -1.94433852e-07
      -3.15769938e-07 -1.56033437e-07 1.03819059e-06 -1.92957827e-07
      6.61592949e-08 1.10590270e-06 -1.22647883e-08 2.07955352e-07
      -6.30161708e-07 -4.79476682e-07 -7.96507493e-07 8.69646328e-07
      -4.03112466e-07 -3.82651820e-07 5.02785952e-07 -1.43668581e-06
      -8.55560472e-07 -4.62897901e-07 4.65059429e-07 6.86842270e-07
      7.98982427e-08 -3.82104730e-07 -8.97521204e-07 6.06740080e-09
      -3.46028969e-07 3.32113245e-07 1.48424965e-06 -7.78727951e-07
      9.03896762e-07 1.02781037e-07 -1.05281003e-07 -2.61953744e-07
      -4.70290985e-07 1.14551256e-06 -1.21540481e-07 -6.29792964e-07
      4.63576669e-07 1.23865482e-06 -3.10360008e-07 1.14973750e-06
      -1.44332603e-07 4.91825176e-07 1.71372278e-07 6.80367407e-08
      1.03087973e-06 4.24267569e-07 -3.24336469e-07 7.99515647e-07
      -2.46480880e-07 1.35008941e-06 -1.22364881e-07 -1.25847663e-07
      -4.93228811e-07 -2.15848672e-08 -4.68666912e-07 -1.21204891e-06
      -4.15990229e-07 2.62404882e-07 -4.77803894e-07 2.08149924e-08
      6.13901136e-07 5.48411165e-08 -5.71139537e-07 4.75429800e-07
      1.79930976e-06 -7.89629837e-07 -4.20994837e-07 -8.43704811e-07
      -1.36215164e-07 -4.94664334e-07 -1.42851633e-07 4.64139987e-07
      2.72781563e-07 2.61986921e-09 1.43176260e-06 -4.19898669e-07
      -1.45315698e-06 5.76156367e-07 -7.43168812e-07 -8.08115146e-07
      7.76125944e-07 9.17814191e-07 -7.42305488e-08 -1.67569806e-06
      -2.38618009e-06 -1.71975216e-06 -7.84049714e-09 -5.76106061e-07
      -1.20436383e-07 -8.11448047e-07 -2.99073179e-07 -1.07704068e-06
      -1.48434458e-06 -1.06988409e-06 -4.76773380e-07 -6.17284911e-07
      -4.34758988e-07 -4.23488615e-07 2.61875897e-07 2.04030329e-07
      -1.52458131e-06 -1.93628262e-06 -1.25084705e-06 -8.51081381e-07
      1.32687276e-07 2.67941573e-07 -3.06546639e-07 -4.53353550e-07
      8.62175469e-08 -6.94583662e-07 4.08279732e-07 -1.20455286e-06
      -3.61484240e-07 9.47609465e-07 -3.27794169e-07 1.68073058e-07
      7.89498245e-07 -7.78862045e-07 -4.20294043e-07 -5.81246866e-07
      -5.57363762e-07 -1.54886084e-06 -1.17450281e-06 5.47209766e-07
      1.16865976e-07 1.02878323e-06 -2.35600908e-07 -1.00693001e-06
      -1.01201647e-06 -1.15988598e-06 6.43345061e-07 -7.66695564e-07
      -5.22533924e-07 2.34576433e-07 -1.90830932e-07 -8.12994188e-07
      -1.89796788e-06 -2.47644408e-07 -4.90971559e-07 -6.71683154e-07
      2.09452153e-07 -5.74561227e-07 -2.08488558e-07 -7.58867316e-07
      -1.12806461e-07 -1.19157755e-06 1.77776982e-07 5.98130953e-07
      8.63019949e-08 4.83591919e-07 2.73037671e-07 4.97025383e-07
      7.07177549e-07 -1.11679515e-06 -9.94388756e-07 -6.88915065e-07
      -1.48987306e-06 -3.71325001e-07 -2.24129008e-06 -2.25166602e-07
      -8.53853578e-07 -1.49241225e-06 -7.65061884e-07 -1.96178871e-06
      4.12248511e-07 -5.68117173e-07 -4.11322560e-07 -2.54770896e-07
      -1.49736991e-07 2.94068570e-07 -2.97374982e-07 5.73896273e-07
      5.93212405e-07 3.08137551e-08 -5.22917048e-07 8.51049833e-07
      6.14641124e-07 1.06280061e-06 1.57196109e-06 -1.19040942e-06
      3.25842677e-08 -3.26193231e-07 -5.26724705e-07 -1.68409167e-06
      -1.59406954e-06 -1.40049019e-06 -3.71755590e-07 -4.20084660e-07
      -2.25829785e-06 -5.51993878e-07 -5.05981177e-07 -1.03137609e-06
      -1.73865908e-06 -7.05788864e-07 -7.20640571e-07 -3.67464679e-07
      3.29089033e-07 -2.75657129e-07 -5.98024826e-07 1.04752871e-07
      1.61495048e-08 -1.41719602e-06 -7.56966188e-07 -9.89830482e-07
      1.00360774e-06 1.94594037e-07 1.02580486e-06 2.78056973e-07
      -7.24184702e-07 -8.87056899e-07 9.51195375e-07 8.85286340e-07
      -6.31191739e-08 8.63995524e-07 8.77708999e-07 6.23307074e-07
      -2.72391617e-07 5.96578957e-07 -9.40396117e-09 -9.39758479e-07
      -5.80638016e-07 1.09582381e-07 -2.58830397e-07 -8.16864144e-07
      1.26108330e-06 5.46585227e-07 -9.94030742e-08 4.42132347e-07
      8.03052785e-07 6.31473881e-07 -1.27525720e-06 4.24071885e-07
      -5.60771753e-07 5.27389659e-07 -2.20680718e-07 5.19224329e-07
      -2.43422932e-07 4.14946186e-07 -4.45355766e-07 -8.18869580e-07
      1.02511308e-06 -6.14139992e-07 6.21265315e-07 1.46189382e-06
      -4.11517590e-07 -1.25192526e-06 -8.12870951e-07 -6.64070328e-08
      5.13983935e-07 -7.18605179e-07 -1.92530862e-07 -5.30325735e-07
      -7.69680071e-07 -1.41951784e-06 -4.91059666e-07 8.54420193e-07
      7.30167073e-07 4.05689860e-07 1.39276949e-06 7.38543974e-07
      -2.45566611e-07 1.02417346e-07 -2.78636122e-07 -3.66404521e-07
      -4.83971576e-07 -1.24841938e-06 -7.35001834e-07 -7.13658324e-07
      -7.84535985e-07 -3.97751876e-08 2.90218964e-07 -3.01081428e-07
      -4.64800621e-07 -4.39655366e-07 -8.03151693e-07 -1.97574786e-06
      -1.07077858e-06 -4.28613333e-07 5.91296725e-07 -2.38069518e-07
      -4.92254003e-07 6.03080423e-07 -6.95164999e-07 -2.22561312e-06
      -1.49374159e-06 2.07610640e-07 -1.37152392e-06 9.16166698e-08
      -2.60948507e-08 4.54393820e-08 -2.73600648e-07 9.41249255e-07
      -1.42904889e-06 -1.56909482e-06 -1.94859331e-06 -1.16747935e-06
      1.25110404e-07 -2.48641555e-07 8.94210984e-07 -6.23651886e-07
      -1.99880759e-07 -7.42859015e-07 -1.36939536e-06 -6.44545651e-07
      -3.83352045e-07 -6.56311329e-07 4.92282311e-07 5.26036672e-07
      -2.94689443e-07 -8.18696861e-08 -8.85452948e-07 -5.04935429e-07
      1.56608314e-06 3.33331258e-07 6.67544157e-07 4.01128773e-07
      4.35897988e-07 1.60484967e-06 2.04787952e-07 -8.55957637e-07
      -9.44038980e-09 3.67040940e-08 4.14671959e-08 5.57715509e-07
      5.84523264e-07 1.25638124e-07 3.39429278e-07 1.07295783e-07
      1.23606995e-07 -3.35906606e-07 2.94822087e-07 -1.17266654e-06
      3.25843075e-07 -7.26535461e-07 -5.58799123e-08 4.73927344e-07
      -3.23759309e-07 2.80712527e-07 8.24082278e-08 1.38680468e-06
      4.99218444e-08 -3.48459728e-09 9.74088834e-07 -1.24476585e-07
      1.28171075e-06 9.93647177e-07 -3.41544990e-07 4.98925317e-07
      1.17083948e-06 -2.06668929e-07 5.02978708e-07 5.25122168e-08
      5.78908214e-07 6.10687891e-08 -5.23801646e-07 1.08374059e-06
      1.46300522e-06 -1.63587188e-07 -1.14510908e-06 2.33866928e-07
      1.09389319e-07 6.81304016e-07 -6.27652241e-08 -1.05171118e-07
      1.19274546e-06 2.17460567e-07 1.24409110e-06 8.71365273e-08
      1.61153423e-06 1.81756980e-06 1.22808297e-06 -8.84079228e-08
      2.72798701e-07 9.57653157e-08 -1.24663029e-06 3.99879582e-07
      -7.59240493e-07 -2.91446526e-07 -7.02330851e-07 -4.06320765e-07
      3.29833512e-07 -1.69610033e-07 -9.88173952e-08 -4.68663671e-07
      4.24363179e-07 -5.91873743e-07 -1.88755894e-06 -9.15854514e-07
      4.01202243e-07 -1.20770483e-06 -4.18807076e-07 9.46864361e-07
      -8.40203029e-07 -8.67243955e-07 -1.52890061e-06 -1.47505341e-06
      -1.57620343e-06 -8.07557512e-07 3.98419871e-07 -1.25936040e-07
      -9.53932044e-07 -2.64992536e-07 1.96490220e-07 -5.72293516e-07
      4.85887767e-07 5.70121699e-07 -8.52647517e-08 -4.12586900e-07
      -8.50415972e-07 -1.28365264e-06 -2.24209998e-06 -1.09572568e-06
      -1.48959339e-06 4.79198050e-08 -1.17927402e-06 -1.29531145e-06
      -4.43670103e-07 -1.94055659e-07 1.04463176e-07 5.10883694e-07
      6.20389926e-07 -4.21817049e-07 1.53135545e-07 -3.81986979e-07
      -6.87203965e-07 4.69161449e-07 1.49405523e-07 2.14019181e-07
      1.30479600e-06 3.63457104e-07 8.64671165e-07 -7.30152692e-07
      9.42970416e-07 2.64152590e-07 -9.50628191e-07 -4.42330560e-07
      4.79721734e-07 4.09316350e-08 8.72819157e-07 -3.06866241e-07
      1.59429703e-07 1.04466028e-06 3.46121745e-08 -2.44667689e-07
      -4.42014027e-07 9.19467197e-07 -1.41790485e-06 -7.75328147e-07
      1.00908744e-06 -1.57342996e-07 5.45735077e-07 7.23544019e-07
      -1.20500818e-06 -4.31998046e-07 2.15239595e-08 -1.64469191e-06
      5.04871252e-07 2.60900701e-09 3.12483337e-08 -6.13910416e-08
      -4.85680346e-07 -5.11746350e-07 -5.32588217e-07 6.87593285e-07
      4.05579783e-08 2.86172281e-07 1.98481214e-08 1.69305451e-07
      8.12783412e-07 5.96195150e-07 -1.75658343e-07 -2.48151537e-07
      -2.67234640e-07 2.41105170e-07 1.13731835e-06 -4.74858837e-07
      1.27766043e-06 7.54203427e-07 2.03366938e-07 -5.40406290e-07
      7.45452198e-08 4.51525466e-07 3.90476771e-07 -3.61378994e-07
      5.28708028e-07 9.61647402e-07 2.89027664e-08 7.49023155e-09
      -6.74172838e-07 -2.32351823e-07 -1.07103278e-06 -1.72182285e-06
      -2.24357723e-06 -2.88393835e-06 -1.66217330e-06 -5.35377580e-07
      5.19976766e-07 -2.06951199e-07 4.40105225e-07 -1.31436735e-07
      -2.31314445e-07 -8.35655669e-07 -9.47742080e-07 -5.84294810e-07
      -6.27865006e-07 8.93564390e-07 -5.14886267e-07 -1.15926230e-06
      -7.61484500e-07 -1.74911304e-06 1.51084890e-07 -1.69509087e-06
      -2.64715914e-06 -4.38347683e-07 8.95596770e-07 -3.21528262e-07
      -2.04831076e-06 5.33418529e-07 -2.04355004e-07 -1.05519212e-06
      -2.08269194e-06 -1.50429116e-06 -1.47477613e-06 -7.65702595e-08
      5.88205467e-07 3.96903943e-07 9.36917900e-07 -1.96881524e-06
      1.84454370e-06 -4.81927373e-07 7.50353365e-07 -6.50420930e-07
      -4.65033338e-07 1.29940986e-06 -2.71729903e-07 -3.24849083e-07
      -1.34137895e-06 5.76026991e-07 -8.88495606e-07 2.09503881e-07
      5.92814956e-07 -1.49206664e-06 8.48689297e-07 1.40227132e-06
      -5.55234521e-07 7.16828936e-07 2.47158571e-10 3.40898737e-07
      -3.25501759e-07 2.00915991e-07 1.04552711e-07 7.00624014e-07
      -1.23911050e-07 5.36702828e-07 1.34881066e-06 1.59098840e-06
      5.41032421e-07 9.78087797e-08 -2.34394946e-07 6.80297944e-07
      -3.58664096e-07 -5.12437055e-07 -3.85943395e-07 -4.10087395e-08
      9.66665539e-07 3.59558925e-07 -9.64831997e-07 6.96338418e-07
      5.87569389e-07 -2.73928379e-07 3.41797289e-07 -5.19603987e-07
      -1.20540406e-07 -4.06618028e-07 -6.95481162e-07 6.28481516e-08
      -8.88277611e-07 9.56701570e-07 1.31245065e-06 -1.11254565e-06
      -6.49020024e-07 3.33414533e-07 8.73215242e-07 -7.94850109e-07
      1.19371990e-07 8.01177634e-07 -3.71935272e-07 -4.25271111e-07
      -1.10814483e-06 -3.70481587e-07 -2.50663618e-07 -9.42424606e-07
      -1.00264344e-07 8.29682619e-07 1.64336186e-07 -1.80294805e-07
      5.64148479e-07 -4.48618032e-08 -2.05660868e-07 1.01653313e-06
      4.17760020e-07 -1.96845221e-07 -1.34517973e-06 1.10495716e-06
      -5.65949904e-07 4.23250157e-07 -6.06241258e-07 -7.96580366e-07
      -6.78940580e-07 -2.62823255e-06 -8.00394616e-07 -2.27378587e-06
      8.81589699e-07 -6.68811253e-07 -1.25172130e-06 2.16763908e-07
      -1.54764803e-06 -1.17875095e-06 -6.60807018e-07 4.14224132e-07
      5.50102072e-07 1.73030699e-07 -4.14727197e-07 4.99053492e-08
      -1.13285910e-06 -1.09287532e-06 -1.80217046e-06 -3.28516620e-07
      -9.67955089e-07 -4.25058516e-07 -1.49729419e-06 -1.26063810e-06
      9.51414506e-07 7.19763932e-07 4.22045821e-09 2.27635155e-07
      1.54154236e-07 -9.91651405e-07 1.78040139e-07 -1.67609801e-06
      -5.72826821e-07 -6.12916722e-07 -5.00478507e-07 9.86568466e-07
      1.91728930e-07 -4.23025966e-07 2.70532183e-07 3.19084080e-07
      3.17889771e-07 1.98954950e-08 -5.49114304e-07 4.52268864e-07
      8.51487698e-07 2.54327091e-07 -2.04020225e-07 3.96815494e-07
      -2.21578091e-07 -5.48152229e-07 6.08674952e-07 -4.72645098e-07
      -5.81419158e-07 -8.13534655e-07 8.62503668e-08 9.37949665e-07
      3.78842913e-07 2.64776759e-07 4.56868349e-07 6.65954531e-07
      2.04908275e-07 2.82499514e-07 4.50538295e-07 2.61579594e-08
      7.77243017e-08 9.37854566e-07 -2.67216848e-07 -1.41135303e-07
      8.39397387e-07 3.23604397e-08 -4.40213029e-07 -6.29143187e-07
      -5.16185196e-07 1.41960470e-07 -3.75927925e-07 -1.98707369e-07
      -1.37586517e-06 -1.04294266e-07 -1.14914053e-06 -5.80923938e-07
      1.67450537e-07 -6.22733239e-07 -5.31605224e-07 1.02913464e-06
      5.08923428e-08 1.43393447e-06 -3.18772315e-08 -2.62442114e-07
      -5.51690675e-07 6.88760394e-07 3.08108952e-07 3.05473037e-07
      1.31959883e-08 1.02858485e-06 7.94006194e-09 3.95397620e-07
      -5.64432014e-07 2.62789314e-07 3.82303909e-07 3.80372086e-07
      1.80000015e-07 -1.28240424e-06 -1.11041356e-06 -2.57792152e-07
      3.40479460e-07 -4.07429013e-07 -4.61241115e-07 1.12141026e-06
      -4.32351442e-07 -3.89891341e-07 -2.18893706e-06 -1.90644596e-06
      -1.72940759e-06 -9.20112257e-07 -6.92461924e-07 -1.88719355e-07
      3.58754932e-07 -6.34917910e-07 -5.63814922e-07 -5.23092638e-07
      1.11487978e-07 -4.66576637e-07 -5.72602268e-08 -1.37780276e-07
      3.96622738e-07 -3.47292826e-07 -7.03957539e-07 -1.02611716e-06
      1.77226582e-07 -1.26794578e-06 6.24434222e-07 -9.68668701e-07
      1.70936673e-07 -8.23658297e-07 8.33717820e-07 5.10410587e-07
      1.24597420e-06 7.65099230e-07 -4.77287188e-07 -2.68113666e-07
      -4.51002336e-07 -7.47697527e-07 -1.25344707e-06 -8.81318442e-07
      4.98552765e-07 -2.88552513e-07 1.99924159e-07 -5.89634794e-07
      -1.20612856e-06 -8.40494351e-07 -1.26719647e-06 -2.83321839e-07
      4.39351993e-07 -3.62083995e-07 -4.10839846e-07 -9.89521027e-07
      -1.75716298e-06 -1.69804241e-06 -1.35452638e-06 -1.69905331e-06
      -1.37919221e-06 -7.33186937e-07 3.72329083e-07 -2.41292611e-07
      -1.42112049e-06 -6.93238690e-07 1.77718547e-07 -1.94902282e-06
      3.29293812e-07 2.12912894e-07 -6.46489582e-07 -1.01746150e-06
      5.73584373e-07 -7.08833738e-07 4.06979666e-07 -1.28684448e-07
      -1.03642196e-06 -1.86991429e-06 -1.73046828e-06 -1.57647207e-06
      -1.21477092e-06 4.29075783e-07 -9.99614372e-07 -5.18339505e-07
      -7.64825359e-08 -8.91659283e-07 -1.72154296e-06 -4.73886246e-07
      8.43656167e-08 -1.02814693e-06 -8.94260495e-07 -5.90500406e-07
      -1.08401582e-06 -1.32342382e-06 -1.62028925e-06 -1.26745715e-06
      -1.69274563e-06 -1.05807317e-06 -3.40885009e-07 1.50618618e-07
      -2.11834868e-06 -1.15450098e-06 -5.12265046e-07 -1.66832478e-06
      7.91817399e-07 -9.10205301e-07 -9.14600946e-07 -8.71766304e-07
      -1.86625570e-07 -2.14787019e-06 -1.36757797e-06 -9.08559798e-07
      -3.89150586e-07 -4.81508437e-07 -7.66386165e-07 -2.12254001e-08
      -2.69764570e-07 3.36088874e-07 -5.98416079e-07 -7.67969937e-07
      1.78620337e-06 4.07688958e-07 3.86940116e-07 1.53036879e-07
      3.07196899e-07 5.56434721e-08 2.05533027e-07 1.64058847e-07
      -2.32400410e-07 -5.33051661e-07 3.63726770e-07 -6.77708044e-07
      -1.95435518e-06 6.45046498e-07 1.82403017e-08 2.68296503e-07
      4.06474811e-07 4.38186518e-08 -6.46052911e-07 -2.07551307e-06
      -6.61678087e-07 2.71057473e-07 -1.29067564e-06 1.94299318e-07
      7.03939406e-07 -1.13930241e-06 -4.03811754e-07 -3.21631234e-07
      4.81278732e-07 4.16660555e-07 7.76301306e-07 2.14015444e-07
      -3.05876313e-07 1.33965855e-07 2.82726575e-07 -9.05031072e-07
      -4.08458504e-07 1.36099942e-07 9.84726967e-07 6.04937611e-07
      -1.28997021e-06 8.04705678e-07 -3.94291874e-07 6.02194916e-08
      7.72118938e-07 -1.13964336e-06 5.37552467e-07 8.69064195e-07
      -1.28672059e-06 3.07968293e-07 -2.15461483e-07 4.70704862e-07
      6.11793496e-08 1.69157190e-07 -4.67688807e-07 -6.43642181e-07
      -2.19810488e-07 -4.96545134e-08 -1.27529586e-06 6.62338266e-07
      -9.43323869e-07 -8.91954130e-07 7.14352041e-07 -1.78118626e-07
      -5.92712126e-07 -3.81684572e-07 6.73387206e-07 -1.23630218e-06
      2.51832660e-07 4.30477485e-07 4.39057743e-07 3.04863335e-07
      -3.78526892e-07 -1.49894248e-07 4.06544274e-07 1.56779237e-07
      -2.15487887e-07 -1.28426154e-06 -2.50654097e-07 5.79069365e-07
      -1.00803015e-06 5.79756488e-07 1.11598035e-06 -2.68548462e-07
      -1.48800714e-08 -1.72369795e-07 -4.67573841e-07 3.52675130e-07
      -9.76847559e-07 8.33389109e-08 -4.28664109e-08 -7.04604517e-08
      8.24411899e-08 5.89941862e-07 1.03845275e-06 1.42056331e-06
      7.25749715e-07 -8.98750613e-07 -1.47992534e-06 6.45215209e-07
      8.16953559e-07 -3.12677813e-08 -1.43804107e-06 -9.08116320e-08
      -1.15152659e-07 1.44633333e-07 9.68690529e-07 6.94252208e-07
      -7.92170226e-07 -1.21963126e-07 -1.91875500e-07 1.08609456e-07
      -6.40953488e-07 -7.91533125e-07 1.21213770e-06 1.14514414e-07
      -1.00725242e-06 3.84205379e-07 4.85822000e-07 -1.69082014e-07
      2.60535671e-07 3.52612233e-07 9.42281929e-07 1.16469619e-06
      4.01474551e-08 4.32378641e-07 1.64151288e-07 9.29652572e-07
      8.17948717e-07 6.00829708e-07 7.97343205e-07 -4.65475779e-07
      -5.40767076e-07 -2.37254176e-06 -4.61841751e-07 1.75033506e-07
      6.84779422e-07 -4.09887718e-07 5.53148539e-07 -9.78566916e-08
      2.08027970e-07 2.20959393e-07 9.85200828e-08 -2.00536007e-07
      5.04141155e-07 3.41882412e-07 6.06669175e-07 -8.33178206e-07
      1.90268861e-06 4.86001284e-07 2.52648505e-07 -1.31075112e-07
      1.02494391e-06 -4.82863413e-07 5.06841729e-07 2.05722628e-07
      3.02456158e-07 3.61021534e-07 -2.44502189e-07 -2.58851088e-07
      -7.55726717e-08 -6.68514986e-07 4.32345104e-07 -5.50660388e-07
      -1.64270816e-07 -2.85771989e-07 1.52059641e-07 4.59073561e-07
      -7.82188920e-07 -9.92632522e-07 -1.67408302e-06 4.28782528e-07
      2.31890667e-07 -3.43332289e-07 -7.49053072e-07 -6.31133332e-07
      2.66264863e-07 1.02722568e-08 -1.30244177e-06 -9.34973414e-08
      5.93500772e-07 -5.85565999e-07 -4.08257563e-07 1.08901520e-06
      1.14271336e-06 1.48208119e-06 6.28105113e-07 -3.47959599e-07
      1.32322015e-07 -1.62706692e-06 -7.63157061e-07 -1.65000904e-06
      1.83362133e-07 2.83173875e-07 -9.22165839e-07 -8.40201608e-07
      -5.96184350e-07 1.20905236e-06 7.88868704e-09 1.55868648e-07
      -4.34761830e-07 -4.58998848e-08 3.85743476e-07 -4.86039767e-07
      7.22138282e-07 -3.79326821e-07 9.54467282e-07 8.52534470e-07
      -3.50639056e-08 -4.54245622e-07 -1.86794523e-07 2.82650689e-07
      -3.02915197e-07 -1.05224046e-06 3.34747199e-08 -1.22998884e-07
      8.23790856e-07 1.24721771e-06 7.51742732e-07 -4.10589934e-07
      1.21876178e-06 4.77328342e-07 3.14803543e-07 -3.53301004e-07
      9.11267705e-07 -1.20257027e-06 1.18571279e-07 8.54047698e-07
      -9.85223725e-09 -1.77933671e-07 5.59162970e-07 -1.13534236e-06
      7.85323721e-07 -4.08838503e-07 1.47310061e-07 -2.47149160e-07
      5.82746850e-07 2.63035901e-07 -2.93185224e-07 -4.45493527e-07
      -5.31879891e-07 4.37868550e-08 7.38851327e-07 -2.85894629e-07
      9.70421752e-07 6.04281567e-08 -2.54801648e-07 8.23575476e-07
      -6.00602732e-07 1.57752012e-07 1.10801204e-06 1.22202800e-06
      7.15253407e-07 -5.56226155e-07 6.43236035e-07 -1.11621409e-06
      -1.81776031e-07 7.18422370e-07 -4.08667944e-08 -4.48088464e-08
      -5.62820276e-07 6.06722423e-08 2.24845298e-08 -1.24623341e-07
      -8.61244359e-07 5.01685122e-07 8.54938435e-07 -1.01646016e-07
      1.31425949e-07 -4.99674456e-07 7.16631234e-07 4.14614163e-07</_></support_vectors>
  <decision_functions>
    <_>
      <sv_count>1</sv_count>
      <rho>-2.8677115758490856e-05</rho>
      <alpha>
        1.</alpha>
      <index>
        0</index></_></decision_functions></my_svm>
</opencv_storage>
