<?xml version="1.0"?>
<opencv_storage>
<my_svm type_id="opencv-ml-svm">
  <svm_type>C_SVC</svm_type>
  <kernel><type>LINEAR</type></kernel>
  <C>2.9103800000000001e-11</C>
  <term_criteria><epsilon>1.1920928955078125e-07</epsilon>
    <iterations>1000</iterations></term_criteria>
  <var_all>1296</var_all>
  <var_count>1296</var_count>
  <class_count>2</class_count>
  <class_labels type_id="opencv-matrix">
    <rows>1</rows>
    <cols>2</cols>
    <dt>i</dt>
    <data>
      -1 1</data></class_labels>
  <sv_total>1</sv_total>
  <support_vectors>
    <_>
      -2.24471414e-11 -2.43001782e-11 2.00802222e-11 -1.91020533e-11
      -8.02864285e-12 1.84681128e-13 2.54880197e-11 5.47307468e-12
      3.81607885e-13 -3.03869811e-11 1.37430753e-11 -1.55777283e-11
      -3.64409197e-11 2.60787850e-11 -3.63588326e-12 2.53326145e-11
      -2.40507041e-11 2.83098822e-11 4.19272906e-12 4.89878277e-12
      -1.05600500e-12 -1.10413389e-11 -5.85965608e-12 9.96257937e-12
      -3.85273237e-11 -1.51241970e-11 1.59108178e-11 1.45705687e-11
      2.86979381e-11 5.76658469e-12 -3.98791547e-12 -1.16802245e-11
      -7.48607166e-12 1.02332474e-11 -5.24489794e-13 -2.27948684e-11
      -1.27353217e-12 -1.33153089e-11 -1.04722472e-11 -2.26742388e-12
      2.56579393e-11 1.16424960e-11 4.35584208e-11 6.35915279e-12
      -1.58037212e-11 9.65522280e-12 3.21531712e-12 4.48024604e-11
      1.71231571e-11 6.17900089e-12 3.84754511e-12 -2.20478202e-11
      1.74449413e-11 1.14410217e-11 -7.33779704e-12 -1.92288963e-11
      4.09924872e-11 -1.09309068e-12 -1.97972212e-11 -5.77673586e-12
      2.26479339e-12 1.64311949e-11 7.43973546e-12 3.41669054e-11
      -4.79856693e-12 4.79271310e-12 -9.40723541e-12 4.81690295e-12
      7.98048043e-13 9.50447013e-12 -2.45037358e-11 -2.68975606e-11
      2.55458827e-12 -3.39825321e-11 1.96518409e-12 1.42280588e-11
      3.67433826e-11 4.65163021e-12 1.62530683e-11 -1.29367428e-11
      3.31145333e-12 1.50418740e-11 -3.98665545e-11 2.80025482e-12
      9.92532705e-12 1.68000932e-12 -2.72067915e-12 -9.89200302e-12
      -2.68713090e-11 1.51693016e-11 2.68967609e-11 -4.99134111e-12
      8.40986655e-11 -1.26899307e-11 -2.96785062e-11 1.08086708e-11
      -2.10725990e-12 3.26719866e-11 3.41874133e-11 -6.47811058e-12
      -7.01596723e-12 9.54137117e-12 -7.27484436e-12 -2.12515526e-11
      -3.85055460e-11 2.63045002e-11 -4.46795942e-12 -3.33800045e-13
      9.03041530e-12 1.80145872e-12 -4.19959727e-12 -6.43001765e-13
      -1.23586896e-11 2.91515388e-11 4.55815628e-11 -1.23952931e-11
      -3.52130512e-11 -1.72495716e-11 -1.75324946e-11 -5.36248736e-12
      -2.53955728e-11 8.90246991e-12 -1.92623157e-11 4.13796046e-11
      -1.16117732e-11 2.67375705e-12 2.55588467e-11 -8.80489854e-13
      2.43268513e-11 2.86722070e-11 -1.61348348e-11 -2.10794164e-12
      3.97737260e-11 -1.58103587e-12 1.07633191e-11 -3.37543084e-11
      7.33532072e-12 1.79502645e-11 -3.42623464e-11 -1.85743729e-11
      -1.66446770e-11 -1.96201193e-12 -9.13163122e-12 2.40519028e-11
      6.80864263e-12 3.86533618e-11 4.78390548e-12 8.26542827e-12
      -1.84775441e-11 -2.57485141e-13 2.38306215e-11 4.37032042e-11
      -2.46742019e-11 -3.64849158e-11 5.45178095e-12 -3.62487622e-12
      5.77138326e-13 1.31677551e-11 -7.88574848e-12 7.20243483e-12
      -6.13824573e-12 -2.75296366e-11 -2.00138621e-11 -4.06556646e-12
      -1.99608802e-11 1.67736137e-11 1.20392784e-11 -1.77490401e-11
      2.32339148e-12 1.67617274e-11 -1.88212328e-11 -3.24589799e-11
      -3.11803708e-11 1.41887695e-12 -3.86112739e-11 3.01479870e-12
      -5.21156946e-12 3.13225175e-11 -1.97408340e-11 -3.74427295e-11
      -1.25252092e-11 -8.15950779e-12 -1.89332092e-11 -4.18453640e-11
      -2.35716221e-12 3.36374921e-11 1.99776255e-11 -1.47668874e-11
      9.09276994e-12 3.50276266e-11 -1.87417425e-11 -1.12587752e-11
      -2.95351209e-11 3.15436219e-11 3.97608075e-12 -1.40213457e-11
      -2.13194584e-11 3.64382092e-12 2.50633854e-11 2.62735320e-11
      4.31268042e-11 7.80220940e-12 8.80693522e-12 -2.01375930e-11
      1.17960997e-11 -3.36112973e-13 -1.24002631e-11 2.18481674e-11
      -2.47765159e-11 -1.61974514e-11 -7.96369741e-12 -3.36647793e-11
      -1.14897653e-12 2.47006322e-11 8.54936000e-12 6.17640878e-12
      1.59468081e-11 -2.86894015e-11 -3.85985601e-12 1.69457538e-11
      -9.35632214e-12 3.12622428e-11 3.53180298e-11 -2.72624701e-11
      -2.44310457e-11 -1.49271342e-11 -1.59271988e-12 -3.01328996e-11
      -6.55902025e-12 9.96780262e-12 -2.66290219e-11 -4.35758409e-11
      -5.35564106e-13 -2.57729359e-11 -1.69141437e-11 3.33912759e-11
      5.97210779e-12 2.35000647e-11 9.15564759e-12 -8.58602859e-12
      -3.45312945e-11 -1.42697000e-11 -9.38806324e-12 6.52076180e-12
      1.85876141e-11 1.91897522e-11 -6.60806967e-13 7.55480487e-12
      -3.87225495e-11 -2.40177322e-12 -1.66061886e-11 -8.21117480e-12
      2.30591813e-11 6.31690793e-12 -8.76635830e-12 2.06926793e-12
      2.65957915e-11 2.16631747e-11 -1.55108010e-11 -2.34684722e-13
      2.21350507e-11 -1.72736929e-11 -3.81826237e-11 -3.97351561e-11
      1.82033832e-11 -3.38114064e-12 -2.90752665e-11 1.65256125e-11
      -2.13379783e-11 4.41840696e-11 2.05234354e-11 -5.78895916e-12
      -2.49514593e-11 -3.28540840e-11 -2.35088372e-11 -1.27272043e-12
      1.45221092e-11 2.57476471e-11 -1.42666402e-12 -1.92112923e-11
      -6.15302115e-11 -4.74890752e-11 -3.72554114e-12 -1.02747194e-11
      -7.69100148e-12 -2.63263335e-11 -2.84634226e-11 -3.95051656e-12
      -5.83152485e-11 -3.19584671e-11 -1.55658125e-11 -2.87398629e-11
      -2.92108048e-12 -2.76979936e-12 2.33502037e-11 2.05868812e-11
      -5.21317711e-11 -4.19266358e-11 -4.48187182e-11 -2.59732236e-11
      -8.77546993e-12 -2.26573382e-12 -6.70398320e-11 -1.33178850e-11
      -4.04706754e-11 -2.65650731e-11 -2.20441460e-12 -4.79803870e-11
      -8.89644174e-12 1.91653516e-11 -2.20936568e-11 -1.58271712e-11
      -4.23349203e-12 -1.86831713e-11 7.66218079e-12 -4.97077171e-11
      -1.69315482e-11 -3.40110579e-11 -3.64547142e-11 2.82983689e-11
      -1.56033329e-11 1.12696582e-12 -6.04347891e-11 -2.09018566e-11
      -4.33844766e-11 -4.61475094e-11 -7.43114251e-12 -1.48424554e-11
      1.24109299e-11 3.32767646e-12 -1.84057786e-11 -4.75996464e-11
      -4.51158173e-11 -3.86641170e-11 -1.92586225e-11 -1.57030638e-11
      -3.72258474e-11 -3.08242537e-12 -2.33917295e-11 -5.07114732e-11
      -3.59752401e-11 -3.57131338e-11 -1.10277464e-11 2.39299617e-12
      -6.07933365e-12 1.55381122e-12 -7.69584656e-12 2.02182472e-11
      1.70741828e-12 -6.15539633e-11 8.14234444e-12 -4.04940873e-11
      -4.27432964e-13 -9.32054694e-12 -4.54934597e-11 3.46495315e-12
      -1.98867780e-11 -3.35845345e-11 -3.21665021e-11 -5.20202978e-11
      1.83617895e-11 -2.65018324e-12 -4.37127522e-11 -1.17655243e-11
      -7.53550087e-12 -3.80697481e-13 -1.33680645e-11 -8.52328798e-12
      2.41004027e-12 -8.54741885e-12 -1.54595052e-11 1.22630888e-12
      1.08452778e-11 3.79760008e-11 3.05593155e-11 -6.56895302e-11
      -2.29007022e-11 1.65896741e-11 -2.51581880e-11 -1.84807777e-11
      -3.01930252e-11 -3.48245738e-11 -4.24272032e-12 -9.42054768e-12
      -3.58761076e-11 -2.03483671e-11 -2.90299000e-11 -5.61197130e-11
      -1.32427081e-11 -7.23413690e-12 -6.45853249e-12 -2.20197315e-11
      -8.36067326e-12 -2.88384941e-11 -2.71023811e-11 3.47024597e-11
      -2.39368074e-12 1.01016233e-12 -1.32192434e-11 -2.41584409e-11
      2.25418764e-11 -2.43355787e-11 1.13106729e-11 -1.57860374e-11
      -2.66574159e-11 -3.83167213e-11 -3.99721159e-11 2.18018329e-11
      3.71216079e-13 2.27318615e-11 4.62919494e-11 8.51536289e-12
      -8.61118902e-12 -5.29581413e-12 2.46387685e-11 6.83541288e-12
      -1.88125245e-11 -4.76414047e-12 -1.20089685e-11 -3.30055774e-11
      -2.14932776e-11 -4.13030166e-11 -7.65518725e-12 -1.09389399e-11
      2.98733746e-11 -1.49832265e-11 -8.77859938e-12 3.21705748e-12
      -6.12273123e-12 2.21887977e-11 1.33947662e-11 2.25802953e-11
      3.13504257e-11 6.14847843e-12 -2.41702630e-11 -2.43059010e-11
      1.05197552e-11 -2.57325255e-11 -3.50555036e-11 1.33444046e-11
      6.23416032e-12 -5.62387723e-12 5.24976330e-12 2.35639741e-12
      -1.28383059e-11 1.73283402e-11 -9.55130593e-12 -4.10752474e-11
      -1.64605534e-11 -6.41762338e-12 -8.84422136e-12 4.65731516e-11
      2.63384141e-11 -1.44951343e-11 1.51659726e-11 8.30574151e-12
      1.38138253e-12 -1.93572051e-11 -2.49176339e-11 -5.86356267e-12
      -9.24147217e-12 -3.37189270e-11 -3.88090710e-13 -4.15058300e-11
      -3.39402846e-11 7.05397763e-12 1.31327536e-11 -2.16053963e-11
      -1.90516596e-11 8.01569835e-12 -4.10258598e-11 -6.12101134e-11
      -1.20640546e-11 -1.49839273e-11 1.18947135e-11 -1.36433208e-11
      1.22187980e-11 1.04903785e-11 -2.81501836e-11 -7.60364549e-11
      -3.84739497e-11 1.58332061e-12 -2.37048818e-11 8.30771910e-12
      -3.85542596e-12 -3.83555340e-12 -2.70029329e-11 1.81031978e-11
      1.21662532e-12 -5.50364095e-11 -3.82295202e-11 -2.75537666e-11
      -3.54952942e-11 -5.95491842e-12 -1.88859987e-11 2.25866214e-13
      -2.65274989e-11 -2.47816368e-11 -4.39794416e-11 -1.88284995e-11
      -1.97434929e-12 9.42305955e-12 3.78661963e-11 -1.65983460e-12
      -9.70873729e-12 2.30722021e-11 1.52714560e-12 -7.28645876e-12
      -8.80815820e-12 5.52282872e-11 2.99129888e-11 1.24450381e-11
      -1.20938121e-11 2.49709940e-11 2.53267459e-11 -1.25537150e-11
      -7.26563731e-12 -7.78082243e-13 -1.61669560e-12 -3.49936248e-12
      7.84646740e-12 2.50310953e-11 -1.92466594e-12 9.29572565e-12
      1.96932384e-11 -2.75193444e-11 4.73676220e-12 1.24093769e-12
      1.35543391e-11 -9.75291549e-12 1.74673574e-11 2.07324904e-11
      1.30460157e-11 4.10455264e-12 -1.38078091e-12 5.21129390e-11
      -4.24493730e-12 -1.08263312e-11 1.54545682e-11 -1.74125089e-11
      4.45448019e-11 2.47939846e-11 -2.48403013e-12 -9.11519124e-12
      2.93111473e-11 2.38272544e-11 -1.38300083e-11 -4.04997806e-11
      2.49147387e-11 4.15390049e-11 1.41470136e-12 4.37045365e-12
      2.38192348e-11 1.88388645e-11 -5.50979123e-11 -1.94849050e-11
      4.23576452e-12 1.78907618e-11 -2.34261950e-11 -4.15938499e-11
      4.91903601e-11 -3.24534670e-11 5.77608751e-12 2.11383775e-12
      3.61085536e-11 1.48909010e-11 1.03729282e-11 1.59908319e-11
      -1.55049584e-11 -4.53513095e-11 -2.12146221e-11 2.38554506e-11
      -1.57025590e-11 -2.66035891e-11 -5.63314282e-12 -2.53345660e-11
      -7.34378357e-12 -4.22421195e-11 7.36159744e-12 -1.80548076e-11
      9.32914163e-12 -5.93361332e-11 -5.45625246e-11 -5.07118375e-11
      1.91273039e-11 -3.82797231e-11 -2.77008694e-11 1.59361222e-11
      -3.28052134e-11 -3.59253842e-11 -6.92587238e-11 -9.21141496e-11
      -2.98501883e-11 -1.28416791e-11 1.94433011e-11 8.49851352e-12
      2.63801676e-12 -1.15517170e-11 -1.09939453e-11 2.57267250e-14
      7.60331815e-12 1.38097962e-11 5.18285033e-11 7.98092408e-12
      -1.91039788e-11 -3.65168139e-11 -1.25437464e-11 -3.92260148e-11
      -7.27993291e-11 -3.85842053e-11 -2.00672118e-11 -2.85967118e-11
      -3.94932663e-11 -3.50245839e-11 1.19576909e-11 4.58185052e-12
      1.00612643e-11 4.17908872e-13 -1.71307012e-12 2.45160034e-12
      9.54874417e-13 -3.09280206e-11 -2.25573258e-11 1.19196849e-11
      1.14300765e-11 7.34248599e-12 -2.78842956e-11 -1.58168374e-11
      -1.10625112e-11 5.31433647e-11 -3.47332892e-11 9.36333216e-12
      1.21443341e-11 2.64731518e-11 3.37557204e-11 1.90927604e-11
      8.86665394e-12 3.12213311e-11 6.26455268e-12 4.44868708e-12
      3.73951824e-12 1.67020720e-11 -2.66579484e-11 -7.87434354e-12
      1.83968292e-11 1.64433484e-11 4.78387989e-12 9.35161150e-12
      -3.14039073e-12 -2.70240774e-11 1.14124604e-11 6.14488928e-13
      -3.07066282e-11 -3.52794322e-11 -2.32847110e-11 -2.01039914e-11
      8.90355931e-12 -2.31693865e-11 -2.08929731e-11 1.61292811e-12
      -4.77216357e-12 -1.70925045e-11 -5.28835743e-12 2.28698189e-11
      -3.68681995e-12 2.38471114e-12 -8.22334768e-13 4.95170203e-13
      -4.12081046e-12 4.13905265e-13 -1.35154917e-11 -1.13118733e-11
      4.96678705e-11 2.76220123e-11 -1.89093567e-11 -3.52095957e-11
      3.58443795e-11 1.99532162e-11 7.29529067e-13 -2.21248939e-11
      -2.37480955e-12 -2.20847264e-11 2.19993273e-12 -1.58817057e-11
      -1.24317119e-11 1.15922202e-11 -5.39672777e-12 -3.85640513e-11
      -5.19545622e-11 -5.97286873e-11 -4.05693812e-11 -2.23339663e-12
      -3.86357829e-12 -9.14214993e-13 1.28679211e-11 -1.76682783e-11
      1.03832342e-11 -1.76052627e-11 -2.77279293e-11 -5.75654541e-12
      -1.24193416e-11 -1.09520266e-11 1.50411905e-11 -2.80616294e-11
      -1.15127005e-12 -5.88491061e-11 -1.23353558e-11 -3.27199136e-11
      -5.92935839e-11 -4.70466027e-11 -1.06181361e-12 -3.37588193e-13
      -3.06387901e-11 -8.99572344e-12 -5.73072145e-12 -4.60128333e-12
      -2.15388818e-11 -7.18256912e-11 -1.39514338e-11 -3.60719163e-11
      1.21725434e-11 2.30129301e-11 3.99991880e-11 -6.40367342e-11
      1.15317539e-11 3.60530460e-11 2.40748792e-11 -7.25348731e-12
      7.42788903e-12 8.19829447e-12 -1.98451151e-11 1.12955348e-11
      -1.72630070e-11 -2.49941214e-12 -4.59445025e-12 3.63798089e-11
      -1.32497867e-11 -2.08651117e-11 1.64161983e-11 -3.48669140e-12
      1.11963511e-11 -1.68394140e-12 -2.45057828e-11 -1.82968593e-12
      1.06849963e-11 2.18494927e-11 8.38437609e-13 9.36990589e-12
      -3.93258655e-11 -5.27378488e-12 1.94631169e-11 4.57797134e-11
      1.60019688e-11 -1.81347212e-11 7.48970070e-12 2.51899057e-11
      -1.45974790e-12 -3.40024918e-11 -1.24467112e-11 -5.82772849e-12
      3.60652168e-11 2.67047127e-12 5.91722591e-12 -1.02148663e-11
      2.76788731e-11 3.46211913e-11 3.00800253e-11 1.05927628e-11
      -2.92124797e-11 3.33682040e-11 -1.99359695e-11 -3.56984615e-11
      -5.88257481e-12 1.81295950e-11 2.06077707e-11 -2.77280785e-11
      8.85870695e-13 -5.42892510e-12 2.25420620e-11 -1.21147302e-11
      1.44985222e-11 1.41815110e-11 -1.25116228e-11 -8.98572015e-12
      -1.17872812e-11 -4.13770754e-11 -3.54425760e-11 -6.09127852e-12
      -1.88152254e-11 3.06596901e-11 -3.24242300e-11 -1.79337762e-12
      1.12137391e-11 7.97859337e-13 -6.50745256e-12 9.11780547e-12
      2.54998904e-11 -1.82478945e-11 -3.49853896e-11 1.37718031e-11
      1.21466595e-11 -2.30902224e-11 2.06578765e-12 -2.68249780e-11
      -5.45695988e-11 -3.10847910e-11 -2.56896969e-11 -4.54563331e-11
      4.01582955e-13 -2.22068249e-11 2.70036315e-12 -2.44154818e-11
      -2.97743427e-11 -3.35966741e-11 -1.84200415e-11 2.50864676e-11
      3.70089966e-11 -6.27873318e-12 -1.76124913e-11 1.34068104e-11
      -3.63939087e-12 -5.91072469e-11 -5.46888160e-11 -4.93938987e-11
      -2.97326157e-11 -7.51337187e-12 -3.24800603e-11 -3.80192856e-11
      -8.08737452e-12 -9.70834697e-12 -4.19918787e-11 -1.70054335e-11
      3.29241738e-11 -1.54850091e-11 1.47193750e-11 -4.35114271e-11
      4.94704668e-12 -7.90147299e-13 -1.52193345e-11 3.81174294e-11
      2.13619088e-11 -1.60411944e-11 -1.90343973e-11 -1.73505221e-11
      -2.99364422e-11 -2.17906908e-11 -1.86579207e-11 3.06866728e-12
      9.01053104e-12 -3.19998195e-11 -4.65193379e-12 3.08106526e-11
      3.75598034e-12 -2.84870270e-11 -1.24836044e-11 8.11856398e-12
      -2.31786916e-11 9.28314023e-12 -3.08262894e-11 3.25233833e-11
      1.93240441e-11 3.26027465e-12 -8.25422716e-12 3.64991761e-12
      -2.84844839e-11 -8.92206773e-13 -4.67644716e-12 -9.15245050e-12
      -2.37589410e-11 1.43967338e-11 3.07917650e-11 -9.84418103e-12
      8.44271146e-14 -1.48638740e-11 -3.49907985e-11 -4.38386133e-12
      -1.03212335e-11 9.26189897e-13 -1.90978934e-11 -1.40057549e-11
      4.45526819e-12 2.75729994e-11 2.65868989e-12 7.63227676e-12
      -2.46281780e-11 2.94657979e-11 -6.06791492e-11 5.08126631e-11
      2.76129761e-11 3.04855967e-11 -5.01195700e-12 -1.84605092e-11
      5.20793478e-12 2.57494113e-11 -1.14311087e-11 -6.60453506e-12
      -1.60249557e-11 3.41052811e-11 -4.77999021e-12 -5.22093480e-12
      -9.55577631e-12 1.33641687e-12 1.71318931e-11 4.32849104e-11
      8.28330720e-12 -2.24450753e-11 -4.56978899e-11 5.02734963e-12
      2.46801937e-11 -2.99581644e-11 -2.53056864e-11 2.16700117e-12
      -1.26396619e-11 -1.00316543e-11 -2.17908729e-11 -5.93803479e-11
      -2.55118947e-11 -3.66834271e-11 -2.67782758e-11 -5.35484092e-13
      3.67487325e-11 -1.33033393e-11 -2.39184783e-11 1.49429308e-12
      -2.49956722e-11 -1.61506260e-11 9.48214597e-12 4.64255847e-12
      2.17228284e-11 -1.03225926e-11 -2.38358031e-11 -3.79661962e-11
      -2.70128312e-11 1.77964466e-11 1.15156140e-11 -3.14175699e-11
      -2.86272672e-11 1.50061508e-11 4.04956589e-11 -1.18517713e-11
      3.94971486e-11 3.39751529e-13 -1.63832992e-11 -8.33377551e-12
      -3.97231163e-12 -4.75428065e-11 2.03273010e-12 -6.88992537e-13
      2.95219058e-12 -8.02212463e-12 1.78073077e-11 1.78073149e-12
      -1.10169270e-11 -5.79011422e-11 -2.68557294e-11 -2.39616538e-11
      3.62627497e-11 -1.92999384e-11 -1.36187442e-11 -3.30642388e-11
      -3.42086741e-11 -4.45629228e-11 -2.27955241e-11 -5.13009531e-11
      -2.64541080e-11 -2.32571670e-11 -2.26538493e-11 2.63878220e-12
      -2.55796113e-11 -2.06836735e-11 1.33041980e-11 -2.76283198e-11
      -1.31713824e-11 5.13784111e-12 -1.20861689e-11 -3.14552759e-11
      1.31059824e-11 3.38867714e-12 4.82987478e-12 -7.50163752e-14
      -5.24645570e-11 -3.80553054e-11 -7.75480791e-11 -3.92962607e-11
      -3.18187452e-14 2.29701588e-11 4.55657560e-12 -1.10720409e-11
      -3.95405583e-11 -3.36562063e-11 -5.56675955e-11 -4.85361577e-11
      -9.10023966e-12 -3.69954935e-11 9.97006470e-12 -1.66662361e-11
      -2.31031635e-11 -3.65752220e-11 -5.10446442e-11 -5.94315361e-11
      -6.65628108e-11 -3.87746536e-11 -1.60243364e-11 -7.09244946e-12
      -5.71852704e-11 -3.52731212e-11 8.33956602e-12 -1.81290694e-11
      5.67847019e-11 -2.44138338e-11 -3.37452809e-11 9.79376996e-12
      -1.06781979e-11 -7.96656838e-12 -2.56658514e-11 -8.44109071e-12
      -2.52874926e-11 3.34119169e-12 -3.77829504e-11 -1.16589290e-12
      -1.71009647e-11 -1.57998996e-11 1.08777603e-12 -6.69429833e-12
      2.05056076e-11 -8.08260750e-12 -2.07612729e-11 2.55497533e-11
      -3.25192755e-11 7.63027749e-12 -1.56343879e-11 3.68268679e-11
      -2.06966180e-11 -3.31301687e-11 1.10337347e-11 9.90557202e-12
      -3.21086768e-11 3.99032196e-11 1.67709249e-11 2.16397924e-11
      1.92357172e-11 3.04311298e-11 -1.70712593e-11 -3.53654085e-11
      -1.75160997e-11 -3.09905747e-11 -3.38650670e-11 1.42825517e-11
      -1.51026622e-11 -1.97265954e-11 -5.77151087e-12 -1.53020773e-11
      1.25051653e-11 -1.10382198e-11 2.41722684e-11 -5.19618550e-12
      2.43835529e-12 4.13912515e-11 -1.54717541e-11 -1.47289299e-11
      6.42556884e-12 1.85279170e-11 -1.22042714e-11 1.79481655e-11
      1.88234393e-11 1.03449922e-11 3.27682499e-11 -2.55239076e-11
      2.13938919e-11 -1.60215782e-11 -2.19168399e-11 3.73966006e-12
      -2.16519806e-11 8.36613331e-12 -8.34851979e-12 -1.97955506e-11
      -4.04200241e-12 1.47842329e-11 2.35900362e-11 -5.27333489e-11
      -9.40747827e-12 -2.10827692e-11 1.86697229e-12 5.47158846e-11
      -4.91878673e-12 -2.79738888e-11 6.02021471e-12 -1.26896826e-11
      1.13867596e-11 -2.44829070e-11 1.47758403e-11 -4.73935891e-11
      5.14903528e-12 9.13497663e-12 -3.74065579e-12 1.55738825e-11
      1.31131330e-11 9.36331221e-12 2.69460391e-11 3.41757417e-12
      -5.63917532e-12 2.81361046e-11 5.17400749e-12 7.02625848e-12
      1.05448376e-11 -2.88912973e-11 -1.46415952e-11 -2.30247223e-12
      -1.72896697e-11 1.23508460e-11 -1.59048000e-11 -2.61585874e-11
      -7.11746677e-12 -2.77664645e-11 -3.84776516e-11 2.72695234e-11
      -1.35348538e-11 4.05304523e-12 1.81148829e-11 1.28183523e-11
      -2.21745834e-11 -1.21471158e-11 -2.29175325e-11 -5.60860429e-12
      1.78531181e-12 2.61873110e-11 -1.40143548e-11 -1.98319260e-11
      1.35501194e-11 1.57898122e-11 3.85047168e-11 2.64280351e-11
      2.45358790e-12 1.80787035e-11 3.79533124e-12 2.21052655e-11
      3.53994893e-12 -1.57253863e-11 2.21726301e-11 3.47514378e-11
      -1.47420635e-11 2.51504078e-11 1.06137720e-11 2.92166881e-11
      1.15468234e-11 3.72196718e-12 -1.98004720e-12 -5.27147596e-12
      -8.73640743e-12 -8.31792187e-12 -6.74013709e-12 -2.26086753e-11
      2.92589598e-11 3.01190288e-11 6.73073956e-13 -3.22549648e-12
      -1.08271404e-11 -1.86882679e-11 1.72555858e-11 1.61481037e-11
      3.28369554e-11 -1.12841030e-11 -6.74816886e-12 -7.37796434e-13
      -2.04880557e-11 1.50475791e-12 4.41494133e-11 -3.63631764e-11
      -6.56862455e-12 -1.33635984e-11 -1.02181961e-11 2.89868037e-13
      3.76852230e-11 -5.52151077e-12 -1.29087418e-11 -3.17919259e-12
      -2.94228921e-12 -9.95721908e-12 2.97151678e-11 -1.20306829e-11
      -1.96833504e-11 -2.64768433e-11 -1.75399868e-11 3.24500080e-11
      -1.46397304e-11 6.45952096e-13 3.39770529e-12 -1.96031524e-11
      4.48317702e-11 -1.82337340e-11 3.86823837e-11 1.73158692e-11
      -2.28797484e-11 -2.05807073e-11 -2.17306902e-11 2.34539645e-11
      1.06177150e-11 -2.05334257e-11 8.54880316e-12 -2.71563466e-11
      -2.19758586e-12 -1.77002839e-11 -1.17100296e-11 9.10835535e-13
      2.60099338e-11 -3.15192664e-11 -2.35989474e-11 3.71414635e-11
      1.89129268e-11 2.40544511e-11 -4.35823151e-14 7.99925664e-12
      2.90032928e-11 -3.51372299e-11 -1.62121688e-11 -7.77755638e-12
      4.90159671e-13 -2.02902677e-11 9.53038429e-12 -1.73228012e-11
      1.59239213e-12 -3.85705834e-12 -1.47267806e-11 2.13341515e-11
      5.13300426e-12 -2.40167591e-11 1.56974034e-11 1.40740024e-11
      -2.28736058e-11 -6.76518650e-12 -7.08398748e-12 4.35912591e-12
      2.40966275e-11 7.55923536e-12 2.25615845e-11 -1.32399048e-11
      -8.78885246e-12 1.47302038e-12 -2.79152777e-11 -2.77260788e-12
      2.26284564e-11 8.73121074e-13 2.15370066e-11 -6.55463227e-12
      6.08587312e-12 2.84012692e-11 -4.63163969e-12 3.00186655e-12
      2.31613964e-11 -2.21781361e-11 1.71076660e-11 -1.60325191e-11
      2.74087350e-12 -4.26089746e-13 3.16056487e-11 -1.15536018e-11
      -2.39790024e-12 8.62979653e-12 -2.58767018e-11 -3.69646085e-11
      1.77081596e-11 -2.85836437e-12 -9.62275745e-12 5.04347692e-12
      -2.19165068e-11 -3.30098657e-11 1.51229307e-11 1.39526507e-11
      2.38633609e-11 -2.83058698e-11 -4.09268834e-11 3.31979617e-11
      1.23481295e-11 -1.70268816e-11 1.63473263e-11 1.65845393e-11
      -2.22488417e-11 -7.67552428e-12 3.51242056e-11 2.30723912e-11
      1.81538760e-11 -1.36737089e-11 2.68507837e-11 -1.27125368e-11
      5.81106040e-12 2.72755820e-12 1.02656989e-11 6.02150751e-12
      -3.41862476e-11 3.72011536e-12 3.20647779e-11 7.42250792e-12
      1.35140987e-11 -1.35528047e-11 9.73000153e-12 -2.52880876e-11</_></support_vectors>
  <decision_functions>
    <_>
      <sv_count>1</sv_count>
      <rho>-1.0884298462521258e-09</rho>
      <alpha>
        1.</alpha>
      <index>
        0</index></_></decision_functions></my_svm>
</opencv_storage>
