<?xml version="1.0"?>
<opencv_storage>
<my_svm type_id="opencv-ml-svm">
  <svm_type>C_SVC</svm_type>
  <kernel><type>LINEAR</type></kernel>
  <C>2.9103800000000001e-11</C>
  <term_criteria><epsilon>1.1920928955078125e-07</epsilon>
    <iterations>1000</iterations></term_criteria>
  <var_all>1296</var_all>
  <var_count>1296</var_count>
  <class_count>2</class_count>
  <class_labels type_id="opencv-matrix">
    <rows>1</rows>
    <cols>2</cols>
    <dt>i</dt>
    <data>
      -1 1</data></class_labels>
  <sv_total>1</sv_total>
  <support_vectors>
    <_>
      5.41610159e-12 -4.73601713e-12 8.56537671e-12 -1.36832342e-11
      2.30329037e-11 7.98676771e-13 5.77316007e-11 -3.05141329e-12
      -8.59177573e-12 -3.03361641e-11 4.91447785e-11 -1.90358181e-11
      -2.09297232e-11 9.46914530e-14 9.30192035e-12 -1.44663621e-11
      1.69786876e-11 1.08184564e-11 -6.28437103e-12 1.50898079e-11
      -5.87890457e-12 2.01914579e-11 3.03035548e-12 1.31148712e-11
      -3.52034686e-11 1.72477831e-12 -1.79761084e-11 -8.62824309e-12
      -1.08402089e-11 3.32786680e-11 2.24269249e-11 -1.14102738e-11
      1.17040648e-11 1.93444687e-11 -1.57167838e-11 -3.35465336e-11
      8.11565919e-12 1.03956982e-11 -8.83328306e-12 -1.12340501e-11
      1.86214915e-11 9.34367080e-12 1.89832455e-11 5.16523499e-12
      -2.31272675e-11 -6.91652811e-12 3.78399178e-12 -1.75667102e-11
      -3.62095909e-11 1.97610938e-11 -8.32213205e-12 -4.94040702e-12
      2.47362981e-11 -1.24311932e-11 2.28264907e-11 -3.73885332e-11
      4.09039469e-12 1.19267330e-11 -8.00741244e-12 -6.41802236e-12
      1.27153444e-11 -2.15994653e-11 3.83064309e-11 -1.34285291e-11
      1.12144408e-11 -1.21539302e-12 -2.03163718e-11 2.20943251e-12
      1.63946998e-11 5.56295071e-12 -1.74913747e-11 -2.18543499e-11
      -4.85060343e-12 -2.40668874e-11 5.76320502e-12 -7.08059522e-12
      2.88393111e-11 -1.02625243e-11 3.45426118e-11 3.72459821e-13
      -1.43393969e-11 2.90215356e-12 -2.25698210e-11 2.58661663e-13
      -2.22961007e-11 2.13041347e-12 7.24950178e-12 4.83578585e-12
      -9.35370011e-12 4.86915334e-11 -1.32121085e-11 -7.31166603e-12
      9.52828094e-12 -3.13030418e-12 -1.21596223e-11 5.79927642e-12
      -2.73694088e-11 4.48841138e-11 2.09845839e-11 -2.49764597e-12
      -2.01833238e-11 -1.24507869e-11 -5.81822021e-11 -3.28806253e-11
      -2.91787705e-11 9.02885243e-13 7.97106998e-12 1.02943721e-11
      7.92007432e-12 8.57268141e-13 -1.32866548e-11 8.52766122e-12
      -3.93867439e-11 1.87972780e-11 1.73541615e-11 1.34651543e-11
      -3.16147039e-11 2.18398303e-11 -2.71080710e-11 -1.26487197e-11
      -4.10993461e-11 -5.75126752e-12 -4.65644814e-11 3.32820993e-11
      3.45248517e-11 3.60927312e-14 2.72031685e-11 -6.53755002e-12
      8.82045565e-12 2.19205383e-11 -3.11419987e-11 1.27981488e-11
      1.77104425e-11 -1.85658502e-11 2.09038255e-11 -2.11610382e-11
      -2.65389273e-12 1.67613822e-11 -4.31250348e-11 7.45009848e-13
      -1.23357028e-11 1.22019981e-11 -4.35523423e-11 3.28118678e-11
      1.92186666e-11 -1.05891511e-11 3.31413868e-12 3.30187418e-12
      -7.25418423e-12 2.04446564e-11 3.71155433e-11 1.10429565e-11
      -1.50621564e-11 -2.46854343e-11 -3.69374531e-11 -1.66230430e-12
      -7.56924566e-14 9.80646293e-12 1.00721627e-11 -8.79545742e-12
      -2.46784572e-11 1.71812842e-11 -2.60079736e-11 6.27109649e-12
      -3.69728076e-12 -6.95789650e-12 -6.44911988e-12 3.13705173e-11
      -1.09254125e-11 1.89411698e-11 4.34043903e-12 -2.01098426e-11
      6.51458190e-14 2.58546934e-11 -5.54509459e-11 -2.73607716e-11
      -1.46145873e-11 1.74474341e-11 -4.97331083e-12 -3.60823242e-13
      -1.06562101e-12 2.25904885e-12 -3.35174727e-12 -1.50511114e-11
      4.30918929e-12 4.67695604e-11 1.66692493e-11 -4.33859858e-11
      2.14811120e-11 7.97154617e-12 -1.43992145e-11 1.10480748e-11
      -4.38258831e-13 4.62788453e-11 8.31632766e-12 -1.39334334e-11
      -2.98499003e-11 -3.32498057e-11 9.81289616e-12 5.02994619e-13
      3.07604740e-11 4.47702812e-11 -1.62900821e-11 1.36050624e-11
      -1.15052013e-11 -2.25869774e-11 -4.28586723e-12 5.86130276e-12
      8.08976237e-12 -2.01052508e-11 -2.28781109e-11 1.16092058e-11
      1.32988759e-11 1.20433412e-11 7.63219696e-12 -9.14523405e-12
      9.08436694e-12 2.55762902e-12 -1.54496173e-11 -4.02407318e-12
      1.13685008e-11 2.40181538e-11 4.85407131e-11 -1.88975658e-11
      -2.82101183e-11 -5.62241790e-12 -3.15753521e-12 -7.58958261e-12
      -1.99997501e-11 2.09906693e-11 -1.79096963e-11 -1.27962640e-11
      -3.89375728e-12 2.00592602e-12 -2.32052016e-11 1.35620890e-11
      -2.09928971e-12 2.40452901e-11 2.58370907e-12 -6.84468584e-12
      -1.56267273e-11 -1.16751313e-11 -1.75818787e-11 1.40805752e-11
      2.13688754e-11 2.80131439e-11 2.47287382e-11 -3.57768654e-12
      -4.02330426e-11 1.60843734e-12 -4.71437021e-11 -5.66730430e-12
      1.67042560e-11 1.49185924e-11 2.27102451e-11 3.35714789e-11
      -7.68969263e-12 -7.99534137e-12 3.10783409e-13 -2.48727341e-11
      4.64311783e-11 -2.57739628e-11 -1.04247262e-11 -4.18131779e-11
      -1.27237218e-12 -3.46498039e-11 -4.14671145e-11 1.99780990e-11
      -3.25887407e-11 1.12553656e-11 4.50195749e-11 -3.66934330e-11
      -3.54430409e-11 -2.02526641e-11 -2.57503203e-11 1.26985956e-11
      3.47767821e-11 3.87294641e-11 -1.49740446e-11 -3.06628022e-11
      -5.29901054e-11 -6.36637479e-11 -2.46372280e-11 1.53259488e-11
      9.11797460e-12 -3.27002106e-11 -2.04107477e-11 -2.02266814e-11
      -4.07264049e-11 -5.52770676e-11 -6.93524752e-11 7.19551719e-12
      -3.04299468e-11 9.72497950e-12 -1.07356164e-11 -2.01041076e-11
      -6.87275445e-11 -5.30218890e-11 -6.15312315e-11 6.60559628e-12
      -2.59697350e-11 2.97852819e-11 -5.01591824e-11 -2.63754279e-11
      -6.48721563e-11 -2.91559762e-11 2.04319773e-11 -5.63287091e-11
      -3.21634629e-11 1.57930318e-11 -1.99460396e-11 8.02333720e-12
      2.82484995e-12 3.26790743e-12 6.06729033e-12 -4.90780611e-11
      -1.24475560e-11 -2.23990982e-11 -3.39728592e-11 2.89931881e-11
      -2.31696710e-11 1.18898216e-11 -5.10949304e-11 -6.28288671e-11
      -6.31534582e-12 -1.15613630e-11 -1.73833795e-11 -2.12299432e-11
      3.94234732e-12 2.03771253e-11 1.67947503e-12 -6.84578696e-12
      -5.12211627e-11 -3.21239875e-11 -1.52823466e-11 -6.55717754e-12
      -3.82789668e-11 1.64856497e-11 1.02783320e-12 -4.44793473e-11
      -1.90664637e-11 -8.14663545e-11 7.74014880e-12 8.22015199e-12
      -4.74596968e-12 2.01877339e-12 1.31220763e-11 -5.94154196e-12
      2.84124287e-11 -3.17113315e-11 4.49270265e-12 -2.08723958e-11
      7.37325132e-12 -9.97270582e-12 -2.41131819e-11 -6.41655522e-12
      -2.51593746e-11 -2.89549656e-12 -4.63295270e-11 -2.25132950e-11
      1.84752560e-11 2.79491864e-11 -3.23326782e-11 -1.14863830e-11
      -1.33931820e-12 1.90114417e-11 -3.64621354e-11 -1.34974731e-11
      1.35753052e-12 -2.31829811e-12 -2.42370776e-11 1.87513442e-11
      2.24170196e-11 4.08985623e-11 4.19957125e-11 -2.49180138e-11
      -1.24203599e-11 1.36851398e-11 -2.27509123e-11 -5.10981708e-11
      -1.39940576e-11 -2.43420353e-11 -7.51937314e-12 8.94167292e-12
      -3.04314733e-11 -2.28329924e-11 -2.54785915e-11 -2.87184131e-11
      -2.65416453e-14 -5.86964288e-12 1.08772444e-11 -3.32892013e-11
      -2.90170058e-11 1.14057028e-11 -3.36685302e-12 -1.55756189e-11
      4.05390825e-11 4.66517667e-13 -1.55140623e-11 -4.06930357e-11
      1.85285520e-11 1.58262847e-11 2.63950910e-11 8.61378937e-12
      4.17262752e-11 6.71405032e-12 2.11430821e-11 4.32317133e-11
      -3.96342785e-11 2.32342600e-11 1.24714700e-11 -2.71087775e-12
      -3.17453425e-11 4.31288685e-12 4.30513437e-12 2.25071507e-11
      2.60387944e-11 -2.20177696e-12 -1.88261611e-11 -2.59852018e-11
      2.36025435e-12 4.89382753e-12 -1.13635186e-11 -3.24543409e-12
      2.00960221e-11 -7.16548825e-12 5.10305730e-12 2.11214709e-11
      -1.26180481e-11 1.59626496e-11 -9.48329869e-12 -1.43075070e-12
      -9.01807882e-12 1.76337319e-12 -2.56422210e-11 -1.95075293e-11
      2.68677806e-11 -3.53185155e-11 -8.41275140e-12 2.94410329e-11
      3.30584475e-12 1.61552646e-11 -1.49770907e-11 4.59739408e-12
      -5.63780619e-12 1.96639840e-12 2.26066128e-11 -1.47097126e-11
      -6.59130357e-13 -2.88590107e-11 9.95614702e-12 -3.97850719e-12
      4.72902412e-11 -3.87355807e-11 1.41298214e-11 -2.06995931e-11
      2.23155457e-12 -7.86273043e-12 -1.29031282e-11 -5.27780293e-12
      -1.45415398e-11 -1.49714442e-11 -1.16235658e-11 -4.03761607e-11
      -2.75228174e-11 -1.92686908e-11 -2.33763460e-11 -1.94558761e-11
      -1.45140297e-11 -1.28189863e-11 -6.85061799e-11 -6.46560444e-11
      -4.21308093e-11 -6.49288678e-11 -2.73112019e-11 -5.42029407e-11
      -2.28842501e-11 2.31493991e-11 -5.28078727e-11 -7.70167125e-11
      -5.38043742e-11 9.79176289e-12 -1.31260489e-11 -4.43739663e-12
      5.25600960e-12 3.91793282e-12 -6.78009688e-12 1.55233170e-11
      -1.27815016e-11 -7.11465817e-11 -5.58728445e-11 -3.06969589e-11
      -2.09446262e-11 -4.90703441e-12 -1.07869373e-11 -1.37534836e-11
      -1.89021299e-11 -2.50367262e-11 -4.99905395e-11 -2.93307288e-11
      4.71867987e-12 -1.58202930e-11 2.59847144e-11 9.29740399e-12
      -8.92183896e-12 4.11830882e-11 2.04301194e-11 1.05678816e-11
      -5.90559242e-12 6.69499040e-11 3.46030773e-11 4.30154974e-11
      4.55189011e-12 3.49055854e-11 -5.33066343e-12 -1.53939327e-11
      -1.09838232e-11 2.74845788e-11 -2.91048088e-11 3.30834709e-12
      3.14761828e-11 2.87880982e-12 -2.16031550e-11 -2.44707570e-11
      -2.44321859e-12 1.61346752e-11 -3.21702322e-12 -3.24385961e-12
      1.27736441e-11 -7.77424739e-12 2.35141611e-11 1.94585355e-11
      2.28699473e-11 -8.33595172e-12 1.29026312e-11 3.74950106e-11
      -2.99083223e-11 2.19576128e-11 -5.18181548e-12 2.15051536e-11
      -1.24581291e-11 2.50975959e-11 -8.78482096e-12 1.66730900e-11
      3.94876250e-11 -1.74635339e-12 2.58458077e-13 -2.08584521e-11
      2.46630299e-12 -1.24755362e-11 1.08380197e-11 1.65034323e-11
      2.68881705e-11 3.71287237e-11 -2.37321898e-11 -1.37407455e-11
      4.03761182e-12 -1.17040475e-11 -1.08924016e-11 -1.97432504e-11
      5.81408836e-12 7.03229662e-12 1.71608561e-11 -1.32318054e-11
      5.07795715e-11 3.88266780e-11 9.69155051e-12 -2.28887881e-11
      -2.91772270e-12 -2.65874111e-11 -3.36592837e-11 -5.26863362e-12
      6.12155682e-12 -5.94432056e-12 1.24416302e-11 -4.89901938e-11
      1.49635564e-11 -8.38784337e-12 -3.02894064e-11 -2.90525919e-11
      1.06393593e-13 -4.51545849e-11 -4.53644934e-11 -4.39820229e-11
      -2.78814650e-13 -2.75269547e-11 7.53177989e-12 5.14930633e-12
      -2.23007151e-11 -1.96809374e-11 -3.41097879e-11 -4.20705172e-11
      -3.61910640e-11 8.03935564e-12 3.63013127e-11 1.60443429e-11
      -3.16761478e-11 -8.95913118e-12 -1.72879992e-11 1.34938007e-11
      2.56940406e-11 2.47967289e-11 3.57535009e-11 -2.71088490e-12
      5.37343477e-12 -9.93517508e-12 -7.58135429e-11 -2.93636157e-11
      -3.85823352e-11 2.37694760e-11 -1.93179795e-11 -3.74713836e-11
      -2.54358427e-11 7.53085880e-14 3.40561954e-11 2.25934237e-11
      -2.40255645e-11 -4.80607958e-12 -7.62181377e-12 -9.97713370e-12
      1.73571851e-11 2.41818319e-11 -2.23442636e-11 4.58652318e-11
      5.79446491e-11 1.32217527e-11 -2.04334639e-11 1.35650302e-11
      8.78691911e-12 4.34290659e-11 -1.90475951e-11 1.04368233e-11
      8.48465222e-12 -3.99914650e-12 -7.85489208e-12 2.59767555e-11
      -1.91097069e-11 5.03382336e-11 2.27025586e-11 4.96502058e-12
      -1.44312088e-11 1.61869181e-11 -1.90108502e-11 1.61304858e-11
      2.57832401e-11 -8.38028084e-12 3.24988057e-11 1.66520443e-11
      -1.37270291e-11 -1.44671141e-11 3.30091163e-11 -7.58582086e-12
      -9.56356262e-12 -1.30301811e-11 9.34240966e-12 -4.70097399e-12
      -5.99592598e-12 -5.71143913e-12 -1.77048706e-11 5.56343762e-13
      1.92594313e-12 -1.59765257e-11 -1.49309107e-11 3.47156245e-12
      1.22461546e-11 2.33793575e-11 7.15702194e-12 5.79183576e-12
      3.14876215e-11 -1.31700163e-11 1.33828460e-11 -2.32834498e-11
      5.46335026e-12 -1.14757021e-12 2.06944149e-11 -2.43602274e-11
      -5.42830928e-12 2.51311016e-13 -1.48305760e-11 -7.64849815e-12
      4.11673560e-12 -1.14662637e-11 1.54946785e-11 -1.36365277e-11
      1.42808118e-11 5.38113868e-12 9.37066310e-12 -5.58635083e-11
      -5.17170785e-11 -5.06396002e-11 -1.60436126e-11 2.84275242e-11
      2.58948783e-11 3.27976643e-12 1.56733047e-11 -1.41894326e-11
      -4.28753257e-12 -2.37716132e-11 2.13038259e-13 -1.25838446e-11
      -9.39502729e-12 3.86992261e-12 2.05473854e-12 -3.08023225e-11
      -1.55457765e-11 -3.55180850e-11 -2.35671357e-12 -6.16693988e-11
      -7.74177250e-11 -2.38976738e-11 3.74889494e-11 1.22358304e-11
      -5.70476721e-11 -8.53584304e-12 -2.94491037e-12 -4.44658407e-11
      -7.13337167e-11 -3.77169199e-11 -2.34223960e-11 -3.18825383e-11
      -2.39403653e-11 9.16854006e-12 2.22795445e-11 -5.71477761e-11
      4.13924867e-11 -6.23579053e-12 6.32300375e-12 4.88326697e-12
      -9.10000981e-12 -2.71868725e-11 7.09275824e-12 -1.68160798e-11
      -3.36174942e-11 2.94422819e-11 -2.91021426e-11 2.24288262e-11
      1.41792585e-11 -4.59363589e-11 4.05588167e-11 3.04038773e-11
      9.72597784e-12 -4.38076138e-12 1.57565454e-11 -5.11631406e-12
      5.39860604e-12 -3.48073458e-12 -9.31277624e-13 1.69640153e-11
      7.91109452e-12 -4.70774981e-12 -3.78668147e-12 3.70883567e-11
      1.21044737e-11 1.08734723e-11 8.69285546e-12 5.34680841e-11
      3.20823489e-12 -1.98735299e-11 -4.85532014e-12 -1.54337983e-11
      1.26336485e-11 6.86624282e-12 6.73078607e-12 1.00419076e-12
      1.60795648e-11 -1.17058160e-11 -6.90359055e-12 1.41595102e-12
      1.50769657e-11 1.67733553e-11 -1.16550068e-11 -1.30550726e-11
      1.03303043e-11 4.36460521e-11 9.53858346e-12 -4.98850822e-11
      -2.95610272e-11 -2.43751824e-11 4.44527401e-11 -2.20601610e-11
      9.27435732e-12 3.09980271e-11 2.41527666e-11 -3.10173727e-11
      -1.35530441e-11 -3.85106634e-11 -5.59504144e-11 -2.86191522e-11
      -8.12844323e-12 -1.88557329e-11 -1.33839875e-11 8.67916850e-12
      7.93272913e-12 1.29006866e-11 -2.46401996e-11 2.62814458e-11
      3.47126980e-11 -3.79093111e-12 -2.87087073e-11 2.29608259e-11
      -1.71937915e-11 9.44955572e-12 -3.17655242e-11 -7.33820990e-11
      -2.48228729e-11 -7.10735706e-11 -4.00370709e-11 -6.30552346e-11
      7.13566446e-12 -2.54756442e-11 6.74426834e-12 -2.40610899e-11
      -5.01396563e-11 -4.27450193e-11 -1.01473595e-11 2.77123342e-11
      6.48716844e-11 4.90343634e-11 -9.01089273e-12 -1.11624677e-11
      -3.45771051e-11 -3.37178757e-11 -6.97626401e-11 -1.27483475e-11
      -2.89730531e-11 -3.08850098e-11 -2.99480649e-11 -3.55479847e-11
      2.99469373e-11 1.53725047e-12 -2.62876301e-11 -3.15736825e-12
      1.06659638e-11 -2.01211812e-12 6.78717672e-12 -3.93613996e-11
      -3.44732641e-12 -1.16000623e-12 -5.30924133e-12 -1.52171635e-12
      1.00636253e-11 -1.63809868e-11 3.03968520e-13 -1.23146545e-11
      -1.31979115e-11 3.23250801e-11 -1.84150178e-12 7.94237766e-12
      1.22829299e-11 -1.99632758e-12 -5.78163385e-13 1.80004067e-11
      -4.25297384e-12 2.68237971e-12 -1.44315948e-11 2.40175987e-11
      -3.32885386e-11 -1.05103079e-11 -3.74046211e-11 2.01651473e-11
      1.62689653e-11 4.62151855e-13 -1.73041079e-13 1.45400393e-11
      1.53493104e-11 -3.14667953e-12 5.89056798e-12 -1.42490934e-12
      1.14042031e-11 4.19685398e-11 8.74030535e-12 8.83716277e-12
      1.61018768e-11 -6.19256426e-12 -1.08140276e-11 1.59936105e-12
      6.08264437e-12 1.07023912e-11 -3.15790692e-11 -1.76255330e-11
      -1.56510308e-11 1.00668996e-11 -1.35398013e-13 2.80917021e-12
      2.87483683e-11 -2.13000208e-11 -4.02617453e-11 2.10086757e-11
      -8.36675607e-12 1.36351225e-11 -2.22594729e-12 1.52030680e-11
      -2.33991559e-11 2.96792313e-11 -3.87020450e-11 2.09408077e-12
      -9.34332039e-12 9.79120691e-12 -2.30675245e-12 -2.51900254e-11
      -2.13369231e-12 3.41012743e-12 -2.96155158e-12 4.46011422e-11
      1.04490600e-11 -3.09085244e-12 -1.66472131e-11 9.79729752e-12
      4.64526438e-11 -2.24025815e-11 -1.09766467e-11 7.69780940e-13
      -1.92444966e-11 1.92452911e-11 -4.76583044e-11 -6.64544461e-11
      -6.17182971e-11 -2.77230617e-11 2.04524071e-11 -2.73983319e-11
      -7.69164506e-12 1.54900103e-11 1.57868673e-12 4.62697415e-12
      -3.43455507e-11 -8.16089644e-12 -1.10641782e-11 -1.82704685e-11
      -2.95354956e-11 -1.61986119e-11 -4.75708327e-11 -3.59466068e-11
      -2.48758284e-12 -1.52844556e-12 1.73810619e-11 -2.70062167e-11
      -4.41977427e-11 -9.14936191e-14 3.27833177e-11 -4.39691270e-11
      2.31468907e-11 9.10244319e-13 -1.52350892e-11 -2.48056480e-12
      -2.82324841e-11 -6.54172203e-11 -3.29885910e-11 -8.24766384e-12
      -1.04130385e-11 -1.50379396e-11 2.43317831e-11 -2.21921852e-12
      -3.65898596e-11 -4.52521839e-11 -3.47509625e-11 1.15392843e-11
      1.41412550e-11 -2.40321686e-11 -1.18489029e-11 -4.34519608e-11
      -4.57708697e-11 -6.54998833e-11 -2.36980054e-11 -2.96496612e-11
      -2.34852450e-11 -4.64132656e-11 -5.38093571e-12 -1.84445666e-12
      -2.44993748e-11 -2.44558922e-11 3.20536956e-12 -1.61444816e-11
      -4.83909657e-12 2.05885724e-13 -1.52216833e-11 -2.50807916e-11
      -8.86105425e-14 2.34012688e-11 4.81270301e-11 2.42926963e-11
      -3.26395196e-11 -4.58500425e-11 -5.17850172e-11 -4.33154450e-11
      -5.51508058e-13 3.39732062e-11 1.08498991e-11 -2.88555724e-11
      -7.62547317e-12 -3.25723736e-12 -6.40855632e-11 -3.20346874e-11
      -1.93244934e-11 5.92647112e-12 7.96365664e-12 -9.23636384e-13
      -9.88573286e-12 -3.76218674e-11 -5.28578743e-11 -3.53511838e-11
      -5.33654891e-11 -4.48532045e-11 -2.32105030e-11 1.84161401e-11
      -2.34762904e-11 -4.04372612e-11 5.81221443e-12 -2.72453813e-11
      1.73098202e-11 -3.80034892e-11 -6.86768836e-11 -1.94596735e-11
      -3.20883597e-11 -4.97364962e-11 -3.07063888e-11 -8.30981464e-12
      -1.45318167e-11 -2.19816960e-11 5.83459019e-12 -2.76620671e-11
      -3.81895592e-11 -4.66833551e-11 -3.22221590e-11 1.74095131e-11
      2.25644156e-11 -4.26496815e-12 -1.02154370e-11 -6.81131627e-12
      1.16325855e-11 -5.19968998e-11 1.42330991e-11 2.17980460e-11
      -2.73488940e-11 -4.18242628e-11 5.93519938e-12 2.77440900e-11
      -1.01848226e-11 2.69966324e-11 -1.39070335e-11 2.67311021e-12
      3.27777423e-11 1.78431540e-11 -4.23146587e-11 -2.37656617e-12
      -3.45389342e-11 -1.69913944e-11 -2.27698103e-11 3.26437683e-12
      -2.46308425e-11 -4.06467855e-13 8.07922999e-12 -1.53034564e-11
      -5.46308008e-12 2.16973540e-11 -7.08088319e-13 1.37858024e-11
      4.07750153e-11 -1.96760854e-11 -4.07081001e-11 -2.41309793e-12
      7.22261400e-12 1.49713471e-11 -1.67157748e-12 2.57923908e-11
      2.42102206e-11 2.54021474e-11 2.98334690e-11 -2.32399950e-11
      1.61932794e-11 -3.26848999e-11 2.90833104e-11 -5.08460461e-13
      -3.38233851e-11 -6.71787409e-12 -2.51325367e-11 -1.41297469e-11
      -2.44740643e-12 2.55886007e-11 1.24225456e-11 6.54063479e-12
      -1.10071180e-11 -1.50504383e-11 -1.22488625e-11 1.65837552e-11
      2.76495146e-11 -5.75961917e-11 -2.90674412e-11 -1.23218631e-11
      6.05849659e-12 -1.48505045e-11 -1.41835632e-11 -2.71687811e-11
      1.86509367e-11 2.79885420e-11 -2.66986086e-13 1.62405471e-11
      -4.58086000e-12 6.49396596e-12 -7.12070550e-12 -5.10124018e-12
      -2.81548587e-11 -1.76999283e-11 -4.75940684e-12 -9.76202279e-12
      1.33125915e-11 2.28436402e-11 1.07023808e-11 -9.28089116e-12
      1.68293122e-11 1.77456418e-11 -1.71144852e-11 -1.71303325e-12
      -2.20390789e-11 -3.73888811e-12 -2.72770799e-11 -2.56527473e-11
      1.61634178e-11 9.33114263e-12 -7.95669607e-12 3.11469114e-11
      -2.03619812e-11 9.49141894e-12 -5.14440955e-11 -8.53262079e-12
      1.40405612e-11 1.25256099e-11 -9.00223299e-12 -8.90313257e-12
      5.91229799e-12 1.36709958e-11 2.50142771e-11 4.11056649e-12
      -2.29767095e-12 1.57606168e-11 -1.02352068e-11 1.79138267e-11
      2.06150062e-11 1.17773608e-12 1.88434580e-11 1.24295131e-11
      -8.62550743e-12 3.63430085e-11 4.56194908e-11 -1.56204962e-11
      -1.34824573e-11 8.81296945e-12 1.07083275e-11 -2.29007373e-12
      -3.05150419e-11 4.37092029e-12 -1.51105847e-11 6.39624551e-12
      -7.56556411e-14 2.12119315e-11 2.15323124e-11 9.51860769e-13
      -3.70059886e-12 -3.24036284e-11 2.03626820e-11 6.08239674e-12
      2.21279956e-11 1.35899365e-11 1.48783728e-11 1.75602796e-11
      -3.78756020e-11 -6.57862653e-12 2.64574022e-11 -1.41441832e-11
      1.65124477e-11 1.67392714e-11 4.31529118e-11 -2.61927632e-11
      6.86753848e-11 6.95427049e-12 -1.65812711e-11 2.46208193e-11
      1.33365124e-11 -5.99596631e-12 1.66220041e-11 -2.26052753e-11
      1.86002186e-11 -1.34069630e-11 -1.20066726e-11 1.48468963e-11
      2.23486138e-12 -2.02969083e-11 6.94297181e-12 6.10048210e-12
      2.94057417e-11 4.91655501e-12 1.71719464e-12 -7.24467751e-12
      -4.16014549e-11 1.18337374e-13 -2.08283790e-11 1.30797647e-11
      2.75616006e-11 3.04518607e-12 3.98312876e-11 -1.91489220e-11
      2.08736622e-11 -1.04480773e-11 -7.92988071e-12 -6.29852117e-12
      1.19972617e-11 -2.96196540e-11 2.14146496e-11 1.61439213e-11
      1.25512543e-11 1.98782015e-11 -6.20492264e-13 -1.44273075e-13
      7.82478422e-12 -1.04498779e-11 3.36011739e-11 -3.30857147e-11
      -2.40758212e-11 -5.44338671e-11 -2.30502076e-11 -2.32505660e-12
      -2.77998336e-11 1.10935471e-11 -7.25049101e-12 -1.40634631e-11
      2.45262751e-12 -3.78489083e-14 -5.65897069e-12 4.34781898e-12
      -1.57011123e-11 3.58843788e-11 3.35744488e-11 1.13022126e-11
      1.50715967e-11 -2.41919384e-11 -1.09753959e-11 -9.37962902e-12
      -1.57583165e-11 -3.39098194e-11 -4.78432658e-12 3.13316452e-12
      5.37976044e-12 -2.11524999e-11 1.68518637e-11 1.58491731e-12
      5.61969698e-12 5.37027833e-13 -8.68638408e-12 -2.76063027e-11
      3.69766414e-12 -1.79377711e-11 -5.68380304e-13 -1.50065273e-11
      2.99922153e-12 2.22279122e-11 3.61372564e-11 -8.72000768e-13
      8.58832536e-12 1.68805670e-12 1.38300135e-11 -1.03624219e-11
      -8.23969625e-12 3.06548298e-12 -2.44112803e-11 1.25301488e-11
      1.81015238e-11 -2.31095490e-11 1.31063892e-11 9.29245504e-13
      -5.62727599e-12 1.11356302e-12 -5.23277038e-12 6.14315066e-12
      -5.34781074e-12 7.37025111e-12 2.33635073e-11 5.13066260e-13
      7.58873173e-12 -6.05895672e-12 2.75443432e-13 1.13897190e-11
      -1.45393333e-11 -1.43362683e-11 3.03144905e-11 -4.82628000e-12
      3.96628043e-12 -2.31572973e-11 9.18105175e-12 -1.21080368e-11
      -2.89310815e-11 3.96767792e-11 5.40707132e-11 3.21720255e-11
      -7.60309090e-12 1.03924248e-11 -1.84794541e-12 -5.99472121e-12</_></support_vectors>
  <decision_functions>
    <_>
      <sv_count>1</sv_count>
      <rho>-9.7191177328426193e-10</rho>
      <alpha>
        1.</alpha>
      <index>
        0</index></_></decision_functions></my_svm>
</opencv_storage>
