<?xml version="1.0"?>
<opencv_storage>
<my_svm type_id="opencv-ml-svm">
  <svm_type>C_SVC</svm_type>
  <kernel><type>LINEAR</type></kernel>
  <C>2.9103800000000001e-11</C>
  <term_criteria><epsilon>1.1920928955078125e-07</epsilon>
    <iterations>1000</iterations></term_criteria>
  <var_all>1296</var_all>
  <var_count>1296</var_count>
  <class_count>2</class_count>
  <class_labels type_id="opencv-matrix">
    <rows>1</rows>
    <cols>2</cols>
    <dt>i</dt>
    <data>
      -1 1</data></class_labels>
  <sv_total>1</sv_total>
  <support_vectors>
    <_>
      3.35023190e-11 2.12910869e-11 6.94254495e-14 -5.49575966e-12
      -1.19225792e-11 5.59580897e-12 4.27177009e-11 1.12956528e-11
      1.17488250e-11 -1.90905226e-11 2.27906079e-11 -1.16679262e-11
      -3.42376865e-12 -1.88337670e-12 -6.59844488e-12 -2.57156848e-11
      -2.56366803e-11 2.46185086e-11 2.06729651e-11 1.07464289e-11
      -7.92818231e-13 3.56374717e-12 -1.68941042e-11 1.22971099e-12
      -2.46336961e-11 -1.94126399e-11 3.37113289e-11 3.38507625e-11
      7.22430926e-12 2.53618671e-11 -8.59094566e-12 1.25388996e-11
      -1.06141207e-11 -1.04646413e-11 -2.79383114e-12 -1.09122164e-11
      9.60049054e-12 8.17627910e-12 -9.49113271e-12 1.96504076e-12
      4.09973826e-11 4.02143041e-11 1.18245604e-11 -2.32124042e-12
      -1.61500622e-11 -9.88114712e-12 1.37394852e-11 2.09698741e-13
      1.29731720e-11 -4.60103440e-12 5.98693577e-12 -1.79718150e-11
      9.77814531e-12 9.38324158e-12 3.44353192e-11 3.45097952e-12
      4.06654467e-11 -1.19032492e-11 -3.00914745e-11 7.99760431e-12
      1.10730322e-11 2.07151414e-11 2.76934760e-11 3.80504135e-11
      3.25205522e-11 1.34492391e-11 -5.50159918e-12 -2.45724482e-11
      -4.06235245e-12 -2.38095134e-11 -3.48318110e-11 -8.98990084e-12
      -1.62103109e-11 -3.77376463e-11 -3.95732128e-11 1.79536494e-13
      3.89441569e-11 3.78066448e-13 2.68607844e-11 1.44706087e-11
      -2.22240022e-11 1.65124130e-11 2.53276133e-11 1.86041477e-11
      -1.63558871e-11 3.26177037e-11 1.85247599e-11 3.57498644e-12
      -2.30169963e-11 4.29852230e-11 2.01102468e-11 -2.08385201e-11
      1.64280551e-11 -2.47632817e-11 -4.94203766e-12 1.21318511e-11
      -1.61565865e-11 5.76558853e-12 4.07485634e-12 -2.23525833e-11
      -1.96521775e-11 7.06186498e-12 -4.80546818e-11 -1.13893842e-11
      -2.35291127e-11 3.70973521e-12 -3.72367762e-12 -1.28204218e-11
      2.69280908e-12 8.90920324e-12 -2.11955037e-11 2.82955777e-12
      -8.81640420e-12 1.91850008e-11 3.17477988e-11 -4.04825132e-12
      -3.01627022e-11 3.58192538e-11 1.43703261e-11 -1.50990522e-11
      -6.85221714e-12 -1.80578538e-11 -1.90931767e-11 -9.50751890e-12
      -8.62107434e-12 6.76050622e-12 1.43742119e-11 3.49282200e-11
      2.57624152e-12 -1.35402236e-12 -7.32247769e-12 -3.27580600e-13
      9.45523434e-12 -3.49047700e-12 1.63122224e-11 5.80046211e-12
      4.50591468e-13 1.30694301e-11 -1.43393917e-11 -1.40394371e-11
      1.58223521e-11 -2.25301236e-11 -1.66854950e-11 -5.56774939e-12
      6.65282326e-12 -8.20421248e-12 -3.26988675e-12 1.28054910e-11
      -2.21879373e-11 2.36122875e-11 4.51281582e-11 -2.43271080e-11
      8.13369077e-12 -4.08535809e-11 -1.88646702e-11 1.35226500e-11
      -1.71640237e-11 1.22693080e-11 8.08543250e-12 1.18195575e-11
      -4.26036879e-11 7.89391816e-12 3.62473723e-12 8.73166036e-12
      -3.82635798e-11 1.10258642e-11 1.80317671e-11 7.58260815e-12
      -3.01843858e-12 -3.23804698e-11 -1.31831429e-11 1.93657538e-11
      -3.52865202e-11 1.32098447e-11 -2.78665129e-11 -2.61163226e-11
      -4.47604497e-12 2.42689133e-11 -4.74757299e-12 2.51268971e-12
      -8.82780047e-12 -2.96401228e-12 1.22166721e-11 -4.54725112e-11
      2.04056494e-11 3.53696898e-11 2.75846117e-11 -5.41275922e-12
      4.42066739e-12 -1.45530463e-11 -3.70761095e-11 -7.48821751e-12
      1.88071173e-11 4.24332305e-11 3.10271878e-11 -1.55791231e-11
      -1.42262781e-11 -5.92980942e-11 -2.56123074e-12 1.17842420e-11
      5.86080490e-12 2.00778977e-11 2.29412106e-12 -1.86547965e-11
      -2.37332723e-11 -2.87093162e-11 -1.31691004e-11 2.48679181e-12
      -2.69919742e-12 -1.97368337e-11 -3.52078332e-11 2.80740904e-12
      -7.40646173e-12 4.07453793e-11 -2.60094914e-11 -5.23195463e-12
      7.99447487e-12 -7.59499581e-12 -1.43694811e-12 3.60153574e-12
      -1.85583363e-12 -1.04923665e-11 6.86110960e-11 -2.03339186e-11
      1.23743004e-11 -2.94337853e-11 1.94264396e-12 -7.26091713e-12
      -2.68995312e-11 2.59766375e-11 -3.32780574e-11 1.07191912e-11
      -2.71263589e-12 -1.62823210e-11 -7.49343643e-12 4.20750171e-11
      -4.99642645e-12 2.79337560e-11 1.42941041e-11 7.63018988e-12
      4.69529336e-14 6.33064944e-13 -1.45407028e-11 3.98261805e-12
      5.21013996e-11 2.49529945e-11 -6.23805174e-12 -1.16758775e-13
      -2.64474258e-11 1.65274495e-11 -9.43820716e-12 -4.63390394e-12
      8.49512388e-12 1.25054351e-11 -1.61569404e-11 2.60989277e-12
      -1.41257128e-11 -1.53228038e-11 -4.40639756e-12 -2.64636403e-12
      7.78073612e-12 8.19530988e-12 -1.87643087e-12 -4.24142006e-11
      -5.34211401e-13 2.65705583e-11 -4.05180542e-11 1.47817973e-11
      -1.61425179e-11 -1.63642155e-11 -7.47919608e-12 -6.16180457e-12
      -1.97992074e-11 -3.69087573e-11 -4.54913676e-11 1.45040230e-11
      8.90994483e-12 3.01135714e-11 -2.47047886e-11 -2.89809825e-11
      -7.25100605e-11 -4.51280679e-11 1.60093293e-11 6.95191344e-12
      -4.35761427e-11 -3.22027058e-11 -8.41178863e-12 4.39933116e-12
      -7.80865858e-11 -4.17118874e-11 -6.64704229e-12 -9.95773516e-12
      -2.74148378e-11 -2.37083651e-11 -1.12099410e-11 1.09831788e-11
      -5.92681251e-11 -9.11326570e-11 -2.36406415e-11 -9.20088224e-12
      5.54593524e-12 -2.29502181e-11 -3.42675575e-11 -2.86300445e-11
      -2.04574864e-11 1.11375457e-11 1.27359494e-11 -1.23026563e-11
      6.97763245e-12 7.47093620e-12 -4.77348933e-12 -2.33546228e-13
      -5.87808708e-12 -2.17623424e-12 6.49356396e-14 -4.46051460e-11
      -2.17670222e-11 -1.77370098e-11 -2.28305205e-11 3.58482723e-11
      -4.26659402e-12 3.39285479e-12 -4.03155148e-11 -3.46886408e-11
      -3.52920540e-11 -3.42902616e-11 -1.95704303e-11 -1.52768874e-11
      -1.99940810e-11 -2.38260149e-12 1.34218817e-11 -2.73402412e-11
      -4.85596667e-11 -3.26412473e-11 -2.66867049e-11 -1.44740010e-11
      -2.77863097e-11 3.33242895e-12 -1.33891622e-11 -3.98541963e-11
      -5.97228794e-11 -5.94740229e-11 -1.65725576e-11 9.57377407e-12
      1.63597330e-11 1.09677163e-11 -1.07108194e-11 -1.22781637e-11
      3.75765148e-11 -4.28002633e-11 1.49639415e-11 -1.83191188e-11
      -1.13076718e-11 -3.59700139e-12 -3.10432062e-11 -3.98262326e-12
      -1.06406151e-11 -2.49992631e-11 -5.22593045e-11 -6.11103460e-11
      1.00042743e-11 4.29175272e-11 -6.99008559e-12 1.23511184e-11
      9.99736578e-12 1.27640789e-11 -2.64891321e-11 -2.99047245e-11
      4.14756250e-12 -2.28822204e-11 -6.19266661e-12 5.78589260e-12
      3.88992831e-11 4.21870525e-12 4.00540122e-11 -4.70925590e-11
      -3.12233260e-11 -1.39282483e-11 -2.71764104e-11 -3.09246274e-11
      -3.03014835e-11 -1.63414646e-11 -1.54306793e-11 -1.71499186e-11
      -7.79716361e-11 -2.67287650e-11 -3.14927945e-11 -3.12933013e-11
      -1.01742226e-11 -4.19797443e-12 1.84020750e-11 -1.88020450e-11
      -1.44624287e-11 -8.00748790e-12 -4.47450930e-12 3.32847049e-11
      5.64646723e-12 -1.51696884e-11 -1.54442073e-12 -3.62212690e-11
      2.34332311e-11 -4.22794482e-12 -3.84911504e-12 2.22458683e-11
      1.01439968e-11 3.45073232e-12 1.91438740e-11 4.66236529e-11
      -2.63011921e-11 1.20997938e-12 4.65324068e-13 1.28675222e-11
      -9.22166683e-12 2.22971919e-11 1.11766508e-11 1.16838015e-11
      2.83157243e-12 -1.73802639e-11 6.42786345e-12 -2.16950607e-11
      -1.57172387e-12 -5.96146179e-12 1.91660164e-12 9.35513299e-12
      8.12293809e-12 2.30878749e-12 -1.49323366e-11 1.99413975e-11
      2.04574396e-11 2.60320532e-11 8.99801772e-13 1.05829746e-11
      2.07199119e-11 2.01449361e-11 -2.27679212e-11 -1.59721403e-11
      2.38624155e-11 -1.85592115e-11 6.78045901e-12 1.78443284e-11
      5.13627769e-12 -4.92342105e-11 -2.29016198e-11 2.78242425e-12
      -7.09961777e-12 2.14658803e-12 -1.64055297e-11 -1.25115578e-11
      -7.09041246e-12 -2.98202747e-11 -2.10617478e-11 1.12158590e-11
      3.03784428e-11 2.02553842e-11 3.96325646e-11 1.45282024e-11
      3.32416109e-11 -1.40726493e-11 -1.43545219e-11 -1.50561490e-11
      -1.94825493e-11 -1.53002316e-11 1.31495474e-11 -6.51876955e-11
      -1.36822567e-11 -3.12819562e-11 -2.12146203e-11 -2.21616007e-11
      -2.06324506e-11 -3.40434365e-12 -3.77832071e-11 -6.82839826e-11
      -5.32598826e-11 -5.19844758e-12 1.76992036e-12 -1.41592068e-11
      -6.33517804e-12 6.37510530e-12 -3.55471694e-11 -5.80324851e-11
      -4.26913054e-11 3.54645892e-12 -5.88856047e-11 3.11243717e-12
      -1.02018385e-11 -8.15447449e-12 -3.13311148e-11 1.71911010e-11
      -2.52646185e-11 -6.44782838e-11 -7.92747049e-11 -2.78394512e-11
      -2.19244458e-12 -2.39828539e-11 -8.92806933e-13 -4.79963118e-12
      -6.25282465e-12 -2.28221192e-11 -3.31212731e-11 -2.48010744e-11
      -4.78554609e-12 1.67038241e-11 1.62784682e-11 1.98509004e-12
      -1.78428054e-11 2.18757165e-11 3.05137721e-11 -6.15951344e-12
      2.05396689e-11 4.00257154e-11 5.32826422e-11 6.52056490e-12
      -4.10524253e-11 3.41356804e-11 5.64991240e-12 -4.94655965e-12
      -1.10079012e-11 9.28317666e-12 -1.72733963e-11 -9.29400328e-13
      -5.57501224e-12 -1.67463634e-12 -1.20458851e-11 -1.69137759e-11
      1.15205180e-11 -3.28984201e-11 1.80059561e-11 -5.75255512e-12
      -1.39131198e-11 -1.06190759e-11 -7.28471276e-12 4.04131329e-12
      5.58576553e-11 3.78750113e-12 -1.12494441e-11 4.12820923e-11
      -1.67304001e-11 -2.86077377e-11 2.65445495e-11 1.21507682e-11
      -6.12356563e-12 -6.29158444e-12 1.18506698e-11 6.01382139e-12
      2.48971954e-11 -7.15411628e-12 4.69097816e-11 -7.14020206e-12
      -3.34451217e-12 2.10747218e-11 4.39499652e-12 2.10384609e-11
      4.72925345e-11 2.26275630e-11 9.33595215e-12 -5.31332226e-12
      -1.28983395e-11 -2.85308600e-11 1.29864591e-11 -1.75374368e-11
      2.61433011e-11 2.13280314e-11 3.81688466e-11 6.53536210e-12
      3.09733697e-11 6.13866900e-12 4.25644554e-11 3.28808300e-11
      -1.49095927e-11 2.57716743e-12 -3.74470281e-11 2.65944385e-11
      1.11726036e-11 -2.13920999e-11 -3.35819636e-11 -2.48986873e-11
      3.66474906e-12 -2.15947971e-11 2.85706159e-12 6.73440123e-12
      5.23242040e-11 -3.75315577e-11 -5.02954067e-11 -1.93386678e-11
      3.77257774e-11 -3.60173939e-11 1.48350603e-11 2.90157065e-11
      -6.41110949e-12 -1.04019302e-11 -5.29071301e-11 -7.35249847e-11
      -3.93914137e-11 1.53165881e-12 -1.47484564e-13 1.22090307e-11
      1.89493733e-11 -1.99230320e-11 -1.73578079e-11 -2.56836219e-11
      2.23139181e-11 3.01247326e-11 3.66911085e-11 1.66757858e-11
      1.21598035e-11 -2.13053759e-11 -5.89375007e-11 -4.47439551e-11
      -6.22609186e-11 -1.06845531e-11 -5.77162450e-12 -4.04236575e-11
      -1.55065075e-11 1.55058431e-11 4.19139098e-11 1.81895232e-12
      1.95416461e-11 -3.45948053e-12 2.74717540e-11 1.82588753e-12
      9.46211338e-12 1.82614449e-12 -4.42375442e-11 1.25238806e-12
      1.61695605e-11 1.91111172e-11 -2.12041062e-11 -1.33677496e-11
      3.16701743e-12 2.13176850e-12 1.62137994e-11 6.21833574e-12
      -3.85527331e-12 -1.91486566e-11 2.35171518e-11 -2.48704139e-12
      7.42720989e-12 2.30988458e-11 2.33774649e-11 3.32998386e-12
      4.56781704e-12 3.48541196e-11 -3.53535222e-11 -1.02360386e-11
      -4.99244266e-12 1.29401993e-11 -2.09481599e-11 1.77927274e-11
      5.13754317e-12 1.20974064e-11 4.99094238e-11 -1.71514383e-11
      -4.26390829e-13 4.22191535e-12 8.19535498e-12 -2.23599893e-12
      2.17131296e-11 -2.26410002e-11 -4.72261423e-12 3.17338378e-11
      -3.63519544e-13 7.53408707e-12 -7.28724546e-12 -8.80924066e-12
      -5.85719754e-12 9.02631875e-12 -2.78879697e-11 -2.19862843e-11
      1.11916422e-12 -3.11553669e-12 1.81011872e-11 4.35549773e-12
      2.71451681e-11 2.23245016e-11 -4.31993122e-11 -1.73665110e-11
      7.06987420e-12 6.76260914e-13 -5.23940717e-11 2.26451930e-11
      1.95525852e-11 -3.18816640e-11 1.21401500e-12 -2.00535474e-11
      -4.12413203e-12 2.96291030e-12 1.38247504e-11 -2.89051040e-11
      -5.85919438e-11 -6.19551979e-11 -3.32912539e-12 1.78462783e-11
      8.32301188e-13 2.82924487e-12 3.01196880e-11 1.83690285e-11
      1.29275219e-11 -3.80675916e-12 -1.34254873e-11 -3.74802758e-11
      -5.08294587e-11 -9.96920949e-12 4.92248256e-12 -6.74781273e-11
      -1.46796412e-11 -5.89115770e-11 -5.85501925e-11 -4.10030516e-11
      -6.45941842e-11 -3.38674956e-11 2.13903496e-11 -1.63101026e-11
      -2.67224229e-11 -2.52640942e-12 7.13938977e-12 1.97299694e-11
      -2.11642093e-11 -4.18664270e-11 -2.07919740e-11 -4.25577065e-12
      -1.89476343e-12 4.18317898e-12 5.50674159e-11 -4.92696890e-11
      1.61776651e-11 3.64520046e-11 1.68739328e-11 -2.03928194e-11
      -1.99444072e-11 1.60590187e-11 -5.80916868e-12 4.44840692e-11
      -3.57201005e-11 -5.38861967e-12 -6.40629997e-12 2.52694064e-11
      -3.50361038e-12 -2.83145833e-11 5.69546190e-12 -6.03361848e-12
      1.12052858e-11 2.29391384e-11 -9.59390727e-12 -2.39797730e-11
      -5.44672380e-12 -2.26873190e-11 -4.68614427e-12 1.72743885e-11
      -7.55563093e-13 -1.20985982e-11 2.96764349e-11 1.76560606e-11
      -3.63934880e-12 7.06328355e-12 -4.48365390e-12 4.90688323e-11
      -1.55327036e-11 -4.50480590e-11 1.22025116e-11 -5.13964262e-12
      2.98331290e-11 -1.59954897e-11 -3.55540185e-12 8.49696995e-13
      1.37689062e-11 5.48332386e-12 4.11419206e-12 -4.67766485e-11
      4.46153661e-12 2.73633824e-11 -4.60372972e-12 -2.54109355e-11
      -2.34469198e-11 2.16718015e-11 3.21168196e-11 -5.88810042e-11
      -1.60513356e-11 -1.23659138e-11 5.98546560e-11 3.65067525e-12
      2.69899311e-11 3.17441125e-12 1.59382108e-11 -1.33763564e-11
      -3.00074202e-11 -7.28498165e-11 -4.44443683e-11 -3.34276044e-11
      -3.21630153e-11 -5.65562224e-12 5.66185033e-12 -4.02570295e-12
      2.30902276e-11 -3.75403181e-12 -7.30616143e-13 3.31220294e-11
      2.72488785e-11 -3.33676871e-11 -3.28966993e-11 1.66348671e-11
      4.27692127e-12 1.20613079e-12 -9.18496269e-12 -3.50047838e-11
      -1.48629529e-11 -6.75463713e-11 -2.00980951e-11 -2.84756767e-11
      2.40141717e-12 -3.67167789e-11 1.38944854e-11 -2.89334581e-11
      -5.44141572e-11 -3.54406227e-11 -1.78338056e-11 1.18283282e-11
      2.40273600e-11 2.89629380e-11 2.17431151e-12 9.77328895e-12
      -2.42679869e-11 -5.42969003e-11 -6.18172319e-11 1.75880231e-11
      -1.91653308e-11 -1.18335394e-11 -3.57062747e-11 -1.36174561e-11
      -1.38003610e-11 2.87652263e-11 -3.95747183e-13 -1.19739487e-11
      2.31252864e-11 -3.03293606e-11 1.42005093e-12 -2.35862840e-11
      2.03033684e-11 -1.90600261e-11 -8.06940105e-12 6.08056736e-13
      2.48040564e-11 1.05525623e-11 -3.54919358e-11 -3.36083626e-11
      -5.90841568e-12 9.62723911e-12 -1.81976222e-12 1.93285336e-11
      1.06057064e-11 -6.33567200e-13 2.98927931e-11 1.37748242e-11
      -8.89756758e-12 -1.71882786e-11 2.19336593e-12 2.33645221e-11
      1.54591455e-13 1.14031814e-11 -2.54199387e-11 1.46283749e-11
      1.08603040e-11 6.84918702e-12 2.75385357e-11 2.81601409e-11
      2.67806246e-11 3.31304185e-11 4.97003914e-12 2.25581064e-11
      1.62929115e-11 6.88522590e-12 -8.20853108e-12 -3.24287958e-11
      2.44157975e-11 -1.12346790e-11 -1.26281936e-11 -2.90510480e-11
      -1.52030003e-11 3.60112183e-11 -3.47252088e-11 8.65481569e-13
      1.23342768e-11 -1.70806303e-11 -3.58805347e-11 -1.73203674e-11
      1.09225779e-11 -6.94891800e-12 -3.54843967e-11 7.62086054e-12
      -2.08549619e-11 1.30329263e-11 -8.59755843e-13 -1.19027219e-11
      -1.98697395e-11 3.05406672e-11 -4.79231411e-12 8.30335019e-12
      -2.54831677e-11 1.61995660e-11 4.80036367e-12 1.38795026e-11
      -1.94137653e-12 3.13680297e-11 4.36966956e-12 1.07096372e-11
      4.45114605e-12 -2.72858906e-11 -1.75575214e-11 1.86945511e-11
      9.02692526e-13 -2.33884821e-11 -2.62129502e-11 1.14006703e-11
      -2.39152847e-11 1.64017307e-11 -3.33316846e-11 -6.06937764e-11
      -4.29290249e-11 -2.40865678e-11 2.56678446e-11 -3.55638956e-12
      1.29428820e-11 -9.16584343e-12 -3.08723880e-11 1.25180899e-11
      -3.88500725e-11 1.03071727e-11 1.16179722e-12 -1.24812686e-11
      -1.04739021e-11 -1.36131280e-11 -2.26447402e-11 -3.78820898e-11
      -8.48690215e-12 -1.53357691e-11 6.66562465e-12 -2.98398285e-11
      -2.35721893e-11 -1.47950974e-11 1.14045865e-11 -3.07189066e-11
      3.17262258e-11 8.34112889e-13 -2.97984483e-13 -2.04126473e-11
      -1.25539475e-11 -3.26836717e-11 -1.66312519e-11 -2.31164116e-11
      -2.94744199e-12 -6.07004898e-12 -3.55362202e-12 1.18963398e-11
      -4.31064073e-11 -5.75583886e-11 -4.81751410e-11 -1.91624286e-11
      3.61358101e-12 5.69132848e-12 1.73246324e-12 -3.06283922e-11
      -4.52357457e-11 -3.25283030e-11 -4.72197802e-11 -4.50755509e-11
      -4.15342691e-11 -1.52016438e-11 8.23740815e-12 1.89069073e-11
      -1.61475885e-11 1.38585974e-12 -5.59477974e-13 -5.01961563e-11
      -2.79002147e-12 -1.73581306e-11 -2.79749748e-11 -2.59234075e-11
      -3.93652385e-12 -2.06313197e-13 3.98638024e-12 5.75343159e-12
      -3.01652280e-11 -6.40809350e-11 -3.41159219e-11 -4.76419668e-11
      -2.00481667e-12 1.66103832e-11 1.92120174e-11 -9.56918225e-12
      1.09991885e-11 -1.18444395e-11 -3.86717290e-11 8.12192934e-12
      -7.76205055e-12 -1.23353177e-11 -2.92980050e-12 -4.41384845e-11
      -1.71456824e-11 -3.39106694e-11 -5.40558293e-11 -6.34636094e-11
      -6.60685187e-11 -2.77877929e-11 -3.57524253e-11 1.66809502e-12
      -5.46376104e-11 -1.34247778e-11 1.07057974e-11 -2.37912099e-12
      1.02007448e-11 -1.39301010e-11 -4.05042354e-11 -2.60454106e-11
      -3.66236104e-11 -6.11114805e-12 -3.24140229e-11 -7.27292055e-12
      -2.67762028e-11 -1.56248296e-11 -1.69797705e-12 -9.15353202e-14
      -1.78521156e-11 -4.57183007e-11 5.35408827e-12 -3.05271884e-11
      3.27843898e-11 -3.49309384e-12 -2.75550294e-11 -3.29579745e-12
      2.88224375e-11 1.64357035e-11 2.02014967e-11 2.49831753e-11
      5.76550222e-12 -1.97651010e-11 3.29582091e-11 1.73511084e-11
      -2.46864994e-11 1.64807803e-11 -2.34542698e-11 1.59263210e-11
      1.88373987e-11 4.15704346e-11 1.39795588e-11 -3.72643201e-11
      -8.23612185e-12 4.77601162e-12 -2.89992579e-11 -9.80788714e-12
      -2.16183668e-12 -4.57260098e-13 2.81676971e-13 9.11391709e-12
      5.49760281e-12 -2.02858043e-11 4.01520830e-11 3.64353894e-11
      1.54070159e-11 -2.39925788e-11 1.04330745e-11 -1.64846782e-11
      -2.56260239e-11 -1.00966501e-11 2.17520828e-11 3.66234335e-11
      -1.03496196e-11 1.45681002e-11 1.49852335e-11 -1.70296312e-11
      4.36952870e-11 -2.14067609e-12 4.48967166e-12 1.97192740e-12
      -3.21198554e-11 -9.73937857e-12 -4.31647738e-11 -1.22226784e-12
      -1.17176069e-11 -6.96168297e-12 -4.66873762e-12 -9.57273236e-12
      -3.74898029e-12 -1.84500679e-11 -2.53158605e-12 5.85637615e-12
      2.03333669e-11 -7.68232613e-12 7.70713268e-12 -1.10509681e-12
      1.36423581e-11 4.90023658e-13 1.23408549e-11 -1.98538130e-11
      3.23459419e-11 1.47361966e-11 8.69703875e-12 2.02188041e-11
      -8.51770043e-12 1.83480106e-11 3.15339976e-11 -1.80449254e-12
      9.38097516e-12 3.03513594e-12 2.65628890e-11 5.17372213e-12
      -8.91072806e-12 -4.74667744e-12 -3.87752590e-12 7.23620990e-12
      -2.62757676e-12 1.01300157e-11 3.27009882e-12 -2.78902110e-11
      -2.44164910e-12 -2.28845051e-11 -9.84123286e-12 -2.53265256e-11
      -1.95053990e-11 -1.05752785e-11 3.20870197e-12 2.46246079e-11
      -4.81011802e-12 -3.47166323e-11 -5.03919267e-11 -4.32481048e-12
      1.15524170e-11 2.13419074e-11 -2.61630405e-11 1.39677905e-11
      1.24268044e-11 2.10921541e-11 5.67663243e-11 3.99922942e-11
      -8.81832801e-12 1.63128382e-11 -2.22088112e-11 2.02831935e-11
      -3.87556784e-12 -3.38545685e-11 3.68765955e-11 1.81491940e-11
      -3.00359911e-11 -2.91548513e-12 2.31357399e-11 1.00352105e-12
      2.90443000e-11 1.29718580e-11 8.61257159e-12 1.55579889e-11
      -5.78483832e-12 1.49157357e-12 1.86714724e-11 6.88462438e-12
      -7.20869631e-12 2.08403069e-11 2.74281171e-11 -9.75351310e-12
      -1.83848735e-11 -5.80321971e-11 1.17956964e-11 -2.01430001e-11
      1.35018030e-11 -1.39101465e-11 -4.50671011e-12 -1.91862758e-11
      -2.15222788e-11 2.08239450e-11 -4.05287089e-12 -1.32034245e-11
      -5.92161086e-13 1.48389374e-11 2.70437904e-12 3.28206689e-12
      5.17858395e-11 5.96198221e-12 6.27495191e-12 -2.16295263e-11
      6.19636200e-12 -1.07283410e-11 4.63779050e-11 -3.37268720e-11
      8.21464207e-13 -3.48613369e-12 -5.17959026e-12 1.43680562e-11
      -1.71350989e-11 9.67132971e-12 1.65096669e-11 -3.43716765e-12
      -1.45000082e-12 -5.84878500e-12 -4.28452759e-12 -4.13180948e-12
      -4.34606483e-11 -1.46125438e-11 -4.23360583e-11 9.64356893e-12
      -2.64233323e-11 -8.92853239e-12 9.92891186e-12 9.11176169e-12
      1.29491739e-11 -2.04027212e-11 -1.58505639e-11 2.46327039e-11
      8.70786256e-12 -1.56212109e-11 -6.86459483e-12 3.57366046e-11
      3.73785100e-11 3.55208120e-11 1.26259706e-11 -2.08066203e-11
      1.89432220e-11 -2.89528141e-11 1.81603396e-11 -1.89594469e-11
      2.22563495e-11 -2.37416978e-11 -6.09292174e-12 6.12129271e-12
      -7.10076485e-12 -2.97871242e-11 -1.25151590e-11 -3.74835753e-12
      1.43258365e-12 -3.28524924e-12 1.52535068e-11 -1.24273421e-13
      2.99912525e-11 -3.87956126e-11 1.95066376e-11 2.32751643e-13
      8.39617438e-12 -1.55832933e-11 4.36758008e-12 3.18422502e-12
      -1.21818233e-11 -1.51581196e-11 -8.59990117e-12 -1.69885477e-11
      3.03523838e-11 -2.21170391e-11 2.80787893e-12 -2.34244135e-11
      2.05458636e-11 3.14998132e-11 2.06506149e-11 1.15666123e-11
      2.05707899e-11 -1.83420883e-11 6.78617492e-12 3.06401107e-12
      1.14448537e-11 2.34118159e-11 4.50574821e-11 2.74177989e-11
      -9.00573539e-12 -2.15678430e-11 -3.02285731e-11 -9.04894736e-12
      -6.68606056e-12 1.57359726e-12 -1.64626490e-11 1.15490170e-11
      1.59251399e-12 -5.98142499e-12 6.39207708e-13 3.77152649e-12
      2.19779282e-11 -1.17132016e-11 2.91309164e-12 1.97170162e-11
      -3.13836353e-11 5.39988106e-12 6.00256433e-12 -4.56352794e-12
      -2.31295053e-11 1.91488197e-11 3.26625151e-11 2.90326999e-11
      1.51150717e-12 2.76290384e-12 3.22623490e-11 -3.52277799e-12
      2.19988806e-12 6.90671825e-12 2.60911800e-12 3.50816685e-12
      -1.26119237e-11 3.50523846e-11 -1.42859093e-11 -2.15813426e-11
      2.20717992e-11 -2.68586043e-12 2.00736407e-11 1.16292427e-11</_></support_vectors>
  <decision_functions>
    <_>
      <sv_count>1</sv_count>
      <rho>-8.4159373914260982e-10</rho>
      <alpha>
        1.</alpha>
      <index>
        0</index></_></decision_functions></my_svm>
</opencv_storage>
