<?xml version="1.0"?>
<opencv_storage>
<my_svm type_id="opencv-ml-svm">
  <svm_type>C_SVC</svm_type>
  <kernel><type>LINEAR</type></kernel>
  <C>2.9103800000000001e-11</C>
  <term_criteria><epsilon>1.1920928955078125e-07</epsilon>
    <iterations>1000</iterations></term_criteria>
  <var_all>1296</var_all>
  <var_count>1296</var_count>
  <class_count>2</class_count>
  <class_labels type_id="opencv-matrix">
    <rows>1</rows>
    <cols>2</cols>
    <dt>i</dt>
    <data>
      -1 1</data></class_labels>
  <sv_total>1</sv_total>
  <support_vectors>
    <_>
      1.37237383e-11 -5.33068078e-12 1.40634978e-11 1.05827554e-12
      2.07784831e-11 4.75418212e-11 1.39446111e-11 -9.46958115e-13
      1.53026897e-11 3.64480500e-13 3.21946220e-11 -9.02494399e-12
      -1.83497852e-11 3.23052730e-11 -1.80189891e-11 2.03344459e-11
      -3.00315432e-11 8.44750138e-12 1.70231982e-12 -2.02106804e-11
      -2.57654974e-11 2.98214266e-11 -1.56185013e-11 -1.01151656e-11
      -3.19565381e-11 -1.51474857e-11 -1.57666571e-11 1.36670987e-11
      -1.07194288e-11 8.91762445e-12 -3.24265441e-11 -3.07208460e-11
      -8.69860867e-12 3.48034726e-11 5.53626589e-12 -1.09308951e-11
      1.25707517e-12 1.11493575e-11 5.93747577e-12 3.35649737e-11
      4.44368153e-11 -2.09981186e-12 3.63851380e-11 -1.68581087e-11
      -9.20927137e-12 9.22694733e-12 1.43574683e-11 -2.49863168e-11
      -1.54083725e-11 -8.88136526e-12 5.23557109e-12 4.44334413e-12
      3.75784404e-11 1.93813559e-11 2.93771431e-11 -4.39293706e-11
      2.84454561e-11 -1.55339873e-11 -2.37365943e-11 -2.79944592e-11
      -6.09605118e-12 4.09507281e-12 3.38266845e-11 -9.92627508e-12
      -1.51942122e-11 1.70631061e-11 -2.18400732e-12 -1.26814314e-11
      2.50154723e-11 5.47886996e-12 -4.03684274e-11 -1.44803744e-11
      -2.76857912e-11 -3.03051022e-11 2.20110020e-12 9.53192907e-12
      -1.04735552e-11 4.98767347e-12 2.76229283e-11 7.21916363e-12
      -1.08761056e-11 -2.38105678e-13 3.44268169e-12 2.12554800e-12
      2.94609606e-12 2.71240998e-11 2.05081490e-11 -2.77331057e-11
      1.40662195e-11 4.73948832e-11 9.57810393e-12 -5.93826724e-12
      6.77234588e-11 -1.07555111e-11 -3.33372809e-11 5.76290101e-12
      4.69771314e-12 4.20023669e-11 2.03796216e-11 -1.18723521e-11
      -3.80128463e-11 1.01013824e-11 -4.10970771e-11 -1.51757478e-11
      5.20047113e-13 -1.00807316e-13 -5.27804970e-12 -2.86007277e-11
      -2.75838250e-12 1.75407588e-11 -3.21477220e-11 2.57378528e-11
      -2.71552242e-11 5.19574314e-11 1.72337145e-11 2.55641446e-11
      -1.54479814e-11 -1.93624908e-11 -1.43341129e-11 2.16925089e-12
      -3.91650150e-11 5.54615338e-12 -1.07052136e-11 2.48788750e-11
      2.06350059e-11 1.22635548e-11 5.85840057e-11 -9.50751457e-12
      1.45104597e-11 -1.96278827e-11 -2.04359481e-11 -9.56970007e-12
      2.80856952e-11 -4.23726982e-12 -4.58311123e-13 -1.94488193e-11
      -2.03273544e-11 1.81105322e-11 -3.66301989e-11 -1.69420988e-11
      3.35331025e-12 2.82855267e-11 -1.17042183e-11 1.37337763e-11
      1.21018967e-11 9.71677339e-12 1.14593430e-11 4.34596491e-11
      2.71901494e-11 2.31592870e-11 1.24919120e-11 -2.41226865e-11
      -1.32894589e-11 3.64002838e-12 -5.25912538e-13 4.19066648e-12
      -1.52786967e-11 6.15234426e-12 -1.33151502e-11 -5.48343706e-12
      5.13013763e-12 -4.21118175e-12 1.96647958e-11 -1.60057106e-11
      1.03041135e-11 -1.90207333e-12 2.92755681e-11 2.01690088e-11
      7.81540457e-12 1.27874872e-11 5.44384893e-12 -7.61970695e-12
      -2.38629602e-11 3.48110568e-11 -4.82207295e-11 -1.94098349e-11
      2.78454993e-12 3.11291687e-11 -5.41551352e-12 -1.96374618e-11
      1.48331122e-11 -1.57218058e-11 -2.52961432e-12 -1.73653800e-11
      7.26841547e-12 3.17329149e-11 3.77484545e-12 -2.66818373e-11
      9.42840077e-12 5.54749649e-12 -1.31573710e-11 8.47855987e-12
      8.47785817e-12 2.39653748e-11 1.37778044e-11 -5.93161848e-12
      -9.63323431e-12 -4.76013196e-12 3.16722135e-11 -5.88658896e-12
      2.01833016e-12 3.37379152e-11 -3.74163455e-13 6.34412054e-12
      -1.92244241e-11 -1.46274555e-11 -2.42991564e-11 2.65304115e-11
      -1.22978034e-11 -1.16736083e-11 1.53385551e-11 -4.38291591e-11
      -2.61006928e-11 -1.41216856e-11 1.41876276e-11 2.09535844e-11
      2.43746603e-12 -1.16569176e-11 -2.73807938e-11 1.85098979e-13
      -1.05563501e-11 1.01318207e-11 4.52801963e-11 -2.37567518e-11
      2.75752945e-11 3.13555432e-12 -3.21182100e-12 -7.99145645e-12
      -1.43472274e-11 3.49462993e-11 -3.70785087e-12 -1.92131745e-11
      1.41423921e-11 3.77878007e-11 -9.46819272e-12 3.50751893e-11
      -4.40317314e-12 1.50041733e-11 5.22807578e-12 2.07560553e-12
      3.14491801e-11 1.29431856e-11 -9.89457474e-12 2.43909268e-11
      -7.51942345e-12 4.11873521e-11 -3.73300089e-12 -3.83925053e-12
      -1.50469949e-11 -6.58492304e-13 -1.42976811e-11 -3.69761305e-11
      -1.26906671e-11 8.00521975e-12 -1.45764234e-11 6.35005666e-13
      1.87283609e-11 1.67304495e-12 -1.74238280e-11 1.45039978e-11
      5.48917717e-11 -2.40893382e-11 -1.28433427e-11 -2.57390099e-11
      -4.15553356e-12 -1.50907880e-11 -4.35799270e-12 1.41595780e-11
      8.32178163e-12 7.99246804e-14 4.36789632e-11 -1.28099024e-11
      -4.43316460e-11 1.75768757e-11 -2.26719459e-11 -2.46532725e-11
      2.36773726e-11 2.79998750e-11 -2.26456072e-12 -5.11207361e-11
      -7.27954988e-11 -5.24646993e-11 -2.39191045e-13 -1.75753422e-11
      -3.67416774e-12 -2.47549498e-11 -9.12386312e-12 -3.28574182e-11
      -4.52830898e-11 -3.26390928e-11 -1.45449859e-11 -1.88315908e-11
      -1.32632481e-11 -1.29194207e-11 7.98908162e-12 6.22437952e-12
      -4.65105940e-11 -5.90704222e-11 -3.81597531e-11 -2.59640486e-11
      4.04790784e-12 8.17412804e-12 -9.35185783e-12 -1.38305149e-11
      2.63024975e-12 -2.11897531e-11 1.24554421e-11 -3.67474454e-11
      -1.10278462e-11 2.89088423e-11 -1.00000581e-11 5.12742626e-12
      2.40853240e-11 -2.37608440e-11 -1.28219640e-11 -1.77321734e-11
      -1.70035670e-11 -4.72512932e-11 -3.58307065e-11 1.66937974e-11
      3.56524532e-12 3.13852208e-11 -7.18750710e-12 -3.07185423e-11
      -3.08737133e-11 -3.53847923e-11 1.96266111e-11 -2.33896791e-11
      -1.59410089e-11 7.15625345e-12 -5.82170380e-12 -2.48021187e-11
      -5.79015516e-11 -7.55492023e-12 -1.49781316e-11 -2.04911227e-11
      6.38978323e-12 -1.75282133e-11 -6.36038704e-12 -2.31508614e-11
      -3.44140103e-12 -3.63516092e-11 5.42346506e-12 1.82472579e-11
      2.63282603e-12 1.47530009e-11 8.32959483e-12 1.51628172e-11
      2.15739562e-11 -3.40702154e-11 -3.03359421e-11 -2.10168202e-11
      -4.54517465e-11 -1.13280592e-11 -6.83753193e-11 -6.86918621e-12
      -2.60486199e-11 -4.55292123e-11 -2.33398405e-11 -5.98485358e-11
      1.25765180e-11 -1.73316240e-11 -1.25482697e-11 -7.77232792e-12
      -4.56804559e-12 8.97118751e-12 -9.07205647e-12 1.75079274e-11
      1.80972060e-11 9.40039171e-13 -1.59526975e-11 2.59630858e-11
      1.87509348e-11 3.24229948e-11 4.79560176e-11 -3.63159745e-11
      9.94052388e-13 -9.95121867e-12 -1.60688580e-11 -5.13767986e-11
      -4.86304816e-11 -4.27249347e-11 -1.13411953e-11 -1.28155767e-11
      -6.88941751e-11 -1.68397483e-11 -1.54360327e-11 -3.14643242e-11
      -5.30414948e-11 -2.15315925e-11 -2.19846745e-11 -1.12102914e-11
      1.00395612e-11 -8.40950747e-12 -1.82440191e-11 3.19570932e-12
      4.92675020e-13 -4.32345791e-11 -2.30928644e-11 -3.01968867e-11
      3.06171893e-11 5.93650519e-12 3.12943629e-11 8.48271973e-12
      -2.20927963e-11 -2.70615579e-11 2.90182392e-11 2.70075438e-11
      -1.92558469e-12 2.63580234e-11 2.67763815e-11 1.90153084e-11
      -8.30988577e-12 1.81999103e-11 -2.86887837e-13 -2.86693325e-11
      -1.77135997e-11 3.34304372e-12 -7.89617243e-12 -2.49201788e-11
      3.84720276e-11 1.66747449e-11 -3.03250220e-12 1.34881880e-11
      2.44988335e-11 1.92644546e-11 -3.89044352e-11 1.29372147e-11
      -1.71075359e-11 1.60891439e-11 -6.73233518e-12 1.58400428e-11
      -7.42613436e-12 1.26588167e-11 -1.35865251e-11 -2.49813590e-11
      3.12732583e-11 -1.87356484e-11 1.89530214e-11 4.45981793e-11
      -1.25542189e-11 -3.81926435e-11 -2.47983578e-11 -2.02588792e-12
      1.56801742e-11 -2.19225801e-11 -5.87356335e-12 -1.61787146e-11
      -2.34807278e-11 -4.33054113e-11 -1.49808204e-11 2.60659064e-11
      2.22752997e-11 1.23764323e-11 4.24893974e-11 2.25308557e-11
      -7.49153170e-12 3.12445902e-12 -8.50038789e-12 -1.11779492e-11
      -1.47645819e-11 -3.80856909e-11 -2.24227945e-11 -2.17716661e-11
      -2.39339399e-11 -1.21342682e-12 8.85374760e-12 -9.18512922e-12
      -1.41797320e-11 -1.34126226e-11 -2.45018519e-11 -6.02743896e-11
      -3.26663765e-11 -1.30757618e-11 1.80387649e-11 -7.26281708e-12
      -1.50172548e-11 1.83982517e-11 -2.12074872e-11 -6.78970630e-11
      -4.55697667e-11 6.33360421e-12 -4.18412562e-11 2.79496131e-12
      -7.96078915e-13 1.38622501e-12 -8.34676946e-12 2.87148100e-11
      -4.35961788e-11 -4.78685772e-11 -5.94459898e-11 -3.56164404e-11
      3.81675897e-12 -7.58533947e-12 2.72798086e-11 -1.90258278e-11
      -6.09778764e-12 -2.26624951e-11 -4.17763220e-11 -1.96632363e-11
      -1.16949705e-11 -2.00221732e-11 1.50181187e-11 1.60478696e-11
      -8.99012809e-12 -2.49760889e-12 -2.70126265e-11 -1.54041294e-11
      4.77766993e-11 1.01689785e-11 2.03648556e-11 1.22372876e-11
      1.32979955e-11 4.89593539e-11 6.24749254e-12 -2.61128081e-11
      -2.87999198e-13 1.11973647e-12 1.26504503e-12 1.70142997e-11
      1.78321264e-11 3.83285851e-12 1.03550129e-11 3.27328616e-12
      3.77089462e-12 -1.02475459e-11 8.99417520e-12 -3.57746888e-11
      9.94053624e-12 -2.21645098e-11 -1.70473564e-12 1.44581621e-11
      -9.87696643e-12 8.56373219e-12 2.51403824e-12 4.23074284e-11
      1.52297207e-12 -1.06305061e-13 2.97166527e-11 -3.79742288e-12
      3.91013125e-11 3.03133213e-11 -1.04195567e-11 1.52207778e-11
      3.57189486e-11 -6.30487546e-12 1.53444358e-11 1.60199696e-12
      1.76608259e-11 1.86303338e-12 -1.59796829e-11 3.30618102e-11
      4.46320897e-11 -4.99057523e-12 -3.49339897e-11 7.13460801e-12
      3.33715390e-12 2.07846275e-11 -1.91478669e-12 -3.20846865e-12
      3.63872370e-11 6.63409735e-12 3.79536472e-11 2.65828527e-12
      4.91632811e-11 5.54488330e-11 3.74652843e-11 -2.69707195e-12
      8.32230465e-12 2.92152478e-12 -3.80311095e-11 1.21991774e-11
      -2.31622464e-11 -8.89119594e-12 -2.14260970e-11 -1.23956800e-11
      1.00622731e-11 -5.17431497e-12 -3.01463498e-12 -1.42975831e-11
      1.29461017e-11 -1.80563689e-11 -5.75840035e-11 -2.79400895e-11
      1.22395288e-11 -3.68436046e-11 -1.27766010e-11 2.88861123e-11
      -2.56321804e-11 -2.64571212e-11 -4.66423671e-11 -4.49996429e-11
      -4.80854384e-11 -2.46362600e-11 1.21546462e-11 -3.84194673e-12
      -2.91017262e-11 -8.08416094e-12 5.99435215e-12 -1.74590307e-11
      1.48230404e-11 1.73927747e-11 -2.60118272e-12 -1.25868413e-11
      -2.59437489e-11 -3.91605533e-11 -6.84000287e-11 -3.34274448e-11
      -4.54432152e-11 1.46189560e-12 -3.59762636e-11 -3.95162306e-11
      -1.35351010e-11 -5.92008083e-12 3.18687156e-12 1.55855936e-11
      1.89263154e-11 -1.28684268e-11 4.67172568e-12 -1.16533259e-11
      -2.09646189e-11 1.43127689e-11 4.55793302e-12 6.52911059e-12
      3.98055790e-11 1.10880324e-11 2.63786337e-11 -2.22748625e-11
      2.87673184e-11 8.05853734e-12 -2.90009353e-11 -1.34942344e-11
      1.46349322e-11 1.24870665e-12 2.66272056e-11 -9.36160784e-12
      4.86374222e-12 3.18695868e-11 1.05591805e-12 -7.46410832e-12
      -1.34845789e-11 2.80503034e-11 -4.32562042e-11 -2.36530344e-11
      3.07843612e-11 -4.80008307e-12 1.66488091e-11 2.20732512e-11
      -3.67613370e-11 -1.31790195e-11 6.56634198e-13 -5.01748261e-11
      1.54021726e-11 7.95933076e-14 9.53296903e-13 -1.87286449e-12
      -1.48167121e-11 -1.56119111e-11 -1.62477375e-11 2.09764966e-11
      1.23730735e-12 8.73029427e-12 6.05509187e-13 5.16502292e-12
      2.47956863e-11 1.81882027e-11 -5.35883143e-12 -7.57039050e-12
      -8.15256109e-12 7.35542616e-12 3.46963153e-11 -1.44865786e-11
      3.89777516e-11 2.30085794e-11 6.20414093e-12 -1.64862447e-11
      2.27416068e-12 1.37747452e-11 1.19123253e-11 -1.10246352e-11
      1.61293635e-11 2.93371022e-11 8.81740427e-13 2.28505447e-13
      -2.05670776e-11 -7.08838674e-12 -3.26741342e-11 -5.25278675e-11
      -6.84450968e-11 -8.79806714e-11 -5.07081321e-11 -1.63328327e-11
      1.58629984e-11 -6.31348663e-12 1.34263460e-11 -4.00975694e-12
      -7.05673931e-12 -2.54934546e-11 -2.89128894e-11 -1.78251563e-11
      -1.91543569e-11 2.72600831e-11 -1.57077008e-11 -3.53657624e-11
      -2.32307056e-11 -5.33604133e-11 4.60916591e-12 -5.17123566e-11
      -8.07572204e-11 -1.33727291e-11 2.73220856e-11 -9.80890369e-12
      -6.24880772e-11 1.62730662e-11 -6.23428436e-12 -3.21908784e-11
      -6.35369535e-11 -4.58916030e-11 -4.49911844e-11 -2.33593873e-12
      1.79444584e-11 1.21083994e-11 2.85826744e-11 -6.00628991e-11
      5.62717303e-11 -1.47022203e-11 2.28911265e-11 -1.98424749e-11
      -1.41868323e-11 3.96412625e-11 -8.28969879e-12 -9.91021241e-12
      -4.09216203e-11 1.75729292e-11 -2.71054481e-11 6.39136183e-12
      1.80850820e-11 -4.55186687e-11 2.58910740e-11 4.27792697e-11
      -1.69386120e-11 2.18683925e-11 7.54009841e-15 1.03998416e-11
      -9.93012356e-12 6.12937002e-12 3.18960288e-12 2.13740275e-11
      -3.78017019e-12 1.63732621e-11 4.11483417e-11 4.85364839e-11
      1.65053457e-11 2.98386489e-12 -7.15071665e-12 2.07539368e-11
      -1.09418108e-11 -1.56329828e-11 -1.17740245e-11 -1.25105883e-12
      2.94901881e-11 1.09691102e-11 -2.94342502e-11 2.12432849e-11
      1.79250555e-11 -8.35676840e-12 1.04272537e-11 -1.58516256e-11
      -3.67734142e-12 -1.24047482e-11 -2.12171322e-11 1.91731657e-12
      -2.70987989e-11 2.91862159e-11 4.00391005e-11 -3.39405726e-11
      -1.97997365e-11 1.01715199e-11 2.66392897e-11 -2.42485927e-11
      3.64169632e-12 2.44416275e-11 -1.13466771e-11 -1.29738000e-11
      -3.38063189e-11 -1.13023297e-11 -7.64702711e-12 -2.87506685e-11
      -3.05877719e-12 2.53112323e-11 5.01342501e-12 -5.50027688e-12
      1.72105507e-11 -1.36860477e-12 -6.27412228e-12 3.10115059e-11
      1.27446578e-11 -6.00518246e-12 -4.10375692e-11 3.37090703e-11
      -1.72655067e-11 1.29121470e-11 -1.84946797e-11 -2.43013786e-11
      -2.07125272e-11 -8.01798211e-11 -2.44177421e-11 -6.93666791e-11
      2.68947694e-11 -2.04035105e-11 -3.81864228e-11 6.61284439e-12
      -4.72142950e-11 -3.59603042e-11 -2.01593239e-11 1.26367892e-11
      1.67820341e-11 5.27866943e-12 -1.26521354e-11 1.52246889e-12
      -3.45602783e-11 -3.33404866e-11 -5.49790422e-11 -1.00220986e-11
      -2.95295281e-11 -1.29673147e-11 -4.56781453e-11 -3.84584448e-11
      2.90249231e-11 2.19579303e-11 1.28754050e-13 6.94449489e-12
      4.70280282e-12 -3.02524360e-11 5.43149336e-12 -5.11329382e-11
      -1.74753007e-11 -1.86983293e-11 -1.52681617e-11 3.00973690e-11
      5.84909898e-12 -1.29053070e-11 8.25315944e-12 9.73433920e-12
      9.69790394e-12 6.06954428e-13 -1.67519002e-11 1.37974241e-11
      2.59764450e-11 7.75878927e-12 -6.22407117e-12 1.21057010e-11
      -6.75971085e-12 -1.67225504e-11 1.85689259e-11 -1.44190450e-11
      -1.77374278e-11 -2.48186055e-11 2.63125112e-12 2.86141492e-11
      1.15574095e-11 8.07757854e-12 1.39377416e-11 2.03163597e-11
      6.25116322e-12 8.61824934e-12 1.37446296e-11 7.98004241e-13
      2.37114516e-12 2.86112488e-11 -8.15201812e-12 -4.30563311e-12
      2.56076028e-11 9.87224083e-13 -1.34296350e-11 -1.91933518e-11
      -1.57473288e-11 4.33080611e-12 -1.14684815e-11 -6.06199119e-12
      -4.19736954e-11 -3.18171856e-12 -3.50569747e-11 -1.77223219e-11
      5.10843494e-12 -1.89978033e-11 -1.62177494e-11 3.13959449e-11
      1.55257925e-12 4.37452227e-11 -9.72482836e-13 -8.00635513e-12
      -1.68304988e-11 2.10121018e-11 9.39951936e-12 9.31910538e-12
      4.02571693e-13 3.13791666e-11 2.42228492e-13 1.20624457e-11
      -1.72191983e-11 8.01694735e-12 1.16629944e-11 1.16040597e-11
      5.49128364e-12 -3.91224692e-11 -3.38755274e-11 -7.86449812e-12
      1.03870497e-11 -1.24294889e-11 -1.40711418e-11 3.42110090e-11
      -1.31898008e-11 -1.18944654e-11 -6.67781871e-11 -5.81601885e-11
      -5.27592588e-11 -2.80699821e-11 -2.11250253e-11 -5.75728527e-12
      1.09445829e-11 -1.93695216e-11 -1.72003748e-11 -1.59580543e-11
      3.40117799e-12 -1.42339135e-11 -1.74684507e-12 -4.20328052e-12
      1.20998203e-11 -1.05949069e-11 -2.14757222e-11 -3.13038866e-11
      5.40667381e-12 -3.86813810e-11 1.90496941e-11 -2.95512989e-11
      5.21478694e-12 -2.51274487e-11 2.54343352e-11 1.55711607e-11
      3.80110943e-11 2.33409802e-11 -1.45606600e-11 -8.17937818e-12
      -1.37587858e-11 -2.28101028e-11 -3.82390716e-11 -2.68864930e-11
      1.52094136e-11 -8.80290892e-12 6.09911167e-12 -1.79880642e-11
      -3.67955180e-11 -2.56410691e-11 -3.86585243e-11 -8.64333605e-12
      1.34033670e-11 -1.10461432e-11 -1.25335436e-11 -3.01874463e-11
      -5.36059946e-11 -5.18023992e-11 -4.13227126e-11 -5.18332356e-11
      -4.20751940e-11 -2.23674274e-11 1.13586918e-11 -7.36114468e-12
      -4.33543063e-11 -2.11487199e-11 5.42168263e-12 -5.94590835e-11
      1.00458088e-11 6.49536067e-12 -1.97225413e-11 -3.10398270e-11
      1.74984124e-11 -2.16244817e-11 1.24157811e-11 -3.92579285e-12
      -3.16182566e-11 -5.70457119e-11 -5.27916183e-11 -4.80936367e-11
      -3.70591717e-11 1.30898695e-11 -3.04953632e-11 -1.58130488e-11
      -2.33326249e-12 -2.72019646e-11 -5.25193326e-11 -1.44569079e-11
      2.57375263e-12 -3.13658093e-11 -2.72813178e-11 -1.80144719e-11
      -3.30702098e-11 -4.03738605e-11 -4.94303695e-11 -3.86664797e-11
      -5.16408062e-11 -3.22787734e-11 -1.03994226e-11 4.59494118e-12
      -6.46247361e-11 -3.52205105e-11 -1.56277352e-11 -5.08957980e-11
      2.41560747e-11 -2.77677499e-11 -2.79018475e-11 -2.65950855e-11
      -5.69341015e-12 -6.55253490e-11 -4.17208768e-11 -2.77175487e-11
      -1.18718663e-11 -1.46894406e-11 -2.33802405e-11 -6.47526032e-13
      -8.22974241e-12 1.02531065e-11 -1.82559558e-11 -2.34285560e-11
      5.44919353e-11 1.24374192e-11 1.18044316e-11 4.66871550e-12
      9.37169439e-12 1.69752255e-12 6.27022219e-12 5.00496389e-12
      -7.08986906e-12 -1.62618738e-11 1.10962585e-11 -2.06749270e-11
      -5.96217589e-11 1.96785158e-11 5.56459176e-13 8.18495532e-12
      1.24003793e-11 1.33678116e-12 -1.97092186e-11 -6.33179481e-11
      -2.01858981e-11 8.26918482e-12 -3.93748055e-11 5.92751412e-12
      2.14751689e-11 -3.47568467e-11 -1.23191362e-11 -9.81204527e-12
      1.46824324e-11 1.27111169e-11 2.36827224e-11 6.52899653e-12
      -9.33140804e-12 4.08691310e-12 8.62517609e-12 -2.76098987e-11
      -1.24608960e-11 4.15201857e-12 3.00411918e-11 1.84549077e-11
      -3.93532880e-11 2.45492585e-11 -1.20287122e-11 1.83712377e-12
      2.35551318e-11 -3.47672446e-11 1.63991824e-11 2.65126532e-11
      -3.92541520e-11 9.39522852e-12 -6.57311098e-12 1.43598536e-11
      1.86640634e-12 5.16050007e-12 -1.42678421e-11 -1.96356750e-11
      -6.70578697e-12 -1.51481659e-12 -3.89056148e-11 2.02060382e-11
      -2.87781032e-11 -2.72109592e-11 2.17928297e-11 -5.43388771e-12
      -1.80819457e-11 -1.16440997e-11 2.05431089e-11 -3.77160282e-11
      7.68269129e-12 1.31326321e-11 1.33943906e-11 9.30050481e-12
      -1.15477680e-11 -4.57284297e-12 1.24024974e-11 4.78288416e-12
      -6.57391676e-12 -3.91791287e-11 -7.64673654e-12 1.76657421e-11
      -3.07521057e-11 1.76867045e-11 3.40453533e-11 -8.19264188e-12
      -4.53948240e-13 -5.25850717e-12 -1.42643345e-11 1.07591054e-11
      -2.98008146e-11 2.54243089e-12 -1.30773105e-12 -2.14954595e-12
      2.51504395e-12 1.79974317e-11 3.16802105e-11 4.33373060e-11
      2.21405394e-11 -2.74183003e-11 -4.51482705e-11 1.96836627e-11
      2.49229075e-11 -9.53890179e-13 -4.38705045e-11 -2.77040196e-12
      -3.51297680e-12 4.41234722e-12 2.95519650e-11 2.11796414e-11
      -2.41668387e-11 -3.72074463e-12 -5.85357023e-12 3.31336261e-12
      -1.95536504e-11 -2.41474028e-11 3.69788401e-11 3.49350583e-12
      -3.07283816e-11 1.17210026e-11 1.48210350e-11 -5.15820676e-12
      7.94819505e-12 1.07571868e-11 2.87463144e-11 3.55315360e-11
      1.22478362e-12 1.31906300e-11 5.00778455e-12 2.83610305e-11
      2.49532651e-11 1.83295878e-11 2.43246517e-11 -1.42003284e-11
      -1.64972497e-11 -7.23794358e-11 -1.40894648e-11 5.33976986e-12
      2.08906538e-11 -1.25044966e-11 1.68749736e-11 -2.98532661e-12
      6.34633578e-12 6.74083619e-12 3.00556476e-12 -6.11777773e-12
      1.53798987e-11 1.04298506e-11 1.85077335e-11 -2.54178744e-11
      5.80455649e-11 1.48265029e-11 7.70758023e-12 -3.99872540e-12
      3.12680958e-11 -1.47307756e-11 1.54622860e-11 6.27600662e-12
      9.22706876e-12 1.10137307e-11 -7.45905941e-12 -7.89680300e-12
      -2.30550518e-12 -2.03944726e-11 1.31896074e-11 -1.67990673e-11
      -5.01143051e-12 -8.71808268e-12 4.63890298e-12 1.40050159e-11
      -2.38623375e-11 -3.02823669e-11 -5.10714665e-11 1.30809235e-11
      7.07431813e-12 -1.04740825e-11 -2.28514586e-11 -1.92540654e-11
      8.12297625e-12 3.13377064e-13 -3.97337580e-11 -2.85233534e-12
      1.81060045e-11 -1.78639378e-11 -1.24547655e-11 3.32227232e-11
      3.48609024e-11 4.52140408e-11 1.91616827e-11 -1.06152474e-11
      4.03676485e-12 -4.96371381e-11 -2.32817307e-11 -5.03370366e-11
      5.59385220e-12 8.63882143e-12 -2.81326316e-11 -2.56321370e-11
      -1.81878713e-11 3.68847175e-11 2.40661169e-13 4.75510473e-12
      -1.32633349e-11 -1.40027367e-12 1.17679252e-11 -1.48276773e-11
      2.20303654e-11 -1.15721720e-11 2.91180552e-11 2.60083777e-11
      -1.06969902e-12 -1.38577292e-11 -5.69856445e-12 8.62286111e-12
      -9.24107232e-12 -3.21008359e-11 1.02121762e-12 -3.75234262e-12
      2.51314924e-11 3.80490292e-11 2.29335110e-11 -1.25259195e-11
      3.71809215e-11 1.45619159e-11 9.60375182e-12 -1.07781986e-11
      2.78001615e-11 -3.66869660e-11 3.61726924e-12 2.60545422e-11
      -3.00563475e-13 -5.42824509e-12 1.70584571e-11 -3.46360336e-11
      2.39579710e-11 -1.24724883e-11 4.49400673e-12 -7.53981079e-12
      1.77779336e-11 8.02446998e-12 -8.94423945e-12 -1.35907275e-11
      -1.62261263e-11 1.33581113e-12 2.25402318e-11 -8.72182448e-12
      2.96047804e-11 1.84348955e-12 -7.77326641e-12 2.51249230e-11
      -1.83226646e-11 4.81256094e-12 3.38022665e-11 3.72805675e-11
      2.18203268e-11 -1.69688621e-11 1.96232839e-11 -3.40524865e-11
      -5.54546470e-12 2.19170029e-11 -1.24672852e-12 -1.36698920e-12
      -1.71700310e-11 1.85093585e-12 6.85938448e-13 -3.80190020e-12
      -2.62740923e-11 1.53049726e-11 2.60817149e-11 -3.10092793e-12
      4.00942821e-12 -1.52436327e-11 2.18623609e-11 1.26486877e-11</_></support_vectors>
  <decision_functions>
    <_>
      <sv_count>1</sv_count>
      <rho>-8.7485674260534552e-10</rho>
      <alpha>
        1.</alpha>
      <index>
        0</index></_></decision_functions></my_svm>
</opencv_storage>
