<?xml version="1.0"?>
<opencv_storage>
<my_svm type_id="opencv-ml-svm">
  <svm_type>C_SVC</svm_type>
  <kernel><type>LINEAR</type></kernel>
  <C>2.9103800000000001e-11</C>
  <term_criteria><epsilon>1.1920928955078125e-07</epsilon>
    <iterations>1000</iterations></term_criteria>
  <var_all>1296</var_all>
  <var_count>1296</var_count>
  <class_count>2</class_count>
  <class_labels type_id="opencv-matrix">
    <rows>1</rows>
    <cols>2</cols>
    <dt>i</dt>
    <data>
      -1 1</data></class_labels>
  <sv_total>1</sv_total>
  <support_vectors>
    <_>
      1.28283599e-11 -7.24507607e-12 2.18913672e-11 4.92207403e-12
      -8.44972009e-12 1.05842418e-11 1.14883962e-11 7.82702288e-12
      1.66493833e-11 -1.24631729e-11 4.56723825e-11 -1.41275767e-11
      -2.47873718e-11 -4.55475197e-12 -1.85476495e-11 2.16634818e-11
      -2.84612143e-11 1.49624011e-11 -1.83976879e-11 1.00644458e-11
      3.12462070e-11 -8.96228317e-12 -3.60982143e-12 1.04165756e-11
      2.10058186e-11 -3.30822973e-11 -2.62464529e-12 2.60704587e-12
      -8.29727606e-12 2.44189044e-11 1.00403730e-11 4.16669059e-13
      4.16014402e-12 1.00355280e-11 -1.31601032e-11 -3.23750957e-11
      -8.54995415e-12 1.54562890e-11 -6.52232435e-12 -9.52617325e-12
      8.15473297e-12 2.22447859e-11 1.75194512e-11 8.37656680e-12
      -2.23736724e-11 -6.53385982e-12 4.47537970e-12 7.14645053e-12
      -1.12506072e-11 1.71568783e-11 -1.89756249e-11 -3.28156144e-12
      8.65232278e-12 2.78065262e-11 6.44058678e-12 -1.68507413e-11
      3.27444981e-11 -1.13914780e-11 -1.84213790e-11 7.14676885e-12
      1.83116005e-11 -5.55968639e-12 2.14709344e-11 3.97402493e-11
      -1.17182652e-11 3.53174677e-11 1.39138232e-11 1.88693280e-11
      9.58866927e-12 -4.86921918e-12 -1.24586539e-11 2.08844227e-11
      9.55142996e-12 -1.63529676e-11 -2.37204856e-11 3.92977040e-11
      3.70024289e-11 -2.56848483e-11 3.47327722e-11 1.41583116e-13
      -2.23511921e-11 2.52734118e-11 -1.09367571e-12 1.42487888e-11
      1.48849943e-11 2.19020808e-11 3.01767500e-11 3.96507722e-11
      3.17589423e-12 5.40590107e-11 1.31002388e-11 1.08638090e-11
      4.48774420e-11 -2.56609439e-11 -4.73102044e-11 7.96088803e-12
      1.54977628e-11 5.54890474e-11 2.49142395e-12 -1.30880844e-11
      3.45634567e-12 3.56963660e-11 -2.30943285e-11 -2.18478013e-11
      -1.31168626e-11 1.70947232e-11 1.61207083e-12 -1.97694465e-11
      1.27844081e-11 -1.35236451e-12 -1.62107185e-13 1.28373787e-11
      -4.37274132e-12 3.25709286e-11 8.27364739e-12 2.73901492e-11
      -3.86831019e-12 1.18061472e-11 -3.45153350e-11 -6.35823902e-12
      -1.72205184e-11 2.26193560e-11 -1.53565442e-12 -1.56056817e-11
      -1.64474198e-11 -1.26000339e-11 2.94491966e-11 1.77265633e-11
      9.61072151e-13 1.03405511e-12 -3.08023225e-11 3.48916104e-11
      4.37269561e-11 -2.05519109e-12 -8.00231149e-12 -1.03774931e-11
      3.64974327e-13 1.35574720e-11 -1.59120356e-11 -6.53883284e-12
      -6.30659197e-12 -5.92661597e-12 -3.29280457e-11 -6.40344201e-12
      2.45637798e-11 1.84751624e-11 1.70371928e-11 -1.22777075e-11
      3.84796847e-11 1.28723785e-11 4.12039586e-12 4.81138870e-12
      -2.24387783e-12 -1.17055749e-11 4.69455334e-12 7.93881714e-12
      -1.41832032e-11 7.27132460e-12 -1.87297964e-12 -1.67325344e-12
      -2.02082066e-11 -7.29049199e-12 3.19645109e-11 2.38760175e-11
      8.38384830e-12 1.52011650e-11 8.25350096e-13 6.97752674e-13
      -1.27962398e-11 6.01900734e-12 3.04013910e-12 8.85498272e-12
      7.94636579e-12 -5.85454298e-12 -3.82851251e-11 -3.42573955e-11
      -6.91140157e-12 3.81013276e-11 -6.73817382e-12 -1.38659253e-13
      -2.63981215e-11 -8.52709830e-12 -2.97027073e-12 -1.93339632e-11
      2.98986981e-11 2.79470631e-11 1.84076504e-11 5.82627349e-12
      -2.08250639e-11 -6.45406688e-12 -3.64539128e-11 -9.97080543e-12
      -1.75022132e-11 2.10499413e-11 6.05815918e-12 -3.11565843e-11
      -5.89645763e-11 -1.35331052e-11 1.55061190e-11 -4.20799073e-12
      -6.43083937e-12 4.59921060e-11 8.41316686e-12 2.72260790e-11
      8.27527456e-12 -8.83822258e-13 1.31113974e-11 1.28931718e-11
      1.23026346e-11 1.72416595e-11 -1.45242906e-11 -1.82027032e-11
      -1.43118590e-11 1.37513447e-11 -1.70250342e-11 3.38498088e-12
      -1.53253781e-11 6.04524113e-12 -2.42060660e-11 -7.86780276e-12
      2.26093953e-11 2.88842457e-11 2.80621342e-11 -4.80563783e-11
      1.68868235e-11 1.07992530e-11 5.60464609e-12 -2.45575209e-11
      -1.32890339e-11 9.88566694e-12 -1.62856083e-11 6.60568171e-13
      8.55178775e-12 -6.54953479e-12 -1.59769264e-11 3.52986564e-11
      1.52192842e-11 3.10301229e-11 -1.58648164e-11 8.06271196e-12
      2.27601063e-11 3.47227108e-11 -2.05616132e-11 1.14308597e-11
      1.33222530e-11 2.84798504e-11 -7.18907833e-12 -7.04258971e-13
      -1.57843929e-11 7.67691639e-12 -6.24022223e-11 -1.54379912e-11
      -3.70141878e-13 1.03097053e-11 -1.37620184e-11 2.65064550e-11
      -7.42417152e-12 -1.31582679e-11 5.64424072e-12 -9.66749684e-12
      2.09024742e-11 -1.05310162e-11 -9.54294282e-12 -2.48151135e-11
      3.31592436e-12 -5.12599186e-13 -4.56069800e-11 -5.49290214e-12
      -2.05869458e-12 2.23307345e-11 1.28167711e-11 -1.86490268e-11
      -5.39565545e-11 8.69444360e-12 -2.53995366e-11 1.53875628e-11
      2.15688665e-11 1.72692537e-11 -2.41397596e-11 -5.55520456e-11
      -5.31019187e-11 -5.81781706e-11 -2.55445248e-11 2.74081625e-12
      8.61951569e-12 -2.87853803e-11 -1.46791780e-11 -2.74155646e-11
      -4.74179272e-11 -4.47045213e-11 -3.53756850e-11 -3.73955311e-11
      -2.51161505e-11 6.56143716e-12 -6.77493174e-12 4.84907739e-11
      -4.88116735e-11 -6.61390664e-11 -5.68504827e-11 -1.57257471e-11
      -4.23123819e-12 -5.34377967e-12 -4.20029012e-11 -3.81382460e-11
      -2.02210245e-11 -2.65112116e-11 -1.87477377e-11 -5.64158199e-11
      -2.87253884e-11 3.77560240e-11 -2.35128566e-11 -1.95770605e-11
      3.50801783e-11 -2.80839952e-11 -2.16185368e-11 -2.35466143e-11
      -2.00889392e-11 -3.15479197e-12 -1.76476073e-11 3.00249825e-11
      -2.50709193e-11 5.00037251e-12 -6.43874815e-11 -3.32896800e-11
      -2.58254581e-11 -2.64866132e-11 -4.14175768e-12 -2.15129945e-11
      -3.12910184e-11 -2.44564612e-11 5.57399482e-12 -3.40716830e-11
      -7.47232970e-11 -4.41674856e-11 -4.54081148e-11 -2.16209342e-11
      -1.60849979e-11 -6.41367211e-12 -2.49287587e-11 -6.56407220e-11
      -7.12763251e-11 -5.41500803e-11 9.55290274e-12 -2.33272473e-12
      -3.27525030e-12 8.12171250e-12 3.87198433e-11 -9.58353535e-12
      1.43524186e-11 -1.96158610e-11 2.17229164e-12 -2.15177286e-11
      -6.14548733e-12 -2.67379782e-12 -4.52798944e-11 -1.02312343e-11
      -2.44900732e-11 -2.40716821e-11 -3.23142901e-11 -5.53365791e-11
      7.41232856e-12 2.59337430e-12 -1.21402046e-11 1.66171053e-11
      -1.80391969e-11 -2.81758731e-11 -1.01246581e-11 -3.45810082e-11
      -1.69368373e-11 -3.71540611e-11 -1.10549851e-11 1.59107120e-11
      2.64141729e-11 3.71366479e-11 4.79069805e-11 -4.37594544e-11
      -3.88829940e-12 7.32540504e-12 -6.41172705e-12 -3.80281848e-11
      -2.18366037e-11 -1.94233744e-11 1.04916520e-12 -1.79268007e-11
      -3.27313940e-11 -2.50745189e-11 -1.30621442e-11 -2.10647957e-11
      5.38210839e-12 -8.14697962e-12 2.32685263e-13 -4.25974186e-11
      -1.18945912e-11 1.51297343e-11 1.74482200e-11 2.32890291e-12
      4.24522657e-12 -7.92764032e-12 -5.47550330e-12 -3.87262063e-11
      -1.23899450e-11 1.07843769e-11 3.79615193e-11 1.60742166e-11
      4.21687815e-12 -2.59919842e-12 2.02969360e-11 1.03622601e-12
      -7.32201192e-12 7.19530772e-13 2.02555143e-11 3.63187466e-11
      -4.13493823e-11 2.60038640e-11 1.45427550e-11 1.26050793e-11
      3.45346043e-11 4.07701390e-12 -9.43799899e-12 -1.79270938e-11
      -9.30247958e-13 5.83918851e-12 9.08115510e-12 1.56318309e-11
      1.53546949e-11 1.97155035e-11 -2.12528883e-11 -3.41126801e-12
      5.54370525e-12 1.46738750e-11 -1.43682429e-12 3.90424151e-11
      1.36757723e-11 1.52069034e-11 -1.22218537e-11 -1.64395806e-11
      4.07377777e-12 -2.22254749e-11 1.01365661e-11 9.08842359e-12
      1.13187766e-11 -3.04009699e-11 -2.64777089e-11 -2.20144892e-11
      -3.62954838e-13 1.81372244e-11 6.35091719e-12 -2.65725133e-11
      -2.44731267e-11 -6.72698286e-11 -1.27706014e-11 -1.83178056e-11
      2.42439090e-11 3.09742141e-12 4.78906012e-11 -6.93990048e-12
      1.62525497e-11 -9.27664803e-12 1.24817543e-11 1.04508832e-11
      -2.64570536e-11 -3.01944338e-11 -1.01049741e-11 -1.87519115e-11
      -1.61217983e-11 -3.96224763e-12 -2.58904096e-11 -6.67528966e-12
      -1.06857804e-11 2.74131724e-11 -6.27005947e-11 -3.87322535e-11
      -2.03723132e-11 -1.82655661e-11 -1.83371113e-11 -3.61944537e-11
      -1.08121550e-11 -8.39387240e-12 -4.89031489e-11 -7.40370473e-11
      -4.01662627e-11 1.18362421e-11 -3.65081715e-11 -2.55895912e-12
      -3.08909495e-11 -1.33378612e-11 -1.78464500e-11 2.30488528e-11
      -6.14461121e-11 -8.99996397e-11 -6.75821829e-11 -4.40525082e-11
      -3.57664939e-11 -3.99349200e-11 1.92452373e-11 -1.52029830e-11
      -7.24243799e-12 -1.58423569e-11 -6.96147029e-11 -1.49924309e-11
      -7.73057454e-13 3.88386285e-12 2.59002368e-11 6.90013888e-12
      -1.22740759e-11 1.41371645e-11 6.13837453e-12 -4.72122445e-11
      7.39601468e-13 2.85289344e-11 6.32563724e-11 1.44405902e-11
      -1.52721776e-11 4.23326096e-11 -2.66952476e-12 1.30105570e-11
      6.76860979e-14 1.70619855e-11 -2.83988492e-11 -3.77695791e-12
      1.94835450e-11 -1.15865303e-11 8.00912993e-13 -1.34625705e-11
      -1.34400642e-11 -8.45117813e-12 -1.70799087e-11 -8.04828513e-12
      2.51893523e-11 -2.39744487e-12 -1.34483744e-12 1.71603669e-11
      -1.54883387e-12 8.39732624e-12 1.95747585e-11 3.59196665e-11
      -3.85203466e-11 3.54591703e-12 8.48608163e-12 1.10439973e-11
      1.82704754e-11 2.63237973e-11 1.76865970e-11 2.19454715e-11
      2.26562796e-11 -1.86719108e-12 2.39012300e-11 7.93302403e-12
      -3.49613394e-12 2.75561830e-11 1.73297765e-11 -2.30916545e-12
      2.46344490e-11 1.72912379e-11 -2.79127121e-11 -1.24521747e-11
      2.50560926e-11 -5.69195624e-13 -1.26608481e-11 1.25751761e-11
      3.26701582e-11 -2.51216452e-12 1.98623652e-11 -8.21783006e-12
      8.75975403e-11 4.51883878e-11 3.15632798e-11 -1.09303434e-11
      -1.26535405e-11 -1.84115830e-11 -3.13839614e-11 5.31574923e-11
      -1.71318862e-12 9.35602117e-12 -2.46541784e-12 -2.66288241e-11
      2.61974661e-11 -7.18917547e-12 -4.59364480e-13 -2.34716899e-11
      3.31840666e-11 -6.48160969e-11 -6.73934797e-11 -1.49139763e-11
      1.08983803e-11 -2.98976967e-12 -3.52566899e-11 1.95340220e-11
      1.79937211e-11 5.35943902e-12 -6.14881271e-11 -6.93288205e-11
      -3.66985713e-11 -1.34245809e-11 2.24763974e-13 4.85052536e-12
      -3.16786007e-11 -2.43012589e-11 1.69436806e-12 6.02314336e-12
      3.01772843e-11 2.50099056e-11 3.07439942e-11 -2.97513056e-11
      -2.69540432e-11 -2.57034359e-11 -5.91397764e-11 -5.55829757e-11
      -6.18251284e-11 -1.73958955e-11 -3.46738298e-11 -4.83417993e-11
      -2.26376487e-11 -7.12418232e-12 -5.20223274e-12 -9.06111384e-12
      3.58021772e-11 -5.32565474e-13 5.66059829e-12 -9.12579040e-12
      -4.88165237e-12 -9.19624620e-13 -9.15128130e-12 -4.62253890e-12
      2.62648115e-11 -1.11344510e-11 1.88796092e-12 -1.98080927e-11
      -1.73024199e-11 1.34834756e-11 1.72214812e-11 1.70477001e-11
      1.93092608e-11 -1.49278489e-11 1.37867712e-12 -1.06881110e-11
      6.10191238e-12 5.16342386e-11 2.57528582e-11 1.04279797e-11
      1.51491428e-12 9.67717052e-12 8.74314596e-12 1.75600593e-11
      8.30899845e-12 1.29143796e-11 -3.25144980e-11 -3.87223587e-12
      -3.01953393e-11 1.28115123e-11 2.16410206e-11 1.24866324e-11
      4.62819540e-11 -4.34664457e-11 8.01644081e-12 4.52225323e-12
      1.39983164e-11 -3.43106932e-11 -1.68012427e-11 1.86844862e-11
      -4.85193396e-12 2.68646164e-11 -1.05885743e-11 7.89055106e-12
      -8.38646166e-12 -2.70767679e-11 4.39429905e-13 -5.37991570e-12
      -7.78669490e-12 2.71657748e-11 2.38242186e-11 -6.76106436e-12
      1.98695695e-11 1.52782682e-11 -1.22988746e-11 -1.64379343e-11
      7.42218700e-12 -3.03966444e-12 -1.53358992e-11 -4.56102066e-11
      1.55600758e-11 1.03319506e-11 -1.77409892e-11 4.78179020e-13
      1.08152506e-11 -7.22590065e-13 -1.91678999e-11 -5.81310035e-11
      -9.20211997e-12 -6.49677048e-11 -6.10081707e-11 -7.46331035e-12
      -2.19550853e-11 -9.01791836e-12 1.95828076e-12 -2.15790996e-11
      8.57622133e-12 -6.67968935e-12 -2.14369598e-11 -1.41857177e-11
      -2.74087714e-11 -4.78361933e-11 -3.58076624e-11 -2.30064977e-11
      -1.13667201e-11 -5.46948285e-11 -1.20103953e-11 -3.12773349e-11
      -7.12077480e-11 -4.16726792e-11 -1.82284639e-11 -3.17034658e-12
      -7.01480957e-11 -7.90720874e-12 -1.10830822e-12 -1.92681530e-11
      -5.56448637e-11 -7.76965298e-11 -1.00172726e-11 -2.25222809e-11
      -2.95767902e-12 -3.60905576e-11 4.16539685e-11 -2.77167213e-11
      5.53843048e-11 -5.66229789e-12 1.62691041e-11 6.31306747e-13
      -1.12236340e-11 3.46843144e-11 -2.13696057e-11 3.03512250e-11
      -5.09999768e-12 5.32680532e-11 -5.17556796e-11 3.17740695e-11
      2.39513930e-11 -1.37924646e-11 4.80488462e-11 1.02216855e-11
      -8.80397578e-12 6.07227116e-12 -1.49588224e-11 3.63096671e-11
      -1.29896387e-12 4.34679593e-12 -7.93726283e-12 3.72956215e-11
      2.09855414e-11 -1.68377569e-11 1.22510335e-11 7.66378905e-11
      2.49005948e-13 -9.52858018e-12 3.64636316e-12 4.81920510e-11
      -1.49352787e-11 -3.88552614e-14 -9.22606089e-12 -2.02742007e-11
      2.92075392e-11 5.33867048e-12 7.12976856e-12 -2.28968129e-11
      -1.31038485e-12 -1.04326088e-11 1.73526193e-11 2.44018399e-11
      -6.42143240e-12 1.46629427e-11 -3.46416888e-11 -5.12123330e-11
      -1.25583042e-11 2.26700846e-11 3.64261260e-11 -3.98297159e-11
      -7.10541175e-12 3.23442488e-11 2.60772758e-11 -1.22134343e-11
      5.33393295e-12 -9.02454272e-13 -1.07504708e-11 -4.05544001e-12
      -9.55980954e-13 -3.23108276e-11 -1.53899844e-11 -6.55002514e-14
      -1.54364403e-11 -6.36863609e-12 -3.09835907e-11 1.19004069e-11
      2.27723760e-11 1.81175962e-12 2.11318723e-11 -1.53262767e-11
      1.51639014e-11 -1.30943346e-11 -1.94087368e-11 3.50743115e-11
      -2.25743590e-11 -1.17145720e-11 -2.10404211e-11 -2.67085364e-11
      -2.43400456e-11 -7.08163458e-11 3.48673434e-12 -8.97190655e-12
      5.54992554e-12 -4.50019813e-11 -1.41352676e-11 -5.28221217e-11
      -4.86953255e-11 -5.95637151e-11 -2.73455685e-11 1.28587427e-11
      3.49942401e-11 1.05869922e-11 -5.41366084e-12 2.67330637e-11
      -4.02968978e-11 -2.89986472e-11 -4.37524253e-11 -2.68606578e-11
      -3.61359449e-11 -5.10200354e-11 -4.58276854e-11 -2.13958937e-11
      -1.19354301e-11 5.98762403e-12 -2.35698145e-11 9.28386968e-12
      5.76980358e-13 -2.18356843e-11 1.84681749e-11 -1.66226182e-11
      -9.55035183e-12 2.67613893e-13 6.37549302e-12 1.81900588e-11
      1.25046683e-11 1.37365831e-11 -2.80520954e-11 2.52899958e-11
      -2.65624519e-11 9.88791731e-13 1.79375059e-12 2.97043674e-11
      3.21374559e-11 -7.23065574e-12 -7.33712310e-12 1.96541069e-12
      -1.89879935e-11 -2.57933917e-11 -1.40877362e-11 -2.06022981e-12
      -3.68914829e-11 -1.43037422e-11 -4.06797790e-11 6.17957465e-12
      -7.67719742e-12 -3.14992932e-12 2.65424783e-11 -1.45570864e-11
      1.37686269e-11 5.03967484e-12 -1.37365076e-11 -1.28422524e-11
      6.11799708e-11 5.83367165e-12 4.69288237e-12 -1.08547294e-11
      4.66378498e-12 4.67225434e-12 -2.62055117e-11 -3.48077817e-11
      -3.70582488e-11 2.09944666e-11 -1.48785966e-11 8.41012676e-12
      3.31683882e-11 -8.85927182e-12 -1.67781587e-11 -8.83809345e-12
      8.68233957e-12 -3.49419174e-11 -3.59603007e-11 2.43573408e-11
      -4.89388803e-13 -8.23228725e-12 2.47938007e-11 2.47590577e-11
      -1.75026764e-11 -2.48894984e-11 1.72991534e-11 3.66586657e-11
      1.82337357e-11 3.34087792e-11 -7.46681883e-12 -2.55004681e-11
      1.38847857e-11 3.57531669e-12 -1.32927679e-11 2.24696060e-11
      -1.25208741e-11 -4.15234340e-11 -2.27189899e-11 -2.25538685e-11
      2.45083901e-11 -4.40546211e-11 4.18038867e-12 3.32539933e-11
      -5.08058829e-12 -3.37520741e-11 -4.20926592e-11 -4.32092070e-11
      -3.26345444e-11 -4.63929589e-11 1.88452118e-11 -4.92259462e-11
      -2.66509666e-12 2.20998350e-12 -3.40800587e-12 -3.25472704e-11
      9.07457377e-13 -3.57533881e-12 8.10128874e-12 5.99912221e-12
      2.33218705e-11 -1.63665557e-11 -4.52553307e-11 -2.88929835e-11
      4.89360679e-12 -3.89376170e-11 -4.87791838e-12 -1.33102123e-11
      -3.69597096e-11 -9.61078873e-13 4.70604146e-11 -2.12147019e-11
      3.99498698e-11 -2.75153927e-11 8.43286899e-12 -2.73344021e-12
      -3.42830174e-11 -3.01903814e-11 -5.66457679e-11 -2.72969668e-11
      1.70339853e-11 -1.72666048e-11 -1.53405344e-11 -2.62864609e-11
      -2.60577098e-11 -3.05772491e-11 -4.03857468e-11 1.47974653e-11
      1.24943970e-11 -4.82497688e-11 -2.27297022e-12 -2.06162969e-11
      -5.41113890e-11 -6.71034825e-11 -5.09663180e-11 -4.41307893e-11
      -3.98779759e-11 -2.40562136e-11 -1.08294441e-11 1.08489422e-12
      -2.69116465e-11 -2.56206115e-11 8.37770131e-12 -4.10948810e-11
      6.32897163e-12 -8.67100922e-12 -2.55056358e-11 -2.53961863e-13
      8.75258113e-12 2.31951246e-11 3.76869994e-11 5.13921457e-12
      -2.52681886e-11 -7.12911466e-11 -4.23291992e-11 -2.02146980e-11
      -3.14343343e-11 9.65179933e-12 -2.95270093e-11 -2.18312712e-11
      -1.14789679e-11 -2.47665343e-11 -2.58697629e-11 -1.79688330e-11
      -2.66548051e-11 -1.51007800e-11 -6.18117233e-12 -1.37141166e-11
      -8.70803516e-12 -3.14313749e-11 -5.69996966e-11 -2.13658570e-11
      -5.81706384e-11 -5.56799815e-11 1.68285785e-11 -1.27702590e-12
      -2.56026571e-11 -6.39655898e-11 -7.43060041e-12 -3.61904222e-11
      5.27266043e-11 -4.87882304e-11 -4.60374031e-11 -1.20805648e-11
      -3.67517301e-11 -2.75669071e-11 -2.60137276e-11 -1.91379638e-11
      8.76682060e-12 -1.54201565e-11 -1.36679322e-11 -2.21940313e-11
      -2.48022575e-11 -2.24993565e-11 -4.20975700e-13 -3.61684398e-11
      2.22914621e-11 -1.36402469e-11 -2.25418694e-11 3.48066090e-11
      4.53039342e-12 -6.37604509e-12 3.77357937e-11 1.66701548e-11
      -1.65502438e-11 -3.77731700e-11 -5.98218046e-12 -2.37415420e-13
      -1.11688775e-11 2.30597624e-11 -2.31691385e-11 4.85583483e-11
      1.48865850e-11 -7.23940569e-12 -1.49858841e-11 -4.71249810e-11
      -3.94741878e-11 2.28771706e-11 -1.31409363e-11 7.76283204e-12
      -2.75147821e-11 -4.75526129e-12 1.86343354e-11 -2.63771106e-11
      6.60704130e-12 -1.81368427e-11 -9.24572745e-12 2.42032991e-11
      -1.55501809e-11 -1.15430486e-11 -3.71761302e-11 -3.85311921e-11
      -1.26253209e-11 4.07456404e-12 -3.82907291e-12 3.15614236e-11
      7.43454885e-13 -1.38924089e-11 -1.25124493e-13 1.51764712e-11
      5.81895331e-11 -2.18231370e-11 1.81762938e-11 9.80835205e-12
      -2.83427171e-11 4.83615752e-12 1.54208482e-12 1.47057765e-11
      -2.02603177e-11 3.73845677e-11 1.50326245e-11 -5.44777678e-12
      -1.57179825e-11 -2.92632030e-11 -2.38638952e-11 1.54266079e-11
      4.82275027e-12 1.10598562e-11 -9.06036877e-12 -1.30166884e-11
      -6.75545774e-14 8.04223181e-12 1.74733977e-11 -2.19307558e-11
      3.42229405e-11 3.01966503e-12 1.23544664e-11 2.65138259e-12
      2.29091641e-11 1.79267035e-11 1.04928965e-11 -1.36934752e-11
      -3.84383714e-12 -6.50845220e-12 7.84741109e-12 -6.58913635e-12
      4.54012305e-12 -2.54686879e-11 -1.53551043e-11 -1.60389445e-11
      -1.23188016e-12 -1.32779974e-12 -1.69528419e-11 -1.45706260e-11
      -2.94572838e-11 -2.84555322e-12 -5.59021926e-12 6.98716432e-12
      2.16616794e-11 1.40541164e-11 3.67506893e-11 3.79222764e-11
      -1.39021086e-11 -2.37849549e-11 -8.28710104e-12 -6.22899573e-13
      2.45737476e-11 3.00692769e-11 -1.19771068e-11 7.55848856e-12
      -1.45936666e-11 3.08109198e-11 3.65951540e-11 4.11458020e-11
      -4.21859908e-11 3.50618319e-11 -1.17922677e-11 1.97380116e-11
      1.80398676e-12 5.04821575e-12 1.70680102e-11 -1.51431923e-11
      -3.14796995e-12 2.00571816e-11 1.24727277e-11 -1.27982902e-11
      -9.34899207e-12 1.11992230e-11 -5.82716167e-12 2.68739566e-12
      -2.11555478e-11 -1.11301732e-11 -1.44437552e-11 1.88694147e-11
      4.31647426e-11 4.82618147e-11 1.44002466e-11 -7.34769103e-12
      -1.72442668e-11 -5.66744152e-11 2.62271403e-11 1.63894061e-12
      1.55423816e-11 -1.87123112e-11 2.83704761e-11 3.01493691e-11
      -2.16322877e-13 -1.11376611e-11 -1.33965443e-11 6.29082810e-12
      9.73036148e-12 2.33336232e-11 -2.38923052e-12 1.09180521e-11
      6.56610530e-11 3.37101319e-11 1.58133402e-11 -1.90020170e-11
      2.47175180e-11 -1.82889554e-12 5.11664704e-11 -4.15381965e-11
      2.21223196e-11 -2.42801109e-11 -1.49139674e-12 -2.24960784e-12
      -1.07126183e-11 2.02422367e-11 7.66726006e-12 -1.27620475e-11
      1.03261566e-11 1.03815507e-11 1.58357407e-11 1.44329418e-11
      -1.77721119e-11 -4.45715582e-11 -2.39651216e-11 -7.90739609e-12
      4.94509017e-11 -1.58425894e-11 1.16759102e-11 3.19344941e-12
      2.48217037e-11 -1.02639269e-11 -4.10616506e-11 9.56981543e-12
      -3.41002443e-12 -2.30946824e-11 4.23548089e-12 4.36444908e-11
      2.80445198e-11 3.80086379e-11 3.04247634e-11 -9.75838941e-12
      2.46121890e-11 1.04101309e-12 -5.98499115e-12 -8.45003408e-12
      -1.54269011e-11 -4.02777256e-11 9.73712517e-12 1.43716029e-11
      4.81398829e-13 -1.94912628e-11 -1.91936085e-11 3.26211905e-11
      5.65330291e-12 -3.49282951e-12 -1.34795181e-12 -4.38721455e-11
      3.13402845e-11 -5.13589865e-12 3.18586442e-11 1.41179429e-11
      3.47900909e-11 -1.72685390e-11 2.39347153e-11 -1.58064117e-11
      -3.04506871e-11 -1.32844343e-11 -3.59633191e-11 1.59214785e-12
      9.89896446e-12 2.63915816e-11 3.70032061e-11 -6.60223178e-12
      1.44561628e-11 3.28284483e-11 -2.86208730e-11 1.83661090e-11
      2.36273865e-11 -3.00610023e-11 1.06991577e-11 3.04599727e-12
      1.86587811e-11 -1.76832524e-11 5.24899950e-11 -1.37386482e-11
      -1.44170439e-11 3.91572573e-11 -1.39819562e-11 -3.18578996e-12
      9.13335922e-13 2.42283450e-11 -9.91456570e-12 -8.15963876e-12
      -1.18958142e-12 -1.43073409e-11 3.56463773e-12 -2.72059996e-11
      6.83292355e-12 -1.18812694e-11 -1.80261656e-11 7.61415150e-12
      -3.85739461e-11 5.03733470e-12 9.46464174e-12 8.06787796e-12
      -6.05695919e-12 1.67081644e-11 4.43325324e-12 -3.53752596e-12
      -1.25805191e-11 -7.85646635e-12 4.02351104e-11 -4.04760322e-11
      1.45808383e-11 -3.25102653e-11 -2.28536409e-11 2.89834944e-11
      -1.03661654e-11 5.67094427e-11 -7.30377911e-12 5.39025899e-12
      6.49103037e-12 2.20180801e-11 1.04143551e-11 7.10693743e-12</_></support_vectors>
  <decision_functions>
    <_>
      <sv_count>1</sv_count>
      <rho>-8.6133694621182144e-10</rho>
      <alpha>
        1.</alpha>
      <index>
        0</index></_></decision_functions></my_svm>
</opencv_storage>
