<?xml version="1.0"?>
<opencv_storage>
<my_svm type_id="opencv-ml-svm">
  <svm_type>C_SVC</svm_type>
  <kernel><type>LINEAR</type></kernel>
  <C>2.9103800000000001e-11</C>
  <term_criteria><epsilon>1.1920928955078125e-07</epsilon>
    <iterations>1000</iterations></term_criteria>
  <var_all>1296</var_all>
  <var_count>1296</var_count>
  <class_count>2</class_count>
  <class_labels type_id="opencv-matrix">
    <rows>1</rows>
    <cols>2</cols>
    <dt>i</dt>
    <data>
      -1 1</data></class_labels>
  <sv_total>1</sv_total>
  <support_vectors>
    <_>
      -1.06353112e-11 4.94571918e-12 1.00200152e-11 7.44244943e-12
      1.14977526e-12 9.11284329e-12 1.62051345e-11 2.26397590e-12
      1.96344135e-12 -2.05504034e-11 5.11757615e-11 7.11096633e-12
      -1.88838892e-11 3.79779853e-11 -1.79881943e-11 -1.88955136e-11
      6.89708837e-12 3.63549121e-11 3.28972197e-11 -1.72343459e-11
      9.76219886e-12 2.48507864e-11 1.23731071e-12 8.66521525e-12
      -3.01146920e-11 1.93187324e-11 2.23963313e-11 1.25830223e-11
      1.57461127e-11 4.70686996e-11 -9.92977315e-12 -1.37582992e-11
      -1.19436154e-11 -1.45355407e-12 1.37830771e-11 -3.01410112e-11
      3.76536476e-12 5.92224447e-12 1.30732074e-11 5.76685704e-12
      4.58204915e-12 4.35166521e-11 2.21894326e-11 -2.75423764e-11
      -1.78135354e-11 3.08734496e-11 2.81247053e-12 -2.44503792e-11
      1.79530505e-11 3.87691927e-11 1.44655598e-11 2.99253721e-12
      2.37877339e-11 8.13895912e-12 2.85828132e-11 5.96287212e-12
      3.55502121e-11 -3.88712257e-11 -1.76624462e-11 1.44015199e-11
      1.69804344e-11 -1.46067647e-13 1.26637867e-11 2.20831669e-11
      1.90146163e-11 2.43457355e-11 -2.90193607e-12 -1.69761219e-11
      1.02951103e-11 -8.51053440e-13 -8.30204308e-12 -1.99617892e-11
      -6.04903020e-12 -1.14079909e-11 -2.13854993e-11 1.72558235e-11
      -9.41157655e-12 9.57642993e-12 2.73312466e-11 -1.87160842e-11
      -3.59857942e-11 -3.75393119e-12 9.89251823e-12 3.16661953e-12
      -2.29916242e-11 -4.83214597e-12 9.49088377e-12 -1.72459807e-11
      -3.93077281e-12 2.53465877e-11 1.73351628e-11 -1.21465346e-11
      2.65102805e-12 -9.27908098e-12 -3.23640038e-11 1.07777233e-11
      -3.08822000e-12 2.43678844e-11 5.29010100e-11 6.13313133e-12
      2.94356553e-11 2.01831932e-12 -2.59192286e-11 -3.50494044e-11
      -2.29831930e-12 -8.00380161e-12 -1.78764087e-11 -1.77097521e-11
      2.06188070e-11 3.34485807e-11 -1.02188796e-11 -5.15710348e-12
      -1.68733326e-11 3.60537511e-12 1.28744281e-11 1.81888289e-11
      -2.22060963e-11 1.11818462e-11 -2.49079490e-11 -1.57696894e-11
      -8.90655778e-12 -1.87319535e-11 1.08869467e-11 1.45254841e-11
      1.00951044e-11 1.96930493e-11 1.78352159e-11 1.10001149e-11
      -2.87100487e-12 -1.16940719e-11 5.63003203e-12 2.16286850e-11
      2.63563060e-11 1.59502290e-11 9.76337414e-12 -9.02714535e-12
      -3.00543141e-12 -8.60742293e-12 -5.25655804e-11 -7.90228993e-12
      8.49745101e-12 -4.71654226e-12 -2.02998798e-11 1.86321809e-11
      3.10257653e-11 1.60016774e-11 1.64151557e-11 1.45096105e-11
      1.91513767e-11 3.61753162e-11 2.35554649e-11 9.79585228e-13
      1.29692828e-11 1.77459852e-11 -5.40414805e-12 -8.28832749e-12
      -3.33937543e-12 6.53107126e-12 -3.21677233e-11 -1.21495852e-11
      -2.55076238e-11 5.03194762e-13 6.15009996e-12 -4.70690327e-12
      -6.62972888e-12 -8.33779920e-12 -2.31312174e-11 6.26754941e-12
      -6.13866190e-14 6.83715974e-12 4.01406373e-11 7.84307168e-12
      -1.02311545e-11 2.34017805e-11 1.28752972e-11 -4.09686139e-11
      -6.22093956e-12 -8.34183590e-12 8.50580728e-14 7.83802363e-12
      2.09302003e-11 -1.13803793e-11 -1.23899441e-11 -2.49193270e-11
      2.16607236e-11 3.68469699e-11 3.02721806e-11 -4.16277533e-11
      -2.11524843e-11 2.03386405e-11 -1.85275857e-11 2.84328863e-11
      -2.66437306e-11 3.00481445e-11 1.43705664e-11 -2.24775424e-11
      -2.51658004e-12 2.05949342e-12 2.90562470e-11 2.95459594e-11
      1.69753881e-11 5.87319906e-12 -1.48302291e-11 -2.49607054e-11
      -3.11762803e-11 -1.75034934e-11 5.76825176e-12 2.74697452e-11
      1.56827225e-11 -8.41217981e-12 -2.93557921e-11 1.47042448e-11
      1.12273489e-11 -2.76286442e-11 1.32046526e-11 -1.58783108e-11
      1.49648089e-11 -1.03525643e-11 -2.98312590e-11 -5.33811114e-13
      -1.21117370e-11 2.34503367e-12 6.05550263e-11 -2.42304354e-11
      -2.07644188e-12 2.22262764e-11 1.52366730e-11 2.57424659e-12
      -1.48993509e-11 4.87067227e-11 -2.17046433e-11 -3.22169917e-12
      -4.15110134e-12 -2.35822802e-11 1.08447027e-11 2.01526773e-12
      1.96377897e-11 1.69161768e-11 -2.24427525e-11 5.82950962e-12
      -2.51816732e-12 2.43923653e-12 -1.42673122e-11 2.74107234e-13
      1.09091859e-11 1.60555007e-11 -1.54993657e-11 1.18599765e-11
      -2.53031138e-11 6.68987001e-12 -2.90950597e-11 -1.87772315e-11
      1.71334509e-11 1.68088113e-11 -3.68590158e-11 -8.82722454e-12
      1.86572927e-11 -2.92277574e-12 -7.55802192e-12 -1.06461346e-12
      2.18000912e-11 6.42313112e-12 1.13250425e-11 -1.97507531e-11
      8.03871639e-12 1.19347969e-11 -2.34520112e-11 -5.96892067e-12
      -5.23237486e-12 4.23600113e-11 2.11136646e-11 -8.53259564e-12
      -2.25629689e-11 -2.26090899e-11 -2.60909697e-11 3.89652442e-11
      1.88794570e-11 8.92738314e-12 2.34985295e-12 -2.97500219e-11
      -4.67636277e-11 -3.72783263e-11 7.96892229e-13 -3.41013806e-12
      -9.66776464e-13 -4.63794107e-11 -2.74070593e-11 -4.75269095e-11
      -5.99111316e-11 -5.17710137e-12 -5.06551225e-11 -6.87476031e-12
      -2.56118529e-11 2.21283651e-11 -1.07651449e-11 4.35597169e-13
      -2.66708548e-11 -4.39792647e-11 -4.23560978e-11 -1.29333193e-11
      1.67696412e-11 1.15419783e-11 -3.48691492e-11 -1.36771046e-11
      -1.09234696e-11 -2.61367959e-11 -1.27513390e-11 -4.42432341e-11
      -2.95459707e-12 7.91688850e-12 -2.46734022e-11 -1.95961528e-11
      3.90619720e-13 4.61858459e-12 -1.81150737e-11 -4.55666616e-11
      -3.69498009e-11 -1.32582487e-11 -3.20017485e-11 1.46213059e-11
      -4.85787148e-12 -1.07447011e-11 -1.19153160e-11 -5.16812877e-11
      -3.34955223e-11 -1.65633826e-11 -2.94990907e-11 -2.63820563e-11
      -2.64364294e-11 2.68168161e-11 2.44368154e-12 -3.92175389e-11
      -4.68392373e-11 -6.37253835e-12 -1.62526537e-11 -2.02654907e-11
      -3.00084853e-11 1.25411981e-11 -1.71320493e-11 -5.62903613e-11
      -5.43015528e-11 -4.15049210e-11 3.28998872e-12 8.75732429e-13
      -5.31360980e-12 6.59496849e-12 1.90090062e-11 1.66198739e-11
      2.90467932e-12 -3.71212193e-11 2.19096572e-12 -2.68777483e-11
      1.37302461e-11 -5.31889420e-12 -5.68221060e-11 -3.37715411e-11
      -2.27758472e-11 -3.78364076e-11 -6.82420787e-11 -8.59834912e-11
      -3.90315774e-12 6.68798914e-12 -9.33722717e-12 -2.12816414e-11
      -3.06268171e-11 -1.06780374e-11 -4.29640698e-11 -8.35832879e-12
      -1.74649583e-11 1.71251815e-12 -2.74775151e-11 3.47262323e-11
      5.56600165e-12 2.45226634e-11 4.20205745e-11 -4.18186839e-11
      -2.18581941e-11 -3.25237649e-11 -1.00498576e-11 -2.58947256e-11
      -3.49269190e-11 -3.84378779e-11 -3.10646127e-11 -2.49308560e-11
      -6.50438453e-11 -4.14031934e-11 -3.52592400e-11 -3.86188755e-11
      -1.20984030e-11 -3.02908219e-11 4.22552661e-12 -4.54622191e-12
      -2.02333376e-11 1.95424805e-11 -2.89676980e-11 -5.79196283e-12
      3.08016807e-11 1.10359530e-12 7.60913121e-12 -5.82383308e-11
      5.44769134e-12 1.81981947e-11 5.59163089e-12 -2.08393441e-11
      -1.69276364e-11 -1.81584591e-11 3.22750091e-11 4.53901500e-11
      -2.50624833e-11 2.22860411e-11 -1.38515295e-12 -1.07081280e-11
      -1.69288368e-11 1.83312532e-11 2.11031331e-11 -1.66257557e-12
      8.29762994e-12 -1.27380042e-11 -2.85330769e-11 -2.28268394e-11
      3.74381082e-11 6.91844455e-12 5.59796567e-12 9.51517619e-13
      1.98597319e-11 2.82328154e-11 1.63257385e-12 3.06989260e-11
      -7.29642822e-12 2.20303268e-12 -1.33481707e-11 -1.48228981e-11
      -2.15056618e-12 -1.37956920e-11 -1.58356123e-11 -1.48791535e-11
      1.57941091e-11 -9.01408635e-12 -1.92527973e-11 2.16820242e-11
      -2.07912645e-11 -3.65428044e-12 -6.09003776e-12 3.90584049e-12
      3.86471237e-12 1.35760535e-11 -1.11494156e-11 -9.14697051e-12
      -6.02277039e-12 -9.25538205e-12 -2.28012054e-11 2.86853822e-11
      2.58895249e-11 -1.04999004e-11 2.14838460e-11 1.55762538e-11
      1.38045946e-11 -1.98716113e-11 7.76139656e-12 -7.74986499e-12
      -4.23606879e-11 -2.24794055e-11 -8.13188666e-12 -3.55596941e-11
      -2.46574081e-11 1.63013605e-13 1.54782979e-12 -3.87075354e-12
      -5.27511932e-12 -1.84491346e-11 -4.72816682e-11 -6.40126563e-11
      -1.35858278e-11 -2.16200131e-11 -6.76534089e-12 -1.29220220e-11
      3.17986748e-11 9.15732334e-12 -3.31317335e-11 -6.90822469e-11
      -3.60613622e-11 1.62563348e-11 -2.67521665e-11 -1.15917163e-11
      -1.34571035e-11 -1.57643031e-11 -1.30120229e-11 2.61556662e-12
      -1.30547934e-11 -4.42467070e-11 -4.87058623e-11 -2.23311248e-11
      -2.40345053e-11 -2.09766302e-11 1.12110599e-11 1.01448867e-11
      -2.48130804e-11 -2.42463150e-11 -5.68770378e-11 -2.72819766e-12
      7.79512631e-13 -3.27258047e-11 1.48743257e-11 3.43308362e-13
      -1.35523355e-11 2.35716498e-11 1.14279697e-11 -1.06949380e-11
      4.00658083e-11 1.23710001e-11 1.49862622e-11 3.43211015e-11
      -3.72906393e-11 2.00105835e-11 1.87342312e-11 -4.63611398e-12
      3.35951995e-11 2.62918836e-11 -3.68188292e-12 1.59119061e-12
      8.23505934e-12 8.44582564e-12 -4.28497307e-11 8.35381840e-13
      1.97351272e-12 -2.24251444e-13 2.30823000e-12 -3.80246046e-13
      -9.75753766e-12 -3.43542556e-11 -1.54076057e-11 2.44744381e-11
      4.92781206e-12 -2.71675946e-11 1.82401941e-11 7.83198437e-11
      -8.66358808e-12 1.47876867e-11 8.98586067e-12 -9.45804719e-12
      1.02424206e-11 3.01938717e-11 -2.32205210e-11 4.61494775e-12
      3.26113372e-11 1.82037285e-11 1.74214948e-11 3.33511105e-12
      -3.47389218e-12 1.98344084e-11 8.15882431e-12 -1.15302368e-11
      1.10181855e-11 1.86815459e-11 -5.88707555e-11 -2.46627458e-11
      -6.21427519e-12 -1.43683121e-11 1.57894253e-11 -1.81636563e-11
      3.70505189e-11 -1.50550839e-11 2.70185003e-11 -2.68656937e-11
      5.92434296e-11 2.91673283e-11 1.23691023e-11 -1.11753384e-11
      -2.87167963e-11 9.03631944e-12 -4.23083305e-11 2.65349756e-11
      -8.17696171e-12 -2.35869189e-11 -2.54509226e-11 -1.27943862e-11
      2.62271784e-11 -3.46438087e-11 -8.52729953e-12 -1.90805184e-11
      8.64767459e-12 -3.69696773e-11 -5.93218877e-11 -1.96649051e-11
      2.47881685e-13 -1.28088920e-11 -1.54808891e-11 1.89636726e-11
      -2.58751250e-11 3.63824032e-12 -3.06934825e-11 -5.40854410e-11
      -2.05370061e-11 2.01032784e-11 8.90627155e-12 2.83869508e-11
      -1.39318427e-11 -2.54992780e-11 -1.58590814e-11 -1.97658101e-12
      1.57398938e-11 2.21873353e-11 1.09287796e-11 -1.37208485e-12
      -2.65219322e-11 -1.16029018e-11 -1.67717472e-11 -4.40011153e-11
      -3.81236639e-11 -2.16041959e-11 -2.99744674e-11 -4.88635625e-11
      -1.32910462e-11 -1.19855905e-11 1.61092788e-11 -1.14111498e-11
      2.80256764e-12 -2.01680686e-11 -2.21994298e-11 -8.02528790e-12
      3.15590679e-11 4.89006188e-12 8.92728860e-12 1.66041868e-11
      3.01213503e-12 5.93886268e-12 4.82039235e-12 -1.92056310e-12
      -1.22260459e-12 2.25416439e-11 -8.73757230e-12 1.57862525e-12
      4.92828660e-11 -1.61297000e-11 2.06580985e-11 2.40055580e-11
      4.04025736e-11 4.01406547e-11 2.99046274e-11 -1.08781716e-11
      -3.83736792e-11 2.02984452e-11 -5.34103976e-11 1.56167145e-11
      3.21099501e-11 -1.11205342e-11 -6.24225975e-12 3.63206236e-11
      -4.17661808e-11 -4.06392107e-11 5.11318765e-12 -3.23791619e-11
      -9.96282831e-12 -1.07056846e-11 9.81908305e-12 -2.56666702e-11
      1.47007441e-11 -1.13228376e-11 4.45090492e-12 1.01511030e-11
      4.74968459e-12 -4.92464750e-12 1.44073798e-11 7.25373711e-12
      1.10848700e-11 -1.21169585e-11 5.81890959e-12 -1.12758188e-11
      -5.48976446e-12 -1.51270229e-11 3.31473703e-11 -1.44888138e-12
      4.71479071e-11 -2.41339826e-12 -8.02395151e-13 -4.00702006e-11
      -1.11712757e-11 -1.29143146e-11 3.16588110e-11 -2.03661289e-11
      7.16056728e-12 9.57413055e-12 -2.39902130e-12 -1.91650515e-11
      2.34418019e-12 2.32337066e-11 -9.23405449e-13 -3.69616560e-11
      -5.87403112e-11 -7.19637822e-11 -2.34294754e-11 -1.04161265e-12
      1.67828321e-11 -2.02367290e-11 2.07440358e-12 2.19084247e-11
      -1.95573471e-11 -4.92280453e-11 -3.83427014e-12 -8.97920106e-12
      -2.44457284e-11 -1.06853970e-11 -2.66668510e-11 -2.26858601e-11
      -4.39621846e-11 -5.58325018e-11 -6.15179782e-12 -3.39851827e-11
      -4.05473606e-11 1.95959286e-12 2.68701311e-11 -9.78505037e-12
      -3.20206500e-11 -5.90248206e-12 -1.15162680e-11 -5.50219904e-11
      -4.47673079e-11 -4.01352840e-11 -3.34032316e-11 -2.61493756e-12
      2.05685694e-11 -2.21908100e-11 2.65493010e-11 -4.35151498e-11
      4.91411460e-11 1.75725146e-11 -1.25160056e-11 -2.34833143e-11
      -1.24748996e-11 4.24009161e-11 -1.11666596e-11 9.96147088e-12
      -2.86271853e-12 4.75150301e-12 -5.64340024e-12 8.71814339e-13
      -8.92669359e-12 -1.73833292e-11 2.04696364e-11 -3.33659597e-12
      -1.32273784e-11 1.57721492e-11 -3.81555100e-11 3.00306273e-11
      -8.73327972e-12 -2.77747703e-12 -1.24010632e-12 1.74384777e-11
      9.53533346e-12 1.76992934e-11 5.61048734e-12 5.67300859e-11
      -2.05690118e-11 -1.70198178e-11 1.26653583e-11 1.36327876e-11
      -1.22450303e-12 -7.55279519e-12 -4.82980279e-12 7.38883173e-12
      3.22669599e-11 1.62124845e-11 -3.63595135e-12 -3.93392090e-12
      -1.67880499e-12 -4.86007025e-12 2.38919409e-12 -1.47826664e-11
      1.58974205e-11 -6.04675468e-12 -5.50940508e-11 6.10368825e-14
      -4.78614761e-13 3.10084562e-11 1.93648899e-11 -2.46781345e-11
      -1.82378227e-11 2.63243767e-11 2.06209147e-11 -2.24542954e-12
      -2.71349505e-11 -1.68174296e-12 6.17938469e-12 -6.77201914e-12
      -1.56413493e-11 -4.00542828e-11 -8.26369268e-12 -3.28519781e-11
      -2.23731658e-11 7.24394243e-12 -5.68779615e-12 1.02518948e-11
      2.09871773e-11 1.69264568e-11 -1.94677347e-11 8.86405185e-12
      1.26500217e-11 -2.61248887e-11 -2.64995439e-11 2.38047776e-11
      -3.21451546e-11 -1.95866968e-11 -2.29043911e-12 -3.01420555e-11
      -2.35155766e-11 -8.63697724e-11 -3.78293646e-11 -2.60823915e-11
      2.19363347e-11 -3.69469073e-11 2.61893805e-11 -1.48887448e-11
      -1.28828805e-11 -4.72682588e-11 -2.97183562e-11 -1.07538110e-11
      3.55949124e-11 2.83287508e-11 -2.22867939e-11 -2.71071759e-11
      -2.55830097e-11 -4.45531702e-11 -3.73705719e-11 -2.20977858e-12
      -4.31041834e-11 -1.71218888e-12 -3.75002217e-11 -2.77810587e-11
      2.88590918e-12 9.09893515e-12 -1.34495878e-11 -8.39439542e-12
      -7.60424623e-12 -4.14939333e-11 8.36706659e-12 -4.23289043e-11
      -5.54598630e-13 4.15258930e-12 -1.62259373e-11 2.59889679e-11
      1.36257715e-11 -3.93197246e-11 -5.57248414e-11 2.34489750e-12
      -3.47556220e-11 -3.10479732e-11 5.43936077e-12 1.92957369e-11
      -6.16484338e-12 4.65350935e-12 3.29841571e-11 -1.61900771e-11
      -6.22391895e-12 -2.58684289e-11 3.68368660e-12 3.27855416e-11
      -3.71766029e-12 -6.39291658e-12 -2.25892603e-11 1.31471292e-11
      2.79485012e-11 -1.44989012e-11 -1.09496856e-11 1.43190071e-12
      2.15973558e-11 1.50085396e-11 2.24911877e-11 3.10343157e-12
      2.03533804e-11 9.38153635e-12 6.71213952e-12 -2.38713563e-11
      -6.98312285e-12 -1.66225334e-12 -3.39641301e-11 -4.87257977e-11
      -1.52559076e-11 -7.90733711e-12 -8.05897536e-12 -5.73213907e-11
      1.72838341e-11 5.89342464e-12 -3.24257947e-11 7.81187181e-12
      1.26491474e-11 -4.04833111e-12 -1.01239043e-11 3.17695974e-11
      -3.25289947e-12 1.78799961e-11 -1.96588319e-11 1.00480828e-13
      -8.30677280e-12 2.77509665e-11 -5.75085173e-13 -5.86373181e-12
      -1.70434344e-11 2.54231206e-13 -2.31500908e-12 -3.45233946e-11
      -1.07162950e-11 1.69770743e-11 -1.30992543e-11 1.20614872e-11
      3.68899789e-12 -6.03793682e-11 -6.14434545e-11 1.25033569e-11
      3.33190697e-11 -2.45330249e-11 -4.26806507e-12 1.18449963e-11
      -4.04545494e-11 -4.96126924e-12 -5.82697918e-11 -3.67994732e-11
      -4.95276181e-11 -2.49054301e-11 -2.07015733e-13 4.89650724e-12
      8.97155874e-12 -9.06161084e-12 7.18111497e-13 4.97198680e-12
      -2.62789096e-11 9.45643910e-12 3.25385270e-12 1.07391717e-11
      3.16079107e-11 9.07722942e-12 -2.02209326e-11 -2.01003884e-11
      2.12666863e-12 -2.31883453e-11 4.39455417e-12 -1.40369426e-11
      -1.88447973e-11 -1.85214448e-11 4.93785464e-11 9.29343495e-12
      2.60855278e-11 -1.56398922e-11 -2.09372623e-11 -2.89566565e-11
      -7.87719022e-12 -3.76395859e-11 -2.99716328e-11 1.81207610e-12
      -7.91107718e-12 -9.37873390e-12 9.61660872e-12 1.62715934e-12
      -4.16638599e-11 -3.98287965e-11 -4.94541699e-11 -2.03152547e-11
      1.55698180e-11 -2.53655916e-11 -2.05727281e-13 -5.18160514e-11
      -4.79286437e-11 -9.74759093e-11 -6.83368778e-11 -3.83300960e-11
      -4.38391927e-11 -1.85731291e-11 -8.58945293e-12 1.39768856e-11
      -5.47919626e-11 -2.66701609e-11 -5.50026760e-11 -2.94749364e-11
      -1.88680894e-11 -1.26631787e-11 -7.96475993e-12 -2.12473650e-11
      1.12564298e-12 3.68032618e-11 3.81936843e-11 2.10196860e-11
      -2.16127047e-11 -4.79982373e-11 -3.81973932e-11 -3.33590690e-11
      -1.64688783e-11 -1.75526121e-11 -2.04411731e-11 -2.64343131e-11
      -2.23146276e-11 -1.50423476e-11 -4.18917782e-11 -3.06418085e-11
      -2.07921475e-11 -1.39006157e-12 3.58132306e-13 2.41080051e-12
      -2.87247465e-11 -3.51311064e-11 -5.16598882e-11 -4.32621994e-11
      -3.35392894e-11 -3.34351505e-11 -2.56812609e-11 -9.02996590e-13
      -3.44725706e-11 -2.49027413e-11 1.25239159e-11 -4.95119119e-11
      3.47013911e-11 -2.19708748e-11 -5.65528284e-11 -3.90524037e-11
      -2.90956651e-11 -2.16830321e-11 -2.79062815e-11 -2.08671986e-11
      -5.05090371e-12 -3.69033588e-11 -1.66371136e-11 -3.43954795e-11
      -4.58388744e-11 -8.75436789e-12 2.52051123e-11 -4.13551181e-12
      1.03468891e-11 -2.03287196e-11 8.59767466e-12 4.90459192e-12
      -1.11570935e-11 -5.16861467e-12 -1.12765040e-11 2.35908636e-11
      -2.47799507e-11 -2.78765587e-11 3.08084946e-11 -6.86133225e-12
      -2.99266444e-13 3.44479653e-11 1.00386262e-11 1.47381048e-11
      1.90913708e-11 -2.95761787e-12 -1.68545091e-11 -9.39805525e-12
      -1.04959765e-11 -1.84661609e-11 -1.80103849e-11 2.15366232e-11
      7.73678951e-12 4.02129111e-12 -1.18055470e-11 -5.84434714e-12
      1.10060268e-12 3.37610495e-11 2.50813589e-11 9.78983908e-12
      -1.04105082e-12 -2.48777804e-11 -3.76495710e-12 -3.15936201e-11
      -4.75944804e-12 -1.37491884e-12 -3.51243015e-12 4.07832761e-11
      1.84895033e-11 -1.86681417e-11 -9.01416268e-12 7.14430088e-13
      1.44203855e-12 -3.55001202e-11 1.21768463e-11 3.08144413e-11
      -1.29284057e-11 5.28243942e-12 -1.59413559e-11 1.90461397e-11
      2.76007407e-12 1.14244430e-11 -1.20732623e-12 7.50437906e-12
      1.61989970e-11 -2.18309849e-11 -1.70980244e-11 -7.81281810e-12
      8.86035169e-12 -2.04548652e-11 -1.49522061e-11 -9.05016340e-12
      1.64138616e-11 5.45926715e-12 6.97237277e-12 -1.57820961e-11
      -6.17909066e-12 1.20604126e-11 -1.68273884e-11 -6.59870119e-12
      1.92004555e-11 1.37626256e-11 1.18015866e-11 1.50858978e-11
      -3.65076858e-11 -2.31138199e-11 1.59344048e-11 9.15254764e-12
      8.31724099e-12 -7.12157373e-12 -1.56264446e-11 2.05065773e-11
      8.15295661e-12 1.92507772e-12 -4.71546196e-12 -6.60809558e-12
      -1.28229528e-11 -1.21823619e-11 4.35850531e-12 -1.39014685e-11
      -2.16291462e-13 1.07530885e-11 1.26665302e-11 2.76052133e-11
      -1.51135129e-11 -2.87560288e-11 -5.40462779e-11 1.83237835e-11
      1.67381321e-12 1.33709875e-11 -8.15027820e-12 -7.89281834e-12
      2.68329369e-11 1.39800558e-11 3.47166740e-11 2.74568541e-12
      4.67230941e-12 1.11625206e-11 -1.83501391e-11 3.38826536e-11
      3.44606045e-11 -1.42267873e-11 2.65119524e-11 2.58725073e-11
      5.38422995e-12 1.25112707e-11 3.10898564e-11 -1.91711404e-11
      1.64979939e-11 1.17972168e-12 -1.18787610e-11 2.20936967e-11
      -3.90680457e-12 -2.17332437e-11 1.51706547e-11 3.64276352e-11
      2.91165425e-11 2.93029802e-11 4.66758646e-11 6.86191902e-12
      -1.81917086e-11 -6.18698287e-11 5.86219495e-13 -1.45492351e-11
      -4.66877145e-12 -1.00080676e-13 8.78174009e-12 1.08431337e-11
      1.10772459e-12 -3.66497367e-14 2.29973002e-11 3.78681895e-12
      -3.41955305e-12 1.51342411e-11 2.64374408e-11 -1.48884533e-11
      4.70187014e-11 4.18774702e-11 1.45759290e-11 -1.85806600e-12
      1.21795768e-11 2.29426946e-11 1.52613870e-13 -2.64299971e-11
      9.60141775e-12 -3.01008502e-12 -7.96305816e-12 1.48430365e-11
      4.75541394e-12 5.27808428e-13 1.61120162e-11 -5.00914804e-12
      -1.47725946e-11 -2.86284017e-12 2.49612865e-11 1.02781898e-11
      -2.76582108e-11 1.59323900e-12 1.78661654e-12 1.05853095e-11
      -1.17570701e-11 1.78375370e-11 -1.27535335e-11 -1.30804829e-11
      1.84474241e-11 -1.80719155e-11 -1.19051184e-11 1.54157104e-11
      3.48123028e-12 -2.46206684e-11 1.58716321e-11 1.89314484e-11
      1.95870369e-11 9.33092058e-12 2.28135063e-11 -1.40717331e-12
      5.21136467e-11 -1.01418275e-11 -9.94964874e-12 -1.27065173e-11
      -2.06181044e-11 -1.62464816e-11 1.06937098e-11 9.07659538e-12
      -1.14921727e-11 -7.46527579e-12 -1.53259315e-11 -4.19317055e-12
      -2.16634002e-11 -1.71399277e-12 -1.48286088e-11 -1.95320912e-11
      1.47457775e-11 -1.69988470e-12 1.12438696e-11 5.79831799e-12
      3.08166617e-11 -1.57452404e-12 2.84682226e-11 1.96911862e-11
      -6.90074300e-12 1.83342802e-13 -3.02054319e-11 -2.03464155e-11
      3.16385668e-11 2.96518123e-11 1.65564697e-11 -2.47577549e-11
      1.89890968e-11 2.31028790e-11 8.59363795e-12 5.55156962e-12
      -1.67793906e-13 -4.23745934e-11 -9.47231443e-12 -2.45927931e-11
      8.07009407e-12 2.66990527e-11 -3.41937416e-12 -2.54162091e-11
      2.73739989e-11 -9.03472956e-12 -1.03468336e-11 -4.92075955e-12
      -1.18489324e-11 1.51924966e-11 -3.21982961e-11 -1.19111752e-11
      1.26614084e-11 -2.19263115e-11 -1.09538264e-11 -1.19523159e-11
      1.99746521e-11 3.99032890e-12 9.22099376e-12 1.80606311e-11
      4.39657061e-11 -7.15962706e-12 -3.14829517e-11 -1.75251272e-11
      -4.03967797e-11 9.63925814e-12 -1.58960432e-11 1.09160701e-11
      8.95864459e-12 -2.93526627e-11 2.10872587e-11 -1.79409317e-11
      3.45301565e-12 -1.19526576e-11 2.29138306e-11 1.67957245e-11
      -1.39335462e-11 2.29736317e-11 1.81777076e-11 1.95571719e-11
      1.54604142e-11 -1.03865146e-11 4.72854637e-11 9.84814574e-12</_></support_vectors>
  <decision_functions>
    <_>
      <sv_count>1</sv_count>
      <rho>-9.1245661026917446e-10</rho>
      <alpha>
        1.</alpha>
      <index>
        0</index></_></decision_functions></my_svm>
</opencv_storage>
