<?xml version="1.0"?>
<opencv_storage>
<my_svm type_id="opencv-ml-svm">
  <svm_type>C_SVC</svm_type>
  <kernel><type>LINEAR</type></kernel>
  <C>2.9103800000000001e-11</C>
  <term_criteria><epsilon>1.1920928955078125e-07</epsilon>
    <iterations>1000</iterations></term_criteria>
  <var_all>1296</var_all>
  <var_count>1296</var_count>
  <class_count>2</class_count>
  <class_labels type_id="opencv-matrix">
    <rows>1</rows>
    <cols>2</cols>
    <dt>i</dt>
    <data>
      -1 1</data></class_labels>
  <sv_total>1</sv_total>
  <support_vectors>
    <_>
      -1.20327455e-11 1.19430368e-11 3.79392308e-12 -2.10265919e-11
      1.68409627e-11 3.88022080e-11 2.70775624e-11 -2.43606437e-11
      -2.88694173e-11 -5.43453867e-12 4.24923707e-11 1.39018727e-11
      -9.09893601e-12 2.92548451e-11 -1.36975830e-11 -9.63733086e-12
      -1.60642645e-11 -1.96741408e-12 -3.46952814e-11 -4.17212757e-11
      -3.83641643e-12 -9.48923839e-12 2.16658271e-11 -1.64402051e-11
      -1.20425484e-11 -1.07413872e-12 -1.61707661e-11 -1.50619257e-11
      -4.49478128e-12 1.73032508e-11 -1.71284254e-11 8.23744371e-12
      -3.72679188e-12 -1.29872588e-11 1.77558298e-11 8.05521448e-12
      9.53304970e-12 -4.94661950e-12 -8.82657836e-12 3.03268521e-12
      5.27225173e-11 3.79538484e-11 3.29464546e-11 -9.24260581e-12
      -3.78312381e-11 -8.82208098e-13 -2.63680527e-12 -8.44291477e-12
      -2.24853729e-12 1.61101965e-11 -4.12326423e-12 1.91088291e-12
      1.59199025e-11 1.85046700e-11 -1.98065540e-11 7.52739798e-12
      1.18954646e-11 -4.78228611e-12 -1.66200317e-11 -4.61511176e-11
      -3.77829061e-12 9.73919036e-12 3.10792884e-11 1.13821747e-11
      -2.30159242e-11 -6.87684805e-12 -2.58856304e-11 -1.98702964e-11
      1.24900524e-11 2.17268512e-11 -3.16695836e-11 1.25143377e-11
      4.51578219e-11 -3.16087399e-11 -4.30548791e-11 -1.00786324e-11
      1.06158736e-11 1.28743424e-12 2.36899077e-11 -9.42198403e-12
      -4.73819725e-12 1.60910625e-11 1.37872127e-11 -1.13668458e-11
      1.75387233e-12 1.89860124e-11 -1.52816180e-11 -2.38806566e-12
      -2.57177127e-11 5.77229653e-11 4.17905771e-12 -2.68430417e-11
      4.15356083e-11 -9.45744611e-12 -1.61243744e-11 -3.23718071e-12
      1.06761084e-11 2.68870880e-11 1.30036962e-11 -1.84156735e-11
      -2.55549867e-13 2.49211693e-11 -3.18008432e-11 -2.87776556e-11
      -9.17330968e-12 3.72834333e-11 -1.17632232e-11 -1.40349217e-11
      -7.77575161e-13 -4.79224299e-12 -1.93063777e-11 1.59449259e-11
      -1.20599242e-11 8.50627468e-12 4.89107886e-11 1.71276465e-11
      -3.68540580e-11 1.72220519e-11 -1.19626600e-11 3.12485524e-11
      -3.51501259e-11 -3.14618817e-12 -2.78390800e-11 1.28017198e-11
      1.01643683e-13 -2.05746600e-11 3.24775311e-11 2.54017536e-11
      -2.41906530e-11 1.87270911e-11 8.95532346e-12 3.78131380e-11
      3.86863389e-11 -6.54377420e-12 -4.23558627e-12 -4.15874583e-12
      -4.00349242e-12 1.75226085e-13 -6.96191993e-11 2.65440985e-11
      -8.44981637e-12 1.21830619e-11 -2.22515756e-11 -2.09880442e-12
      1.81543617e-11 2.07190706e-11 1.26740311e-11 1.66349313e-11
      -4.13522211e-12 3.29153961e-11 2.84507227e-11 2.68634733e-11
      2.08650944e-11 -2.19607492e-11 -4.44972618e-12 -2.87670018e-12
      -6.63518025e-12 -1.69998685e-11 -6.91161408e-12 8.33485798e-12
      -2.09563200e-11 7.16117183e-12 2.23037977e-11 2.74188710e-11
      -1.48851088e-11 -1.31416475e-11 2.37393803e-11 3.61443132e-11
      -2.61392175e-11 -1.86033359e-11 1.08875938e-11 -1.21316759e-11
      -1.82504914e-11 1.99709260e-12 -3.50220998e-11 -3.45654616e-11
      -8.46356839e-12 -2.06576683e-11 1.60832870e-12 2.52125890e-11
      3.79979381e-12 -8.50002881e-12 2.98253644e-11 -1.90148643e-11
      -2.26676612e-11 3.39201618e-11 2.13765741e-11 -1.27770659e-11
      3.44572439e-12 4.30015121e-11 2.56682219e-12 -7.67440191e-12
      -8.80358980e-12 1.99010101e-12 -4.27420339e-12 -2.17717233e-11
      -1.18372239e-11 -1.05220546e-11 3.11766411e-11 9.13218199e-12
      -1.03269806e-11 9.54309895e-12 4.06260234e-11 2.77281306e-11
      -3.11742090e-11 1.45873539e-11 -2.05733468e-11 1.47173246e-11
      -1.53708123e-11 1.03697086e-11 -2.65056432e-11 6.22899215e-12
      1.48394283e-11 -2.02139572e-11 -9.78872452e-12 -1.14579414e-11
      9.38170028e-12 -6.96638407e-12 -2.80345950e-12 3.97173397e-12
      -1.35395462e-11 1.98579330e-11 4.59996659e-11 -6.77656022e-12
      7.59654145e-12 1.14797278e-11 -1.21859597e-11 -8.05496468e-12
      -1.77424585e-11 5.90931601e-12 -2.16221312e-11 -2.48447053e-12
      -7.36924497e-12 -2.82222752e-11 -2.78394183e-11 2.99752168e-11
      9.10579511e-12 1.20750502e-11 -1.82446558e-11 -1.69254866e-12
      2.45363539e-11 2.08143572e-12 -3.45916525e-11 2.19168433e-11
      -1.21348357e-11 2.72313821e-11 -5.33430591e-12 1.69397742e-12
      -8.68222768e-12 -1.59691635e-11 -1.24514210e-11 5.82564726e-12
      6.99694426e-12 4.42586722e-12 -1.92975289e-11 2.50205898e-11
      1.05334543e-11 -8.97817064e-12 1.05797478e-12 9.38285474e-12
      9.11758429e-12 -3.40338500e-12 -5.91748595e-11 -4.54381151e-11
      2.42434415e-12 1.67085339e-11 -1.18207987e-11 3.11683492e-11
      -5.84570326e-12 1.09176626e-11 3.33728913e-11 -2.76785747e-11
      -1.50805896e-11 -4.76430631e-11 -5.18798372e-12 9.87615285e-12
      1.43640187e-11 1.12842565e-11 9.57996096e-12 -6.65122887e-11
      -8.14545861e-11 -5.68196393e-11 -6.53340663e-12 -2.01464696e-11
      -2.65003106e-11 -2.58786118e-11 -1.15659274e-14 -2.04959712e-11
      -5.21907274e-11 -5.10906942e-11 -3.55832308e-11 -2.70621130e-11
      -1.54577358e-11 -1.41426818e-11 6.26393165e-12 2.47058832e-11
      -6.14635010e-11 -4.30702592e-11 -5.33368211e-11 -1.18191394e-11
      1.33023768e-12 -1.67535395e-11 -5.98533237e-11 -5.11021780e-12
      -1.93742904e-11 -4.24923603e-11 2.20940930e-12 -4.76862924e-11
      -3.00160938e-11 3.02614392e-11 -1.62146321e-11 3.25525024e-11
      -1.16424830e-11 -4.37250973e-12 2.13031259e-11 -3.96345699e-11
      -3.85841220e-11 -2.59247051e-11 -2.73837897e-11 6.91520799e-12
      -2.02383943e-11 -5.34182698e-11 -4.64532302e-11 -2.58178166e-11
      -3.04484910e-11 -1.64338855e-11 -1.57248381e-11 -2.82576809e-11
      -2.35926730e-12 1.20319579e-11 -1.20064340e-11 -3.50381182e-11
      -5.45597074e-11 -5.91958635e-11 -1.05302637e-12 -3.69739066e-11
      -4.70323849e-11 5.80550842e-12 -1.07159446e-11 -4.83119794e-11
      -4.27403009e-11 -8.38361741e-11 2.35494853e-11 -8.54177579e-12
      -2.70945029e-12 -6.86381670e-13 -5.07985277e-12 8.30748404e-12
      1.72586771e-11 -4.83200112e-11 1.63095770e-11 -4.20316490e-11
      -5.56874208e-12 1.46464785e-11 -4.33212910e-11 -1.82689124e-11
      -3.24372755e-12 -2.53016028e-11 -3.29732873e-11 -6.51943846e-11
      -1.07571105e-11 3.39436881e-11 -3.15735667e-11 9.70921867e-12
      -3.32036308e-12 -1.01455632e-11 -1.05574473e-11 3.96881703e-12
      8.54002546e-12 2.48491413e-13 -1.45729019e-11 1.76218870e-12
      2.59178529e-12 1.61528586e-11 2.88706507e-11 -2.77638173e-11
      -5.43481579e-12 2.14448667e-11 -4.02435518e-13 -3.27757405e-11
      -4.52035943e-11 1.19131970e-11 -2.32964221e-11 -1.15610976e-11
      -5.70481128e-11 -3.16965829e-11 -3.70251017e-11 -3.24579391e-11
      -3.43988310e-11 9.19705805e-12 -3.41450631e-12 -3.32962755e-11
      -2.32522994e-11 6.16861640e-12 -6.52593301e-12 7.11251110e-12
      2.83346558e-11 -2.98175130e-11 4.90051055e-12 -3.85781303e-11
      2.41464574e-11 1.59760625e-11 3.25642673e-11 1.58799085e-11
      -7.04539291e-13 -1.33245637e-11 -5.23361432e-12 4.89881989e-11
      -2.08255756e-11 2.05700769e-11 -4.02970235e-12 -4.40888428e-13
      -3.11525805e-11 -1.56925913e-11 2.81222771e-11 1.59123877e-11
      2.86885619e-11 2.48233899e-11 -4.21823297e-12 -4.64915259e-11
      3.79648847e-11 -3.88882815e-11 3.05640062e-12 1.61981713e-11
      4.03536302e-11 2.70285942e-12 -1.64186859e-11 5.27689784e-12
      5.38850865e-12 2.72757823e-11 1.02015427e-11 -2.47284029e-12
      3.95199012e-11 -3.47239217e-11 1.25578272e-11 -1.33234465e-11
      2.43182766e-11 -2.53228532e-11 -8.85377275e-12 2.37292408e-11
      9.49500548e-12 -2.77035391e-11 -3.19124172e-11 2.16153137e-12
      1.60485861e-11 -3.88662930e-12 -1.18990677e-11 -3.97871631e-11
      -2.03854919e-11 -4.68579515e-11 -1.49216785e-11 8.58428433e-12
      4.67080194e-11 -1.07318746e-11 1.43655287e-11 -6.25024121e-12
      3.89429183e-11 7.65707647e-13 -2.46927825e-12 -7.53839872e-12
      -3.81522453e-11 -1.44586869e-11 -2.67504551e-12 -3.98032787e-11
      -1.16904975e-11 7.52429109e-12 -2.23054405e-11 -2.13534312e-11
      2.18529778e-11 -6.28616473e-12 -5.79594601e-11 -5.84528953e-11
      -2.28965753e-11 -3.92249393e-11 -1.26618863e-11 -7.82420916e-12
      -2.04835606e-12 -3.76701301e-13 -3.76191196e-11 -9.09112785e-11
      -4.93449691e-11 -9.36054879e-12 -2.54422265e-11 1.29224322e-11
      -8.16141534e-13 -1.45642959e-11 -6.81761375e-12 1.34312301e-11
      -3.80851010e-11 -7.61158012e-11 -3.56771591e-11 -3.13375124e-11
      -3.95612883e-11 -1.53205452e-11 -4.76244868e-12 -6.16955402e-12
      -2.46374240e-11 -2.25294540e-11 -4.81121046e-11 -4.19339667e-11
      6.33237657e-13 -1.69626153e-11 6.46364039e-12 3.79543862e-11
      -1.99585591e-11 -1.39188643e-11 -8.69140263e-12 -2.81421362e-11
      6.57847095e-13 4.32870510e-11 3.53945553e-11 3.46603475e-11
      5.53059605e-13 2.64361241e-11 1.19251987e-11 1.87429690e-11
      1.77354832e-11 2.17460147e-11 -2.45362584e-11 1.78726374e-11
      8.95350038e-13 1.43595960e-11 9.34608033e-12 -1.96920813e-11
      3.75028029e-11 -1.59812580e-11 6.01125530e-12 -2.66136210e-11
      -1.13273765e-11 1.25572235e-11 1.20167045e-11 1.44747426e-11
      3.39694176e-11 -2.69960582e-11 -7.88426182e-12 4.97673534e-11
      -2.99931434e-11 -2.75256259e-11 8.90081845e-12 -2.83599289e-13
      -4.12657408e-12 8.82875197e-12 1.93385824e-12 -1.11387115e-12
      3.41282835e-11 2.66685996e-11 2.83418410e-11 -1.16056244e-11
      -1.02380376e-12 7.29905112e-12 -1.22136058e-12 4.24528329e-11
      4.88183487e-11 2.09027327e-11 -2.35831320e-11 -3.27787797e-11
      -4.66043003e-12 1.42571770e-11 -3.45109683e-12 2.00834765e-11
      4.16309244e-11 -1.94511577e-11 -1.06762923e-11 -2.11245275e-11
      3.44861639e-11 1.93840100e-11 5.72221714e-11 -1.30795747e-11
      -1.16843002e-11 -2.95354453e-12 -3.12781606e-11 2.24616437e-11
      4.61848355e-12 -1.56379788e-11 -1.76930259e-11 -1.26338410e-11
      1.08086925e-11 -1.62130673e-11 -2.05265601e-12 4.99577506e-12
      1.66916845e-11 -5.17422251e-11 -6.05579267e-11 -1.50190034e-11
      1.21638192e-12 -4.57485230e-11 -1.58471188e-11 6.19829925e-12
      -1.02032905e-11 -3.54658664e-11 -2.74533174e-11 -4.01360091e-11
      -6.47342596e-11 -3.09799235e-11 -5.94427892e-12 5.50314742e-12
      -1.22147683e-11 -2.53049370e-11 3.13908123e-12 1.12546613e-11
      2.75245677e-11 2.44944429e-11 4.70392648e-11 -1.41806957e-11
      -2.48581906e-12 -4.47666834e-11 -4.30320640e-11 -2.62874895e-11
      -3.18992367e-11 -3.53283514e-11 -4.90447891e-11 -2.38370088e-11
      -6.49899362e-12 -2.39931078e-11 4.00303957e-11 -1.80323881e-11
      -4.56684603e-12 -9.84925249e-12 -2.02627602e-11 2.07266647e-12
      -1.11210052e-11 6.38799083e-12 -1.15244264e-11 9.07257667e-13
      8.28385624e-12 7.90221621e-12 2.25437967e-11 -2.16239075e-11
      2.53592043e-11 1.58522605e-11 -5.91087379e-12 3.91384460e-11
      2.42198518e-11 -3.44932785e-12 9.41781549e-12 -1.47657823e-11
      9.24187636e-12 -2.10413148e-13 3.56678923e-11 -5.52352651e-12
      -1.47723674e-11 1.27565016e-11 -3.86167071e-11 8.03861838e-12
      1.46518127e-11 1.14254847e-11 -1.12564732e-11 8.63159457e-12
      -5.44903619e-12 -7.08502961e-12 3.47630050e-11 -4.53605469e-12
      -1.44690883e-11 -4.66381751e-12 6.37854027e-13 1.55346239e-11
      8.41704571e-12 3.74078242e-12 7.06593031e-12 1.67489687e-12
      3.66489521e-12 2.29234028e-11 -1.26715383e-11 3.90917958e-11
      -7.63804731e-12 -3.32176578e-11 -2.46066448e-12 -3.67351852e-12
      2.55346178e-11 1.18418478e-11 4.30780550e-11 -2.98494671e-12
      1.65452305e-11 1.98227632e-11 1.09660078e-12 -1.56735857e-11
      -4.49338266e-12 -1.39808174e-11 4.38325851e-12 -4.73087758e-12
      4.30702392e-12 4.20012029e-12 1.79155597e-11 -1.47490648e-11
      2.52059276e-11 2.25863373e-11 1.39711983e-11 -3.13716553e-11
      -6.69094294e-11 -7.41660899e-11 -2.02058006e-11 -2.52695911e-12
      -3.06628572e-12 2.08105790e-11 3.29981563e-11 2.04331534e-11
      1.53964428e-11 -1.02695422e-11 -1.23052549e-11 -3.07626841e-11
      -9.42501218e-14 -7.93867576e-12 1.03576696e-11 -2.34188034e-11
      -3.07322431e-11 -4.94255747e-11 -3.05796569e-11 -6.14168022e-11
      -5.61552159e-11 -2.36477209e-11 -2.28887655e-12 -2.01201261e-11
      -2.26456857e-11 -1.27973543e-11 -5.37318324e-12 5.44591542e-12
      -5.43653247e-11 -4.38586528e-11 -4.86452198e-11 -1.65558869e-11
      1.22347896e-11 -3.29157556e-12 3.18664192e-11 -3.56740922e-11
      4.15583332e-11 4.43991198e-12 2.86549187e-11 1.07890754e-11
      -2.46466545e-11 2.61333767e-11 5.82959288e-12 2.35106084e-11
      -1.79105758e-11 1.40254414e-11 4.43209532e-12 8.93823470e-12
      4.28792678e-12 -2.40750302e-11 2.92601603e-11 1.69801413e-11
      1.13996078e-11 3.11136741e-11 -3.52986425e-11 3.19164899e-12
      -2.44999160e-11 2.03264922e-11 -1.87382020e-11 -7.80021620e-12
      2.15254880e-11 -2.32912713e-12 1.15398489e-11 4.92939509e-11
      -7.84247754e-12 1.68119858e-11 2.81875565e-11 3.17112413e-11
      -1.00492488e-11 -3.62196349e-11 8.52441121e-12 -1.43080122e-11
      1.30384670e-11 -7.74254619e-12 -1.73171252e-11 -4.42641028e-11
      -1.15718958e-12 -2.54288396e-11 -4.87491471e-12 5.17228534e-12
      5.79781015e-12 2.38683448e-11 -1.18402458e-11 -3.98555633e-11
      -1.63612960e-11 3.95285714e-11 -9.01580026e-12 -2.79919022e-11
      -1.57402789e-11 -1.03900319e-12 4.61829151e-11 -3.31152709e-11
      1.44962506e-11 1.18839452e-11 5.00184746e-12 2.05156226e-12
      -1.93605496e-11 -5.35935914e-11 -3.46253096e-11 -3.74936852e-11
      -1.59692988e-11 -4.99161511e-11 -1.76832837e-11 4.93812933e-12
      2.94937755e-11 2.24398555e-11 -1.18195280e-11 1.71353227e-11
      6.98342339e-12 -3.65573925e-11 -4.35642113e-11 1.93956986e-11
      3.11544505e-11 -1.98896498e-12 -2.15720909e-12 -2.42436522e-11
      -1.13895508e-11 -4.43397576e-11 -1.31638233e-12 -1.92182919e-11
      2.45697906e-12 4.73707174e-13 7.28556451e-12 -2.53064410e-11
      -3.79676048e-11 -5.50241692e-11 -2.35041032e-11 -3.78379316e-12
      5.83157411e-11 -1.61885158e-11 -3.95307224e-11 -2.37288106e-11
      -1.21759235e-11 -4.80917285e-11 -4.52631682e-11 -1.44751511e-11
      -3.52689232e-11 -1.80665153e-11 -2.96377332e-11 -1.17041741e-11
      -1.27679672e-11 1.41953194e-11 -2.01322882e-11 -3.28644962e-13
      -8.98024190e-12 -2.35357341e-11 -1.21576508e-11 -4.64832686e-11
      2.64114425e-12 -2.47091479e-11 -2.54506312e-11 1.57834405e-11
      -4.53408058e-12 -3.02907595e-11 -4.01867949e-11 -1.10338934e-11
      -6.30807602e-12 -1.62390002e-12 -3.70219480e-12 2.39024009e-11
      2.60989685e-11 2.27571868e-11 3.60839939e-12 6.41067819e-13
      9.00038898e-12 3.91855358e-13 1.28704881e-12 2.17640125e-11
      -3.19153280e-11 -2.13998454e-11 -2.01789419e-11 1.38678903e-11
      4.94840800e-12 -1.80517181e-11 5.89794272e-12 1.57030014e-11
      4.18993243e-11 -3.87748427e-12 3.11361527e-12 -3.29194762e-11
      3.72005621e-11 3.23282685e-11 4.48894524e-12 -5.24698644e-12
      1.89813044e-11 -2.04202020e-11 -3.93849502e-11 -3.87631559e-11
      -1.14231740e-11 6.19411397e-11 -3.50905797e-11 -2.23993133e-11
      -5.34681023e-12 9.63031391e-12 1.40419794e-11 1.99837624e-13
      2.71762235e-12 -2.75920745e-11 -1.39274712e-11 9.34992968e-12
      -9.56962547e-12 1.70148392e-11 -6.23389307e-13 -4.33209566e-13
      -1.39194142e-11 2.60751611e-11 -5.14402453e-12 -1.83059800e-11
      -1.32088255e-11 2.77546540e-13 -1.15303756e-11 -2.74313523e-11
      -2.88658698e-11 -1.84718595e-11 -2.14826056e-11 3.45431912e-11
      2.23947510e-12 -4.41990854e-11 -3.31726695e-11 2.51484181e-11
      3.74310721e-11 -3.06318478e-11 -1.08966629e-11 -3.55393688e-12
      -2.71407940e-12 6.06841053e-12 -3.82574909e-11 -3.49992257e-11
      -6.31453848e-11 8.95951878e-13 -6.60631575e-12 4.29350498e-14
      6.04055261e-12 -1.81955926e-11 2.91230169e-12 -2.42435377e-11
      1.72522656e-11 1.10177379e-11 -3.55168000e-12 9.21767957e-12
      3.28445882e-11 2.10431412e-12 -1.68413252e-11 -3.42195230e-11
      -1.92003878e-11 -2.06341385e-11 7.64286421e-13 -2.15148940e-11
      -2.84995309e-11 -2.73893842e-11 3.68092536e-11 -1.52481690e-11
      1.74612321e-11 -2.04176866e-11 -2.83880575e-11 -2.33495809e-11
      -4.66750770e-11 -3.73865106e-11 -5.62112596e-12 -9.62596582e-12
      -7.33429376e-12 -6.71666585e-12 3.08850862e-11 6.68851313e-13
      -3.33350569e-11 -5.80341886e-11 -3.73841062e-11 -1.48777327e-11
      -3.71035928e-12 -5.18747441e-11 2.40301043e-11 -1.51441411e-11
      -1.84153040e-11 -4.86329622e-11 -2.66270408e-11 -5.60031674e-11
      -9.48975620e-12 -3.11054967e-11 7.12562041e-12 -2.03114782e-11
      -2.59796212e-11 -8.58495740e-12 -5.30770219e-12 -5.86447696e-11
      -2.36146727e-11 3.99287686e-11 -1.22905566e-11 -3.17965133e-11
      9.83073215e-13 -5.71349738e-12 2.58984154e-11 1.17428914e-11
      -3.67169802e-11 -5.45002966e-11 -5.34582136e-11 -1.63637888e-11
      -4.10407298e-11 2.82216247e-11 2.16883074e-11 -6.04782127e-11
      -4.02612978e-11 -1.32249203e-11 -2.65046891e-11 -5.29163605e-12
      -3.61580557e-12 1.52047801e-11 -1.62937892e-11 -1.92109141e-11
      -1.26143531e-11 -3.57540560e-11 -3.75599794e-11 -7.33775263e-11
      -6.25441643e-11 -2.91766576e-11 -4.37376489e-11 3.42930129e-11
      -3.91808461e-12 -2.63846063e-11 -8.34162166e-12 -3.93438199e-11
      1.89641861e-11 -4.18488334e-11 -4.56902224e-11 -1.68592518e-11
      -1.61502131e-11 -2.86448695e-11 -6.92232079e-12 -1.54078555e-11
      1.48653919e-12 -1.27645082e-11 -4.93993561e-12 -2.03520343e-11
      -2.82878374e-11 1.48533009e-11 -2.47696776e-11 -2.62925758e-11
      4.10382874e-11 -3.59550931e-11 -3.29243507e-11 2.30753801e-11
      2.43580867e-11 8.36715940e-12 -1.68091652e-11 2.99854100e-11
      1.52730554e-11 -2.87991575e-11 3.09930102e-11 7.03462332e-12
      -3.16690112e-11 1.10325004e-11 1.22582066e-11 -3.74452379e-12
      -5.53539896e-12 1.05268867e-11 -2.38460224e-11 -4.91180048e-11
      -1.91332575e-11 5.09815367e-12 -3.04990790e-11 2.88150493e-11
      -8.43661686e-12 -5.36362296e-13 -8.06650233e-12 -2.67495436e-11
      -2.07807053e-11 -4.52193422e-11 -8.40713523e-12 1.42855042e-11
      4.54633249e-12 -8.56136603e-12 -3.47917702e-11 -2.25124867e-11
      -3.33767597e-11 -1.79179484e-11 3.51373756e-11 2.10113732e-11
      -2.31001173e-11 1.03412305e-11 1.40387563e-11 -6.58998680e-13
      1.25488888e-12 -1.07676975e-11 1.84202957e-12 4.64217987e-12
      -2.07249148e-11 6.09393178e-13 -3.44329218e-11 -4.33885350e-12
      2.70046810e-12 9.61407776e-12 -1.31873974e-11 7.96268693e-12
      -1.10264679e-11 -2.51910819e-11 1.68032827e-11 1.91912675e-12
      1.22295169e-11 -1.73435693e-11 2.25770097e-11 1.43741980e-11
      -6.83165980e-12 -4.56278418e-12 1.38072895e-11 -4.02683963e-11
      -8.82913100e-12 4.18231179e-11 4.41890101e-12 5.31608611e-13
      1.87569578e-11 1.41345208e-11 3.85627918e-11 -2.34560791e-11
      -1.02439541e-12 1.11449034e-12 8.85305804e-12 -1.93904701e-12
      6.60897032e-12 2.06790193e-11 1.49218450e-11 2.35992441e-11
      8.90874668e-13 -2.49319280e-11 -2.80228306e-11 -1.46670696e-11
      -5.29399181e-12 -2.42041352e-11 2.40154008e-11 -1.07620839e-11
      2.11939737e-11 1.35296141e-11 1.82137270e-12 1.36971424e-11
      -1.69561656e-11 -1.37720469e-11 -3.42668290e-11 -1.28503848e-11
      3.47693332e-11 2.40162942e-11 -2.50906379e-11 -1.84156475e-11
      -6.45929881e-12 7.55748762e-12 4.84350025e-11 4.72177714e-11
      -2.19289222e-11 4.16573477e-11 1.43855511e-12 3.96146657e-11
      1.30018062e-11 -1.62900639e-12 1.23038550e-11 -3.33610548e-12
      -1.50250038e-11 -7.22061690e-12 2.12840023e-11 -1.33491777e-11
      -1.22111704e-11 3.00019419e-11 4.33629738e-12 3.12670237e-11
      -3.60564426e-11 3.66975721e-12 4.23545856e-13 5.60093248e-12
      2.45167203e-11 2.43697441e-11 1.90284576e-11 -1.05281513e-11
      5.14710236e-12 -7.10538781e-11 -2.14724701e-12 -3.69271063e-12
      -1.13825789e-11 -2.38498041e-11 1.01314217e-11 -1.39771918e-11
      -2.85751388e-11 -1.04093765e-11 3.00009757e-12 8.22043041e-12
      3.41207201e-11 -8.16525233e-12 1.61038335e-11 -2.86571235e-11
      5.13632262e-11 1.17752735e-11 3.25341178e-11 -1.74083751e-11
      1.24767609e-11 2.81608265e-12 2.16034395e-11 -5.86025672e-12
      9.69014539e-12 -3.25456914e-12 7.60651611e-12 4.49855387e-12
      -1.88903719e-11 -1.81606917e-11 1.70207824e-11 1.47767111e-11
      1.90377557e-11 -2.81647344e-11 5.51693023e-12 -3.08798538e-12
      -2.21262991e-11 -3.53669871e-11 -1.55439550e-11 -9.17784512e-12
      1.03925289e-11 1.22773458e-11 1.08852979e-11 9.45363839e-12
      -1.21957067e-12 -4.35788940e-11 -3.02384576e-11 4.72285492e-12
      -5.75706800e-12 -1.41323073e-11 3.58014451e-11 4.16507870e-11
      1.09870732e-11 2.25862905e-11 1.92414244e-11 -8.71233641e-12
      3.85321844e-11 -2.94988131e-11 6.99337723e-12 -1.47650486e-11
      -1.58585731e-11 -3.15307745e-11 -3.76328829e-12 -3.90625136e-11
      -1.33170055e-11 4.15430294e-11 -2.95799704e-11 6.49566067e-13
      9.77667925e-13 6.91631951e-12 1.74575528e-11 -2.49668376e-11
      1.07828737e-11 -2.79574731e-11 2.37075082e-11 -4.18511753e-12
      2.50388911e-11 -2.70192844e-11 -1.22385270e-11 -1.40837099e-11
      3.35274798e-12 -2.93829960e-11 -3.85499202e-11 2.63997439e-12
      1.29983880e-11 2.46035033e-11 9.04777295e-12 8.52330879e-12
      2.14661414e-11 1.61731947e-11 2.47135840e-12 -3.63685319e-12
      2.88439307e-11 7.07438925e-12 1.23901269e-12 1.11639795e-11
      5.12013973e-11 4.44517444e-11 1.89463219e-11 -9.01811015e-13
      -2.11833259e-11 -1.62386059e-11 3.38322530e-11 5.22262485e-12
      2.30257098e-11 1.53070941e-11 -2.23188135e-11 -2.75582300e-11
      -1.32553933e-11 -4.17262579e-11 2.22160246e-12 2.29190712e-12
      9.83741821e-12 -2.06148675e-11 -1.98463902e-11 -1.02964061e-11
      1.08714236e-11 -9.02516256e-12 1.90296199e-11 -2.06451072e-11
      4.69594025e-12 1.74562101e-11 4.14842050e-11 -1.08486076e-11
      4.85573144e-11 2.01622729e-11 9.92426627e-12 -1.97995075e-11
      6.26305052e-13 3.02997315e-11 -1.77736801e-11 8.29089662e-12
      -8.29790403e-12 -1.58628596e-11 1.44312687e-11 -4.75613418e-13
      1.45928720e-11 -1.78833146e-11 -6.75627219e-12 3.22123578e-11</_></support_vectors>
  <decision_functions>
    <_>
      <sv_count>1</sv_count>
      <rho>-9.9329527936120598e-10</rho>
      <alpha>
        1.</alpha>
      <index>
        0</index></_></decision_functions></my_svm>
</opencv_storage>
