<?xml version="1.0"?>
<opencv_storage>
<my_svm type_id="opencv-ml-svm">
  <svm_type>C_SVC</svm_type>
  <kernel><type>LINEAR</type></kernel>
  <C>2.9103800000000001e-11</C>
  <term_criteria><epsilon>1.1920928955078125e-07</epsilon>
    <iterations>1000</iterations></term_criteria>
  <var_all>1296</var_all>
  <var_count>1296</var_count>
  <class_count>2</class_count>
  <class_labels type_id="opencv-matrix">
    <rows>1</rows>
    <cols>2</cols>
    <dt>i</dt>
    <data>
      -1 1</data></class_labels>
  <sv_total>1</sv_total>
  <support_vectors>
    <_>
      3.01180023e-12 7.52861152e-13 -5.12217352e-12 -3.18412831e-11
      3.81453966e-11 1.07969423e-11 3.85882949e-12 -2.64303111e-11
      1.58373592e-11 -2.30884825e-11 2.33098905e-11 1.89024716e-11
      -8.97115975e-12 4.88797128e-11 8.84064696e-12 4.96177578e-12
      1.15591980e-11 1.36569098e-11 -2.14952101e-12 1.04541055e-11
      2.97394019e-11 1.79359808e-11 -1.15438657e-11 8.85695250e-12
      -4.86367752e-11 2.29207322e-12 1.67111689e-11 -1.68342285e-11
      1.48034605e-11 2.85275623e-11 1.92488018e-12 4.90599401e-12
      -1.79343571e-11 -7.12764353e-12 -3.12425225e-11 -1.61477116e-11
      1.20402742e-11 -4.98866139e-12 -1.02833532e-11 -1.81695728e-12
      2.61582058e-11 -2.89116929e-12 2.56682661e-11 1.30812540e-11
      -8.09788087e-12 9.29844830e-12 -9.20050819e-13 -1.59447594e-11
      3.35261541e-11 7.01533579e-12 2.87699829e-11 -2.50312739e-11
      7.31543298e-12 3.15869293e-12 1.46075322e-11 -1.64768928e-11
      3.77660576e-11 -2.76937349e-12 -2.75434038e-12 -1.56056574e-11
      -2.19819865e-12 6.32536775e-12 2.14606995e-11 1.51797151e-11
      -1.59909273e-11 3.08234722e-11 2.38405979e-11 1.53578660e-11
      7.85614859e-14 3.32094595e-11 -3.93262888e-11 -1.09215458e-12
      1.39851663e-11 -8.54425732e-12 -7.62781765e-12 3.78211872e-11
      3.01632816e-11 -7.73293755e-12 1.03228580e-12 -1.15472172e-11
      -2.69182437e-11 -1.60375654e-11 1.21644778e-11 2.15652340e-11
      8.15698030e-12 1.92084994e-11 -2.34985273e-12 1.09779469e-11
      3.44716595e-12 3.51598681e-11 1.88497516e-11 7.26181875e-12
      3.36040050e-11 -2.37949157e-12 6.01044908e-12 1.92131450e-11
      -3.09256353e-12 1.15771837e-11 3.37502387e-11 -1.21934407e-11
      -3.82111495e-11 6.97263688e-12 -2.68651525e-11 -8.74635694e-12
      -2.46668103e-11 -1.45000244e-11 9.52087194e-12 -2.64918903e-11
      1.30498607e-11 5.59180523e-12 -3.13948802e-12 2.36789130e-11
      -5.88909217e-12 2.41759408e-11 2.35404630e-11 -1.82810776e-12
      -9.51433030e-12 4.61799381e-13 -2.29978432e-11 4.02564700e-12
      -2.14855022e-12 2.03735136e-11 -1.85733269e-11 5.51733182e-12
      -1.09540163e-11 -7.49092802e-12 7.75204206e-12 1.15310200e-13
      7.57641432e-12 3.68318154e-11 -5.62217330e-12 1.84277715e-11
      3.86391370e-11 -1.30644428e-11 -7.97220796e-12 9.06586438e-12
      -2.08070280e-11 -7.92466613e-12 -2.11171410e-11 8.50092306e-12
      3.72822910e-12 8.39324964e-12 -2.44144635e-11 1.26502949e-11
      1.53688937e-11 2.18836321e-11 3.84412597e-12 4.66727622e-13
      1.15324321e-11 1.13077646e-11 3.22070599e-11 1.77706894e-11
      9.29217814e-12 -9.31472521e-12 3.34461517e-12 -6.42079358e-12
      3.39125741e-11 1.94118402e-11 -2.44465689e-12 -1.53987673e-11
      3.63738923e-16 -2.51879442e-12 -1.50857261e-11 -1.44964154e-11
      -1.99628812e-12 -1.23775139e-11 3.36756213e-11 -1.58500058e-13
      4.27165811e-12 1.88590398e-12 -1.72345575e-11 3.82520534e-12
      -2.41393554e-11 3.91566536e-11 -2.57902883e-11 -3.33417842e-11
      -3.40267224e-11 1.59197187e-11 -1.68155368e-11 -3.35970374e-13
      1.50446530e-11 -4.27463707e-12 7.84491309e-12 -2.15583610e-11
      1.56261928e-12 3.93023461e-11 3.62711527e-11 -1.64005701e-11
      -1.43719368e-12 -3.99754752e-12 -9.95920360e-13 1.24807630e-11
      -4.75759840e-13 3.22070356e-11 1.40168628e-12 -1.54441113e-11
      -3.62236942e-11 -2.15576151e-11 6.94510378e-12 2.01892687e-11
      -7.09766404e-12 1.50848101e-11 -2.00811607e-11 -1.09373708e-11
      -4.10691229e-12 -2.68623509e-11 -3.23258816e-11 1.67874187e-11
      2.15482077e-11 2.15008621e-13 -1.85485984e-11 6.20554346e-12
      7.30826857e-12 1.38828836e-11 -7.78817115e-12 -2.26731862e-11
      1.01476787e-11 3.60724883e-12 -1.26243781e-11 -8.57287939e-12
      -1.43733749e-11 -1.10324553e-12 4.69410240e-11 -1.09135609e-11
      1.40236113e-11 7.04233709e-13 -7.98627831e-12 1.27675604e-11
      7.13489207e-12 4.46637553e-11 -8.80632026e-12 1.01062665e-11
      -1.01999329e-11 -1.37907481e-11 -3.23540673e-11 2.21953532e-11
      2.03460131e-11 2.54785602e-11 -3.52911732e-12 2.24872898e-11
      3.04070380e-11 9.59665767e-12 1.02804007e-11 1.62404135e-11
      -7.76085619e-12 5.45670930e-13 2.61587995e-12 4.74578189e-12
      2.47230058e-12 1.39047298e-11 -2.07872153e-12 1.81505540e-11
      3.19907434e-11 -4.92463882e-12 4.80905723e-12 8.57939154e-12
      2.09768921e-11 -2.90059036e-12 3.78215731e-12 -3.04494069e-11
      2.86391223e-11 -1.55681214e-11 -3.16149988e-11 4.83663110e-12
      1.08152116e-11 -2.45191714e-11 -4.47505331e-11 -3.88238140e-12
      -4.20185622e-11 1.58494381e-11 1.26734690e-11 -7.55563320e-12
      -2.15933070e-11 2.21630110e-11 -4.05841714e-11 4.01916382e-11
      1.96313851e-11 2.57929476e-11 -2.37449210e-11 -2.84540117e-11
      -3.90611710e-11 -7.58770616e-11 -1.10684665e-11 7.37176379e-13
      -1.46990250e-11 -3.16683103e-11 -2.23588058e-11 -2.35940070e-11
      -4.72850578e-11 -2.71413517e-11 -1.52032918e-11 -1.31239724e-11
      -1.53397434e-11 1.03256995e-11 9.21720079e-12 1.13242046e-11
      -3.56452402e-11 -3.46007147e-11 -6.01396988e-11 -2.53105393e-12
      -1.85649087e-12 -2.11993808e-11 -2.70164204e-11 -2.86066778e-11
      -2.85768752e-11 -3.86413262e-11 1.62017069e-12 -2.90146275e-11
      -3.41294319e-11 -5.03523265e-12 -8.02655685e-12 -1.16505538e-11
      1.23556308e-12 -1.66797721e-11 6.76964951e-12 -1.25374086e-11
      -5.27700973e-11 -3.22255157e-12 -1.90536181e-11 2.33456986e-11
      -1.10834224e-11 -1.69399651e-11 -2.95844946e-11 -4.69704796e-11
      -1.96730757e-11 -3.54278273e-11 5.03878493e-12 -1.08242729e-11
      -3.95125564e-11 -1.97185653e-11 1.12689380e-11 -3.14712596e-11
      -6.15899484e-11 -3.12058469e-11 -3.79115489e-11 5.40063133e-12
      -3.83534315e-11 -1.50825654e-11 -4.32112054e-11 -5.93503857e-11
      -5.03490652e-11 -6.65111161e-11 1.49073774e-11 -8.94587963e-12
      -1.10453582e-11 2.61285351e-12 -2.83737617e-12 1.13022933e-11
      2.00247562e-11 -1.40541951e-12 3.25873044e-11 -1.48791639e-11
      -1.77881702e-11 8.15369148e-13 -2.14787372e-11 -6.22718370e-12
      1.50420832e-12 -3.67634222e-11 -3.03414932e-11 -4.99207342e-11
      3.05475561e-13 -1.00817586e-12 5.48586870e-12 -2.56854746e-11
      -2.88166778e-12 1.64354627e-13 -1.33741542e-11 5.60531656e-12
      -9.32405542e-12 -3.21122230e-12 -8.66384742e-12 2.49376353e-11
      3.26985453e-11 -6.20335597e-12 4.90108371e-11 -3.23521765e-11
      -3.80508472e-11 -9.59404865e-12 1.01188025e-11 -5.11630877e-11
      -3.71324534e-11 -1.68683748e-11 -7.59583715e-12 1.65265475e-11
      -3.99814279e-11 -1.12483339e-11 -1.17470174e-11 -4.68383769e-11
      -1.21318840e-11 -1.09849777e-11 -1.34175639e-11 -2.95954962e-11
      -1.20541971e-11 1.14014128e-11 1.12099548e-11 -4.18897174e-11
      -3.72722027e-11 -9.31991984e-12 -6.64366435e-12 -4.94713298e-11
      3.02110073e-11 -7.23893168e-12 2.20609000e-11 9.35652250e-12
      -1.77851223e-11 -4.89223106e-11 -1.81054856e-12 5.53221705e-11
      6.50770280e-12 1.84782988e-11 -1.91464141e-12 -1.77943372e-11
      -2.39547028e-11 9.82799172e-12 -8.68216003e-12 1.91173258e-11
      1.50211493e-11 -8.20546756e-12 2.49845891e-11 -2.94485443e-11
      2.32549448e-11 1.98813253e-12 -4.09030622e-11 -3.80888376e-11
      1.24755935e-11 -6.18235020e-12 -1.84776899e-11 2.52749341e-12
      -7.59787112e-12 2.28943808e-11 -4.13186109e-12 -1.56775363e-13
      -7.10006056e-14 3.22351000e-11 -4.29979359e-12 -8.97194211e-12
      -7.60085015e-14 -2.35366743e-11 2.47562821e-11 2.91611180e-11
      1.31383307e-11 -2.11465481e-11 -2.38147132e-12 -1.86800124e-11
      8.47839160e-12 2.96391314e-11 -6.62920985e-14 -2.77740365e-11
      -5.89656796e-12 -5.18015041e-11 2.10368875e-11 1.26847881e-11
      4.21597219e-12 1.62317590e-11 1.16456298e-11 1.58988170e-11
      3.88155480e-11 2.86507255e-12 4.31646212e-12 -1.26493685e-11
      -2.53474637e-11 -3.57512665e-11 3.97146933e-11 -8.57500789e-12
      -1.08592727e-11 3.25621387e-12 2.57956313e-11 -3.62605237e-12
      5.26749130e-12 -7.10119810e-12 -3.39627736e-11 -4.41797154e-11
      -6.31847265e-12 -4.52240086e-11 -1.16454971e-11 -2.18507920e-11
      -1.86806278e-12 2.07160851e-12 -4.58382082e-11 -5.00990638e-11
      -4.76118762e-11 1.86855201e-11 -4.96205438e-11 -8.78190153e-13
      1.02612519e-11 -1.81700401e-11 -2.07517666e-11 3.26148206e-11
      -6.73142271e-12 -7.10168938e-11 -4.58431383e-11 -3.56653283e-11
      -4.14584408e-11 8.92134196e-12 2.49589707e-11 -7.68342681e-12
      -2.56846888e-11 -3.14378627e-11 -2.63497002e-11 -1.43665158e-11
      -1.14704565e-11 -2.25536725e-11 -5.13337940e-12 3.91484154e-12
      -1.69415298e-11 1.29555516e-11 2.54205181e-11 -2.80566161e-11
      5.50075333e-11 7.13428483e-11 3.65027175e-11 9.66140536e-12
      2.83038089e-12 4.53352807e-11 2.04296717e-13 1.15598234e-11
      -7.48469862e-12 1.68116580e-11 -8.44802093e-12 9.44991915e-12
      2.29475969e-11 -9.52353561e-12 -1.38933014e-11 -5.83086314e-13
      1.58409796e-11 -4.83452601e-12 -1.81966074e-11 -1.16785496e-11
      3.30538851e-12 3.38940768e-12 -7.07074373e-12 1.99860805e-11
      2.00211744e-12 -2.18843364e-11 1.29227336e-12 3.30678748e-11
      -1.18123671e-11 5.64340154e-12 2.50776847e-11 -1.02446740e-11
      2.48161023e-11 1.34911839e-11 -4.75405392e-12 2.89834701e-11
      9.74535643e-12 -1.72406932e-11 -7.62011461e-12 -4.53750579e-12
      1.61122088e-11 3.55814128e-11 4.87112737e-12 4.75586237e-11
      3.68538394e-11 1.35726231e-11 -3.25270817e-11 -1.00138973e-12
      -4.44573545e-12 1.41698962e-11 -8.80400180e-12 -4.90352516e-11
      7.73528464e-12 -1.96100861e-11 1.42987384e-11 1.99127641e-11
      5.21197113e-11 2.00865418e-11 2.82145869e-11 1.15236345e-11
      -8.92231688e-12 -2.41731808e-12 -3.08153295e-11 2.90943593e-12
      -2.82619449e-11 -6.36153977e-12 -2.22312949e-11 -5.60594071e-11
      3.43141141e-12 -2.52597665e-11 -2.44966426e-11 -6.95278687e-12
      -1.15204183e-11 -3.85847569e-11 -7.38449718e-11 -3.01040026e-11
      2.85679501e-11 -1.04355882e-11 -2.56351294e-11 3.90029120e-11
      5.74429176e-12 -3.21347046e-11 -6.46310852e-11 -7.66343378e-11
      -7.49167742e-12 6.05236347e-12 -5.60957530e-12 2.08148047e-11
      -1.26469417e-11 -2.09872189e-11 -1.93466024e-11 1.00348654e-14
      9.39104437e-12 4.81795229e-11 6.44714360e-12 -2.26255716e-11
      -2.66282430e-11 -3.97556675e-11 -3.02117151e-11 -1.42692472e-11
      -3.28045750e-11 -1.31341483e-11 -4.39232158e-11 -6.43127773e-11
      -9.21439981e-14 -5.07995451e-11 2.54631038e-11 5.63464466e-12
      9.39096283e-12 2.42590635e-11 -3.23264332e-11 3.18370330e-11
      1.38661981e-11 -9.02188480e-12 -1.51244225e-11 -7.49677230e-12
      1.03056738e-11 9.07233273e-13 5.58450595e-12 -4.78313136e-12
      -1.50575368e-11 1.83066886e-12 1.39896063e-11 -4.20505807e-13
      1.51076391e-11 1.98010514e-11 3.76789789e-12 -2.91357910e-11
      1.26944696e-11 3.09719715e-11 3.28710219e-11 8.24687801e-12
      -7.45376937e-12 -1.31181632e-12 -3.42947233e-11 9.06584963e-12
      9.42712054e-12 -4.56900967e-12 -1.05664201e-11 -3.48758002e-12
      -5.07599171e-13 -1.63198413e-11 -2.08250483e-11 7.58122124e-12
      1.75618183e-11 -8.69819841e-12 -1.54604324e-12 3.55846342e-12
      3.20935223e-11 -1.52012049e-11 -7.88357574e-12 -3.40017250e-12
      -2.86047765e-11 -1.09975549e-12 -2.33402134e-11 -6.59291111e-12
      -2.98836025e-11 -4.97621042e-12 -5.08336255e-11 2.19884857e-11
      3.21452170e-11 -1.06595011e-11 6.81127030e-12 -1.83822246e-11
      3.01556974e-11 -2.61694334e-12 -5.62823703e-12 -9.70250269e-12
      -1.93258222e-11 5.33125540e-12 3.59733814e-12 -1.57284134e-11
      -1.23568924e-11 3.06982543e-12 1.45864796e-11 -4.14049975e-11
      -1.92343797e-12 -3.37102351e-12 -2.34620934e-11 -3.44809077e-11
      -2.80210213e-11 -5.61338649e-11 -3.87408751e-11 1.68024691e-11
      1.52646264e-11 -1.37282095e-11 4.92901683e-12 -1.64578871e-11
      -5.34216768e-12 -2.17976748e-11 -9.97404156e-12 8.19120292e-12
      -4.06374344e-11 -1.39139204e-11 1.72554657e-12 -9.96702720e-12
      -2.35402583e-11 -2.46205192e-11 -2.35810278e-11 -4.94757568e-11
      -9.31857109e-12 -1.12512152e-11 2.14228774e-11 -4.45411069e-12
      -1.86008119e-11 -1.86446622e-11 -3.15832343e-12 -4.04058592e-11
      -3.98747250e-11 -2.61626137e-11 -4.25127988e-11 -2.48209127e-11
      -1.74907710e-11 -7.06297347e-12 7.54255131e-11 -3.98826701e-11
      3.84264287e-11 4.64589131e-12 6.86062058e-12 -9.76018311e-12
      -7.02682574e-12 1.40305866e-11 2.54749104e-11 4.23966834e-11
      -1.76671039e-11 1.70078600e-12 -2.21941493e-11 -1.78798695e-11
      1.50579080e-11 -2.70115319e-11 1.32355680e-11 1.86831349e-11
      -1.46757281e-12 3.04781998e-11 -1.51772310e-11 1.28506424e-11
      -1.76451041e-11 -1.80116479e-12 -9.29676822e-12 4.01057694e-11
      3.05227094e-11 -1.92195600e-11 1.56717504e-11 3.22363351e-11
      4.13739138e-12 2.46036316e-11 3.26926437e-11 3.25947880e-11
      -1.67061764e-11 -8.11074558e-12 2.96765806e-11 -1.68530901e-11
      4.13362608e-11 1.98174654e-11 4.89011262e-12 8.37120304e-12
      4.62063998e-11 1.63202750e-11 1.21084948e-11 -1.08910233e-11
      1.30660218e-12 3.11352749e-11 -1.05566476e-11 -4.79078444e-11
      -1.72450543e-11 4.40130779e-11 4.85099426e-11 -2.18064664e-11
      -2.95181479e-12 -2.93540973e-12 3.60370622e-11 -3.46551191e-11
      1.93941998e-11 3.94122929e-11 1.13711505e-11 -3.32377945e-11
      -1.93031962e-11 -3.96384765e-11 -3.35683807e-11 -1.96640568e-11
      1.99885746e-12 9.25119530e-12 3.55627789e-12 -1.86727508e-11
      1.46698573e-11 6.70402059e-12 -1.09371550e-12 1.71561012e-11
      2.82676261e-11 -5.27971980e-12 -2.65793602e-11 5.54642651e-11
      8.17670497e-12 -9.79594357e-12 -5.41684336e-11 -2.92128891e-11
      -1.76622380e-11 -6.55782512e-11 -2.22556262e-11 -5.86533391e-11
      8.62458813e-13 -2.43668401e-11 2.66934495e-11 -1.46465444e-11
      -4.18226807e-11 -2.58360139e-11 -3.41918785e-11 8.91996980e-12
      3.21666201e-11 4.02929036e-12 -8.65273738e-12 4.68603108e-12
      -3.16413770e-11 -4.87391585e-11 -1.08482173e-11 -3.49914780e-12
      -8.80160701e-12 -2.22592170e-11 -2.16106612e-11 -1.97611112e-12
      -3.96076704e-12 1.34534545e-11 -3.26869851e-11 7.41070833e-12
      -1.42761488e-11 -5.32800436e-11 4.35193982e-12 -3.07587220e-11
      -2.59450725e-11 -3.56373819e-11 -5.12060012e-12 -3.65366027e-12
      2.28817243e-11 -3.82762181e-12 -3.71406968e-11 -1.30473592e-11
      -2.53268084e-11 -2.20078990e-11 -4.94670927e-12 1.97192315e-11
      -1.39166749e-12 -2.00870327e-11 8.50430403e-12 -1.21924970e-11
      1.28695778e-11 -2.23738077e-11 -4.55030024e-12 2.25685876e-11
      -1.48665611e-11 7.31009003e-12 -4.13661501e-11 2.73814894e-11
      1.73237050e-11 2.18088637e-11 2.30941568e-11 6.27379529e-12
      1.69760976e-11 3.94183020e-11 9.58016218e-12 -2.80512397e-12
      -2.47513260e-11 8.32607854e-12 -1.21048015e-11 -4.14588676e-11
      -2.37769613e-12 -1.36800744e-11 -5.87218260e-11 -2.68884914e-11
      -1.74083681e-11 4.70222264e-11 -8.63187722e-13 1.05107477e-11
      -1.95655870e-11 3.89291620e-11 -2.13674686e-11 1.83044569e-11
      -8.23691983e-12 1.25017705e-11 -2.67680374e-11 7.45304252e-12
      -2.02122971e-11 9.59125314e-12 3.78561245e-12 -2.26715712e-11
      -2.40163930e-11 4.42691855e-11 -1.76660093e-11 5.34750629e-12
      -7.02424837e-12 3.06762150e-11 -2.78937793e-11 -1.49191128e-11
      -3.64140445e-12 1.92808373e-11 -7.49692756e-12 6.43585749e-12
      8.89389257e-12 -2.77708152e-11 -3.13899184e-11 1.44538895e-12
      5.97571784e-11 -1.02952950e-11 -1.35324295e-11 3.18975783e-11
      -1.80936290e-11 -5.11020696e-12 -6.43088152e-11 -4.46127510e-11
      -5.10988682e-11 -2.65617493e-11 -7.56799484e-12 1.98943310e-11
      1.33669933e-11 -1.17137229e-11 4.37156691e-12 -1.69775478e-11
      -4.04116358e-11 -1.75877750e-11 1.45508518e-11 -1.97080655e-12
      3.26079354e-12 -2.71330202e-12 -1.07161970e-11 -9.10454524e-12
      -1.09421092e-11 -2.79964905e-11 1.69645097e-11 -1.47754187e-11
      -4.86103068e-11 -3.21761194e-11 2.02056462e-11 -1.51300344e-11
      2.25490321e-11 -8.04419725e-12 -4.35125790e-11 -1.82098156e-11
      -2.65919786e-11 -3.80634101e-11 -2.71123384e-11 -3.65725158e-11
      -3.31190457e-11 1.36529720e-11 1.50232572e-12 3.50917835e-13
      -2.05951766e-11 -3.31690266e-11 -3.25548928e-11 5.70597953e-12
      2.43003985e-11 -6.58521035e-13 -1.54621628e-11 -1.94480335e-11
      -2.98709217e-11 -5.07855251e-11 -8.79599171e-11 -4.48415471e-11
      -3.35997445e-11 -1.29592960e-11 -8.10361760e-12 1.04497019e-11
      2.22313118e-12 -3.52941322e-11 -1.11754085e-12 -5.12532863e-11
      -2.46778518e-11 -1.57725898e-11 1.61094419e-11 -4.29705820e-11
      2.28516026e-11 8.33687373e-12 4.19287764e-11 1.77759335e-11
      -4.44934610e-11 -6.18847057e-11 -4.47065163e-11 -3.87455727e-11
      -4.36743385e-11 1.51887791e-11 -3.74211877e-11 3.21934341e-12
      -2.51783837e-12 -1.41113605e-11 -3.31886185e-11 -1.45593815e-11
      -2.71615612e-11 -1.24947700e-11 1.91407936e-12 -1.12875577e-11
      -1.93639445e-11 -2.49767793e-11 -3.07362330e-11 -5.78915735e-11
      -4.89182063e-11 -3.56599715e-11 -1.47334055e-11 7.38359623e-13
      -3.35209811e-11 -2.41442717e-11 9.97277001e-12 -3.95391749e-12
      2.38596486e-11 -2.23041117e-11 -3.99154355e-11 -1.96507480e-11
      -3.83732733e-11 -8.02515068e-11 -4.18629333e-11 -2.03211666e-11
      -1.62237619e-11 -3.19898275e-12 -2.18040429e-11 -4.18627771e-11
      -3.04537229e-11 -1.59047237e-11 -1.12844092e-11 -2.91459495e-11
      1.65414835e-11 -1.28966317e-11 -2.50891460e-11 1.85089079e-11
      1.23748607e-11 -1.71251329e-11 2.19041868e-11 -2.13378664e-12
      -2.58191801e-11 -2.89952420e-11 6.36977146e-12 2.24945548e-11
      -4.19282595e-11 -7.70487244e-13 -1.36248400e-11 2.51509154e-13
      1.30507740e-11 9.45055059e-12 -1.56214642e-11 -2.88522609e-11
      -5.65412717e-11 -1.29259008e-11 -3.87846213e-11 6.96565331e-12
      1.79732829e-13 1.39076103e-11 -1.52383592e-11 -2.37263525e-11
      -7.59018629e-12 -5.46238705e-12 2.02678690e-11 -8.07997939e-12
      4.67453203e-12 2.18363019e-11 -3.47267909e-11 -1.44783916e-11
      1.09587608e-11 1.49655913e-11 1.96581536e-11 1.71659249e-11
      2.05086685e-12 -1.21808015e-11 1.89992761e-11 -2.37277958e-11
      2.04589193e-11 -9.62562842e-12 3.25580916e-11 3.20643269e-11
      -3.65925970e-11 7.26809932e-12 -2.01776217e-11 -1.36437302e-11
      2.14780641e-11 2.52386462e-11 -1.81615112e-13 -9.07279720e-12
      -2.06006254e-11 -4.83269327e-11 -1.57754192e-11 1.49193158e-11
      2.17984710e-11 -2.55539808e-11 3.06612960e-12 -1.54172525e-11
      2.33643421e-12 2.08471938e-11 5.26933315e-12 -2.08041830e-11
      1.31671202e-11 1.30236759e-11 1.71225673e-11 2.41837054e-11
      -1.61630327e-11 -9.06533876e-12 1.42810850e-11 6.48576245e-12
      1.73462685e-11 5.47920173e-12 -2.46122463e-11 2.46293073e-11
      -2.34386954e-11 -4.12066457e-11 -1.56251904e-11 1.30943598e-11
      1.81581746e-11 6.48501131e-12 -9.31344932e-12 -3.76364113e-11
      -3.03387350e-11 -1.96328336e-11 -1.33297453e-11 5.97491414e-12
      1.79883174e-11 2.32338038e-11 2.31684637e-11 2.70558992e-11
      -2.09742588e-11 -1.45556414e-11 -3.46203691e-11 2.44940283e-11
      -1.18001377e-12 5.87632156e-12 -4.25233078e-11 -1.84247912e-11
      -2.75037215e-11 1.43060531e-12 5.10851639e-11 4.81842621e-11
      -1.00609061e-11 1.31228049e-11 -1.45174749e-11 1.62122468e-11
      -5.63030005e-12 -3.53619807e-11 1.66649160e-11 -6.40160537e-12
      -1.81786107e-12 9.74569644e-12 3.36072836e-11 4.82132997e-12
      -1.97850712e-11 1.01488306e-12 -2.69945134e-12 1.95175872e-11
      -2.95306626e-11 1.79894589e-11 2.35554961e-11 8.35968100e-12
      4.49688247e-12 1.22472397e-11 1.07062206e-11 6.96262579e-12
      9.26843931e-12 -4.57309433e-11 -1.29561162e-11 3.32298382e-12
      -2.30707424e-12 -1.92118630e-11 -1.19001055e-13 9.56955262e-12
      -5.83270324e-12 -2.16650482e-11 1.60062744e-11 -2.15569871e-11
      1.91881025e-11 -5.08923199e-12 1.71212020e-11 -4.39784181e-11
      4.89531367e-11 2.34342840e-11 8.49966365e-12 9.93563478e-12
      5.67595320e-12 1.45232285e-12 3.03918418e-11 -7.33514464e-12
      2.00979788e-11 -8.11042246e-14 -2.90607989e-12 -1.87833278e-12
      1.46052292e-13 -3.35339785e-12 -5.65921658e-12 -6.98051859e-12
      8.98477820e-12 -2.68897057e-11 3.13540305e-11 1.73334905e-11
      -3.47857645e-11 -2.48275307e-11 -3.94054789e-11 2.71513519e-12
      1.12152648e-11 9.76400818e-12 -7.57208705e-12 -3.50383160e-11
      -2.75634333e-12 -3.76908964e-12 -3.04688566e-12 -2.88779434e-11
      -2.04381564e-11 -7.08764297e-12 -2.73675596e-11 1.77443182e-11
      5.14707721e-11 2.32202608e-11 3.33887258e-11 1.78882169e-12
      2.47098800e-11 -2.72799838e-11 -9.07603853e-12 -6.54064693e-12
      -1.48341790e-11 -1.92869470e-11 1.96630559e-11 -1.56758842e-11
      -2.45047056e-11 4.84247408e-12 -1.36344373e-13 1.69145826e-11
      1.73041945e-11 8.43819285e-12 8.23697013e-12 -3.61419436e-11
      1.00633889e-12 1.46693942e-11 8.43428539e-12 1.65925572e-11
      3.49521258e-12 1.23075395e-11 -3.23622720e-13 -2.56048117e-11
      -1.36022244e-11 -3.17684837e-11 4.97466998e-12 4.12201436e-12
      1.43074129e-11 2.94522427e-11 1.08846777e-11 2.37494208e-11
      6.01016632e-12 5.03355552e-11 -6.96966009e-12 -1.77412546e-11
      4.58698635e-11 -1.23260094e-12 2.55401811e-11 1.06772414e-12
      1.62831085e-11 1.02285142e-11 9.57018839e-12 -2.93561252e-11
      1.83686295e-11 -1.77206739e-11 6.14104340e-12 1.72744631e-11
      -1.89748686e-11 -7.51587421e-12 -9.58985582e-12 -7.73244576e-12
      -1.08317782e-11 -3.88377421e-11 -3.45996756e-12 -7.50142136e-12
      -5.61261324e-12 -1.19751284e-11 1.32992558e-11 3.88134698e-11
      -3.05004078e-11 7.59611341e-13 4.08322820e-11 -8.55791046e-12
      -1.10171256e-11 7.87636015e-12 3.48238174e-11 -8.58733657e-12
      -2.28274279e-12 -1.14956473e-11 1.58638207e-12 1.49111507e-12
      -2.30694873e-11 -7.09362256e-13 2.69626248e-11 1.63606524e-11
      -6.22013595e-12 4.24230477e-11 1.80217057e-11 3.21439299e-11
      1.50769536e-11 -9.91177539e-12 -4.78825790e-12 -3.19095965e-11</_></support_vectors>
  <decision_functions>
    <_>
      <sv_count>1</sv_count>
      <rho>-8.4830537039337628e-10</rho>
      <alpha>
        1.</alpha>
      <index>
        0</index></_></decision_functions></my_svm>
</opencv_storage>
