<?xml version="1.0"?>
<opencv_storage>
<my_svm type_id="opencv-ml-svm">
  <svm_type>C_SVC</svm_type>
  <kernel><type>LINEAR</type></kernel>
  <C>2.9103800000000001e-11</C>
  <term_criteria><epsilon>1.1920928955078125e-07</epsilon>
    <iterations>1000</iterations></term_criteria>
  <var_all>1296</var_all>
  <var_count>1296</var_count>
  <class_count>2</class_count>
  <class_labels type_id="opencv-matrix">
    <rows>1</rows>
    <cols>2</cols>
    <dt>i</dt>
    <data>
      -1 1</data></class_labels>
  <sv_total>1</sv_total>
  <support_vectors>
    <_>
      1.42285333e-11 -7.36141009e-12 4.94705058e-12 9.67367506e-12
      4.29683476e-11 4.01784292e-12 3.68711693e-11 -2.47170860e-12
      1.16480957e-12 -2.89514541e-11 3.34739597e-11 -4.46647441e-11
      8.33426123e-12 3.43294247e-11 -1.06582443e-11 1.76102839e-12
      -4.18315417e-11 2.03496907e-11 -2.02030701e-11 -7.46519686e-12
      -3.90049321e-12 -2.32777339e-11 -4.02638556e-12 -1.71940743e-11
      -3.29294439e-11 -2.14470924e-11 -1.45311280e-11 -3.55501869e-12
      1.33424816e-11 1.38548591e-11 3.64766758e-11 2.96508755e-11
      1.17878537e-11 -3.06846042e-11 -3.77386664e-12 -2.66701539e-11
      7.88788045e-12 2.92514407e-12 -1.14356389e-11 1.87166654e-11
      4.72524103e-11 2.34506563e-11 6.24031313e-11 1.38401495e-11
      -1.85464213e-11 1.45869063e-11 3.22429791e-11 -2.71029605e-11
      -2.15383978e-11 3.49869543e-11 -5.54994592e-12 -6.14053404e-13
      2.51661777e-12 4.43068603e-11 1.13970222e-11 4.20196690e-12
      2.22454919e-11 -3.21804714e-12 -1.47098392e-11 -1.56550901e-11
      1.53728037e-11 -3.81257179e-12 -1.67365348e-13 5.78149204e-12
      -2.53085920e-11 1.05175278e-11 9.78883901e-12 -1.12865977e-12
      1.01616467e-11 1.46596225e-11 -3.25535120e-11 -4.22258712e-12
      2.31523498e-11 7.69658903e-12 -1.15210584e-11 4.62697519e-11
      2.03480392e-11 1.95382495e-11 4.03352941e-11 -1.74264648e-11
      -2.00123251e-11 -7.41090522e-12 -2.04062288e-11 7.30351706e-13
      1.97109776e-12 4.16644878e-11 -1.57227408e-11 -2.23549530e-11
      -1.13079216e-11 1.84860131e-11 3.16467443e-11 -1.12812624e-11
      5.01333489e-11 -2.41154510e-11 -1.90467989e-11 -8.37596919e-12
      -3.28982779e-11 1.59114406e-11 1.47280851e-11 -1.48413692e-12
      -1.80823967e-11 2.61588529e-11 -1.70793952e-11 -1.64629785e-11
      -4.08474123e-11 -9.29765466e-12 1.46725444e-11 -2.26323994e-11
      4.72759505e-12 -3.19400821e-12 -1.54505679e-11 6.88816755e-12
      -2.02305447e-11 2.41791170e-11 7.33122330e-12 3.05523558e-11
      -6.83500478e-12 -3.17002674e-11 -3.42087435e-11 2.56451869e-12
      -3.66613961e-11 -2.34033834e-11 -2.30296893e-11 3.18016169e-11
      6.13852285e-12 -1.77781216e-12 2.73726289e-12 1.14451929e-11
      1.03423554e-11 1.36555845e-11 -1.59330171e-11 9.81412521e-12
      1.30185003e-11 2.03066227e-11 5.82563641e-12 -1.86839693e-11
      -2.45230637e-12 1.76550320e-11 -5.54003093e-11 -1.45078819e-11
      -3.85320508e-12 -1.02240156e-13 -7.70047914e-12 -2.03310580e-11
      -7.94108106e-13 5.85619400e-12 2.06833075e-11 2.27327636e-11
      2.11194864e-12 3.78797905e-12 2.98332088e-11 1.19877266e-13
      -6.88456714e-12 -2.87116771e-11 -3.98153906e-12 -1.71054889e-11
      9.90295432e-12 2.71404670e-11 -3.02537891e-11 9.48164819e-14
      1.37059296e-11 -4.63460780e-12 1.18780957e-11 -7.78697766e-12
      8.87581848e-12 3.17907744e-12 3.17683076e-12 1.71051749e-11
      -1.28982701e-11 4.19535023e-12 -6.79714011e-12 -1.39996140e-11
      -4.99406523e-11 8.39223396e-12 -3.09529208e-11 8.59623841e-13
      2.59174626e-11 1.20726632e-11 1.12495091e-11 1.44902432e-11
      -7.20757091e-12 -2.46849815e-11 -8.25131196e-12 -1.64357902e-11
      -2.23765494e-12 2.21157658e-11 3.86308242e-11 -2.54782584e-11
      4.43847910e-12 7.10996106e-12 -6.57196129e-12 -7.88086783e-12
      -1.33465487e-11 3.63255467e-11 8.70524486e-12 1.87454045e-11
      -4.51278216e-11 7.48054559e-13 3.81520232e-11 8.10382057e-12
      2.25586286e-11 4.22197242e-11 -2.78473373e-11 -1.32406109e-11
      7.12407477e-12 7.51280722e-12 -2.86723098e-12 3.11868274e-11
      -1.02299376e-11 -2.74031700e-11 1.20810859e-13 -3.39935892e-12
      -2.73557804e-12 1.35662453e-11 1.20487593e-12 -1.50322237e-11
      -1.08837451e-12 1.21890831e-11 -5.88650786e-12 1.38745994e-11
      -7.27831857e-12 2.05107910e-11 7.04857700e-11 -3.18658398e-11
      -1.35510552e-11 1.42657258e-11 1.77456157e-11 1.63465456e-11
      1.04108710e-11 2.23118711e-11 -9.34897038e-12 -2.51654340e-11
      -8.51530391e-12 -3.55877090e-12 -3.06812648e-12 3.00050922e-11
      9.00993689e-12 3.12417175e-11 1.84698628e-11 8.47352483e-12
      -2.25729088e-11 1.61081704e-11 -2.87870561e-11 -1.29676860e-11
      9.92740720e-13 3.21227940e-11 2.96727421e-12 -2.43025760e-12
      -3.25877381e-11 1.46686222e-11 -8.01299305e-12 -1.39550194e-11
      -8.53423582e-12 -9.57175571e-12 8.67381514e-12 -7.80761393e-12
      9.41006995e-12 9.91396635e-12 -1.10947068e-11 1.99932280e-12
      3.30113020e-11 3.17678696e-11 -2.56704432e-11 -4.93534172e-11
      1.73237050e-11 -7.44175641e-12 -3.80127631e-11 -3.82727649e-13
      6.31483928e-12 7.22547759e-12 2.57569781e-11 -3.04843338e-11
      -8.95611536e-12 -1.05012752e-11 -3.14467341e-11 1.28344514e-11
      3.26074931e-11 1.06156958e-11 -1.98150940e-11 -2.26334732e-11
      -5.31524581e-11 -5.89835195e-11 -9.24633287e-12 1.36098658e-11
      -3.10722953e-12 -3.39711176e-11 -1.69367992e-11 -2.68812906e-11
      -5.76469844e-11 -3.59172900e-11 6.57221944e-14 -3.08450279e-11
      -1.46756669e-11 -8.04189874e-12 3.27158092e-12 6.12908108e-13
      -4.97048583e-11 -2.81971842e-11 -5.68823426e-11 -1.99729244e-11
      -1.87077888e-11 -1.61685526e-11 -1.69065421e-11 -2.34850247e-11
      -2.56782755e-11 -3.47731566e-11 -4.70937785e-12 -5.05403393e-11
      -1.67353739e-12 2.68149791e-11 -5.56374391e-11 2.44179468e-11
      6.90294046e-12 -1.27320064e-11 1.69768331e-11 -4.66420513e-11
      -2.05222211e-11 1.53226737e-12 -4.38397062e-12 1.01479086e-11
      -5.33477342e-12 3.56208119e-12 -1.72548677e-11 -1.79141181e-11
      -4.62252146e-11 -2.34746354e-11 -4.18861083e-12 -9.35131052e-12
      -8.14847669e-12 3.32957880e-12 8.64958799e-12 -4.00958468e-11
      -3.69427371e-11 -2.83714597e-11 -4.03966999e-11 -3.51217527e-11
      -3.42477921e-11 -1.57448117e-11 -3.87077566e-12 -2.60700454e-11
      -2.37368718e-11 -6.32426403e-11 -3.05540489e-11 6.33975240e-13
      -1.40817800e-11 -2.90048259e-12 1.63186793e-12 1.50720512e-11
      -1.14237970e-12 -2.95277656e-11 1.17394948e-11 -2.04300188e-11
      1.22888548e-11 -1.72216703e-11 -2.35564970e-11 -1.81446941e-11
      -3.60488618e-11 -3.42151654e-11 -5.12430168e-11 -4.64513844e-11
      1.45089427e-11 5.32638560e-12 -1.31164558e-11 2.96199142e-11
      -1.63470314e-11 -3.96687327e-12 -1.51216123e-11 -3.14433440e-12
      -1.30654368e-11 -8.53038300e-12 -2.74566828e-11 1.95222050e-11
      1.17985665e-11 3.38458740e-11 3.10587285e-11 -5.12298121e-11
      9.12153859e-12 2.59686088e-12 1.14861343e-12 -3.26389402e-11
      -4.66552803e-11 -1.64881823e-11 2.49450135e-12 -1.26216954e-11
      -4.57354189e-11 -3.58514468e-11 -4.10543717e-11 -1.26735844e-11
      -1.09180998e-11 9.79084695e-12 -2.90675400e-11 -2.83800049e-11
      -8.54382103e-12 1.60038822e-11 -7.97245950e-12 -2.04319409e-11
      1.48789245e-11 1.36210166e-11 -7.60287926e-12 7.34963392e-12
      2.79118187e-11 -1.70590972e-13 9.18598357e-12 1.62266416e-11
      -3.57306849e-13 1.82100012e-11 1.48373050e-11 1.45770201e-11
      -1.01190141e-11 2.43874781e-11 1.75834798e-11 3.03776553e-11
      -1.93693395e-11 2.71104736e-11 4.28480480e-11 2.45945989e-11
      1.89362796e-11 -6.40776451e-12 1.50662035e-11 -6.96776447e-12
      6.02853011e-12 1.35050894e-11 1.60829492e-11 2.71189720e-11
      2.11461751e-11 3.86000849e-11 1.13592035e-11 6.07125461e-11
      6.33989592e-15 -5.56988136e-12 1.64231337e-11 5.26995505e-12
      -3.50670751e-12 5.47783954e-12 -1.53168745e-11 -4.33701304e-11
      3.22357314e-11 -3.16630923e-11 -3.28200813e-12 3.82069584e-11
      5.74814545e-12 -2.64773047e-11 6.74879293e-12 1.22569940e-11
      4.30010749e-11 2.22396858e-11 -1.40556733e-11 -2.58436623e-11
      -8.34737661e-12 -4.59995583e-11 9.17115949e-12 1.40607422e-11
      2.17552556e-11 -2.90401774e-12 4.60850151e-12 -8.50400479e-12
      2.60977975e-11 -5.12638022e-12 -4.13668801e-13 -2.20662950e-11
      1.70814708e-12 -3.88105173e-11 1.17433632e-11 -4.65443933e-11
      -2.46678806e-11 -1.29343003e-11 1.18793040e-11 -2.38659006e-11
      -2.10357669e-11 -2.04672754e-11 -3.63296337e-11 -5.69155001e-11
      -1.13967620e-11 -3.05031521e-11 -1.78762365e-12 -4.76340460e-11
      -5.37588463e-12 -1.10663059e-11 -4.65855098e-11 -7.96238908e-11
      -5.52762523e-11 -2.21491337e-12 -4.64387348e-11 7.36000941e-13
      7.43565528e-13 5.98472183e-12 -3.29289547e-11 1.76776926e-11
      -1.86081203e-11 -4.87654327e-11 -3.94178336e-11 -4.15266606e-11
      -1.64116706e-11 1.38083650e-11 4.05328722e-11 -1.85775245e-12
      -1.48505763e-12 -1.16505319e-12 -2.69028723e-11 3.77851786e-12
      -8.70544695e-12 1.02821319e-11 1.73616642e-11 1.02580826e-11
      -5.28821431e-12 1.78148989e-11 -1.03007689e-11 -2.17144705e-12
      8.74328474e-12 5.42286563e-11 2.28322621e-11 9.98191894e-12
      -2.48960505e-11 1.16491920e-11 3.35660041e-11 -1.04348873e-11
      -5.82322331e-13 1.74899461e-12 -2.05202400e-11 -2.83907585e-11
      1.53922586e-11 1.84711569e-11 1.12235221e-11 3.58919947e-12
      -7.69238926e-12 -6.16936894e-13 4.67736256e-13 -1.22260735e-11
      -1.10514523e-11 -2.78278858e-11 6.01705274e-12 2.80384934e-11
      1.32603165e-11 -8.37505933e-12 -1.30370124e-11 4.30984623e-11
      -8.66039879e-12 1.60816048e-11 6.02053303e-12 1.32291114e-11
      3.06000711e-12 1.07058746e-11 -9.85066802e-12 8.04954020e-12
      1.94174173e-11 3.32792023e-11 -7.10055148e-12 -1.04777645e-11
      -1.72072356e-11 -1.60512471e-11 3.81453679e-12 1.16524776e-11
      1.28989944e-11 1.24504686e-11 -3.27649262e-11 -2.05919951e-11
      -3.37150620e-11 1.28582717e-11 3.71218715e-11 -2.36512437e-12
      1.55610178e-11 -1.66413983e-11 1.42349240e-11 -1.69336906e-11
      4.83455116e-11 1.79383557e-11 4.14491115e-11 3.10875175e-12
      1.10256032e-12 -2.65531035e-11 -4.61584382e-11 4.43441221e-11
      -2.53256183e-11 -3.91591898e-11 -2.59835747e-11 -3.11736678e-11
      7.24565113e-12 -9.78071877e-12 -1.23163710e-11 1.08445024e-12
      4.62578587e-12 -7.51660748e-11 -3.71001944e-11 -1.97113506e-11
      2.20368290e-11 -1.02345597e-11 -2.22420745e-11 2.01778403e-11
      1.49752433e-11 -3.54934207e-11 -6.11039760e-11 -3.81218598e-11
      -3.25208471e-11 9.19146790e-12 -1.90185472e-11 -1.22600072e-11
      -6.72111412e-12 -3.87747334e-11 -3.09545549e-11 1.05229324e-12
      1.21815899e-11 4.70938783e-12 1.47474932e-11 -1.59034990e-11
      -1.30315455e-11 -2.57788409e-11 -1.58084813e-11 -3.63623055e-11
      -6.06970654e-11 -1.43939253e-11 -3.32849685e-11 -5.08311934e-11
      -1.38104667e-11 -1.85198350e-11 -1.12788919e-11 -2.87675786e-12
      -1.05574872e-11 1.75797796e-11 -2.84202939e-11 4.54087505e-12
      1.87914840e-11 4.46434122e-12 -1.49208597e-11 -3.86350639e-11
      1.40740440e-11 -3.98677792e-12 -1.46622280e-11 -2.68770284e-11
      1.22079170e-11 1.56151741e-11 -1.67817930e-11 9.63353008e-12
      1.74232122e-11 1.39519039e-11 5.83752231e-12 -7.54397413e-12
      6.68039799e-12 1.39543758e-11 3.48808829e-12 6.53499650e-12
      5.01597678e-12 -1.13380199e-11 -1.66144095e-11 4.63940952e-12
      2.89476741e-11 -8.43430967e-12 2.16721120e-11 3.58135188e-11
      -8.84338783e-12 -1.00210291e-11 8.62864728e-12 -2.81582518e-11
      1.06455886e-11 -1.88897196e-11 -1.01187743e-12 -3.31195522e-11
      -2.40623927e-11 1.23625003e-12 -3.91273862e-12 6.25838400e-12
      -3.54862702e-11 2.54786192e-11 -3.06479755e-12 3.38071203e-11
      1.19393427e-12 1.58551765e-11 6.21335188e-12 -2.43565194e-12
      -5.29677127e-12 -6.30737303e-12 1.64228041e-11 1.85372481e-11
      2.21401925e-11 5.98315180e-13 -2.55279079e-11 -1.22974278e-11
      -2.12919005e-11 -1.75857506e-12 -1.82385877e-11 -3.22548654e-11
      7.32517291e-13 1.00178997e-11 3.78015050e-11 -1.77065463e-11
      4.35186913e-12 5.04108691e-12 -6.16396300e-12 -2.11248137e-11
      -5.94770899e-11 -5.79299525e-11 -2.13954601e-11 4.51891085e-12
      1.89210869e-11 -8.74717237e-13 1.07964635e-11 3.45730280e-13
      5.84505317e-12 -1.32997302e-11 -1.75943461e-11 -4.99682370e-12
      -4.64063822e-11 -1.88804042e-11 7.96766125e-12 -1.11479827e-11
      -1.94496329e-11 -2.12340145e-11 6.84604456e-12 -5.46371420e-11
      -2.44111051e-11 2.46803567e-11 2.58005527e-11 -2.50838864e-11
      -4.36775789e-11 -3.71178262e-11 1.52742524e-13 -3.01788039e-11
      -4.65814609e-11 -6.49763160e-11 -3.71269682e-11 1.80859681e-13
      5.27002324e-13 -6.35827458e-12 3.82381245e-11 -6.31347960e-11
      2.03138322e-11 -4.98790852e-12 -5.64240191e-12 -2.63810484e-11
      -2.64193216e-11 3.99125767e-11 -2.10002259e-11 2.92553308e-11
      -1.81165705e-12 -1.24092724e-11 -9.22164341e-12 8.91481333e-12
      -1.57279762e-11 -5.14521620e-11 2.86140868e-11 -6.05486527e-13
      2.17586262e-11 5.03404332e-11 -1.59609609e-12 1.40773209e-11
      -2.23397494e-12 -8.70758934e-12 -8.20737033e-13 4.14227090e-11
      3.59474221e-11 2.62102944e-11 1.63613342e-11 2.25509212e-11
      -1.12448106e-11 3.68783164e-11 2.11868856e-11 1.62407379e-11
      3.24056016e-12 -2.97799944e-11 1.72694775e-11 -3.50778131e-12
      2.76896006e-11 1.77312227e-11 4.65205348e-12 1.04863323e-11
      1.68855676e-11 7.21206862e-12 8.62859437e-12 -1.28990941e-11
      1.74336309e-11 5.10598671e-13 -4.47013017e-11 -2.01535975e-11
      -2.63068716e-11 4.85253678e-11 2.70059825e-11 -6.11976182e-13
      8.68668418e-13 -2.94010198e-11 3.04203676e-11 -5.17302000e-11
      -1.13472495e-11 2.29229049e-11 3.00081106e-11 -1.17534593e-11
      -3.58834351e-11 -5.17240764e-11 -5.28806096e-11 -3.60925630e-11
      -3.23282928e-11 1.80746980e-11 -7.45438260e-12 2.37730755e-11
      2.23482795e-11 1.70845872e-11 -2.08223907e-11 1.76109041e-12
      -4.84130401e-12 -3.28498374e-11 -4.79912325e-11 1.17186053e-11
      1.27562310e-11 2.35333432e-12 2.37516846e-11 -3.71498908e-11
      -6.04659794e-11 -5.96810171e-11 -1.60309006e-11 -2.46772307e-11
      2.51753583e-11 5.93198190e-12 2.94349224e-12 -1.20524866e-11
      -4.82623594e-11 -5.96456218e-11 -4.04945591e-11 1.11536639e-11
      3.38305287e-11 4.31103113e-12 3.88898072e-12 1.88337852e-11
      1.14728729e-13 -5.38300064e-11 -6.38206432e-11 -2.54408335e-11
      1.13822502e-11 7.00902444e-13 -6.77126844e-12 -4.49155747e-11
      -7.23136698e-12 2.17907307e-11 -4.98584160e-12 1.01204652e-11
      6.41015149e-12 -2.34053506e-11 6.20142067e-13 -6.23889829e-11
      -1.01748662e-11 -8.79031223e-12 -1.34279202e-11 -8.49883965e-12
      3.22170832e-11 -1.59740676e-11 -1.98037160e-11 5.23482776e-12
      1.52076043e-11 -2.09956514e-11 -1.09207175e-11 1.87048866e-11
      2.70207832e-11 -1.19457569e-11 -6.97769360e-12 -2.07010537e-12
      -1.84429659e-11 -2.46113668e-11 -1.83152798e-11 3.89092612e-11
      -6.04336243e-13 1.41573472e-11 -1.84709314e-11 3.41799549e-12
      4.15901445e-11 -5.66139800e-12 -1.61367187e-11 4.96567327e-12
      2.61294762e-12 -1.16012357e-13 1.28161631e-12 -1.24357755e-11
      5.79808857e-12 -1.08604861e-11 8.43733416e-12 -1.43997175e-11
      5.81877862e-12 1.83187250e-11 -3.81762330e-11 -3.16635988e-11
      -1.25867780e-11 2.33602582e-11 5.89138460e-12 -1.70578274e-11
      -9.56960531e-13 2.72610927e-12 -3.80290591e-11 -9.51011188e-13
      2.83253976e-11 -1.96797838e-11 1.30133005e-11 4.03425210e-12
      -1.10038584e-11 2.17626819e-11 -7.53714921e-14 -1.51365621e-11
      1.22735448e-12 1.41493917e-11 8.74968327e-12 8.70545649e-12
      9.52278707e-12 1.78037810e-11 8.69636286e-13 1.04111175e-12
      -2.46174556e-11 1.11331838e-11 5.06960402e-12 3.84183553e-11
      1.39477796e-11 -5.22921255e-11 -4.97228682e-11 -2.18389005e-11
      5.95663970e-12 -3.98167783e-11 -2.67073325e-11 3.60734428e-11
      -1.80679933e-11 5.89730001e-12 -2.43631521e-11 -3.46464836e-11
      -7.07012573e-11 -3.79399082e-11 -3.43149606e-11 -1.52105949e-11
      -1.74274466e-11 -3.21050582e-11 9.61058490e-12 -3.40420782e-11
      -2.85249359e-11 9.49472619e-12 7.19452969e-12 3.48646394e-12
      1.33092860e-11 1.76180823e-11 -4.20051667e-11 -1.72496011e-11
      -2.70987399e-12 -1.69231573e-11 1.48482112e-11 -1.52638718e-11
      -1.96303876e-11 -3.69237523e-11 2.68411196e-11 1.37434953e-12
      2.94670954e-11 6.85449223e-12 -6.46360005e-12 -1.94213153e-11
      -2.26239444e-11 -6.43234979e-11 -4.59159412e-11 -2.81756064e-13
      2.08172264e-11 -1.91794532e-11 -3.25043941e-12 -6.04362740e-12
      -1.25155138e-11 -3.80443767e-11 -4.44354553e-11 6.35325600e-14
      1.29632000e-11 -4.46961808e-11 -1.27272650e-12 -5.23208907e-11
      -3.27320844e-11 -6.60484376e-11 -2.33793939e-11 -7.40027900e-11
      -2.75151880e-11 -2.46163697e-11 1.78986635e-11 3.89694770e-11
      -2.60741168e-11 -3.42280718e-11 -1.24607312e-11 -5.07989692e-11
      1.54187305e-11 -1.67516473e-13 -2.82376466e-11 -4.57729826e-11
      3.16184660e-13 4.55859038e-14 2.51866184e-11 -1.25583441e-11
      -2.47514960e-11 -3.10733210e-11 -4.26437219e-11 -4.00467159e-11
      -3.84537055e-11 4.54738851e-11 2.03201501e-11 1.75968276e-13
      -1.67622704e-11 -1.82363256e-11 -2.94159905e-11 -2.05286482e-11
      -1.47007094e-11 2.51830479e-12 5.66940722e-12 -1.94897813e-11
      7.35859724e-12 -3.71638102e-11 -4.51469244e-11 -3.18747008e-11
      -3.90723599e-11 -1.40547504e-11 -7.17028130e-12 1.62661464e-11
      -2.16399589e-11 -4.13007475e-11 2.48981599e-11 -6.31101161e-12
      3.15699203e-11 -2.62042124e-11 -2.62959845e-11 -4.53802169e-11
      -1.59433664e-11 -5.87359536e-11 -3.73517536e-11 5.73670582e-12
      -1.75408698e-11 9.44087170e-12 1.48489415e-11 -1.28564286e-11
      -1.56197590e-11 -4.03959114e-12 1.61682126e-11 -2.25850970e-11
      1.75037537e-11 -1.51981587e-11 -1.29767941e-11 -6.24007573e-12
      4.17263706e-12 1.22207765e-11 -1.72146932e-11 1.73911892e-11
      -7.24907894e-12 1.06015561e-11 1.45541964e-11 -1.15940703e-11
      -2.40706743e-11 3.40283444e-12 5.91353529e-12 3.25783255e-11
      2.52504246e-12 6.12319570e-12 -2.49433842e-11 -2.69418828e-11
      1.00047021e-12 6.91276550e-12 -4.43902762e-11 6.40838381e-12
      -3.03538900e-12 2.22386363e-11 -1.98562152e-12 -7.00152523e-12
      1.37521964e-11 7.21629180e-12 1.90261435e-11 9.42607450e-12
      -1.42850332e-11 -2.37721041e-11 -1.35561883e-11 -2.61406573e-11
      -6.25854663e-12 -1.16965708e-11 -1.91635184e-12 1.80589432e-11
      3.55702794e-11 1.76517082e-11 1.47382909e-12 2.11774500e-12
      4.05919152e-11 2.74113024e-12 2.02726724e-11 8.24459338e-12
      -1.14323663e-11 -1.57086601e-11 -1.33260798e-11 -2.48366293e-11
      -1.03763994e-11 -1.49050409e-13 -1.71743089e-11 -3.07154996e-11
      -1.34861317e-12 3.51432555e-12 2.11159892e-11 1.15356804e-11
      1.51213157e-11 -5.97692815e-12 7.42009232e-12 1.33698634e-11
      -2.91878258e-11 2.58526880e-11 2.27805396e-11 -3.57638780e-11
      4.35606542e-12 2.76886968e-11 2.33772099e-11 2.36483489e-11
      -1.12018389e-11 2.62444302e-11 2.30440025e-11 1.85583007e-11
      -8.29427672e-12 3.04314872e-11 2.96638668e-12 2.17207745e-11
      2.82266181e-12 -8.60489891e-12 -6.30991483e-12 -2.43994078e-11
      -2.67848296e-11 1.66973466e-11 -1.06865888e-11 1.40584571e-12
      -7.60161725e-12 -1.70541012e-11 -1.40266071e-11 -1.53802682e-11
      -1.87900286e-11 8.80137803e-12 2.41448007e-11 5.56528565e-12
      7.60622988e-12 -8.35312288e-12 -2.46121526e-11 1.72829910e-11
      -1.60447072e-11 2.06584957e-11 -1.03334737e-11 8.19935970e-13
      -7.70439875e-12 1.50942644e-11 3.47801787e-11 4.50332618e-11
      9.72300257e-13 5.35311769e-12 -1.25850337e-11 3.84539692e-11
      3.14530277e-11 -4.44626801e-12 -9.00839733e-13 -5.71341260e-13
      -2.51195245e-11 1.97274141e-11 1.67890216e-11 1.38500756e-11
      1.88841182e-11 9.21929113e-12 -6.45848392e-12 4.88494835e-12
      -8.87580634e-12 1.24425158e-11 -3.92812302e-12 6.97930038e-12
      1.21424711e-11 5.18735124e-11 2.82262894e-11 -6.56895068e-12
      2.12861447e-11 -7.74391037e-11 -1.67947409e-11 -2.34084401e-11
      2.33026012e-11 1.63195429e-11 1.63328708e-11 8.56777496e-12
      -3.20567010e-11 -1.39855775e-11 6.60037042e-12 -9.66899043e-12
      -1.73953265e-11 9.00526442e-12 5.01847392e-12 -1.21288179e-11
      4.90311680e-11 2.96771427e-11 9.02052565e-12 9.74244904e-12
      5.34919470e-11 1.37724511e-11 6.93669037e-12 -1.29349968e-11
      1.31412520e-11 -1.04483011e-11 -1.65262058e-11 7.73583368e-12
      -8.00058804e-13 -2.02741469e-11 -4.32195425e-12 7.10286474e-12
      3.60454930e-11 -2.03381825e-11 -3.06921641e-11 -1.46818009e-11
      -2.52573708e-11 -1.48700670e-11 -2.47675352e-11 -2.92681439e-12
      1.78145675e-11 -2.57000855e-13 2.55754480e-11 -2.53550566e-11
      1.17293571e-11 -4.98980336e-11 -5.33026271e-12 -3.59696387e-12
      2.01114750e-11 -1.84727528e-11 -1.16237558e-11 1.29425984e-11
      1.73566422e-11 4.14434598e-11 2.58519924e-11 -2.93134024e-11
      3.46555562e-11 -2.27419754e-12 6.45554010e-12 -1.53052657e-11
      -3.19542275e-11 7.87140643e-13 5.51083007e-12 -2.40814972e-11
      -1.14181876e-11 7.37901840e-12 -7.84418711e-12 3.29550926e-12
      -7.33246450e-12 1.22203211e-11 5.73332310e-12 -1.88507174e-12
      -3.95056340e-12 -3.10418913e-11 9.63584160e-12 -9.74978692e-12
      -4.49377298e-12 -2.73181651e-11 -1.12959104e-11 -2.00916939e-11
      -5.49230349e-11 -9.97975747e-12 -5.26573414e-13 -4.94395627e-12
      1.97858535e-11 -4.73092919e-12 -6.05074411e-12 1.82397205e-11
      2.01552681e-11 3.88864878e-11 -3.10345304e-12 2.64828385e-11
      2.84716799e-11 -1.86607362e-11 1.15427685e-11 -1.82631479e-11
      1.40079476e-11 -3.32090757e-12 -2.04728370e-11 5.00330940e-12
      -3.32796269e-12 -2.20248594e-11 5.41806097e-12 -2.99164200e-11
      2.41906183e-11 -2.75667839e-11 -1.96850886e-11 -2.88258618e-11
      -1.96206367e-11 -4.38542119e-11 1.46112671e-11 1.22232901e-11
      2.16814119e-11 8.72749735e-13 1.05938988e-12 5.90356540e-12
      -6.23900497e-12 2.48096630e-11 -2.40017155e-11 1.37111425e-11
      -4.79847672e-12 -8.30159552e-12 1.82347731e-11 1.62361669e-11
      1.48600715e-11 8.49407892e-14 1.11058229e-11 1.00894119e-11
      -4.45996495e-12 2.67238523e-11 1.43355857e-11 3.14542142e-11
      -2.88339040e-11 2.68493127e-12 -7.37039509e-12 -5.31059485e-12
      1.28255453e-11 -3.44914930e-11 1.08220438e-11 -3.40591531e-12</_></support_vectors>
  <decision_functions>
    <_>
      <sv_count>1</sv_count>
      <rho>-8.2588391681071016e-10</rho>
      <alpha>
        1.</alpha>
      <index>
        0</index></_></decision_functions></my_svm>
</opencv_storage>
