<?xml version="1.0"?>
<opencv_storage>
<my_svm type_id="opencv-ml-svm">
  <svm_type>C_SVC</svm_type>
  <kernel><type>LINEAR</type></kernel>
  <C>2.0000000000000000e-03</C>
  <term_criteria><epsilon>1.1920928955078125e-07</epsilon>
    <iterations>1000</iterations></term_criteria>
  <var_all>1296</var_all>
  <var_count>1296</var_count>
  <class_count>2</class_count>
  <class_labels type_id="opencv-matrix">
    <rows>1</rows>
    <cols>2</cols>
    <dt>i</dt>
    <data>
      -1 1</data></class_labels>
  <sv_total>1</sv_total>
  <support_vectors>
    <_>
      1.80585519e-03 2.83391302e-04 -5.07153920e-04 -1.46456168e-03
      -6.54365635e-04 -7.90458173e-04 1.55299669e-03 -6.96782139e-04
      -2.07769786e-04 -2.74484558e-03 2.64185155e-03 -2.32735858e-03
      -1.09759101e-03 1.03060098e-03 -1.17336016e-03 8.64509784e-04
      -2.12623505e-03 1.46848988e-03 -6.69798173e-04 -2.47630081e-03
      3.28043214e-04 -2.25348724e-03 3.79544479e-04 -8.56297556e-05
      -2.58032279e-03 -4.18243784e-04 1.63184665e-03 -2.15781125e-04
      6.02913788e-04 1.98664656e-03 -4.18205542e-04 1.98766676e-04
      -1.34655286e-03 1.32573105e-03 -5.83451219e-05 -6.56513672e-04
      -1.36863708e-03 -1.42873032e-04 -4.42948658e-03 1.29879219e-03
      1.89250789e-03 2.40114750e-03 3.94362025e-03 -4.73449501e-04
      -1.04516989e-03 -1.54336798e-03 -2.09197355e-03 -7.60965573e-04
      -6.22878724e-04 -4.32461384e-05 -3.88841610e-04 -2.59189925e-04
      1.05877989e-04 1.16980541e-03 2.93167052e-03 -8.21460271e-04
      2.56140903e-03 -1.18216278e-03 -3.51851777e-04 3.21146770e-04
      -6.05863461e-04 4.69788385e-04 7.09651562e-04 1.35094579e-03
      1.41261122e-03 1.13871030e-03 1.12655479e-03 6.56606513e-04
      1.33579213e-03 2.05182494e-03 -1.81381672e-03 8.53784382e-04
      1.48716755e-03 -2.78263772e-03 -4.47076542e-04 1.45592116e-04
      2.95548380e-04 -1.49025803e-03 1.55401859e-03 -5.72143763e-04
      -1.90860010e-03 1.65086752e-03 -6.88562170e-04 6.60464691e-04
      -5.62836940e-04 -3.44016182e-04 8.76942184e-04 -1.24704151e-03
      7.65809964e-04 2.27089832e-03 3.53303651e-04 1.24508468e-03
      3.10494821e-03 1.41399074e-03 -8.02628463e-04 3.65159176e-05
      -8.74199439e-04 2.11451738e-03 2.42738216e-03 -2.12936359e-03
      4.06524981e-04 4.08151041e-04 -2.13678717e-03 -2.71441834e-03
      -1.46648975e-03 -1.17675307e-04 6.78430486e-04 -8.31169600e-04
      1.01786014e-03 -3.87414999e-04 3.60882434e-04 1.42514904e-03
      -1.68518955e-03 1.63822660e-05 9.83897597e-04 2.79800221e-03
      -2.75814626e-03 -4.52215347e-04 -9.92312096e-04 2.22786725e-03
      -1.60210766e-04 -1.16911026e-04 -2.00487021e-03 1.12262287e-03
      2.29557219e-04 -1.75451278e-03 2.06629600e-04 2.13447376e-03
      -3.40356841e-04 -8.68562900e-04 -3.72545073e-05 8.49912030e-05
      1.69186376e-03 -5.24087634e-04 -4.14714421e-04 -4.12100198e-04
      1.05025087e-04 -2.39019224e-04 -2.27545132e-03 -7.18910887e-04
      -1.49735238e-03 -4.40088246e-04 -9.02477943e-04 -2.16753324e-04
      1.34868504e-04 -8.35177721e-04 4.24854254e-04 2.72246252e-04
      -1.27153844e-03 2.48510798e-04 9.96878138e-04 1.50752941e-03
      1.04823196e-03 6.24259119e-04 -6.13028998e-04 5.21434878e-04
      -2.65389943e-04 -1.31302117e-03 -7.38588860e-05 1.63398404e-03
      -4.33416542e-04 -1.06531552e-04 3.32718599e-04 1.54013594e-03
      -1.71396497e-03 1.04225392e-03 -5.03752788e-04 5.50431665e-04
      7.92028790e-04 -4.96474095e-04 1.31183688e-03 7.58571783e-04
      -4.70146042e-04 1.08376124e-04 -1.38909591e-03 -1.14898849e-03
      -1.62622705e-03 5.90563053e-04 5.70879900e-04 5.33475613e-05
      2.79815140e-04 2.51575577e-04 9.36939032e-05 -2.14752881e-03
      6.49859488e-04 1.94442854e-03 3.91654950e-03 1.29050031e-05
      6.71482878e-04 -1.16596588e-04 -2.37160675e-05 7.19928590e-04
      -2.63295299e-03 5.79457381e-04 -6.14297402e-04 6.62200327e-05
      -2.69954442e-03 -2.51834025e-03 5.07340592e-04 -4.32278146e-04
      -4.69224382e-04 1.83860876e-03 -3.26663256e-04 -7.57071190e-04
      1.18526812e-04 -1.49602781e-03 -4.10258101e-04 1.96441868e-03
      -5.96269791e-04 2.91157659e-04 1.12441136e-03 -1.01467781e-03
      4.20619152e-04 3.02832155e-03 3.52661518e-05 -1.80945697e-03
      3.84530373e-04 -8.19954090e-04 -8.91344214e-04 6.27323985e-04
      1.14984745e-04 9.65470565e-04 1.89097633e-03 -2.16444279e-03
      9.51233553e-04 -1.61666627e-04 -1.13373681e-03 -1.13595430e-04
      6.55720360e-04 1.33492344e-04 -3.09012528e-03 -1.08024501e-03
      3.25959962e-04 -7.74309796e-04 -6.52011775e-04 2.63365218e-03
      1.45659852e-03 3.17348837e-04 -2.07372103e-03 -1.65955245e-03
      -2.95819656e-04 -1.32982840e-03 -1.85368687e-03 1.34392513e-03
      3.42959866e-05 2.91546981e-04 -1.78071117e-04 6.91710738e-04
      -1.26199319e-03 3.95931362e-04 -8.13559687e-04 -1.36207222e-04
      -3.42578656e-04 -6.22558000e-04 4.58138908e-04 -7.28412881e-04
      8.55636317e-04 -9.40415834e-04 -1.73907483e-03 -2.04366414e-04
      6.92353991e-04 -6.95801049e-04 -9.71776142e-04 -2.43462971e-03
      1.10164972e-03 -8.72607226e-04 -2.08705780e-03 1.68435532e-03
      -1.48090173e-03 9.90828150e-04 1.63481641e-03 1.07952990e-04
      -5.39316679e-04 1.45809737e-03 -3.10073490e-03 1.22006929e-06
      1.51853776e-03 7.66909914e-04 -8.17569613e-04 -3.01050954e-03
      -4.85020783e-03 -1.83067832e-03 -1.77606533e-03 -7.24936137e-04
      -6.80082594e-04 -7.85871292e-04 -2.84615136e-03 -3.73057765e-03
      -1.72549754e-03 -3.57854855e-03 -2.37568119e-03 1.34908210e-03
      -1.05891353e-03 9.16666933e-04 -5.16590429e-04 -6.18973980e-04
      -5.77857997e-03 -3.70497536e-03 -1.19377149e-03 -1.42826830e-05
      -1.56639435e-03 2.77371466e-04 -2.03178590e-03 1.22409416e-04
      -2.59882421e-03 -2.19344208e-03 -1.89535273e-03 -3.94008774e-03
      -1.11581176e-03 6.86478306e-05 -1.98085187e-03 -2.70517165e-04
      8.34867184e-04 -7.96008506e-04 7.05620041e-04 -7.69047823e-04
      -2.19215493e-04 -2.00216332e-03 -2.46782764e-03 1.68500165e-03
      -3.03165335e-03 -1.78229541e-03 -3.31438798e-03 -2.41379719e-03
      -9.45445034e-04 -2.98928819e-03 -6.27054193e-04 -1.71436928e-03
      -1.20286213e-03 -5.03858573e-05 1.29003043e-03 -7.06547406e-04
      -3.84243997e-03 -3.03363637e-03 -1.29256735e-03 -3.04332527e-04
      -7.28067651e-04 -6.98714302e-06 -3.29001946e-03 -3.63308843e-03
      -4.59584844e-04 -3.00601684e-03 -1.53556885e-03 -8.74986654e-05
      -3.67988658e-04 5.38624299e-04 1.24093448e-03 1.08236505e-03
      2.52798432e-03 -3.28552187e-03 7.06661667e-04 -5.20937785e-04
      -6.53532625e-05 -4.52210254e-04 -3.95606225e-03 -2.25624978e-03
      -1.88122434e-03 -1.04550261e-03 -4.47837869e-03 -5.88223711e-03
      -1.59432282e-04 5.34095278e-04 -2.01403163e-04 -1.35409052e-03
      -7.45269877e-04 -1.71211909e-03 -9.62313148e-04 -1.33978750e-03
      -1.20599917e-03 -1.61505304e-03 1.34766789e-03 2.27642409e-03
      2.34696781e-03 1.98504282e-03 2.76055280e-03 -2.99022277e-03
      -1.37673574e-03 -1.44474627e-03 -8.46868963e-04 -3.56557779e-03
      -2.26656767e-03 -1.47178513e-03 -1.68447522e-03 -1.39842182e-03
      -3.29970010e-03 -1.37286831e-03 -1.23721664e-03 -5.50625194e-03
      -1.89172104e-03 -7.09429441e-05 -1.33310223e-03 -4.16968763e-03
      -2.10476364e-03 8.50762881e-05 -6.61981700e-04 6.55054464e-04
      1.58801238e-04 3.16454243e-04 -9.53475770e-04 -2.39322777e-03
      1.32084591e-03 -6.56005985e-04 1.25997909e-03 1.31691014e-03
      1.86991005e-03 -2.09117564e-03 1.48294005e-03 2.92495359e-03
      -1.43252604e-03 2.64227949e-03 2.14110408e-03 3.30074748e-04
      -6.18089049e-04 1.70504255e-03 2.15290231e-03 8.76958147e-05
      4.19489661e-04 -2.09979888e-04 -2.25305237e-04 -1.90517493e-03
      1.26770601e-05 -1.30330294e-03 -5.44647686e-04 1.88608922e-03
      1.74658385e-03 -1.38347677e-04 -3.62811959e-03 1.83949166e-03
      -3.95529671e-04 -6.08537230e-04 7.84205680e-04 1.57977265e-04
      1.92901189e-03 4.85966331e-04 -8.09251505e-04 -1.40167587e-03
      3.04107409e-04 -1.03839533e-03 4.03605925e-04 1.93579425e-03
      3.74966417e-04 4.56737645e-04 5.23450901e-04 1.61981222e-03
      1.29474059e-03 1.10441854e-03 1.63843611e-03 4.00181278e-04
      -1.38359668e-03 -1.22698967e-03 -3.72523500e-04 -3.15937854e-04
      1.43110007e-03 6.29263581e-04 1.40039367e-03 1.84650742e-03
      3.71105736e-03 1.39532238e-03 -8.74837951e-06 -7.86474615e-04
      -2.05867854e-03 -1.67977426e-03 1.39824196e-03 6.44635438e-05
      -2.04816973e-03 8.13971565e-04 -4.76042827e-04 -4.87545418e-04
      6.31499046e-04 7.67033052e-05 -3.37787042e-03 -3.15467664e-03
      -1.57790538e-03 -1.36072375e-03 -4.63343429e-04 -2.74331728e-03
      2.20265920e-05 1.29118771e-03 -1.23399543e-03 -3.15110199e-03
      -2.00356101e-03 -9.98865813e-04 -1.34339742e-03 1.24083308e-03
      -8.13158287e-04 -1.72946416e-03 -8.42506823e-04 1.01724442e-03
      -5.10423233e-05 -3.12611368e-03 -1.70164101e-03 -4.06286865e-03
      -3.10093537e-03 -4.94569133e-04 8.52842131e-05 -1.13906327e-03
      -3.27923289e-03 -1.51981169e-03 -1.99874700e-03 2.44033244e-03
      7.69871171e-04 -9.41044418e-04 1.62543845e-03 1.33380410e-03
      1.71533949e-03 1.36615592e-03 8.04729993e-04 -1.14983262e-03
      -5.04457275e-04 3.80663434e-03 2.47670221e-03 1.73803221e-03
      -9.68624139e-04 2.69418466e-03 2.94650393e-03 -4.72736487e-04
      4.26457293e-04 3.43464373e-04 -3.98607319e-03 -9.97550553e-04
      5.10829384e-04 2.72298465e-04 -1.17019285e-04 5.50239405e-04
      1.04939879e-03 -1.51077751e-04 3.99013225e-04 -1.22206530e-03
      -1.28397008e-03 -7.86144461e-04 -8.97460559e-04 8.95375910e-04
      7.11108441e-04 -1.96030451e-04 -2.31325137e-03 7.93021405e-04
      2.81454064e-04 -1.93799060e-05 -1.99239497e-04 -6.38315338e-04
      7.84638454e-04 -1.27307721e-03 -4.07910420e-06 2.95984675e-04
      4.46655031e-04 -2.12321320e-04 1.18467596e-03 -9.72122827e-04
      4.61530348e-04 2.63563427e-03 -1.01887353e-03 1.76665792e-03
      2.93754251e-03 -1.09972723e-03 -3.67854326e-03 -1.44785864e-03
      -4.06599254e-04 3.00482843e-05 6.27347850e-04 -4.19764285e-04
      4.29435808e-04 -1.30206475e-03 1.64845481e-03 1.16739143e-03
      2.12951959e-03 9.33499832e-04 1.87180797e-03 -3.49610084e-04
      -1.25633657e-03 -2.24273442e-03 -1.87756470e-03 2.88561010e-03
      -2.17178429e-04 -1.28451909e-04 -9.09858325e-04 -2.95190862e-03
      2.14410224e-03 -1.91749085e-03 -7.72478525e-04 -6.33717515e-04
      -8.02471244e-04 -5.35488222e-03 -5.70952473e-03 -3.21754697e-03
      6.96454372e-04 -1.24148035e-03 -1.71536847e-03 6.66613283e-04
      -5.85119415e-04 -1.05924334e-03 -4.32630908e-03 -4.42631822e-03
      -9.78010008e-04 -1.50347827e-03 -3.11052427e-04 3.59477795e-04
      -2.86290480e-04 -7.98532448e-04 -9.99399461e-04 -9.23107553e-04
      2.03142385e-03 1.26909127e-03 2.09521479e-03 1.68982579e-03
      -6.36008917e-04 -2.38497951e-03 -2.16718717e-03 -1.93295768e-03
      -4.24944190e-03 -1.67436816e-03 -2.07959744e-03 -3.19094583e-03
      -6.68321387e-04 -7.67162186e-04 2.17480795e-03 1.27597689e-03
      -8.06337412e-05 7.64607510e-04 -1.67372156e-04 -5.05339995e-04
      -6.15171521e-05 4.22944402e-04 -5.28487610e-04 -1.63807347e-03
      1.62497710e-03 -3.75033524e-05 -1.23366155e-03 -8.26543604e-04
      -8.10433630e-05 1.69671234e-03 -2.20480142e-03 8.04819632e-04
      1.37317483e-03 -3.64003390e-05 7.14339432e-04 -1.83610682e-04
      -9.36235068e-04 2.98271980e-03 3.00744665e-04 1.00714329e-03
      -1.24154880e-03 1.43783703e-03 -1.55712187e-03 1.75841982e-04
      2.87385518e-03 -2.65035173e-03 -8.82973894e-04 1.37687940e-03
      -3.88915214e-04 -1.21337536e-03 8.41614034e-04 -1.90749264e-03
      -6.72864902e-04 8.07819190e-04 1.43575613e-04 -5.13575797e-04
      2.55085435e-03 -5.38913337e-05 -1.45992660e-03 1.74087647e-04
      -3.22844513e-04 2.04690616e-03 -1.07877376e-03 -1.02649361e-03
      -1.71070185e-03 1.50018561e-04 -3.61379178e-04 -1.33569504e-03
      8.35904095e-04 -1.26204384e-03 8.63510068e-04 -6.28617592e-04
      4.93658474e-04 8.98262137e-04 6.60968304e-04 8.44241949e-05
      -1.73325953e-03 6.10085845e-04 -1.14298193e-03 2.62624002e-04
      -9.09176946e-04 1.49687927e-04 9.43876803e-04 -1.06155511e-03
      1.32912036e-03 4.64274548e-04 1.79522124e-03 -2.79974868e-03
      -3.92212579e-03 -5.29869972e-03 -2.48699193e-03 -6.10125659e-04
      1.41963037e-03 -5.66938601e-04 5.14282263e-04 -6.73099712e-04
      -5.09073434e-04 -9.35088552e-04 -1.06838963e-03 -1.17728615e-03
      -2.32429220e-03 -1.57163083e-03 -3.07311100e-04 -1.05967373e-03
      -1.18572800e-03 -2.33753864e-03 9.33053743e-05 -2.17845943e-03
      -4.58752224e-03 -2.00793333e-03 -3.39714083e-04 -1.38547190e-03
      -1.11298042e-03 -1.36401947e-03 -1.38765085e-03 4.90594131e-04
      -3.27033107e-03 -4.24634386e-03 -6.05695706e-04 -1.18394592e-03
      1.39230094e-03 -1.84323551e-04 1.43421628e-03 -4.20131162e-03
      2.81778327e-03 2.51440494e-03 2.07400648e-03 -1.44183345e-03
      -4.83708165e-04 1.32094987e-03 6.76656724e-04 2.52812635e-04
      -1.47642498e-03 1.17612246e-03 -1.06540287e-03 1.41327898e-03
      -9.28616675e-04 -1.15179946e-03 2.40400666e-03 4.44233301e-04
      -3.97817261e-04 1.37455633e-03 1.57016941e-04 -5.35476196e-04
      -1.00899325e-03 2.88398296e-04 1.03135601e-04 2.07670568e-03
      2.20172922e-03 -1.20662968e-03 1.40498462e-03 2.67360569e-03
      -3.52256029e-04 -7.37485185e-04 1.07971218e-03 2.32789689e-03
      -8.76987353e-04 -2.03408417e-04 1.31529488e-03 -4.38837160e-04
      2.05880543e-03 -1.23874948e-03 -2.45520379e-03 1.81568088e-04
      1.01424754e-03 1.57194634e-04 -6.10821822e-04 5.15145774e-04
      3.90732836e-04 3.97765631e-04 -2.30164360e-03 -8.71055352e-04
      3.72093346e-05 3.22989142e-03 1.02081115e-03 -1.57750177e-03
      -3.26605405e-05 4.52900509e-04 8.97787046e-04 -2.28690589e-03
      5.83437504e-04 1.01099140e-04 -6.46612374e-04 -2.72363795e-05
      -2.46558990e-03 -2.18350487e-03 -9.99128562e-04 -8.75419995e-04
      -4.83805838e-04 5.95718389e-04 -1.34006294e-03 -9.32655297e-04
      8.94345343e-04 -1.08118716e-03 4.31611057e-04 -1.60120113e-03
      -1.43274921e-03 -2.21790653e-03 -6.78288459e-04 1.66740711e-03
      1.91169442e-03 1.12666818e-03 -8.86921407e-05 -2.24929326e-03
      -3.27710654e-06 -4.64180624e-03 -1.96278514e-03 -3.63492011e-03
      4.11635352e-04 -1.10834674e-03 -6.50031783e-04 -3.38713871e-03
      -2.84100184e-03 -1.13094109e-03 -2.45218934e-03 2.38369382e-03
      4.24929094e-05 -1.38933572e-03 3.21001105e-04 9.27658053e-04
      -1.18143595e-04 -3.50020616e-03 -2.74243369e-03 -5.55240083e-04
      -4.14490933e-03 3.46589979e-04 -1.07835873e-03 -1.76517933e-03
      -1.09437900e-03 -6.31830539e-04 -9.17420082e-04 -1.72073371e-03
      3.04477033e-03 -1.10296963e-03 -2.77019083e-03 -2.55400408e-03
      6.27274392e-04 6.53409341e-04 -6.55101030e-04 1.16448069e-03
      3.24952649e-04 1.09378609e-03 1.52814831e-03 -1.14758580e-03
      -1.26972445e-03 2.06561061e-03 1.18419831e-03 9.62677645e-04
      2.58491235e-03 -1.28877594e-03 1.61294080e-03 6.28744485e-04
      -3.54655436e-04 5.06532437e-04 7.89800368e-04 8.51619174e-04
      -2.23605381e-03 -2.74304708e-04 -1.73812185e-03 1.81416550e-03
      2.19203276e-03 1.49992120e-03 8.49594770e-04 1.86900573e-03
      1.49955705e-03 1.03431579e-03 5.64482878e-04 -3.85712041e-03
      1.45628001e-03 -2.50199140e-04 -2.36394291e-04 -7.04471429e-04
      9.15488403e-04 1.34057051e-03 -2.30736085e-04 -4.04436141e-03
      9.07921756e-04 1.13922625e-03 1.26950070e-03 -7.96090462e-05
      -1.80415504e-04 1.46929844e-04 -2.16032891e-03 5.78659645e-04
      1.37796742e-03 4.89022175e-04 -1.76867854e-03 1.51864311e-03
      1.72244225e-04 1.56716898e-03 -1.11770211e-03 1.56073202e-03
      -1.01307780e-03 1.24730752e-03 1.56737122e-04 -7.93195039e-04
      4.59919713e-04 1.75932061e-03 -1.40287448e-04 -2.55634869e-03
      5.35959902e-04 7.75322260e-04 -2.32820239e-04 2.21189298e-03
      5.71201555e-04 -2.54759029e-03 -3.29696829e-03 4.59369388e-04
      3.32699413e-03 -1.40588463e-03 -3.47269524e-04 2.13615736e-03
      -2.93105491e-04 -1.57308497e-03 -3.70750600e-03 -4.09087725e-03
      -1.96300028e-03 -1.58626807e-03 1.30745501e-03 -2.08028854e-04
      8.07665172e-04 -8.05175921e-04 7.84642936e-04 4.41091222e-04
      -1.43496855e-03 8.55502731e-04 1.56424532e-03 3.25006113e-04
      5.51230682e-04 6.06834423e-04 -2.05522659e-03 -6.77585136e-04
      -1.61792210e-03 -1.50989543e-03 -3.56220407e-04 -9.44818967e-05
      -1.63251196e-03 -1.17642083e-03 9.77169722e-04 -2.24851957e-03
      1.65007601e-03 5.92651195e-04 -5.05562057e-04 -2.09718128e-03
      -2.95373407e-04 -2.36921036e-03 -2.13548401e-03 -1.77615741e-03
      -2.19775742e-04 -2.93969363e-03 -9.50754329e-05 5.12704253e-04
      -1.87613675e-03 -1.28851901e-03 -3.37653467e-03 1.60993572e-04
      8.75963771e-04 -3.00916214e-03 2.20210422e-04 -9.06766567e-04
      -2.00484693e-03 -5.07300161e-03 -4.48107114e-03 -2.96281977e-03
      -2.05061724e-03 -2.02596374e-03 1.17463735e-03 3.22303356e-04
      -2.17903615e-03 -2.29898421e-03 -1.41406199e-04 -3.00558191e-03
      -2.30010410e-04 1.18866318e-03 -2.50612269e-03 -2.76162545e-03
      -1.57491746e-03 7.63330783e-04 1.55965670e-03 5.98044717e-04
      -1.73422345e-03 -3.81578249e-03 -1.32782094e-03 -1.89417670e-03
      -3.58518097e-03 2.78528576e-04 -1.44452357e-03 5.13489591e-04
      -3.93344555e-04 -1.50781777e-03 -2.75937561e-03 -2.20033922e-03
      -1.53682521e-03 -8.49466189e-04 3.28580034e-04 8.10455240e-04
      -1.17592968e-03 -4.14218893e-03 -3.41009931e-03 -4.78127645e-03
      -5.76484669e-03 -1.10811903e-03 -1.81283988e-03 1.20099285e-04
      -3.27670644e-03 -1.36118405e-03 -5.05717588e-04 -3.45832878e-03
      1.52765273e-03 -1.36295217e-03 -2.90671876e-03 -1.11845334e-03
      -4.85360011e-04 -1.79518515e-03 -1.25800900e-03 -1.51439162e-03
      9.89704626e-04 5.48260985e-04 -7.03370373e-04 -8.43061367e-04
      -9.27976915e-04 -1.24224368e-03 4.47320432e-04 -9.11361305e-04
      1.03038282e-03 -1.37509662e-03 -1.21965539e-03 -4.15292848e-03
      2.30132020e-03 -2.93721881e-04 -7.30424072e-04 1.51389244e-03
      -9.57157637e-04 -2.80547049e-03 6.95453316e-04 -9.64823412e-04
      -2.83899455e-04 1.34816545e-03 2.10341695e-05 1.76646141e-03
      2.07096501e-03 1.65728806e-03 -8.43284943e-04 -1.07218395e-03
      -2.18486716e-03 5.52778773e-04 -2.36146012e-03 1.10194494e-03
      1.53632555e-03 -8.93388293e-04 -1.41325314e-03 -1.57417497e-03
      2.93173216e-05 1.37686293e-04 1.79775211e-03 1.12466165e-04
      1.40512618e-03 -9.47453373e-06 -2.77868268e-04 -3.43000237e-03
      1.10328232e-03 -2.32404826e-04 1.25224015e-03 3.09020933e-03
      9.90078988e-05 -4.52817585e-05 1.48519082e-03 -1.21261855e-03
      1.28018903e-03 -1.15248736e-03 2.73905206e-03 2.56804097e-03
      -2.10411567e-03 -1.65439642e-03 -8.48163269e-04 5.90551703e-04
      1.31459022e-03 -6.06025336e-04 1.68623496e-03 1.33522059e-04
      -8.15531472e-04 -2.13180925e-03 -9.84447775e-04 2.30969788e-04
      -1.17496296e-03 -2.01721513e-03 -1.23157384e-04 -1.91327694e-04
      7.62428564e-04 -7.31379027e-04 3.53237643e-04 -1.06563081e-03
      -5.16078318e-04 1.57041394e-03 3.50621558e-04 -1.68926927e-04
      1.97194843e-03 1.31156339e-04 -5.13905019e-04 5.26355929e-04
      -3.27497837e-05 -7.39391486e-04 8.32545687e-04 -6.10901916e-04
      5.61118824e-04 7.90944323e-04 8.39269705e-05 -1.35868567e-03
      -1.87357503e-03 1.48949691e-03 -1.14002777e-03 2.07510588e-04
      -1.80815370e-03 -3.78658762e-04 -4.20893193e-04 -3.24514083e-04
      -1.71027461e-03 1.35271100e-03 1.29621837e-03 2.32490269e-03
      1.67620438e-03 -1.96809793e-04 -1.74083770e-03 1.12726958e-03
      1.20317133e-03 3.13246180e-03 5.85448761e-05 1.14715821e-03
      6.60837977e-04 8.49228993e-04 2.64127227e-03 1.02231745e-03
      3.53801093e-04 1.10727316e-03 -1.61658984e-03 2.99557322e-03
      -1.47940638e-03 -8.77061801e-04 1.47455733e-03 1.45831297e-03
      1.10971811e-03 1.55964785e-03 -8.94457102e-04 1.75160909e-04
      1.32820616e-03 -1.91621075e-04 4.66911297e-04 -6.92078786e-04
      -3.22368904e-03 -2.92892160e-04 -8.01023038e-04 -1.54729770e-03
      -5.73757803e-04 3.22156376e-03 5.45656076e-04 -1.02657417e-03
      -5.25609881e-04 -4.22709202e-03 1.08639640e-03 -1.39699562e-03
      2.29237587e-04 -1.56499690e-03 1.52995531e-03 5.29279278e-05
      5.50721670e-05 -2.35975580e-03 -1.91575615e-03 -1.91806711e-03
      -6.78831784e-05 7.53241111e-05 4.01049713e-03 -1.26973505e-03
      3.18092038e-03 7.27578124e-04 -8.50976910e-04 9.84766055e-04
      1.30074949e-03 1.13910052e-03 1.64600194e-03 -6.03188819e-04
      9.23982356e-04 8.37186701e-04 -1.64919230e-03 -5.61717723e-04
      5.41540721e-05 6.99310447e-04 9.18501639e-04 8.40189576e-04
      -2.33850005e-04 -1.14845543e-03 1.10008800e-03 9.18058155e-04
      -1.05703971e-03 -1.64892012e-03 -2.20020581e-03 7.15117494e-04
      5.84448164e-04 1.58058596e-03 1.30065065e-03 5.25773576e-05
      5.18303830e-04 -1.96165731e-03 -6.10579911e-04 1.43580395e-03
      -2.15894586e-04 -1.61561323e-03 -1.36507000e-03 4.07253974e-04
      8.75325117e-04 1.54774904e-03 -2.68945674e-04 1.04428815e-04
      1.30657374e-03 5.66661940e-04 1.72199251e-03 -3.25016706e-04
      -3.90283356e-04 -5.35333820e-04 1.29510975e-03 -3.67813045e-04
      -5.42031019e-04 -2.12338194e-03 -3.90261470e-04 -5.77628321e-04
      -1.52279346e-04 -1.50800101e-03 -2.84862297e-04 -2.19179667e-03
      6.45727443e-04 -9.77999298e-04 1.15694199e-03 2.21045688e-04
      1.70775142e-03 -7.44762423e-04 1.43226411e-03 -1.07376708e-03
      -6.51802809e-04 -4.29528794e-04 -1.03968137e-03 -1.78408192e-03
      -4.37019014e-04 1.39368314e-03 2.84435973e-03 1.70409563e-03
      -1.78998118e-04 3.24526220e-04 2.19304743e-03 9.65357234e-04
      7.07312371e-04 -9.84915998e-04 1.26486726e-03 -1.29040459e-03
      5.79590560e-04 -7.86786375e-04 2.65782420e-03 -9.10092029e-04
      -9.60900739e-04 -2.45487806e-03 -5.15147403e-04 -1.15429552e-03
      8.55061749e-04 9.27744026e-04 -1.95420207e-03 3.13742727e-04
      -9.76086012e-04 -1.73339853e-04 1.22988407e-04 -8.24825838e-04
      4.14941576e-04 -2.46833335e-03 1.37607940e-03 2.25486839e-03
      -4.98203095e-04 2.34309072e-03 -8.22252536e-04 2.65737559e-04
      -1.13613554e-03 9.29271278e-04 1.17040519e-03 1.92710652e-03
      1.27781706e-04 1.70402450e-03 1.80378056e-03 -8.77322571e-04
      -1.04071270e-03 -1.29429495e-03 -1.11402920e-03 1.35522452e-03
      -9.92564834e-04 1.61374640e-03 1.45230466e-03 6.92863425e-04
      5.24182862e-04 1.97510919e-04 7.85833749e-04 4.13167174e-04</_></support_vectors>
  <decision_functions>
    <_>
      <sv_count>1</sv_count>
      <rho>-6.3541919708251848e-02</rho>
      <alpha>
        1.</alpha>
      <index>
        0</index></_></decision_functions></my_svm>
</opencv_storage>
