<?xml version="1.0"?>
<opencv_storage>
<my_svm type_id="opencv-ml-svm">
  <svm_type>C_SVC</svm_type>
  <kernel><type>LINEAR</type></kernel>
  <C>2.0000000000000000e-03</C>
  <term_criteria><epsilon>1.1920928955078125e-07</epsilon>
    <iterations>1000</iterations></term_criteria>
  <var_all>1296</var_all>
  <var_count>1296</var_count>
  <class_count>2</class_count>
  <class_labels type_id="opencv-matrix">
    <rows>1</rows>
    <cols>2</cols>
    <dt>i</dt>
    <data>
      -1 1</data></class_labels>
  <sv_total>1</sv_total>
  <support_vectors>
    <_>
      -7.30853761e-04 3.39867576e-04 6.88570901e-04 5.11441787e-04
      7.90120321e-05 6.26230496e-04 1.11360953e-03 1.55579401e-04
      1.34926813e-04 -1.41221448e-03 3.51677532e-03 4.88662394e-04
      -1.29769230e-03 2.60983012e-03 -1.23614061e-03 -1.29849114e-03
      4.73964814e-04 2.49829330e-03 2.26068194e-03 -1.18433649e-03
      6.70853886e-04 1.70773489e-03 8.50274300e-05 5.95469668e-04
      -2.06946791e-03 1.32757460e-03 1.53906574e-03 8.64699599e-04
      1.08206575e-03 3.23453988e-03 -6.82369515e-04 -9.45464068e-04
      -8.20759858e-04 -9.98875839e-05 9.47166875e-04 -2.07127654e-03
      2.58754153e-04 4.06973966e-04 8.98384897e-04 3.96295800e-04
      3.14876350e-04 2.99044466e-03 1.52484782e-03 -1.89269963e-03
      -1.22413808e-03 2.12160964e-03 1.93271699e-04 -1.68021908e-03
      1.23372558e-03 2.66420143e-03 9.94066708e-04 2.05645803e-04
      1.63468241e-03 5.59305598e-04 1.96419796e-03 4.09765897e-04
      2.44299462e-03 -2.67121312e-03 -1.21375534e-03 9.89665976e-04
      1.16688781e-03 -1.00377029e-05 8.70249700e-04 1.51754520e-03
      1.30667584e-03 1.67302787e-03 -1.99419737e-04 -1.16659142e-03
      7.07475352e-04 -5.84840091e-05 -5.70512668e-04 -1.37176516e-03
      -4.15686605e-04 -7.83952011e-04 -1.46960188e-03 1.18581241e-03
      -6.46759290e-04 6.58087956e-04 1.87819090e-03 -1.28616078e-03
      -2.47292756e-03 -2.57968466e-04 6.79809367e-04 2.17608656e-04
      -1.57997408e-03 -3.32062889e-04 6.52209274e-04 -1.18513603e-03
      -2.70120916e-04 1.74180605e-03 1.19126460e-03 -8.34704377e-04
      1.82177449e-04 -6.37654215e-04 -2.22403975e-03 7.40640273e-04
      -2.12221086e-04 1.67455000e-03 3.63533362e-03 4.21466015e-04
      2.02280493e-03 1.38697986e-04 -1.78115768e-03 -2.40857946e-03
      -1.57939474e-04 -5.50017634e-04 -1.22845871e-03 -1.21700624e-03
      1.41691510e-03 2.29857140e-03 -7.02236779e-04 -3.54393822e-04
      -1.15952780e-03 2.47759745e-04 8.84724897e-04 1.24992803e-03
      -1.52599299e-03 7.68411381e-04 -1.71166298e-03 -1.08368590e-03
      -6.12054660e-04 -1.28725136e-03 7.48146034e-04 9.98184783e-04
      6.93731010e-04 1.35329738e-03 1.22562808e-03 7.55922927e-04
      -1.97294154e-04 -8.03611358e-04 3.86893254e-04 1.48631353e-03
      1.81119354e-03 1.09609251e-03 6.70934678e-04 -6.20341394e-04
      -2.06531884e-04 -5.91498218e-04 -3.61228292e-03 -5.43041795e-04
      5.83940942e-04 -3.24118650e-04 -1.39499863e-03 1.28039508e-03
      2.13207677e-03 1.09962805e-03 1.12804212e-03 9.97093855e-04
      1.31607393e-03 2.48595118e-03 1.61872094e-03 6.73166578e-05
      8.91243282e-04 1.21949613e-03 -3.71370610e-04 -5.69570111e-04
      -2.29480371e-04 4.48812265e-04 -2.21055141e-03 -8.34913983e-04
      -1.75287237e-03 3.45793196e-05 4.22632118e-04 -3.23456246e-04
      -4.55591973e-04 -5.72969788e-04 -1.58956682e-03 4.30703163e-04
      -4.21846062e-06 4.69846535e-04 2.75844662e-03 5.38972323e-04
      -7.03080324e-04 1.60815974e-03 8.84784618e-04 -2.81534460e-03
      -4.27500170e-04 -5.73247205e-04 5.84515237e-06 5.38625463e-04
      1.43831386e-03 -7.82054500e-04 -8.51431396e-04 -1.71244494e-03
      1.48851506e-03 2.53210706e-03 2.08029081e-03 -2.86064041e-03
      -1.45358918e-03 1.39766221e-03 -1.27320737e-03 1.95389520e-03
      -1.83094514e-03 2.06489488e-03 9.87538835e-04 -1.54464657e-03
      -1.72938249e-04 1.41527446e-04 1.99673232e-03 2.03038496e-03
      1.16654101e-03 4.03603597e-04 -1.01912674e-03 -1.71528838e-03
      -2.14242004e-03 -1.20283209e-03 3.96391639e-04 1.88770855e-03
      1.07770960e-03 -5.78081177e-04 -2.01731687e-03 1.01046904e-03
      7.71538354e-04 -1.89862796e-03 9.07417736e-04 -1.09115033e-03
      1.02837489e-03 -7.11423578e-04 -2.04999046e-03 -3.66832573e-05
      -8.32313148e-04 1.61149655e-04 4.16131411e-03 -1.66510465e-03
      -1.42692152e-04 1.52737962e-03 1.04705722e-03 1.76901071e-04
      -1.02387660e-03 3.34710395e-03 -1.49153324e-03 -2.21393711e-04
      -2.85261805e-04 -1.62056356e-03 7.45243102e-04 1.38488278e-04
      1.34950003e-03 1.16247206e-03 -1.54225586e-03 4.00601275e-04
      -1.73047316e-04 1.67623235e-04 -9.80443205e-04 1.88365248e-05
      7.49674335e-04 1.10332679e-03 -1.06510939e-03 8.15012259e-04
      -1.73881860e-03 4.59724863e-04 -1.99939939e-03 -1.29036291e-03
      1.17740303e-03 1.15509389e-03 -2.53293500e-03 -6.06602873e-04
      1.28212071e-03 -2.00851835e-04 -5.19383873e-04 -7.31597611e-05
      1.49809243e-03 4.41394659e-04 7.78251851e-04 -1.35726284e-03
      5.52416954e-04 8.20153800e-04 -1.61161157e-03 -4.10181528e-04
      -3.59566446e-04 2.91096093e-03 1.45092153e-03 -5.86356153e-04
      -1.55051704e-03 -1.55368645e-03 -1.79295964e-03 2.67767394e-03
      1.29738776e-03 6.13485754e-04 1.61480828e-04 -2.04440812e-03
      -3.21357534e-03 -2.56174966e-03 5.47620730e-05 -2.34343155e-04
      -6.64364416e-05 -3.18717235e-03 -1.88340072e-03 -3.26602766e-03
      -4.11706604e-03 -3.55768047e-04 -3.48099717e-03 -4.72430431e-04
      -1.76003494e-03 1.52065128e-03 -7.39775889e-04 2.99340409e-05
      -1.83280918e-03 -3.02223535e-03 -2.91069201e-03 -8.88771901e-04
      1.15240214e-03 7.93159532e-04 -2.39619217e-03 -9.39884456e-04
      -7.50655890e-04 -1.79610879e-03 -8.76266276e-04 -3.04037496e-03
      -2.03038566e-04 5.44045004e-04 -1.69554504e-03 -1.34663878e-03
      2.68432104e-05 3.17387050e-04 -1.24485965e-03 -3.13132023e-03
      -2.53917370e-03 -9.11100884e-04 -2.19914573e-03 1.00476947e-03
      -3.33830743e-04 -7.38371047e-04 -8.18815141e-04 -3.55151482e-03
      -2.30179704e-03 -1.13822822e-03 -2.02716421e-03 -1.81296293e-03
      -1.81669951e-03 1.84283941e-03 1.67928694e-04 -2.69501144e-03
      -3.21877142e-03 -4.37917945e-04 -1.11687498e-03 -1.39263540e-03
      -2.06216960e-03 8.61825480e-04 -1.17730675e-03 -3.86824831e-03
      -3.73157812e-03 -2.85219937e-03 2.26086544e-04 6.01799366e-05
      -3.65148851e-04 4.53203276e-04 1.30629027e-03 1.14211021e-03
      1.99608257e-04 -2.55095330e-03 1.50562177e-04 -1.84702675e-03
      9.43536346e-04 -3.65512009e-04 -3.90478969e-03 -2.32076505e-03
      -1.56514591e-03 -2.60010082e-03 -4.68956446e-03 -5.90874674e-03
      -2.68223230e-04 4.59595583e-04 -6.41649996e-04 -1.46246480e-03
      -2.10466119e-03 -7.33789871e-04 -2.95247161e-03 -5.74380567e-04
      -1.20018411e-03 1.17683470e-04 -1.88824243e-03 2.38637114e-03
      3.82493134e-04 1.68518641e-03 2.88763479e-03 -2.87376111e-03
      -1.50208524e-03 -2.23501842e-03 -6.90621673e-04 -1.77947385e-03
      -2.40016216e-03 -2.64143362e-03 -2.13474617e-03 -1.71323714e-03
      -4.46978351e-03 -2.84520863e-03 -2.42299912e-03 -2.65387166e-03
      -8.31396785e-04 -2.08157185e-03 2.90376280e-04 -3.12414311e-04
      -1.39042584e-03 1.34295039e-03 -1.99064706e-03 -3.98021075e-04
      2.11667758e-03 7.58385722e-05 5.22896065e-04 -4.00211196e-03
      3.74362891e-04 1.25057169e-03 3.84254352e-04 -1.43207028e-03
      -1.16325950e-03 -1.24784105e-03 2.21792399e-03 3.11919046e-03
      -1.72228261e-03 1.53148675e-03 -9.51870825e-05 -7.35857699e-04
      -1.16334204e-03 1.25971541e-03 1.45019777e-03 -1.14251437e-04
      5.70209406e-04 -8.75349913e-04 -1.96078024e-03 -1.56865013e-03
      2.57272995e-03 4.75432375e-04 3.84689687e-04 6.53878596e-05
      1.36475184e-03 1.94014632e-03 1.12189737e-04 2.10961630e-03
      -5.01407252e-04 1.51391418e-04 -9.17280267e-04 -1.01862289e-03
      -1.47785933e-04 -9.48033703e-04 -1.08821609e-03 -1.02248869e-03
      1.08536403e-03 -6.19443948e-04 -1.32304349e-03 1.48997887e-03
      -1.42876629e-03 -2.51120509e-04 -4.18504642e-04 2.68407603e-04
      2.65581271e-04 9.32940224e-04 -7.66182784e-04 -6.28575683e-04
      -4.13882051e-04 -6.36025681e-04 -1.56688853e-03 1.97124644e-03
      1.77911646e-03 -7.21548393e-04 1.47636025e-03 1.07039313e-03
      9.48645524e-04 -1.36556814e-03 5.33359649e-04 -5.32567210e-04
      -2.91100726e-03 -1.54477451e-03 -5.58819564e-04 -2.44364608e-03
      -1.69444596e-03 1.12022217e-05 1.06366162e-04 -2.65996438e-04
      -3.62503837e-04 -1.26781629e-03 -3.24917492e-03 -4.39892104e-03
      -9.33611940e-04 -1.48571748e-03 -4.64911165e-04 -8.87995528e-04
      2.18519056e-03 6.29287097e-04 -2.27679778e-03 -4.74730087e-03
      -2.47812062e-03 1.11712795e-03 -1.83839677e-03 -7.96577544e-04
      -9.24766064e-04 -1.08331582e-03 -8.94180383e-04 1.79740557e-04
      -8.97119520e-04 -3.04061384e-03 -3.34704504e-03 -1.53458479e-03
      -1.65164040e-03 -1.44150457e-03 7.70418963e-04 6.97152049e-04
      -1.70514372e-03 -1.66619592e-03 -3.90856434e-03 -1.87480502e-04
      5.35677573e-05 -2.24890257e-03 1.02215691e-03 2.35919961e-05
      -9.31310351e-04 1.61983317e-03 7.85324955e-04 -7.34951347e-04
      2.75330432e-03 8.50129523e-04 1.02984917e-03 2.35853042e-03
      -2.56259576e-03 1.37511827e-03 1.28740794e-03 -3.18591658e-04
      2.30864692e-03 1.80676638e-03 -2.53017351e-04 1.09345900e-04
      5.65909606e-04 5.80393302e-04 -2.94461404e-03 5.74070618e-05
      1.35618902e-04 -1.54104582e-05 1.58620518e-04 -2.61303358e-05
      -6.70533627e-04 -2.36080913e-03 -1.05880364e-03 1.68187241e-03
      3.38637037e-04 -1.86694483e-03 1.25345786e-03 5.38210431e-03
      -5.95357851e-04 1.01620320e-03 6.17504294e-04 -6.49952737e-04
      7.03854545e-04 2.07490916e-03 -1.59570365e-03 3.17137135e-04
      2.24103639e-03 1.25095202e-03 1.19719736e-03 2.29187324e-04
      -2.38724315e-04 1.36301166e-03 5.60670684e-04 -7.92352657e-04
      7.57164729e-04 1.28378731e-03 -4.04557167e-03 -1.69481279e-03
      -4.27042192e-04 -9.87383886e-04 1.08504214e-03 -1.24819833e-03
      2.54609482e-03 -1.03457854e-03 1.85669912e-03 -1.84619834e-03
      4.07118164e-03 2.00436567e-03 8.49999080e-04 -7.67964229e-04
      -1.97340525e-03 6.20971783e-04 -2.90740933e-03 1.82347151e-03
      -5.61917084e-04 -1.62088242e-03 -1.74897595e-03 -8.79224448e-04
      1.80231989e-03 -2.38070684e-03 -5.85992180e-04 -1.31120463e-03
      5.94264304e-04 -2.54053972e-03 -4.07657307e-03 -1.35136337e-03
      1.70343174e-05 -8.80221254e-04 -1.06383977e-03 1.30317500e-03
      -1.77812693e-03 2.50018231e-04 -2.10924214e-03 -3.71672702e-03
      -1.41129375e-03 1.38148817e-03 6.12034986e-04 1.95073849e-03
      -9.57389944e-04 -1.75229891e-03 -1.08982890e-03 -1.35829760e-04
      1.08163839e-03 1.52470369e-03 7.51020794e-04 -9.42890547e-05
      -1.82257523e-03 -7.97346176e-04 -1.15254696e-03 -3.02373664e-03
      -2.61984090e-03 -1.48463063e-03 -2.05983198e-03 -3.35788191e-03
      -9.13354685e-04 -8.23644397e-04 1.10702228e-03 -7.84169068e-04
      1.92591193e-04 -1.38594059e-03 -1.52553478e-03 -5.51494129e-04
      2.16872501e-03 3.36042838e-04 6.13479293e-04 1.14103220e-03
      2.06992569e-04 4.08115971e-04 3.31255171e-04 -1.31980225e-04
      -8.40168359e-05 1.54905161e-03 -6.00441999e-04 1.08482411e-04
      3.38669633e-03 -1.10842567e-03 1.41961512e-03 1.64965109e-03
      2.77644675e-03 2.75844755e-03 2.05503241e-03 -7.47543061e-04
      -2.63702194e-03 1.39490003e-03 -3.67033854e-03 1.07317360e-03
      2.20658118e-03 -7.64198077e-04 -4.28965286e-04 2.49593682e-03
      -2.87015317e-03 -2.79270811e-03 3.51375929e-04 -2.22508144e-03
      -6.84641069e-04 -7.35689828e-04 6.74762938e-04 -1.76380202e-03
      1.01022853e-03 -7.78100279e-04 3.05864174e-04 6.97579235e-04
      3.26396199e-04 -3.38419544e-04 9.90068656e-04 4.98473528e-04
      7.61747244e-04 -8.32671882e-04 3.99872864e-04 -7.74869171e-04
      -3.77254153e-04 -1.03952223e-03 2.27787229e-03 -9.95664741e-05
      3.23998299e-03 -1.65847639e-04 -5.51402336e-05 -2.75360607e-03
      -7.67685007e-04 -8.87465896e-04 2.17557908e-03 -1.39955117e-03
      4.92070976e-04 6.57929981e-04 -1.64859652e-04 -1.31701375e-03
      1.61091011e-04 1.59660983e-03 -6.34560056e-05 -2.53998837e-03
      -4.03660769e-03 -4.94531868e-03 -1.61006302e-03 -7.15791466e-05
      1.15330867e-03 -1.39065878e-03 1.42552075e-04 1.50553707e-03
      -1.34397205e-03 -3.38292914e-03 -2.63489288e-04 -6.17046608e-04
      -1.67989940e-03 -7.34295696e-04 -1.83253398e-03 -1.55896216e-03
      -3.02106142e-03 -3.83678428e-03 -4.22748766e-04 -2.33544642e-03
      -2.78639630e-03 1.34662332e-04 1.84650335e-03 -6.72424270e-04
      -2.20044446e-03 -4.05615894e-04 -7.91392755e-04 -3.78108630e-03
      -3.07638920e-03 -2.75807851e-03 -2.29545496e-03 -1.79697323e-04
      1.41346280e-03 -1.52494234e-03 1.82445592e-03 -2.99034128e-03
      3.37695726e-03 1.20757520e-03 -8.60094267e-04 -1.61376281e-03
      -8.57269450e-04 2.91377166e-03 -7.67367834e-04 6.84547820e-04
      -1.96724723e-04 3.26521142e-04 -3.87811917e-04 5.99106861e-05
      -6.13438373e-04 -1.19457452e-03 1.40666426e-03 -2.29289377e-04
      -9.08979448e-04 1.08385494e-03 -2.62202951e-03 2.06369115e-03
      -6.00147061e-04 -1.90866980e-04 -8.52195444e-05 1.19836442e-03
      6.55263837e-04 1.21628738e-03 3.85550171e-04 3.89846601e-03
      -1.41349318e-03 -1.16959424e-03 8.70357733e-04 9.36839031e-04
      -8.41472938e-05 -5.19024674e-04 -3.31901887e-04 5.07757184e-04
      2.21737102e-03 1.11411465e-03 -2.49860925e-04 -2.70337274e-04
      -1.15366725e-04 -3.33981821e-04 1.64184341e-04 -1.01585826e-03
      1.09246362e-03 -4.15530230e-04 -3.78603837e-03 4.19442722e-06
      -3.28901879e-05 2.13088701e-03 1.33074645e-03 -1.69587019e-03
      -1.25329499e-03 1.80899934e-03 1.41705992e-03 -1.54304900e-04
      -1.86470163e-03 -1.15568611e-04 4.24644502e-04 -4.65370103e-04
      -1.07486639e-03 -2.75251223e-03 -5.67877200e-04 -2.25757319e-03
      -1.53747387e-03 4.97800473e-04 -3.90862784e-04 7.04505597e-04
      1.44222938e-03 1.16317847e-03 -1.33781391e-03 6.09133625e-04
      8.69303767e-04 -1.79529050e-03 -1.82103668e-03 1.63585367e-03
      -2.20900052e-03 -1.34598895e-03 -1.57397939e-04 -2.07134825e-03
      -1.61597971e-03 -5.93529176e-03 -2.59961677e-03 -1.79237011e-03
      1.50745502e-03 -2.53897486e-03 1.79972243e-03 -1.02314784e-03
      -8.85305752e-04 -3.24825360e-03 -2.04223208e-03 -7.38997071e-04
      2.44606636e-03 1.94673892e-03 -1.53153844e-03 -1.86279288e-03
      -1.75805285e-03 -3.06167384e-03 -2.56808870e-03 -1.51854983e-04
      -2.96210009e-03 -1.17660849e-04 -2.57699820e-03 -1.90910185e-03
      1.98318376e-04 6.25274726e-04 -9.24249587e-04 -5.76859049e-04
      -5.22560382e-04 -2.85144430e-03 5.74981037e-04 -2.90882308e-03
      -3.81117679e-05 2.85364076e-04 -1.11503911e-03 1.78595015e-03
      9.36356839e-04 -2.70203361e-03 -3.82938609e-03 1.61140299e-04
      -2.38839071e-03 -2.13360274e-03 3.73790419e-04 1.32599426e-03
      -4.23645281e-04 3.19787039e-04 2.26665661e-03 -1.11257471e-03
      -4.27704887e-04 -1.77766685e-03 2.53141305e-04 2.25300761e-03
      -2.55475956e-04 -4.39318334e-04 -1.55232381e-03 9.03464737e-04
      1.92060834e-03 -9.96357994e-04 -7.52457418e-04 9.83995706e-05
      1.48416054e-03 1.03138003e-03 1.54558429e-03 2.13266423e-04
      1.39867503e-03 6.44694897e-04 4.61255200e-04 -1.64042891e-03
      -4.79877053e-04 -1.14229304e-04 -2.33399984e-03 -3.34841479e-03
      -1.04837911e-03 -5.43388654e-04 -5.53809165e-04 -3.93910008e-03
      1.18773733e-03 4.04993480e-04 -2.22828612e-03 5.36828360e-04
      8.69243697e-04 -2.78199499e-04 -6.95710129e-04 2.18319241e-03
      -2.23537776e-04 1.22870528e-03 -1.35094603e-03 6.90499746e-06
      -5.70837699e-04 1.90703396e-03 -3.95195930e-05 -4.02952981e-04
      -1.17121718e-03 1.74706547e-05 -1.59086383e-04 -2.37243203e-03
      -7.36418995e-04 1.16665696e-03 -9.00174840e-04 8.28859920e-04
      2.53506267e-04 -4.14924324e-03 -4.22236649e-03 8.59224994e-04
      2.28967145e-03 -1.68589840e-03 -2.93299498e-04 8.13982799e-04
      -2.78001837e-03 -3.40936182e-04 -4.00427356e-03 -2.52884324e-03
      -3.40351555e-03 -1.71148987e-03 -1.42260278e-05 3.36485769e-04
      6.16521458e-04 -6.22709806e-04 4.93482985e-05 3.41672683e-04
      -1.80587487e-03 6.49842201e-04 2.23603289e-04 7.37991009e-04
      2.17208127e-03 6.23783155e-04 -1.38957344e-03 -1.38128956e-03
      1.46143720e-04 -1.59349258e-03 3.01991764e-04 -9.64612351e-04
      -1.29500590e-03 -1.27278536e-03 3.39327147e-03 6.38640660e-04
      1.79258571e-03 -1.07476639e-03 -1.43879920e-03 -1.98988849e-03
      -5.41316927e-04 -2.58657546e-03 -2.05963710e-03 1.24525046e-04
      -5.43645641e-04 -6.44502346e-04 6.60849037e-04 1.11817659e-04
      -2.86312168e-03 -2.73701712e-03 -3.39846825e-03 -1.39605522e-03
      1.06995087e-03 -1.74311199e-03 -1.41374858e-05 -3.56077566e-03
      -3.29363486e-03 -6.69850083e-03 -4.69607953e-03 -2.63402704e-03
      -3.01260944e-03 -1.27633708e-03 -5.90263284e-04 9.60485311e-04
      -3.76527896e-03 -1.83276134e-03 -3.77975916e-03 -2.02550436e-03
      -1.29660661e-03 -8.70207907e-04 -5.47334726e-04 -1.46010937e-03
      7.73536740e-05 2.52910354e-03 2.62465258e-03 1.44446339e-03
      -1.48521538e-03 -3.29841720e-03 -2.62490753e-03 -2.29242002e-03
      -1.13173388e-03 -1.20620755e-03 -1.40470813e-03 -1.81655400e-03
      -1.53345114e-03 -1.03370333e-03 -2.87878397e-03 -2.10569124e-03
      -1.42882706e-03 -9.55244032e-05 2.46106902e-05 1.65669117e-04
      -1.97395170e-03 -2.41419370e-03 -3.55004426e-03 -2.97295884e-03
      -2.30480474e-03 -2.29764846e-03 -1.76480459e-03 -6.20535211e-05
      -2.36893957e-03 -1.71130511e-03 8.60637811e-04 -3.40243615e-03
      2.38466403e-03 -1.50982861e-03 -3.88628477e-03 -2.68366351e-03
      -1.99944084e-03 -1.49004813e-03 -1.91770704e-03 -1.43398449e-03
      -3.47095833e-04 -2.53598206e-03 -1.14329497e-03 -2.36364175e-03
      -3.15002678e-03 -6.01596199e-04 1.73208397e-03 -2.84190493e-04
      7.11033586e-04 -1.39698049e-03 5.90828364e-04 3.37041361e-04
      -7.66710436e-04 -3.55184864e-04 -7.74916320e-04 1.62115344e-03
      -1.70286710e-03 -1.91566453e-03 2.11714581e-03 -4.71507665e-04
      -2.05654560e-05 2.36724853e-03 6.89849840e-04 1.01279595e-03
      1.31195039e-03 -2.03246163e-04 -1.15823420e-03 -6.45830121e-04
      -7.21278775e-04 -1.26898626e-03 -1.23766542e-03 1.47998694e-03
      5.31668717e-04 2.76341307e-04 -8.11271893e-04 -4.01620899e-04
      7.56329246e-05 2.32004398e-03 1.72357971e-03 6.72753318e-04
      -7.15405404e-05 -1.70958985e-03 -2.58726155e-04 -2.17109942e-03
      -3.27067130e-04 -9.44838030e-05 -2.41372618e-04 2.80260830e-03
      1.27059023e-03 -1.28286635e-03 -6.19449187e-04 4.90953134e-05
      9.90962362e-05 -2.43955222e-03 8.36787396e-04 2.11755466e-03
      -8.88434181e-04 3.63006839e-04 -1.09548273e-03 1.30884210e-03
      1.89671046e-04 7.85082579e-04 -8.29669152e-05 5.15697524e-04
      1.11318775e-03 -1.50021550e-03 -1.17496843e-03 -5.36893320e-04
      6.08879374e-04 -1.40564912e-03 -1.02750876e-03 -6.21923187e-04
      1.12795306e-03 3.75158386e-04 4.79138311e-04 -1.08453853e-03
      -4.24624304e-04 8.28786113e-04 -1.15637050e-03 -4.53459739e-04
      1.31944672e-03 9.45761451e-04 8.10999714e-04 1.03669602e-03
      -2.50879186e-03 -1.58837123e-03 1.09500519e-03 6.28958980e-04
      5.71557030e-04 -4.89391328e-04 -1.07384229e-03 1.40920270e-03
      5.60267479e-04 1.32290472e-04 -3.24044406e-04 -4.54105349e-04
      -8.81187501e-04 -8.37166386e-04 2.99514504e-04 -9.55302618e-04
      -1.48634517e-05 7.38947419e-04 8.70438234e-04 1.89701770e-03
      -1.03859371e-03 -1.97610119e-03 -3.71403596e-03 1.25920214e-03
      1.15023693e-04 9.18848265e-04 -5.60083427e-04 -5.42390917e-04
      1.84394734e-03 9.60703124e-04 2.38571409e-03 1.88682272e-04
      3.21078987e-04 7.67083373e-04 -1.26101333e-03 2.32840073e-03
      2.36811722e-03 -9.77658434e-04 1.82188931e-03 1.77794695e-03
      3.70001857e-04 8.59768828e-04 2.13648076e-03 -1.31743215e-03
      1.13373471e-03 8.10699421e-05 -8.16303072e-04 1.51826884e-03
      -2.68473843e-04 -1.49349880e-03 1.04252051e-03 2.50329077e-03
      2.00087554e-03 2.01368751e-03 3.20754433e-03 4.71547974e-04
      -1.25012605e-03 -4.25166637e-03 4.02847400e-05 -9.99816926e-04
      -3.20835854e-04 -6.87749889e-06 6.03477180e-04 7.45135301e-04
      7.61223346e-05 -2.51855340e-06 1.58036419e-03 2.60228495e-04
      -2.34990133e-04 1.04001816e-03 1.81676890e-03 -1.02312781e-03
      3.23110400e-03 2.87780096e-03 1.00165128e-03 -1.27685460e-04
      8.36974999e-04 1.57661166e-03 1.04875562e-05 -1.81625737e-03
      6.59805082e-04 -2.06851691e-04 -5.47217729e-04 1.02000672e-03
      3.26789886e-04 3.62707578e-05 1.10721041e-03 -3.44226370e-04
      -1.01516594e-03 -1.96733075e-04 1.71532831e-03 7.06312596e-04
      -1.90065976e-03 1.09486660e-04 1.22775484e-04 7.27417704e-04
      -8.07940552e-04 1.22578745e-03 -8.76417093e-04 -8.98884842e-04
      1.26769871e-03 -1.24189386e-03 -8.18114378e-04 1.05936057e-03
      2.39228582e-04 -1.69192115e-03 1.09069142e-03 1.30096055e-03
      1.34601234e-03 6.41216640e-04 1.56773382e-03 -9.67003143e-05
      3.58122610e-03 -6.96941803e-04 -6.83735358e-04 -8.73186102e-04
      -1.41686678e-03 -1.11645088e-03 7.34866946e-04 6.23739557e-04
      -7.89736921e-04 -5.13010367e-04 -1.05319114e-03 -2.88152776e-04
      -1.48869900e-03 -1.17784810e-04 -1.01901533e-03 -1.34223641e-03
      1.01332320e-03 -1.16815303e-04 7.72673637e-04 3.98457778e-04
      2.11770716e-03 -1.08200577e-04 1.95632339e-03 1.35316944e-03
      -4.74215951e-04 1.25992347e-05 -2.07570358e-03 -1.39819656e-03
      2.17418815e-03 2.03765929e-03 1.13775313e-03 -1.70134171e-03
      1.30492216e-03 1.58761942e-03 5.90550946e-04 3.81501362e-04
      -1.15307212e-05 -2.91196303e-03 -6.50933129e-04 -1.69000565e-03
      5.54573257e-04 1.83474692e-03 -2.34977852e-04 -1.74659037e-03
      1.88112888e-03 -6.20862527e-04 -7.11029745e-04 -3.38152371e-04
      -8.14253290e-04 1.04402157e-03 -2.21265247e-03 -8.18530621e-04
      8.70086253e-04 -1.50676619e-03 -7.52741995e-04 -8.21357768e-04
      1.37264899e-03 2.74213613e-04 6.33662508e-04 1.24111841e-03
      3.02130356e-03 -4.92006307e-04 -2.16349424e-03 -1.20431883e-03
      -2.77604861e-03 6.62405510e-04 -1.09236885e-03 7.50147388e-04
      6.15634024e-04 -2.01710174e-03 1.44910684e-03 -1.23289274e-03
      2.37289685e-04 -8.21381225e-04 1.57462806e-03 1.15419459e-03
      -9.57507000e-04 1.57873763e-03 1.24916388e-03 1.34396006e-03
      1.06243265e-03 -7.13756599e-04 3.24943569e-03 6.76760159e-04</_></support_vectors>
  <decision_functions>
    <_>
      <sv_count>1</sv_count>
      <rho>-6.2703545570374886e-02</rho>
      <alpha>
        1.</alpha>
      <index>
        0</index></_></decision_functions></my_svm>
</opencv_storage>
