<?xml version="1.0"?>
<opencv_storage>
<my_svm type_id="opencv-ml-svm">
  <svm_type>C_SVC</svm_type>
  <kernel><type>LINEAR</type></kernel>
  <C>2.0000000000000000e-03</C>
  <term_criteria><epsilon>1.1920928955078125e-07</epsilon>
    <iterations>1000</iterations></term_criteria>
  <var_all>1296</var_all>
  <var_count>1296</var_count>
  <class_count>2</class_count>
  <class_labels type_id="opencv-matrix">
    <rows>1</rows>
    <cols>2</cols>
    <dt>i</dt>
    <data>
      -1 1</data></class_labels>
  <sv_total>1</sv_total>
  <support_vectors>
    <_>
      -8.26884818e-04 8.20720103e-04 2.60716683e-04 -1.44493789e-03
      1.15730346e-03 2.66647013e-03 1.86075794e-03 -1.67405244e-03
      -1.98389334e-03 -3.73459072e-04 2.92005646e-03 9.55330383e-04
      -6.25274784e-04 2.01037969e-03 -9.41291742e-04 -6.62273029e-04
      -1.10392901e-03 -1.35199807e-04 -2.38424423e-03 -2.86706723e-03
      -2.63636815e-04 -6.52096176e-04 1.48886594e-03 -1.12976343e-03
      -8.27558455e-04 -7.38143281e-05 -1.11124769e-03 -1.03504874e-03
      -3.08879360e-04 1.18907157e-03 -1.17705774e-03 5.66073402e-04
      -2.56103434e-04 -8.92478565e-04 1.22017262e-03 5.53550723e-04
      6.55106909e-04 -3.39929451e-04 -6.06558460e-04 2.08404759e-04
      3.62306763e-03 2.60817143e-03 2.26406567e-03 -6.35147677e-04
      -2.59974552e-03 -6.06249450e-05 -1.81200070e-04 -5.80193300e-04
      -1.54518464e-04 1.10708550e-03 -2.83348840e-04 1.31315013e-04
      1.09400856e-03 1.27163262e-03 -1.36109744e-03 5.17279434e-04
      8.17450986e-04 -3.28636554e-04 -1.14212115e-03 -3.17148399e-03
      -2.59642431e-04 6.69272733e-04 2.13575456e-03 7.82177900e-04
      -1.58164394e-03 -4.72573884e-04 -1.77884882e-03 -1.36547780e-03
      8.58310726e-04 1.49305945e-03 -2.17631948e-03 8.59979598e-04
      3.10322503e-03 -2.17213831e-03 -2.95871194e-03 -6.92599046e-04
      7.29518069e-04 8.84718975e-05 1.62795978e-03 -6.47474488e-04
      -3.25606758e-04 1.10577047e-03 9.47451044e-04 -7.81124516e-04
      1.20525321e-04 1.30471017e-03 -1.05014583e-03 -1.64106794e-04
      -1.76730950e-03 3.96669609e-03 2.87182978e-04 -1.84464175e-03
      2.85430835e-03 -6.49911468e-04 -1.10805978e-03 -2.22457602e-04
      7.33657333e-04 1.84766855e-03 8.93608085e-04 -1.26551674e-03
      -1.75612713e-05 1.71257160e-03 -2.18533957e-03 -1.97758758e-03
      -6.30385708e-04 2.56210053e-03 -8.08363373e-04 -9.64473467e-04
      -5.34346145e-05 -3.29320756e-04 -1.32672559e-03 1.09572813e-03
      -8.28752585e-04 5.84547350e-04 3.36112734e-03 1.17700419e-03
      -2.53259414e-03 1.18349167e-03 -8.22068600e-04 2.14738632e-03
      -2.41550081e-03 -2.16204629e-04 -1.91308907e-03 8.79728352e-04
      6.98490794e-06 -1.41388131e-03 2.23184121e-03 1.74559699e-03
      -1.66237075e-03 1.28691725e-03 6.15405792e-04 2.59850174e-03
      2.65850779e-03 -4.49685205e-04 -2.91067583e-04 -2.85787159e-04
      -2.75118189e-04 1.20414579e-05 -4.78419987e-03 1.82409841e-03
      -5.80667576e-04 8.37214524e-04 -1.52911828e-03 -1.44228892e-04
      1.24755956e-03 1.42380514e-03 8.70953721e-04 1.14314503e-03
      -2.84170586e-04 2.26193108e-03 1.95512082e-03 1.84604572e-03
      1.43383991e-03 -1.50913280e-03 -3.05783178e-04 -1.97685542e-04
      -4.55966569e-04 -1.16822321e-03 -4.74963017e-04 5.72767691e-04
      -1.44010887e-03 4.92112478e-04 1.53270690e-03 1.88421237e-03
      -1.02289801e-03 -9.03088076e-04 1.63135945e-03 2.48382078e-03
      -1.79627526e-03 -1.27841276e-03 7.48190505e-04 -8.33683298e-04
      -1.25416555e-03 1.37239302e-04 -2.40670284e-03 -2.37532286e-03
      -5.81612578e-04 -1.41958566e-03 1.10523622e-04 1.73259783e-03
      2.61120120e-04 -5.84118185e-04 2.04958557e-03 -1.30669284e-03
      -1.55771140e-03 2.33097817e-03 1.46898848e-03 -8.78034218e-04
      2.36788619e-04 2.95504439e-03 1.76390866e-04 -5.27381431e-04
      -6.04978704e-04 1.36758841e-04 -2.93721328e-04 -1.49614294e-03
      -8.13448685e-04 -7.23070872e-04 2.14244472e-03 6.27559435e-04
      -7.09665474e-04 6.55797485e-04 2.79180193e-03 1.90546468e-03
      -2.14227755e-03 1.00243639e-03 -1.41379121e-03 1.01136789e-03
      -1.05627521e-03 7.12601701e-04 -1.82145589e-03 4.28053521e-04
      1.01975875e-03 -1.38909393e-03 -6.72676717e-04 -7.87384575e-04
      6.44706190e-04 -4.78726783e-04 -1.92652486e-04 2.72935751e-04
      -9.30431532e-04 1.36462820e-03 3.16107646e-03 -4.65682155e-04
      5.22030925e-04 7.88881676e-04 -8.37413652e-04 -5.53533493e-04
      -1.21925375e-03 4.06085543e-04 -1.48586300e-03 -1.70731699e-04
      -5.06411190e-04 -1.93942199e-03 -1.91311224e-03 2.05988344e-03
      6.25746150e-04 8.29791999e-04 -1.25376449e-03 -1.16311181e-04
      1.68612716e-03 1.43035315e-04 -2.37712287e-03 1.50611554e-03
      -8.33900471e-04 1.87132834e-03 -3.66571097e-04 1.16409363e-04
      -5.96638769e-04 -1.09739369e-03 -8.55656050e-04 4.00335848e-04
      4.80826857e-04 3.04143585e-04 -1.32611743e-03 1.71940355e-03
      7.23854231e-04 -6.16975827e-04 7.27035513e-05 6.44785527e-04
      6.26556284e-04 -2.33879080e-04 -4.06646961e-03 -3.12248664e-03
      1.66599828e-04 1.14820292e-03 -8.12319980e-04 2.14187498e-03
      -4.01714089e-04 7.50256877e-04 2.29336997e-03 -1.90205907e-03
      -1.03633129e-03 -3.27400980e-03 -3.56515899e-04 6.78684795e-04
      9.87088890e-04 7.75448978e-04 6.58330566e-04 -4.57069464e-03
      -5.59752202e-03 -3.90462019e-03 -4.48972743e-04 -1.38445629e-03
      -1.82108942e-03 -1.77836651e-03 -7.94805317e-07 -1.40847394e-03
      -3.58652323e-03 -3.51092941e-03 -2.44526356e-03 -1.85969623e-03
      -1.06224860e-03 -9.71878704e-04 4.30454558e-04 1.69777719e-03
      -4.22374392e-03 -2.95976875e-03 -3.66528216e-03 -8.12205893e-04
      9.14133343e-05 -1.15129561e-03 -4.11309348e-03 -3.51171853e-04
      -1.33139256e-03 -2.92005576e-03 1.51829619e-04 -3.27698048e-03
      -2.06269231e-03 2.07955251e-03 -1.11426215e-03 2.23699328e-03
      -8.00066162e-04 -3.00476881e-04 1.46394118e-03 -2.72366963e-03
      -2.65148352e-03 -1.78153405e-03 -1.88180164e-03 4.75209963e-04
      -1.39077334e-03 -3.67087941e-03 -3.19224503e-03 -1.77418871e-03
      -2.09240662e-03 -1.12932909e-03 -1.08060369e-03 -1.94185507e-03
      -1.62127792e-04 8.26830685e-04 -8.25076713e-04 -2.40780367e-03
      -3.74931865e-03 -4.06791316e-03 -7.23634948e-05 -2.54083029e-03
      -3.23204440e-03 3.98951903e-04 -7.36394839e-04 -3.31997755e-03
      -2.93709431e-03 -5.76118380e-03 1.61830999e-03 -5.86986949e-04
      -1.86192206e-04 -4.71678359e-05 -3.49085167e-04 5.70886536e-04
      1.18600857e-03 -3.32052936e-03 1.12078676e-03 -2.88839592e-03
      -3.82681435e-04 1.00649940e-03 -2.97701964e-03 -1.25543145e-03
      -2.22907489e-04 -1.73871475e-03 -2.26590945e-03 -4.48012864e-03
      -7.39223789e-04 2.33259494e-03 -2.16972106e-03 6.67213171e-04
      -2.28173856e-04 -6.97198557e-04 -7.25503021e-04 2.72735313e-04
      5.86866692e-04 1.70762178e-05 -1.00144325e-03 1.21096811e-04
      1.78106318e-04 1.11001718e-03 1.98397809e-03 -1.90791697e-03
      -3.73478106e-04 1.47368154e-03 -2.76551873e-05 -2.25233403e-03
      -3.10637080e-03 8.18669505e-04 -1.60091964e-03 -7.94473395e-04
      -3.92032042e-03 -2.17817491e-03 -2.54434836e-03 -2.23049498e-03
      -2.36387202e-03 6.32017676e-04 -2.34643332e-04 -2.28810497e-03
      -1.59788749e-03 4.23904537e-04 -4.48459148e-04 4.88768565e-04
      1.94714474e-03 -2.04904610e-03 3.36760859e-04 -2.65107187e-03
      1.65933371e-03 1.09786785e-03 2.23780191e-03 1.09126011e-03
      -4.84156226e-05 -9.15657962e-04 -3.59651633e-04 3.36644682e-03
      -1.43112417e-03 1.41356641e-03 -2.76919338e-04 -3.02976532e-05
      -2.14079116e-03 -1.07838772e-03 1.93255022e-03 1.09349214e-03
      1.97146507e-03 1.70585210e-03 -2.89875083e-04 -3.19487671e-03
      2.60892953e-03 -2.67238519e-03 2.10034472e-04 1.11313106e-03
      2.77308305e-03 1.85739278e-04 -1.12828473e-03 3.62626044e-04
      3.70295893e-04 1.87437946e-03 7.01045385e-04 -1.69932478e-04
      2.71578971e-03 -2.38621235e-03 8.62968212e-04 -9.15581244e-04
      1.67114101e-03 -1.74017495e-03 -6.08427275e-04 1.63066271e-03
      6.52492454e-04 -1.90377468e-03 -2.19300692e-03 1.48539460e-04
      1.10285159e-03 -2.67087424e-04 -8.17698543e-04 -2.73415586e-03
      -1.40088180e-03 -3.22005735e-03 -1.02541095e-03 5.89908101e-04
      3.20975413e-03 -7.37489609e-04 9.87192616e-04 -4.29513748e-04
      2.67613982e-03 5.26190852e-05 -1.69687686e-04 -5.18035318e-04
      -2.62180506e-03 -9.93594411e-04 -1.83827913e-04 -2.73526320e-03
      -8.03365721e-04 5.17065870e-04 -1.53281982e-03 -1.46739813e-03
      1.50172680e-03 -4.31982422e-04 -3.98294814e-03 -4.01685666e-03
      -1.57344225e-03 -2.69552018e-03 -8.70119082e-04 -5.37676155e-04
      -1.40762102e-04 -2.58867440e-05 -2.58516893e-03 -6.24738215e-03
      -3.39096412e-03 -6.43252686e-04 -1.74837827e-03 8.88023758e-04
      -5.60848785e-05 -1.00085174e-03 -4.68503335e-04 9.22988052e-04
      -2.61719082e-03 -5.23064379e-03 -2.45171832e-03 -2.15349975e-03
      -2.71863374e-03 -1.05282094e-03 -3.27273330e-04 -4.23968973e-04
      -1.69307273e-03 -1.54821388e-03 -3.30624194e-03 -2.88168318e-03
      4.35158072e-05 -1.16566324e-03 4.44178469e-04 2.60820822e-03
      -1.37154316e-03 -9.56498028e-04 -5.97269274e-04 -1.93391496e-03
      4.52069544e-05 2.97466666e-03 2.43229792e-03 2.38184351e-03
      3.80060083e-05 1.81667844e-03 8.19494308e-04 1.28800841e-03
      1.21877436e-03 1.49437622e-03 -1.68612064e-03 1.22819957e-03
      6.15280514e-05 9.86784929e-04 6.42258383e-04 -1.35323103e-03
      2.57717562e-03 -1.09822489e-03 4.13090747e-04 -1.82887597e-03
      -7.78412214e-04 8.62926769e-04 8.25782539e-04 9.94697795e-04
      2.33436306e-03 -1.85515685e-03 -5.41802961e-04 3.41998995e-03
      -2.06111534e-03 -1.89154863e-03 6.11660187e-04 -1.94888162e-05
      -2.83576315e-04 6.06707879e-04 1.32893867e-04 -7.65447185e-05
      2.34528026e-03 1.83265412e-03 1.94763858e-03 -7.97533314e-04
      -7.03553305e-05 5.01587463e-04 -8.39313507e-05 2.91733933e-03
      3.35477479e-03 1.43642630e-03 -1.62062212e-03 -2.25254288e-03
      -3.20262654e-04 9.79746808e-04 -2.37157816e-04 1.38012751e-03
      2.86085834e-03 -1.33667479e-03 -7.33670022e-04 -1.45166798e-03
      2.36987346e-03 1.33206032e-03 3.93228186e-03 -8.98822444e-04
      -8.02939816e-04 -2.02966243e-04 -2.14942102e-03 1.54355401e-03
      3.17380094e-04 -1.07463484e-03 -1.21585676e-03 -8.68191826e-04
      7.42768461e-04 -1.11415458e-03 -1.41057593e-04 3.43307387e-04
      1.14704506e-03 -3.55570251e-03 -4.16151341e-03 -1.03209913e-03
      8.35892133e-05 -3.14381788e-03 -1.08900678e-03 4.25944309e-04
      -7.01165467e-04 -2.43719830e-03 -1.88657967e-03 -2.75812857e-03
      -4.44850884e-03 -2.12892634e-03 -4.08488151e-04 3.78173805e-04
      -8.39393353e-04 -1.73894386e-03 2.15716238e-04 7.73415202e-04
      1.89147587e-03 1.68324704e-03 3.23251705e-03 -9.74491006e-04
      -1.70824365e-04 -3.07634636e-03 -2.95714382e-03 -1.80646440e-03
      -2.19210098e-03 -2.42774840e-03 -3.37033579e-03 -1.63806847e-03
      -4.46607912e-04 -1.64879556e-03 2.75087077e-03 -1.23917765e-03
      -3.13831581e-04 -6.76836178e-04 -1.39244774e-03 1.42432706e-04
      -7.64230441e-04 4.38979856e-04 -7.91953353e-04 6.23463347e-05
      5.69262833e-04 5.43036731e-04 1.54919946e-03 -1.48598512e-03
      1.74267311e-03 1.08936022e-03 -4.06192587e-04 2.68957647e-03
      1.66437740e-03 -2.37036249e-04 6.47188048e-04 -1.01469795e-03
      6.35097560e-04 -1.44594969e-05 2.45108153e-03 -3.79574223e-04
      -1.01515045e-03 8.76621052e-04 -2.65372265e-03 5.52410260e-04
      1.00686599e-03 7.85154174e-04 -7.73539767e-04 5.93159290e-04
      -3.74455296e-04 -4.86880046e-04 2.38889782e-03 -3.11715645e-04
      -9.94309201e-04 -3.20495456e-04 4.38330426e-05 1.06753234e-03
      5.78415580e-04 2.57064879e-04 4.85567551e-04 1.15098155e-04
      2.51849939e-04 1.57528592e-03 -8.70782358e-04 2.68637063e-03
      -5.24883159e-04 -2.28270236e-03 -1.69095743e-04 -2.52442551e-04
      1.75472745e-03 8.13766441e-04 2.96030450e-03 -2.05124190e-04
      1.13698072e-03 1.36221130e-03 7.53579079e-05 -1.07708178e-03
      -3.08783230e-04 -9.60755453e-04 3.01215536e-04 -3.25103785e-04
      2.95976730e-04 2.88630370e-04 1.23114919e-03 -1.01354904e-03
      1.73213996e-03 1.55212288e-03 9.60094447e-04 -2.15584598e-03
      -4.59798565e-03 -5.09666046e-03 -1.38853351e-03 -1.73651482e-04
      -2.10713784e-04 1.43009366e-03 2.26761843e-03 1.40415702e-03
      1.05803658e-03 -7.05718354e-04 -8.45611561e-04 -2.11399770e-03
      -6.47682600e-06 -5.45542222e-04 7.11774395e-04 -1.60932960e-03
      -2.11190595e-03 -3.39650316e-03 -2.10142019e-03 -4.22053505e-03
      -3.85896116e-03 -1.62506069e-03 -1.57290560e-04 -1.38264603e-03
      -1.55620126e-03 -8.79428408e-04 -3.69242713e-04 3.74240859e-04
      -3.73596046e-03 -3.01394681e-03 -3.34287761e-03 -1.13771309e-03
      8.40769208e-04 -2.26195581e-04 2.18984601e-03 -2.45150737e-03
      2.85586994e-03 3.05108726e-04 1.96915306e-03 7.41420372e-04
      -1.69370696e-03 1.79587386e-03 4.00606979e-04 1.61563850e-03
      -1.23080669e-03 9.63822007e-04 3.04571586e-04 6.14231452e-04
      2.94664380e-04 -1.65442517e-03 2.01074500e-03 1.16686767e-03
      7.83375872e-04 2.13811756e-03 -2.42570671e-03 2.19328678e-04
      -1.68362318e-03 1.39682728e-03 -1.28768082e-03 -5.36027364e-04
      1.47922174e-03 -1.60056559e-04 7.93013198e-04 3.38745792e-03
      -5.38931519e-04 1.15531206e-03 1.93703617e-03 2.17918213e-03
      -6.90579822e-04 -2.48899683e-03 5.85793692e-04 -9.83240083e-04
      8.95997568e-04 -5.32064238e-04 -1.19002513e-03 -3.04180919e-03
      -7.95215456e-05 -1.74745836e-03 -3.35001940e-04 3.55437136e-04
      3.98422882e-04 1.64022192e-03 -8.13656312e-04 -2.73885624e-03
      -1.12434081e-03 2.71638576e-03 -6.19561702e-04 -1.92359090e-03
      -1.08166493e-03 -7.13998306e-05 3.17366910e-03 -2.27566645e-03
      9.96175804e-04 8.16659362e-04 3.43724707e-04 1.40982433e-04
      -1.33044831e-03 -3.68292746e-03 -2.37943558e-03 -2.57654907e-03
      -1.09740300e-03 -3.43021541e-03 -1.21518725e-03 3.39346007e-04
      2.02679890e-03 1.54205668e-03 -8.12232611e-04 1.17753155e-03
      4.79897688e-04 -2.51220749e-03 -2.99371290e-03 1.33286370e-03
      2.14091968e-03 -1.36680785e-04 -1.48242441e-04 -1.66601280e-03
      -7.82684772e-04 -3.04700807e-03 -9.04612025e-05 -1.32067234e-03
      1.68842496e-04 3.25529400e-05 5.00660681e-04 -1.73904712e-03
      -2.60911649e-03 -3.78123601e-03 -1.61519134e-03 -2.60020548e-04
      4.00743121e-03 -1.11246749e-03 -2.71653337e-03 -1.63063314e-03
      -8.36724008e-04 -3.30484170e-03 -3.11046466e-03 -9.94725851e-04
      -2.42366432e-03 -1.24152284e-03 -2.03669164e-03 -8.04305542e-04
      -8.77408951e-04 9.75495903e-04 -1.38348178e-03 -2.25843341e-05
      -6.17118203e-04 -1.61736505e-03 -8.35468294e-04 -3.19430931e-03
      1.81498239e-04 -1.69800152e-03 -1.74895592e-03 1.08463084e-03
      -3.11579963e-04 -2.08156742e-03 -2.76161823e-03 -7.58244132e-04
      -4.33488138e-04 -1.11593676e-04 -2.54413171e-04 1.64256222e-03
      1.79350935e-03 1.56386360e-03 2.47967575e-04 4.40538897e-05
      6.18502672e-04 2.69281227e-05 8.84454130e-05 1.49561313e-03
      -2.19320692e-03 -1.47058768e-03 -1.38668774e-03 9.52995149e-04
      3.40052386e-04 -1.24050595e-03 4.05303959e-04 1.07910321e-03
      2.87930272e-03 -2.66458956e-04 2.13966239e-04 -2.26221140e-03
      2.55640573e-03 2.22158409e-03 3.08478280e-04 -3.60570557e-04
      1.30438677e-03 -1.40326703e-03 -2.70651607e-03 -2.66378652e-03
      -7.84995384e-04 4.25656745e-03 -2.41140882e-03 -1.53927074e-03
      -3.67430388e-04 6.61790778e-04 9.64958454e-04 1.37327515e-05
      1.86753794e-04 -1.89611490e-03 -9.57089534e-04 6.42522937e-04
      -6.57620374e-04 1.16925198e-03 -4.28390304e-05 -2.97699644e-05
      -9.56535863e-04 1.79187336e-03 -3.53495037e-04 -1.25797873e-03
      -9.07704525e-04 1.90728733e-05 -7.92362262e-04 -1.88507023e-03
      -1.98364956e-03 -1.26937777e-03 -1.47627492e-03 2.37379246e-03
      1.53895715e-04 -3.03734140e-03 -2.27961084e-03 1.72818790e-03
      2.57224636e-03 -2.10500672e-03 -7.48813793e-04 -2.44224939e-04
      -1.86510311e-04 4.17018426e-04 -2.62903748e-03 -2.40513100e-03
      -4.33932245e-03 6.15694080e-05 -4.53983026e-04 2.95047721e-06
      4.15104034e-04 -1.25039299e-03 2.00132054e-04 -1.66600489e-03
      1.18556793e-03 7.57133996e-04 -2.44069844e-04 6.33434800e-04
      2.25706538e-03 1.44607504e-04 -1.15732837e-03 -2.35155015e-03
      -1.31944194e-03 -1.41796877e-03 5.25214164e-05 -1.47849380e-03
      -1.95847475e-03 -1.88218604e-03 2.52951542e-03 -1.04784733e-03
      1.19992800e-03 -1.40309427e-03 -1.95081451e-03 -1.60457264e-03
      -3.20749031e-03 -2.56918417e-03 -3.86281230e-04 -6.61491998e-04
      -5.04009367e-04 -4.61566262e-04 2.12240918e-03 4.59631628e-05
      -2.29077018e-03 -3.98808299e-03 -2.56901886e-03 -1.02239114e-03
      -2.54974206e-04 -3.56480898e-03 1.65133795e-03 -1.04069861e-03
      -1.26549136e-03 -3.34203523e-03 -1.82979833e-03 -3.84851242e-03
      -6.52131799e-04 -2.13755574e-03 4.89669386e-04 -1.39579561e-03
      -1.78530789e-03 -5.89954376e-04 -3.64742882e-04 -4.03004233e-03
      -1.62278966e-03 2.74388702e-03 -8.44601542e-04 -2.18504202e-03
      6.75563497e-05 -3.92628950e-04 1.77972740e-03 8.06966214e-04
      -2.52317428e-03 -3.74523574e-03 -3.67362425e-03 -1.12451217e-03
      -2.82030040e-03 1.93937728e-03 1.49041077e-03 -4.15603584e-03
      -2.76673818e-03 -9.08810587e-04 -1.82139035e-03 -3.63638857e-04
      -2.48476514e-04 1.04486570e-03 -1.11970189e-03 -1.32016523e-03
      -8.66852643e-04 -2.45700264e-03 -2.58110487e-03 -5.04247053e-03
      -4.29800665e-03 -2.00500665e-03 -3.00563150e-03 2.35660048e-03
      -2.69249023e-04 -1.81313825e-03 -5.73232479e-04 -2.70368950e-03
      1.30321039e-03 -2.87583307e-03 -3.13981134e-03 -1.15856016e-03
      -1.10983534e-03 -1.96846249e-03 -4.75698733e-04 -1.05882087e-03
      1.02154299e-04 -8.77171231e-04 -3.39470134e-04 -1.39858259e-03
      -1.94392737e-03 1.02071208e-03 -1.70216116e-03 -1.80681399e-03
      2.82013253e-03 -2.47081788e-03 -2.26254645e-03 1.58572977e-03
      1.67387666e-03 5.74987382e-04 -1.15511834e-03 2.06058379e-03
      1.04955747e-03 -1.97906513e-03 2.12982576e-03 4.83416137e-04
      -2.17628013e-03 7.58148439e-04 8.42378417e-04 -2.57321983e-04
      -3.80390120e-04 7.23402889e-04 -1.63868791e-03 -3.37536703e-03
      -1.31482875e-03 3.50342802e-04 -2.09588301e-03 1.98015710e-03
      -5.79760468e-04 -3.68585752e-05 -5.54326398e-04 -1.83821656e-03
      -1.42804068e-03 -3.10745277e-03 -5.77734550e-04 9.81693389e-04
      3.12421907e-04 -5.88333234e-04 -2.39087478e-03 -1.54704798e-03
      -2.29363586e-03 -1.23131333e-03 2.41462467e-03 1.44389214e-03
      -1.58742955e-03 7.10644701e-04 9.64736973e-04 -4.52860913e-05
      8.62353991e-05 -7.39951327e-04 1.26583443e-04 3.19008512e-04
      -1.42420677e-03 4.18772252e-05 -2.36621476e-03 -2.98164057e-04
      1.85574943e-04 6.60675112e-04 -9.06231988e-04 5.47192234e-04
      -7.57733884e-04 -1.73111982e-03 1.15471403e-03 1.31881534e-04
      8.40406865e-04 -1.19184225e-03 1.55148190e-03 9.87788429e-04
      -4.69468592e-04 -3.13552475e-04 9.48830682e-04 -2.76722596e-03
      -6.06733898e-04 2.87406589e-03 3.03664885e-04 3.65319065e-05
      1.28896965e-03 9.71317873e-04 2.65001762e-03 -1.61189120e-03
      -7.03959886e-05 7.65872683e-05 6.08378148e-04 -1.33250433e-04
      4.54165449e-04 1.42105296e-03 1.02542236e-03 1.62172935e-03
      6.12205040e-05 -1.71331095e-03 -1.92571629e-03 -1.00791431e-03
      -3.63800733e-04 -1.66329718e-03 1.65032747e-03 -7.39565585e-04
      1.45644031e-03 9.29748931e-04 1.25163904e-04 9.41261416e-04
      -1.16522005e-03 -9.46408836e-04 -2.35480093e-03 -8.83072673e-04
      2.38933298e-03 1.65038893e-03 -1.72421732e-03 -1.26551499e-03
      -4.43880126e-04 5.19347086e-04 3.32843163e-03 3.24478396e-03
      -1.50694570e-03 2.86267395e-03 9.88568572e-05 2.72230175e-03
      8.93478282e-04 -1.11944581e-04 8.45515344e-04 -2.29255660e-04
      -1.03251147e-03 -4.96197550e-04 1.46262697e-03 -9.17349476e-04
      -8.39146145e-04 2.06171977e-03 2.97988387e-04 2.14865594e-03
      -2.47778231e-03 2.52184080e-04 2.91058786e-05 3.84893530e-04
      1.68477802e-03 1.67467783e-03 1.30762695e-03 -7.23489793e-04
      3.53706564e-04 -4.88279061e-03 -1.47557847e-04 -2.53761420e-04
      -7.82205665e-04 -1.63894775e-03 6.96226722e-04 -9.60506324e-04
      -1.96367060e-03 -7.15327624e-04 2.06165350e-04 5.64904243e-04
      2.34476058e-03 -5.61112480e-04 1.10664812e-03 -1.96930463e-03
      3.52965784e-03 8.09191493e-04 2.23572995e-03 -1.19629572e-03
      8.57397390e-04 1.93519940e-04 1.48457859e-03 -4.02714184e-04
      6.65902451e-04 -2.23652518e-04 5.22716378e-04 3.09138617e-04
      -1.29813782e-03 -1.24799460e-03 1.16966048e-03 1.01544883e-03
      1.30826596e-03 -1.93546782e-03 3.79120960e-04 -2.12204948e-04
      -1.52050925e-03 -2.43040337e-03 -1.06817367e-03 -6.30697410e-04
      7.14169873e-04 8.43693677e-04 7.48032762e-04 6.49649766e-04
      -8.38083506e-05 -2.99472199e-03 -2.07797321e-03 3.24552442e-04
      -3.95623094e-04 -9.71165835e-04 2.46025925e-03 2.86222319e-03
      7.55026762e-04 1.55211962e-03 1.32226199e-03 -5.98707818e-04
      2.64791446e-03 -2.02714512e-03 4.80581715e-04 -1.01464754e-03
      -1.08979398e-03 -2.16678064e-03 -2.58611486e-04 -2.68435827e-03
      -9.15138575e-04 2.85481825e-03 -2.03272235e-03 4.46378872e-05
      6.71848975e-05 4.75286361e-04 1.19967514e-03 -1.71570980e-03
      7.40994234e-04 -1.92122487e-03 1.62916933e-03 -2.87599396e-04
      1.72066130e-03 -1.85675302e-03 -8.41026078e-04 -9.67826229e-04
      2.30399339e-04 -2.01918627e-03 -2.64913309e-03 1.81417839e-04
      8.93243356e-04 1.69074163e-03 6.21758867e-04 5.85717964e-04
      1.47514360e-03 1.11141463e-03 1.69830630e-04 -2.49922916e-04
      1.98214198e-03 4.86148841e-04 8.51443911e-05 7.67183607e-04
      3.51853692e-03 3.05470382e-03 1.30198267e-03 -6.19720449e-05
      -1.45570852e-03 -1.11590966e-03 2.32493714e-03 3.58896417e-04
      1.58231636e-03 1.05189660e-03 -1.53373880e-03 -1.89378916e-03
      -9.10904666e-04 -2.86740973e-03 1.52667519e-04 1.57498827e-04
      6.76022959e-04 -1.41664431e-03 -1.36383495e-03 -7.07564410e-04
      7.47079321e-04 -6.20205072e-04 1.30770693e-03 -1.41872244e-03
      3.22702894e-04 1.19958282e-03 2.85077584e-03 -7.45511381e-04
      3.33683658e-03 1.38554221e-03 6.81991107e-04 -1.36061327e-03
      4.30393993e-05 2.08218396e-03 -1.22139929e-03 5.69746655e-04
      -5.70228207e-04 -1.09008863e-03 9.91710345e-04 -3.26839399e-05
      1.00281555e-03 -1.22893322e-03 -4.64287994e-04 2.21361872e-03</_></support_vectors>
  <decision_functions>
    <_>
      <sv_count>1</sv_count>
      <rho>-6.8258811950684006e-02</rho>
      <alpha>
        1.</alpha>
      <index>
        0</index></_></decision_functions></my_svm>
</opencv_storage>
