<?xml version="1.0"?>
<opencv_storage>
<my_svm type_id="opencv-ml-svm">
  <svm_type>C_SVC</svm_type>
  <kernel><type>LINEAR</type></kernel>
  <C>2.0000000000000000e-03</C>
  <term_criteria><epsilon>1.1920928955078125e-07</epsilon>
    <iterations>1000</iterations></term_criteria>
  <var_all>1296</var_all>
  <var_count>1296</var_count>
  <class_count>2</class_count>
  <class_labels type_id="opencv-matrix">
    <rows>1</rows>
    <cols>2</cols>
    <dt>i</dt>
    <data>
      -1 1</data></class_labels>
  <sv_total>1</sv_total>
  <support_vectors>
    <_>
      8.81559099e-04 -4.97878355e-04 1.50436489e-03 3.38242709e-04
      -5.80660999e-04 7.27344304e-04 7.89477432e-04 5.37869520e-04
      1.14413816e-03 -8.56463565e-04 3.13858548e-03 -9.70840687e-04
      -1.70337700e-03 -3.13000492e-04 -1.27458607e-03 1.48870470e-03
      -1.95584167e-03 1.02820934e-03 -1.26428087e-03 6.91624184e-04
      2.14722520e-03 -6.15884084e-04 -2.48065306e-04 7.15822389e-04
      1.44351029e-03 -2.27340055e-03 -1.80364441e-04 1.79155017e-04
      -5.70185075e-04 1.67805608e-03 6.89969922e-04 2.86333106e-05
      2.85883201e-04 6.89636974e-04 -9.04356362e-04 -2.22480181e-03
      -5.87549002e-04 1.06214918e-03 -4.48211184e-04 -6.54634321e-04
      5.60389599e-04 1.52865169e-03 1.20392884e-03 5.75633894e-04
      -1.53750868e-03 -4.49003885e-04 3.07546085e-04 4.91100887e-04
      -7.73136679e-04 1.17901294e-03 -1.30399631e-03 -2.25507421e-04
      5.94583689e-04 1.91085192e-03 4.42594232e-04 -1.15797529e-03
      2.25018710e-03 -7.82817253e-04 -1.26590882e-03 4.91122715e-04
      1.25836500e-03 -3.82059137e-04 1.47547293e-03 2.73093209e-03
      -8.05273885e-04 2.42700055e-03 9.56151693e-04 1.29669160e-03
      6.58929057e-04 -3.34610551e-04 -8.56153085e-04 1.43516809e-03
      6.56369957e-04 -1.12376863e-03 -1.63006107e-03 2.70052045e-03
      2.54279026e-03 -1.76505116e-03 2.38682050e-03 9.72952785e-06
      -1.53596385e-03 1.73677749e-03 -7.51569023e-05 9.79170320e-04
      1.02289009e-03 1.50510110e-03 2.07373267e-03 2.72478303e-03
      2.18246016e-04 3.71491071e-03 9.00242478e-04 7.46556034e-04
      3.08395759e-03 -1.76340854e-03 -3.25113581e-03 5.47068601e-04
      1.06499926e-03 3.81318224e-03 1.71209540e-04 -8.99407256e-04
      2.37518514e-04 2.45303824e-03 -1.58703176e-03 -1.50137104e-03
      -9.01384861e-04 1.17474166e-03 1.10780784e-04 -1.35854736e-03
      8.78538762e-04 -9.29338785e-05 -1.11399322e-05 8.82178894e-04
      -3.00492800e-04 2.23825965e-03 5.68561314e-04 1.88223866e-03
      -2.65828538e-04 8.11313104e-04 -2.37187836e-03 -4.36935312e-04
      -1.18338631e-03 1.55439193e-03 -1.05529478e-04 -1.07241550e-03
      -1.13025925e-03 -8.65868642e-04 2.02373532e-03 1.21816143e-03
      6.60444493e-05 7.10597960e-05 -2.11672182e-03 2.39773584e-03
      3.00489669e-03 -1.41231809e-04 -5.49915247e-04 -7.13136629e-04
      2.50808716e-05 9.31663380e-04 -1.09346793e-03 -4.49345622e-04
      -4.33386158e-04 -4.07274376e-04 -2.26280047e-03 -4.40041651e-04
      1.68801181e-03 1.26960478e-03 1.17078819e-03 -8.43718532e-04
      2.64430651e-03 8.84584035e-04 2.83151749e-04 3.30636482e-04
      -1.54198264e-04 -8.04401818e-04 3.22607608e-04 5.45551884e-04
      -9.74663359e-04 4.99682152e-04 -1.28710322e-04 -1.14985218e-04
      -1.38869882e-03 -5.00999333e-04 2.19658692e-03 1.64074916e-03
      5.76134305e-04 1.04461715e-03 5.67176867e-05 4.79492483e-05
      -8.79351806e-04 4.13623464e-04 2.08916987e-04 6.08510396e-04
      5.46070689e-04 -4.02321544e-04 -2.63093645e-03 -2.35415273e-03
      -4.74948407e-04 2.61830608e-03 -4.63044271e-04 -9.52860137e-06
      -1.81406690e-03 -5.85978385e-04 -2.04115669e-04 -1.32862129e-03
      2.05462519e-03 1.92050950e-03 1.26496539e-03 4.00378893e-04
      -1.43108901e-03 -4.43520548e-04 -2.50509661e-03 -6.85189269e-04
      -1.20274420e-03 1.44654256e-03 4.16313938e-04 -2.14106636e-03
      -4.05201921e-03 -9.29988921e-04 1.06557354e-03 -2.89171207e-04
      -4.41924378e-04 3.16055678e-03 5.78149047e-04 1.87096384e-03
      5.68673131e-04 -6.07358670e-05 9.01009364e-04 8.86012975e-04
      8.45431525e-04 1.18483906e-03 -9.98102711e-04 -1.25088159e-03
      -9.83504462e-04 9.44986183e-04 -1.16995268e-03 2.32614359e-04
      -1.05315307e-03 4.15426242e-04 -1.66342990e-03 -5.40671812e-04
      1.55370741e-03 1.98491244e-03 1.92841713e-03 -3.30241257e-03
      1.16045494e-03 7.42119795e-04 3.85148771e-04 -1.68758177e-03
      -9.13216383e-04 6.79338584e-04 -1.11913960e-03 4.53939465e-05
      5.87675022e-04 -4.50081076e-04 -1.09792722e-03 2.42570764e-03
      1.04586233e-03 2.13237619e-03 -1.09022297e-03 5.54065919e-04
      1.56406418e-03 2.38612900e-03 -1.41298480e-03 7.85523502e-04
      9.15499229e-04 1.95712247e-03 -4.94030188e-04 -4.83963595e-05
      -1.08469627e-03 5.27554250e-04 -4.28825244e-03 -1.06089178e-03
      -2.54359838e-05 7.08478328e-04 -9.45719716e-04 1.82151166e-03
      -5.10185724e-04 -9.04230226e-04 3.87869659e-04 -6.64346037e-04
      1.43640861e-03 -7.23686710e-04 -6.55786716e-04 -1.70528342e-03
      2.27868833e-04 -3.52255847e-05 -3.13409115e-03 -3.77469754e-04
      -1.41472570e-04 1.53455802e-03 8.80762702e-04 -1.28155272e-03
      -3.70787014e-03 5.97478240e-04 -1.74544472e-03 1.05742633e-03
      1.48220279e-03 1.18673535e-03 -1.65887340e-03 -3.81751149e-03
      -3.64914001e-03 -3.99797782e-03 -1.75540824e-03 1.88347651e-04
      5.92329248e-04 -1.97811844e-03 -1.00874645e-03 -1.88398524e-03
      -3.25853867e-03 -3.07207438e-03 -2.43100105e-03 -2.56980397e-03
      -1.72597053e-03 4.50899010e-04 -4.65570251e-04 3.33226402e-03
      -3.35431611e-03 -4.54504695e-03 -3.90673941e-03 -1.08066632e-03
      -2.90768803e-04 -3.67222121e-04 -2.88642035e-03 -2.62084301e-03
      -1.38957973e-03 -1.82183844e-03 -1.28833600e-03 -3.87686980e-03
      -1.97399571e-03 2.59457692e-03 -1.61579286e-03 -1.34532677e-03
      2.41069403e-03 -1.92991947e-03 -1.48561609e-03 -1.61811267e-03
      -1.38050283e-03 -2.16795874e-04 -1.21273566e-03 2.06330325e-03
      -1.72286225e-03 3.43623338e-04 -4.42467863e-03 -2.28765188e-03
      -1.77471386e-03 -1.82014809e-03 -2.84619717e-04 -1.47836329e-03
      -2.15030485e-03 -1.68063701e-03 3.83042410e-04 -2.34139059e-03
      -5.13495132e-03 -3.03516956e-03 -3.12042516e-03 -1.48578093e-03
      -1.10535382e-03 -4.40744654e-04 -1.71309314e-03 -4.51080082e-03
      -4.89807688e-03 -3.72116896e-03 6.56471180e-04 -1.60303796e-04
      -2.25073731e-04 5.58120431e-04 2.66081025e-03 -6.58576202e-04
      9.86291678e-04 -1.34799315e-03 1.49278902e-04 -1.47868856e-03
      -4.22315119e-04 -1.83742188e-04 -3.11161368e-03 -7.03085796e-04
      -1.68294681e-03 -1.65419513e-03 -2.22062343e-03 -3.80270462e-03
      5.09371865e-04 1.78215501e-04 -8.34269391e-04 1.14191999e-03
      -1.23964553e-03 -1.93623325e-03 -6.95761933e-04 -2.37639132e-03
      -1.16389175e-03 -2.55321036e-03 -7.59693561e-04 1.09337701e-03
      1.81517005e-03 2.55201384e-03 3.29214614e-03 -3.00713000e-03
      -2.67202180e-04 5.03398536e-04 -4.40611009e-04 -2.61327950e-03
      -1.50060153e-03 -1.33476558e-03 7.20981625e-05 -1.23192172e-03
      -2.24928674e-03 -1.72310963e-03 -8.97624646e-04 -1.44756329e-03
      3.69856076e-04 -5.59856766e-04 1.59900264e-05 -2.92727537e-03
      -8.17390915e-04 1.03970850e-03 1.19903381e-03 1.60041149e-04
      2.91730074e-04 -5.44783834e-04 -3.76274111e-04 -2.66124727e-03
      -8.51431454e-04 7.41097494e-04 2.60869856e-03 1.10461295e-03
      2.89781980e-04 -1.78615752e-04 1.39479630e-03 7.12089823e-05
      -5.03165356e-04 4.94458291e-05 1.39194983e-03 2.49580783e-03
      -2.84151081e-03 1.78697379e-03 9.99371521e-04 8.66215385e-04
      2.37320247e-03 2.80170556e-04 -6.48575020e-04 -1.23194174e-03
      -6.39262216e-05 4.01266414e-04 6.24052889e-04 1.07421237e-03
      1.05516776e-03 1.35484047e-03 -1.46048889e-03 -2.34420804e-04
      3.80960904e-04 1.00838207e-03 -9.87379171e-05 2.68297712e-03
      9.39792895e-04 1.04501145e-03 -8.39880260e-04 -1.12972059e-03
      2.79948174e-04 -1.52732467e-03 6.96580217e-04 6.24552369e-04
      7.77821173e-04 -2.08914094e-03 -1.81953621e-03 -1.51282584e-03
      -2.49420937e-05 1.24638178e-03 4.36432165e-04 -1.82605116e-03
      -1.68178219e-03 -4.62275231e-03 -8.77589977e-04 -1.25879142e-03
      1.66603050e-03 2.12853411e-04 3.29102040e-03 -4.76906833e-04
      1.11686788e-03 -6.37487043e-04 8.57740524e-04 7.18179974e-04
      -1.81811675e-03 -2.07494781e-03 -6.94409304e-04 -1.28862297e-03
      -1.10788271e-03 -2.72283884e-04 -1.77917723e-03 -4.58722876e-04
      -7.34322006e-04 1.88382086e-03 -4.30875644e-03 -2.66166287e-03
      -1.39997620e-03 -1.25520141e-03 -1.26011809e-03 -2.48726667e-03
      -7.43006414e-04 -5.76823135e-04 -3.36060231e-03 -5.08779241e-03
      -2.76020751e-03 8.13381223e-04 -2.50882516e-03 -1.75850524e-04
      -2.12281221e-03 -9.16571764e-04 -1.22639991e-03 1.58390671e-03
      -4.22254903e-03 -6.18473440e-03 -4.64421744e-03 -3.02726845e-03
      -2.45785736e-03 -2.74430960e-03 1.32252404e-03 -1.04474218e-03
      -4.97697096e-04 -1.08867965e-03 -4.78389114e-03 -1.03027304e-03
      -5.31241603e-05 2.66897288e-04 1.77985255e-03 4.74174420e-04
      -8.43468937e-04 9.71499539e-04 4.21826320e-04 -3.24440422e-03
      5.08250778e-05 1.96049549e-03 4.34694951e-03 9.92350862e-04
      -1.04949716e-03 2.90907803e-03 -1.83448545e-04 8.94079625e-04
      4.65135781e-06 1.17249193e-03 -1.95155607e-03 -2.59550841e-04
      1.33890042e-03 -7.96221138e-04 5.50383811e-05 -9.25141736e-04
      -9.23595158e-04 -5.80761174e-04 -1.17372361e-03 -5.53074526e-04
      1.73100096e-03 -1.64751327e-04 -9.24166234e-05 1.17925275e-03
      -1.06435167e-04 5.77060506e-04 1.34516857e-03 2.46838317e-03
      -2.64710071e-03 2.43673814e-04 5.83159737e-04 7.58938491e-04
      1.25553878e-03 1.80895941e-03 1.21541496e-03 1.50808285e-03
      1.55692932e-03 -1.28312517e-04 1.64248177e-03 5.45153860e-04
      -2.40252746e-04 1.89364853e-03 1.19089440e-03 -1.58684808e-04
      1.69286830e-03 1.18824607e-03 -1.91814906e-03 -8.55707854e-04
      1.72184338e-03 -3.91148678e-05 -8.70047777e-04 8.64160422e-04
      2.24507856e-03 -1.72634813e-04 1.36493274e-03 -5.64725604e-04
      6.01966353e-03 3.10532562e-03 2.16901442e-03 -7.51128246e-04
      -8.69545562e-04 -1.26523571e-03 -2.15669163e-03 3.65295867e-03
      -1.17729549e-04 6.42941566e-04 -1.69422405e-04 -1.82992080e-03
      1.80027809e-03 -4.94036882e-04 -3.15673205e-05 -1.61296397e-03
      2.28039408e-03 -4.45413264e-03 -4.63124923e-03 -1.02488173e-03
      7.48931780e-04 -2.05455624e-04 -2.42282380e-03 1.34236913e-03
      1.23652036e-03 3.68298235e-04 -4.22543660e-03 -4.76424489e-03
      -2.52190931e-03 -9.22531181e-04 1.54456793e-05 3.33325908e-04
      -2.17693928e-03 -1.66997162e-03 1.16436204e-04 4.13907692e-04
      2.07376922e-03 1.71866943e-03 2.11271341e-03 -2.04449636e-03
      -1.85226963e-03 -1.76632858e-03 -4.06405842e-03 -3.81963700e-03
      -4.24859487e-03 -1.19543809e-03 -2.38276995e-03 -3.32202646e-03
      -1.55564898e-03 -4.89570608e-04 -3.57495068e-04 -6.22675638e-04
      2.46030930e-03 -3.65976593e-05 3.88993736e-04 -6.27120200e-04
      -3.35464953e-04 -6.31961884e-05 -6.28871901e-04 -3.17658792e-04
      1.80490606e-03 -7.65154487e-04 1.29739812e-04 -1.36120315e-03
      -1.18901453e-03 9.26578301e-04 1.18345232e-03 1.17151020e-03
      1.32692361e-03 -1.02583505e-03 9.47420704e-05 -7.34482135e-04
      4.19320655e-04 3.54828173e-03 1.76972477e-03 7.16606097e-04
      1.04104220e-04 6.65010768e-04 6.00825064e-04 1.20671932e-03
      5.70990611e-04 8.87470320e-04 -2.23438162e-03 -2.66098301e-04
      -2.07500998e-03 8.80401349e-04 1.48716115e-03 8.58075742e-04
      3.18047497e-03 -2.98699457e-03 5.50886209e-04 3.10767180e-04
      9.61958023e-04 -2.35781539e-03 -1.15457387e-03 1.28398952e-03
      -3.33422708e-04 1.84612430e-03 -7.27642095e-04 5.42235095e-04
      -5.76313876e-04 -1.86070334e-03 3.01974251e-05 -3.69705405e-04
      -5.35098137e-04 1.86681980e-03 1.63718953e-03 -4.64617304e-04
      1.36542786e-03 1.04991568e-03 -8.45173083e-04 -1.12960744e-03
      5.10049344e-04 -2.08884361e-04 -1.05387613e-03 -3.13431281e-03
      1.06928148e-03 7.10006978e-04 -1.21915282e-03 3.28602473e-05
      7.43219163e-04 -4.96560642e-05 -1.31720933e-03 -3.99473635e-03
      -6.32365525e-04 -4.46455134e-03 -4.19245381e-03 -5.12875267e-04
      -1.50874362e-03 -6.19707222e-04 1.34572168e-04 -1.48290594e-03
      5.89354022e-04 -4.59025236e-04 -1.47313823e-03 -9.74836119e-04
      -1.88351842e-03 -3.28728161e-03 -2.46068649e-03 -1.58099621e-03
      -7.81115901e-04 -3.75860394e-03 -8.25348950e-04 -2.14936445e-03
      -4.89336438e-03 -2.86372774e-03 -1.25265180e-03 -2.17864785e-04
      -4.82054520e-03 -5.43379807e-04 -7.61624397e-05 -1.32409879e-03
      -3.82388989e-03 -5.33927046e-03 -6.88382424e-04 -1.54772098e-03
      -2.03250369e-04 -2.48012668e-03 2.86244182e-03 -1.90468063e-03
      3.80598451e-03 -3.89110530e-04 1.11800560e-03 4.33831156e-05
      -7.71283114e-04 2.38349056e-03 -1.46850955e-03 2.08572252e-03
      -3.50469520e-04 3.66055663e-03 -3.55662708e-03 2.18349975e-03
      1.64592883e-03 -9.47811932e-04 3.30189522e-03 7.02429621e-04
      -6.05005247e-04 4.17283707e-04 -1.02796347e-03 2.49518408e-03
      -8.92642129e-05 2.98709841e-04 -5.45445131e-04 2.56293826e-03
      1.44211692e-03 -1.15708308e-03 8.41885514e-04 5.26652159e-03
      1.71115771e-05 -6.54799747e-04 2.50576442e-04 3.31173604e-03
      -1.02634565e-03 -2.67011615e-06 -6.34010765e-04 -1.39323389e-03
      2.00712890e-03 3.66871041e-04 4.89954487e-04 -1.57345866e-03
      -9.00490559e-05 -7.16924143e-04 1.19246414e-03 1.67688332e-03
      -4.41277924e-04 1.00763072e-03 -2.38056108e-03 -3.51928850e-03
      -8.63001042e-04 1.55787799e-03 2.50318693e-03 -2.73708021e-03
      -4.88280697e-04 2.22268212e-03 1.79201865e-03 -8.39301676e-04
      3.66545457e-04 -6.20162537e-05 -7.38767500e-04 -2.78688007e-04
      -6.56945776e-05 -2.22038548e-03 -1.05759280e-03 -4.50114794e-06
      -1.06078526e-03 -4.37649811e-04 -2.12917826e-03 8.17790627e-04
      1.56490738e-03 1.24503305e-04 1.45217276e-03 -1.05321477e-03
      1.04205648e-03 -8.99836770e-04 -1.33375963e-03 2.41029076e-03
      -1.55129982e-03 -8.05020100e-04 -1.44588831e-03 -1.83539861e-03
      -1.67263695e-03 -4.86646732e-03 2.39606816e-04 -6.16545323e-04
      3.81388381e-04 -3.09251575e-03 -9.71369154e-04 -3.62991239e-03
      -3.34632094e-03 -4.09319159e-03 -1.87917519e-03 8.83647008e-04
      2.40478828e-03 7.27533305e-04 -3.72024311e-04 1.83708407e-03
      -2.76918453e-03 -1.99277396e-03 -3.00664688e-03 -1.84585236e-03
      -2.48324592e-03 -3.50607373e-03 -3.14925774e-03 -1.47031620e-03
      -8.20197398e-04 4.11466812e-04 -1.61970698e-03 6.37983321e-04
      3.96498326e-05 -1.50053843e-03 1.26912468e-03 -1.14229880e-03
      -6.56295859e-04 1.83903066e-05 4.38121002e-04 1.25001254e-03
      8.59315158e-04 9.43971798e-04 -1.92772737e-03 1.73791719e-03
      -1.82535965e-03 6.79493169e-05 1.23265738e-04 2.04127072e-03
      2.20847130e-03 -4.96887369e-04 -5.04203781e-04 1.35062131e-04
      -1.30484626e-03 -1.77251024e-03 -9.68102890e-04 -1.41578057e-04
      -2.53516599e-03 -9.82946716e-04 -2.79549602e-03 4.24657570e-04
      -5.27573575e-04 -2.16461718e-04 1.82398723e-03 -1.00035639e-03
      9.46173794e-04 3.46324203e-04 -9.43966559e-04 -8.82513763e-04
      4.20425972e-03 4.00887278e-04 3.22492735e-04 -7.45932106e-04
      3.20493215e-04 3.21075204e-04 -1.80083094e-03 -2.39197514e-03
      -2.54662614e-03 1.44273031e-03 -1.02245039e-03 5.77940140e-04
      2.27931654e-03 -6.08805160e-04 -1.15298748e-03 -6.07349793e-04
      5.96646452e-04 -2.40119267e-03 -2.47117574e-03 1.67382543e-03
      -3.36305748e-05 -5.65719034e-04 1.70381879e-03 1.70143123e-03
      -1.20277598e-03 -1.71039510e-03 1.18879008e-03 2.51916703e-03
      1.25301408e-03 2.29583611e-03 -5.13116422e-04 -1.75238063e-03
      9.54156218e-04 2.45694158e-04 -9.13473021e-04 1.54410116e-03
      -8.60428845e-04 -2.85347179e-03 -1.56123878e-03 -1.54989166e-03
      1.68420549e-03 -3.02741374e-03 2.87274423e-04 2.28519947e-03
      -3.49135720e-04 -2.31942744e-03 -2.89258850e-03 -2.96931737e-03
      -2.24263105e-03 -3.18810320e-03 1.29503454e-03 -3.38278478e-03
      -1.83144250e-04 1.51869070e-04 -2.34196617e-04 -2.23663379e-03
      6.23600572e-05 -2.45695672e-04 5.56716928e-04 4.12256952e-04
      1.60266843e-03 -1.12470239e-03 -3.10992589e-03 -1.98551291e-03
      3.36286466e-04 -2.67577544e-03 -3.35208344e-04 -9.14671749e-04
      -2.53985473e-03 -6.60449077e-05 3.23397038e-03 -1.45786477e-03
      2.74533709e-03 -1.89084536e-03 5.79502957e-04 -1.87840778e-04
      -2.35591363e-03 -2.07466935e-03 -3.89267178e-03 -1.87583524e-03
      1.17056782e-03 -1.18655339e-03 -1.05419452e-03 -1.80639373e-03
      -1.79067405e-03 -2.10125465e-03 -2.77529028e-03 1.01687515e-03
      8.58609332e-04 -3.31570231e-03 -1.56197493e-04 -1.41674257e-03
      -3.71851027e-03 -4.61132126e-03 -3.50238243e-03 -3.03264777e-03
      -2.74039642e-03 -1.65313215e-03 -7.44194491e-04 7.45534417e-05
      -1.84935622e-03 -1.76063692e-03 5.75711834e-04 -2.82402174e-03
      4.34924063e-04 -5.95867808e-04 -1.75273581e-03 -1.74521447e-05
      6.01473439e-04 1.59395847e-03 2.58983369e-03 3.53164505e-04
      -1.73641858e-03 -4.89909528e-03 -2.90884334e-03 -1.38914492e-03
      -2.16015335e-03 6.63267332e-04 -2.02908274e-03 -1.50023506e-03
      -7.88829464e-04 -1.70194509e-03 -1.77775847e-03 -1.23480998e-03
      -1.83170626e-03 -1.03771884e-03 -4.24767379e-04 -9.42427898e-04
      -5.98412298e-04 -2.15994986e-03 -3.91699327e-03 -1.46825204e-03
      -3.99746001e-03 -3.82630317e-03 1.15645234e-03 -8.77566417e-05
      -1.75940304e-03 -4.39568656e-03 -5.10627520e-04 -2.48698937e-03
      3.62334843e-03 -3.35270516e-03 -3.16366949e-03 -8.30170931e-04
      -2.52556219e-03 -1.89438544e-03 -1.78765156e-03 -1.31515216e-03
      6.02451968e-04 -1.05966616e-03 -9.39254125e-04 -1.52516388e-03
      -1.70439994e-03 -1.54614565e-03 -2.89292602e-05 -2.48547876e-03
      1.53185928e-03 -9.37351608e-04 -1.54906709e-03 2.39189435e-03
      3.11326585e-04 -4.38158924e-04 2.59318668e-03 1.14556553e-03
      -1.13732531e-03 -2.59575527e-03 -4.11092740e-04 -1.63150817e-05
      -7.67520221e-04 1.58465654e-03 -1.59217278e-03 3.33690783e-03
      1.02299941e-03 -4.97488712e-04 -1.02982321e-03 -3.23840743e-03
      -2.71264836e-03 1.57210883e-03 -9.03039181e-04 5.33458311e-04
      -1.89080345e-03 -3.26779409e-04 1.28054316e-03 -1.81262312e-03
      4.54032881e-04 -1.24635559e-03 -6.35362172e-04 1.66323979e-03
      -1.06860138e-03 -7.93233048e-04 -2.55472702e-03 -2.64784624e-03
      -8.67606374e-04 2.80002190e-04 -2.63132155e-04 2.16888683e-03
      5.10898826e-05 -9.54680087e-04 -8.59849933e-06 1.04292016e-03
      3.99875827e-03 -1.49967615e-03 1.24906667e-03 6.74025505e-04
      -1.94769877e-03 3.32338561e-04 1.05971376e-04 1.01057428e-03
      -1.39227987e-03 2.56905076e-03 1.03303511e-03 -3.74368770e-04
      -1.08013267e-03 -2.01095408e-03 -1.63991610e-03 1.06010947e-03
      3.31417221e-04 7.60028313e-04 -6.22624473e-04 -8.94500932e-04
      -4.64232016e-06 5.52658574e-04 1.20076409e-03 -1.50707166e-03
      2.35178485e-03 2.07510020e-04 8.48993310e-04 1.82201809e-04
      1.57430745e-03 1.23191497e-03 7.21067132e-04 -9.41009435e-04
      -2.64146744e-04 -4.47257888e-04 5.39270579e-04 -4.52802458e-04
      3.11995216e-04 -1.75019680e-03 -1.05519581e-03 -1.10218907e-03
      -8.46542462e-05 -9.12457981e-05 -1.16499164e-03 -1.00128679e-03
      -2.02429108e-03 -1.95545130e-04 -3.84157349e-04 4.80154791e-04
      1.48858083e-03 9.65792569e-04 2.52549071e-03 2.60600168e-03
      -9.55346623e-04 -1.63449137e-03 -5.69485826e-04 -4.28053754e-05
      1.68869691e-03 2.06634705e-03 -8.23061331e-04 5.19415888e-04
      -1.00287027e-03 2.11731228e-03 2.51480239e-03 2.82752095e-03
      -2.89900205e-03 2.40943325e-03 -8.10359314e-04 1.35638728e-03
      1.23969148e-04 3.46911082e-04 1.17290590e-03 -1.04063330e-03
      -2.16327069e-04 1.37832051e-03 8.57120263e-04 -8.79492727e-04
      -6.42458501e-04 7.69605569e-04 -4.00439923e-04 1.84676624e-04
      -1.45379966e-03 -7.64860481e-04 -9.92568326e-04 1.29669765e-03
      2.96626170e-03 3.31653003e-03 9.89578431e-04 -5.04929980e-04
      -1.18501822e-03 -3.89464037e-03 1.80231722e-03 1.12627262e-04
      1.06806553e-03 -1.28590153e-03 1.94960635e-03 2.07185093e-03
      -1.48656109e-05 -7.65375036e-04 -9.20604449e-04 4.32302855e-04
      6.68666034e-04 1.60347612e-03 -1.64186844e-04 7.50283594e-04
      4.51219780e-03 2.31654523e-03 1.08668569e-03 -1.30581006e-03
      1.69857661e-03 -1.25680875e-04 3.51613667e-03 -2.85448623e-03
      1.52023591e-03 -1.66851829e-03 -1.02488113e-04 -1.54592039e-04
      -7.36166316e-04 1.39103737e-03 5.26890683e-04 -8.77002138e-04
      7.09608837e-04 7.13415502e-04 1.08822493e-03 9.91825247e-04
      -1.22129149e-03 -3.06293741e-03 -1.64687238e-03 -5.43392671e-04
      3.39824380e-03 -1.08869560e-03 8.02363269e-04 2.19452399e-04
      1.70573627e-03 -7.05332437e-04 -2.82173813e-03 6.57633354e-04
      -2.34335341e-04 -1.58705621e-03 2.91060336e-04 2.99922959e-03
      1.92720676e-03 2.61193654e-03 2.09077611e-03 -6.70592126e-04
      1.69133849e-03 7.15379501e-05 -4.11285902e-04 -5.80682536e-04
      -1.06012961e-03 -2.76786718e-03 6.69130823e-04 9.87610081e-04
      3.30815092e-05 -1.33943080e-03 -1.31897605e-03 2.24171346e-03
      3.88492423e-04 -2.40025664e-04 -9.26306384e-05 -3.01487395e-03
      2.15369021e-03 -3.52936651e-04 2.18931166e-03 9.70178633e-04
      2.39075953e-03 -1.18668610e-03 1.64478284e-03 -1.08620955e-03
      -2.09255749e-03 -9.12900316e-04 -2.47138296e-03 1.09411689e-04
      6.80252386e-04 1.81361753e-03 2.54284358e-03 -4.53702407e-04
      9.93420952e-04 2.25595618e-03 -1.96681358e-03 1.26211077e-03
      1.62366335e-03 -2.06577848e-03 7.35241279e-04 2.09319551e-04
      1.28222303e-03 -1.21518504e-03 3.60708893e-03 -9.44113708e-04
      -9.90732806e-04 2.69086915e-03 -9.60833684e-04 -2.18926041e-04
      6.27640329e-05 1.66496099e-03 -6.81324454e-04 -5.60726679e-04
      -8.17475011e-05 -9.83193982e-04 2.44960305e-04 -1.86958408e-03
      4.69555409e-04 -8.16475484e-04 -1.23874994e-03 5.23241062e-04
      -2.65078410e-03 3.46163375e-04 6.50405884e-04 5.54420927e-04
      -4.16231487e-04 1.14817743e-03 3.04651156e-04 -2.43097180e-04
      -8.64527537e-04 -5.39892819e-04 2.76493863e-03 -2.78149475e-03
      1.00198865e-03 -2.23409082e-03 -1.57049182e-03 1.99173251e-03
      -7.12358218e-04 3.89704737e-03 -5.01912378e-04 3.70416150e-04
      4.46060672e-04 1.51307252e-03 7.15669768e-04 4.88385558e-04</_></support_vectors>
  <decision_functions>
    <_>
      <sv_count>1</sv_count>
      <rho>-5.9190701484681585e-02</rho>
      <alpha>
        1.</alpha>
      <index>
        0</index></_></decision_functions></my_svm>
</opencv_storage>
