<?xml version="1.0"?>
<opencv_storage>
<my_svm type_id="opencv-ml-svm">
  <svm_type>C_SVC</svm_type>
  <kernel><type>LINEAR</type></kernel>
  <C>8.8817841970012504e-16</C>
  <term_criteria><epsilon>1.1920928955078125e-07</epsilon>
    <iterations>1000</iterations></term_criteria>
  <var_all>1296</var_all>
  <var_count>1296</var_count>
  <class_count>2</class_count>
  <class_labels type_id="opencv-matrix">
    <rows>1</rows>
    <cols>2</cols>
    <dt>i</dt>
    <data>
      -1 1</data></class_labels>
  <sv_total>1</sv_total>
  <support_vectors>
    <_>
      2.62805524e-16 5.90167983e-16 -3.76472158e-16 -8.73286310e-16
      8.35293018e-16 1.50383754e-15 6.59280948e-16 3.55463967e-16
      9.63317442e-16 -5.71577674e-16 6.06692219e-16 1.01491911e-15
      -3.39963926e-16 1.14277622e-16 9.51814099e-16 -3.38290189e-16
      -1.00784056e-15 -4.73410949e-16 -1.07570463e-15 -1.51374224e-16
      -4.43854238e-16 1.94249536e-16 2.42712182e-16 6.27197034e-16
      -9.72359095e-16 -2.55836031e-16 3.93144572e-16 1.18657944e-15
      -7.54196217e-17 8.68807729e-16 -8.06463775e-16 -1.11938938e-16
      -6.60720586e-16 6.01627862e-16 1.70993506e-16 -1.66744087e-16
      7.83862024e-17 3.50769870e-16 -2.96965119e-16 2.39239744e-16
      6.94667549e-16 -1.71161059e-16 1.66830593e-15 -6.81349968e-16
      -7.02979960e-16 -3.32761870e-16 -1.46777829e-15 -1.64468101e-15
      -2.39819406e-16 4.73589779e-16 2.22599517e-16 -6.70132287e-16
      2.19049007e-17 1.26111379e-15 1.27301365e-15 5.96430150e-16
      1.10582968e-15 -1.67082130e-15 -1.17461765e-15 5.81267519e-16
      -1.35258407e-17 -1.60758992e-16 9.84412692e-16 6.53408733e-16
      2.28394176e-16 8.89479674e-16 3.07712379e-16 2.78466714e-16
      2.05333465e-16 3.60787013e-16 -3.50086340e-16 2.97935978e-16
      1.40767728e-15 -4.92843897e-16 8.64938271e-16 1.41034162e-15
      1.42338646e-15 3.60884078e-16 1.85038540e-15 -6.12831646e-17
      -3.03622375e-16 -2.99119561e-17 -5.83862722e-16 6.10166272e-16
      -1.91862873e-15 1.00277154e-17 -7.93176687e-16 -2.89430152e-16
      -9.44683352e-16 1.49040688e-15 5.91985292e-16 -2.44709407e-16
      1.24289591e-15 -8.27227146e-16 -5.55960398e-16 -1.12030603e-16
      1.15698136e-16 5.00079782e-16 -2.04085534e-16 -4.04939268e-16
      3.43900406e-16 1.01912442e-15 -1.55355435e-15 -8.55902123e-16
      9.66059923e-16 3.49960477e-16 8.55186116e-16 -9.15753366e-16
      5.08050891e-16 -4.12518095e-16 -8.30769438e-16 3.31093029e-16
      6.68825633e-16 4.43922291e-16 5.98191714e-16 9.68693348e-16
      -4.51854120e-16 -9.43364747e-17 -1.36374539e-15 -1.07750119e-15
      -5.01895185e-16 4.78844600e-18 -6.18312929e-16 1.37459577e-16
      -2.34394828e-17 -5.03211157e-16 1.26198264e-15 -1.10117744e-16
      5.11244669e-17 -5.63523979e-16 -5.10818412e-16 7.07337097e-16
      1.71916539e-15 3.72141331e-16 3.45139774e-16 -5.06546508e-16
      7.72888871e-16 3.44558418e-16 -1.92255727e-15 -6.84545135e-16
      -6.40014548e-16 -7.39832087e-16 -1.19602556e-15 8.27484803e-16
      5.79684997e-17 -7.48547579e-16 1.62528608e-15 -2.09401037e-16
      -2.24590627e-16 6.14096399e-16 1.55666032e-15 4.27794122e-17
      5.27909367e-16 6.25377501e-16 -6.25108197e-16 1.22726088e-16
      -1.06316145e-15 -5.77244946e-17 5.68145496e-16 -1.38061209e-17
      -1.04736534e-15 -5.29757910e-16 9.07311412e-16 -3.91450122e-17
      3.59171589e-16 -5.53447146e-16 7.92335106e-16 1.50441257e-15
      4.91562813e-16 5.12670079e-16 3.14003187e-16 5.08953246e-16
      -2.48403847e-16 1.16920749e-16 1.94166104e-16 -3.65759679e-16
      -4.26076154e-16 1.69462732e-16 -3.81243442e-16 -1.26002146e-16
      -3.63907906e-16 -1.53694753e-15 -1.11363996e-15 -1.97263491e-15
      1.17189666e-15 1.49273813e-15 1.06569810e-15 -6.54288588e-16
      -3.10336858e-16 5.88033883e-16 -8.73981830e-17 -3.51900606e-16
      -1.48846373e-16 3.42523157e-16 -8.61323981e-17 -4.86479741e-17
      -1.48723347e-15 -6.50486893e-16 6.06204804e-16 9.67882314e-16
      -5.91866231e-16 5.15692134e-16 4.24388441e-16 -2.57977145e-16
      4.21662133e-16 1.70589392e-16 -3.39642609e-16 2.66458169e-16
      -2.73815444e-16 9.15941923e-17 -4.87713312e-16 7.59719997e-17
      -6.02294291e-17 5.89622917e-16 -6.62854262e-16 7.82265896e-17
      -4.40083300e-16 8.89118838e-17 7.56507307e-16 1.08875635e-15
      6.96067483e-16 1.28403630e-16 7.86171618e-16 2.06765017e-16
      2.97176844e-17 -9.57559312e-16 -2.61087239e-16 1.38989676e-16
      -1.45031152e-15 5.48860939e-16 -5.21117804e-16 -3.31930745e-16
      -6.09712262e-16 -8.48821087e-16 3.06810024e-16 2.79253395e-16
      8.70230374e-16 8.47343279e-16 -9.51275810e-16 -7.62359034e-16
      6.78426063e-16 2.31046448e-16 -8.56230455e-16 -3.91178741e-16
      5.22339966e-16 6.54211191e-16 8.34537147e-16 1.02785140e-15
      -5.92847730e-16 -5.35843862e-17 4.68815167e-17 -2.46560280e-16
      8.23220945e-16 5.35644260e-16 -3.73162721e-16 1.27599280e-16
      9.71272458e-16 3.81085893e-16 4.10072076e-16 -1.10576244e-15
      5.82014496e-16 -9.21930671e-16 -1.19858688e-15 -1.49275052e-16
      -1.03029710e-15 2.92343390e-16 -1.63792222e-15 -2.24884203e-16
      -1.59822594e-17 3.51494162e-16 1.23026369e-15 5.24900031e-17
      -7.45716425e-16 -4.55559518e-16 -1.57729192e-15 3.86695184e-16
      1.64509680e-15 6.88871726e-16 -1.20055051e-15 -8.49882048e-16
      -2.63580920e-15 -3.05565992e-15 1.12587005e-15 -8.18889219e-17
      -4.56267135e-17 -1.03055354e-15 -1.85179868e-15 -6.39348727e-16
      -1.93554376e-15 -1.52749305e-15 -9.20617029e-16 -1.36568869e-15
      -2.59069553e-16 -3.51905529e-16 -5.55683207e-16 9.32451058e-17
      -1.63367647e-15 -3.35395592e-15 -2.42616007e-15 -3.56635864e-16
      -5.13499960e-16 9.98110869e-17 -2.68718450e-16 -1.19594551e-15
      -1.43182947e-15 -8.14342028e-16 -7.88849089e-16 -2.86206207e-15
      -1.21463540e-15 7.45758671e-16 -1.14402705e-15 -2.65842826e-16
      1.59847770e-16 2.06554900e-16 -8.49210881e-16 -1.56387428e-15
      -1.71040241e-15 -1.20783288e-15 -9.63563293e-16 1.00606931e-15
      -1.87233179e-16 1.06043379e-15 -1.06016412e-15 -1.37370543e-15
      -1.32128299e-15 -1.12295086e-15 -8.92786914e-16 -1.78772974e-15
      -1.05818990e-15 2.81172084e-16 1.68139269e-16 -2.09379959e-15
      -3.55934976e-15 -1.66879318e-15 3.85445360e-16 -1.87149031e-16
      -1.25122182e-15 3.34293782e-16 -1.33330080e-16 -2.23278817e-15
      -1.81600984e-15 -2.20928046e-15 3.70361742e-16 -5.23952664e-16
      -4.97849862e-16 5.02106943e-16 1.83206493e-15 2.58178819e-16
      -2.40635741e-17 -6.45034753e-16 -7.70401982e-16 -1.45104875e-15
      -1.34010099e-15 -8.29169499e-16 -1.97592479e-15 -1.12493482e-15
      -1.45545904e-15 -1.01596245e-15 -1.54808252e-15 -3.25114242e-15
      4.63513469e-18 6.82733966e-16 -6.28207703e-16 -1.50280289e-15
      -2.22049439e-17 3.16180062e-16 -9.18043849e-16 7.57653766e-16
      2.46620157e-18 -4.14451633e-17 7.20493584e-16 1.45130392e-15
      -6.89517959e-16 1.63592238e-15 2.28294332e-15 -2.08871612e-15
      -7.17812354e-16 4.62712500e-16 -1.61599635e-15 -1.93084739e-15
      -1.62263561e-15 -6.19386291e-17 -1.25920151e-15 -7.33764631e-16
      -2.12060628e-15 -2.00591569e-15 -8.41554285e-16 -7.73698793e-16
      -9.40039071e-16 5.19736081e-16 2.64648695e-16 -9.88749394e-16
      -9.76437982e-16 -1.27499645e-15 -1.14612452e-15 -1.80445596e-17
      -4.51482060e-16 -2.45179139e-16 -1.53295639e-16 -1.75287105e-15
      1.00499093e-15 3.59873065e-16 1.15880248e-15 5.88084070e-16
      -4.53703669e-16 5.17117337e-19 1.58589365e-15 1.31182057e-15
      -5.61309676e-16 2.34788936e-15 1.44800049e-15 8.14013168e-16
      -2.61916225e-15 7.63934939e-16 9.22888348e-16 -3.14355023e-16
      1.19424419e-16 -3.39717889e-16 6.10300209e-16 -8.14457278e-16
      -2.42475781e-16 3.54896641e-16 -6.64700423e-16 1.66881034e-15
      2.86233529e-16 -6.19336356e-16 -9.53563963e-16 -2.38595073e-16
      -2.01379714e-16 2.76743478e-16 -1.19439507e-16 1.61104777e-15
      1.12147850e-15 -1.86205860e-16 -1.01477639e-15 -8.57964278e-16
      1.38595395e-16 -4.01461668e-16 -4.95090758e-16 2.27203459e-16
      -3.58392981e-16 -1.20264131e-15 -1.39101656e-16 2.15330698e-17
      -8.12802175e-16 -1.47453057e-16 4.12090959e-17 -1.02695407e-15
      -1.31994362e-15 -1.72977140e-15 -2.79284100e-16 1.34075056e-15
      1.10261487e-15 -2.64479950e-16 4.38993486e-16 -2.63730617e-16
      5.66797073e-16 5.19697296e-17 -2.08393504e-16 -5.81288748e-16
      -3.71925576e-16 -1.69069195e-15 -8.44581449e-17 -2.87844665e-16
      -1.01418770e-15 -4.38023157e-16 -1.10835320e-16 -1.82066119e-16
      1.99309936e-16 -8.10070706e-16 -2.23584871e-15 -2.99424813e-15
      -1.52886408e-15 5.54874555e-16 4.66172576e-16 -1.84763741e-15
      -2.45879265e-16 6.71178319e-16 -1.46847561e-15 -3.55517346e-15
      -3.19363651e-15 -7.00519435e-16 -3.45206848e-16 1.48102679e-16
      -1.46829138e-16 7.83173863e-16 -7.91756967e-17 4.39798935e-16
      -1.92547699e-15 -3.36040035e-15 -1.65632909e-15 -1.23464285e-15
      1.65007391e-16 5.79775193e-17 7.91973000e-16 -8.20334403e-17
      -4.47930928e-16 -1.62347728e-17 -1.44901969e-15 2.83815561e-17
      -7.79893463e-16 -6.35652858e-16 2.13831059e-16 -3.32307569e-16
      5.59656903e-16 5.97714040e-16 2.94733796e-16 -1.56801299e-15
      1.58619953e-15 1.97033204e-15 2.16738431e-15 1.32106128e-15
      6.13381873e-16 1.75576547e-15 -4.84824824e-16 -1.12683271e-15
      -7.26660354e-16 9.75931880e-16 -1.28507889e-15 -2.71222279e-16
      1.04521092e-15 3.84422700e-16 -4.50278049e-17 -8.25086377e-16
      -2.73419721e-16 -1.83741796e-15 -7.67230638e-16 -3.36155150e-17
      -1.47907755e-16 -8.24968798e-16 1.13053342e-16 -5.57923397e-16
      1.81291044e-16 2.26249965e-16 -3.54399909e-16 6.08342398e-16
      -1.70108843e-15 -5.74464958e-17 1.21535887e-15 4.09133166e-16
      7.20737000e-16 5.65807633e-16 4.40081871e-16 -2.20840045e-16
      2.14569942e-15 4.05697124e-16 6.94941882e-16 -4.72134312e-16
      1.11926330e-15 2.29715997e-16 2.41126510e-16 8.15441424e-16
      1.39454382e-15 9.60487081e-16 -2.05936643e-15 -4.23350693e-16
      5.43417428e-16 -2.69471515e-16 -3.89088634e-16 -1.12576322e-15
      1.02563789e-15 -1.20245623e-15 6.13266200e-16 -1.07024190e-15
      1.45902855e-15 2.44697633e-15 7.06114352e-16 8.58462810e-16
      1.54615435e-16 -6.32212792e-16 -6.21407722e-16 1.47862518e-15
      -9.56231905e-16 -1.14832871e-15 -7.06353798e-16 -1.10578129e-15
      8.48962435e-16 -6.26251904e-16 -2.70101866e-16 1.97992099e-16
      8.75096208e-16 -2.04412344e-15 -2.28640006e-15 -8.83412377e-16
      4.54641599e-16 -1.57712971e-15 -6.75204532e-16 5.15284023e-16
      -1.62685343e-16 -1.37878996e-15 -3.84215458e-15 -2.55696716e-15
      -1.23925515e-15 -1.38580308e-15 1.30257140e-15 7.01183297e-16
      4.60983494e-16 -1.75881108e-15 -5.62211660e-16 -1.03606000e-15
      -2.78828847e-16 1.00303312e-15 1.86126025e-15 -1.04548906e-15
      -4.41359170e-16 -8.77211461e-16 -1.33693817e-15 -9.35165031e-16
      -2.72815993e-15 -1.24335448e-15 -2.57536397e-16 -8.23682419e-16
      -1.85849061e-16 2.45392989e-16 7.85922855e-16 -3.34288541e-16
      5.34270373e-16 -8.50069507e-16 -9.31294197e-16 -3.27545841e-16
      3.76146500e-16 1.77210966e-16 -7.96388794e-16 2.46651044e-16
      1.50129920e-15 7.98422044e-16 -8.57741191e-16 -3.27977801e-16
      -5.18698995e-16 1.21026757e-15 -4.73135452e-16 4.05324032e-16
      -1.36523990e-16 -5.19908558e-16 2.85281544e-16 -6.72228482e-16
      -6.48536282e-16 7.22395437e-16 1.30965323e-15 -2.44536056e-16
      -3.70219255e-16 1.34938299e-15 -8.02861608e-16 7.55487281e-17
      1.54973572e-16 -1.25913851e-15 -1.08298721e-15 1.19687566e-15
      -6.16941900e-16 -5.62637188e-16 5.84190550e-17 -7.58498364e-16
      1.36031837e-16 -6.44236848e-16 1.01464923e-15 -6.35711038e-16
      4.01435331e-16 -1.86104171e-15 -6.44820189e-16 2.54812524e-16
      -2.71510958e-16 2.64364092e-16 -6.49581626e-16 7.02369355e-16
      -6.79202210e-16 2.83345491e-16 -4.91930478e-16 -4.59877745e-16
      6.62772682e-16 -3.54244902e-16 4.68266018e-16 -3.14694313e-16
      9.83484026e-16 8.89069075e-16 3.85870783e-16 -1.06752145e-15
      2.19101973e-16 2.82044475e-16 2.93646550e-16 1.87171468e-17
      -8.53817999e-16 -9.97531578e-17 4.12820532e-17 -1.29405075e-16
      -4.98653325e-16 3.85103450e-16 -3.94533752e-17 -1.51409691e-15
      -9.83639880e-16 -3.79069690e-15 -2.83646114e-15 -6.11396005e-16
      3.17679945e-16 9.54946745e-16 3.40099266e-16 -3.41160095e-16
      -7.94359462e-16 -6.18486517e-16 -1.43482521e-15 -8.84327226e-16
      -8.32778230e-16 -2.23413940e-16 7.47652901e-16 -1.79695380e-16
      -1.69972386e-15 -1.15775523e-15 3.27559155e-16 -2.81593732e-15
      -3.67476096e-15 -3.81421133e-16 6.33090530e-16 -5.91444461e-17
      -1.10107549e-15 -5.19177887e-16 -1.59051072e-15 -1.61716271e-15
      -1.71295716e-15 -2.38435518e-15 -1.63121923e-15 -9.88978411e-16
      -1.23460600e-15 -4.86153395e-16 1.65107484e-15 -2.09194734e-15
      1.78513083e-15 -4.41315442e-16 8.86831796e-16 7.30339931e-17
      -1.60041290e-16 1.01178170e-15 9.21494025e-17 7.10981827e-16
      -1.48514162e-15 1.42276219e-15 -1.10928261e-15 1.01420570e-15
      -1.43223716e-16 -4.53661953e-16 -6.69147029e-16 9.29991354e-16
      1.16868047e-15 1.29082633e-15 -3.02811499e-16 2.54629804e-16
      -2.97679088e-16 -5.36550373e-16 -9.85745816e-16 9.28249007e-16
      -3.45905359e-16 7.79230924e-16 1.29490723e-15 1.49066872e-15
      -8.57006165e-17 9.60225136e-16 9.70347180e-16 6.98752630e-16
      -2.75326604e-16 -9.46778277e-16 5.15517963e-16 -3.25499753e-16
      2.32596603e-15 7.15471260e-17 -1.03347972e-15 6.23211902e-16
      1.03793333e-16 -1.54310001e-16 -1.61493687e-16 -1.63544354e-16
      -9.28938069e-16 1.43832719e-16 -9.51411547e-16 -1.73130655e-15
      5.59786817e-16 1.27462757e-15 8.45040938e-16 -1.10410469e-15
      -5.54609751e-16 2.26560217e-16 1.11304333e-15 -1.21415227e-15
      -5.89319679e-16 9.36568777e-16 -2.98883146e-16 -1.08493560e-15
      -1.06579689e-15 -9.64640507e-16 -1.93330167e-15 -2.57634177e-15
      -7.83090059e-16 4.60311479e-16 6.71077734e-16 -1.77798419e-17
      1.71672522e-16 9.91090593e-16 1.54630907e-16 2.27964253e-16
      -3.34557050e-16 -7.46032050e-16 -1.87261647e-16 6.62605605e-16
      5.92515905e-16 9.20441375e-16 -4.23013574e-19 -1.45807574e-15
      -4.23030224e-16 -2.21810760e-15 -1.61634917e-16 -1.73520343e-15
      -5.77350574e-16 -1.66555392e-15 2.55048873e-16 -1.42314262e-15
      -1.39561765e-15 -2.90377124e-15 -9.67047775e-16 1.02402493e-15
      2.76797704e-15 6.07962874e-16 -5.41671323e-16 3.24773078e-17
      -1.95343331e-15 -1.02798174e-15 -1.72932004e-15 -7.11718481e-16
      -9.60902974e-16 -4.61376166e-17 -1.27625726e-15 -1.01824700e-15
      6.72191847e-16 1.03217963e-15 -3.87676763e-16 1.78309452e-17
      7.43491852e-16 -1.38542604e-15 -6.33302712e-16 -1.36786101e-15
      -9.20605633e-17 1.70501035e-16 -1.41938661e-16 8.99323467e-16
      3.97606265e-16 6.34791637e-16 4.97885106e-17 -3.18424672e-16
      7.33632070e-16 3.67464523e-18 1.54085299e-16 2.32165060e-16
      1.48411586e-15 5.43490167e-16 -1.46439648e-16 9.85514576e-16
      4.16678033e-16 -1.17915499e-15 6.73363400e-16 3.62338381e-16
      -1.03252088e-15 7.04676726e-16 -9.02699741e-16 -1.25303424e-16
      1.04968685e-15 8.39767363e-16 -4.76457853e-17 1.34838815e-15
      4.19341184e-16 -6.92417671e-16 6.16156449e-17 -9.91222241e-17
      7.36934387e-16 -4.21479651e-16 -3.05540163e-16 1.25697426e-16
      -2.80183888e-16 3.31795246e-17 -1.59007492e-15 -7.94172003e-16
      3.48330415e-16 9.24093781e-16 8.34972045e-16 -6.21347530e-16
      -1.06130602e-15 3.29742250e-17 -5.35299709e-17 2.54184794e-16
      1.25318048e-15 -9.18505984e-17 -1.58819451e-15 6.63432733e-16
      -1.01718927e-15 8.25677658e-16 -1.16014715e-16 8.16750659e-17
      -1.17523312e-15 1.22060074e-15 -1.25015419e-16 -5.15458777e-16
      -1.16336958e-15 1.62901292e-15 -1.19974678e-15 -8.12069757e-16
      6.28970032e-16 1.97529777e-16 -3.10445463e-16 1.24077431e-15
      1.58107716e-17 -7.54678616e-16 -1.48949632e-15 -2.56949615e-16
      1.16134972e-15 -4.40187194e-16 -7.51299907e-16 9.87147549e-16
      -4.33919706e-16 -5.28703090e-16 -4.36171463e-16 -3.25951979e-15
      -1.72897202e-15 -1.11318044e-15 7.32902537e-17 -2.31362179e-16
      9.85171421e-16 -5.30086771e-16 3.51075357e-16 -1.05481246e-15
      -9.64434149e-16 -2.82975444e-17 1.17909144e-16 -6.04096910e-16
      4.81730031e-16 -5.58982387e-17 -1.64344541e-15 -1.77558360e-15
      -7.78186956e-16 -9.68898648e-16 -1.22015083e-16 -2.09789965e-15
      -1.46796252e-15 -1.46864036e-15 1.14407904e-15 -6.96948768e-16
      9.40953866e-16 -1.06879094e-16 -6.31955294e-16 -1.33715067e-15
      -9.51654328e-16 -2.27624244e-15 -4.65415911e-16 -8.95910983e-16
      4.73475642e-16 -3.69101648e-16 7.56336418e-16 -6.79633191e-16
      -5.98815765e-16 -1.79102914e-15 -6.24524486e-16 -1.01639623e-15
      1.00698845e-15 -1.94166337e-15 7.80517369e-17 -3.08411049e-15
      -3.08846233e-15 -3.61047582e-15 -2.38505123e-15 -3.37662633e-15
      -1.96200846e-15 -7.98201180e-16 -3.15514214e-16 1.52599190e-15
      -8.81186057e-16 -1.31534846e-15 -7.74828577e-16 -1.56499279e-15
      -1.61292398e-16 -6.77769824e-16 -5.66976750e-16 -1.25045166e-15
      1.24168796e-16 9.23259772e-16 2.09483887e-16 2.77584185e-16
      -2.31313390e-15 -2.18670428e-15 -2.38964935e-15 -9.40701768e-16
      -1.98495204e-15 2.61761609e-16 -1.72196155e-15 -1.01586864e-15
      2.91950446e-16 -1.29280309e-15 -1.22220089e-15 -9.94008304e-16
      -7.88354528e-16 -4.60786717e-16 -1.23776693e-17 -7.53115734e-16
      1.48013025e-16 -1.82488717e-15 -2.69461149e-15 -2.43558119e-15
      -1.71478538e-15 -1.15186507e-15 -5.50744422e-16 3.52185659e-16
      -8.75606492e-16 -1.00074253e-15 5.38003928e-17 -5.27191824e-16
      9.41138572e-17 -9.37835938e-16 -1.40975082e-15 -7.61202305e-16
      -6.66803924e-16 -2.30019102e-15 -9.47062456e-16 -1.58627735e-15
      7.50268486e-16 -1.29734997e-15 -9.22994756e-16 -7.28433088e-16
      -6.77316132e-16 4.26924193e-16 -9.67100860e-17 -1.05015145e-15
      3.05627169e-16 7.14334251e-17 -1.51050189e-15 -1.61727428e-16
      6.27919288e-16 -4.26797853e-16 6.84016533e-16 1.12732740e-16
      1.73118566e-16 -1.06552287e-15 8.86287154e-16 -1.26104264e-15
      -4.04789369e-17 2.14692028e-16 -4.74796166e-16 1.38426275e-15
      6.31299691e-16 7.36738775e-16 -9.20498126e-16 -2.38134102e-15
      2.66578474e-16 -1.29838970e-15 -4.70254111e-16 1.17765492e-16
      1.22490959e-15 2.34495480e-17 4.01044584e-16 9.62386023e-16
      4.96156696e-16 4.59360823e-17 4.18958695e-16 9.76437135e-16
      1.33940706e-15 -6.14063311e-16 -1.81543470e-15 6.79958081e-17
      3.48977151e-16 -7.00055856e-18 1.94021327e-16 6.16342624e-16
      2.64884355e-16 1.04868619e-15 2.85896331e-16 2.10892754e-16
      7.33889886e-16 -4.82803380e-16 4.52168581e-16 -4.32796831e-16
      -1.71348084e-15 2.07107510e-16 -1.18842174e-15 8.71366457e-16
      -3.93392753e-16 3.74950437e-16 -1.17478864e-15 6.73764205e-16
      -7.77185883e-17 -7.40175453e-16 -7.32574656e-16 9.57631521e-16
      -5.02558180e-17 -7.36445279e-16 -1.20471336e-15 -4.27638930e-16
      5.39881542e-16 6.71912062e-16 5.05229371e-16 6.50304781e-17
      -1.47280302e-16 2.50374257e-16 -8.41777478e-16 8.47822117e-16
      1.84706903e-16 2.44776560e-16 6.44032131e-16 -5.35999484e-16
      7.28889056e-16 8.59563939e-17 6.24980984e-16 2.56655430e-16
      1.69587021e-16 4.43222827e-16 -4.84680299e-16 -1.61865786e-16
      1.24159974e-15 1.20942448e-16 3.92602021e-17 1.63771120e-16
      -1.39045488e-15 -4.86260439e-16 -1.14051663e-15 -5.45075628e-19
      1.19743809e-15 6.06268226e-16 7.28276969e-16 5.03201793e-17
      2.16805150e-16 1.04661965e-16 -2.78414356e-16 5.91740182e-16
      6.24441900e-16 5.26885516e-16 -1.32943039e-15 6.76168296e-16
      -6.14739455e-16 8.26396048e-16 6.46949524e-16 3.05347503e-17
      -9.01504577e-16 9.44698917e-16 -6.04902597e-16 1.06640220e-15
      1.29717114e-15 -4.62044879e-16 2.76360857e-16 5.70365782e-16
      1.89136912e-16 1.23174589e-15 8.26361320e-16 -5.69960582e-16
      -4.88069331e-16 4.92482955e-16 -4.85817970e-16 1.46028917e-16
      -3.79180705e-16 -1.83681861e-16 -1.83024576e-16 1.42774825e-15
      2.14088403e-15 7.76940653e-16 3.99165600e-16 2.28407278e-16
      -9.36395982e-16 -3.07206123e-15 -2.03430937e-16 6.40128527e-16
      -2.82474874e-16 3.14935082e-16 1.80108427e-15 6.86535397e-16
      -7.15531612e-16 -7.39494703e-17 -6.94565534e-16 9.46986541e-16
      5.64944241e-16 2.08735467e-16 3.05708723e-16 -6.03659841e-16
      2.44805460e-15 1.30284732e-16 4.54257840e-16 7.99052501e-16
      1.03080204e-15 -1.40787914e-16 1.09356496e-15 -2.72330622e-16
      3.07523676e-16 -1.24068367e-15 -7.44966271e-16 6.00919689e-16
      5.41912919e-17 -4.15760219e-16 3.83063451e-16 -1.74729437e-16
      9.36039699e-16 1.85582444e-16 3.66231821e-16 1.62690743e-16
      -9.05671238e-16 -1.38066529e-15 4.23060029e-16 -4.29553833e-16
      7.21035671e-17 -8.33190894e-16 -9.06448497e-16 -4.27215043e-16
      8.91330123e-16 -9.72867950e-16 -1.22297433e-15 4.15353564e-16
      -2.32916246e-16 -8.35045737e-16 -4.91495798e-17 1.52272511e-15
      1.25399564e-15 1.53453370e-15 1.23417836e-15 9.91717821e-17
      7.51891401e-16 -3.00805116e-16 -8.15391979e-16 -8.06913033e-17
      -2.89294733e-16 -1.68353522e-17 -5.22276015e-16 -6.02636943e-16
      -3.41833434e-16 -1.95429202e-16 -9.64001739e-16 -4.08166331e-16
      1.00268467e-15 -1.68063036e-16 4.02382869e-16 -5.70574628e-16
      2.96204404e-16 -3.67267848e-16 1.25755339e-15 -1.80003713e-16
      1.13029845e-15 -1.04086929e-16 -1.96830485e-16 1.28327649e-16
      -3.21481588e-16 -5.37442723e-16 -1.15508051e-15 8.19130028e-17
      1.00793998e-15 3.13777453e-16 1.01420178e-15 -1.73018275e-17
      -5.61138086e-17 8.75661284e-16 -7.14117120e-16 7.43958514e-16
      8.92121504e-17 -8.52491439e-16 4.26683384e-17 -7.99773485e-16
      3.13309361e-16 1.58487414e-15 1.12079368e-15 -5.76704659e-16
      2.82047466e-16 4.41086319e-17 -6.34919910e-16 -7.06512775e-16
      3.99460791e-16 -1.09503170e-15 -6.66668346e-16 -2.67841929e-16
      -1.52795268e-16 -1.11167357e-15 7.44102893e-17 -5.75697801e-16
      2.47204951e-16 -3.44484117e-16 -3.24675034e-16 4.71184100e-16
      2.80531859e-16 1.11300468e-15 6.10688732e-16 -7.49510868e-17
      -4.25534186e-16 -3.01458391e-16 -4.85953443e-16 3.48687201e-17
      7.02522509e-16 8.66165516e-16 -1.59332671e-17 -2.18042459e-15
      -1.51799024e-16 -6.64911387e-16 8.64430475e-16 1.63156929e-16
      1.57810735e-16 9.33814755e-16 7.41604662e-16 8.57559026e-16
      7.17126522e-16 9.43491577e-16 5.23843979e-16 1.05539564e-16</_></support_vectors>
  <decision_functions>
    <_>
      <sv_count>1</sv_count>
      <rho>-4.2355008389449722e-14</rho>
      <alpha>
        1.</alpha>
      <index>
        0</index></_></decision_functions></my_svm>
</opencv_storage>
