<?xml version="1.0"?>
<opencv_storage>
<my_svm type_id="opencv-ml-svm">
  <svm_type>C_SVC</svm_type>
  <kernel><type>LINEAR</type></kernel>
  <C>8.8817841970012504e-16</C>
  <term_criteria><epsilon>1.1920928955078125e-07</epsilon>
    <iterations>1000</iterations></term_criteria>
  <var_all>1296</var_all>
  <var_count>1296</var_count>
  <class_count>2</class_count>
  <class_labels type_id="opencv-matrix">
    <rows>1</rows>
    <cols>2</cols>
    <dt>i</dt>
    <data>
      -1 1</data></class_labels>
  <sv_total>1</sv_total>
  <support_vectors>
    <_>
      -1.40862836e-16 1.59449823e-16 2.68621908e-17 -1.53461639e-15
      7.79534639e-16 -2.90661076e-17 1.65722917e-15 3.83218008e-16
      5.82268077e-16 -7.65869297e-16 1.09201870e-15 1.75190009e-18
      -6.98706043e-16 4.90801429e-17 -2.47950949e-16 2.80159562e-16
      -1.12881116e-15 -8.03436056e-16 9.45973807e-17 -5.68213418e-16
      1.15727782e-16 -8.42565775e-17 8.14622621e-17 1.14215416e-15
      -2.25207373e-16 -7.05985762e-16 -1.19803821e-15 1.43374207e-15
      5.58587524e-16 1.90228523e-15 -1.32078509e-16 -7.13508050e-16
      -7.78455836e-16 1.41322058e-15 8.07192011e-16 -6.72711926e-16
      1.59115933e-15 1.49145098e-16 -6.20469369e-16 5.83057882e-16
      1.21567566e-15 1.31522490e-15 1.54809829e-15 -7.73448945e-17
      2.16916019e-16 5.53051687e-16 1.72924939e-16 -9.02234402e-16
      3.60829656e-16 9.43045455e-17 -5.25997561e-16 8.73900144e-16
      5.85664255e-16 5.73679904e-16 1.05228227e-15 3.49204884e-17
      1.09386671e-15 -6.78763976e-16 -1.58277339e-15 4.67269325e-16
      1.77051141e-16 -1.94100750e-16 2.61209926e-16 1.38530852e-15
      -6.34457800e-16 3.26574638e-16 1.33134150e-16 2.22430270e-16
      -9.93829580e-16 2.45185651e-16 -5.41130916e-16 -6.34548380e-16
      1.01631343e-15 -7.94035790e-16 -5.49989928e-16 1.29177247e-15
      -7.72109740e-18 3.58802680e-16 2.24639533e-15 5.28931312e-16
      -1.56689594e-16 4.97360171e-16 3.92969157e-16 9.18076353e-16
      -6.80392344e-16 6.67893208e-16 -4.63787437e-16 -3.47203861e-16
      -9.43028885e-16 2.08010603e-15 7.18713120e-16 -1.33993169e-15
      1.45837326e-15 -9.40597583e-16 -1.71779584e-15 -6.81722291e-16
      -1.31610179e-16 9.61647728e-16 1.60431439e-15 -8.44626050e-16
      -7.05237673e-16 9.10557030e-16 -1.92967404e-15 8.79671377e-17
      -7.12861023e-16 -4.95905868e-16 -5.49892995e-16 -4.47186227e-16
      1.34887435e-15 -5.22420382e-16 -4.85910138e-16 -8.50829905e-17
      1.05405415e-15 -1.99763139e-16 7.97130795e-17 6.50883675e-17
      -9.45684956e-17 1.11628090e-15 -1.32005776e-15 -1.28421378e-16
      -7.08311556e-16 -1.06375586e-15 -1.99603060e-15 1.16363226e-15
      -6.13000391e-17 2.37802674e-16 5.87498929e-16 6.89588369e-16
      2.85855858e-16 -1.06038202e-16 2.55107497e-17 1.06922663e-15
      1.01304188e-15 -4.50513233e-17 -8.99616329e-16 -1.43405748e-15
      3.88997763e-16 5.21831376e-16 -3.85021314e-16 -7.11442825e-16
      -3.72783965e-16 -1.16358134e-16 -7.81087409e-16 -5.60208215e-16
      1.27913114e-15 4.49543447e-17 8.32394206e-16 4.08660786e-16
      1.05937712e-15 8.43488273e-16 9.36452310e-16 4.30262323e-16
      4.68116305e-16 1.98578057e-17 -9.25282380e-16 9.56208083e-16
      2.60531602e-17 1.07626250e-16 -1.52892915e-16 -2.31610016e-16
      3.59527449e-16 -1.02275131e-15 5.50271513e-16 -1.44457658e-16
      -3.61615888e-16 6.05316426e-16 6.39959332e-16 -4.50678967e-16
      -5.50790480e-16 1.56763246e-16 3.19604827e-16 1.45885643e-17
      3.12370557e-16 1.18660729e-15 -1.27002871e-15 -1.09849088e-15
      -2.82525431e-16 2.12166692e-16 -1.10508302e-15 5.90246902e-17
      6.78928142e-16 -3.14266693e-16 4.33165423e-16 -7.79161097e-16
      4.78377904e-17 5.59143866e-16 1.42063212e-15 -1.21077716e-15
      8.51601300e-17 4.87439271e-17 -1.33938006e-15 9.82479537e-17
      -1.04165452e-16 1.61349697e-15 1.29412065e-15 -4.00359519e-16
      -2.73663587e-16 -1.95577345e-15 1.61315286e-15 1.13286464e-15
      6.18046060e-16 8.33924477e-16 6.89926811e-16 8.25451607e-17
      7.27988025e-16 -1.40338356e-15 -3.94724818e-16 1.05052827e-15
      -2.58486953e-16 5.59504278e-16 -1.24218525e-15 1.44560964e-15
      6.46894838e-16 1.55642325e-15 1.25599200e-15 -3.78003382e-16
      7.09440651e-16 7.69050435e-16 -4.04393348e-17 -8.57392425e-16
      3.55763049e-16 -2.06656081e-16 3.52426587e-16 -2.28121706e-17
      -8.42025447e-16 -8.61257595e-16 -9.51585294e-16 -9.31415005e-16
      -1.11188099e-15 4.55761747e-16 -5.24263631e-16 -1.16383555e-15
      -7.48646788e-16 -5.54814416e-16 2.06687553e-16 1.15295933e-15
      1.45839189e-15 -6.60590143e-16 -3.87012232e-17 -8.26921950e-16
      7.24865650e-16 2.88065291e-16 -8.93898327e-16 6.34131639e-16
      1.54714154e-16 1.45665971e-15 5.52651358e-16 -5.69176097e-17
      -1.89865691e-16 2.24343611e-16 -8.11933225e-16 -8.29581422e-16
      6.40751678e-16 -1.78867683e-16 2.69468524e-16 -3.17971986e-16
      8.17987605e-16 1.45852655e-16 -2.85787752e-16 -4.99821073e-18
      1.16141113e-15 1.69383164e-16 -2.15261128e-16 -4.42919510e-16
      -9.55639115e-17 -5.74763471e-16 -1.04493987e-15 7.03148519e-17
      -1.16501367e-15 4.37933160e-16 1.26251320e-15 -6.87059393e-16
      -8.31087446e-16 -4.14494673e-16 -5.26067970e-16 1.02487408e-15
      4.05417471e-16 1.96083455e-16 -2.35036767e-16 -1.65474991e-15
      -2.00078267e-15 -1.82680316e-15 -3.15049696e-16 -2.54360586e-17
      -8.05610601e-16 -1.33567493e-15 -1.86011527e-15 -9.20979665e-16
      -2.38224946e-15 -1.72230502e-15 -1.22262843e-15 -1.37357520e-15
      -4.35833974e-16 3.21973264e-16 -1.02090308e-15 -4.53445589e-16
      -2.03459029e-15 -1.99400556e-15 -9.17187498e-16 -8.95752059e-16
      -9.29485675e-16 -3.53515977e-16 -1.90055135e-15 -2.44616529e-15
      -1.74701742e-15 -2.07666369e-15 -2.87159998e-16 -1.80513521e-15
      -7.50404487e-16 3.63559802e-16 -4.09356961e-17 4.85218695e-16
      1.04392265e-16 1.50916373e-18 -1.14941217e-15 -2.15910452e-17
      -1.87081753e-15 -1.44012213e-15 -4.66533465e-16 1.18426959e-15
      -5.23457097e-16 -1.12826197e-15 -1.37457354e-15 -1.27151398e-15
      -7.78309194e-16 -1.94375257e-15 -2.79086318e-16 -1.21921457e-15
      9.08820613e-16 7.25397640e-16 7.21612461e-16 -2.42600718e-15
      -2.40197749e-15 -2.06064672e-15 1.60720465e-16 -3.39437402e-17
      -5.52542461e-16 1.63184206e-16 -1.15638876e-15 -2.35867780e-15
      -2.10422847e-15 -3.57706418e-15 5.16083887e-16 5.56390797e-16
      -7.43515939e-16 3.67339449e-16 1.20684968e-15 1.72170352e-16
      1.27549514e-15 -1.86458760e-15 -8.29762898e-16 -1.50813052e-15
      -7.56045833e-16 -1.06422585e-15 -1.75463214e-15 3.47344892e-16
      -2.18434529e-15 -2.32153880e-15 -2.35674847e-15 -2.95739394e-15
      6.60439477e-16 6.87625105e-16 -4.92927224e-16 6.79994477e-17
      -4.29674985e-16 -1.36941860e-15 -1.54641598e-15 -7.10563075e-16
      2.56249073e-17 -6.93273862e-16 4.69754785e-16 1.01651672e-15
      -1.52300627e-16 -1.31120725e-17 2.22979962e-15 -1.59931933e-15
      -2.45095151e-16 -1.40637062e-16 -1.25315221e-15 -1.66820100e-15
      -2.52651188e-15 -1.08524805e-15 -5.39323718e-16 -4.40789937e-16
      -2.12573654e-15 -7.40612098e-16 -6.72316838e-16 -2.45608807e-15
      -8.29372257e-16 -2.95859106e-16 -7.13519591e-16 -1.01149731e-15
      -1.61830462e-15 -2.91178958e-16 -2.59276759e-16 -7.86581529e-16
      2.27411750e-16 1.63265435e-17 -4.83118582e-16 -3.63251456e-16
      9.52192405e-16 1.16881356e-15 6.55183743e-16 -5.59693828e-17
      5.26766561e-16 -1.16393113e-16 1.33452307e-15 1.83841619e-15
      3.91668630e-17 7.68848259e-16 5.62134474e-16 -3.33898588e-16
      -1.73490771e-16 3.62603423e-16 8.21530850e-16 -6.93331090e-16
      4.26601579e-16 -9.88951518e-16 -4.00508571e-16 -1.70396326e-15
      8.53760295e-16 8.56736821e-16 -3.63773175e-16 9.34555591e-16
      1.08642542e-15 -1.36693423e-16 -4.30292870e-16 1.06072644e-15
      -4.78333058e-16 -1.05637852e-15 7.93773765e-17 -1.50938532e-16
      1.33589642e-15 -2.94499539e-16 1.64788923e-16 -9.56310044e-16
      -5.19811044e-16 -8.42901491e-16 -2.05736918e-16 1.15056445e-15
      -3.52142672e-16 -2.16166090e-15 -3.89914809e-16 -1.24269940e-15
      1.74574589e-16 -4.36588892e-16 5.34327600e-16 -1.34645236e-15
      -5.98186208e-16 -1.76305832e-15 4.85783666e-16 1.41321423e-15
      1.22698832e-15 -1.46758080e-16 2.64887478e-16 2.66930667e-18
      1.46903656e-15 3.99432018e-16 -4.07093722e-16 -1.05257036e-15
      -2.58772437e-17 -1.87903163e-15 1.08095190e-15 -1.28889923e-15
      -6.80451319e-16 5.51054701e-16 -7.34047328e-16 -1.02619196e-15
      6.99078473e-16 6.88100450e-16 -2.89456146e-15 -2.02156229e-15
      -9.87188101e-16 -1.48422248e-15 -5.22516394e-17 -5.28363112e-16
      1.82977116e-15 -5.89169384e-16 -2.10108238e-15 -4.30011480e-15
      -2.41549889e-15 -4.25950687e-16 -2.44131370e-15 -4.61669590e-16
      -5.51643541e-17 -1.06720233e-15 2.62747291e-16 2.18287405e-16
      -7.22057312e-16 -3.19362698e-15 -1.68965688e-15 -2.33636357e-15
      -4.17825736e-16 1.72673344e-16 1.90517337e-16 6.71296481e-16
      -8.19758592e-16 -1.56580499e-15 -3.23536326e-15 -7.22076423e-16
      -8.80315730e-16 -8.07310014e-16 8.74515196e-16 1.69680300e-16
      3.26179947e-16 4.31439011e-16 1.06066069e-15 -7.36672019e-16
      1.33900249e-15 1.83908429e-15 9.18349416e-16 1.27347550e-15
      -6.50059459e-16 2.83387006e-15 4.09526163e-16 -1.91781084e-16
      -6.06074573e-16 1.22460201e-15 -1.44133244e-15 -8.08694754e-16
      1.77744173e-16 3.40693486e-16 8.58192553e-16 -5.09587594e-17
      1.35955723e-15 -4.83520916e-17 -6.67735184e-16 -9.98889755e-16
      1.52945372e-15 4.40108367e-16 6.61974301e-16 1.37052927e-15
      2.30685929e-16 5.65672226e-17 -4.05227206e-16 2.64785464e-15
      -5.41156274e-16 1.02205833e-15 4.49523032e-16 6.78542265e-16
      9.08589373e-16 2.36968770e-16 -5.24512765e-16 4.93324112e-16
      1.50914907e-15 6.02284948e-16 1.36712399e-15 2.98808527e-16
      5.25299288e-16 1.07112240e-15 -1.23166489e-15 4.38320016e-16
      1.55769486e-15 8.29274954e-16 -3.26978143e-16 1.77095614e-17
      -1.02232229e-15 5.84704249e-16 -4.15036721e-16 -8.74080297e-17
      5.51183185e-16 -1.25059883e-15 1.95574550e-15 -8.07491914e-16
      1.10389399e-15 1.19776081e-15 1.19011570e-15 7.45942411e-17
      -6.56373189e-16 -5.45937351e-16 -2.10565233e-15 8.61065742e-16
      -5.24261937e-16 -9.18728463e-16 -2.62580002e-15 -1.79295276e-16
      1.97761822e-15 -7.44030459e-16 -5.32787218e-16 -1.19994965e-15
      -1.13718811e-15 -1.18974301e-15 -2.35208323e-15 -1.95308328e-15
      1.00590340e-15 -3.91504875e-16 1.12301971e-16 1.51316009e-15
      -6.86464829e-16 -6.30115592e-16 -3.20122635e-15 -2.91653624e-15
      -1.62305521e-15 1.02132903e-15 9.69503218e-16 6.96099299e-16
      -5.88469946e-16 -4.57581598e-16 2.01585318e-16 -6.15623440e-16
      5.49896966e-16 7.92579952e-16 2.45802566e-15 -1.24300828e-16
      -3.88937412e-16 -8.65817120e-16 -1.25817893e-15 -1.14063617e-15
      -1.87862019e-15 -3.53607139e-16 -8.05936126e-16 -1.03205226e-15
      -1.09232067e-15 -7.15434997e-16 9.54266789e-16 4.37256777e-16
      -5.27911326e-16 6.32023163e-16 -1.06964210e-15 1.35051965e-16
      8.61986626e-16 -6.82103350e-16 -5.51884529e-16 2.58712635e-16
      1.31518086e-15 3.86675702e-16 5.13743164e-16 -6.29290740e-16
      -5.84295556e-16 1.03814423e-15 -1.11792658e-15 -2.21952742e-16
      1.18755480e-15 -4.29375851e-16 -4.90817794e-16 3.39341410e-16
      3.97217715e-16 9.34415976e-17 1.49655359e-15 4.95392301e-16
      -6.86769814e-16 1.93537261e-16 -1.36261481e-15 1.04418654e-15
      1.32015506e-15 -9.53796580e-16 -1.30574443e-16 7.69660829e-16
      1.05045543e-15 4.67569969e-16 6.28379809e-16 -1.23630547e-15
      2.98814298e-16 9.94311754e-16 4.99124064e-16 -2.93779428e-16
      8.55106442e-16 -4.41302657e-16 9.47091467e-16 -8.11278297e-17
      -4.78186574e-16 -2.26499659e-15 -6.03079094e-16 6.58793692e-16
      2.68726761e-17 1.38472549e-16 -1.45133495e-15 -2.61847980e-16
      1.78577373e-15 -4.90020207e-16 1.09472793e-15 -3.59217475e-17
      7.97830974e-16 3.76875107e-16 1.30647865e-15 -1.66761274e-15
      -3.78296217e-16 2.10512463e-15 -5.68772407e-16 -1.11813389e-15
      -1.88493884e-15 -7.93509412e-16 6.76162844e-16 -4.12698513e-16
      9.03265241e-16 2.52800530e-16 -8.90179853e-16 -1.77047652e-15
      -2.27134108e-15 -4.11464423e-15 -1.03569440e-15 3.72501003e-16
      4.31579036e-16 9.68788428e-16 -2.88887125e-16 -3.65995763e-16
      -5.16254564e-16 -7.91551230e-16 -2.34261785e-16 -3.00672132e-16
      -1.06721800e-15 -2.85826795e-16 -1.12545988e-15 -1.39953147e-15
      -1.02145721e-16 -1.78040905e-15 -5.00365444e-16 -1.55720856e-15
      -1.94063168e-15 -1.40604589e-15 6.36657174e-16 2.42751781e-16
      -1.90667688e-15 -3.44586397e-16 -7.39648122e-16 -1.78813420e-15
      -1.76436518e-15 -2.90934684e-15 -1.75065490e-15 -6.27922306e-16
      -1.16892061e-15 -1.13294479e-15 1.86228346e-15 -2.13327069e-15
      8.43501085e-16 2.61135096e-16 9.14880604e-16 -3.79572987e-16
      -1.35337273e-15 1.05070541e-15 1.52976744e-16 4.07493945e-16
      -2.80034757e-16 3.73590843e-16 -1.49142576e-15 4.44123384e-20
      5.88490063e-16 -1.63467501e-15 1.36864155e-15 8.29823819e-17
      -7.71308466e-17 3.53840020e-16 9.29203283e-17 4.26446519e-16
      -1.09415089e-15 -3.06444424e-16 5.57550914e-16 2.15144992e-16
      1.13387674e-15 2.47565628e-16 6.17075149e-16 1.58655931e-15
      -3.84384240e-16 5.03358891e-17 -1.81564556e-16 1.40278651e-15
      -2.41657494e-16 -1.07486766e-15 2.32824846e-16 -6.64591950e-16
      1.26844751e-15 -1.75446861e-17 -5.62487263e-16 -3.90276704e-16
      3.59282365e-16 -2.54603347e-17 8.84930806e-18 2.93396278e-16
      -2.68518047e-16 2.12382341e-16 -1.24055662e-15 1.35374807e-17
      3.26862259e-16 2.64046534e-15 1.90217787e-15 -1.22981285e-15
      -1.08423658e-17 -4.49167914e-16 6.53523718e-16 -8.24725858e-16
      2.10919357e-16 -4.34251902e-16 1.86823294e-16 -5.87630537e-16
      -1.57173200e-15 -1.90843575e-15 -1.45301133e-15 -1.71080274e-15
      -1.32691883e-15 5.40096318e-16 -7.28072676e-16 -1.60051402e-16
      1.98020802e-15 4.02032436e-16 -3.35199161e-17 1.36937328e-15
      3.43605850e-16 -6.76027424e-16 3.83227325e-16 8.05301116e-16
      3.67251542e-16 1.21076488e-15 -5.36910839e-16 -5.50260555e-16
      -1.40835236e-15 -2.96700437e-15 -1.04006816e-15 -1.43602377e-15
      1.13544330e-16 -8.47936414e-16 -8.54539141e-16 -6.36954641e-16
      -2.28432186e-15 -1.75430137e-15 -1.12624614e-15 1.91045714e-16
      1.39842090e-15 7.00608479e-16 5.80046256e-16 1.59834786e-16
      -1.37131902e-15 -1.96938760e-15 -2.08666545e-15 -5.69914789e-16
      -1.42733374e-15 -1.07901325e-15 -9.26819110e-16 -1.05193530e-15
      2.82842142e-16 1.22571300e-15 2.63943460e-16 -7.33237935e-16
      -1.95669987e-17 -7.39877668e-16 1.11156303e-15 -9.52315754e-16
      -4.12999448e-16 -1.82706026e-16 -2.12965881e-16 7.00067755e-16
      -4.80149527e-17 -1.32989477e-15 -8.42428635e-16 -1.24724733e-15
      -9.64672271e-16 2.42141415e-16 -1.55619659e-16 8.47539844e-17
      -9.58619903e-16 -1.93452862e-16 -2.43623881e-17 4.88089342e-16
      -2.61263144e-17 2.51952184e-17 -3.08986952e-16 6.48605368e-16
      -1.15524092e-15 -2.63913179e-16 -7.39866180e-16 6.78553647e-16
      9.78816133e-16 1.14255258e-15 3.00209176e-16 5.23577376e-16
      -3.31039111e-16 -1.83297983e-16 7.27312119e-17 -5.98397331e-16
      9.58543974e-17 7.99710540e-17 -6.04290775e-16 -4.98581592e-16
      8.22152307e-16 5.32806647e-16 -1.02382789e-15 -7.09654897e-16
      -4.37799487e-16 -1.03865781e-16 -8.74079980e-16 1.12026129e-17
      2.43670759e-16 1.07994933e-15 2.48458586e-16 4.47843366e-16
      -9.72598805e-16 -1.09339830e-15 -4.66903195e-16 1.48878968e-15
      1.45985043e-16 3.54601052e-16 -1.33539922e-15 5.03649179e-16
      -9.52299555e-16 1.30825816e-15 -6.35255335e-16 3.53576963e-16
      -7.20104001e-16 1.73432992e-15 -1.29134421e-16 5.99047376e-16
      -5.14232273e-16 5.29546417e-16 3.75664088e-16 4.74014460e-16
      -1.26425946e-15 -2.75734445e-15 -1.15561139e-15 -1.30626073e-16
      1.09928254e-15 -8.89785029e-16 -6.83271885e-16 3.93186024e-16
      -1.25114739e-15 -2.55140803e-16 -2.63779909e-15 -1.96333555e-15
      -3.01457099e-15 -1.92573766e-15 4.45466538e-16 -1.56110290e-15
      1.50285149e-15 -6.26925030e-16 3.44305843e-16 1.52644046e-16
      -4.49669092e-16 3.37924377e-16 -7.58970770e-17 4.62109571e-16
      -4.93304875e-18 4.16780762e-16 -7.84667764e-16 3.59683727e-16
      -7.08600764e-17 -2.10754587e-15 1.70765389e-16 -1.07251640e-15
      -2.08109875e-15 -9.02088501e-16 1.59209149e-15 -3.91443015e-16
      1.54742766e-15 -2.86496110e-16 -8.91288195e-16 -1.28146799e-15
      -1.83414545e-15 -1.16095045e-15 -3.52492470e-16 -6.76206836e-16
      -2.88095705e-16 -9.12583239e-16 2.18428860e-16 -5.46850929e-16
      -1.06591674e-15 -2.05712730e-15 -1.63148625e-15 -1.14832130e-15
      6.96981431e-16 -1.37754228e-15 5.07645956e-16 -1.07733337e-15
      -1.92440338e-15 -3.82432792e-15 -1.62018652e-15 -2.81586553e-15
      -1.72848995e-15 -8.27028941e-16 -6.53625838e-16 -9.48242479e-16
      -5.54618327e-16 -1.07493214e-15 -1.42858438e-15 -1.96403478e-15
      -7.13513873e-16 -1.65049664e-17 -1.61938533e-15 -1.47791240e-15
      4.38138142e-16 -5.93492428e-17 -3.77925455e-16 -6.93626334e-16
      -1.73769137e-15 -1.56443396e-15 -1.88952955e-15 -8.12602593e-16
      -1.91471120e-15 3.23447048e-16 -3.77053725e-16 -1.36871345e-15
      1.50211450e-17 -1.27632407e-15 -1.82464449e-15 -1.32859373e-15
      -1.46588422e-15 -8.27080716e-16 4.78980032e-16 -1.32512322e-15
      -9.76461170e-16 -3.01284495e-15 -1.50302312e-15 -1.59888999e-15
      -2.48034159e-15 -1.08230154e-15 -1.47755760e-15 7.12853876e-16
      -1.26646418e-15 -2.07161749e-15 -8.15666523e-16 -9.32236838e-16
      -7.61264773e-16 -1.04598479e-15 -1.51459211e-15 -8.49034857e-16
      -1.73865689e-15 -1.01348667e-15 -2.24562686e-15 -1.46692649e-15
      2.29489707e-16 -1.02078132e-15 -8.31612924e-16 -1.15498183e-15
      -1.35793432e-15 -1.27155273e-15 7.07490569e-16 -4.86677815e-16
      6.31157495e-16 1.09664466e-15 -4.55768947e-16 -1.37856867e-15
      5.59979464e-16 -7.31942822e-16 -2.36453515e-17 5.17911572e-16
      -3.79488548e-16 -1.03752102e-15 5.98207702e-16 1.79480882e-16
      -6.14652952e-16 1.49043134e-15 -1.86875810e-16 1.16664897e-15
      5.83338515e-16 2.95549701e-16 -8.87727428e-16 -1.64307853e-15
      -1.34383589e-17 8.62411730e-16 -9.31142048e-16 4.99545304e-16
      -1.31709150e-16 2.50568836e-16 -8.49927947e-16 -1.08541078e-15
      8.08135659e-16 -2.78857474e-17 -2.40553337e-17 -4.97567535e-16
      9.36314137e-16 -3.64131020e-16 -1.72369987e-15 -1.37553280e-15
      -9.32550558e-16 9.44326540e-16 -1.04434841e-16 6.66711068e-16
      1.52348193e-16 3.36595276e-16 3.46504900e-16 -4.70317956e-16
      8.70802280e-16 -5.51533910e-16 1.04541865e-15 -1.68584901e-16
      -1.33928170e-15 8.73221949e-17 -8.80361841e-16 4.56624292e-16
      -1.18184326e-15 -4.42041905e-16 -9.79623779e-16 -5.72991743e-16
      5.78315874e-16 -4.97790887e-16 -8.62193461e-16 4.42783720e-16
      4.68129752e-16 -4.52020773e-16 -1.78245114e-16 -7.72023045e-16
      -9.47129795e-16 -1.64982338e-16 -4.69181873e-16 -2.33442446e-17
      3.93694720e-16 1.82980377e-15 -4.12852726e-16 -6.54146869e-16
      -6.52383717e-16 1.14429620e-15 3.49423352e-16 -1.95712839e-16
      1.12735585e-16 -1.35865768e-15 -6.15024588e-16 1.82454854e-16
      4.73820225e-16 5.43509914e-16 2.31440851e-17 -6.03891134e-16
      -4.38283037e-16 8.26229447e-16 -2.79408085e-16 -7.57871559e-16
      -1.33713595e-15 -1.84919402e-16 -1.58810101e-16 -9.56580777e-16
      5.63929337e-16 -3.72250599e-17 1.93069789e-15 1.02613203e-15
      4.47606726e-16 -4.95824394e-16 -4.92256427e-16 -4.11923451e-16
      8.20730351e-16 1.29334329e-15 -5.50918223e-16 -2.54431591e-17
      1.43081255e-16 1.46425924e-16 1.31208178e-15 8.05229860e-16
      -4.30542268e-16 -2.26857949e-16 3.46813405e-16 2.90767247e-16
      8.88081911e-16 -8.24839361e-16 7.83722846e-16 4.31543143e-16
      -8.06422217e-16 1.24350882e-16 8.01389730e-16 -1.65335127e-16
      -5.95241922e-16 3.51969586e-16 -1.07009848e-16 4.58552615e-16
      -8.36071388e-16 8.87312752e-16 8.74218417e-16 -3.88431548e-16
      1.48335745e-15 1.23013462e-15 1.45707508e-15 -1.43199316e-15
      -2.50620982e-16 -2.13440910e-15 -2.23096170e-16 -2.96087540e-16
      3.60753556e-16 -2.77806875e-16 -2.38054970e-17 3.93886546e-16
      -1.42108761e-15 5.38671033e-17 -2.37301151e-16 -1.39453420e-17
      6.74427379e-16 1.68047909e-16 6.82572924e-16 -1.54566255e-15
      3.07556011e-15 7.82951252e-16 7.18931390e-16 -1.28363780e-16
      4.08030303e-16 1.99117289e-16 4.38967016e-16 -1.24495939e-15
      4.65305340e-17 -5.50283848e-16 -7.00974927e-16 5.78885610e-17
      -6.54851971e-16 -4.46542958e-16 2.26086117e-16 9.67100503e-16
      1.03204093e-15 3.25811514e-16 1.07655484e-15 -3.75595055e-16
      -1.39633784e-15 -1.02080811e-15 -6.34244083e-16 6.89664231e-16
      2.78181078e-16 -1.48775104e-16 1.01521928e-15 -7.06063160e-16
      -5.60256510e-17 -9.07471395e-16 -1.03207471e-15 -1.35827133e-16
      8.63164478e-16 -2.23739116e-15 -1.20606480e-15 2.02777422e-15
      1.86794270e-16 2.47229838e-15 1.12577074e-15 1.33676537e-15
      1.65746327e-15 -1.11174218e-15 8.20667459e-16 -5.96973310e-16
      8.22426428e-16 5.27648686e-17 -6.21417569e-16 -2.82552801e-16
      -1.14874248e-15 4.69775060e-16 -8.79679026e-16 3.43612759e-16
      -5.90437233e-16 -7.20253079e-16 7.29576159e-16 -9.29212296e-16
      1.03319088e-15 -1.37673644e-15 8.82757515e-16 3.52880596e-16
      3.65251565e-16 -1.13239125e-15 5.37425464e-16 1.34696387e-17
      3.70878961e-16 -1.47800240e-15 -6.80961762e-16 -7.73286500e-16
      1.10849116e-15 2.11638646e-16 9.21633362e-16 -1.10603279e-16
      6.64355840e-16 4.30101864e-16 1.70624305e-16 8.42017295e-16
      1.24970415e-15 -1.00124080e-15 3.52397708e-16 1.15698599e-16
      5.57387649e-16 8.58997658e-16 7.01068153e-16 -5.26790278e-16
      2.66336143e-16 5.51972567e-16 -9.13438742e-16 -1.07318757e-15
      1.03954024e-15 3.88009647e-16 3.76462404e-17 -1.09387972e-16
      -2.84207400e-16 -7.38393772e-16 -3.91087023e-16 -6.65364497e-17
      1.00764691e-15 -9.88280879e-16 7.09642827e-16 1.48637659e-15
      -3.35797795e-16 1.28961465e-15 1.89844651e-17 5.94853081e-16
      3.93426952e-16 7.01822913e-17 -4.66267232e-16 -1.56811326e-15
      1.06779345e-15 9.90282630e-16 -3.10462192e-17 -4.50364348e-16
      -7.69107081e-16 2.76102248e-16 8.27179686e-17 6.65862288e-16
      -5.85100608e-16 6.45297810e-16 8.90411516e-16 9.54226661e-16
      2.27247060e-15 6.90517670e-16 1.05271922e-16 4.16789126e-16</_></support_vectors>
  <decision_functions>
    <_>
      <sv_count>1</sv_count>
      <rho>-4.5075054799781356e-14</rho>
      <alpha>
        1.</alpha>
      <index>
        0</index></_></decision_functions></my_svm>
</opencv_storage>
