<?xml version="1.0"?>
<opencv_storage>
<my_svm type_id="opencv-ml-svm">
  <svm_type>C_SVC</svm_type>
  <kernel><type>LINEAR</type></kernel>
  <C>8.8817841970012504e-16</C>
  <term_criteria><epsilon>1.1920928955078125e-07</epsilon>
    <iterations>1000</iterations></term_criteria>
  <var_all>1296</var_all>
  <var_count>1296</var_count>
  <class_count>2</class_count>
  <class_labels type_id="opencv-matrix">
    <rows>1</rows>
    <cols>2</cols>
    <dt>i</dt>
    <data>
      -1 1</data></class_labels>
  <sv_total>1</sv_total>
  <support_vectors>
    <_>
      -4.68762062e-16 1.08322133e-16 -3.35837711e-16 -9.85924222e-16
      1.03013881e-15 3.48370596e-16 3.90034664e-16 -2.80178435e-16
      3.70203055e-16 -3.55835656e-16 3.30551537e-16 -1.27331583e-15
      -5.51093294e-16 8.98513558e-17 -7.50008394e-16 -5.65567406e-17
      -6.53078708e-16 1.05465058e-16 -5.39935011e-16 -7.95104904e-16
      5.72302898e-18 7.28118786e-16 -4.31784733e-16 3.71830100e-16
      -1.93883555e-15 -1.49070917e-15 -1.96686692e-17 8.11890186e-16
      -1.71783377e-16 1.19223130e-16 7.51492395e-16 -8.92187427e-16
      -2.29319850e-16 2.64985443e-16 -5.55938958e-16 -9.15014859e-16
      4.18168837e-16 9.72825281e-16 -3.26763685e-16 3.03016958e-16
      4.17559079e-16 1.04600850e-15 1.79365283e-15 -1.47726665e-15
      -6.80690711e-16 -1.28899949e-15 -1.24903743e-16 -2.35982903e-16
      6.55526315e-16 6.58071279e-16 7.56210501e-17 1.76819425e-16
      3.64078001e-16 -5.99693967e-17 5.12081444e-16 -4.98812885e-16
      7.11041913e-16 -1.03684615e-15 -2.68132276e-16 -4.00341229e-16
      2.27129317e-16 -5.49694174e-17 7.80580407e-16 6.07966051e-16
      7.03097009e-16 -1.14254488e-16 -2.28880981e-16 1.80748497e-18
      3.69061414e-16 -1.02985008e-15 -4.65618776e-16 -1.25889467e-15
      1.26254792e-15 2.97682794e-16 -5.75119383e-16 2.43380306e-16
      3.43829440e-16 1.35042399e-15 1.97845022e-15 -7.07533556e-16
      -9.10204453e-16 4.57735493e-16 1.07876464e-15 4.74996119e-16
      -8.08330847e-16 1.30447108e-15 2.90542915e-16 -2.47275069e-16
      -1.61786332e-15 1.62078802e-15 1.04535671e-15 3.37225442e-16
      1.25479524e-15 6.75988143e-17 -1.27594068e-15 9.95009709e-16
      -5.36121775e-16 1.39821412e-15 1.09702413e-15 -2.82871947e-16
      -7.02951161e-16 -6.32231480e-16 -1.91617763e-15 1.23681025e-16
      1.43523446e-18 7.45065109e-16 1.28879345e-16 1.12776772e-16
      1.14647212e-15 -5.03720647e-16 8.76334517e-16 5.36387743e-16
      2.10525301e-16 1.07345343e-15 -4.30907299e-17 8.75212092e-16
      -1.99418555e-15 -1.53181700e-16 -1.20084464e-15 -3.10267348e-16
      -2.26633644e-16 -3.33633936e-17 -5.21432847e-16 4.49538120e-16
      -1.15895336e-16 -1.79098192e-15 5.76769509e-16 2.91959234e-16
      -4.79250547e-17 1.72175606e-16 -1.29055181e-17 4.17902260e-16
      1.68591839e-15 -4.27589855e-16 -4.58689464e-16 1.44719616e-16
      5.48804081e-16 4.22090573e-16 -2.21567302e-15 3.12974968e-17
      -3.61687436e-16 5.57746420e-16 -1.25276109e-15 -2.85431548e-16
      6.78820727e-16 7.12447247e-16 6.45359273e-16 8.43658103e-16
      7.83858054e-17 1.42162378e-15 1.83516634e-15 5.48381240e-17
      2.42678301e-16 3.33524808e-16 1.87689875e-16 8.42693915e-16
      -2.25972826e-16 6.84189116e-16 -1.22662049e-15 1.59808201e-17
      -2.77995049e-16 6.60163715e-16 3.54832590e-17 5.36924074e-16
      6.89955134e-16 5.05964596e-16 1.16302843e-15 1.24011087e-15
      1.15352772e-16 2.80673843e-16 -1.67014621e-16 3.13443219e-17
      -6.88850286e-16 5.64450156e-16 -1.11870257e-15 -7.20201728e-16
      -6.51624365e-17 9.20807188e-16 2.34275119e-17 1.61080282e-16
      2.82898284e-16 3.55892010e-16 -6.40953378e-16 -1.74399309e-15
      1.29735251e-15 1.21975773e-15 1.34220216e-15 -9.68528283e-16
      3.93916934e-16 -6.47313208e-18 -1.23156812e-15 2.19472523e-16
      -8.13898448e-16 1.12388312e-15 7.24553889e-16 -4.71929118e-16
      -5.30970862e-16 -7.98326488e-16 6.96471147e-16 5.71445272e-16
      4.43421536e-16 3.94455461e-16 2.79713149e-16 -3.85922478e-16
      4.80706603e-16 -3.93595802e-16 -1.32739848e-17 5.87246672e-16
      2.24882933e-16 2.76067519e-16 -1.17980953e-15 8.70392104e-16
      5.82005007e-17 -9.88952259e-17 -1.10800459e-16 -5.66487893e-17
      -2.42613212e-16 -6.37776263e-16 -4.15296098e-16 8.67076976e-16
      -7.20258982e-17 8.32402041e-16 1.74192622e-15 -1.11269266e-15
      -2.89874130e-16 -6.91603884e-16 -7.20190187e-16 1.79858923e-16
      -3.53269490e-16 5.25138828e-16 1.07908927e-16 1.23062431e-15
      -3.04901527e-16 -8.72383532e-16 1.13939960e-16 1.68208123e-15
      3.28636025e-16 -6.81806465e-16 6.41660214e-17 -9.72378365e-16
      9.03869282e-16 -8.18725530e-16 -4.01712628e-16 1.60083371e-17
      1.77643095e-15 1.61320908e-15 5.60791821e-16 7.47007779e-16
      -7.80392948e-16 4.89694311e-16 -1.78438756e-15 -4.62174316e-16
      2.93294078e-16 6.35274552e-16 -1.21166030e-15 1.51185153e-15
      3.75570730e-16 -3.39368065e-16 6.50476940e-16 1.39577509e-15
      1.07369113e-15 1.37816707e-16 -8.59016769e-16 -1.23904403e-15
      -5.31948761e-16 9.88467438e-16 -1.57272197e-15 -7.94128593e-16
      4.10661108e-16 7.52860142e-16 5.13349188e-16 -8.91316994e-16
      -5.80501325e-16 -9.66795253e-16 -1.06817694e-15 1.08309666e-16
      9.22704647e-16 9.75446954e-16 -4.10547843e-16 -7.50494908e-16
      -2.44492482e-15 -2.95424615e-15 -8.57956814e-16 -5.59626145e-16
      -6.34190402e-16 -1.54262339e-15 -1.20406210e-15 -1.52550909e-15
      -2.14004505e-15 -1.35701454e-15 -5.20552780e-16 -1.22021099e-15
      -2.55443749e-16 4.50852133e-16 -9.29727080e-16 -1.51034829e-16
      -2.97174606e-15 -2.92427368e-15 -2.38574008e-15 -5.58053205e-16
      -8.50715952e-16 -8.22892455e-16 -1.45516216e-15 -6.93026793e-16
      -2.26451251e-15 -2.70290910e-17 -9.12699243e-17 -2.43960524e-15
      -2.36371055e-16 1.55530707e-15 -7.63293364e-16 3.92189701e-16
      5.30792085e-16 -1.02208522e-15 -5.56317211e-16 -8.96183940e-16
      -1.35377327e-15 -8.35417902e-16 9.82605335e-17 9.52283567e-16
      -1.44369047e-15 -1.41114694e-15 -2.01048945e-15 -9.09747690e-16
      -1.10692034e-15 -1.73877494e-15 -1.34823335e-15 -5.17110914e-16
      4.90124656e-16 4.06120667e-16 -9.60321380e-16 -1.14682215e-15
      -3.33443265e-15 -2.26085566e-15 -1.18634249e-15 -2.70403807e-16
      -7.49981712e-16 2.26627080e-16 -1.20694847e-15 -2.24794434e-15
      -2.36404143e-15 -4.26665573e-15 -3.67325049e-16 -8.17669438e-16
      -3.68531806e-16 3.95950660e-16 1.03951028e-15 9.28945586e-16
      7.44497121e-16 -1.93308335e-15 5.40088907e-16 -2.06951791e-15
      -4.50653768e-16 1.22067175e-16 -1.17960889e-15 -3.38921440e-16
      -1.28986738e-15 -1.86990697e-15 -3.94090041e-15 -3.24602719e-15
      1.08999715e-15 9.90858401e-16 4.00636592e-17 -5.76771137e-17
      1.33610805e-16 -2.09370160e-16 -1.98221930e-15 -2.25048687e-16
      -1.09520682e-15 -2.92121441e-16 -1.09721405e-16 2.80614604e-16
      8.41363015e-16 1.35102486e-15 1.63075495e-15 -2.04918954e-15
      -1.86632751e-16 -1.08230948e-15 -7.38305098e-16 -1.53156284e-15
      -1.80145887e-15 -6.62658068e-16 -2.79965221e-16 -8.09307423e-16
      -2.74624641e-15 -9.75883387e-16 -1.94726607e-15 -5.79398117e-16
      -2.00865234e-16 7.57045861e-16 1.24672781e-16 -6.72079668e-16
      -1.10461249e-15 -1.29545727e-15 -4.07144941e-16 1.78686272e-16
      7.74952826e-16 -1.80728005e-16 -1.22628996e-16 -1.29105789e-15
      9.97990206e-16 3.22791418e-16 -1.15243822e-16 1.41963675e-15
      9.05354766e-16 1.46479972e-17 -3.02321279e-16 1.28711251e-15
      -6.24610301e-16 2.14366230e-15 -4.40070250e-16 -6.84347829e-17
      5.47091434e-16 1.32439544e-16 1.08010222e-15 1.08935965e-15
      -1.77932201e-16 -7.12122939e-16 1.55898044e-15 -1.60020130e-15
      4.63271594e-16 -8.02194252e-16 -7.24249070e-18 1.19003873e-15
      4.04105496e-16 4.24394714e-16 -1.09989730e-16 1.41964607e-15
      1.56985579e-17 5.08269631e-17 -7.34334367e-16 2.16716490e-16
      1.56247901e-15 9.29526148e-17 2.85415057e-16 -2.05467455e-16
      8.02770049e-17 -1.24897570e-15 1.01777044e-15 4.52881094e-16
      6.62106332e-17 -8.43792834e-16 -7.24379202e-17 -7.46107714e-17
      -5.67567979e-16 2.93870061e-16 6.06447956e-16 -6.50902839e-16
      -4.52827043e-16 -1.79658801e-15 -3.32205290e-16 9.97974430e-16
      1.83243614e-15 3.25543051e-17 2.54385752e-16 4.18325194e-16
      1.83764857e-15 7.42820843e-16 -7.39135111e-17 -4.02759137e-16
      -1.07506396e-15 -1.21816001e-15 -6.65077035e-16 -3.32786407e-16
      -1.54602719e-15 -1.94888636e-16 7.35565423e-16 -3.66600995e-16
      -1.28566989e-16 -8.84566883e-16 -2.16673400e-15 -2.55106863e-15
      -2.13990232e-15 -1.30081221e-15 1.60517151e-16 -1.60108539e-15
      -2.91351302e-16 -5.23142504e-17 -1.70302327e-15 -2.49493195e-15
      -1.76916754e-15 -2.01307610e-16 -2.07276395e-15 -3.14006813e-16
      -8.03723200e-16 -1.68950081e-15 -6.60629318e-16 -2.29673857e-16
      -1.44974115e-15 -4.02639398e-15 -2.71233735e-15 -1.71249627e-15
      -1.71566132e-15 2.47039277e-16 6.97170849e-16 9.15620593e-16
      -1.36871080e-15 -5.40535928e-16 -1.78362798e-15 -4.80080540e-16
      -1.06875155e-15 4.87212981e-16 3.56405339e-16 1.55136424e-15
      -9.54944309e-16 5.17152366e-16 3.43358887e-16 -4.99562350e-16
      5.18986457e-16 1.59984407e-15 1.37726541e-15 7.89315487e-16
      -7.76835092e-16 1.09305631e-15 6.93114779e-16 8.81355940e-16
      -6.44503240e-16 2.32260828e-16 -9.45110786e-16 2.01854066e-16
      -1.00965401e-16 1.07763904e-15 -5.61592003e-16 -1.31729082e-15
      5.94329138e-16 6.80398273e-17 4.02651670e-16 -9.31817981e-16
      2.78902883e-16 -1.99813656e-16 -2.21937799e-16 -2.42007980e-16
      9.41706773e-16 -8.86667842e-16 -4.27527936e-17 2.41449727e-15
      -1.07562205e-15 -7.58383141e-17 1.37605902e-15 1.67293838e-16
      3.81941370e-16 7.35024381e-16 2.63636596e-16 -9.26279444e-16
      1.84729903e-15 -3.00190303e-16 1.70406604e-16 1.93818847e-16
      5.56552315e-16 -5.11298786e-16 -9.93677909e-17 8.39429874e-16
      1.44587412e-15 1.24182346e-15 -1.82068059e-15 -1.14315058e-15
      5.15684723e-16 -5.21685845e-16 5.53597970e-16 -7.00317629e-16
      1.68388255e-15 -5.12635775e-16 1.10656427e-15 -1.01973513e-15
      2.39042375e-15 1.39243894e-15 2.13261127e-15 3.23772388e-18
      -1.54612736e-16 1.06808975e-16 -1.57019103e-15 5.02511507e-16
      -1.34612149e-15 -5.06838046e-16 -9.52798669e-16 -4.18976695e-16
      2.04419980e-16 -2.54631604e-16 -1.13382454e-15 4.27655368e-16
      6.96480464e-16 -1.66013164e-15 -3.12479941e-15 -3.33903220e-16
      6.81447006e-16 -4.79145998e-16 -5.89245034e-16 9.81690222e-16
      -1.34734227e-15 -1.28075172e-15 -2.30562728e-15 -2.52518923e-15
      -1.55136774e-15 -1.37396526e-15 2.14819255e-16 1.48435494e-15
      -9.84330529e-16 -9.87344061e-16 3.81724212e-16 -2.91428753e-16
      1.05634474e-15 1.43772111e-15 5.32255599e-16 -4.18055758e-16
      5.04180586e-16 -1.95018536e-15 -1.32465079e-15 -7.09995934e-16
      -2.35413898e-15 -1.89212470e-16 -1.93471515e-15 -1.82164536e-15
      1.69231505e-16 3.83810481e-16 1.27523076e-15 -2.91239468e-16
      2.89519488e-16 1.26288946e-16 -1.01865590e-15 -2.21246237e-16
      1.38198179e-15 -6.26155342e-16 -3.49537304e-16 -5.07694840e-17
      3.77156163e-16 8.05890439e-16 -2.89624970e-16 8.88849442e-17
      1.51237931e-16 5.70059262e-16 -4.93705224e-16 2.48017123e-16
      5.02970123e-16 7.83731263e-16 6.66791748e-16 -5.07038210e-16
      -2.92556604e-16 -4.55621987e-16 1.73794551e-16 -1.30413237e-15
      1.61375764e-16 9.59334587e-16 -1.55965320e-15 1.05996549e-15
      1.30680984e-15 2.41066397e-16 4.12194052e-16 1.08408687e-15
      1.19525335e-16 -2.87820596e-18 6.06721918e-16 -1.05469779e-15
      1.08382048e-15 -8.56431360e-16 -1.11495463e-16 -8.27217008e-17
      8.88727297e-16 -9.87046329e-16 -2.42573984e-16 3.35382530e-17
      -7.49081859e-17 -2.42560563e-16 -9.55141033e-16 1.61807500e-16
      -5.71147011e-16 2.84007950e-16 1.02754057e-16 2.93436115e-16
      8.61699058e-16 -1.19814293e-16 9.83590434e-16 -1.43333261e-16
      6.13333381e-16 2.03614981e-16 5.76888412e-16 -1.14901131e-15
      -1.27343103e-15 -8.78964607e-16 -1.19343300e-15 -1.55977824e-15
      -3.68878428e-16 -4.75428688e-16 4.82442491e-16 4.23245847e-16
      4.72380216e-16 3.52433389e-16 -3.81785543e-17 -1.62356830e-15
      -2.28822774e-15 -3.02115752e-15 -1.48891716e-15 5.94509066e-17
      1.44236275e-15 7.07268435e-16 7.34036529e-16 2.58857636e-16
      2.15748675e-16 -6.40436476e-16 -1.02717610e-15 3.66284443e-17
      -1.38353059e-15 -7.00873653e-16 -1.06479061e-15 -9.93533542e-16
      1.36773547e-16 -1.60935815e-15 -1.10957674e-15 -3.03543998e-15
      -1.83855383e-15 -1.87041167e-16 4.84372773e-16 -5.29210886e-16
      -1.27283037e-15 -1.31292449e-16 -1.15367518e-15 -4.26472619e-16
      -2.33942453e-15 -2.89426669e-15 -1.26810372e-15 -4.67283884e-16
      -1.55334037e-15 -1.46665092e-16 1.23717611e-15 -8.85489990e-16
      1.76161021e-15 1.08664226e-15 1.55046798e-15 -1.49389433e-15
      -1.30937519e-15 1.33834234e-15 -2.37753546e-16 7.37997308e-17
      -1.82291612e-15 1.33927238e-15 -1.04099206e-15 6.62247945e-16
      -3.25439693e-16 -1.04650423e-15 6.23302164e-16 5.16082775e-16
      -1.86457535e-16 -7.16722487e-16 9.79002163e-16 4.46626973e-16
      -7.33580296e-16 1.44406147e-16 -3.38149237e-16 6.41570442e-16
      -1.65361163e-17 1.48412168e-15 1.86258045e-17 1.99837476e-15
      -5.64218758e-16 5.75387416e-16 -3.34822219e-18 7.93180075e-16
      -3.73534482e-17 -1.36300296e-15 -3.25492342e-16 -3.17243141e-16
      2.07264579e-15 7.59423906e-16 -9.57769270e-16 -1.02227586e-16
      1.35255518e-16 6.80094135e-16 -5.65540764e-16 1.15039346e-15
      -2.04374187e-16 -3.48304660e-16 -5.32831846e-16 -5.96995809e-16
      -9.44102817e-16 1.02180570e-15 1.90689986e-15 -1.43982610e-15
      -1.35248292e-15 -8.72844370e-16 1.25547202e-15 -3.74035403e-16
      2.13026920e-16 1.37297603e-15 1.43193906e-15 -4.40398926e-16
      -1.22980258e-15 -1.94672989e-15 -1.32641315e-15 -1.58481717e-15
      -9.39066889e-16 5.17056810e-16 -1.05267910e-15 -4.42372168e-16
      1.67212774e-15 6.63515477e-16 -1.34679284e-16 -2.76427588e-16
      -1.98230409e-17 -7.11841460e-16 -3.43459313e-16 1.98850471e-15
      -5.71725640e-16 4.04570094e-16 -5.10120299e-16 -1.32041002e-15
      -4.14251971e-16 -9.60429483e-16 -8.31574861e-16 -1.46897991e-15
      5.76932722e-16 -1.20463999e-15 2.28514190e-16 -2.86611518e-16
      -1.94444396e-15 -2.19094389e-15 -8.04072548e-16 3.07419941e-16
      1.41852745e-15 3.79325653e-16 -6.64570735e-17 -8.71597151e-18
      -8.57865281e-16 -1.09263439e-15 -1.87023541e-15 -2.00480141e-15
      -9.10559783e-16 -1.95736100e-15 -1.26532344e-15 -2.80519498e-16
      7.26048002e-16 3.86111075e-16 -5.16578978e-16 4.02253406e-16
      2.42060470e-16 -3.49732439e-16 1.28640230e-16 -1.50721858e-15
      2.70491607e-16 2.30765577e-16 3.69015489e-16 6.26396693e-16
      1.55895599e-15 -6.87743213e-16 -1.00671263e-15 1.97944241e-16
      3.48283378e-16 4.57172428e-16 -3.60041049e-17 7.95990371e-16
      7.84009778e-16 -1.63604956e-16 -8.46757767e-16 1.91951880e-16
      4.16774568e-16 -6.19302898e-16 2.10945866e-16 2.60100392e-16
      -1.77017265e-15 -2.78814659e-16 -1.50373839e-16 6.20528979e-16
      8.48036615e-17 -1.89302004e-17 1.15250077e-15 1.62622184e-15
      -3.91015555e-16 9.37767911e-17 7.59681722e-16 -6.74246008e-16
      1.33051141e-16 -7.55008853e-16 8.71039767e-16 -2.10804200e-16
      4.17096573e-16 4.02906309e-17 -1.30430718e-15 -4.33271329e-16
      6.14812644e-17 1.43690764e-15 1.62988859e-16 -1.64373477e-15
      -3.58548848e-17 3.54493956e-16 -1.55606390e-15 2.20404405e-16
      -4.14904875e-16 5.19261584e-16 -6.10241075e-16 1.93152721e-16
      2.59479411e-16 6.11772987e-16 -6.48512988e-16 9.27837773e-16
      -2.62327983e-16 1.29103068e-15 -2.89103065e-16 6.88208552e-16
      -5.99891868e-16 1.06978948e-15 -5.52870217e-17 1.32410255e-16
      1.01407896e-15 6.67807817e-16 2.67867049e-16 -2.08269110e-16
      4.51494660e-16 -7.34495832e-16 -2.50694203e-15 1.19406221e-16
      1.24469967e-15 -1.21267229e-15 7.31936469e-16 1.47577227e-15
      -9.22288013e-16 1.24217084e-17 -1.31075712e-15 -2.89299974e-15
      -1.83547000e-15 -2.45147238e-15 5.16451393e-16 -8.31528221e-16
      4.94544898e-16 -1.13286485e-15 -3.99000164e-16 1.91826202e-16
      1.30166528e-15 2.16069396e-16 1.02000216e-15 5.90999451e-16
      -7.54492957e-16 5.84773283e-16 -9.74135535e-16 -1.39380807e-15
      4.91531737e-16 -1.51295979e-16 -6.38950357e-16 -9.61945354e-16
      -3.68475148e-17 -1.43825400e-15 1.17823352e-15 7.52552722e-16
      6.93755718e-16 -1.20657228e-15 -1.54228712e-15 -9.40564443e-16
      -1.18268807e-15 -4.44646663e-16 -1.28054769e-15 8.72197105e-17
      3.92257755e-16 2.87657101e-16 -8.49878554e-16 3.45524830e-16
      -1.56932854e-15 -1.63331817e-15 -2.65240299e-15 -7.12016584e-16
      -7.99486209e-17 -1.92476644e-16 2.67377649e-16 -2.18834879e-15
      -1.96598147e-15 -2.16323914e-15 -2.49645322e-15 -2.93246851e-15
      -1.76013055e-15 -8.46715892e-16 2.29374223e-17 2.47331185e-16
      -1.84771449e-15 -2.28170030e-16 5.14390900e-17 -1.64795586e-15
      -5.51491717e-16 1.48526526e-16 -7.78237672e-16 -1.49847085e-15
      1.00733298e-15 7.05284154e-16 -3.00799717e-16 -4.88547799e-16
      -1.50192992e-15 -1.10055393e-15 -1.21677172e-15 -2.34566081e-15
      -2.65743077e-15 5.25793743e-16 -7.21923852e-16 -1.55642018e-15
      -1.36147248e-15 -1.37717086e-15 -1.92540266e-15 -6.24022037e-16
      -1.56332477e-15 -7.62757881e-16 -3.81773208e-16 -1.04342336e-15
      -1.15217731e-15 -8.32826087e-16 -1.35804708e-15 -1.91843116e-15
      -3.30438966e-15 -2.02033303e-15 -1.18679353e-15 9.41681931e-17
      -1.53039224e-15 -1.31686730e-15 6.36046305e-16 -1.40051943e-15
      1.94412040e-15 -9.12710082e-16 -1.71435519e-15 -1.32774860e-15
      -2.62567641e-16 -1.67484111e-15 -1.34715243e-15 -8.14350287e-16
      -4.17569085e-16 1.46113528e-16 -4.47988579e-16 1.22990679e-16
      -1.60076871e-15 -1.44009643e-16 -3.88188662e-16 -1.07424414e-15
      1.33963491e-15 -6.55827859e-16 -9.35646464e-16 -2.08542873e-16
      1.46774462e-15 1.23750529e-15 1.17974452e-15 1.08510977e-15
      -8.38657485e-16 -1.68983412e-15 -2.17021501e-16 2.15231562e-16
      -2.43939480e-16 7.57638096e-16 -3.91997398e-16 1.44933531e-15
      9.09612059e-16 4.32831771e-16 -1.53817891e-17 -2.11745997e-15
      -1.01583031e-15 -1.11766381e-16 -4.62780792e-16 5.09560727e-17
      -3.05554880e-16 -2.71736110e-16 -1.09605206e-15 -1.98184362e-16
      4.06002537e-18 -9.84626991e-16 2.03674684e-16 4.68208685e-16
      -3.49764177e-16 -7.49113821e-16 -2.44689369e-16 -9.31304785e-16
      1.07395551e-15 7.15347064e-16 1.07753327e-15 9.41402264e-16
      1.32868500e-15 4.07764017e-16 6.62544883e-16 -4.23053200e-16
      1.33820893e-15 -1.27863872e-16 1.29349904e-15 1.15600071e-15
      -1.04435203e-15 8.12996914e-17 -1.18556703e-15 -1.41944003e-15
      -3.91395528e-17 7.54667816e-16 7.83034049e-16 -1.79092226e-16
      -4.47620437e-16 -1.67987343e-15 -3.26021129e-16 1.38080198e-15
      -8.19593844e-17 -8.33722784e-18 -1.54872933e-15 -1.95052481e-15
      -8.19516486e-17 -1.81761386e-16 -6.47156306e-16 -1.80428195e-16
      -3.34723333e-17 -4.28582425e-17 3.48795700e-16 -7.47913575e-16
      1.68762315e-16 -3.74149441e-17 -8.83310111e-17 1.12903880e-16
      -3.75924445e-16 8.41988972e-16 9.52178323e-16 6.79284425e-17
      6.46574924e-16 1.31938616e-16 -1.07070968e-15 -2.35948630e-15
      -4.89185932e-16 8.04370015e-16 -9.47644910e-17 -1.03455545e-15
      -1.96877668e-15 -9.80802531e-16 1.01441566e-15 -1.91561901e-16
      -6.43310459e-16 7.63597978e-16 9.60753261e-16 8.08872419e-16
      -4.15703548e-16 -1.00985523e-15 -1.36852869e-15 1.50987031e-17
      -4.36268237e-16 1.13951978e-15 -8.37134044e-16 -2.42676739e-16
      3.34593234e-16 9.09122792e-16 6.12725158e-16 1.12024512e-15
      -7.36028644e-16 1.95455910e-16 -7.02036312e-16 4.45869038e-16
      7.69342397e-16 2.25907790e-16 1.32782248e-16 -3.28057475e-16
      -9.42481808e-16 8.61831142e-16 9.79224932e-16 3.44794237e-16
      -1.72965425e-16 1.29498960e-15 2.37034229e-16 1.18065784e-15
      -8.02933342e-16 -1.11173935e-16 -6.45697451e-17 1.70795962e-16
      5.15106676e-17 1.72145333e-15 3.44398726e-16 3.46504847e-16
      9.90073519e-16 -1.53401097e-15 -8.29316141e-16 2.65288089e-17
      -1.99911422e-16 -3.85296918e-16 9.00961947e-16 3.11959138e-16
      -6.24925622e-17 -3.50442068e-16 -4.09821380e-16 3.79255799e-16
      -1.14732794e-15 7.32740145e-16 6.25360560e-16 2.11602250e-16
      3.50568683e-15 8.47565784e-16 8.20896157e-16 2.28908298e-16
      -2.16947531e-16 -2.88131518e-16 7.17941367e-16 -1.94248181e-15
      4.50307702e-16 1.10942491e-15 -1.26557067e-15 4.99274942e-16
      1.09666600e-16 -3.34896287e-16 -1.10068088e-15 -1.39810663e-16
      9.18210118e-17 -2.57573825e-16 1.79928983e-15 -1.52268016e-16
      -9.33387215e-16 -4.96297356e-16 -4.07267126e-16 2.51774319e-18
      1.11281219e-15 1.17838154e-15 1.46140884e-16 1.03739026e-15
      3.23066810e-16 -1.52882501e-15 -1.10306486e-15 7.90660919e-17
      3.89546747e-16 -1.86507867e-15 -7.99555904e-16 1.49349622e-15
      1.69233170e-15 8.48467398e-16 5.56409114e-16 1.34437957e-15
      1.11310145e-15 -6.63717124e-16 -3.34348442e-16 -1.47276332e-17
      -7.49008895e-16 -1.39422915e-15 -1.46287222e-16 3.06195760e-17
      -1.08986935e-15 -8.32229776e-16 -7.97811492e-16 9.82270294e-17
      8.34866325e-16 1.09869004e-15 1.07248580e-15 -8.36371714e-17
      -4.10969136e-16 6.00364671e-16 8.97824484e-17 3.63903188e-17
      7.67107395e-16 -1.22263277e-15 4.51288619e-16 -1.95637307e-16
      -9.33144858e-16 -3.52717886e-16 -4.77271726e-16 -2.34055479e-16
      5.37067011e-16 8.92988296e-16 1.52505476e-15 1.13564841e-15
      1.57406843e-15 4.92311643e-16 -3.86556138e-16 1.11933466e-15
      1.19938828e-15 -2.86685898e-16 2.10320465e-16 8.07131872e-17
      2.75826168e-16 1.32328887e-15 9.00995828e-16 -3.60834686e-16
      1.12559588e-16 -9.62521019e-16 -3.49138299e-16 -4.11637339e-16
      -2.82806910e-16 1.44171170e-15 1.57658401e-16 -3.46962529e-17
      -9.40867681e-16 -9.73116872e-16 6.28151905e-16 5.58960906e-16
      -1.78182632e-16 -1.49642569e-15 -6.96480464e-16 1.43284909e-15
      5.10761661e-16 5.87315070e-16 1.01302494e-15 1.21786836e-18
      1.00686669e-15 9.02104052e-17 -3.72218994e-16 -6.49820754e-16
      9.47755753e-16 3.13841642e-16 1.41388921e-15 -2.85387740e-16
      4.84221366e-16 -6.30295057e-16 -5.80564447e-18 -3.02778889e-16
      6.95563022e-16 6.75183409e-16 7.13018994e-16 3.28623664e-16
      2.15704259e-16 -4.00999929e-16 4.74787854e-16 -1.20692759e-16</_></support_vectors>
  <decision_functions>
    <_>
      <sv_count>1</sv_count>
      <rho>-4.0856207306205761e-14</rho>
      <alpha>
        1.</alpha>
      <index>
        0</index></_></decision_functions></my_svm>
</opencv_storage>
