<?xml version="1.0"?>
<opencv_storage>
<my_svm type_id="opencv-ml-svm">
  <svm_type>C_SVC</svm_type>
  <kernel><type>LINEAR</type></kernel>
  <C>8.8817841970012504e-16</C>
  <term_criteria><epsilon>1.1920928955078125e-07</epsilon>
    <iterations>1000</iterations></term_criteria>
  <var_all>1296</var_all>
  <var_count>1296</var_count>
  <class_count>2</class_count>
  <class_labels type_id="opencv-matrix">
    <rows>1</rows>
    <cols>2</cols>
    <dt>i</dt>
    <data>
      -1 1</data></class_labels>
  <sv_total>1</sv_total>
  <support_vectors>
    <_>
      1.12135158e-16 1.64119502e-16 -3.82453296e-16 -3.44646423e-17
      1.15122662e-15 1.00583720e-16 1.53368497e-15 1.68587614e-16
      5.58453004e-16 -2.36528365e-16 -7.12548203e-16 -3.78546489e-16
      1.41490726e-16 2.63077051e-16 -1.12401876e-15 4.66353947e-16
      -8.68797671e-16 1.10968717e-15 -4.96222923e-16 -1.02193540e-15
      -1.16378145e-16 6.99039668e-16 -4.93440429e-19 -2.97474530e-16
      -1.11448053e-15 -7.03120991e-16 -6.74112495e-16 1.47858431e-15
      -1.37198162e-15 5.55795280e-16 1.31619298e-16 -1.30757069e-15
      3.03646939e-16 2.58634946e-16 7.52261554e-16 -3.65928186e-16
      2.48351092e-16 6.07604791e-16 -2.63651234e-16 -7.69052077e-16
      1.20998646e-15 1.67355203e-15 1.76609440e-15 -1.10619739e-15
      -1.65975990e-15 8.80445221e-17 1.88494752e-15 -1.21977721e-15
      1.41793654e-15 -3.92137741e-16 -2.33158074e-16 -1.84269066e-16
      -3.95161649e-17 8.07946294e-16 1.37121727e-15 -1.22089953e-15
      1.29337092e-15 -6.29171679e-16 -8.69218758e-18 -4.49693398e-17
      1.65396757e-15 6.72506944e-16 2.34412365e-17 9.20809623e-16
      3.02259710e-16 2.23290246e-16 -5.30767203e-16 1.26076090e-15
      -6.08468394e-16 -3.59038393e-16 -1.03033734e-15 6.92513068e-16
      6.71228506e-16 -3.73755035e-16 5.18051869e-17 1.03191483e-15
      -2.27938138e-17 -2.20180974e-16 1.43784055e-15 1.80778205e-16
      -1.20642416e-15 3.19136948e-16 -5.73955084e-17 -4.72397686e-16
      7.00208389e-17 1.62984820e-15 1.02565758e-15 3.67565765e-16
      2.00578765e-16 2.49865804e-15 1.07655463e-15 -4.93990462e-16
      1.05436025e-15 -5.84209847e-16 -7.49640570e-16 -3.66802853e-16
      5.87870723e-16 9.25871174e-16 1.57971507e-15 -9.05128608e-16
      4.44541155e-16 2.17448062e-16 -2.01508545e-15 -5.25137134e-16
      -1.94909312e-15 5.82313181e-16 5.22715361e-16 -6.80404149e-16
      5.74261763e-16 5.30441148e-16 6.89544482e-16 3.85950007e-16
      -1.08946998e-15 2.02527547e-15 -4.46094666e-16 -6.39886858e-16
      -3.83051036e-16 -5.19947257e-16 -7.33685645e-16 1.15265959e-15
      -1.13767526e-15 -8.98959032e-16 -3.64999202e-16 8.18066432e-16
      -4.58865753e-16 -3.61499342e-16 1.67880289e-15 3.66492072e-16
      1.62218128e-15 3.66016463e-16 -5.44828321e-16 1.25769114e-15
      1.57902177e-15 8.52875251e-16 -3.11441680e-16 -9.36934166e-16
      -3.21172738e-16 -2.99097094e-17 -1.41881682e-15 -1.40240042e-16
      4.32015549e-16 2.36020119e-16 -3.61732540e-16 2.13212513e-16
      1.45148275e-15 4.21301006e-16 1.28181411e-15 5.62165020e-16
      1.64844290e-15 8.20682864e-16 1.31947330e-15 2.38242284e-16
      6.57974346e-16 5.41272212e-16 -3.89576366e-16 -4.91407620e-17
      3.65954795e-17 1.03471628e-15 4.50516602e-16 2.99881242e-16
      -4.45704290e-16 -1.44530754e-16 5.21432424e-16 5.41718704e-16
      -8.52623047e-16 -6.47345248e-16 5.18112213e-16 3.29596071e-17
      6.28996608e-16 -1.13426751e-16 -4.24023026e-16 -3.93790514e-16
      -1.12658834e-15 -3.11534880e-16 -2.63417506e-15 -1.19233196e-15
      8.24712769e-17 1.14105142e-15 1.65536790e-17 2.88766870e-18
      9.23041912e-17 -3.24538159e-16 -5.46084629e-16 -1.88299951e-16
      2.36901351e-16 9.02146417e-16 1.71886490e-15 -1.82653549e-15
      1.25927573e-15 8.37721210e-17 -5.30976897e-16 -5.66794479e-16
      -2.37336752e-16 2.07764286e-15 1.52891289e-15 -2.76687627e-16
      -1.44548279e-15 -6.20265498e-16 1.07141336e-16 4.38732785e-16
      8.61738392e-16 2.46390899e-16 2.11495829e-16 7.96004241e-16
      4.71477226e-16 -6.04257476e-16 -9.29941591e-16 6.62465156e-16
      -1.97941515e-16 3.15996659e-17 -7.02509274e-16 -5.49459314e-16
      -1.30521795e-15 2.92695941e-16 3.31283665e-16 -8.00040512e-16
      1.71174061e-15 9.48804168e-16 -3.56703203e-16 2.94499989e-17
      7.23184290e-17 4.77714671e-16 2.35967561e-15 -1.25829328e-15
      4.95903314e-17 -1.48656254e-16 3.10099053e-16 -1.21679650e-15
      2.77257812e-16 4.47311383e-17 -1.27086666e-16 -9.35219599e-17
      -2.91777903e-17 -2.75109386e-17 6.37924377e-18 1.32542106e-15
      2.75825506e-16 5.49452591e-16 -8.95643850e-16 -1.99325315e-16
      6.80284135e-16 -3.17302115e-16 -1.30013279e-15 7.71581952e-16
      2.53696612e-16 1.15903796e-15 4.03040326e-16 1.70174822e-16
      -2.59102693e-16 1.07749198e-15 -5.32319867e-16 -5.68813064e-16
      3.85194268e-16 9.94203267e-17 -3.46257804e-16 7.00478724e-16
      4.78831696e-16 4.61893121e-17 4.92862108e-16 2.28613875e-16
      9.83957411e-16 1.07140414e-15 -4.62197980e-16 -1.33443423e-15
      9.34963649e-16 -4.21484336e-16 -1.18465689e-15 -4.04908483e-16
      -5.32722949e-16 2.37878615e-16 1.36999175e-16 -8.17783682e-16
      -1.69208744e-15 -7.40208434e-16 -1.78868689e-15 7.58193273e-16
      6.26904278e-16 1.45878206e-15 -2.27475648e-16 -1.58324868e-15
      -2.69533486e-15 -2.35644608e-15 -5.06541743e-16 -5.10773626e-16
      -1.19666843e-16 -9.40686627e-16 -2.07398855e-15 -1.40437099e-15
      -1.78165651e-15 -9.48004357e-16 -9.12587156e-16 -2.12332922e-16
      -3.87650293e-16 -1.03859236e-16 -8.90056398e-16 3.94300024e-17
      -2.21200134e-15 -2.43401355e-15 -2.06065773e-15 -8.35358583e-17
      -3.29811310e-16 -6.14415359e-16 -1.81200253e-15 -1.21546147e-15
      -1.72324914e-15 -1.68437436e-15 -6.95319553e-16 -1.86118338e-15
      -8.87091200e-16 6.73888666e-16 -1.49933864e-17 2.70717394e-16
      9.10712249e-16 5.53749589e-16 1.11767612e-16 -1.42939129e-15
      -8.47605753e-16 -9.18511622e-16 -1.92643178e-16 1.42804376e-15
      -2.36387626e-15 -1.05811345e-15 -1.42057208e-15 -1.22336524e-15
      -1.13058114e-15 -4.51434097e-16 4.42563704e-16 -1.80583639e-16
      1.39804058e-15 -1.96652331e-17 1.33039309e-16 -7.04006775e-16
      -2.16768521e-15 -2.10122341e-15 -1.79690141e-15 -6.46039811e-16
      -1.69793535e-15 -2.46290182e-16 -1.79657721e-15 -2.60365604e-15
      -2.15624307e-15 -4.33762269e-15 1.02236803e-15 -9.20050787e-16
      -1.64917548e-15 -6.05236222e-16 6.30888456e-16 -9.46983153e-16
      -5.12007647e-16 -2.93199862e-15 -5.24653584e-16 -5.09013756e-16
      -1.38956062e-15 -4.76822216e-16 -1.75640392e-15 -2.71838654e-16
      -1.93630398e-15 -1.58038719e-15 -1.65046170e-15 -3.42796754e-15
      6.02077901e-16 5.74148313e-16 2.41417228e-16 -1.24315585e-16
      -5.71797995e-17 -6.72566236e-16 -1.35205728e-15 -1.55981890e-15
      -1.02666566e-15 -4.45797781e-16 -8.15923386e-16 3.04733708e-16
      4.44683774e-16 1.36643842e-15 1.37917081e-15 -1.93682596e-15
      -1.21310629e-15 -5.64425301e-17 -6.23574962e-16 -1.56929932e-15
      -1.46104618e-15 -6.44070036e-16 -8.02214899e-16 -1.01045663e-15
      -1.61259467e-15 -1.56848998e-15 -1.23139299e-15 -8.83147415e-16
      -1.27320423e-15 2.40187098e-16 4.18243773e-16 -3.23806270e-16
      -4.36583386e-16 -6.58327930e-16 -1.64652797e-15 -5.18759472e-17
      3.71597721e-16 -5.12412476e-16 4.43490331e-16 -6.28219032e-16
      1.96253913e-15 4.71917895e-16 2.04123294e-16 1.24159805e-15
      -1.46034092e-16 -3.13502908e-16 2.85733780e-16 1.71175448e-15
      -1.66657054e-16 1.73695223e-15 9.58041697e-16 2.94956751e-16
      -1.66314030e-15 7.54689151e-16 9.24637153e-16 6.30521334e-17
      6.83504872e-16 -1.19900362e-15 4.17104858e-16 -5.21731691e-16
      1.38109548e-15 5.46614131e-16 -1.64952678e-16 3.32128865e-17
      3.11147786e-16 -1.70725827e-17 1.55044650e-17 7.65877291e-16
      -7.74773149e-16 -9.90202797e-16 -6.93574241e-16 8.61043084e-16
      2.79412717e-16 2.48104871e-16 -3.53888777e-16 -5.24443837e-16
      1.44830680e-15 -7.68816443e-16 2.65166867e-16 1.80689581e-17
      -1.07118825e-15 -4.25089943e-16 -5.18718689e-16 6.78828827e-16
      4.65643710e-16 1.09360127e-15 7.09909483e-16 -1.09407127e-15
      -1.30770897e-15 -2.33344935e-15 -7.56600639e-16 3.81393737e-16
      1.25002168e-15 1.35768727e-16 4.35072650e-16 6.82649898e-16
      2.57438575e-15 1.20447376e-15 -1.50023670e-15 -5.01964218e-16
      6.83027318e-17 -6.16955294e-16 4.78951974e-16 -1.49712004e-15
      -1.11446772e-15 -2.45769680e-16 -9.85043202e-17 -9.18611149e-16
      8.87369996e-18 -1.01557885e-15 -2.61500353e-15 -3.16968898e-15
      -2.22401862e-15 -1.52109848e-15 -1.31978824e-16 -1.05229942e-15
      -3.15237473e-16 1.08089008e-16 -2.51274420e-15 -3.98127212e-15
      -1.90083638e-15 2.23637000e-16 -1.22499609e-15 -2.16239107e-16
      2.01658150e-16 -3.29149856e-16 -3.87961922e-16 -9.54379338e-16
      -1.94513472e-15 -3.57691892e-15 -3.26400271e-15 -3.23835900e-15
      -9.04158649e-16 -7.90497468e-17 1.20002895e-15 9.54314752e-16
      -2.67116896e-16 -3.12890794e-16 -7.44218023e-16 -3.42483055e-16
      2.68020432e-17 -4.24280292e-18 5.28584134e-16 9.72269151e-17
      -6.23378715e-16 1.07523135e-15 -3.29389064e-16 -1.18485404e-15
      6.02624555e-16 1.30646446e-15 1.65408615e-15 1.13996913e-15
      -6.66598121e-17 1.13920045e-15 2.99890506e-16 -6.43178163e-16
      -4.77515406e-16 -8.46968427e-17 -6.10755701e-16 -4.92901495e-16
      6.92687451e-16 1.04046073e-16 -8.68342285e-16 -1.73266333e-16
      6.46851110e-16 -6.29212866e-16 -2.90898775e-17 -2.86371966e-16
      1.88011850e-17 -2.08867168e-16 -1.40867932e-17 9.74001810e-16
      1.01140858e-15 1.07644917e-16 9.23205363e-17 1.93625591e-15
      -1.17300977e-15 -7.27878546e-16 8.65985998e-16 -1.67566556e-16
      4.97398128e-16 2.78958654e-16 -5.00656452e-16 1.83061859e-16
      1.46939930e-15 -1.39667541e-16 -3.04051370e-16 3.25672363e-16
      2.85475541e-16 9.24661505e-16 -6.63941005e-16 4.39358028e-16
      1.53415931e-15 1.07576160e-15 -1.14260584e-15 -3.11779514e-16
      -5.53129091e-17 7.07725197e-16 1.23494042e-16 2.95838380e-16
      1.31364402e-15 -8.79444875e-16 2.06016815e-15 -6.39008008e-16
      1.50210441e-15 1.60014942e-15 2.11996507e-15 2.60911506e-16
      -1.57758841e-16 -5.77382708e-16 -1.52312226e-15 3.32350212e-16
      -8.33192323e-16 -1.78701188e-15 -2.04383163e-15 -6.29992772e-16
      1.84240275e-15 3.97107125e-16 3.25291939e-16 -1.05699812e-16
      1.84973387e-16 -2.81962424e-15 -2.70482840e-15 -8.52821306e-16
      1.42723421e-15 -6.24073335e-16 -1.06476859e-15 1.25059872e-15
      -1.37051223e-15 2.95094976e-16 -2.36643599e-15 -2.73855599e-15
      -2.01900997e-15 -3.13859952e-17 -2.68202104e-16 8.20335898e-16
      -9.92589604e-17 -3.93949465e-16 -2.89921167e-16 5.48811334e-16
      1.70167225e-16 1.52557643e-15 6.69731587e-16 1.45804218e-15
      -4.09947165e-16 -1.34071202e-15 -2.15202103e-15 -1.87480790e-15
      -2.50210568e-15 -4.25652876e-16 -2.85598546e-16 -1.91441347e-15
      -8.17650367e-17 -6.48306418e-16 6.37763929e-16 -5.47089581e-16
      5.60222033e-16 -6.57093750e-16 -1.05839604e-15 3.74147873e-16
      1.71240585e-15 -8.75372182e-16 -7.85111186e-16 4.69194684e-16
      1.05055654e-15 1.32862623e-15 -4.55761198e-17 -6.07837249e-16
      7.72769281e-16 1.51628501e-15 9.06322143e-17 -3.09115224e-16
      5.18942041e-16 3.92886756e-16 6.28937369e-16 -2.48788717e-16
      1.37485438e-16 1.80189340e-15 1.44666705e-15 -2.48611158e-16
      2.51003656e-16 8.30816501e-16 -6.01370681e-16 7.41102266e-16
      2.50675483e-16 -3.33877386e-16 -4.88209356e-16 1.04799638e-15
      -7.39852680e-16 3.72855539e-16 5.78363361e-16 6.99351059e-16
      1.00650225e-15 -9.23911034e-16 2.72261218e-16 1.55006579e-16
      1.21714518e-16 -5.57742979e-16 1.35796132e-15 1.31564577e-15
      -5.79693679e-16 -1.95110665e-16 2.80054801e-17 8.02256880e-16
      -7.03094150e-16 -4.48915233e-16 -7.49413141e-16 -9.41092647e-17
      5.54157171e-16 -5.70349370e-16 -4.56708413e-16 -3.45251715e-16
      6.41379012e-16 6.10002053e-16 -8.09567290e-18 -1.45680074e-15
      4.43654603e-16 1.08287604e-15 3.20156087e-16 -8.85772317e-16
      -4.09823074e-16 2.49635353e-16 2.42160113e-15 -2.27461301e-16
      7.47956933e-16 9.29066712e-16 -2.04144258e-16 -1.22358674e-15
      -2.77364051e-15 -3.61590996e-15 -1.63810338e-15 5.06145861e-16
      1.66152437e-15 1.86858623e-15 7.66776787e-16 1.39146327e-15
      3.50163156e-16 -1.74005409e-16 -3.73278341e-16 -5.26390849e-16
      -5.85398816e-16 -6.38090248e-16 -1.04586056e-16 -4.95000496e-16
      -1.29157807e-15 -1.53005374e-15 -5.50335041e-16 -1.20878028e-15
      -2.80351494e-15 -1.67022086e-15 -3.03320725e-16 7.54751461e-16
      -1.77392893e-15 4.04596431e-16 -9.00176324e-16 -1.65771463e-15
      -2.97163743e-15 -2.21678475e-15 -7.18430582e-16 1.28777079e-16
      -7.00102218e-16 2.87803293e-16 8.99435593e-16 -1.81637470e-15
      1.77172505e-15 6.48764438e-17 1.39256240e-15 -7.61964687e-16
      -1.40842547e-16 2.22590365e-17 5.74229774e-17 2.91122656e-16
      -8.91240338e-16 5.92659583e-16 -1.89818538e-15 9.52229251e-16
      -3.26155119e-16 -1.14245411e-15 1.00957952e-15 5.65661414e-16
      1.10557832e-15 7.28345420e-16 -5.43660388e-17 3.12991221e-16
      -1.33030548e-16 7.29476844e-16 6.94311716e-17 1.53716077e-15
      1.19451731e-15 3.29118410e-16 5.30559045e-16 2.32169550e-15
      4.54620053e-16 8.04487118e-16 -3.34451912e-16 1.69329149e-15
      -1.99639975e-16 -7.34124885e-16 -6.49546819e-17 -7.39878621e-16
      9.17134241e-16 -5.16235347e-17 3.46037126e-16 1.18301293e-16
      1.25974223e-15 5.08176728e-16 2.94081443e-18 -4.50275144e-16
      7.64229812e-16 -1.09921022e-15 -1.13861779e-15 -1.04272403e-15
      -1.64013372e-16 2.44115806e-15 5.63756013e-16 -1.15688829e-15
      -2.95655130e-17 5.68667481e-16 1.52215293e-15 -1.00539857e-15
      1.63651365e-17 2.76341879e-16 -1.97398051e-16 -1.68230611e-15
      -1.66876682e-15 -1.45732707e-15 -1.66924338e-15 -9.34407254e-16
      -7.72711788e-16 -2.03871698e-16 -1.13322627e-17 5.35725999e-16
      2.68027456e-16 -2.22261075e-16 2.44488384e-16 5.87698511e-16
      7.24985452e-16 -1.34838815e-15 -9.68545329e-16 9.45006284e-16
      -1.41892802e-16 7.23788383e-16 9.65070800e-16 -3.63263658e-16
      -1.23883503e-15 -3.02057794e-15 -1.39207419e-15 -6.31746659e-16
      2.50145532e-16 -1.37346795e-15 9.05548945e-18 -9.98037005e-16
      -1.99179543e-15 -2.85824640e-15 -1.90984478e-15 4.31549152e-16
      1.93239640e-15 8.88713321e-16 -2.29750990e-16 3.90408788e-16
      -9.30091304e-16 -1.67788142e-15 -2.63598432e-15 -1.46001544e-15
      -1.48852731e-15 -7.00240179e-16 -2.80189235e-16 -1.57398023e-15
      -5.54584181e-16 7.28989589e-16 -2.07389611e-16 -3.54146910e-16
      4.34260690e-16 -4.14385273e-16 -4.41023189e-16 -1.88178428e-15
      -2.11710644e-16 4.33673352e-16 -9.88026875e-16 -7.12007160e-16
      1.97850273e-16 4.86241952e-18 -6.26960976e-16 -2.57520542e-16
      -1.02973975e-15 3.76756470e-16 1.86196470e-17 3.83462350e-16
      -6.43443086e-17 3.75150098e-16 1.33824125e-16 -4.58709740e-16
      -8.68717097e-16 -1.73628837e-16 -5.26141662e-16 -2.12668360e-16
      -2.46420159e-15 -2.25114543e-16 1.04989932e-16 2.65061358e-16
      3.49159792e-16 8.22732578e-16 3.38191351e-16 -1.67716477e-17
      1.15849279e-16 8.33023446e-16 5.23107643e-16 -2.65879063e-16
      1.91876944e-16 -3.62183638e-16 5.04703523e-16 2.45383513e-16
      8.64269075e-17 -1.88897532e-16 -5.24296189e-16 -1.05396998e-15
      -1.10700081e-15 3.06430527e-16 -5.41103705e-16 -5.31917211e-18
      5.02466985e-16 -2.24722367e-16 -2.57045012e-16 2.10730084e-17
      -4.09087334e-17 -3.50409722e-16 -1.44131889e-15 -6.67420511e-16
      -4.76721048e-16 1.01570717e-15 2.35267818e-17 5.39100948e-16
      -6.15391565e-16 5.73382331e-16 -2.68076902e-16 2.87680288e-16
      5.07744795e-16 9.45130943e-17 2.48320123e-16 -2.12619669e-16
      2.59074662e-16 4.92468608e-16 -3.28623134e-16 1.40335593e-15
      -2.02801327e-16 -1.57075801e-15 -1.78165143e-15 -1.59645739e-16
      1.35764262e-15 -8.85890584e-16 -9.36586141e-16 5.49318230e-16
      -3.81177505e-16 6.69532111e-16 -1.74970865e-15 -2.30615329e-15
      -1.65233258e-15 -2.63497254e-15 9.35051780e-17 -7.56012428e-16
      1.48109230e-16 -3.13068354e-16 2.24974757e-16 -8.47755625e-16
      3.68884357e-16 7.01727569e-16 4.25314063e-16 -3.20446646e-16
      7.65390618e-16 -4.63466253e-16 -1.46142724e-15 -1.19776579e-15
      -1.30341721e-16 2.25576600e-16 1.07371313e-16 -2.53669665e-16
      -1.42074954e-15 -1.46831033e-15 1.03378645e-15 4.01754715e-16
      1.16490091e-15 -3.42330192e-16 -8.73711256e-16 -1.95667385e-15
      -1.79970530e-15 -2.06728047e-15 -1.46529775e-15 -3.26717443e-16
      9.54479606e-16 -3.87532635e-16 9.54357951e-16 -7.09195329e-16
      -3.56696903e-16 -2.11988566e-15 -1.69945366e-15 1.25619208e-16
      -7.22598460e-16 -2.29417434e-15 -3.48224536e-16 -4.70019694e-16
      -1.79787232e-15 -2.81170745e-15 -2.00727771e-15 -3.17788741e-15
      -1.70162640e-15 -4.45998263e-16 -1.23116861e-16 -1.01125464e-15
      -8.18569146e-16 -1.69879880e-15 1.65979984e-16 -1.77686739e-15
      -1.22769993e-15 4.57929569e-16 -3.43365690e-16 -1.14629445e-15
      7.96555448e-16 6.07169595e-19 6.89984833e-16 -2.13033127e-16
      -6.73954555e-19 -2.39630174e-15 -2.33686925e-15 -1.58796792e-15
      -2.32917988e-15 1.33513155e-15 -5.09413397e-16 -2.91837314e-16
      1.30713476e-16 2.58937390e-16 -1.61076635e-15 -8.17619305e-16
      -8.38244451e-16 5.11028424e-16 1.72035123e-15 -3.94080226e-16
      -3.94651867e-16 -2.19554836e-15 -1.40651398e-15 -1.65366825e-15
      -1.02784526e-15 -1.88311539e-15 -3.44225322e-16 2.56797943e-16
      -7.12959596e-16 -1.09144939e-15 2.44866214e-16 -2.55861993e-15
      5.32496103e-16 -5.19612692e-17 -1.66905862e-15 -1.28050428e-15
      -1.34280938e-15 -7.59122892e-16 -1.15326892e-15 -4.54304162e-16
      -1.10322336e-16 -1.11089589e-15 -7.84493487e-16 -1.16787124e-15
      -9.08204079e-16 -4.56685754e-16 -3.69640122e-16 -5.46850559e-16
      8.44721659e-16 -2.41608445e-16 -4.21485130e-16 -2.85010837e-16
      2.60597548e-16 2.73866239e-16 4.46936405e-16 6.67423846e-16
      4.42402496e-18 -7.00986838e-16 2.00779221e-16 -6.63752885e-17
      -1.77898899e-15 -4.45277174e-16 2.26634306e-16 1.17409683e-15
      1.28527271e-16 2.67126689e-16 3.61947316e-16 -1.07540309e-15
      -2.73066640e-16 6.08515351e-16 -1.50978604e-15 -6.61030931e-17
      -9.40292863e-16 -9.18485470e-16 1.63067779e-16 4.35333589e-16
      -1.60253128e-16 -5.70317024e-16 -1.79960984e-17 6.51519902e-16
      9.77367177e-16 3.07681806e-16 -2.31035992e-16 -8.58456881e-16
      -6.36239587e-16 -7.33748220e-16 1.28874485e-15 9.83406522e-16
      2.02510225e-17 -3.35003950e-18 1.24392093e-15 -3.93875006e-16
      1.10591417e-15 -4.71267797e-16 8.07390323e-16 -3.88434958e-18
      -8.21230788e-16 -8.34952934e-16 -1.32449123e-15 1.41745945e-15
      -6.29101362e-17 4.20530550e-16 -8.12050116e-16 -6.49026237e-16
      5.76650965e-17 -4.18595000e-16 1.81455527e-16 1.23837255e-15
      1.07798929e-15 4.26356598e-18 -1.90390401e-16 9.34596672e-16
      -1.98771673e-16 6.11188111e-16 -2.62504272e-16 -9.37784163e-16
      3.18138534e-16 1.01662019e-16 2.80591072e-16 -4.89256659e-16
      7.49297680e-16 3.76651001e-17 -2.89664277e-16 2.41583643e-16
      -8.39023139e-16 -6.73489330e-17 4.67911535e-16 -5.10846735e-16
      2.79229917e-16 -8.03928566e-17 6.97916503e-16 -1.34947585e-15
      -2.18377098e-16 7.48745044e-16 2.12826054e-16 -9.87628505e-17
      -6.68989322e-16 -6.83745509e-17 -2.98668846e-16 -6.10771238e-17
      1.14775865e-15 3.92097348e-16 9.07454243e-16 6.81478928e-16
      -4.42858921e-16 -7.59526768e-16 2.06738137e-16 1.27492128e-15
      1.41038609e-15 9.83753065e-16 -6.16550730e-16 7.00327582e-16
      -4.31473289e-16 1.63119805e-16 4.30727715e-16 1.31215610e-15
      -5.42054129e-16 1.80248744e-16 -1.30996650e-16 -1.73059618e-16
      1.62608462e-16 2.15049277e-16 -1.19988909e-15 5.29317983e-16
      -6.22094084e-16 1.52137906e-15 1.54036351e-15 7.15180199e-16
      8.67470741e-16 3.13092679e-16 8.74565965e-16 3.64893720e-16
      -1.33685452e-15 8.46860682e-16 -4.12153183e-16 -1.50115917e-16
      1.02922259e-16 1.74969775e-15 1.45137476e-15 -3.24315522e-16
      -1.25201073e-15 -1.80136125e-15 -3.90884238e-16 -3.50192299e-16
      8.05426848e-16 3.86944079e-16 5.80053456e-16 1.79768211e-16
      -1.28230349e-15 -3.04110107e-17 -3.87945510e-16 7.79310546e-16
      1.59214626e-16 5.27743984e-16 5.88730356e-16 -3.66418512e-16
      2.30621343e-15 1.34505867e-15 -1.78826602e-16 -5.94281492e-16
      7.65622917e-16 -5.39770846e-16 7.21911834e-16 -9.49637754e-16
      1.29623474e-15 2.10259240e-16 -1.77909530e-15 1.11824189e-15
      -5.19538987e-16 -2.13119326e-16 4.35870846e-16 1.22544333e-16
      4.65942078e-16 -1.39341070e-15 1.57349764e-15 2.74670180e-16
      -3.14580837e-16 -7.64074117e-16 -3.12034365e-16 4.91923119e-16
      5.52341556e-16 -1.80129206e-16 3.66348155e-16 -7.92273644e-16
      -4.08239738e-17 -2.26127452e-15 -7.73385550e-16 8.00446876e-16
      -2.36709578e-16 -3.54565715e-16 6.15386509e-17 1.20928469e-15
      9.05526501e-16 7.28821559e-16 1.50858813e-15 7.64299163e-16
      6.62731125e-16 -1.92829393e-16 3.12388266e-16 -2.02388972e-15
      2.41153175e-17 1.58477112e-16 -4.26646624e-17 1.12510010e-15
      -1.07721436e-15 6.94924835e-16 -4.90469134e-16 -3.77942845e-16
      4.13145905e-16 4.73663736e-16 9.18946574e-16 -1.35240520e-15
      5.12710102e-16 -9.23973714e-16 9.98915696e-16 -1.07974085e-15
      4.44709291e-16 -1.17640901e-15 -1.23240816e-15 -3.63516207e-16
      4.85741049e-16 -1.09167216e-15 -5.76225238e-16 3.18453352e-17
      6.61128591e-16 1.70901404e-16 4.94172045e-16 2.38977376e-16
      -2.67966417e-16 8.61267759e-16 -1.69000927e-16 3.95457051e-16
      1.77205635e-15 -6.01755605e-16 -2.62392040e-16 -2.12795819e-17
      -1.46174620e-16 6.50788053e-17 1.05192641e-15 -8.60803903e-16
      -5.47116210e-16 1.20684418e-15 -9.66899293e-17 -6.68862849e-16
      -3.13988946e-16 7.28434623e-16 -8.54589963e-16 -7.03153350e-17
      -9.10273274e-16 -1.35819436e-15 3.29291417e-16 3.22444638e-16
      1.23098409e-15 -5.33231540e-16 5.41342674e-16 7.46604380e-16
      -5.15579479e-16 8.73302562e-16 7.36843543e-16 -1.37279159e-17
      -6.01377881e-16 -5.28115196e-16 2.87935907e-16 -1.75883467e-16
      1.22714343e-15 3.72870124e-16 9.75637748e-16 -1.05842400e-15
      -1.01513182e-15 -1.26373313e-15 -6.27483437e-16 5.60082643e-16
      -5.10190692e-18 8.70511589e-16 8.57621653e-16 4.98608962e-16
      4.48282923e-17 1.31871516e-16 1.39681662e-15 9.66898591e-16</_></support_vectors>
  <decision_functions>
    <_>
      <sv_count>1</sv_count>
      <rho>-3.7192471324942744e-14</rho>
      <alpha>
        1.</alpha>
      <index>
        0</index></_></decision_functions></my_svm>
</opencv_storage>
