<?xml version="1.0"?>
<opencv_storage>
<my_svm type_id="opencv-ml-svm">
  <svm_type>C_SVC</svm_type>
  <kernel><type>LINEAR</type></kernel>
  <C>8.8817841970012504e-16</C>
  <term_criteria><epsilon>1.1920928955078125e-07</epsilon>
    <iterations>1000</iterations></term_criteria>
  <var_all>1296</var_all>
  <var_count>1296</var_count>
  <class_count>2</class_count>
  <class_labels type_id="opencv-matrix">
    <rows>1</rows>
    <cols>2</cols>
    <dt>i</dt>
    <data>
      -1 1</data></class_labels>
  <sv_total>1</sv_total>
  <support_vectors>
    <_>
      6.53078178e-16 1.11896282e-16 7.51489801e-16 6.61173802e-16
      -9.39263189e-17 1.52616395e-15 1.76261246e-15 -2.01108796e-16
      1.54274213e-16 -1.20233087e-15 1.24762670e-15 -1.95839285e-16
      -1.12348322e-15 1.03425092e-16 -3.45057982e-16 3.47689105e-16
      -1.88854162e-16 -2.40883862e-16 3.29855461e-16 -3.68436250e-16
      -5.56048384e-16 6.07910729e-16 -4.60833463e-16 -6.32501789e-16
      -1.30406842e-15 -8.83308721e-16 -9.76617765e-16 9.30155149e-16
      -2.28499801e-15 1.17991594e-15 -3.23146113e-16 -9.39119524e-17
      5.59584058e-16 7.64206307e-16 6.93025470e-16 1.48988304e-16
      -6.82283186e-16 -1.59681606e-16 -1.56741448e-16 7.52970150e-16
      2.03069902e-15 8.81824243e-16 1.67034770e-15 5.48620699e-16
      -7.63211943e-16 9.72183018e-16 -9.23324675e-16 -6.81072141e-16
      -2.36210860e-16 2.16396505e-15 -8.25219268e-17 -1.20200037e-16
      4.17399255e-16 3.19243277e-16 7.48250589e-16 -8.81934940e-16
      1.86419310e-15 -6.28362869e-16 -1.61727468e-16 -2.89415276e-16
      5.96361487e-16 -3.52955373e-16 -1.64871032e-16 1.10223445e-15
      2.89958542e-16 8.75448944e-16 1.17210640e-15 1.36963057e-15
      -1.14603632e-15 -3.78016325e-16 -7.76865691e-16 -7.13413765e-16
      5.17369683e-16 -8.92350904e-16 -7.50605764e-16 8.76316729e-16
      1.14193356e-16 2.92320149e-16 2.01521357e-15 -5.08360905e-16
      4.92056097e-17 -7.13807264e-16 -5.38898508e-16 8.72960255e-16
      6.50310816e-16 1.75383540e-15 6.25270987e-16 -5.51398014e-16
      -1.77959068e-16 1.78178187e-15 1.07010469e-15 -2.08637026e-16
      2.38448266e-15 -4.73332969e-16 -8.62328404e-16 2.49340146e-17
      9.00334295e-16 1.82642009e-15 1.10746572e-15 -4.72255967e-16
      2.80618574e-16 7.45125619e-16 -1.76678060e-15 -4.42022754e-17
      -8.75879025e-16 3.19159103e-16 -9.97432051e-17 -5.62893469e-16
      -1.14048995e-15 -7.09317354e-16 -6.88600040e-16 -1.03220346e-15
      5.57583856e-17 9.99228251e-16 8.34132635e-16 9.31914582e-17
      -1.31143348e-15 -4.93195839e-16 -2.25505502e-16 2.43082124e-16
      -1.47347840e-15 -1.14322544e-15 -1.60145025e-16 8.01853375e-16
      -3.74042437e-17 6.28678812e-16 1.66995457e-16 -1.47264460e-16
      1.03782945e-15 -1.67234135e-16 -7.33229637e-17 9.42943653e-16
      1.08834713e-15 1.04480455e-15 -7.01845875e-17 -9.24638529e-16
      1.70013856e-17 1.20358392e-16 -7.25945088e-16 -6.37922059e-16
      -2.99117033e-16 -1.54776403e-15 -5.44519154e-16 -6.15278843e-17
      -2.40762233e-16 6.01629900e-17 4.39937630e-17 9.26809369e-16
      5.44340377e-16 1.77422803e-16 7.27706440e-16 7.62902035e-16
      -4.51784716e-16 -4.10669684e-16 5.23418663e-16 -1.99884502e-16
      -7.90860581e-16 -4.03140884e-16 -1.54644155e-16 -1.90470949e-16
      -1.69129941e-16 -1.17164520e-15 -4.67949762e-18 3.64088212e-17
      -2.53876977e-16 9.12325026e-17 3.21811639e-16 -8.89972819e-17
      5.37539179e-16 1.86946101e-16 7.78839225e-16 4.10090366e-16
      -5.39660890e-16 2.38098050e-16 -1.43579496e-15 -6.03948838e-16
      -6.90236031e-16 4.80789533e-17 8.67412242e-16 -1.01897894e-15
      2.76762298e-16 -4.91886961e-16 -2.74821511e-17 -1.41229604e-15
      4.68246219e-16 9.74744658e-16 1.33925523e-15 -6.16433892e-16
      8.21133525e-17 -2.03347623e-16 -2.12412967e-16 -6.61201913e-16
      -2.63325391e-16 1.79148252e-15 2.90973155e-16 4.60964224e-16
      -1.46137091e-15 -9.13413755e-16 9.76849852e-16 1.04810692e-15
      5.51276677e-16 5.84825375e-16 4.64899856e-16 6.95446819e-16
      7.46185403e-17 -6.47865167e-16 -2.72425966e-16 1.38525695e-15
      -1.05993373e-15 4.78891623e-16 -1.77316628e-15 1.26136991e-15
      -5.61781685e-16 9.80382615e-16 8.03764863e-16 -7.27847471e-16
      2.80839253e-16 2.26195781e-16 3.22881866e-16 1.48907058e-15
      -1.55605490e-15 5.76713658e-16 2.90907092e-15 -2.60003089e-16
      -1.78889388e-16 -5.95180882e-16 -6.82080428e-16 -1.73600501e-16
      -5.67490952e-16 4.85647187e-16 2.63962148e-16 3.83952392e-17
      -4.89393720e-16 3.08727495e-16 2.56295150e-16 4.10134756e-16
      -6.42387074e-17 3.58195437e-16 -8.01482480e-16 -7.76479656e-16
      5.98845359e-16 2.59564035e-16 -3.96286985e-16 1.43948866e-15
      1.26893921e-15 1.81280043e-15 3.17059864e-16 -3.19715551e-16
      -2.54020363e-16 -1.11420937e-15 -9.43442026e-16 6.15664773e-17
      3.53568625e-16 6.64155516e-16 7.56341077e-16 -2.28122225e-16
      1.03098934e-15 5.03400733e-16 7.60756156e-17 3.49751101e-16
      7.24970788e-16 -2.56516702e-16 -1.53208344e-15 -9.55087035e-16
      3.67265069e-16 -2.93015476e-18 -2.25836793e-15 -6.38535946e-16
      -8.27693279e-16 -5.99427323e-16 1.23207422e-15 -4.57963821e-16
      -3.35569202e-16 -3.58306478e-16 6.87547033e-17 6.21248771e-17
      -3.29803422e-16 6.20620035e-16 -1.37575568e-15 -1.39951495e-15
      -2.50909751e-15 -2.08891856e-15 -7.65407294e-16 -8.36354562e-16
      -1.56353981e-15 -1.14644025e-15 -4.79994936e-16 -1.13653451e-15
      -3.71726931e-15 -1.95985255e-15 -9.17445949e-16 -1.10697455e-15
      -7.76028505e-16 -2.10179473e-16 -2.69001226e-16 -3.08128510e-16
      -2.57244986e-15 -1.79139506e-15 -3.04542332e-15 -1.71109973e-15
      -1.22252308e-15 -4.18407859e-16 -1.74334542e-15 -1.28708456e-15
      -1.58781906e-15 -1.13177853e-15 1.96546610e-16 -3.04334745e-15
      8.76222960e-17 1.29231669e-15 -8.12780629e-16 -1.72077430e-16
      -4.20280543e-17 2.30277103e-16 1.82277255e-16 -1.27392411e-15
      -1.46273506e-15 -1.82823401e-15 -7.64459411e-16 3.55205887e-16
      -1.75361676e-15 -1.33836442e-17 -2.19247427e-15 -1.27614439e-15
      -1.91189905e-15 -1.60218431e-15 -3.31257539e-16 -7.56484225e-16
      -5.98031307e-16 3.36771777e-16 -9.00410740e-16 -2.22017034e-15
      -2.45959098e-15 -1.97822491e-15 -1.80942395e-15 -6.86676799e-16
      -1.87954536e-15 1.23071187e-16 -1.74469591e-15 -2.42111641e-15
      -2.07567986e-15 -2.90047989e-15 2.63784377e-16 5.35910917e-16
      2.01795065e-16 8.93835541e-16 4.89831318e-16 -2.64088991e-16
      8.26709503e-16 -2.50379085e-15 1.11023605e-15 -1.21080490e-15
      4.98887159e-16 -2.63894465e-16 -1.78705465e-15 -1.03341821e-15
      -1.93967009e-15 -1.25098412e-15 -9.78541059e-16 -1.37188241e-15
      3.90134111e-16 1.70438678e-15 3.25995400e-16 -4.05148935e-16
      6.98328108e-16 1.20783140e-16 -1.31780401e-15 -1.00248117e-15
      -4.13596288e-16 1.42843256e-17 -7.37135928e-16 5.20453737e-17
      9.43845637e-16 1.50399689e-15 8.16203648e-16 -2.42849873e-15
      -5.11858145e-16 2.04135387e-17 -6.33223091e-16 -2.20688908e-15
      -6.58832073e-16 -1.05038735e-15 -9.22988827e-16 -1.38785205e-15
      -1.55870632e-15 -2.23621759e-15 -1.88390059e-15 -6.81027301e-16
      -1.89470915e-15 -6.60307234e-16 -1.31121844e-15 -1.11560920e-15
      -1.15617435e-15 1.03052802e-15 -7.64665505e-16 -1.08652198e-15
      7.32833318e-16 4.32498940e-16 7.99264895e-16 -6.72966883e-16
      8.65723947e-16 -8.61902677e-17 1.90295362e-16 -1.91005903e-16
      7.97298984e-16 8.86879759e-17 9.85572491e-16 9.68437121e-16
      -8.29107930e-16 1.27218790e-15 -1.16038665e-15 6.69591522e-17
      -1.35138135e-15 -1.29908411e-16 1.29440441e-15 9.69968265e-17
      5.43160566e-16 -9.81799595e-16 -1.69210610e-18 -1.33497062e-15
      7.18815347e-16 -1.62234437e-17 -6.07505476e-16 1.84074617e-15
      1.83518667e-15 -3.15249066e-16 -2.06412612e-16 8.95318484e-16
      -7.40970923e-17 9.52336083e-16 1.15149905e-15 5.56793032e-16
      -2.83421565e-16 5.41000738e-16 -1.92229131e-17 -7.91324980e-17
      9.82688450e-16 -3.38194607e-16 1.91313892e-16 6.14214401e-16
      -3.39409278e-16 -3.90354763e-16 -7.95148844e-16 -4.91256875e-16
      1.34709145e-15 9.55093176e-16 6.27760006e-17 -1.56943156e-15
      -5.56091688e-16 -1.96217046e-15 1.82406242e-16 1.75467335e-16
      5.20644418e-16 1.10942851e-15 1.93672368e-15 4.07488149e-16
      1.83852990e-15 -5.85972946e-16 -1.47266763e-16 -5.00136480e-16
      -9.60550503e-16 -8.82282806e-16 -9.64672695e-16 -1.66678201e-15
      -2.27999289e-15 -3.45356138e-16 1.69814356e-16 -1.67153037e-15
      -2.69951862e-16 -6.39251795e-16 -1.65472185e-15 -2.47876886e-15
      -1.41780451e-15 -4.76086197e-16 2.47142085e-16 -2.30504267e-16
      1.22924532e-16 -5.40459695e-16 -2.04571289e-15 -2.31855131e-15
      -2.92875639e-15 -3.55926553e-16 -1.13976531e-15 -1.01248982e-15
      9.79628808e-17 -1.02032255e-15 -1.66982064e-16 8.92139040e-16
      -5.81592409e-16 -1.46961836e-15 -1.98029209e-15 -1.94621723e-15
      -1.64713318e-15 7.24246045e-16 4.74471223e-16 -1.96400497e-16
      -1.16954635e-15 -8.43482609e-16 -1.32957025e-15 -5.00052730e-16
      3.50111407e-16 -8.17757795e-16 9.00760776e-16 1.29411822e-15
      -1.02443807e-15 5.20189932e-16 1.19163983e-15 -1.48474457e-15
      1.35454396e-15 2.98059353e-15 1.70949269e-15 1.60248522e-15
      -1.07514898e-15 1.37518997e-15 1.57340563e-15 -9.90857024e-16
      -1.06566009e-15 1.31647989e-15 -1.00539709e-15 9.40372338e-17
      4.62865495e-16 -1.92475929e-16 -1.87419711e-16 -8.42696297e-16
      1.21270067e-15 -3.66052223e-16 3.44602914e-16 -3.31156133e-16
      1.38204701e-16 5.83067967e-17 1.01382095e-16 2.43118065e-15
      3.91759938e-16 5.15427648e-16 -2.53036138e-16 2.69725678e-15
      4.33183866e-17 2.38865938e-16 9.83821674e-16 4.20615889e-16
      3.36629713e-16 5.60165229e-16 -3.34541751e-17 -5.99391377e-16
      1.26534980e-15 -3.82444938e-17 6.27816850e-16 6.95079948e-16
      1.27221289e-15 7.40226487e-16 2.37900003e-16 1.00204666e-16
      2.32522339e-15 2.07390977e-15 -6.48745075e-16 -2.39462652e-15
      2.64252177e-17 5.37624782e-16 4.01877396e-17 -4.13637740e-16
      1.20753059e-15 -1.24354718e-15 1.03793279e-15 3.76653714e-16
      2.03330111e-15 1.10722622e-15 7.94393820e-16 -4.47756598e-16
      -4.24920907e-16 -8.52480693e-17 -2.04067072e-15 2.19182756e-15
      -1.06078468e-15 -1.38192618e-16 -1.11781752e-15 -2.44746385e-16
      7.23512197e-16 -5.21647411e-16 2.29959731e-16 -5.17231617e-16
      8.36537680e-16 -1.88175251e-15 -3.43445793e-15 -1.74286452e-15
      7.07847911e-16 -4.45207929e-16 -1.61428905e-15 1.09951452e-15
      -5.62938309e-16 -2.98344115e-16 -2.83213767e-15 -2.19478137e-15
      -1.55960058e-15 -1.32368772e-15 -8.93012741e-17 1.25276742e-16
      -8.22477886e-16 -1.61116022e-15 -2.99463787e-16 -3.71464499e-16
      8.96970092e-16 8.06600888e-16 1.76366934e-15 -3.07626088e-16
      -4.45886878e-16 -8.23132219e-16 -1.07827718e-15 -1.41788191e-15
      -2.73883995e-15 -5.44798833e-16 -1.25141283e-15 -1.45843700e-15
      -5.59279761e-16 -1.26594368e-18 1.01445526e-15 -3.34104417e-16
      4.70981048e-18 -2.67177300e-16 -3.84012657e-16 1.31267819e-15
      3.81505439e-16 3.36917215e-17 -4.74822900e-16 -1.01249819e-15
      1.45511578e-15 8.52529873e-16 -2.81195516e-17 -8.58218600e-16
      8.27472362e-16 6.80981032e-16 -1.24359239e-15 -2.54809136e-16
      4.04806283e-16 -3.05758089e-16 -9.01876742e-16 -3.24075494e-16
      -6.46927872e-16 5.54357547e-16 7.04669420e-16 -3.89413074e-16
      -7.27613478e-16 2.41124366e-16 -5.00887110e-16 1.98409156e-16
      1.03752790e-15 -1.30299057e-15 9.36322078e-16 1.16783990e-15
      -1.20065777e-15 -4.88295118e-16 7.25777799e-17 4.58384532e-16
      2.50026815e-16 -8.54651585e-16 1.65701416e-16 -6.17690359e-16
      6.80121465e-17 -5.16335032e-16 -1.77202323e-16 1.76493886e-16
      -4.81876250e-16 4.97558800e-16 -1.02044007e-15 6.05879544e-16
      -9.88642456e-16 -4.50662556e-16 -1.06011552e-15 -3.95650863e-16
      6.83634362e-16 -3.15406297e-16 7.72374563e-16 -7.23229765e-16
      1.02224658e-15 1.28298641e-15 3.61075137e-16 -1.20908119e-15
      -9.49735904e-16 -9.51694244e-16 -5.08552017e-16 -1.22561453e-15
      -2.45236006e-17 -7.80659022e-16 -4.33230989e-16 -1.02195478e-15
      3.89935244e-16 -9.91346292e-16 -6.44802243e-16 -6.43768598e-16
      -1.93725562e-15 -2.68165189e-15 -1.50313429e-15 -5.96376258e-16
      8.95187829e-16 1.51960771e-15 1.07966261e-15 2.99673772e-17
      3.97159561e-16 -7.07240800e-16 -4.49833787e-16 9.71634035e-16
      -1.30520588e-15 -1.45131247e-16 5.46687876e-16 -1.71701202e-15
      -9.70411237e-16 -1.26596433e-15 -1.02981525e-15 -1.85475948e-15
      -1.76509617e-15 -5.52841993e-16 2.21962879e-16 -9.27444008e-16
      -1.05652992e-15 -1.80171634e-17 4.13424155e-16 -1.23732402e-15
      -1.63325825e-15 -1.70448567e-15 -1.18796413e-15 -4.11062257e-16
      -1.25201780e-16 8.87844001e-16 2.64631007e-15 -2.11783627e-15
      1.46601688e-15 7.15748399e-16 1.49464205e-15 -8.17617293e-16
      -3.40533529e-16 1.29566458e-15 1.11420024e-16 1.37004575e-16
      -1.32913085e-15 4.59544120e-16 -4.90117192e-16 -5.29822179e-16
      -2.81193736e-16 -7.80024647e-16 -5.67877463e-16 1.89892161e-16
      1.76615197e-16 8.20758621e-16 4.35397540e-16 -6.80096147e-16
      4.59855934e-16 -3.58651485e-16 1.31866645e-16 1.18747328e-15
      1.03146558e-15 -6.00239310e-16 4.76393088e-16 1.51983503e-15
      5.79981935e-16 8.89054887e-16 4.17022987e-16 2.16161093e-15
      -2.22195986e-16 -6.62884967e-16 -8.16527162e-16 -9.92247958e-16
      1.37023239e-15 3.14152450e-16 -4.69512057e-16 4.53261041e-16
      5.30184391e-16 1.53372970e-16 2.80549389e-17 -8.98645523e-16
      2.55622235e-16 2.60823070e-16 -1.71782760e-15 -9.70143892e-16
      -3.82189604e-16 1.59248187e-15 3.84127324e-16 1.76508074e-16
      -2.94052782e-16 7.47128058e-16 9.58789310e-16 -1.63689371e-15
      4.16977353e-16 7.19762409e-17 -5.71419146e-17 -3.36888852e-16
      -6.80063536e-16 -2.53148438e-15 -2.03644572e-15 -4.04729230e-16
      -9.63778651e-16 -2.77278485e-16 -1.67226867e-15 -3.73217513e-16
      1.42055726e-15 -7.92823686e-16 -1.40944133e-15 6.49834201e-16
      1.44161736e-15 -6.97744767e-16 -1.18571576e-16 8.50550199e-16
      5.84082580e-16 -2.92900453e-17 -8.36326980e-16 -1.32041425e-15
      -9.88544412e-16 -2.26715399e-15 -5.80873384e-16 -1.42558186e-15
      5.31283152e-16 -4.44414206e-16 1.25919177e-15 -3.59279374e-16
      -2.30024418e-15 -2.59221792e-15 -1.83511107e-15 1.12583371e-16
      2.16986632e-15 -3.42440763e-17 -4.36286925e-16 -4.49387454e-16
      -1.31505285e-15 -2.04496835e-15 -2.57872426e-15 -1.33745523e-16
      -1.46801345e-15 -1.64325853e-15 -7.39848445e-16 -6.71235335e-16
      -6.91569314e-16 1.20447132e-15 -5.97653160e-16 -3.54920119e-16
      1.07814483e-16 -1.17375748e-15 -1.22690181e-15 -1.40212604e-15
      9.67261598e-17 -7.27506540e-16 -6.73427986e-17 1.21080109e-15
      2.62899687e-17 -3.19609010e-16 -9.66714573e-16 -3.85710032e-16
      -1.18036662e-16 3.81770402e-16 -9.52059739e-17 8.01508897e-16
      1.05015600e-15 -1.77212877e-15 -3.53302763e-16 7.30185493e-16
      -7.53726392e-16 -2.74612025e-16 -7.71994510e-16 5.28184758e-16
      -8.06434764e-16 1.28989544e-15 -7.58159709e-16 8.90758442e-17
      5.39651096e-16 3.78850732e-16 3.06344652e-17 2.68369790e-16
      6.59849942e-16 3.84194293e-16 4.03874812e-16 3.31043690e-16
      -2.37956251e-16 6.04427425e-17 1.06420500e-15 -4.23066329e-16
      9.76037653e-16 3.53231566e-17 -1.80685108e-15 -1.04132018e-15
      1.03750922e-16 -7.44307227e-16 3.94189175e-16 -8.25932562e-16
      4.32929842e-16 2.58215188e-16 1.20849671e-16 -6.37299913e-17
      -9.27046128e-17 -2.37976289e-16 -1.70051512e-16 3.24416345e-16
      6.23332340e-16 -1.11459721e-15 -5.52322974e-16 5.84359983e-16
      -1.79179020e-15 1.11074204e-15 4.33877513e-16 1.45627558e-15
      -5.93344727e-16 1.06705484e-15 -4.23107251e-16 -1.63707752e-16
      3.25198216e-17 -2.80808363e-16 -8.33486640e-17 1.21963300e-15
      -9.27513147e-16 -1.23135678e-15 -1.54632175e-15 -3.85781632e-16
      9.71030167e-17 2.96396098e-16 -3.34105264e-16 8.95440880e-16
      3.82955176e-17 -5.67059494e-16 -1.92414990e-15 -2.89788754e-15
      -3.06240929e-15 -1.87508742e-15 8.65815797e-16 -4.99343988e-17
      1.06170625e-15 -8.78055105e-16 8.68648368e-17 7.50800475e-16
      -6.06198769e-16 3.67712586e-17 1.96359773e-16 8.05021225e-16
      4.56143177e-16 -1.05878053e-16 -7.96652328e-16 -7.34657086e-16
      -5.61759027e-16 5.99737549e-16 -4.56147783e-16 -1.02257470e-15
      -5.37800012e-16 -2.56141832e-15 1.70096032e-15 -5.11291004e-16
      1.98273049e-15 2.36059480e-16 -1.09951854e-15 -1.10403248e-15
      -9.68170411e-16 -1.71342780e-15 -1.99098715e-15 -9.72039023e-16
      -5.06910891e-16 -8.08752881e-16 -1.47235370e-16 4.96601864e-16
      -2.17333641e-15 -1.59506797e-15 -2.06101370e-15 -8.40096859e-16
      2.19820191e-16 -7.34726860e-16 -4.67395586e-16 -1.23121194e-15
      -1.05153508e-15 -3.56266208e-15 -2.81353577e-15 -2.44923664e-15
      -2.00316812e-15 -1.20329077e-15 -1.44224639e-15 3.51530346e-16
      -9.11844203e-16 -7.15804886e-16 -8.01166431e-16 -2.66119223e-15
      -9.31762712e-16 -1.07902881e-15 -1.40898722e-15 -1.68499430e-16
      -2.68336779e-17 6.14272529e-16 6.17293524e-17 -8.99771760e-16
      -1.13024995e-15 -2.15076446e-15 -1.29816735e-15 -1.41505557e-15
      -5.58992511e-16 6.95971291e-16 7.01783340e-18 -1.62112058e-15
      -5.86395510e-16 -1.08615098e-15 -2.64974860e-15 -1.55769650e-16
      -6.73430527e-16 -8.96578340e-16 1.89813757e-16 -1.05905758e-15
      -5.02571964e-16 -1.32748486e-15 -1.40828270e-15 -2.13442392e-15
      -2.02692909e-15 -1.85242760e-15 -5.60414256e-16 3.92069502e-16
      -2.29938232e-15 -1.76601732e-15 -3.50054206e-16 -2.01103621e-15
      1.38172289e-16 -1.29278086e-15 -1.38244565e-15 2.74160345e-16
      -1.93226003e-15 -2.48214027e-15 -1.60736000e-15 -1.16252254e-15
      -1.50904293e-16 -2.87304735e-16 -6.00082556e-16 -8.67999183e-16
      -9.72197629e-16 -1.16316523e-15 -1.36877388e-16 -1.12684351e-15
      6.79548752e-16 -5.89119726e-16 -8.32775795e-16 1.04971834e-16
      2.85077568e-16 6.59251143e-16 -1.83603126e-16 -2.56880741e-16
      -6.80371803e-16 -5.32256658e-16 7.43186602e-16 2.69173545e-16
      -1.51020988e-15 2.52394960e-16 1.27285189e-16 6.18843701e-16
      1.03171980e-15 -4.85969073e-17 -2.99949322e-16 -5.61868718e-16
      -3.63537912e-16 -4.19605729e-17 -3.67232802e-16 2.67341545e-16
      5.75762652e-16 3.13587717e-16 -4.25285131e-16 -5.44921600e-16
      2.43850092e-16 -6.48908870e-16 2.30841466e-16 6.33030735e-18
      1.23919689e-16 -8.66956062e-16 -5.95991652e-16 -4.79620124e-16
      -8.44102796e-16 6.15237034e-16 1.13972973e-15 9.89059726e-16
      8.00294927e-17 1.36483393e-15 9.74528452e-16 2.39800877e-16
      1.63783495e-16 1.63612394e-16 6.19952996e-16 1.62380059e-15
      -4.33023386e-16 -8.71087148e-16 -4.91661333e-16 -4.85481963e-16
      3.80063055e-17 1.58667207e-15 3.04452493e-16 8.03791015e-16
      7.10353461e-17 -1.58065507e-16 -1.54264949e-16 -1.79251415e-16
      1.00767973e-15 -1.08709659e-15 3.01834341e-16 -1.16859683e-15
      -4.97843138e-16 1.94024477e-16 -4.79657023e-16 -4.78070901e-16
      6.24952502e-16 7.92827444e-16 6.00331822e-17 -1.73109169e-16
      3.97851005e-16 -4.13213297e-16 7.18060164e-16 -8.78631564e-16
      1.17065300e-16 -5.97679841e-16 9.14352161e-16 -5.09558610e-16
      -2.84410847e-16 5.94577848e-16 -2.90014578e-16 -9.95965903e-16
      -6.87895944e-16 1.91674953e-16 -7.49614735e-16 2.02343730e-16
      7.64029859e-16 -3.84842604e-17 6.29487689e-17 -6.47397128e-16
      5.20408520e-16 6.17065884e-16 9.24740597e-16 1.07764995e-15
      1.96091370e-16 7.30568895e-17 -4.39005292e-16 8.17929795e-16
      9.35474304e-16 -9.45275997e-17 -1.56055434e-15 -1.19074992e-15
      -5.92342210e-16 1.24175467e-16 1.29292549e-15 1.86151393e-15
      -5.90119490e-16 3.66997988e-16 -9.37909855e-17 1.77928482e-15
      1.49045177e-15 -6.35878327e-16 7.04552582e-16 -7.16013203e-16
      -2.50643137e-16 1.13698450e-15 2.51883511e-16 -6.60826465e-16
      -4.50747630e-16 4.02344620e-16 6.25705753e-17 1.45195889e-15
      -1.19359817e-15 7.97757970e-16 5.36379114e-16 -2.72282235e-16
      -9.86985951e-17 3.47425678e-16 2.91253152e-16 -9.12530101e-17
      1.74387704e-15 -1.41475858e-15 1.61535351e-16 1.17290695e-17
      9.26488767e-16 3.17078631e-16 3.70380747e-16 1.75727054e-15
      2.46421902e-17 3.90970186e-16 7.35705488e-17 -6.79689359e-16
      4.61869278e-16 3.32488569e-16 5.04741269e-16 -6.05277992e-16
      2.32685922e-15 1.26347087e-15 7.10443114e-16 7.97859442e-17
      1.11133751e-15 2.13962044e-17 -3.88587641e-16 -6.08868617e-16
      3.19288805e-16 -6.67511527e-17 -7.87587328e-16 -3.63625686e-16
      8.05125622e-16 7.78547210e-16 7.82513707e-16 -9.27553382e-16
      1.17294211e-15 -9.29495946e-16 1.47860506e-15 2.62431162e-16
      -3.15286574e-16 -2.07821206e-15 9.06708801e-17 1.11456777e-15
      4.27789834e-16 -2.39094620e-17 -3.23253078e-16 3.90257698e-16
      1.00086165e-15 -7.31216968e-16 -1.38953172e-15 -3.13217537e-16
      8.55353087e-16 -1.70297763e-15 1.85661972e-16 1.75407288e-15
      9.35795542e-16 1.41194071e-15 5.93464264e-16 4.03029096e-17
      6.09424906e-16 1.25388021e-16 8.84745660e-16 4.01269153e-16
      -9.32278131e-16 -1.25633475e-16 1.08290907e-15 2.72536160e-16
      6.17232220e-16 4.46353382e-16 -1.57652546e-15 7.54564690e-16
      7.29835722e-16 -1.67692340e-16 1.41210636e-16 -8.18177393e-16
      7.85506327e-16 1.05948396e-16 6.27916641e-17 -1.89814856e-16
      7.25050938e-16 2.62406148e-16 7.76992958e-16 1.86891480e-16
      4.04918065e-16 -2.42025795e-16 -3.07863045e-16 -2.44955126e-16
      1.67147526e-17 4.63128446e-16 7.29158889e-16 1.35038188e-16
      1.13135988e-15 1.50878347e-15 -6.98021905e-16 -4.45117984e-16
      9.38223138e-16 8.89320472e-17 9.16573717e-16 2.05133728e-17
      -1.24363082e-15 5.48544995e-16 9.43945798e-16 -3.29971981e-16
      -8.05014343e-16 -1.16453160e-15 -7.90442253e-16 7.50598776e-16
      -8.14193348e-17 -1.26750182e-16 -6.93863450e-17 1.17633818e-17
      9.38773180e-16 -1.40291229e-15 4.63910522e-16 -3.27789310e-16
      3.47666367e-16 -5.87116599e-16 7.77815215e-16 9.31655668e-16
      -1.23881808e-15 1.90224330e-15 1.19924619e-15 -1.09511662e-15
      -2.64446201e-17 4.10077131e-16 6.30515709e-16 -4.18725099e-16
      1.69868169e-16 1.62510100e-15 1.27292715e-15 -5.53775635e-16
      -6.11255503e-16 -7.00287930e-17 3.63291769e-16 3.47223951e-16
      6.13358064e-17 7.57511835e-16 7.68872400e-16 -1.07661037e-16
      1.67045419e-16 1.02338447e-15 -3.27121795e-16 5.89904661e-16</_></support_vectors>
  <decision_functions>
    <_>
      <sv_count>1</sv_count>
      <rho>-3.8580250105724190e-14</rho>
      <alpha>
        1.</alpha>
      <index>
        0</index></_></decision_functions></my_svm>
</opencv_storage>
