<?xml version="1.0"?>
<opencv_storage>
<my_svm type_id="opencv-ml-svm">
  <svm_type>C_SVC</svm_type>
  <kernel><type>LINEAR</type></kernel>
  <C>8.8817841970012504e-16</C>
  <term_criteria><epsilon>1.1920928955078125e-07</epsilon>
    <iterations>1000</iterations></term_criteria>
  <var_all>1296</var_all>
  <var_count>1296</var_count>
  <class_count>2</class_count>
  <class_labels type_id="opencv-matrix">
    <rows>1</rows>
    <cols>2</cols>
    <dt>i</dt>
    <data>
      -1 1</data></class_labels>
  <sv_total>1</sv_total>
  <support_vectors>
    <_>
      5.57863734e-16 -9.71252341e-16 -8.06824346e-16 -1.78509600e-16
      1.22643086e-15 -4.40133142e-16 1.11339368e-15 -1.29703905e-16
      -6.39422895e-16 -9.18105153e-16 1.11768835e-15 -8.76344734e-16
      -3.62991629e-16 1.08979689e-16 -5.93817530e-16 1.03187862e-15
      -1.17427163e-15 -2.10707426e-16 -2.04882606e-16 -5.77917874e-16
      3.33462234e-16 2.07273819e-16 -6.37138342e-16 5.57562508e-16
      -8.42064993e-16 -8.20614360e-16 -8.87561886e-16 2.88990436e-16
      -4.49333244e-16 1.33083739e-16 -7.76650386e-16 -4.46528559e-16
      3.34184726e-16 2.34538711e-16 -5.74211417e-16 -1.37640736e-15
      4.27445357e-16 -7.95158320e-16 -1.02134470e-15 8.51887558e-16
      1.77930367e-15 1.29892788e-15 6.32280290e-16 -2.73637832e-17
      -3.10547478e-16 -1.16933970e-16 -2.19806439e-16 -7.92032186e-16
      2.20798950e-16 2.15398414e-16 -5.14256202e-16 1.09316293e-15
      3.13737563e-16 -1.79960713e-16 1.72351257e-15 -2.24817431e-15
      1.03695309e-15 -1.18287018e-15 -7.58797843e-16 3.11737427e-16
      -3.37616533e-16 -3.22960190e-16 1.17963642e-15 1.46982959e-15
      8.30426932e-17 -4.49417186e-17 -1.09064354e-15 2.96235347e-16
      -2.93618333e-16 -3.66773895e-16 -1.31237194e-16 4.59758737e-16
      1.20363128e-15 -9.86797407e-16 4.55011700e-16 1.97153867e-16
      7.67807362e-16 -8.17886067e-16 2.16767907e-15 8.31816993e-17
      -1.68950568e-15 6.39127493e-16 -5.00047171e-16 -2.21450755e-16
      -1.94476859e-15 1.70369825e-15 -6.94541937e-17 -2.54989528e-16
      -3.92422185e-16 2.60996664e-15 2.32867171e-16 -5.81836831e-16
      1.04963508e-15 -4.53746180e-16 -1.10479619e-15 5.67315087e-16
      1.01010013e-15 2.32068838e-15 3.82730100e-18 1.07163199e-15
      -1.25343268e-15 8.21570607e-16 -1.49539792e-15 -1.19905433e-15
      -1.14343921e-15 -1.81270570e-16 2.14453840e-16 -7.53245012e-16
      6.98238481e-16 -1.98516730e-16 -5.14952463e-16 4.14481147e-17
      2.15635530e-16 8.13187046e-16 2.81435167e-16 -5.56301865e-19
      -1.09607249e-15 8.07021758e-16 -5.54006134e-16 6.09251423e-16
      -1.02855190e-15 -1.10172212e-16 -1.69925424e-16 -1.69527834e-16
      -3.38301227e-16 -5.39981175e-16 9.26806722e-16 -5.29251173e-16
      3.13866259e-16 -6.12057167e-16 -5.72085391e-17 1.49710466e-16
      1.07155057e-15 -4.95322845e-16 -9.05111349e-16 -5.25451542e-16
      7.42679759e-16 6.69825608e-16 -2.21223470e-15 3.86876343e-16
      -4.45499520e-16 7.18812858e-16 2.31160559e-16 4.55699067e-16
      1.13712553e-15 -1.58771389e-16 8.58165395e-16 2.26082808e-16
      5.41607531e-16 8.87447960e-16 1.71710614e-15 7.67585121e-16
      -8.65939887e-16 8.50355500e-17 -3.89630021e-16 -4.10021254e-16
      -2.52211922e-16 6.39071377e-16 -6.47211522e-16 -2.79794252e-16
      -5.61968191e-16 -7.21328811e-16 8.76167069e-16 3.51707879e-16
      1.59796619e-15 -6.16350009e-17 -1.50588178e-16 -8.92711634e-16
      5.84229435e-16 -7.48458800e-16 -1.02904963e-15 -4.01708075e-16
      -7.51391757e-16 5.07706043e-16 6.61167316e-17 -5.71075436e-16
      -6.36406770e-16 9.14870969e-16 4.79405613e-16 -7.20818685e-16
      1.41522699e-15 1.94793107e-16 3.65367761e-17 -1.39034815e-15
      2.68211050e-16 7.97420110e-16 1.46621848e-15 -5.83867751e-16
      7.36209698e-16 2.50855769e-16 -9.97157692e-17 -5.09189462e-16
      -1.36626454e-16 1.70497314e-15 8.55441708e-16 -6.34853682e-16
      -1.44859988e-15 -1.03673572e-15 -1.80615979e-17 5.64061051e-16
      -1.44668516e-16 5.75379740e-16 -5.95929765e-16 9.61499392e-16
      -2.58690082e-16 1.06273576e-17 8.46491905e-17 3.86086988e-16
      -8.21835146e-16 -1.34160394e-15 -7.51810192e-16 1.14767734e-15
      3.07413350e-16 7.69082676e-16 -6.04819323e-16 5.17460633e-16
      7.99493885e-17 8.58641269e-16 -7.64162102e-16 -1.20101450e-16
      9.95775374e-17 1.35887368e-15 1.75262636e-15 -4.43375823e-16
      -6.62251651e-16 -3.06626271e-16 -8.67090529e-16 -2.67534721e-16
      5.45504994e-16 1.31744921e-15 2.04872534e-16 -6.34629113e-16
      3.05673491e-16 1.64101649e-16 -4.95282769e-16 -5.24380416e-16
      1.99688057e-16 7.13857822e-16 5.41157862e-16 -1.04934339e-16
      7.33747532e-16 7.39856545e-16 -1.28030661e-15 6.47544618e-16
      -5.08024368e-16 9.42005352e-16 2.46067518e-16 -5.00726650e-16
      3.72445919e-16 -6.33366928e-16 -1.72545175e-15 -8.01134826e-16
      1.89513405e-16 -2.22164328e-16 -6.73283263e-17 6.67155072e-16
      1.02061202e-15 -7.16802902e-16 -6.46917972e-16 -2.33385688e-16
      8.37751637e-16 2.85893128e-16 2.06532771e-16 -1.17804209e-15
      -1.04328381e-15 -8.28382817e-16 -7.96126849e-16 -3.52486726e-16
      -1.28962100e-15 7.66552271e-16 1.30789468e-15 -5.70736782e-16
      -1.37700177e-15 -1.35293259e-15 -8.23243445e-16 -5.04226802e-16
      1.64461272e-15 -6.70339757e-16 -1.15558365e-15 -1.82940376e-15
      -1.97682646e-15 -2.27302858e-15 -6.25514456e-16 -1.66581496e-16
      -6.91084282e-16 -5.74209564e-16 -7.03782365e-16 -1.08877012e-15
      -1.26351619e-15 -1.80518031e-15 -1.41758545e-15 -2.19186305e-16
      -2.37943149e-16 2.92854468e-16 -7.37418678e-16 -5.58573442e-16
      -2.84617343e-15 -2.29255185e-15 -2.13573280e-15 -7.71546430e-16
      -4.97686384e-16 -6.73571770e-16 -2.98224588e-15 -1.06886304e-15
      -2.71345755e-15 -1.38077604e-15 -9.25713097e-16 -1.59073687e-15
      -5.67204178e-16 2.19874041e-15 -7.54116027e-16 1.37481219e-15
      6.76158767e-16 6.69231308e-16 -4.07573275e-16 -1.81986045e-15
      -8.78619759e-16 3.57860171e-16 -3.40039047e-16 3.94966275e-16
      -1.84094268e-15 -9.01763875e-16 -1.60094013e-15 -1.14274581e-15
      -1.77059405e-15 -2.10637993e-15 -7.81685255e-16 -1.19603159e-15
      -8.68151596e-16 -4.03582711e-17 -6.82055175e-16 -1.88579328e-15
      -1.19301711e-15 -1.49724847e-15 -4.28179999e-16 -9.88544307e-16
      -6.44645224e-16 2.97026820e-16 -9.89866101e-16 -1.16472007e-15
      -1.91609737e-15 -3.26223389e-15 -7.09465850e-16 9.15313014e-16
      -9.42004611e-16 -2.42617553e-16 8.22898014e-16 -6.86141262e-16
      -9.17625666e-17 -2.07154973e-15 -1.24941648e-16 -1.11689436e-15
      -5.66487271e-16 -7.14418028e-16 -1.00257932e-15 -4.26336273e-16
      -1.76818308e-15 -6.60481405e-16 -8.96323383e-16 -3.43285089e-15
      -3.21300508e-16 -4.83279254e-16 -1.20462019e-15 4.01056654e-16
      -6.28597444e-16 -3.20844487e-16 -4.81229963e-16 2.48373552e-18
      -1.13066955e-15 -1.03179720e-15 -1.72189537e-15 3.64547760e-16
      4.45870097e-16 5.64889978e-16 1.41341000e-15 -1.77998616e-15
      -8.54038069e-16 -1.00437631e-15 -1.66557634e-16 -6.29040654e-16
      -7.73643842e-16 -7.78418143e-16 -2.22476618e-16 -4.03269924e-16
      -2.87264850e-15 -1.64075089e-15 -1.46596469e-15 -1.92863536e-15
      -1.08563726e-15 -7.64063026e-17 -1.31040042e-15 -1.32500596e-16
      -1.75100755e-16 -2.18645700e-16 -7.02269987e-16 2.65257844e-16
      -2.70434380e-16 6.22793786e-16 8.17626716e-16 -9.59110547e-16
      7.97947176e-16 7.52991326e-16 4.78012403e-16 4.44644599e-16
      2.49351624e-16 7.15154205e-16 1.56586481e-15 1.82457483e-15
      1.54250973e-16 1.64316387e-15 5.85794328e-16 -3.63920956e-16
      -1.40686381e-15 9.65519198e-16 4.71870355e-16 -4.50746148e-16
      3.30391686e-16 3.75065296e-17 2.62604275e-16 -1.18291666e-15
      1.03932150e-15 -4.40275470e-16 3.96322798e-16 1.21031770e-16
      7.74089964e-16 4.49061876e-16 -1.10515300e-15 1.61199147e-15
      -6.72436534e-16 -3.08255751e-16 -3.55671967e-16 -5.97015238e-16
      1.08441817e-15 7.03579024e-16 -3.27852520e-16 -5.52172096e-16
      1.48921426e-15 -1.28103675e-15 1.92495395e-15 5.17452427e-16
      3.51709097e-16 -1.23212462e-15 -4.07305295e-16 -5.78062770e-16
      2.11607888e-16 5.00712409e-16 6.93187306e-16 -1.35645360e-15
      -1.51170542e-15 -5.60501924e-16 -1.30473223e-16 1.98529615e-15
      1.47161440e-15 -4.32003161e-16 1.79935865e-15 5.54083267e-16
      1.29416248e-15 -2.83132621e-16 -1.11301294e-15 -8.55488665e-16
      -8.92059207e-16 -7.76119984e-16 1.24966731e-15 -1.19766658e-15
      -8.76939087e-16 6.54456407e-16 3.34714572e-16 -8.16946496e-16
      -8.38976023e-16 -1.51066566e-16 -2.12290766e-15 -3.19159262e-15
      -1.60491948e-17 -4.38897692e-16 -2.23795343e-16 -1.39266023e-15
      4.55224027e-17 -3.45622874e-16 -1.15611463e-15 -3.27729096e-15
      -2.48607558e-15 -6.23667500e-16 -1.53024580e-15 -9.37153441e-16
      -8.85014646e-16 -1.16578680e-16 -1.54799146e-15 -7.65472409e-16
      -2.36613995e-15 -3.08655905e-15 -2.21190118e-15 -1.62985921e-15
      -6.53237368e-16 4.02616094e-16 8.93288358e-16 -1.66346776e-16
      -2.02130212e-16 -3.38468225e-16 -1.81308863e-15 -1.35476684e-15
      -9.29101970e-16 3.73700587e-16 1.03261321e-15 4.31417359e-16
      -6.95596268e-16 6.13259861e-17 6.65172485e-16 -1.14037062e-15
      8.93317580e-16 2.32388127e-15 1.09863540e-15 -2.15614262e-16
      3.13605955e-16 7.12124898e-16 9.90868353e-16 7.34954395e-16
      -6.25854963e-16 1.56747563e-16 -9.17383692e-16 5.15462324e-16
      6.21329266e-16 1.07712394e-15 -3.34988792e-17 1.55283890e-16
      2.34116284e-17 -1.14388231e-15 5.20740133e-16 1.93553209e-16
      1.26902646e-15 -2.62998277e-16 -5.43651792e-16 1.42620623e-15
      6.44054260e-16 -5.07141026e-17 -4.36309053e-16 1.11050498e-15
      -1.07327100e-15 4.94834954e-16 -3.57251154e-16 -2.42720997e-16
      1.04840190e-15 7.26693971e-16 -1.25078560e-15 1.16101708e-16
      1.37232668e-15 -3.15542166e-16 3.04922597e-16 2.30035170e-16
      7.63864423e-16 1.71358969e-15 -2.16762269e-16 1.11394690e-15
      4.56733929e-16 4.31236173e-16 -1.88113206e-15 -2.67500141e-15
      9.49395489e-17 7.12328662e-16 1.87027141e-15 -1.71982827e-16
      1.36449501e-15 -7.94448930e-16 1.04674881e-15 -1.09421708e-16
      1.68894145e-15 1.08352264e-15 1.37048417e-15 2.23519369e-16
      -2.72663532e-16 -7.87198143e-17 -1.61529945e-15 8.47283722e-16
      1.13271532e-16 -1.06672502e-15 -5.61485382e-16 4.19560433e-16
      1.23760926e-15 -8.75092502e-16 -1.97684599e-16 -1.38768720e-15
      3.13793626e-16 -2.71319031e-15 -3.02496387e-15 -5.80589946e-16
      1.77505527e-15 -1.31760528e-16 2.78939808e-16 1.94809955e-15
      -2.58218973e-16 -5.70060453e-17 -2.81769554e-15 -1.93316403e-15
      -1.82798223e-15 -2.76004204e-16 5.54425363e-16 1.39879074e-15
      -7.86340760e-16 -1.84724439e-15 -5.48870415e-16 -4.61582862e-17
      1.46292765e-15 1.23925219e-15 2.01067665e-15 4.44185719e-16
      4.25098936e-17 -1.00747454e-15 -1.88371276e-15 -1.02711205e-15
      -1.55610286e-15 -7.47242037e-16 -1.21534871e-15 -4.81040757e-16
      -3.88359365e-16 -1.84007701e-15 6.37006522e-16 -6.69937615e-17
      -5.12048251e-16 5.51109970e-16 7.03776118e-16 -1.89140035e-16
      7.84858082e-16 4.89464288e-16 -1.53464604e-15 1.56373730e-16
      1.14935976e-15 6.41473230e-18 -2.39021465e-17 -5.28654915e-16
      -4.07247988e-16 8.04223320e-16 -7.26554687e-16 1.21537391e-15
      5.29973533e-16 -4.72561852e-16 -8.61833048e-16 -1.30471899e-16
      7.96825334e-16 4.10041979e-16 -1.32389357e-16 -7.09621704e-16
      -2.39597596e-17 1.27963533e-15 -1.36162833e-15 -1.37500883e-16
      7.86038422e-16 -4.75572048e-16 7.99834419e-16 1.25378251e-15
      -1.14895400e-16 -6.21902601e-16 1.48632026e-15 -1.07860466e-15
      4.28834358e-16 -2.86652519e-16 9.95882775e-17 -5.82309528e-16
      5.55468219e-16 -6.93682556e-16 -3.38284074e-16 5.04078995e-16
      -2.26970896e-16 -4.00183786e-16 -6.40265640e-16 5.86747663e-16
      1.75225296e-16 8.56001438e-16 -1.37961010e-15 1.05646965e-16
      4.36731941e-17 -1.62981381e-16 2.15506000e-16 -1.20832204e-15
      1.06447901e-15 -6.14573013e-16 -5.23322525e-16 -1.04958595e-15
      2.81600100e-16 -1.16182978e-15 -3.66482437e-16 -3.60168309e-16
      -4.34477795e-16 -7.11555321e-17 -2.99783727e-16 -1.35570249e-15
      3.75546483e-16 9.98156119e-16 3.84290193e-16 -1.45764354e-15
      -1.51776128e-15 -2.94352356e-15 -2.24745137e-15 -5.69267233e-16
      1.02147335e-15 7.00472689e-16 1.17823363e-15 1.34446310e-15
      7.95458276e-16 4.17489675e-16 -1.80945677e-15 1.35327953e-16
      -9.42787904e-16 -3.30402459e-16 -3.22968448e-16 -8.50308582e-16
      -1.40564175e-15 -2.15576280e-15 -3.13312246e-16 -1.41236381e-15
      -2.06918735e-15 -1.65603930e-15 -1.11958433e-16 -1.37052168e-16
      -2.67175262e-15 -4.03297877e-16 -5.51799878e-16 2.45389217e-17
      -2.36917572e-15 -2.94277626e-15 -1.77710879e-15 -1.60808866e-15
      -7.20906367e-17 4.42870462e-16 9.37069161e-16 -2.08962710e-15
      1.05015420e-15 -4.22565600e-16 5.81179745e-16 -1.27206201e-15
      -4.50512155e-16 5.96394892e-16 -3.48626161e-16 -6.35382575e-17
      -3.91166856e-16 8.92365939e-16 -2.01289902e-16 2.18297569e-16
      -7.62710817e-16 -4.60889473e-16 2.88240177e-16 -4.70946825e-16
      3.19771585e-18 7.07550073e-16 -8.19899676e-16 5.52588545e-17
      2.78325047e-16 6.15819740e-16 7.02432115e-17 -1.15256157e-16
      3.08543689e-16 4.34643575e-16 9.72249087e-16 2.03211399e-15
      4.97869714e-16 -2.82165336e-16 -1.76571575e-16 4.46698918e-16
      -1.20137303e-16 -4.34171883e-16 -1.65627830e-16 -1.50614846e-16
      1.49333730e-15 6.02608673e-16 -3.83639301e-16 -3.24099608e-16
      1.10060729e-15 5.69925801e-16 -4.45412699e-16 -1.96601459e-17
      -4.38432691e-17 1.10364317e-15 -1.60904041e-15 -6.35081110e-16
      -1.36753258e-16 2.26660765e-15 1.22477248e-15 -1.20046824e-15
      -1.24140842e-15 1.33162950e-16 1.42787224e-15 -5.82771850e-16
      9.02401373e-16 4.76354812e-16 -5.03588880e-16 -4.85235476e-16
      -2.39383306e-15 -1.36398054e-15 -1.92310720e-15 -4.60173677e-16
      -1.11963165e-15 5.46318199e-16 -5.15770485e-16 -5.51300129e-16
      8.60137817e-16 2.62932235e-16 -1.14566617e-15 -3.04195154e-16
      6.72210062e-18 -8.75756364e-16 -1.20018851e-15 3.96459197e-16
      9.95404665e-17 -6.00554724e-16 -6.17949869e-16 -9.57923113e-16
      3.23569603e-16 -1.28353285e-15 -9.37736094e-16 -6.78558253e-16
      -1.35253268e-16 -1.64046946e-15 3.46796809e-16 -8.46079718e-16
      -2.39649338e-15 -1.98177652e-15 -9.07318823e-16 1.38142815e-15
      1.13688709e-15 4.33848529e-16 -1.11436555e-15 -5.82407043e-16
      -1.60185090e-15 -1.69469005e-15 -2.39646606e-15 -9.32885454e-16
      -1.49123528e-15 -1.16069494e-16 -9.24994283e-16 -1.19400835e-15
      5.91982393e-17 -5.00262582e-16 -1.77525771e-16 -4.49504397e-16
      -7.61766574e-17 5.44567593e-16 -2.58801256e-16 -2.24036742e-15
      -9.18968173e-16 -5.21553285e-16 -3.69132988e-16 -2.22198145e-18
      8.02463768e-16 1.86258416e-16 -9.15153666e-16 -5.01736313e-16
      -1.14704079e-15 4.96089727e-16 -4.68524992e-17 8.70003369e-16
      5.96905230e-16 -2.44159603e-16 8.25921075e-16 2.77021437e-16
      -1.70292758e-16 -8.82942115e-16 4.13654443e-16 1.14050848e-15
      -1.05604352e-15 1.82201724e-16 -7.01281659e-16 7.25593145e-16
      -9.33311723e-16 4.63696487e-16 2.96213007e-16 7.19652268e-16
      -9.33565105e-17 -3.80181772e-17 -6.42207199e-16 7.17743691e-16
      -3.15370947e-17 1.69320735e-16 -9.05344945e-17 -1.25356514e-15
      1.04002210e-15 4.74432120e-17 -8.92870770e-16 -1.88455646e-16
      9.54137616e-17 2.44693144e-17 -5.63641663e-16 -5.83811953e-16
      -3.29967693e-16 1.00643301e-15 -8.99070205e-16 3.01920579e-16
      -8.05751341e-17 -8.63508744e-16 -1.00149385e-15 8.62439682e-16
      -2.80163453e-16 1.90437465e-15 5.24020903e-16 -5.00809289e-16
      -4.01030872e-16 1.08478800e-15 -1.03287875e-15 1.22815225e-15
      -7.06356657e-16 1.53561292e-15 6.12240920e-16 -4.74172908e-16
      1.95175092e-16 -1.26906225e-18 9.44081085e-17 8.99464287e-16
      -1.12017577e-15 -1.89250390e-15 -2.26344377e-15 6.36312243e-18
      1.75853760e-15 1.28601730e-16 -8.90791622e-16 1.65590844e-15
      -7.84189614e-16 4.65761607e-16 -1.66469873e-15 -2.67446566e-15
      -2.57346312e-15 -1.21631051e-15 -1.89914131e-16 -6.80666200e-16
      1.14939787e-15 -2.72515645e-16 7.98194139e-16 -8.10243659e-16
      3.61920794e-16 5.75184552e-16 1.05526012e-15 8.78225663e-17
      1.11560740e-15 -2.67544991e-16 -2.09872254e-15 -3.64496541e-16
      -4.92482584e-16 -9.78875743e-16 -1.40960404e-16 -8.20635271e-16
      -1.26890533e-15 -1.71739964e-15 9.13785390e-16 -4.33117698e-16
      2.50888406e-15 -4.84596714e-17 -4.76336336e-16 -6.14810500e-16
      1.45012199e-16 -1.61320601e-15 -1.55842839e-15 -7.70072592e-16
      -9.42486255e-16 3.22568252e-16 7.09465215e-16 -2.00338618e-16
      -1.64715859e-15 -2.49126175e-15 -1.82703270e-15 -1.86421893e-16
      1.16916889e-15 -3.94839114e-17 8.80991398e-16 -8.73948107e-16
      -1.83415985e-15 -3.10647555e-15 -2.04459862e-15 -3.00185851e-15
      -2.50791781e-15 -1.52487816e-15 9.12815961e-16 8.00661732e-17
      -7.11753633e-16 -8.64163342e-16 -9.21509696e-16 -3.28506418e-15
      1.42120879e-16 -4.33725788e-16 -1.38282491e-15 -9.88415769e-16
      -7.45192588e-16 1.53798088e-16 7.07559020e-16 -2.35539481e-16
      -2.28135471e-15 -2.76451416e-15 -2.71682027e-15 -2.66312664e-15
      -1.11293131e-15 7.55621310e-16 -3.64115059e-16 -9.90149116e-16
      -3.34642680e-16 -1.61693942e-15 -2.03674599e-15 -1.44310472e-16
      -1.60790697e-15 -8.14413814e-16 -7.40409975e-16 -5.76890476e-16
      -1.10999718e-15 -8.08408192e-16 -9.59136170e-16 -2.10555768e-15
      -2.49150485e-15 -1.44104646e-15 -1.72001803e-15 2.16173052e-16
      -4.32862847e-16 -1.24714294e-15 9.06113813e-16 -1.31420772e-15
      7.37852147e-16 -1.67293539e-15 -1.70552456e-15 -4.33238135e-16
      -1.11123163e-15 -1.59715844e-15 -1.58766172e-15 -5.20794661e-16
      1.40733738e-18 4.65838687e-16 -9.56629058e-16 -9.73015532e-17
      -1.88603850e-15 -1.30302435e-15 2.87228978e-16 -1.31580893e-15
      6.71809994e-16 -2.04151219e-17 -1.20281950e-15 5.02302615e-17
      -2.69354095e-16 2.76117256e-16 1.45077961e-15 4.33414345e-16
      2.08133320e-16 -1.49136826e-15 4.14408964e-16 -1.00175212e-16
      -8.27727849e-16 -2.52267482e-16 -4.18551431e-16 8.56209861e-16
      -1.03366263e-16 -2.21358614e-16 -1.07053868e-15 -1.24767837e-15
      -2.45465939e-16 6.54776426e-16 -3.82091599e-17 -1.12396793e-15
      -9.89895959e-16 -7.23649681e-16 -7.89020058e-17 -5.68771560e-16
      6.05980711e-16 -7.92112059e-17 3.94717698e-16 9.15223758e-16
      1.74045299e-16 1.05890013e-15 -9.04891968e-16 6.46046905e-16
      1.77238230e-16 1.05282670e-15 2.47156908e-16 1.01878529e-15
      1.10542543e-15 3.25103924e-16 1.30441645e-15 5.45384080e-16
      4.21777171e-16 -1.22006181e-15 -3.34093485e-16 6.86220301e-16
      -8.74453257e-16 -6.58689454e-16 -2.87493544e-16 4.51914630e-16
      -8.18246956e-16 8.37696593e-17 1.42475799e-16 5.51478270e-16
      -3.90811923e-16 -1.69420499e-16 -1.04072027e-15 -6.89190277e-17
      -5.46024384e-16 -1.17728887e-15 5.47324831e-17 -7.60911931e-16
      -1.55212964e-16 4.49406797e-17 2.16045971e-16 -2.98102605e-16
      7.10420244e-16 6.61486674e-16 -8.10268700e-16 -7.65806987e-17
      9.39992060e-16 3.91050574e-16 3.00687882e-16 3.59818246e-16
      1.22612519e-16 3.16423504e-16 4.89847412e-16 9.92940408e-16
      -6.07729927e-17 -2.98969834e-16 1.07105421e-15 -4.24086183e-16
      2.13443766e-17 1.50113349e-16 -9.31739736e-16 -1.88616810e-15
      2.85365109e-16 1.88684411e-16 3.80324146e-16 -3.57457671e-16
      -3.75499764e-16 5.12537552e-17 1.04986123e-15 1.54420618e-15
      -9.74493406e-16 -1.11164392e-15 2.05849216e-16 7.48074670e-16
      2.31216066e-15 3.64299183e-16 -8.98928962e-16 -5.71150716e-16
      -1.57246087e-15 9.24837582e-16 5.72837265e-16 1.20726907e-15
      7.15835008e-16 1.83709313e-15 -2.29281443e-16 -8.63057355e-17
      8.02760547e-16 -7.54062770e-16 1.55096417e-18 6.02588821e-16
      -9.65704487e-16 7.41195069e-16 1.39230289e-15 -4.97146103e-17
      7.29352172e-16 2.49150242e-16 1.04123293e-15 8.62009866e-16
      2.62178138e-16 -5.12197012e-16 -1.30014518e-15 3.64250849e-16
      5.38333272e-16 1.66652176e-15 1.32317981e-15 -6.87791283e-16
      -1.86541603e-16 -1.55221742e-15 2.96219889e-16 -7.27781667e-16
      1.15785740e-15 1.25212995e-15 1.68805778e-16 7.65748383e-16
      -3.97795375e-18 3.98945980e-16 1.63667769e-16 -1.46958774e-16
      3.77116168e-16 9.77153619e-16 -2.01272220e-16 -4.29794126e-16
      1.72568098e-15 8.24198792e-16 9.36159977e-16 3.65204026e-16
      1.44035454e-15 4.67122524e-16 3.31113544e-16 4.39448607e-16
      2.91049970e-16 -1.60455611e-15 -1.77023851e-15 9.05192241e-16
      5.82348016e-16 -1.19889962e-17 5.39900812e-16 8.73915550e-16
      1.23448593e-15 -2.71037361e-16 2.82856012e-16 3.97571616e-16
      -2.74731245e-16 -1.56533012e-15 -5.68773413e-16 2.67220747e-17
      -3.79710180e-16 1.19905518e-15 6.88922919e-16 3.49789799e-16
      -1.68684759e-17 -1.35283147e-15 -1.39503923e-15 -1.09271168e-15
      -5.75307822e-17 -1.51864474e-15 -8.20124510e-16 4.00064725e-16
      2.83110942e-16 1.62224830e-15 1.47780578e-15 9.37415492e-16
      1.21846579e-15 -7.63404749e-16 -8.67632100e-16 -4.22743715e-16
      -1.09669517e-15 -6.57876408e-16 -1.20276381e-15 -1.00353075e-15
      -4.34959756e-16 5.64917242e-16 -1.43070535e-15 3.12378075e-16
      3.74917667e-16 -4.43389905e-16 5.84587134e-17 -9.97500833e-16
      5.39661155e-16 -8.48302332e-16 4.28843384e-16 9.65408872e-16
      8.05055384e-17 3.55491364e-16 3.88626287e-16 -5.03119836e-16
      -1.03463811e-16 -5.71014397e-16 -5.50322229e-16 -1.50412352e-16
      1.13338980e-15 1.70781549e-16 -4.41249611e-16 -1.25703332e-15
      9.73580199e-16 -1.57091524e-17 -3.57663130e-16 9.00301261e-16
      2.88129308e-17 -4.95971672e-16 3.44896411e-16 -1.06845879e-15
      1.00785083e-15 8.13643120e-16 1.05243854e-15 1.46953811e-16
      7.41215133e-16 -1.32166574e-15 4.91979394e-16 1.80270938e-16
      -4.68575979e-16 2.29152773e-16 2.91328935e-16 -8.70329066e-17
      -1.15530265e-15 -2.33577911e-16 1.00545384e-15 7.94913475e-16
      -1.16445828e-16 -6.06527868e-17 1.40154518e-16 1.11824718e-15
      -2.48429205e-16 1.21766270e-15 -6.36172883e-16 -1.74899810e-16
      -3.12476225e-16 9.93154072e-16 4.26014347e-16 -6.56872939e-16
      6.90729110e-16 6.71481822e-16 1.28835405e-15 1.67293944e-16
      -1.21560663e-15 1.27929146e-16 -1.09458461e-16 -7.62982238e-16
      8.36856243e-17 2.02790739e-16 5.00914850e-16 -7.32313822e-16
      1.05884423e-15 -3.60753450e-16 3.51897323e-16 -1.66782061e-17</_></support_vectors>
  <decision_functions>
    <_>
      <sv_count>1</sv_count>
      <rho>-4.1300296516055823e-14</rho>
      <alpha>
        1.</alpha>
      <index>
        0</index></_></decision_functions></my_svm>
</opencv_storage>
