<?xml version="1.0"?>
<opencv_storage>
<my_svm type_id="opencv-ml-svm">
  <svm_type>C_SVC</svm_type>
  <kernel><type>LINEAR</type></kernel>
  <C>9.3132257461547893e-10</C>
  <term_criteria><epsilon>1.1920928955078125e-07</epsilon>
    <iterations>1000</iterations></term_criteria>
  <var_all>1296</var_all>
  <var_count>1296</var_count>
  <class_count>2</class_count>
  <class_labels type_id="opencv-matrix">
    <rows>1</rows>
    <cols>2</cols>
    <dt>i</dt>
    <data>
      -1 1</data></class_labels>
  <sv_total>1</sv_total>
  <support_vectors>
    <_>
      4.10507961e-10 -2.31842670e-10 7.00524472e-10 1.57506536e-10
      -2.70391348e-10 3.38696099e-10 3.67629066e-10 2.50465010e-10
      5.32780819e-10 -3.98821948e-10 1.46151768e-09 -4.52082927e-10
      -7.93196731e-10 -1.45752216e-10 -5.93525395e-10 6.93232138e-10
      -9.10759801e-10 4.78797335e-10 -5.88726623e-10 3.22062599e-10
      9.99879624e-10 -2.86793367e-10 -1.15514411e-10 3.33330780e-10
      6.72186862e-10 -1.05863462e-09 -8.39887396e-11 8.34255581e-11
      -2.65513111e-10 7.81405718e-10 3.21292271e-10 1.33334246e-11
      1.33124747e-10 3.21137228e-10 -4.21123747e-10 -1.03600406e-09
      -2.73598838e-10 4.94601748e-10 -2.08714601e-10 -3.04837849e-10
      2.60951732e-10 7.11833870e-10 5.60623048e-10 2.68050415e-10
      -7.15958293e-10 -2.09083723e-10 1.43212303e-10 2.28686653e-10
      -3.60019820e-10 5.49020662e-10 -6.07220607e-10 -1.05010070e-10
      2.76874607e-10 8.89809781e-10 2.06098999e-10 -5.39224276e-10
      1.04782505e-09 -3.64527686e-10 -5.89484739e-10 2.28696839e-10
      5.85971827e-10 -1.77910145e-10 6.87070623e-10 1.27168931e-09
      -3.74984876e-10 1.13016019e-09 4.45242815e-10 6.03819106e-10
      3.06837750e-10 -1.55815180e-10 -3.98677341e-10 6.68302247e-10
      3.05646092e-10 -5.23295518e-10 -7.59056373e-10 1.25752775e-09
      1.18407895e-09 -8.21916035e-10 1.11144993e-09 4.53066447e-12
      -7.15238868e-10 8.08750011e-10 -3.49976575e-11 4.55961713e-10
      4.76320317e-10 7.00867364e-10 9.65656999e-10 1.26882604e-09
      1.01628719e-10 1.72989012e-09 4.19208085e-10 3.47642248e-10
      1.43607970e-09 -8.21151092e-10 -1.51392809e-09 2.54748667e-10
      4.95928909e-10 1.77565140e-09 7.97256497e-11 -4.18819146e-10
      1.10603179e-10 1.14228493e-09 -7.39019290e-10 -6.99130365e-10
      -4.19740021e-10 5.47031698e-10 5.15863220e-11 -6.32622899e-10
      4.09101475e-10 -4.32757094e-11 -5.18743555e-12 4.10796563e-10
      -1.39927861e-10 1.04227083e-09 2.64756994e-10 8.76485662e-10
      -1.23786051e-10 3.77797099e-10 -1.10449183e-09 -2.03463871e-10
      -5.51057200e-10 7.23820115e-10 -4.91409934e-11 -4.99382369e-10
      -5.26317989e-10 -4.03201500e-10 9.42375178e-10 5.67250580e-10
      3.07543435e-11 3.30897983e-11 -9.85675430e-10 1.11653276e-09
      1.39926404e-09 -6.57661842e-11 -2.56074217e-10 -3.32080141e-10
      1.16791906e-11 4.33839548e-10 -5.09185638e-10 -2.09242859e-10
      -2.01811151e-10 -1.89651919e-10 -1.05369857e-09 -2.04910353e-10
      7.86041787e-10 5.91205807e-10 5.45190726e-10 -3.92887056e-10
      1.23135124e-09 4.11916556e-10 1.31852806e-10 1.53964605e-10
      -7.18041668e-11 -3.74578785e-10 1.50225873e-10 2.54042398e-10
      -4.53862975e-10 2.32682637e-10 -5.99354108e-11 -5.35441656e-11
      -6.46663278e-10 -2.33295994e-10 1.02286546e-09 7.64033337e-10
      2.68283423e-10 4.86437779e-10 2.64112308e-11 2.23281098e-11
      -4.09480089e-10 1.92608429e-10 9.72845554e-11 2.83359752e-10
      2.54283983e-10 -1.87345570e-10 -1.22512533e-09 -1.09623777e-09
      -2.21165086e-10 1.21924371e-09 -2.15621784e-10 -4.43710043e-12
      -8.44740777e-10 -2.72867451e-10 -9.50487605e-11 -6.18687490e-10
      9.56759338e-10 8.94306906e-10 5.89045424e-10 1.86440946e-10
      -6.66402711e-10 -2.06530348e-10 -1.16652643e-09 -3.19066107e-10
      -5.60071378e-10 6.73598843e-10 1.93861288e-10 -9.97011695e-10
      -1.88686844e-09 -4.33059838e-10 4.96196362e-10 -1.34655842e-10
      -2.05787068e-10 1.47174894e-09 2.69221617e-10 8.71235473e-10
      2.64809064e-10 -2.82823417e-11 4.19565160e-10 4.12581941e-10
      3.93684724e-10 5.51733659e-10 -4.64777800e-10 -5.82487114e-10
      -4.57979987e-10 4.40043474e-10 -5.44801648e-10 1.08319499e-10
      -4.90412655e-10 1.93447924e-10 -7.74594944e-10 -2.51769938e-10
      7.23501370e-10 9.24296861e-10 8.97989239e-10 -1.53780577e-09
      5.40378908e-10 3.45576456e-10 1.79348869e-10 -7.85841503e-10
      -4.25249530e-10 3.16341675e-10 -5.21140020e-10 2.11382023e-11
      2.73657486e-10 -2.09585335e-10 -5.11262199e-10 1.12955811e-09
      4.87017593e-10 9.92965044e-10 -5.07674625e-10 2.58007032e-10
      7.28324179e-10 1.11112786e-09 -6.57972343e-10 3.65787900e-10
      4.26312541e-10 9.11356157e-10 -2.30050742e-10 -2.25363096e-11
      -5.05101072e-10 2.45661602e-10 -1.99687311e-09 -4.94016217e-10
      -1.18445531e-11 3.29910932e-10 -4.40385062e-10 8.48207449e-10
      -2.37573738e-10 -4.21065016e-10 1.80615897e-10 -3.09360232e-10
      6.68879896e-10 -3.36992878e-10 -3.05374476e-10 -7.94084465e-10
      1.06109690e-10 -1.64031913e-11 -1.45942491e-09 -1.75773063e-10
      -6.58782959e-11 7.14584225e-10 4.10137091e-10 -5.96769467e-10
      -1.72661152e-09 2.78222501e-10 -8.12786005e-10 4.92402508e-10
      6.90204449e-10 5.52616675e-10 -7.72473141e-10 -1.77766735e-09
      -1.69926317e-09 -1.86170346e-09 -8.17425683e-10 8.77062103e-11
      2.75824807e-10 -9.21133170e-10 -4.69734196e-10 -8.77299011e-10
      -1.51737534e-09 -1.43054613e-09 -1.13202314e-09 -1.19665822e-09
      -8.03717704e-10 2.09966211e-10 -2.16798038e-10 1.55170632e-09
      -1.56197522e-09 -2.11645235e-09 -1.81921744e-09 -5.03224462e-10
      -1.35399775e-10 -1.71001130e-10 -1.34409417e-09 -1.22042509e-09
      -6.47073450e-10 -8.48359660e-10 -5.99928218e-10 -1.80530813e-09
      -9.19213372e-10 1.20819410e-09 -7.52412188e-10 -6.26466601e-10
      1.12256693e-09 -8.98688790e-10 -6.91793900e-10 -7.53492435e-10
      -6.42846720e-10 -1.00953447e-10 -5.64724045e-10 9.60800439e-10
      -8.02270250e-10 1.60012087e-10 -2.06040163e-09 -1.06527087e-09
      -8.26415547e-10 -8.47572512e-10 -1.32536385e-10 -6.88416546e-10
      -1.00131370e-09 -7.82607590e-10 1.78368015e-10 -1.09029497e-09
      -2.39114817e-09 -1.41336098e-09 -1.45306123e-09 -6.91870616e-10
      -5.14720488e-10 -2.05237730e-10 -7.97721111e-10 -2.10050533e-09
      -2.28084462e-09 -1.73280434e-09 3.05693193e-10 -7.46472675e-11
      -1.04808121e-10 2.59895078e-10 1.23903632e-09 -3.06673437e-10
      4.59277866e-10 -6.27708219e-10 6.95134020e-11 -6.88568036e-10
      -1.96655803e-10 -8.55616203e-11 -1.44895806e-09 -3.27399829e-10
      -7.83683174e-10 -7.70294606e-10 -1.03405828e-09 -1.77077231e-09
      2.37194764e-10 8.29880609e-11 -3.88486965e-10 5.31747923e-10
      -5.77254911e-10 -9.01628883e-10 -3.23989391e-10 -1.10659348e-09
      -5.41979350e-10 -1.18893118e-09 -3.53759882e-10 5.09143339e-10
      8.45254422e-10 1.18837407e-09 1.53302493e-09 -1.40030398e-09
      -1.24425706e-10 2.34413211e-10 -2.05175488e-10 -1.21690313e-09
      -6.98772040e-10 -6.21548646e-10 3.35733212e-11 -5.73658232e-10
      -1.04740572e-09 -8.02385436e-10 -4.17989032e-10 -6.74074185e-10
      1.72227649e-10 -2.60703625e-10 7.44593623e-12 -1.36311884e-09
      -3.80627307e-10 4.84151996e-10 5.58343594e-10 7.45249695e-11
      1.35847403e-10 -2.53684740e-10 -1.75216286e-10 -1.23923982e-09
      -3.96478655e-10 3.45100420e-10 1.21476995e-09 5.14375487e-10
      1.34940240e-10 -8.31744396e-11 6.49502618e-10 3.31592670e-11
      -2.34304631e-10 2.30250090e-11 6.48177179e-10 1.16220111e-09
      -1.32318156e-09 8.32124480e-10 4.65368660e-10 4.03362954e-10
      1.10510856e-09 1.30464584e-10 -3.02016273e-10 -5.73667613e-10
      -2.97679659e-11 1.86854227e-10 2.90597268e-10 5.00219088e-10
      4.91350738e-10 6.30896779e-10 -6.80093093e-10 -1.09160694e-10
      1.77398748e-10 4.69564443e-10 -4.59784259e-11 1.24935851e-09
      4.37625186e-10 4.86621410e-10 -3.91099736e-10 -5.26067134e-10
      1.30361028e-10 -7.11215975e-10 3.24370447e-10 2.90829860e-10
      3.62201213e-10 -9.72832148e-10 -8.47287573e-10 -7.04464431e-10
      -1.16145669e-11 5.80391790e-10 2.03229558e-10 -8.50321313e-10
      -7.83140885e-10 -2.15263674e-09 -4.08659689e-10 -5.86170446e-10
      7.75805920e-10 9.91175891e-11 1.53250079e-09 -2.22077051e-10
      5.20082144e-10 -2.96853042e-10 3.99416555e-10 3.34428596e-10
      -8.46626602e-10 -9.66222879e-10 -3.23359506e-10 -6.00061834e-10
      -5.15898047e-10 -1.26792063e-10 -8.28493940e-10 -2.13609491e-10
      -3.41945333e-10 8.77222461e-10 -2.00642103e-09 -1.23943333e-09
      -6.51914689e-10 -5.84498727e-10 -5.86788174e-10 -1.15822374e-09
      -3.45989321e-10 -2.68604194e-10 -1.56490232e-09 -2.36918796e-09
      -1.28532174e-09 3.78760134e-10 -1.16826271e-09 -8.18867821e-11
      -9.88511495e-10 -4.26812002e-10 -5.71086956e-10 7.37564065e-10
      -1.96627781e-09 -2.87999158e-09 -2.16263230e-09 -1.40968170e-09
      -1.14452903e-09 -1.27791877e-09 6.15848261e-10 -4.86495955e-10
      -2.31758265e-10 -5.06955922e-10 -2.22767294e-09 -4.79758289e-10
      -2.47378645e-11 1.24283736e-10 8.28808466e-10 2.20804666e-10
      -3.92770844e-10 4.52389737e-10 1.96428193e-10 -1.51079338e-09
      2.36672713e-11 9.12926901e-10 2.02420614e-09 4.62099359e-10
      -4.88710183e-10 1.35464495e-09 -8.54248824e-11 4.16338269e-10
      2.16595730e-12 5.45984147e-10 -9.08764120e-10 -1.20862778e-10
      6.23474050e-10 -3.70769360e-10 2.56292435e-11 -4.30802699e-10
      -4.30082497e-10 -2.70437978e-10 -5.46557632e-10 -2.57545402e-10
      8.06060108e-10 -7.67183123e-11 -4.30348431e-11 5.49132351e-10
      -4.95627359e-11 2.68714717e-10 6.26392938e-10 1.14943044e-09
      -1.23265231e-09 1.13469463e-10 2.71554917e-10 3.53408275e-10
      5.84655824e-10 8.42362347e-10 5.65971658e-10 7.02255809e-10
      7.25001670e-10 -5.97501770e-11 7.64840191e-10 2.53857046e-10
      -1.11876404e-10 8.81798801e-10 5.54553403e-10 -7.38933706e-11
      7.88303200e-10 5.53320167e-10 -8.93207730e-10 -3.98470035e-10
      8.01795796e-10 -1.82142790e-11 -4.05147554e-10 4.02406053e-10
      1.04544617e-09 -8.03893480e-11 6.35596353e-10 -2.62970840e-10
      2.80312418e-09 1.44602996e-09 1.01002606e-09 -3.49771351e-10
      -4.04913714e-10 -5.89171267e-10 -1.00428776e-09 1.70104153e-09
      -5.48220948e-11 2.99392983e-10 -7.88934543e-11 -8.52123261e-10
      8.38319802e-10 -2.30053851e-10 -1.46996790e-11 -7.51094853e-10
      1.06189124e-09 -2.07411710e-09 -2.15659357e-09 -4.77247741e-10
      3.48748530e-10 -9.56727336e-11 -1.12821530e-09 6.25089369e-10
      5.75799686e-10 1.71502229e-10 -1.96762207e-09 -2.21852448e-09
      -1.17435561e-09 -4.29587033e-10 7.19245453e-12 1.55216964e-10
      -1.01371633e-09 -7.77641118e-10 5.42198335e-11 1.92740782e-10
      9.65674096e-10 8.00317868e-10 9.83808812e-10 -9.52042778e-10
      -8.62530269e-10 -8.22510837e-10 -1.89247484e-09 -1.77865711e-09
      -1.97840633e-09 -5.56669266e-10 -1.10956366e-09 -1.54693913e-09
      -7.24405536e-10 -2.27974084e-10 -1.66471614e-10 -2.89955948e-10
      1.14567078e-09 -1.70421125e-11 1.81139326e-10 -2.92025598e-10
      -1.56213043e-10 -2.94280156e-11 -2.92841307e-10 -1.47921397e-10
      8.40474856e-10 -3.56302821e-10 6.04148120e-11 -6.33859631e-10
      -5.53677992e-10 4.31471664e-10 5.51087953e-10 5.45526957e-10
      6.17896956e-10 -4.77691664e-10 4.41177130e-11 -3.42019885e-10
      1.95261404e-10 1.65229741e-09 8.24092350e-10 3.33695710e-10
      4.84773055e-11 3.09669790e-10 2.79780948e-10 5.61922453e-10
      2.65888228e-10 4.13260565e-10 -1.04046505e-09 -1.23911673e-10
      -9.66251856e-10 4.09968809e-10 6.92513380e-10 3.99572653e-10
      1.48102408e-09 -1.39092771e-09 2.56526356e-10 1.44712242e-10
      4.47946596e-10 -1.09794340e-09 -5.37640377e-10 5.97904226e-10
      -1.55262039e-10 8.59668614e-10 -3.38834738e-10 2.52497911e-10
      -2.68367051e-10 -8.66457517e-10 1.40617717e-11 -1.72157483e-10
      -2.49174487e-10 8.69305739e-10 7.62375774e-10 -2.16354282e-10
      6.35826891e-10 4.88905083e-10 -3.93564376e-10 -5.26014454e-10
      2.37510234e-10 -9.72693592e-11 -4.90749330e-10 -1.45952816e-09
      4.97922981e-10 3.30622779e-10 -5.67712266e-10 1.53017442e-11
      3.46088380e-10 -2.31229064e-11 -6.13373408e-10 -1.86019400e-09
      -2.94468144e-10 -2.07896877e-09 -1.95226346e-09 -2.38826181e-10
      -7.02563452e-10 -2.88573665e-10 6.26650468e-11 -6.90531909e-10
      2.74439360e-10 -2.13750281e-10 -6.85983437e-10 -4.53943438e-10
      -8.77081630e-10 -1.53075974e-09 -1.14584642e-09 -7.36208705e-10
      -3.63735431e-10 -1.75023640e-09 -3.84333038e-10 -1.00087583e-09
      -2.27865038e-09 -1.33352707e-09 -5.83311455e-10 -1.01451202e-10
      -2.24474128e-09 -2.53030957e-10 -3.54659010e-11 -6.16581564e-10
      -1.78063753e-09 -2.48629162e-09 -3.20553056e-10 -7.20713711e-10
      -9.46458259e-11 -1.15489907e-09 1.33292832e-09 -8.86936025e-10
      1.77229964e-09 -1.81193713e-10 5.20611887e-10 2.02018367e-11
      -3.59156677e-10 1.10989928e-09 -6.83828050e-10 9.71240199e-10
      -1.63200092e-10 1.70457948e-09 -1.65618352e-09 1.01677122e-09
      7.66445352e-10 -4.41359310e-10 1.53756474e-09 3.27094268e-10
      -2.81727530e-10 1.94312871e-10 -4.78682816e-10 1.16191057e-09
      -4.15668888e-11 1.39097622e-10 -2.53992660e-10 1.19346111e-09
      6.71537992e-10 -5.38808775e-10 3.92033489e-10 2.45241516e-09
      7.96819902e-12 -3.04914899e-10 1.16683746e-10 1.54214730e-09
      -4.77929418e-10 -1.24336967e-12 -2.95234254e-10 -6.48775089e-10
      9.34642252e-10 1.70837636e-10 2.28152830e-10 -7.32698791e-10
      -4.19323569e-11 -3.33843841e-10 5.55284374e-10 7.80859655e-10
      -2.05486059e-10 4.69214612e-10 -1.10853515e-09 -1.63879632e-09
      -4.01866179e-10 7.25443483e-10 1.16563725e-09 -1.27455224e-09
      -2.27373412e-10 1.03501707e-09 8.34473712e-10 -3.90830313e-10
      1.70686035e-10 -2.88785679e-11 -3.44015427e-10 -1.29774205e-10
      -3.05914218e-11 -1.03394759e-09 -4.92480057e-10 -2.09601021e-12
      -4.93966645e-10 -2.03796577e-10 -9.91475901e-10 3.80813436e-10
      7.28716809e-10 5.79763702e-11 6.76220635e-10 -4.90441354e-10
      4.85245344e-10 -4.19019153e-10 -6.21080187e-10 1.12237908e-09
      -7.22380267e-10 -3.74866721e-10 -6.73294198e-10 -8.54674054e-10
      -7.78882292e-10 -2.26612529e-09 1.11575617e-10 -2.87101287e-10
      1.77597798e-10 -1.44006496e-09 -4.52329035e-10 -1.69030967e-09
      -1.55825208e-09 -1.90604088e-09 -8.75059136e-10 4.11480183e-10
      1.11981691e-09 3.38784112e-10 -1.73237327e-10 8.55458926e-10
      -1.28950206e-09 -9.27957655e-10 -1.40007905e-09 -8.59541938e-10
      -1.15635146e-09 -1.63264291e-09 -1.46648738e-09 -6.84669321e-10
      -3.81934179e-10 1.91604163e-10 -7.54234841e-10 2.97084135e-10
      1.84633923e-11 -6.98742675e-10 5.90982208e-10 -5.31924338e-10
      -3.05611564e-10 8.56365413e-12 2.04015985e-10 5.82082493e-10
      4.00149802e-10 4.39571129e-10 -8.97667995e-10 8.09280754e-10
      -8.49999349e-10 3.16413666e-11 5.74000812e-11 9.50540757e-10
      1.02839959e-09 -2.31381220e-10 -2.34788189e-10 6.28932045e-11
      -6.07616402e-10 -8.25389423e-10 -4.50808030e-10 -6.59274232e-11
      -1.18052867e-09 -4.57720223e-10 -1.30175437e-09 1.97746597e-10
      -2.45670595e-10 -1.00797842e-10 8.49360249e-10 -4.65827266e-10
      4.40596504e-10 1.61269775e-10 -4.39568687e-10 -4.10952494e-10
      1.95776106e-09 1.86677687e-10 1.50172388e-10 -3.47351703e-10
      1.49241286e-10 1.49512291e-10 -8.38577208e-10 -1.11385023e-09
      -1.18586518e-09 6.71823652e-10 -4.76115591e-10 2.69124334e-10
      1.06138953e-09 -2.83496976e-10 -5.36901634e-10 -2.82819268e-10
      2.77835144e-10 -1.11814247e-09 -1.15073084e-09 7.79435738e-10
      -1.56604573e-11 -2.63433469e-10 7.93402455e-10 7.92290678e-10
      -5.60086200e-10 -7.96464783e-10 5.53573520e-10 1.17307852e-09
      5.83480153e-10 1.06908205e-09 -2.38938452e-10 -8.16015810e-10
      4.44313614e-10 1.14410252e-10 -4.25369018e-10 7.19028115e-10
      -4.00668387e-10 -1.32875133e-09 -7.27008453e-10 -7.21724513e-10
      7.84269261e-10 -1.40974932e-09 1.33772576e-10 1.06412890e-09
      -1.62578992e-10 -1.08006748e-09 -1.34696643e-09 -1.38269607e-09
      -1.04430653e-09 -1.48457624e-09 6.03047445e-10 -1.57523194e-09
      -8.52831833e-11 7.07195483e-11 -1.09056299e-10 -1.04151376e-09
      2.90386656e-11 -1.14410960e-10 2.59241517e-10 1.91972105e-10
      7.46300632e-10 -5.23730337e-10 -1.44817214e-09 -9.24576471e-10
      1.56595584e-10 -1.24600508e-09 -1.56093555e-10 -4.25927238e-10
      -1.18271193e-09 -3.07545552e-11 1.50593482e-09 -6.78871181e-10
      1.27839717e-09 -8.80493511e-10 2.69852085e-10 -8.74701839e-11
      -1.09705778e-09 -9.66093205e-10 -1.81266657e-09 -8.73503880e-10
      5.45088086e-10 -5.52531965e-10 -4.90897600e-10 -8.41167636e-10
      -8.33847602e-10 -9.78472969e-10 -1.29234534e-09 4.73519390e-10
      3.99821121e-10 -1.54399427e-09 -7.27351235e-11 -6.59722166e-10
      -1.73156622e-09 -2.14731366e-09 -1.63092384e-09 -1.41218670e-09
      -1.27609656e-09 -7.69799668e-10 -3.46542572e-10 3.47166497e-11
      -8.61173577e-10 -8.19860457e-10 2.68086719e-10 -1.31503763e-09
      2.02527300e-10 -2.77472573e-10 -8.16181178e-10 -8.12678830e-12
      2.80082901e-10 7.42244766e-10 1.20598531e-09 1.64455047e-10
      -8.08582867e-10 -2.28131891e-09 -1.35453582e-09 -6.46871001e-10
      -1.00589981e-09 3.08857911e-10 -9.44865297e-10 -6.98601399e-10
      -3.67327335e-10 -7.92529931e-10 -8.27833302e-10 -5.75003212e-10
      -8.52954651e-10 -4.83225515e-10 -1.97797723e-10 -4.38852177e-10
      -2.78657430e-10 -1.00580499e-09 -1.82399218e-09 -6.83708146e-10
      -1.86146243e-09 -1.78176129e-09 5.38515066e-10 -4.08648705e-11
      -8.19285861e-10 -2.04690087e-09 -2.37779463e-10 -1.15809473e-09
      1.68725312e-09 -1.56122504e-09 -1.47319834e-09 -3.86578464e-10
      -1.17605659e-09 -8.82141971e-10 -8.32440172e-10 -6.12415452e-10
      2.80538565e-10 -4.93445507e-10 -4.37374276e-10 -7.10209780e-10
      -7.93673072e-10 -7.19980187e-10 -1.34712363e-11 -1.15739129e-09
      7.13327564e-10 -4.36488373e-10 -7.21340598e-10 1.11381260e-09
      1.44972742e-10 -2.04033651e-10 1.20754662e-09 5.33445510e-10
      -5.29608357e-10 -1.20874266e-09 -1.91429969e-10 -7.59730213e-12
      -3.57404439e-10 7.37913175e-10 -7.41413209e-10 1.55386881e-09
      4.76371220e-10 -2.31661218e-10 -4.79548790e-10 -1.50800095e-09
      -1.26317534e-09 7.32070182e-10 -4.20510404e-10 2.48410875e-10
      -8.80473972e-10 -1.52168528e-10 5.96299343e-10 -8.44068426e-10
      2.11425544e-10 -5.80379578e-10 -2.95863584e-10 7.74506348e-10
      -4.97606345e-10 -3.69377945e-10 -1.18963739e-09 -1.23299948e-09
      -4.04010714e-10 1.30386188e-10 -1.22530458e-10 1.00996667e-09
      2.37905806e-11 -4.44557557e-10 -4.00398811e-12 4.85647578e-10
      1.86206706e-09 -6.98341107e-10 5.81642012e-10 3.13867599e-10
      -9.06967890e-10 1.54757207e-10 4.93467663e-11 4.70585348e-10
      -6.48330833e-10 1.19630750e-09 4.81044482e-10 -1.74329037e-10
      -5.02975994e-10 -9.36423383e-10 -7.63645425e-10 4.93651953e-10
      1.54328175e-10 3.53915758e-10 -2.89932106e-10 -4.16534474e-10
      -2.16174886e-12 2.57351696e-10 5.59149338e-10 -7.01784963e-10
      1.09513520e-09 9.66293850e-11 3.95343341e-10 8.48443329e-11
      7.33094030e-10 5.73655123e-10 3.35773048e-10 -4.38191677e-10
      -1.23002913e-10 -2.08270692e-10 2.51117432e-10 -2.10852585e-10
      1.45284090e-10 -8.14998902e-10 -4.91363839e-10 -5.13246778e-10
      -3.94202067e-11 -4.24896368e-11 -5.42491496e-10 -4.66260530e-10
      -9.42633971e-10 -9.10578002e-11 -1.78887211e-10 2.23589494e-10
      6.93174462e-10 4.49732196e-10 1.17602328e-09 1.21351407e-09
      -4.44867948e-10 -7.61119334e-10 -2.65187511e-10 -1.99328071e-11
      7.86360754e-10 9.62217861e-10 -3.83267806e-10 2.41871884e-10
      -4.66997829e-10 9.85950432e-10 1.17104615e-09 1.31666711e-09
      -1.34995304e-09 1.12197984e-09 -3.77352954e-10 6.31617036e-10
      5.77276352e-11 1.61543071e-10 5.46176881e-10 -4.84582652e-10
      -1.00735142e-10 6.41830478e-10 3.99127731e-10 -4.09545731e-10
      -2.99168051e-10 3.58375496e-10 -1.86469382e-10 8.59967514e-11
      -6.76978196e-10 -3.56165930e-10 -4.62200667e-10 6.03821881e-10
      1.38127321e-09 1.54437962e-09 4.60808391e-10 -2.35126363e-10
      -5.51817092e-10 -1.81358317e-09 8.39269321e-10 5.24461551e-11
      4.97356767e-10 -5.98794569e-10 9.07856179e-10 9.64780811e-10
      -6.92233944e-12 -3.56405544e-10 -4.28689861e-10 2.01306707e-10
      3.11371873e-10 7.46676776e-10 -7.64554531e-11 3.49378027e-10
      2.10115592e-09 1.07872544e-09 5.06027442e-10 -6.08065154e-10
      7.90961407e-10 -5.85247198e-11 1.63732872e-09 -1.32922373e-09
      7.07915004e-10 -7.76964382e-10 -4.77247443e-11 -7.19875271e-11
      -3.42804146e-10 6.47752296e-10 2.45352572e-10 -4.08385936e-10
      3.30437372e-10 3.32209982e-10 5.06744258e-10 4.61854610e-10
      -5.68708192e-10 -1.42629142e-09 -7.66884722e-10 -2.53036925e-10
      1.58243052e-09 -5.06963360e-10 3.73629516e-10 1.02190492e-10
      7.94295352e-10 -3.28446020e-10 -1.31397426e-09 3.06234399e-10
      -1.09120893e-10 -7.39030614e-10 1.35535527e-10 1.39662515e-09
      8.97425578e-10 1.21627775e-09 9.73593539e-10 -3.12268794e-10
      7.87590881e-10 3.33124535e-11 -1.91519925e-10 -2.70401368e-10
      -4.93661334e-10 -1.28888855e-09 3.11588311e-10 4.59891791e-10
      1.54047781e-11 -6.23721075e-10 -6.14196083e-10 1.04387921e-09
      1.80905874e-10 -1.11770662e-10 -4.31345029e-11 -1.40391010e-09
      1.00289010e-09 -1.64348937e-10 1.01947772e-09 4.51774645e-10
      1.11328413e-09 -5.52593804e-10 7.65911667e-10 -5.05805731e-10
      -9.74423098e-10 -4.25102342e-10 -1.15082732e-09 5.09487869e-11
      3.16767196e-10 8.44531500e-10 1.18410381e-09 -2.11271639e-10
      4.62597682e-10 1.05051146e-09 -9.15868936e-10 5.87716154e-10
      7.56077145e-10 -9.61953073e-10 3.42373407e-10 9.74720096e-11
      5.97081606e-10 -5.65864633e-10 1.67968162e-09 -4.39637216e-10
      -4.61345906e-10 1.25303357e-09 -4.47423043e-10 -1.01945383e-10
      2.92267807e-11 7.75307873e-10 -3.17266435e-10 -2.61108718e-10
      -3.80666471e-11 -4.57835381e-10 1.14068525e-10 -8.70592931e-10
      2.18653776e-10 -3.80201010e-10 -5.76837855e-10 2.43653125e-10
      -1.23436750e-09 1.61194877e-10 3.02868841e-10 2.58172372e-10
      -1.93822888e-10 5.34661815e-10 1.41864256e-10 -1.13200949e-10
      -4.02577027e-10 -2.51407201e-10 1.28752486e-09 -1.29523436e-09
      4.66587324e-10 -1.04032960e-09 -7.31317229e-10 9.27472765e-10
      -3.31717653e-10 1.81470416e-09 -2.33721181e-10 1.72488468e-10
      2.07713180e-10 7.04579284e-10 3.33259698e-10 2.27422234e-10</_></support_vectors>
  <decision_functions>
    <_>
      <sv_count>1</sv_count>
      <rho>-2.7562818250004284e-08</rho>
      <alpha>
        1.</alpha>
      <index>
        0</index></_></decision_functions></my_svm>
</opencv_storage>
