<?xml version="1.0"?>
<opencv_storage>
<my_svm type_id="opencv-ml-svm">
  <svm_type>C_SVC</svm_type>
  <kernel><type>LINEAR</type></kernel>
  <C>9.3132257461547893e-10</C>
  <term_criteria><epsilon>1.1920928955078125e-07</epsilon>
    <iterations>1000</iterations></term_criteria>
  <var_all>1296</var_all>
  <var_count>1296</var_count>
  <class_count>2</class_count>
  <class_labels type_id="opencv-matrix">
    <rows>1</rows>
    <cols>2</cols>
    <dt>i</dt>
    <data>
      -1 1</data></class_labels>
  <sv_total>1</sv_total>
  <support_vectors>
    <_>
      4.39160097e-10 -1.70581965e-10 4.50032400e-10 3.38648519e-11
      6.64912125e-10 1.52133994e-09 4.46228027e-10 -3.03026909e-11
      4.89686569e-10 1.16633881e-11 1.03022901e-09 -2.88798513e-10
      -5.87193738e-10 1.03376985e-09 -5.76608261e-10 6.50702991e-10
      -9.61010382e-10 2.70320322e-10 5.44742931e-11 -6.46742437e-10
      -8.24496804e-10 9.54286650e-10 -4.99792541e-10 -3.23685634e-10
      -1.02261033e-09 -4.84720042e-10 -5.04533582e-10 4.37347603e-10
      -3.43022083e-10 2.85364288e-10 -1.03765052e-09 -9.83068071e-10
      -2.78355783e-10 1.11371223e-09 1.77160689e-10 -3.49789003e-10
      4.02264472e-11 3.56779800e-10 1.89999433e-10 1.07408027e-09
      1.42197965e-09 -6.71940489e-11 1.16432564e-09 -5.39460032e-10
      -2.94696989e-10 2.95262620e-10 4.59439486e-10 -7.99562971e-10
      -4.93068419e-10 -2.84203966e-10 1.67538455e-10 1.42187165e-10
      1.20251142e-09 6.20204055e-10 9.40069578e-10 -1.40574130e-09
      9.10255538e-10 -4.97088093e-10 -7.59571850e-10 -8.95823637e-10
      -1.95073846e-10 1.31042469e-10 1.08245501e-09 -3.17641136e-10
      -4.86215290e-10 5.46019951e-10 -6.98883104e-11 -4.05806222e-10
      8.00495947e-10 1.75324019e-10 -1.29179101e-09 -4.63372452e-10
      -8.85946205e-10 -9.69764380e-10 7.04352757e-11 3.05022035e-10
      -3.35154127e-10 1.59605718e-10 8.83934648e-10 2.31013472e-10
      -3.48035767e-10 -7.61939036e-12 1.10165925e-10 6.80176054e-11
      9.42751710e-11 8.67972139e-10 6.56261434e-10 -8.87460327e-10
      4.50119497e-10 1.51663793e-09 3.06499659e-10 -1.90024746e-10
      2.16715290e-09 -3.44176687e-10 -1.06679410e-09 1.84413027e-10
      1.50326973e-10 1.34407718e-09 6.52148557e-10 -3.79915682e-10
      -1.21641230e-09 3.23244570e-10 -1.31510791e-09 -4.85624430e-10
      1.66415250e-11 -3.22583735e-12 -1.68897771e-10 -9.15224230e-10
      -8.82683301e-11 5.61304891e-10 -1.02872821e-09 8.23612178e-10
      -8.68968120e-10 1.66263958e-09 5.51479418e-10 8.18053514e-10
      -4.94335906e-10 -6.19600371e-10 -4.58692084e-10 6.94161048e-11
      -1.25328181e-09 1.77477089e-10 -3.42567197e-10 7.96124833e-10
      6.60320909e-10 3.92434168e-10 1.87469018e-09 -3.04240771e-10
      4.64335181e-10 -6.28092911e-10 -6.53951004e-10 -3.06230707e-10
      8.98743191e-10 -1.35592773e-10 -1.46659716e-11 -6.22362883e-10
      -6.50476006e-10 5.79537640e-10 -1.17216759e-09 -5.42147716e-10
      1.07306039e-10 9.05137798e-10 -3.74535403e-10 4.39481312e-10
      3.87261112e-10 3.10937082e-10 3.66699365e-10 1.39071021e-09
      8.70085726e-10 7.41097961e-10 3.99741629e-10 -7.71926800e-10
      -4.25263130e-10 1.16481033e-10 -1.68292203e-11 1.34101466e-10
      -4.88918794e-10 1.96875224e-10 -4.26085250e-10 -1.75470166e-10
      1.64164571e-10 -1.34757955e-10 6.29274133e-10 -5.12183240e-10
      3.29731992e-10 -6.08664091e-11 9.36819178e-10 6.45409004e-10
      2.50093224e-10 4.09200007e-10 1.74203346e-10 -2.43830872e-10
      -7.63615560e-10 1.11395504e-09 -1.54306501e-09 -6.21115326e-10
      8.91056950e-11 9.96134508e-10 -1.73296613e-10 -6.28399444e-10
      4.74660089e-10 -5.03098341e-10 -8.09477485e-11 -5.55692714e-10
      2.32589531e-10 1.01545439e-09 1.20795179e-10 -8.53819682e-10
      3.01709130e-10 1.77520068e-10 -4.21036317e-10 2.71314193e-10
      2.71291739e-10 7.66892827e-10 4.40890185e-10 -1.89811986e-10
      -3.08263803e-10 -1.52324375e-10 1.01351183e-09 -1.88371041e-10
      6.45866347e-11 1.07961440e-09 -1.19732436e-11 2.03012065e-10
      -6.15182238e-10 -4.68079075e-10 -7.77573839e-10 8.48974058e-10
      -3.93530125e-10 -3.73555853e-10 4.90834262e-10 -1.40253453e-09
      -8.35223057e-10 -4.51894411e-10 4.54004556e-10 6.70515421e-10
      7.79989892e-11 -3.73021752e-10 -8.76186346e-10 5.92317341e-12
      -3.37803563e-10 3.24218624e-10 1.44896772e-09 -7.60216889e-10
      8.82410367e-10 1.00337842e-10 -1.02778383e-10 -2.55726884e-10
      -4.59111749e-10 1.11828280e-09 -1.18651353e-10 -6.14822249e-10
      4.52557020e-10 1.20921095e-09 -3.02982472e-10 1.12240717e-09
      -1.40901693e-10 4.80134044e-10 1.67298606e-10 6.64194463e-11
      1.00637487e-09 4.14182355e-10 -3.16626697e-10 7.80510434e-10
      -2.40621800e-10 1.31799660e-09 -1.19456153e-10 -1.22856142e-10
      -4.81504336e-10 -2.10717763e-11 -4.57526267e-10 -1.18323751e-09
      -4.06101763e-10 2.56167282e-10 -4.66446048e-10 2.03202021e-11
      5.99308159e-10 5.35374939e-11 -5.57563051e-10 4.64128402e-10
      1.75653858e-09 -7.70859654e-10 -4.10987411e-10 -8.23649204e-10
      -1.32977213e-10 -4.82905715e-10 -1.39455919e-10 4.53106969e-10
      2.66297290e-10 2.55759259e-12 1.39772838e-09 -4.09917295e-10
      -1.41861412e-09 5.62460634e-10 -7.25503047e-10 -7.88905496e-10
      7.57676699e-10 8.95996943e-10 -7.24660193e-11 -1.63586522e-09
      -2.32945840e-09 -1.67887215e-09 -7.65412126e-12 -5.62411506e-10
      -1.17573493e-10 -7.92159227e-10 -2.91963925e-10 -1.05143849e-09
      -1.44906043e-09 -1.04445208e-09 -4.65440048e-10 -6.02611516e-10
      -4.24424385e-10 -4.13421908e-10 2.55650862e-10 1.99180353e-10
      -1.48834056e-09 -1.89025551e-09 -1.22111332e-09 -8.30850388e-10
      1.29533190e-10 2.61572375e-10 -2.99259756e-10 -4.42576947e-10
      8.41680822e-11 -6.78072820e-10 3.98574562e-10 -1.17591947e-09
      -3.52891438e-10 9.25083954e-10 -3.20002219e-10 1.64077821e-10
      7.70731201e-10 -7.60347840e-10 -4.10303264e-10 -5.67430103e-10
      -5.44114753e-10 -1.51204305e-09 -1.14658383e-09 5.34202071e-10
      1.14087968e-10 1.00432818e-09 -2.30000463e-10 -9.82994353e-10
      -9.87959936e-10 -1.13231446e-09 6.28052221e-10 -7.48470563e-10
      -5.10112785e-10 2.29000346e-10 -1.86294716e-10 -7.93668631e-10
      -1.85285154e-09 -2.41757697e-10 -4.79300710e-10 -6.55716648e-10
      2.04473286e-10 -5.60903379e-10 -2.03532594e-10 -7.40828343e-10
      -1.10124951e-10 -1.16325272e-09 1.73551062e-10 5.83912863e-10
      8.42505232e-11 4.72096529e-10 2.66547340e-10 4.85210649e-10
      6.90367319e-10 -1.09024800e-09 -9.70751257e-10 -6.72538913e-10
      -1.45445744e-09 -3.62498281e-10 -2.18801266e-09 -2.19814195e-10
      -8.33556724e-10 -1.45693624e-09 -7.46875672e-10 -1.91515515e-09
      4.02448991e-10 -5.54612523e-10 -4.01545047e-10 -2.48714771e-10
      -1.46177612e-10 2.87078306e-10 -2.90306112e-10 5.60254232e-10
      5.79111203e-10 3.00812847e-11 -5.10486875e-10 8.30819635e-10
      6.00030525e-10 1.03753695e-09 1.53459423e-09 -1.16211241e-09
      3.18097076e-11 -3.18439330e-10 -5.14204013e-10 -1.64405933e-09
      -1.55617708e-09 -1.36719935e-09 -3.62918612e-10 -4.10098872e-10
      -2.20461605e-09 -5.38872502e-10 -4.93953600e-10 -1.00685937e-09
      -1.69732961e-09 -6.89011681e-10 -7.03510306e-10 -3.58729713e-10
      3.21266291e-10 -2.69104516e-10 -5.83809223e-10 1.02262802e-10
      1.57656180e-11 -1.38350797e-09 -7.38972383e-10 -9.66301372e-10
      9.79751169e-10 1.89968360e-10 1.00142061e-09 2.71447337e-10
      -7.06970205e-10 -8.65970740e-10 9.28584598e-10 8.64242289e-10
      -6.16187726e-11 8.43457582e-10 8.56845095e-10 6.08490480e-10
      -2.65916622e-10 5.82397741e-10 -9.18042031e-12 -9.17419585e-10
      -5.66835745e-10 1.06977510e-10 -2.52677768e-10 -7.97446553e-10
      1.23110622e-09 5.33592392e-10 -9.70401745e-11 4.31622488e-10
      7.83963505e-10 6.16463214e-10 -1.24494315e-09 4.13991313e-10
      -5.47441703e-10 5.14853160e-10 -2.15434948e-10 5.06881925e-10
      -2.37636549e-10 4.05082551e-10 -4.34769276e-10 -7.99404321e-10
      1.00074526e-09 -5.99541361e-10 6.06497297e-10 1.42714329e-09
      -4.01735450e-10 -1.22216592e-09 -7.93548283e-10 -6.48284829e-11
      5.01766073e-10 -7.01523284e-10 -1.87954222e-10 -5.17719423e-10
      -7.51384066e-10 -1.38577461e-09 -4.79386753e-10 8.34109892e-10
      7.12810366e-10 3.96046251e-10 1.35966216e-09 7.20988158e-10
      -2.39729264e-10 9.99827929e-11 -2.72012690e-10 -3.57694763e-10
      -4.72467121e-10 -1.21874333e-09 -7.17530202e-10 -6.96694036e-10
      -7.65886909e-10 -3.88296964e-11 2.83320201e-10 -2.93924440e-10
      -4.53751897e-10 -4.29204366e-10 -7.84060095e-10 -1.92878247e-09
      -1.04532516e-09 -4.18424795e-10 5.77241088e-10 -2.32410396e-10
      -4.80552653e-10 5.88744664e-10 -6.78640311e-10 -2.17270824e-09
      -1.45823409e-09 2.02675543e-10 -1.33892164e-09 8.94388591e-11
      -2.54745530e-11 4.43592454e-11 -2.67096900e-10 9.18874921e-10
      -1.39507916e-09 -1.53179613e-09 -1.90227367e-09 -1.13972731e-09
      1.22136412e-10 -2.42731141e-10 8.72954764e-10 -6.08827100e-10
      -1.95129413e-10 -7.25200566e-10 -1.33684364e-09 -6.29224228e-10
      -3.74239445e-10 -6.40710207e-10 4.80580298e-10 5.13532328e-10
      -2.87684404e-10 -7.99235678e-11 -8.64404992e-10 -4.92932695e-10
      1.52885604e-09 3.25407673e-10 6.51676046e-10 3.91593591e-10
      4.25536328e-10 1.56670099e-09 1.99919969e-10 -8.35610747e-10
      -9.21598388e-12 3.58316050e-11 4.04814827e-11 5.44458145e-10
      5.70628655e-10 1.22651597e-10 3.31360744e-10 1.04745268e-10
      1.20668753e-10 -3.27921801e-10 2.87813912e-10 -1.14479115e-09
      3.18097493e-10 -7.09265091e-10 -5.45515993e-11 4.62661659e-10
      -3.16063259e-10 2.74039735e-10 8.04493069e-11 1.35383904e-09
      4.87351583e-11 -3.40176541e-12 9.50933887e-10 -1.21517671e-10
      1.25124333e-09 9.70027281e-10 -3.33426176e-10 4.87065388e-10
      1.14300758e-09 -2.01756223e-10 4.91022500e-10 5.12639549e-11
      5.65147040e-10 5.96171307e-11 -5.11350406e-10 1.05797904e-09
      1.42822831e-09 -1.59698574e-10 -1.11788889e-09 2.28307706e-10
      1.06789036e-10 6.65108801e-10 -6.12732365e-11 -1.02671108e-10
      1.16439280e-09 2.12291337e-10 1.21451793e-09 8.50652188e-11
      1.57322655e-09 1.77436454e-09 1.19889032e-09 -8.63063926e-11
      2.66314026e-10 9.34888902e-11 -1.21699673e-09 3.90374094e-10
      -7.41192663e-10 -2.84518575e-10 -6.85635826e-10 -3.96662175e-10
      3.21993071e-10 -1.65578259e-10 -9.64684166e-11 -4.57523130e-10
      4.14275669e-10 -5.77804415e-10 -1.84269000e-09 -8.94083807e-10
      3.91665311e-10 -1.17899657e-09 -4.08851647e-10 9.24356591e-10
      -8.20230661e-10 -8.46628767e-10 -1.49255730e-09 -1.43999013e-09
      -1.53873569e-09 -7.88361154e-10 3.88949067e-10 -1.22942434e-10
      -9.31256239e-10 -2.58693428e-10 1.91819463e-10 -5.58689595e-10
      4.74337791e-10 5.56569402e-10 -8.32379304e-11 -4.02779338e-10
      -8.30200797e-10 -1.25313904e-09 -2.18880336e-09 -1.06967935e-09
      -1.45418444e-09 4.67807078e-11 -1.15124166e-09 -1.26452071e-09
      -4.33123676e-10 -1.89442781e-10 1.01979994e-10 4.98739494e-10
      6.05642703e-10 -4.11790074e-10 1.49495388e-10 -3.72906817e-10
      -6.70868527e-10 4.58009075e-10 1.45854009e-10 2.08931747e-10
      1.27377986e-09 3.54817425e-10 8.44117165e-10 -7.12796322e-10
      9.20555132e-10 2.57873445e-10 -9.28030874e-10 -4.31815972e-10
      4.68318329e-10 3.99586544e-11 8.52071469e-10 -2.99571756e-10
      1.55639918e-10 1.01982778e-09 3.37894122e-11 -2.38851716e-10
      -4.31506969e-10 8.97610652e-10 -1.38419998e-09 -7.56897933e-10
      9.85100557e-10 -1.53602825e-10 5.32762445e-10 7.06344760e-10
      -1.17636401e-09 -4.21729068e-10 2.10123152e-11 -1.60559621e-09
      4.92870023e-10 2.54698844e-12 3.05055321e-11 -5.99317262e-11
      -4.74135287e-10 -4.99581654e-10 -5.19928156e-10 6.71248612e-10
      3.95938768e-11 2.79369694e-10 1.93763148e-11 1.65280914e-10
      7.93462795e-10 5.82023096e-10 -1.71482786e-10 -2.42252746e-10
      -2.60882232e-10 2.35373887e-10 1.11028320e-09 -4.63571015e-10
      1.24728938e-09 7.36275318e-10 1.98532718e-10 -5.27560329e-10
      7.27732180e-11 4.40792319e-10 3.81194798e-10 -3.52788687e-10
      5.16140186e-10 9.38788269e-10 2.82157232e-11 7.31218211e-12
      -6.58147148e-10 -2.26828611e-10 -1.04557341e-09 -1.68089354e-09
      -2.19024554e-09 -2.81538437e-09 -1.62266189e-09 -5.22651200e-10
      5.07616449e-10 -2.02031780e-10 4.29643515e-10 -1.28312361e-10
      -2.25815894e-10 -8.15791434e-10 -9.25213406e-10 -5.70405612e-10
      -6.12940088e-10 8.72323547e-10 -5.02646924e-10 -1.13170562e-09
      -7.43383355e-10 -1.70753500e-09 1.47493462e-10 -1.65479708e-09
      -2.58423372e-09 -4.27927777e-10 8.74307682e-10 -3.13885251e-10
      -1.99962069e-09 5.20738674e-10 -1.99497308e-10 -1.03010922e-09
      -2.03318451e-09 -1.46853274e-09 -1.43971945e-09 -7.47501158e-11
      5.74223280e-10 3.87469196e-10 9.14646525e-10 -1.92201477e-09
      1.80069726e-09 -4.70471495e-10 7.32516825e-10 -6.34959862e-10
      -4.53979104e-10 1.26852173e-09 -2.65270639e-10 -3.17127130e-10
      -1.30949318e-09 5.62334346e-10 -8.67375227e-10 2.04523787e-10
      5.78723236e-10 -1.45659895e-09 8.28515201e-10 1.36893807e-09
      -5.42036138e-10 6.99789282e-10 2.41283393e-13 3.32795264e-10
      -3.17764287e-10 1.96140035e-10 1.02067396e-10 6.83969548e-10
      -1.20965571e-10 5.23944943e-10 1.31674827e-09 1.55316915e-09
      5.28171618e-10 9.54837806e-11 -2.28823169e-10 6.64126643e-10
      -3.50138307e-10 -5.00255948e-10 -3.76769199e-10 -4.00339241e-11
      9.43687017e-10 3.51011886e-10 -9.41897005e-10 6.79785839e-10
      5.73602388e-10 -2.67416866e-10 3.33672479e-10 -5.07252518e-10
      -1.17675050e-10 -3.96952360e-10 -6.78948953e-10 6.13541926e-11
      -8.67162508e-10 9.33959909e-10 1.28125255e-09 -1.08609954e-09
      -6.33592234e-10 3.25488969e-10 8.52458160e-10 -7.75955800e-10
      1.16534407e-10 7.82132914e-10 -3.63094027e-10 -4.15162044e-10
      -1.08180331e-09 -3.61674912e-10 -2.44705145e-10 -9.20022336e-10
      -9.78809742e-11 8.09960321e-10 1.60429767e-10 -1.76009041e-10
      5.50738177e-10 -4.37953979e-11 -2.00772121e-10 9.92369298e-10
      4.07829492e-10 -1.92166033e-10 -1.31320366e-09 1.07869136e-09
      -5.52496771e-10 4.13189122e-10 -5.91830362e-10 -7.77644948e-10
      -6.62801536e-10 -2.56575694e-09 -7.81368525e-10 -2.21973595e-09
      8.60633509e-10 -6.52913001e-10 -1.22196686e-09 2.11611242e-10
      -1.51085899e-09 -1.15073095e-09 -6.45099030e-10 4.04377670e-10
      5.37025646e-10 1.68917602e-10 -4.04868777e-10 4.87190566e-11
      -1.10593001e-09 -1.06689668e-09 -1.75933124e-09 -3.20707488e-10
      -9.44945899e-10 -4.14954515e-10 -1.46170220e-09 -1.23067156e-09
      9.28798538e-10 7.02654490e-10 4.12013392e-12 2.22224072e-10
      1.50489843e-10 -9.68078950e-10 1.73807968e-10 -1.63625569e-09
      -5.59210234e-10 -5.98347150e-10 -4.88581675e-10 9.63116809e-10
      1.87171362e-10 -4.12970269e-10 2.64101380e-10 3.11499160e-10
      3.10333259e-10 1.94225625e-11 -5.36061362e-10 4.41518044e-10
      8.31247071e-10 2.48281506e-10 -1.99170486e-10 3.87382848e-10
      -2.16310983e-10 -5.35122169e-10 5.94206240e-10 -4.61409910e-10
      -5.67598302e-10 -7.94196209e-10 8.42001191e-11 9.15653775e-10
      3.69837466e-10 2.58482791e-10 4.46008203e-10 6.50124232e-10
      2.00037431e-10 2.75784257e-10 4.39828590e-10 2.55361617e-11
      7.58767216e-11 9.15560905e-10 -2.60864857e-10 -1.37780398e-10
      8.19444124e-10 3.15912019e-11 -4.29748764e-10 -6.14187923e-10
      -5.03915021e-10 1.38585948e-10 -3.66991770e-10 -1.93983926e-10
      -1.34315958e-09 -1.01815098e-10 -1.12182441e-09 -5.67114911e-10
      1.63470099e-10 -6.07930317e-10 -5.18968479e-10 1.00467124e-09
      4.96825879e-11 1.39984868e-09 -3.11194820e-11 -2.56203642e-10
      -5.38576517e-10 6.72387923e-10 3.00784925e-10 2.98211678e-10
      1.28823081e-11 1.00413444e-09 7.75131955e-12 3.85998650e-10
      -5.51014956e-10 2.56542593e-10 3.73216208e-10 3.71330300e-10
      1.75721257e-10 -1.25192035e-09 -1.08401799e-09 -2.51664189e-10
      3.32385952e-10 -3.97744060e-10 -4.50277010e-10 1.09475340e-09
      -4.22074042e-10 -3.80623283e-10 -2.13690421e-09 -1.86112803e-09
      -1.68829795e-09 -8.98240371e-10 -6.76001533e-10 -1.84233323e-10
      3.50227014e-10 -6.19825302e-10 -5.50412549e-10 -5.10658293e-10
      1.08837807e-10 -4.55485705e-10 -5.58991013e-11 -1.34505115e-10
      3.87194665e-10 -3.39037382e-10 -6.87223833e-10 -1.00172548e-09
      1.73013742e-10 -1.23780552e-09 6.09590878e-10 -9.45642564e-10
      1.66873362e-10 -8.04079192e-10 8.13899614e-10 4.98277697e-10
      1.21635635e-09 7.46912143e-10 -4.65941619e-10 -2.61740379e-10
      -4.40281589e-10 -7.29924066e-10 -1.22365151e-09 -8.60368721e-10
      4.86701734e-10 -2.81693363e-10 1.95171782e-10 -5.75618608e-10
      -1.17745780e-09 -8.20515045e-10 -1.23707411e-09 -2.76587031e-10
      4.28908215e-10 -3.53476942e-10 -4.01073813e-10 -9.65999281e-10
      -1.71539360e-09 -1.65767844e-09 -1.32232814e-09 -1.65866532e-09
      -1.34640754e-09 -7.15758453e-10 3.63478497e-10 -2.35556880e-10
      -1.38733924e-09 -6.76759759e-10 1.73494025e-10 -1.90269267e-09
      3.21466215e-10 2.07851764e-10 -6.31121932e-10 -9.93275573e-10
      5.59949753e-10 -6.91984137e-10 3.97305411e-10 -1.25625510e-10
      -1.01178532e-09 -1.82546467e-09 -1.68933356e-09 -1.53899793e-09
      -1.18589472e-09 4.18876267e-10 -9.75852732e-10 -5.06018116e-10
      -7.46644829e-11 -8.70463757e-10 -1.68062042e-09 -4.62621552e-10
      8.23601673e-11 -1.00370701e-09 -8.73003114e-10 -5.76463710e-10
      -1.05824782e-09 -1.29196487e-09 -1.58177349e-09 -1.23732857e-09
      -1.65250758e-09 -1.03292175e-09 -3.32781858e-10 1.47038270e-10
      -2.06799355e-09 -1.12705745e-09 -5.00088082e-10 -1.62866720e-09
      7.72995223e-10 -8.88568941e-10 -8.92860064e-10 -8.51043624e-10
      -1.82189319e-10 -2.09681339e-09 -1.33506950e-09 -8.86962503e-10
      -3.79900139e-10 -4.70062544e-10 -7.48168472e-10 -2.07208539e-11
      -2.63352035e-10 3.28099742e-10 -5.84191195e-10 -7.49714624e-10
      1.74374370e-09 3.97997829e-10 3.77742199e-10 1.49399063e-10
      2.99894554e-10 5.43207770e-11 2.00647318e-10 1.60159011e-10
      -2.26876046e-10 -5.20380516e-10 3.55080659e-10 -6.61598332e-10
      -1.90789828e-09 6.29713170e-10 1.78067127e-11 2.61918848e-10
      3.96812555e-10 4.27770423e-11 -6.30695607e-10 -2.02617634e-09
      -6.45949405e-10 2.64614192e-10 -1.25999511e-09 1.89680646e-10
      6.87206125e-10 -1.11222020e-09 -3.94212774e-10 -3.13985754e-10
      4.69838335e-10 4.06756157e-10 7.57847951e-10 2.08928111e-10
      -2.98605363e-10 1.30781358e-10 2.76005913e-10 -8.83517648e-10
      -3.98749089e-10 1.32864733e-10 9.61319135e-10 5.90557714e-10
      -1.25930655e-09 7.85577103e-10 -3.84919208e-10 5.87880231e-11
      7.53764995e-10 -1.11255305e-09 5.24774391e-10 8.48405790e-10
      -1.25613409e-09 3.00647618e-10 -2.10339773e-10 4.59515787e-10
      5.97250652e-11 1.65136183e-10 -4.56571447e-10 -6.28342267e-10
      -2.14585405e-10 -4.84741795e-11 -1.24498101e-09 6.46593890e-10
      -9.20900245e-10 -8.70751637e-10 6.97371272e-10 -1.73884587e-10
      -5.78622872e-10 -3.72611580e-10 6.57380206e-10 -1.20691424e-09
      2.45846371e-10 4.20244672e-10 4.28620944e-10 2.97616459e-10
      -3.69528963e-10 -1.46331128e-10 3.96880334e-10 1.53052446e-10
      -2.10365558e-10 -1.25373345e-09 -2.44695819e-10 5.65304359e-10
      -9.84068382e-10 5.65975156e-10 1.08945253e-09 -2.62164818e-10
      -1.45263593e-11 -1.68272410e-10 -4.56459176e-10 3.44291706e-10
      -9.53627066e-10 8.13578718e-11 -4.18474387e-11 -6.87855467e-11
      8.04814895e-11 5.75918424e-10 1.01376785e-09 1.38679523e-09
      7.08497983e-10 -8.77386552e-10 -1.44474621e-09 6.29877872e-10
      7.97533872e-10 -3.05245169e-11 -1.40385759e-09 -8.86529530e-11
      -1.12415376e-10 1.41195264e-10 9.45663881e-10 6.77749190e-10
      -7.73339615e-10 -1.19063953e-10 -1.87314442e-10 1.06027714e-10
      -6.25717422e-10 -7.72717668e-10 1.18332411e-09 1.11792305e-10
      -9.83309212e-10 3.75072501e-10 4.74273565e-10 -1.65062783e-10
      2.54342519e-10 3.44230339e-10 9.19883059e-10 1.13701037e-09
      3.91931175e-11 4.22100604e-10 1.60249272e-10 9.07553921e-10
      7.98505317e-10 5.86547422e-10 7.78389686e-10 -4.54411009e-10
      -5.27912547e-10 -2.31614439e-09 -4.50863347e-10 1.70872802e-10
      6.68501587e-10 -4.00144307e-10 5.39999712e-10 -9.55305557e-11
      2.03082953e-10 2.15706980e-10 9.61781765e-11 -1.95769095e-10
      4.92157259e-10 3.33755551e-10 5.92248084e-10 -8.13372814e-10
      1.85745996e-09 4.74448592e-10 2.46642845e-10 -1.27959351e-10
      1.00058006e-09 -4.71385320e-10 4.94793650e-10 2.00832420e-10
      2.95266506e-10 3.52439744e-10 -2.38690151e-10 -2.52697974e-10
      -7.37762421e-11 -6.52623788e-10 4.22067881e-10 -5.37570710e-10
      -1.60365943e-10 -2.78978923e-10 1.48445048e-10 4.48160981e-10
      -7.63595576e-10 -9.69036851e-10 -1.63428859e-09 4.18589968e-10
      2.26378416e-10 -3.35171002e-10 -7.31247451e-10 -6.16130702e-10
      2.59935518e-10 1.00280765e-11 -1.27148159e-09 -9.12748280e-11
      5.79392756e-10 -5.71646563e-10 -3.98552913e-10 1.06312825e-09
      1.11555010e-09 1.44685086e-09 6.13174511e-10 -3.39688278e-10
      1.29176600e-10 -1.58839009e-09 -7.45016160e-10 -1.61078695e-09
      1.79003451e-10 2.76442563e-10 -9.00245156e-10 -8.20229273e-10
      -5.82012494e-10 1.18031218e-09 7.70116609e-12 1.52163518e-10
      -4.24427160e-10 -4.48088025e-11 3.76573994e-10 -4.74486173e-10
      7.04972414e-10 -3.70309894e-10 9.31778765e-10 8.32268976e-10
      -3.42304032e-11 -4.43447806e-10 -1.82354257e-10 2.75931833e-10
      -2.95714647e-10 -1.02722775e-09 3.26789984e-11 -1.20075089e-10
      8.04208644e-10 1.21757016e-09 7.33873129e-10 -4.00829842e-10
      1.18979071e-09 4.65981809e-10 3.07320391e-10 -3.44902717e-10
      8.89606111e-10 -1.17398413e-09 1.15752734e-10 8.33746239e-10
      -9.61804074e-12 -1.73704023e-10 5.45871182e-10 -1.10835430e-09
      7.66655850e-10 -3.99120070e-10 1.43808368e-10 -2.41274195e-10
      5.68894432e-10 2.56783317e-10 -2.86215968e-10 -4.34903752e-10
      -5.19236598e-10 4.27460012e-11 7.21288140e-10 -2.79098661e-10
      9.47353973e-10 5.89917282e-11 -2.48744803e-10 8.03998368e-10
      -5.86325877e-10 1.54002117e-10 1.08167364e-09 1.19297938e-09
      6.98251179e-10 -5.43004197e-10 6.27945751e-10 -1.08968068e-09
      -1.77455051e-10 7.01344816e-10 -3.98953544e-11 -4.37436996e-11
      -5.49441548e-10 5.92300098e-11 2.19500529e-11 -1.21660931e-10
      -8.40771841e-10 4.89759622e-10 8.34615765e-10 -9.92297980e-11
      1.28301841e-10 -4.87796747e-10 6.99596270e-10 4.04758421e-10</_></support_vectors>
  <decision_functions>
    <_>
      <sv_count>1</sv_count>
      <rho>-2.7995435303296290e-08</rho>
      <alpha>
        1.</alpha>
      <index>
        0</index></_></decision_functions></my_svm>
</opencv_storage>
