<?xml version="1.0"?>
<opencv_storage>
<my_svm type_id="opencv-ml-svm">
  <svm_type>C_SVC</svm_type>
  <kernel><type>LINEAR</type></kernel>
  <C>9.3132257461547893e-10</C>
  <term_criteria><epsilon>1.1920928955078125e-07</epsilon>
    <iterations>1000</iterations></term_criteria>
  <var_all>1296</var_all>
  <var_count>1296</var_count>
  <class_count>2</class_count>
  <class_labels type_id="opencv-matrix">
    <rows>1</rows>
    <cols>2</cols>
    <dt>i</dt>
    <data>
      -1 1</data></class_labels>
  <sv_total>1</sv_total>
  <support_vectors>
    <_>
      9.63777114e-11 2.40915812e-11 -1.63909719e-10 -1.01892206e-09
      1.22065391e-09 3.45502515e-10 1.23482682e-10 -8.45770842e-10
      5.06795994e-10 -7.38832218e-10 7.45917272e-10 6.04879702e-10
      -2.87077417e-10 1.56415247e-09 2.82901008e-10 1.58776992e-10
      3.69894726e-10 4.37021558e-10 -6.87847418e-11 3.34531736e-10
      9.51661860e-10 5.73951997e-10 -3.69404091e-10 2.83422785e-10
      -1.55637847e-09 7.33464192e-11 5.34757960e-10 -5.38695866e-10
      4.73711237e-10 9.12882936e-10 6.15962281e-11 1.56991975e-10
      -5.73900039e-10 -2.28084829e-10 -9.99761718e-10 -5.16727328e-10
      3.85289162e-10 -1.59637331e-10 -3.29067634e-10 -5.81426920e-11
      8.37063419e-10 -9.25175145e-11 8.21385404e-10 4.18600543e-10
      -2.59132438e-10 2.97550651e-10 -2.94416574e-11 -5.10232856e-10
      1.07283804e-09 2.24490981e-10 9.20640453e-10 -8.01001598e-10
      2.34094105e-10 1.01078278e-10 4.67441474e-10 -5.27261124e-10
      1.20851518e-09 -8.86200419e-11 -8.81389822e-11 -4.99381536e-10
      -7.03424333e-11 2.02411976e-10 6.86743107e-10 4.85751384e-10
      -5.11710230e-10 9.86352222e-10 7.62899910e-10 4.91452268e-10
      2.51397015e-12 1.06270381e-09 -1.25844257e-09 -3.49489847e-11
      4.47525794e-10 -2.73416512e-10 -2.44090415e-10 1.21027932e-09
      9.65226010e-10 -2.47454252e-10 3.30331804e-11 -3.69511338e-10
      -8.61384741e-10 -5.13202592e-10 3.89263705e-10 6.90088209e-10
      2.61023647e-10 6.14672646e-10 -7.51953638e-11 3.51294660e-10
      1.10309428e-10 1.12511700e-09 6.03192662e-10 2.32378450e-10
      1.07532927e-09 -7.61438135e-11 1.92334579e-10 6.14821305e-10
      -9.89621371e-11 3.70470266e-10 1.08000886e-09 -3.90190519e-10
      -1.22275801e-09 2.23124616e-10 -8.59685767e-10 -2.79883727e-10
      -7.89338761e-10 -4.64001282e-10 3.04668207e-10 -8.47741377e-10
      4.17595986e-10 1.78937962e-10 -1.00463728e-10 7.57726049e-10
      -1.88451157e-10 7.73630882e-10 7.53295593e-10 -5.84995108e-11
      -3.04458875e-10 1.47775958e-11 -7.35931760e-10 1.28820843e-10
      -6.87536764e-11 6.51953158e-10 -5.94347127e-10 1.76554812e-10
      -3.50528884e-10 -2.39709946e-10 2.48065596e-10 3.68993031e-12
      2.42445508e-10 1.17861931e-09 -1.79909740e-10 5.89689297e-10
      1.23645372e-09 -4.18062612e-10 -2.55110905e-10 2.90107965e-10
      -6.65825617e-10 -2.53589594e-10 -6.75749234e-10 2.72029815e-10
      1.19303456e-10 2.68584266e-10 -7.81263609e-10 4.04809880e-10
      4.91805097e-10 7.00276948e-10 1.23012170e-10 1.49352995e-11
      3.69038217e-10 3.61848856e-10 1.03062703e-09 5.68662617e-10
      2.97350006e-10 -2.98071512e-10 1.07027803e-10 -2.05465617e-10
      1.08520348e-09 6.21179497e-10 -7.82291038e-11 -4.92761054e-10
      1.16396574e-14 -8.06015046e-11 -4.82743789e-10 -4.63885763e-10
      -6.38812891e-11 -3.96080863e-10 1.07762110e-09 -5.07200705e-12
      1.36693212e-10 6.03489897e-11 -5.51506396e-10 1.22406696e-10
      -7.72460207e-10 1.25301425e-09 -8.25290059e-10 -1.06693820e-09
      -1.08885623e-09 5.09431497e-10 -5.38097733e-10 -1.07510632e-11
      4.81429396e-10 -1.36788539e-10 2.51037469e-10 -6.89868274e-10
      5.00038726e-11 1.25767641e-09 1.16067811e-09 -5.24818800e-10
      -4.59902463e-11 -1.27921645e-10 -3.18694862e-11 3.99384831e-10
      -1.52243305e-11 1.03062625e-09 4.48540059e-11 -4.94212060e-10
      -1.15915944e-09 -6.89844404e-10 2.22243543e-10 6.46057263e-10
      -2.27125485e-10 4.82714424e-10 -6.42597808e-10 -3.49996254e-10
      -1.31421318e-10 -8.59596117e-10 -1.03442921e-09 5.37197953e-10
      6.89543367e-10 6.88028324e-12 -5.93555760e-10 1.98577599e-10
      2.33864844e-10 4.44252746e-10 -2.49221727e-10 -7.25542737e-10
      3.24726052e-10 1.15432081e-10 -4.03980543e-10 -2.74332446e-10
      -4.59948496e-10 -3.53038952e-11 1.50211432e-09 -3.49234308e-10
      4.48756032e-10 2.25355030e-11 -2.55561156e-10 4.08562351e-10
      2.28316796e-10 1.42924161e-09 -2.81802554e-10 3.23400862e-10
      -3.26398214e-10 -4.41304410e-10 -1.03533115e-09 7.10252079e-10
      6.51073084e-10 8.15314816e-10 -1.12931872e-10 7.19594051e-10
      9.73026215e-10 3.07093379e-10 3.28973154e-10 5.19693788e-10
      -2.48347676e-10 1.74614889e-11 8.37082417e-11 1.51865187e-10
      7.91137017e-11 4.44951825e-10 -6.65191582e-11 5.80818338e-10
      1.02370479e-09 -1.57588609e-10 1.53889998e-10 2.74540807e-10
      6.71261269e-10 -9.28189886e-11 1.21029159e-10 -9.74382020e-10
      9.16452858e-10 -4.98180441e-10 -1.01168107e-09 1.54772362e-10
      3.46087131e-10 -7.84614318e-10 -1.43201861e-09 -1.24236343e-10
      -1.34459532e-09 5.07182574e-10 4.05551426e-10 -2.41780512e-10
      -6.90986546e-10 7.09217074e-10 -1.29869482e-09 1.28613387e-09
      6.28204988e-10 8.25375213e-10 -7.59838248e-10 -9.10529319e-10
      -1.24995880e-09 -2.42806841e-09 -3.54191287e-10 2.35896684e-11
      -4.70369299e-10 -1.01338704e-09 -7.15482562e-10 -7.55009000e-10
      -1.51312340e-09 -8.68524141e-10 -4.86505836e-10 -4.19967561e-10
      -4.90872287e-10 3.30422717e-10 2.94950731e-10 3.62374908e-10
      -1.14064880e-09 -1.10722409e-09 -1.92447236e-09 -8.09938089e-11
      -5.94077704e-11 -6.78380907e-10 -8.64526339e-10 -9.15414633e-10
      -9.14460951e-10 -1.23652377e-09 5.18455175e-11 -9.28469024e-10
      -1.09214293e-09 -1.61127611e-10 -2.56850097e-10 -3.72818110e-10
      3.95380603e-11 -5.33753264e-10 2.16629020e-10 -4.01197492e-10
      -1.68864489e-09 -1.03121754e-10 -6.09716388e-10 7.47063134e-10
      -3.54669905e-10 -5.42079437e-10 -9.46704826e-10 -1.50305690e-09
      -6.29539088e-10 -1.13369170e-09 1.61241284e-10 -3.46377094e-10
      -1.26440314e-09 -6.30994756e-10 3.60606378e-10 -1.00708131e-09
      -1.97088035e-09 -9.98588212e-10 -1.21317079e-09 1.72820383e-10
      -1.22731103e-09 -4.82642593e-10 -1.38276002e-09 -1.89921434e-09
      -1.61117186e-09 -2.12835793e-09 4.77036577e-10 -2.86268453e-10
      -3.53451823e-10 8.36114025e-11 -9.07961276e-11 3.61673774e-10
      6.40792863e-10 -4.49734694e-11 1.04279485e-09 -4.76133744e-10
      -5.69222058e-10 2.60918405e-11 -6.87320312e-10 -1.99270087e-10
      4.81347150e-11 -1.17643073e-09 -9.70928782e-10 -1.59746516e-09
      9.77522837e-12 -3.22616621e-11 1.75547979e-10 -8.21936075e-10
      -9.22134660e-11 5.25935372e-12 -4.27973379e-10 1.79370324e-10
      -2.98370079e-10 -1.02759225e-10 -2.77243423e-10 7.98005162e-10
      1.04635445e-09 -1.98507599e-10 1.56834845e-09 -1.03527076e-09
      -1.21762833e-09 -3.07009890e-10 3.23802013e-10 -1.63722058e-09
      -1.18823973e-09 -5.39788547e-10 -2.43067039e-10 5.28850075e-10
      -1.27940702e-09 -3.59947072e-10 -3.75904946e-10 -1.49882962e-09
      -3.88220706e-10 -3.51519647e-10 -4.29362490e-10 -9.47056877e-10
      -3.85734722e-10 3.64845598e-10 3.58718916e-10 -1.34047240e-09
      -1.19271171e-09 -2.98237740e-10 -2.12597481e-10 -1.58308422e-09
      9.66753344e-10 -2.31646063e-10 7.05949521e-10 2.99409025e-10
      -5.69124525e-10 -1.56551561e-09 -5.79376165e-11 1.77031134e-09
      2.08246712e-10 5.91306171e-10 -6.12685874e-11 -5.69419345e-10
      -7.66551267e-10 3.14496040e-10 -2.77829398e-10 6.11755036e-10
      4.80677276e-10 -2.62575239e-10 7.99507682e-10 -9.42354417e-10
      7.44159012e-10 6.36203035e-11 -1.30889943e-09 -1.21884414e-09
      3.99219408e-10 -1.97835415e-10 -5.91286686e-10 8.08798722e-11
      -2.43132126e-10 7.32620964e-10 -1.32219694e-10 -5.01681726e-12
      -2.27202176e-12 1.03152431e-09 -1.37593534e-10 -2.87102453e-10
      -2.43227443e-12 -7.53174412e-10 7.92201860e-10 9.33156663e-10
      4.20427027e-10 -6.76690259e-10 -7.62071656e-11 -5.97761007e-10
      2.71308837e-10 9.48453205e-10 -2.12134932e-12 -8.88770113e-10
      -1.88690369e-10 -1.65764980e-09 6.73181066e-10 4.05913636e-10
      1.34911263e-10 5.19416843e-10 3.72660541e-10 5.08762643e-10
      1.24209876e-09 9.16824186e-11 1.38126940e-10 -4.04780209e-10
      -8.11119727e-10 -1.14404175e-09 1.27087152e-09 -2.74400530e-10
      -3.47497087e-10 1.04198955e-10 8.25461088e-10 -1.16033801e-10
      1.68559888e-10 -2.27238575e-10 -1.08680998e-09 -1.41375245e-09
      -2.02191333e-10 -1.44716972e-09 -3.72656295e-10 -6.99226121e-10
      -5.97780714e-11 6.62915417e-11 -1.46682422e-09 -1.60317171e-09
      -1.52358171e-09 5.97937311e-10 -1.58785907e-09 -2.81021144e-11
      3.28360422e-10 -5.81441895e-10 -6.64057254e-10 1.04367537e-09
      -2.15405763e-10 -2.27254304e-09 -1.46698198e-09 -1.14129173e-09
      -1.32667155e-09 2.85483248e-10 7.98687894e-10 -2.45869908e-10
      -8.21910873e-10 -1.00601272e-09 -8.43191295e-10 -4.59729005e-10
      -3.67054998e-10 -7.21718296e-10 -1.64268307e-10 1.25275054e-10
      -5.42129508e-10 4.14578094e-10 8.13457468e-10 -8.97812602e-10
      1.76024295e-09 2.28297359e-09 1.16808818e-09 3.09165304e-10
      9.05722858e-11 1.45073054e-09 6.53750188e-12 3.69914738e-10
      -2.39510606e-10 5.37973610e-10 -2.70336947e-10 3.02397718e-10
      7.34323879e-10 -3.04753472e-10 -4.44586090e-10 -1.86587811e-11
      5.06911901e-10 -1.54704985e-10 -5.82292048e-10 -3.73713976e-10
      1.05772544e-10 1.08461164e-10 -2.26264035e-10 6.39555242e-10
      6.40678274e-11 -7.00299485e-10 4.13527927e-11 1.05817310e-09
      -3.77996134e-10 1.80589044e-10 8.02486799e-10 -3.27829902e-10
      7.94116051e-10 4.31718356e-10 -1.52129878e-10 9.27472044e-10
      3.11851739e-10 -5.51702739e-10 -2.43843917e-10 -1.45200338e-10
      5.15591236e-10 1.13860643e-09 1.55876242e-10 1.52187751e-09
      1.17932408e-09 4.34324410e-10 -1.04086773e-09 -3.20445025e-11
      -1.42263687e-10 4.53437177e-10 -2.81728363e-10 -1.56912972e-09
      2.47529386e-10 -6.27523422e-10 4.57560129e-10 6.37209119e-10
      1.66783243e-09 6.42770004e-10 9.02867725e-10 3.68756664e-10
      -2.85514445e-10 -7.73542619e-11 -9.86091653e-10 9.31020469e-11
      -9.04383179e-10 -2.03569481e-10 -7.11402159e-10 -1.79390292e-09
      1.09805276e-10 -8.08313361e-10 -7.83893395e-10 -2.22489416e-10
      -3.68653774e-10 -1.23471355e-09 -2.36304154e-09 -9.63329083e-10
      9.14175347e-10 -3.33939154e-10 -8.20325030e-10 1.24809452e-09
      1.83817517e-10 -1.02831166e-09 -2.06819695e-09 -2.45230147e-09
      -2.39733927e-10 1.93675839e-10 -1.79506590e-10 6.66074473e-10
      -4.04702577e-10 -6.71591727e-10 -6.19091889e-10 3.21116018e-13
      3.00513725e-10 1.54174640e-09 2.06308803e-10 -7.24019067e-10
      -8.52104665e-10 -1.27218269e-09 -9.66775882e-10 -4.56616411e-10
      -1.04974751e-09 -4.20293189e-10 -1.40554435e-09 -2.05801109e-09
      -2.94861097e-12 -1.62558711e-09 8.14820156e-10 1.80308823e-10
      3.00511144e-10 7.76290865e-10 -1.03444686e-09 1.01878606e-09
      4.43718784e-10 -2.88700591e-10 -4.83982021e-10 -2.39896963e-10
      3.29781896e-10 2.90314960e-11 1.78704371e-10 -1.53060356e-10
      -4.81841678e-10 5.85814661e-11 4.47667875e-10 -1.34561997e-11
      4.83444951e-10 6.33634312e-10 1.20572857e-10 -9.32346311e-10
      4.06223444e-10 9.91104088e-10 1.05187381e-09 2.63900374e-10
      -2.38520870e-10 -4.19781675e-11 -1.09743226e-09 2.90107494e-10
      3.01668163e-10 -1.46208462e-10 -3.38125805e-10 -1.11602672e-10
      -1.62431908e-11 -5.22235477e-10 -6.66402267e-10 2.42599330e-10
      5.61978797e-10 -2.78342627e-10 -4.94734358e-11 1.13870947e-10
      1.02699382e-09 -4.86439056e-10 -2.52274701e-10 -1.08805638e-10
      -9.15353793e-10 -3.51922137e-11 -7.46887607e-10 -2.10973378e-10
      -9.56276280e-10 -1.59238900e-10 -1.62667768e-09 7.03632319e-10
      1.02864794e-09 -3.41104395e-10 2.17960872e-10 -5.88231797e-10
      9.64983315e-10 -8.37422770e-11 -1.80103765e-10 -3.10480419e-10
      -6.18426921e-10 1.70600353e-10 1.15114938e-10 -5.03309783e-10
      -3.95420974e-10 9.82345177e-11 4.66767847e-10 -1.32496136e-09
      -6.15500845e-11 -1.07872863e-10 -7.50787765e-10 -1.10339027e-09
      -8.96673624e-10 -1.79628556e-09 -1.23970922e-09 5.37679568e-10
      4.88468543e-10 -4.39303149e-10 1.57728705e-10 -5.26652943e-10
      -1.70949546e-10 -6.97526314e-10 -3.19169663e-10 2.62118771e-10
      -1.30039934e-09 -4.45245896e-10 5.52175458e-11 -3.18945204e-10
      -7.53289042e-10 -7.87857446e-10 -7.54593665e-10 -1.58322588e-09
      -2.98194580e-10 -3.60039248e-10 6.85532797e-10 -1.42531695e-10
      -5.95226646e-10 -5.96629801e-10 -1.01066454e-10 -1.29298883e-09
      -1.27599253e-09 -8.37204528e-10 -1.36041101e-09 -7.94270039e-10
      -5.59705227e-10 -2.26015401e-10 2.41361886e-09 -1.27624677e-09
      1.22964694e-09 1.48668675e-10 2.19540094e-10 -3.12326193e-10
      -2.24858659e-10 4.48979243e-10 8.15197965e-10 1.35669531e-09
      -5.65347935e-10 5.44252109e-11 -7.10213499e-10 -5.72156433e-10
      4.81853557e-10 -8.64369909e-10 4.23538621e-10 5.97860927e-10
      -4.69623784e-11 9.75303394e-10 -4.85671892e-10 4.11220974e-10
      -5.64643943e-10 -5.76373359e-11 -2.97496888e-10 1.28338595e-09
      9.76727699e-10 -6.15026585e-10 5.01496566e-10 1.03156383e-09
      1.32396663e-10 7.87317045e-10 1.04616560e-09 1.04303433e-09
      -5.34598199e-10 -2.59544136e-10 9.49651580e-10 -5.39299438e-10
      1.32276168e-09 6.34159558e-10 1.56483770e-10 2.67878775e-10
      1.47860635e-09 5.22249355e-10 3.87472221e-10 -3.48513107e-10
      4.18113114e-11 9.96329796e-10 -3.37813083e-10 -1.53305268e-09
      -5.51842294e-10 1.40841994e-09 1.55231983e-09 -6.97807645e-10
      -9.44581774e-11 -9.39332084e-11 1.15318721e-09 -1.10896492e-09
      6.20615059e-10 1.26119470e-09 3.63877178e-10 -1.06361053e-09
      -6.17702944e-10 -1.26843258e-09 -1.07418940e-09 -6.29250485e-10
      6.39635012e-11 2.96038555e-10 1.13801010e-10 -5.97528638e-10
      4.69435935e-10 2.14528895e-10 -3.49989308e-11 5.48995849e-10
      9.04564978e-10 -1.68951214e-10 -8.50540416e-10 1.77485837e-09
      2.61654837e-10 -3.13470527e-10 -1.73339176e-09 -9.34813338e-10
      -5.65192171e-10 -2.09850626e-09 -7.12180759e-10 -1.87690885e-09
      2.75987115e-11 -7.79739717e-10 8.54191329e-10 -4.68689920e-10
      -1.33832712e-09 -8.26753332e-10 -1.09414122e-09 2.85439339e-10
      1.02933295e-09 1.28937416e-10 -2.76887874e-10 1.49953147e-10
      -1.01252517e-09 -1.55965474e-09 -3.47143314e-10 -1.11972848e-10
      -2.81651730e-10 -7.12295667e-10 -6.91541879e-10 -6.32356251e-11
      -1.26744684e-10 4.30510988e-10 -1.04598452e-09 2.37142916e-10
      -4.56837235e-10 -1.70496317e-09 1.39262213e-10 -9.84280102e-10
      -8.30243152e-10 -1.14039744e-09 -1.63859371e-10 -1.16917254e-10
      7.32215955e-10 -1.22484023e-10 -1.18850363e-09 -4.17515938e-10
      -8.10458700e-10 -7.04253489e-10 -1.58294863e-10 6.31016073e-10
      -4.45334082e-11 -6.42785714e-10 2.72138007e-10 -3.90160321e-10
      4.11826934e-10 -7.15962623e-10 -1.45609760e-10 7.22195526e-10
      -4.75730455e-10 2.33923131e-10 -1.32371814e-09 8.76208550e-10
      5.54359114e-10 6.97884361e-10 7.39013795e-10 2.00761657e-10
      5.43235734e-10 1.26138699e-09 3.06565523e-10 -8.97640573e-11
      -7.92043264e-10 2.66434791e-10 -3.87354038e-10 -1.32668521e-09
      -7.60863525e-11 -4.37762854e-10 -1.87910043e-09 -8.60432614e-10
      -5.57068391e-10 1.50471280e-09 -2.76220366e-11 3.36344286e-10
      -6.26099450e-10 1.24573452e-09 -6.83759716e-10 5.85743232e-10
      -2.63581712e-10 4.00057071e-10 -8.56578086e-10 2.38497611e-10
      -6.46794174e-10 3.06920434e-10 1.21139723e-10 -7.25491056e-10
      -7.68525410e-10 1.41661538e-09 -5.65312908e-10 1.71120368e-10
      -2.24776184e-10 9.81639880e-10 -8.92601826e-10 -4.77412110e-10
      -1.16525067e-10 6.16987406e-10 -2.39901932e-10 2.05947648e-10
      2.84604840e-10 -8.88667029e-10 -1.00447839e-09 4.62524949e-11
      1.91223171e-09 -3.29449773e-10 -4.33038189e-10 1.02072362e-09
      -5.78996739e-10 -1.63526789e-10 -2.05788431e-09 -1.42760959e-09
      -1.63516556e-09 -8.49976867e-10 -2.42176085e-10 6.36619257e-10
      4.27744257e-10 -3.74839521e-10 1.39890294e-10 -5.43282141e-10
      -1.29317368e-09 -5.62809410e-10 4.65627731e-10 -6.30658789e-11
      1.04345504e-10 -8.68257549e-11 -3.42918666e-10 -2.91345753e-10
      -3.50147855e-10 -8.95888641e-10 5.42864864e-10 -4.72813844e-10
      -1.55553148e-09 -1.02963693e-09 6.46581344e-10 -4.84161600e-10
      7.21569804e-10 -2.57414562e-10 -1.39240397e-09 -5.82714710e-10
      -8.50944204e-10 -1.21803045e-09 -8.67595717e-10 -1.17032173e-09
      -1.05981057e-09 4.36895575e-10 4.80744715e-11 1.12293829e-11
      -6.59046318e-10 -1.06140996e-09 -1.04175768e-09 1.82591539e-10
      7.77613529e-10 -2.10726957e-11 -4.94789709e-10 -6.22337737e-10
      -9.55870494e-10 -1.62513858e-09 -2.81472046e-09 -1.43493095e-09
      -1.07519293e-09 -4.14697915e-10 -2.59316041e-10 3.34390821e-10
      7.11402742e-11 -1.12941345e-09 -3.57613453e-11 -1.64010683e-09
      -7.89692089e-10 -5.04723430e-10 5.15502696e-10 -1.37506007e-09
      7.31252059e-10 2.66780237e-10 1.34172229e-09 5.68830427e-10
      -1.42379220e-09 -1.98031258e-09 -1.43061007e-09 -1.23985955e-09
      -1.39758027e-09 4.86041429e-10 -1.19747923e-09 1.03019093e-10
      -8.05709111e-11 -4.51564008e-10 -1.06203701e-09 -4.65900651e-10
      -8.69170902e-10 -3.99833056e-10 6.12506018e-11 -3.61202235e-10
      -6.19646834e-10 -7.99257771e-10 -9.83560455e-10 -1.85253235e-09
      -1.56538427e-09 -1.14112020e-09 -4.71469475e-10 2.36275340e-11
      -1.07267251e-09 -7.72617470e-10 3.19128973e-10 -1.26525498e-10
      7.63509533e-10 -7.13732351e-10 -1.27729527e-09 -6.28824603e-10
      -1.22794608e-09 -2.56805088e-09 -1.33961531e-09 -6.50277998e-10
      -5.19160881e-10 -1.02367552e-10 -6.97730096e-10 -1.33961031e-09
      -9.74520131e-10 -5.08951659e-10 -3.61101454e-10 -9.32671385e-10
      5.29328026e-10 -4.12692658e-10 -8.02853506e-10 5.92285665e-10
      3.95995958e-10 -5.48004808e-10 7.00934699e-10 -6.82812487e-11
      -8.26214652e-10 -9.27848687e-10 2.03832895e-10 7.19826532e-10
      -1.34170575e-09 -2.46556178e-11 -4.35995351e-10 8.04830074e-12
      4.17625212e-10 3.02417924e-10 -4.99887409e-10 -9.23273347e-10
      -1.80932258e-09 -4.13629270e-10 -1.24110922e-09 2.22901142e-10
      5.75145660e-12 4.45044002e-10 -4.87627994e-10 -7.59244112e-10
      -2.42886211e-10 -1.74796566e-10 6.48572529e-10 -2.58559590e-10
      1.49585178e-10 6.98762437e-10 -1.11125842e-09 -4.63309002e-10
      3.50680707e-10 4.78899420e-10 6.29061581e-10 5.49310153e-10
      6.56278087e-11 -3.89786065e-10 6.07977446e-10 -7.59290242e-10
      6.54686139e-10 -3.08020415e-10 1.04185993e-09 1.02605946e-09
      -1.17096433e-09 2.32579428e-10 -6.45684617e-10 -4.36599840e-10
      6.87298773e-10 8.07637568e-10 -5.81168967e-12 -2.90329816e-10
      -6.59220734e-10 -1.54646340e-09 -5.04813913e-10 4.77418605e-10
      6.97551794e-10 -8.17728218e-10 9.81162512e-11 -4.93352581e-10
      7.47659781e-11 6.67110867e-10 1.68618841e-10 -6.65734523e-10
      4.21348290e-10 4.16758072e-10 5.47922707e-10 7.73879349e-10
      -5.17217602e-10 -2.90091146e-10 4.56995192e-10 2.07544620e-10
      5.55081203e-10 1.75334650e-10 -7.87592713e-10 7.88138665e-10
      -7.50039031e-10 -1.31861400e-09 -5.00006647e-10 4.19019958e-10
      5.81062198e-10 2.07520584e-10 -2.98030711e-10 -1.20436638e-09
      -9.70840519e-10 -6.28251340e-10 -4.26552293e-10 1.91197447e-10
      5.75626768e-10 7.43482498e-10 7.41391615e-10 8.65789718e-10
      -6.71176947e-10 -4.65781025e-10 -1.10785303e-09 7.83809739e-10
      -3.77604788e-11 1.88042484e-10 -1.36074729e-09 -5.89593929e-10
      -8.80120032e-10 4.57794150e-11 1.63472702e-09 1.54189805e-09
      -3.21949328e-10 4.19930202e-10 -4.64559669e-10 5.18792453e-10
      -1.80169796e-10 -1.13158460e-09 5.33277866e-10 -2.04851580e-10
      -5.81716168e-11 3.11862619e-10 1.07543419e-09 1.54282725e-10
      -6.33122943e-10 3.24762925e-11 -8.63825331e-11 6.24563457e-10
      -9.44982204e-10 5.75663295e-10 7.53776652e-10 2.67510070e-10
      1.43900392e-10 3.91912086e-10 3.42599421e-10 2.22804261e-10
      2.96590363e-10 -1.46339174e-09 -4.14596163e-10 1.06335593e-10
      -7.38264519e-11 -6.14780227e-10 -3.80803765e-12 3.06226017e-10
      -1.86646698e-10 -6.93282265e-10 5.12201337e-10 -6.89824309e-10
      6.14019890e-10 -1.62855590e-10 5.47879020e-10 -1.40731082e-09
      1.56650193e-09 7.49897866e-10 2.71989514e-10 3.17940646e-10
      1.81630683e-10 4.64743799e-11 9.72539937e-10 -2.34724878e-10
      6.43136044e-10 -2.59533779e-12 -9.29946536e-11 -6.01067113e-11
      4.67367811e-12 -1.07308842e-10 -1.81095111e-10 -2.23376817e-10
      2.87513208e-10 -8.60471472e-10 1.00333009e-09 5.54672253e-10
      -1.11314558e-09 -7.94481814e-10 -1.26097666e-09 8.68844163e-11
      3.58888863e-10 3.12448595e-10 -2.42307036e-10 -1.12122722e-09
      -8.82030768e-11 -1.20610993e-10 -9.75004452e-11 -9.24095134e-10
      -6.54021670e-10 -2.26804811e-10 -8.75762851e-10 5.67818792e-10
      1.64706648e-09 7.43049122e-10 1.06844034e-09 5.72423532e-11
      7.90716992e-10 -8.72960371e-10 -2.90433538e-10 -2.09300924e-10
      -4.74694228e-10 -6.17182916e-10 6.29218455e-10 -5.01628794e-10
      -7.84151410e-10 1.54959337e-10 -4.36302470e-12 5.41267198e-10
      5.53734836e-10 2.70022477e-10 2.63583322e-10 -1.15654342e-09
      3.22028793e-11 4.69421113e-10 2.69897438e-10 5.30962385e-10
      1.11846921e-10 3.93841681e-10 -1.03559375e-11 -8.19354862e-10
      -4.35271624e-10 -1.01659248e-09 1.59189606e-10 1.31904598e-10
      4.57837684e-10 9.42472766e-10 3.48310075e-10 7.59982244e-10
      1.92325531e-10 1.61073943e-09 -2.23029359e-10 -5.67720759e-10
      1.46783719e-09 -3.94432716e-11 8.17286683e-10 3.41672073e-11
      5.21060028e-10 3.27312788e-10 3.06246362e-10 -9.39397005e-10
      5.87796756e-10 -5.67062119e-10 1.96513597e-10 5.52783430e-10
      -6.07196460e-10 -2.40508224e-10 -3.06875719e-10 -2.47438514e-10
      -3.46617263e-10 -1.24280908e-09 -1.10719073e-10 -2.40045733e-10
      -1.79603804e-10 -3.83204524e-10 4.25576629e-10 1.24203237e-09
      -9.76014047e-10 2.43075889e-11 1.30663436e-09 -2.73853412e-10
      -3.52548379e-10 2.52043775e-10 1.11436327e-09 -2.74795076e-10
      -7.30478456e-11 -3.67861103e-10 5.07642782e-11 4.77157341e-11
      -7.38224315e-10 -2.26996165e-11 8.62804939e-10 5.23541432e-10
      -1.99044559e-10 1.35753886e-09 5.76695192e-10 1.02860687e-09
      4.82463014e-10 -3.17177146e-10 -1.53224419e-10 -1.02110820e-09</_></support_vectors>
  <decision_functions>
    <_>
      <sv_count>1</sv_count>
      <rho>-2.7145755421287276e-08</rho>
      <alpha>
        1.</alpha>
      <index>
        0</index></_></decision_functions></my_svm>
</opencv_storage>
